-35 16 -35 11 10 17 20 23
-14 -17 11 19 6 12 -2 -17
13 -36 -21 16 -16 -7 -30 -13
-18 22 -2 -3 26 -62 -17 18
-2 -42 -23 -16 -6 -26 -10 -7
-25 -24 -18 -24 33 25 -27 20
-14 -3 7 -1 -10 -9 -29 -39
19 -27 -8 25 2 -32 6 9
11 -2 10 -11 5 25 28 -18
15 36 9 -18 14 -11 -25 22
-21 26 14 3 -11 -27 -16 10
-18 44 -8 -44 53 -25 -17 25
7 0 4 -21 21 -13 -28 -24
-26 10 20 -31 4 -13 16 -31
-28 6 -12 1 -12 -4 -16 -20
25 1 -4 24 28 -21 -8 3
-26 5 13 -25 -43 -13 -9 23
12 51 11 -17 -3 5 -6 -22
-24 8 13 18 14 36 17 2
-26 -22 -24 -8 -63 28 0 28
-7 47 -45 -15 15 -32 19 1
3 9 17 11 -6 30 8 -8
-31 -20 0 11 -10 -4 -21 -4
-12 7 -34 7 -8 -20 11 2
7 5 4 20 -14 -25 18 -6
-19 25 -33 5 -16 -19 -23 5
10 -27 -22 -34 6 17 -14 -4
20 9 1 -1 -16 -52 -28 -7
-14 -5 -33 1 4 2 -4 30
8 21 0 21 -3 18 26 -37
24 31 21 8 -47 -11 11 -48
-9 9 -12 -35 -8 -40 6 16
-13 -19 -4 0 -37 17 -6 18
27 27 18 -14 -18 -21 18 0
-21 27 -5 -13 1 -2 19 -9
37 64 -25 9 -149 -61 18 -1
21 33 -15 1 -26 19 24 3
11 44 10 20 -55 20 -8 -29
7 70 -9 16 -38 -28 -40 6
29 10 -32 -23 -68 -58 -13 -22
27 21 -37 -24 -278 -10 -26 23
12 88 26 30 -21 16 -3 13
-5 30 27 26 -34 16 -5 -25
9 63 4 -11 92 -44 25 0
35 62 -26 51 -19 -23 19 -39
-4 49 -23 -14 -22 23 -6 -57
-17 9 -16 17 -10 18 -29 29
16 34 14 -29 -88 -45 8 -22
-7 12 24 -18 -4 14 16 -12
-23 -24 15 -7 -3 17 13 23
-4 -28 21 -2 -16 3 3 -18
-12 -16 -2 11 -1 -4 7 -35
-4 -16 -34 -44 -3 41 21 36
7 -33 17 -11 9 30 32 -37
-18 -30 2 11 16 41 0 -17
-7 11 22 17 3 -10 -3 23
15 -31 -4 -9 27 29 5 17
2 -23 -10 7 33 32 -20 28
-12 63 17 1 104 7 41 -29
-5 7 -28 13 -19 -13 14 -40
2 -53 -7 -3 -241 36 -15 22
-21 29 13 33 -10 -16 1 -36
10 23 -5 7 -1 -6 -8 -25
13 33 -37 -41 55 -45 25 -3
24 -13 -11 -1 -17 -5 18 -19
-29 -5 1 -6 -43 -4 2 16
2 66 0 22 -7 27 24 -49
18 0 14 -10 -2 -23 25 -9
-2 -33 -1 -32 7 27 25 4
3 30 -10 8 38 8 18 -16
-8 -43 6 -3 -37 -10 -18 0
-20 26 19 -13 -5 -33 -13 30
