10 9 0 -2 -2 7 3 -5 19 -15 0 8 -7 -2 5 -1
11 -13 5 1 -14 12 -1 6 -2 -11 0 4 20 1 -11 -12
-1 -6 -13 -6 10 2 -5 -20 5 14 -6 5 -10 -9 1 20
11 16 -10 9 24 -15 -1 -4 -13 12 -21 1 -6 -30 -12 -10
-4 -7 -4 -1 -8 1 -1 -1 14 -7 15 6 6 4 -19 -2
1 5 -1 6 15 14 5 3 -11 -8 0 -4 -13 -19 -2 -1
-4 13 18 -8 -11 -16 4 -3 27 21 -24 11 -4 10 -18 -10
-7 8 17 11 -13 -7 22 2 12 -6 -11 1 0 -8 -17 -12
-1 8 8 -14 -14 -3 1 -5 9 21 -7 6 -9 6 4 -4
1 18 5 -4 -12 0 4 -16 -11 -2 1 1 -15 4 9 2
15 15 7 -2 13 1 -16 6 19 -14 -14 3 -2 -15 -4 -14
1 14 11 -3 8 -19 -10 6 -5 7 -14 4 17 -11 7 -15
-13 11 8 7 12 -17 2 -20 13 10 1 21 -8 -11 -1 6
-5 7 2 -10 -21 -7 -19 -1 4 -12 -4 18 1 -16 2 -2
16 -11 -2 4 24 -18 0 -8 -8 -14 -5 -12 -19 -14 16 -23
-3 10 19 15 13 -5 16 -8 0 -20 1 -2 -21 -17 -8 -4
5 0 -9 0 -19 -6 5 -17 2 -6 18 -11 -16 0 11 14
2 2 5 7 -30 19 11 1 -10 -12 15 -6 4 7 0 -4
-1 -6 -1 -10 37 1 -11 -32 -6 7 -2 -8 -26 11 15 1
-1 -11 -1 11 34 -26 9 -39 -7 8 -16 -10 -29 18 7 18
13 -24 -4 12 -24 1 18 6 0 -15 7 -5 8 -18 1 10
7 -2 -2 -1 4 -15 0 -13 0 3 -10 1 -11 13 -8 -3
1 18 27 5 -1 -18 5 3 -2 3 -8 -6 4 -17 -11 -20
-11 -2 12 17 11 -10 20 -7 -2 7 -10 -3 10 3 1 -18
16 16 10 4 1 0 8 4 14 25 -1 7 -3 -4 -7 -4
6 5 -8 14 -12 -2 17 18 3 -16 0 13 7 1 1 3
16 -10 -12 -1 38 -2 -9 17 14 5 5 6 -10 -2 9 8
9 2 4 -5 20 -6 0 21 4 4 -1 1 11 -18 6 -14
-16 10 -1 -3 24 -8 1 5 -1 10 -6 30 0 3 0 21
-6 3 -28 -1 24 16 -1 13 11 -2 -8 30 7 -17 -4 9
9 -6 4 4 34 2 5 1 32 -2 -2 1 -13 2 6 17
-8 3 10 20 17 -1 32 -1 -11 -3 0 8 -7 -4 -16 8
5 -9 -16 1 -3 1 -1 0 7 -3 3 -4 -6 -11 -7 8
9 16 9 2 -27 9 7 17 -8 15 11 -1 4 -2 -8 1
1 0 -6 -5 -7 -1 -11 -19 -16 19 -8 -1 -14 -4 5 8
-4 -11 -1 -8 16 -35 -18 -30 -3 33 -3 5 -10 1 -2 30
1 -20 1 20 -4 7 13 -9 8 5 21 -11 3 -12 2 -3
-10 3 -2 -2 30 -6 -8 -15 1 15 -20 16 6 -6 -6 2
13 11 12 2 6 -11 8 -4 2 12 11 7 2 -12 -8 -13
-11 -4 3 17 27 5 21 1 0 -5 -10 -22 -7 -9 4 -14
2 4 4 -6 -1 -10 12 -3 -1 16 -11 4 3 -13 -20 -3
3 -21 -9 15 1 5 20 5 -14 -13 8 9 10 5 -7 -3
0 -4 5 28 15 -16 -1 13 21 -7 -14 -13 6 -27 27 7
10 -5 6 -15 7 -3 -5 28 -2 -15 -10 7 10 -18 -5 -16
-9 9 -17 -10 27 -17 5 -4 -3 1 15 23 -18 -18 -5 7
-19 8 -16 -9 49 4 -4 -20 -16 -11 -10 4 -11 -14 -1 -2
0 -15 -6 -6 56 -12 -5 4 13 -8 -15 -2 -22 8 19 2
-2 1 9 31 14 -6 22 -13 -7 5 -6 14 -16 -14 -11 3
10 -17 17 14 -1 -1 3 9 14 -3 8 4 -3 -12 15 13
8 -21 15 21 -5 11 23 4 -5 -13 16 -9 24 -15 7 9
1 -6 -8 3 4 0 -15 -4 -7 10 -5 12 -7 -12 -5 9
5 7 5 9 31 -16 5 -13 -4 5 -17 43 0 -25 -15 9
0 -17 6 14 -19 -4 16 1 -1 16 11 0 0 12 -9 10
12 5 -7 3 -7 -6 -2 -6 -8 8 -6 11 -11 -11 -11 0
0 8 15 16 -2 -25 1 -11 -1 7 -14 2 6 10 3 -4
-4 17 17 32 -28 0 26 9 5 3 -17 -9 -6 -15 3 6
-12 -1 3 -7 19 -9 11 -4 -4 22 -11 1 -10 9 23 27
-8 0 7 -2 21 1 2 5 -6 2 -6 -2 -14 3 13 -7
-9 -4 3 8 -18 -2 -2 15 -17 -3 -20 7 -8 16 14 16
-8 24 3 -13 -4 -16 5 5 4 3 -23 18 8 -12 4 -16
-6 -12 -4 12 30 -17 -11 -8 -1 -6 0 16 -4 -32 1 -3
11 -1 -3 12 -29 1 -6 -3 5 -26 -9 20 5 -3 11 10
-9 -4 -8 4 -41 -11 21 -18 11 -12 -2 -2 -10 21 -13 31
-5 6 18 30 3 -10 22 -8 -16 -2 0 -3 -16 -20 -5 6
-5 -8 -4 2 -2 -12 -2 -9 -17 -12 5 -2 -15 -2 2 20
-1 -5 33 15 -20 12 25 3 -2 -20 10 -16 13 -9 17 19
-10 13 7 -7 44 -14 -10 -18 -1 14 8 13 -21 5 20 21
-10 -21 9 30 40 -43 16 -14 -38 14 -9 20 -39 10 3 26
11 -26 -2 27 -45 3 28 2 -11 -17 14 -5 4 -2 -6 16
5 10 -3 10 4 -5 -7 -5 -12 1 -13 23 -4 11 1 -3
5 -4 8 16 -16 -10 26 17 -30 5 -16 4 -5 1 6 12
-1 -1 -16 36 -4 0 45 14 -21 1 -7 -9 -12 -11 4 3
-3 2 16 21 3 -14 19 -6 -9 2 -1 3 -2 0 19 21
3 -22 3 12 -16 9 21 32 -5 -11 -3 10 0 -5 6 -5
5 -24 -19 1 12 -23 -2 7 -93 7 3 -11 -29 40 29 25
-1 12 -3 -15 5 -3 -9 18 8 12 -21 -3 16 -19 6 -13
-8 9 -22 14 34 -9 -2 21 -9 -9 -21 34 16 -24 0 8
12 -10 -23 5 -19 11 8 35 15 -23 -12 42 23 -18 2 0
-3 -8 -18 27 -54 -10 26 7 -3 22 -16 6 -8 9 1 67
-6 -2 1 45 8 -15 47 -8 -21 6 -26 0 -13 -4 -4 15
3 -18 -4 -8 -1 -13 -7 -2 -13 7 2 13 0 -4 -6 -4
2 13 3 20 -32 3 21 8 -19 -8 10 0 3 -12 -7 15
-5 -2 3 -8 20 -22 -8 -13 -16 22 0 4 -23 -4 -14 2
-14 -23 9 11 22 -39 -9 -29 -33 31 -5 2 -12 -13 9 17
6 -6 -2 26 -48 -8 26 -3 -3 -2 7 -6 3 8 6 -1
2 3 -13 5 11 -15 -5 -7 8 15 -13 22 2 1 -6 -12
6 -18 -34 17 6 -1 17 -6 -22 3 4 9 -6 20 0 -14
-10 -26 -5 50 12 -8 40 7 -32 0 -15 -21 -16 -16 8 15
5 -3 7 14 -14 -8 18 -21 2 13 5 19 10 -9 -11 15
-3 -14 -13 27 -13 8 26 24 -10 -18 6 9 18 -1 7 -1
7 7 -3 -7 16 -20 8 -2 -3 -18 -2 -7 -5 -2 13 6
13 -13 -9 -4 -3 -6 0 13 4 -22 -21 1 12 -10 -1 -12
-6 7 -19 5 35 1 2 7 -16 -18 -3 35 -14 -8 4 -4
-13 0 -38 12 40 -1 3 3 10 -4 -7 4 -2 0 13 17
-6 -10 -17 10 14 -21 15 4 -42 11 -19 18 -39 4 25 41
1 -16 -10 41 13 -12 49 -3 -40 0 -9 -4 -22 -10 -2 2
9 -3 -6 8 -3 5 -12 1 11 19 10 16 12 10 6 5
-1 -32 -3 1 -20 11 1 10 7 1 12 -2 23 -1 16 0
-1 -10 -11 -3 -23 0 -15 -2 -7 0 -2 2 -3 -7 10 -5
-7 -3 2 8 27 -1 -9 -7 6 4 0 9 1 8 3 2
7 -8 -3 9 24 -8 4 -14 1 30 1 -2 -8 32 -14 4
7 -11 -10 13 18 2 -2 -4 0 8 -12 8 -11 -3 -12 8
-12 10 7 17 -7 -7 16 0 13 6 -3 -33 20 13 5 -7
-12 -7 -4 18 -11 3 7 6 -10 -20 -16 -6 3 -30 -5 -6
-7 -1 1 -1 26 -2 11 -12 -6 15 -12 -13 -28 -3 13 13
6 -18 7 -2 9 8 6 -4 -8 4 -10 4 -5 -7 0 1
7 -9 11 1 6 -12 -3 22 -2 17 -6 -4 0 -24 15 -5
-1 24 8 -6 26 -14 -8 0 -3 -23 -26 33 11 0 4 -10
10 -6 3 21 -14 0 15 -2 -6 -29 2 0 5 -3 -4 -15
3 -5 7 11 32 6 4 -2 1 -21 6 -2 -2 7 12 2
-5 1 -9 5 -2 -18 22 -6 -10 -9 1 5 -2 14 -1 15
-5 3 8 20 10 -1 4 -4 1 8 5 -9 -25 7 2 7
10 1 -7 5 -10 -10 3 -12 5 12 21 -7 -2 12 0 3
0 -9 -5 4 -20 22 4 6 4 -8 24 -3 20 -14 8 16
0 -4 -1 -11 1 -14 -3 -22 2 23 -13 7 -4 -3 0 -5
-16 -2 -7 7 8 -14 16 -16 -13 9 -11 17 -33 -3 -7 -8
-6 -13 2 4 16 -15 4 -1 -7 17 0 -8 -11 20 -2 20
5 6 6 8 15 -14 -8 4 -4 3 -17 16 -17 14 -10 5
4 -19 13 11 -9 -2 4 23 11 28 -5 -36 -2 18 12 11
-4 -5 -11 24 -7 -4 38 16 -23 4 -4 -3 -21 -22 11 10
6 5 6 8 3 -7 24 -7 -11 14 -7 -2 -3 -11 1 22
3 -17 -15 6 -20 13 7 19 -16 -12 6 3 8 5 12 1
-6 -3 -14 5 19 -46 6 17 -35 5 -2 0 -27 -9 10 1
4 14 8 -12 27 -2 -14 5 -10 -16 -35 14 9 -9 19 -18
12 -2 -8 15 -10 12 -4 8 1 -29 -11 -1 14 -16 1 2
8 -7 -14 8 -5 6 4 22 2 -39 -13 5 27 -17 27 -4
11 -11 -11 15 -15 -11 27 25 -16 -9 -7 8 23 -25 24 15
-4 -17 7 21 -2 0 20 -1 -17 20 -12 2 -30 10 -5 4
-4 6 1 1 1 -3 -5 0 4 2 19 13 7 -1 4 5
-5 5 -11 6 -29 9 4 4 4 2 3 -10 15 3 -14 -9
-14 -13 9 -1 0 -23 -11 -16 -3 11 -24 5 3 -7 -9 -10
-8 15 -5 5 16 -5 -2 -15 -15 8 -15 -8 23 -17 -14 -17
-9 12 13 6 -3 -8 -1 -7 -7 6 9 1 -6 35 -3 5
-7 3 -6 3 11 -10 4 -9 14 2 -15 19 -5 -7 -2 1
-12 -14 -8 2 -15 -4 13 19 -3 9 10 -6 -7 20 16 1
-10 -4 -26 28 3 -12 41 8 -23 -3 8 -12 -19 -17 4 12
3 10 1 12 -15 -7 16 -6 8 7 -1 8 -4 -7 -22 1
-5 -11 -16 13 -20 14 19 7 -2 -17 5 -1 3 4 15 7
10 -14 -2 5 4 -19 16 16 11 -18 -5 -8 14 -6 14 1
-6 -8 -15 -19 11 -11 -8 21 3 -12 -11 12 3 -10 12 -4
-5 4 3 12 1 6 4 2 -11 -19 9 9 -4 -7 12 7
1 -6 0 7 13 2 13 14 -11 -19 0 -1 1 9 19 3
-2 0 -8 9 -3 -22 -3 21 -10 3 -11 -2 -15 -1 0 10
-13 -11 3 18 7 -3 23 -8 -23 4 -12 -2 -27 12 0 3
