9 -22 3 -5 3 -10 -5 -12
-5 -5 16 -15 -7 0 13 -6
3 -1 20 -9 18 18 5 -12
-1 -12 -4 4 -2 -5 -5 3
-15 13 -12 23 13 3 -26 -22
-7 2 -6 7 -20 2 8 17
-2 0 13 -8 1 -2 -5 13
4 -7 16 -22 -9 12 -12 -4
2 -8 4 12 -21 -4 7 12
-9 -8 -3 -7 -5 2 17 -5
0 -14 -12 -12 16 -1 4 20
4 11 -12 10 24 -6 -13 -9
-6 -9 11 -1 -17 14 3 13
0 -1 -8 12 -11 13 -14 -4
6 -1 1 8 -8 3 4 -3
1 10 -16 16 -5 -15 -6 13
-5 14 10 3 6 9 -11 2
4 -12 17 -1 0 -9 11 4
-18 22 -12 12 11 0 8 -7
14 -10 11 0 -2 16 7 1
12 -10 -22 -2 -5 -1 -4 -1
0 -15 21 -16 15 4 9 3
7 17 2 15 -7 -5 -3 -10
16 -19 21 -15 -14 -4 20 9
3 -2 3 -19 8 4 13 0
0 -3 1 9 5 -19 -7 11
-9 -4 6 16 12 -10 5 4
3 4 -5 -16 12 -17 4 4
2 -4 -2 4 -14 -4 2 13
-3 0 -7 -15 8 14 -1 -12
5 3 -4 5 10 -2 0 -12
-12 -6 17 -6 1 -16 8 14
12 -17 5 -12 -3 6 12 6
6 6 -1 -17 3 7 3 -2
2 11 13 2 -17 -4 8 7
12 5 -17 -2 -7 12 -17 6
9 23 5 -41 -32 -18 48 59
16 12 2 1 -1 -11 -9 14
-11 -14 7 19 -5 17 -18 2
7 -6 -2 9 -11 0 -11 11
-16 -8 -13 20 -9 -1 -8 1
-11 15 -13 14 -11 -16 -7 19
15 -20 9 4 -4 13 -8 -7
15 -6 10 -11 8 7 2 -5
-3 -5 17 -14 -16 -10 15 31
-8 -1 -15 6 4 -15 23 7
-21 3 -5 7 12 5 7 -16
-7 15 -10 -1 -7 18 -2 4
-26 15 1 6 10 -11 -1 -12
17 -15 2 -7 -16 17 17 -4
-7 0 4 -6 -1 20 -5 -6
-11 -7 6 5 0 -3 2 -7
0 -15 -2 8 -6 24 -25 -15
-9 7 5 3 -11 13 -12 0
13 -17 -4 -11 19 3 16 -6
2 5 1 2 9 -10 -10 -3
6 9 -10 16 -13 10 -9 -7
-7 22 -7 -12 -2 -1 -12 -1
-19 -14 -9 12 12 -13 -18 12
7 7 -4 1 -3 0 7 -9
6 2 3 -4 -17 -28 26 24
-7 9 11 -13 -2 -12 16 -9
-3 -14 21 3 25 -12 -7 -5
-11 5 4 -4 2 12 7 4
14 -12 10 7 -3 1 2 -7
16 -9 -13 -10 10 -18 -6 -15
-1 0 -14 8 9 -12 12 6
-12 11 -9 -8 -7 5 0 16
-8 -6 -2 -9 -1 1 -8 4
-7 -5 -2 -6 -3 4 6 -8
10 4 7 0 -1 -4 -8 -7
-11 3 -7 5 4 -17 -7 -4
