7 -2 3 -1 2 3 -8 -10 1 -9 0 -14 -12 -5 -9 2
-1 -4 1 0 -6 0 -2 8 10 15 7 -8 8 14 -2 -15
-7 -5 8 16 -12 -17 -3 -6 11 6 -12 -18 9 -4 16 2
9 3 2 13 -16 2 4 7 7 -1 11 8 6 12 8 -3
-3 -4 -4 -2 -3 -10 -5 7 6 14 -4 10 7 -2 -4 -9
-2 -8 9 6 -1 -5 5 3 16 3 -1 -3 -1 3 6 -3
7 1 8 -11 6 -1 -6 -6 -3 -8 7 -4 -3 -11 -6 -6
3 6 8 -4 6 11 4 -4 -1 3 -1 4 -2 -5 -9 4
-6 0 -5 -16 0 -17 -5 4 -7 -9 -17 -3 -21 -6 4 7
1 -5 3 -6 -4 0 -3 -7 -3 -1 13 4 -1 1 10 -1
1 -3 13 8 -1 -8 -9 -4 -9 -8 5 -10 -8 6 -11 0
-6 -6 0 6 -7 -10 7 2 17 -3 -10 -7 4 -8 2 2
5 -7 2 34 -14 -13 1 5 19 -1 -1 5 -3 -1 -12 -3
-7 -9 8 5 -9 -13 5 6 -9 -3 5 13 -11 -2 7 -18
11 -5 -3 34 -31 -24 3 4 4 5 -1 5 19 3 -20 -5
-5 6 0 -11 1 11 -8 -6 2 1 10 2 -7 2 -9 -8
7 -6 3 -12 7 -9 -11 3 -1 -1 3 -1 -8 -1 -14 -7
6 -15 9 3 4 1 1 7 24 23 3 -3 20 8 -2 5
-6 -5 6 -22 3 -11 -2 -5 -3 1 -12 -23 -1 -11 0 -9
-8 0 19 6 -5 6 4 0 12 -21 -12 9 20 5 -3 12
3 -4 3 -1 2 -12 -2 10 10 17 7 15 17 4 6 7
1 -9 6 13 10 4 -5 15 21 0 4 -13 7 1 11 -3
-3 -1 11 -15 23 3 4 -4 -2 -8 -13 1 -9 -17 -38 4
9 3 10 7 9 17 -4 -2 4 1 14 -3 -5 -9 -7 1
7 -10 15 11 -4 -20 -3 1 -12 -17 9 9 -16 -9 34 -5
6 -6 2 -12 5 -7 -2 -11 -1 3 7 13 -1 9 13 0
10 0 5 2 16 0 -2 0 4 -9 -1 -8 -9 -15 -20 2
-2 -6 -2 -2 5 -5 -2 4 17 17 6 -9 9 9 28 -12
7 1 1 33 -11 -6 -10 9 35 -5 3 -24 17 8 20 -15
-2 -3 4 4 -3 19 -6 3 15 -2 18 9 -3 2 -10 4
-6 -12 8 21 -32 -26 -3 6 20 2 -1 -6 8 -4 21 -10
5 -4 1 9 -6 2 4 -2 -13 1 6 16 -20 6 11 12
3 -7 5 -4 8 0 -3 4 -2 0 -11 -3 -3 0 -10 -5
5 -7 15 8 6 14 -2 8 7 15 5 6 -3 6 -1 -4
5 -9 -4 12 2 -14 -3 -9 -15 2 -14 -24 -7 6 12 -7
-6 -5 9 24 6 9 3 3 4 -1 3 6 1 2 3 5
5 -4 -2 4 1 10 -3 15 -7 7 4 0 14 4 4 -9
-4 -1 10 12 0 -8 3 -1 23 0 -2 -11 -9 -7 7 -2
-3 0 3 4 -4 6 -7 -7 -19 4 -10 5 -2 -1 -17 -11
6 4 9 -9 0 12 -1 -5 3 -3 -8 4 4 -8 2 -1
-1 -11 13 -17 -2 -14 -5 -2 -7 -31 -10 11 -19 7 9 -4
0 -6 6 -10 5 -4 -1 -2 5 8 4 1 5 14 4 -10
1 -2 11 1 7 3 -11 -3 -5 -5 0 -7 -3 -2 4 -8
-8 -9 13 -5 -7 0 16 13 5 -11 -3 -11 13 2 8 -10
2 -5 -5 28 -8 -4 14 -1 7 -7 6 -12 13 -5 3 5
-2 -4 9 9 -5 8 -10 10 3 2 13 7 -1 -9 14 -10
-8 7 10 20 -19 -11 11 -11 -1 -7 6 -22 13 2 4 -9
9 -13 -1 -10 1 5 -3 5 -7 -2 -3 23 -21 8 -9 -4
4 -1 10 -9 -1 4 -5 -4 0 -13 -12 -8 -10 -8 -3 2
-1 -1 -16 -6 8 -3 5 20 7 10 1 -8 33 16 -5 -2
7 -5 -2 -2 -6 -7 -11 -16 12 -6 -7 -16 8 -2 -2 3
0 3 -3 22 5 2 12 11 17 0 8 -9 5 3 -19 -3
7 -3 -23 1 0 -16 4 21 10 -8 -10 -16 37 18 5 -2
6 -11 -6 11 -2 -1 2 15 14 1 -8 -5 16 -2 15 -1
2 8 0 -24 1 -7 -5 -2 -5 -10 -4 -2 -4 -5 -7 5
-1 9 6 6 6 -1 -6 1 -10 1 -6 0 9 2 6 11
-3 -9 15 16 -2 -4 -23 1 -8 -20 -6 -10 -12 -2 11 -5
7 -4 21 2 -10 3 -15 -3 -10 -7 -4 -7 1 -4 -7 -8
2 3 1 -4 -5 -6 -4 -10 -2 -16 8 -13 -5 0 -2 0
-10 -9 7 -5 5 -4 -1 -1 4 5 -1 9 5 5 -6 -2
8 8 -16 21 -12 -9 12 1 5 0 1 -20 5 7 -14 -7
-11 -2 -14 14 1 -4 -1 7 10 -1 1 7 -3 0 -1 -5
-1 -16 -13 17 -28 2 -6 -16 21 5 9 -16 3 1 -19 -8
-6 1 6 3 5 6 -15 -10 14 0 5 12 -13 8 4 3
11 -4 -4 10 7 -6 13 -2 -11 12 8 -11 5 27 0 20
-25 -28 -8 -15 -3 -2 24 -7 26 30 -19 -8 48 20 -6 24
12 4 5 -47 -1 -30 -13 6 -9 -10 -34 -17 27 -29 -2 2
-27 -8 7 -16 -5 -18 12 2 18 2 -33 -7 -8 3 0 -10
-26 -26 -36 10 2 -9 7 -19 23 13 -16 -27 55 29 -6 12
4 -9 -1 5 1 -12 11 -9 20 17 -10 -36 21 13 -2 9
19 -2 -14 -5 7 -6 30 14 2 16 -5 -13 8 -4 4 19
19 13 16 25 15 36 10 26 -3 4 15 -23 5 -8 9 26
15 -4 25 48 -16 -4 -11 5 0 -53 12 -1 13 -30 23 -8
22 3 23 44 1 13 -14 12 -2 -26 5 5 15 -15 1 2
15 -1 -8 1 2 6 20 1 10 13 6 -17 -6 -7 -1 21
16 -3 14 14 22 -15 -24 0 -1 -3 -4 -28 21 15 -16 5
-24 -7 -12 6 7 -34 -22 -48 31 14 6 -45 7 16 -17 -49
-10 -17 -21 -3 -21 -12 3 22 26 6 -8 6 -3 10 -25 12
-23 -6 2 -11 -15 -18 -43 -30 32 -3 4 -16 -9 -9 9 -59
15 1 19 30 0 21 -14 15 4 -19 13 5 11 -3 35 23
13 -11 6 4 4 -6 9 3 -9 20 -6 -22 9 10 -13 8
1 -25 3 28 2 17 9 -7 15 24 -5 -18 18 17 -18 17
14 -13 2 -19 -5 -2 -5 -2 -11 -4 -37 -8 17 -10 9 9
-11 -6 20 34 1 11 -4 12 4 0 7 -15 -3 3 -2 -4
-14 -19 -16 29 1 5 -2 -11 5 15 -4 -11 22 12 -14 11
-10 -19 4 26 -1 -23 9 -14 19 22 -12 -18 10 9 -3 19
16 -8 3 1 15 -5 10 2 3 21 9 -23 -2 0 -2 13
8 -1 9 -13 0 8 1 14 13 4 21 -27 2 1 3 13
18 -5 11 -10 -2 8 10 -5 -12 -45 15 0 0 -9 -1 -11
9 8 1 2 -2 4 -7 0 -8 -9 12 -9 9 3 -4 -12
5 -4 15 1 10 -6 1 1 6 15 8 -16 -19 -8 1 0
14 -6 -6 -6 -6 1 -1 27 -1 -10 -10 -10 38 10 17 14
-19 -6 4 17 8 -3 -6 -23 12 0 -24 -10 13 22 7 -18
-21 -11 1 16 1 4 -7 11 12 9 -12 1 -3 -7 -20 2
-29 9 2 -10 -23 -5 -17 -15 13 -12 -24 13 12 -5 29 -23
16 -3 -9 0 1 14 -14 17 -6 -2 28 -1 -8 12 0 13
-3 6 2 1 -8 -1 -8 -6 -13 -10 0 -12 5 1 -10 2
-5 -10 -9 1 -12 -7 3 -4 15 3 1 -18 20 8 -14 -12
-3 -12 -4 -13 -2 -6 6 -2 8 1 1 -14 -9 -5 -2 8
-3 -4 7 14 -7 -1 -1 14 5 -4 -8 -9 16 -10 14 1
-3 5 -15 -12 -14 -3 1 -5 0 -2 6 -19 26 19 20 6
-3 -7 11 4 -7 -2 -2 3 7 6 6 -4 12 -1 5 -3
2 6 8 -2 -15 9 2 -3 -8 -1 -4 -15 -4 -7 -22 0
0 9 3 -6 -3 5 1 0 -6 6 1 7 13 7 13 4
11 5 4 -2 15 -11 -15 -4 1 -12 0 -6 4 -7 -8 -6
2 0 13 -2 -7 1 -8 -10 -2 -12 -4 -11 8 -1 10 -2
-2 2 -2 6 -6 -1 -5 -6 -7 -4 -6 -10 -7 2 -1 -5
-9 -9 2 0 -14 -6 7 0 15 1 5 7 8 -10 2 8
-1 -5 -8 10 3 -15 12 -2 6 -10 1 -19 1 -6 17 5
-2 -7 -4 6 5 -3 6 0 -4 9 6 6 -3 9 17 -10
13 -19 -4 7 -15 -11 3 -5 11 -6 2 -8 8 -9 -4 6
6 5 -2 -6 2 -7 -4 3 -7 -4 9 6 2 -2 -7 -5
-3 -5 1 -3 -6 2 8 4 -1 10 -1 -25 -5 19 -20 4
-20 -16 -2 -11 -2 -5 16 -20 17 15 28 -11 2 35 17 8
-19 -16 -1 -40 -5 -13 -9 -18 -5 -2 -6 -36 -26 -18 12 -2
-4 -5 20 -3 4 3 3 3 2 0 -2 -9 14 13 45 -1
-23 -18 -31 -23 -5 -8 11 -53 21 29 32 -35 31 33 29 13
-14 -14 1 -2 -4 -1 -1 -24 17 18 22 -34 -13 19 6 0
-6 0 -3 -10 3 12 8 -2 -6 16 7 -15 -12 -1 -10 0
3 9 1 6 3 22 5 1 -5 7 8 -2 17 3 7 1
14 -2 5 22 7 -12 -11 -2 8 -45 -8 -2 10 -30 -16 -5
4 -4 1 11 -2 -3 -8 -1 8 -13 -9 0 12 -7 -3 -10
-8 -6 4 -8 -12 3 0 -15 -17 -7 16 -24 -7 13 11 -4
14 -19 -5 1 3 4 -14 -2 9 12 9 -22 1 -2 -20 -1
-10 -16 -3 6 10 -27 -14 -27 21 0 28 -32 -8 -11 16 -8
-5 -23 -3 11 -8 7 -2 0 15 8 30 -23 -9 20 15 -1
-3 -22 4 2 -2 -21 -21 -20 31 -9 12 -15 -15 -25 25 -19
14 0 -6 1 9 13 -9 22 6 -10 -7 19 14 7 -10 2
3 -5 -1 14 1 -10 -1 -5 -7 17 2 -9 -2 19 -4 7
1 -12 17 20 -4 3 -1 -16 5 11 21 -8 -19 13 -1 0
-6 -8 5 -8 -7 -10 0 -9 -5 -13 -20 -25 -3 -19 27 -4
-1 -1 16 17 -3 7 -4 8 2 5 3 3 12 4 6 2
-21 -14 -2 -5 0 -3 -2 -37 10 16 22 -3 -14 7 2 10
-22 -8 10 11 1 -6 8 -15 7 13 -4 -10 -21 8 19 5
1 3 -8 -2 0 2 6 1 -14 15 -1 3 4 1 -8 -2
3 13 6 -15 9 11 -5 -5 -2 -8 2 -2 13 4 19 -13
11 -7 -8 -15 -1 2 -2 7 -2 -16 -12 4 8 -21 -28 -12
10 -1 2 -21 -2 4 -16 -11 8 -14 -3 -12 0 2 2 -16
0 1 5 -2 3 -9 2 -5 -5 3 3 -13 -5 3 -5 1
8 -20 0 -5 -2 2 -4 -3 2 -4 -17 -12 -14 9 10 -3
-3 4 7 12 11 -16 -5 -18 13 -5 10 10 -15 -1 16 15
5 -9 15 7 -9 4 6 -5 4 -1 26 -2 -9 -6 1 -2
-13 -13 -4 1 -19 -8 -6 -10 16 -17 6 -2 9 -11 35 -1
13 9 -6 -12 6 11 -3 18 0 2 12 -10 -3 7 -21 -16
