-2 5 -6 -4 19 0 22 10 0 8 -15 -5 -15 26 -7 -14
21 -19 -14 -9 7 8 -17 3 0 -10 -6 -22 -5 -17 1 2
0 -23 4 1 -8 12 -11 -16 -10 -3 12 -11 4 -12 9 6
-5 22 -10 2 1 -19 7 -4 3 -13 14 7 1 -1 -10 3
0 0 9 9 11 5 3 -5 -16 7 8 9 1 2 -5 -11
10 9 -2 -16 4 -5 -8 3 -4 -5 7 14 7 -19 2 1
-1 5 7 -4 2 -5 11 -5 5 3 -7 -4 -6 15 -4 -3
-11 -5 3 3 -28 15 3 -7 -12 -6 18 26 -3 -7 3 -7
4 -11 -5 2 4 -15 19 5 -2 -17 -18 -8 -18 4 -22 -2
-1 -9 -1 -3 4 -7 -6 18 0 11 -7 13 -9 -11 0 -13
-7 -5 -9 -4 -2 -3 1 11 -6 -3 -5 12 10 0 -5 8
8 -18 2 1 -21 8 -15 10 8 -20 -2 -33 -12 7 1 17
4 -19 -16 12 2 2 -18 16 -5 -8 -12 -12 0 -22 9 -3
7 3 11 12 -13 14 -4 -8 -3 -8 -1 -1 -7 -4 -11 -4
13 -26 -14 -14 6 -12 -22 -3 -4 -10 -4 7 -3 -18 19 -14
-14 -9 -8 4 -19 -2 -5 17 -8 -3 10 2 0 -11 -5 7
-2 11 -20 0 9 3 23 7 8 -2 -7 -14 0 25 -11 0
25 -14 -4 -4 -13 7 -14 8 -9 -10 8 -18 1 -23 2 9
-8 -7 3 1 2 2 -3 2 -8 -10 2 -23 16 -8 -6 8
16 -20 4 -15 -22 9 -18 16 -1 -12 -6 -12 7 -1 27 -2
6 -1 3 -1 -3 7 -3 5 -5 -2 14 7 7 -9 0 -7
2 -8 11 -10 -11 4 9 -14 2 -5 4 11 1 -5 2 -3
-15 -15 -25 -2 21 5 -3 18 -12 12 11 -17 3 -14 10 12
7 -5 -1 3 -9 11 10 -13 -4 4 13 38 9 4 5 0
-5 -21 -8 -4 -1 -16 17 13 3 -21 7 -4 -25 13 -24 -21
-5 -27 2 -1 -15 6 2 -1 18 -1 -1 15 5 -18 9 -15
-6 9 -6 6 -6 6 -5 0 0 8 -3 -4 -6 -1 -3 10
-16 30 -10 3 23 -23 29 1 4 11 -11 10 -3 14 -19 -3
0 -15 -55 -14 -25 9 -40 11 -20 1 -10 8 -12 -44 18 -17
9 -9 2 20 -12 7 -9 2 8 -5 -3 17 9 8 -11 10
-12 14 -1 1 0 -9 11 7 13 23 6 -6 6 -15 5 6
-5 10 -3 -2 -1 -8 2 6 5 -11 -11 17 -15 6 -11 12
-1 -1 -7 -1 -9 11 3 -13 6 5 -8 3 7 13 9 3
15 10 11 6 10 -2 -5 -7 5 -9 3 6 -9 -5 12 -1
-6 -12 14 7 -6 26 -1 -6 -10 -3 3 19 23 -10 8 3
0 -4 11 3 6 2 -3 2 6 5 21 16 14 5 6 -9
-2 0 -3 -3 5 -14 5 4 -6 2 -6 1 -5 -15 10 -2
0 -12 4 7 4 8 -16 2 1 -6 8 12 7 -20 7 -1
-2 12 16 -6 -14 7 -14 2 5 -12 15 7 -3 -7 7 -1
-1 1 0 -2 3 -7 11 8 1 7 -20 -3 14 14 -4 3
-2 -5 -7 2 9 -23 6 0 6 -6 -18 2 -11 24 -19 -6
-6 -17 -4 7 -6 -4 -3 4 -1 2 13 -10 -8 -11 9 -9
-5 6 0 2 11 6 -18 -7 5 3 3 6 -11 5 21 14
4 8 12 11 -2 4 10 5 -15 -6 2 14 -23 -1 12 -7
-2 -12 -18 -11 -20 4 -13 14 -5 -12 -1 28 -4 -31 4 -5
13 8 -9 1 -1 -6 3 -12 2 -5 1 3 3 6 2 13
-9 17 -6 -4 10 -1 16 0 -12 4 3 -8 7 -1 -4 18
0 -11 -4 6 -4 -6 0 -7 1 1 -3 8 -10 7 15 -4
-4 -9 -5 -12 -26 -26 11 6 -15 -7 -6 30 16 -16 -3 -26
-20 25 -6 1 13 -22 13 -10 5 16 -1 22 -7 20 -9 1
-14 13 -4 12 14 -4 19 9 21 22 -19 -5 6 29 -10 12
18 -13 -10 -17 -10 -14 2 21 6 -3 23 20 11 -26 4 -15
24 -24 13 -2 -18 26 -13 19 -5 -13 -17 -15 -18 -16 4 -1
-4 -9 -8 8 5 -3 7 7 3 5 -3 -11 -9 13 3 4
11 -8 3 4 -19 -8 9 -17 -8 -13 3 17 1 10 -15 -13
33 -6 1 7 15 3 -9 -1 -4 13 -13 -31 -4 -7 3 14
3 5 4 10 0 17 27 -14 7 21 -13 -20 -4 -1 -32 -5
1 -8 -2 2 -16 6 -9 -7 -6 -19 5 1 4 16 2 -10
-10 14 -9 3 -11 0 20 9 -2 5 -11 6 -8 12 -7 16
-6 15 -5 9 8 2 7 -6 13 15 -5 -6 -4 -1 17 3
-4 11 -23 0 16 -32 25 -18 5 -2 -12 -1 -7 14 -8 16
6 22 -18 -9 22 -1 19 2 -6 31 1 -11 0 12 -1 17
-1 -22 22 -2 10 -11 -13 -5 -8 -9 8 4 -3 -3 -9 -4
2 8 1 -5 -1 -5 -3 26 26 9 -4 6 -5 2 -9 1
-29 12 12 -1 19 -33 29 -26 7 19 -12 18 -3 13 -33 -7
-21 13 2 3 28 -30 20 3 3 29 -12 18 1 20 -10 -2
-14 25 0 -9 27 -19 24 9 0 12 -10 -12 3 28 -9 12
-1 25 -8 -3 3 -1 7 -21 -6 2 0 13 -6 12 -18 1
18 -18 5 -19 -27 8 -7 23 36 -2 -5 -30 3 -6 7 13
-1 7 -2 6 8 6 21 6 20 5 -17 -45 2 22 -15 5
7 15 -11 -2 26 4 20 20 28 31 -1 -18 1 17 4 25
18 -11 3 -9 6 15 -32 1 -4 -11 2 -42 13 0 15 3
-8 13 9 9 15 0 18 -14 0 11 12 7 -7 13 -41 -12
3 2 8 17 -1 8 13 -26 -6 -15 16 -23 11 22 -5 -8
6 -12 15 -11 1 -2 5 4 1 -7 -9 -12 1 8 3 8
-9 14 12 -3 19 -22 14 -9 -34 -10 -7 21 -21 -2 -12 -8
6 -22 -33 -20 18 -8 -15 24 27 -2 -21 -30 -15 -9 -1 -11
3 14 -3 -9 15 -8 10 16 -11 21 -7 -16 -15 5 -4 14
9 -14 1 1 -13 -3 -17 -4 12 -26 7 -19 4 0 -1 -12
1 27 6 9 -1 -4 12 -23 8 5 5 -5 -11 -4 -7 -15
-16 -15 6 -14 11 -47 12 -5 1 -4 -34 -3 -9 12 -3 -22
-15 1 -3 -9 17 -10 27 -3 6 9 -22 8 5 16 -1 -7
-12 -14 11 0 24 9 3 5 -9 0 1 5 14 2 -14 9
-6 -4 -3 -6 6 -11 -7 -18 3 1 2 11 -11 5 -7 5
0 14 -8 2 -5 -11 -6 7 14 -4 -15 -9 -3 3 -8 3
22 -16 1 -1 14 2 -12 6 -8 -24 -15 -12 -14 -5 -1 -8
-20 13 3 -10 -16 6 -22 -9 -16 -12 5 6 -2 -24 -5 -20
3 1 3 9 -8 23 -19 2 9 -3 9 -2 13 -12 -10 4
-2 1 3 -24 10 -5 1 4 -7 2 8 12 2 13 -9 0
2 27 4 -3 11 8 1 -17 -14 3 2 -12 2 24 -18 25
-4 -4 13 1 -10 1 2 -12 -9 19 14 16 -15 -14 19 6
17 -27 -3 10 -31 11 -27 -2 17 -1 -1 -10 -17 -25 4 -1
11 5 -31 2 -6 -8 -17 5 -5 -3 -3 -35 -23 -22 14 -7
-8 8 2 -20 4 -6 1 3 -7 8 -18 -7 3 5 0 11
-10 18 11 5 13 -15 12 -4 -6 12 -7 6 -6 21 0 2
5 -22 -12 1 8 -16 -7 7 6 -3 -9 -24 -13 6 11 14
-2 -15 -18 -13 -2 21 -16 10 7 1 2 -4 -3 11 -3 11
3 -5 7 6 -21 11 -16 9 -5 -8 10 -6 -1 -14 -2 -10
-17 -5 -2 9 -13 5 0 8 -11 0 10 8 2 -5 -4 2
-4 18 -16 -19 9 1 -3 8 -2 0 6 23 4 -8 -11 -8
-4 10 -2 -5 3 -9 -4 7 -2 3 -8 -5 -17 -6 4 4
-5 -7 -5 -11 -21 4 -8 15 -5 -10 -6 10 11 -19 17 4
0 -3 6 16 -8 1 -5 -9 -29 -24 -3 11 -16 -14 -4 -14
3 11 -6 -8 5 -21 8 5 -1 -13 -5 22 -5 -9 -1 5
12 -2 9 -3 14 2 10 -6 -6 -6 -29 -2 -32 -12 6 2
11 9 -3 1 6 5 -2 7 -3 19 -8 -6 5 -4 -9 0
-15 19 -16 9 1 -9 36 -34 -2 12 2 15 -12 31 -29 10
-9 -6 -7 -13 7 15 11 -10 8 2 6 0 -1 -1 1 -3
10 -3 -7 -8 -9 -17 2 -2 -8 -6 13 -13 6 -3 6 9
-7 -14 -8 0 4 -13 4 6 8 -11 10 5 -15 -14 0 -7
3 15 7 0 8 3 1 -2 -1 17 -9 10 -9 11 -1 5
5 0 15 10 -10 10 -1 3 -4 8 10 -11 9 -15 7 7
-8 11 0 2 -7 25 -5 -5 -6 -11 17 -7 1 11 0 20
1 -11 -1 -6 -26 20 -4 1 -2 -15 17 -10 3 -11 3 -4
0 2 0 4 -10 -10 14 -5 6 3 6 13 20 4 -4 -2
-10 30 0 6 21 -2 19 -21 -12 14 0 9 6 -8 -23 -7
-23 20 -8 4 11 -1 27 -29 -6 -2 12 24 16 24 -5 1
-18 24 10 5 -13 2 13 -18 -11 9 27 24 -4 0 0 -1
18 -11 -2 -14 16 5 11 9 18 4 -12 -4 -4 24 1 11
-19 -7 -8 -5 8 -25 1 -19 4 1 -8 4 11 14 -5 14
16 -17 -18 -5 2 -5 -6 15 10 -25 -10 -13 -11 -20 18 -12
-3 11 -6 -4 8 -2 10 16 6 12 -5 10 -4 -13 3 22
5 -3 2 -8 28 -17 28 -10 -1 -5 -17 1 -5 34 -8 29
17 -3 9 1 -7 -1 -15 10 2 -9 -15 4 -22 2 -7 -2
-7 -6 -3 -1 -16 -25 -7 1 -8 -5 -12 -8 -4 16 -4 4
-11 -12 1 5 -15 -4 -11 -9 1 -33 13 -2 2 -1 18 -12
-4 -2 4 -6 -22 14 -5 12 2 -8 -2 -11 6 -3 1 3
-3 28 2 2 5 13 32 -46 -53 -13 14 -1 1 -2 -21 0
-1 -12 9 8 -2 22 5 -12 -3 -9 9 12 -1 12 -4 11
4 0 -10 0 -21 15 7 12 -1 -14 3 -4 3 -2 10 11
4 -4 9 -12 -3 9 13 -16 -5 4 1 -5 9 10 -12 8
-4 -2 26 0 1 -10 -17 1 -10 -1 -1 14 -8 -4 26 5
-16 1 -6 -4 23 -8 20 -28 -24 -9 13 14 5 11 -8 8
-2 0 5 -13 2 -12 20 -11 -11 10 1 11 7 24 0 18
-2 4 -4 3 -6 -8 -6 -15 -19 -8 1 -5 6 -2 6 1
1 8 4 -7 10 -6 -11 4 2 6 -17 -15 0 -16 1 1
16 -26 -11 2 0 -14 -30 19 17 -17 -9 -11 -25 -15 9 -17
-6 -1 10 -13 9 -14 13 9 9 -12 -15 14 9 -2 9 13
5 -13 -10 -4 -15 -14 -16 24 10 -4 19 -18 -12 -2 26 -6
7 -4 -17 -2 12 -7 -5 7 6 22 -1 -10 -22 2 5 9
2 3 -15 5 8 -22 12 -2 -10 -4 -4 0 1 -1 13 16
-5 -16 -1 -10 1 -1 -7 -3 2 -13 10 4 5 -11 4 -11
1 -6 0 -9 -15 -15 19 8 4 -14 -5 11 8 7 5 6
-7 -18 12 -3 2 -16 17 16 4 7 -4 2 13 16 10 7
