21 17 13 11 52 38 8 32
-4 11 -14 -10 -12 -4 -9 15
-3 12 -2 -17 1 2 -18 -11
-26 -18 -12 -3 0 -13 -17 17
-8 20 -5 1 -17 4 8 5
-48 -38 -21 7 -8 -27 7 -18
-9 6 -12 -12 -10 -17 1 29
14 6 -11 26 21 25 9 6
17 14 -1 41 40 39 -20 -9
7 -7 26 3 -7 -5 -7 19
-19 -16 6 0 -21 -26 13 -23
-1 17 5 -47 -32 -23 0 -1
-2 -16 6 3 7 7 -4 0
17 8 2 -14 1 18 6 10
-2 -13 7 -12 8 10 12 16
19 21 10 -8 -4 15 46 46
11 15 15 24 47 30 -18 -4
12 9 -10 -29 -17 -14 27 21
23 8 4 -11 -2 20 -9 -15
2 -9 -8 -7 10 11 14 23
-15 -3 18 -19 -27 -32 -9 16
-9 -14 17 8 5 12 16 1
7 -2 3 -37 -36 -27 27 22
3 20 11 21 4 10 -30 -8
18 -5 15 -4 1 -3 -67 -66
16 7 13 -39 -39 -50 24 34
-20 5 3 9 15 22 14 27
6 21 -7 -33 -67 -39 15 14
8 -14 8 -18 -14 -15 19 21
7 12 -7 7 -6 8 -1 -16
-9 13 -10 -9 5 -5 -16 -13
-5 21 -4 0 1 -7 7 20
4 -1 16 26 -7 15 -7 -23
16 -10 -7 -30 -20 -31 13 29
1 26 -1 -11 -8 -9 -20 -29
-15 2 -6 8 5 -14 -3 -1
22 7 2 6 12 22 34 26
-18 -2 -24 -1 -2 -19 -31 -29
-18 20 -10 6 -8 -6 22 11
-5 -1 12 14 34 22 7 -22
5 10 8 -17 -4 0 7 -10
20 6 22 -32 -25 1 53 37
-16 -13 -9 2 14 -4 23 22
5 -15 10 -34 -39 -35 -24 -7
3 -15 -1 -2 -8 -13 26 27
-18 -15 5 -1 10 5 -12 -14
2 2 4 4 -3 23 18 -9
14 0 2 4 6 15 20 -3
3 7 12 18 26 19 18 14
2 10 -16 -22 -16 -19 29 25
-16 -14 -16 17 6 -6 -26 -18
-4 -7 -5 5 -12 -14 14 16
5 7 -5 -41 -50 -51 48 21
6 13 19 8 15 19 32 18
20 -10 0 -29 -14 -7 2 4
-2 5 1 17 9 -2 -30 -26
-6 16 -3 45 54 23 -16 -34
12 9 14 -1 -32 0 -28 -22
8 5 -11 1 -11 8 -23 -14
-1 -1 8 -25 -15 -19 29 11
17 19 11 -11 -1 8 0 28
-14 12 16 -21 -7 -12 28 23
-1 11 -10 9 31 25 -18 -14
-3 2 9 -27 -25 -5 47 15
9 -9 -2 19 25 31 -10 -44
3 -2 17 -39 -81 -48 38 59
8 -23 -16 9 19 -2 -31 -36
-3 -12 -16 13 21 6 13 27
-8 6 -4 -56 -77 -71 43 43
28 33 7 30 59 47 19 30
-4 -10 15 -48 -46 -46 47 25
-2 17 14 17 -2 0 -74 -73
-2 3 12 -24 5 -6 -64 -73
22 17 11 -96 -81 -88 4 -7
20 -17 -7 5 22 -2 6 30
1 -8 -4 -27 5 -14 39 23
-18 -6 -19 -17 5 -21 21 19
10 15 8 -24 -44 -43 32 49
0 -9 -15 40 22 28 -17 -48
-9 0 10 -41 -41 -30 16 0
-7 -2 -20 -13 0 -10 -52 -35
-3 10 2 -34 -70 -65 31 55
9 18 6 -2 -19 10 -38 -43
7 -2 -16 -16 -11 -14 -9 31
-20 0 -18 -21 -11 -4 6 25
27 30 17 4 35 9 22 -4
-6 -5 -5 -37 -35 -8 28 40
14 -12 -4 -3 6 1 -42 -57
26 -11 10 -30 -27 -46 -25 -38
13 9 21 -66 -78 -69 44 43
5 8 6 2 12 -1 29 39
-2 -2 0 -1 12 14 22 16
-3 -7 -13 13 -14 -3 25 17
7 14 -16 -29 -40 -26 3 5
4 -11 -5 14 44 23 -22 -42
0 8 8 -19 -15 -30 -21 -11
-13 -4 21 -10 21 -9 15 4
-14 -2 -1 -24 0 6 9 30
-11 -2 1 19 36 42 10 -15
-17 -20 0 -21 -23 -2 30 37
0 -14 3 -32 -15 -10 39 20
-15 -38 -35 -10 3 -26 8 18
-9 8 -16 -11 -19 1 25 24
19 16 4 2 16 30 -11 -8
2 9 -2 40 34 35 13 23
13 -11 12 22 9 0 1 0
-3 -11 12 -30 -33 -4 -19 -32
-4 12 4 11 4 -21 9 -3
-14 20 21 23 1 -3 -5 -9
16 4 15 -3 -18 5 29 36
6 -7 -9 9 32 33 -24 -27
8 10 -9 -21 1 -16 3 2
0 -17 -1 -16 -5 10 -25 -31
-1 -7 0 -30 -52 -27 28 48
8 -15 -4 44 18 33 -9 17
8 13 3 13 -6 -5 42 24
1 -10 -15 -37 -33 -32 42 37
2 16 -6 4 -6 -11 16 7
14 -7 3 0 -24 -26 15 24
14 -19 -9 -6 15 -4 -38 -57
-1 -1 6 11 -3 0 9 10
6 30 3 -44 -41 -35 3 3
-2 -13 -16 8 11 -19 -8 -26
-2 -7 -5 18 21 33 15 24
14 -16 -11 -13 -13 -19 -7 -1
-15 15 17 -17 -45 -28 8 31
13 1 3 14 40 10 -17 -47
15 -7 -2 -28 -44 -24 0 -4
1 -5 -15 -16 -24 -7 -23 -48
-13 1 -6 -13 -15 -35 38 21
0 -19 -4 12 29 21 -4 -12
15 -3 -8 10 -16 13 5 -11
1 -19 -18 -10 -6 15 27 10
-4 -2 -27 -10 -5 0 0 -13
-6 4 15 -9 0 -25 0 31
10 15 13 21 3 30 -34 1
7 3 13 -14 7 -7 18 45
1 13 12 -9 -17 -43 19 18
-7 -13 12 -15 18 -3 12 2
-16 -6 4 54 54 44 -5 18
8 5 -17 -7 14 0 -10 -16
10 2 -13 -35 -18 -20 21 4
-14 4 -14 13 27 40 -19 -37
-14 -19 -18 -23 -11 5 -1 -2
