4 -5 -6 9 -1 -6 3 6 -11 14 8 9 6 6 0 13
0 2 6 6 -10 2 -1 -2 3 -3 2 12 -3 2 5 -12
-21 -16 4 21 14 1 -8 0 5 0 0 -10 18 -3 8 -3
8 -1 -3 0 -1 17 -2 -4 2 16 -3 0 1 -16 6 -7
-16 5 9 13 -1 -6 -1 11 4 5 4 15 -1 -1 -2 6
11 -11 -8 -12 -5 -2 -8 3 0 -1 1 4 19 1 2 -11
0 -17 8 -3 1 3 -10 -2 0 -3 -2 -14 -4 -5 9 12
12 6 3 -8 2 0 2 -5 0 8 -15 4 0 6 3 -24
-1 6 -4 -3 -7 12 -4 -10 -9 -3 11 -2 -6 2 24 -1
-3 -9 16 15 -16 15 -15 -17 4 1 9 11 12 1 -1 2
10 0 -3 12 5 -3 1 -3 -18 2 -3 1 -5 -13 -3 -19
9 -10 8 8 1 -3 6 -7 -5 8 0 -13 5 -3 10 -9
18 -7 -7 7 3 -7 0 11 1 1 -5 -4 2 -3 13 -21
1 13 -2 -9 6 -2 -3 -11 7 4 7 -5 16 -9 -1 -2
11 7 0 -5 -19 2 4 6 -8 7 -2 -4 6 2 18 0
-11 -1 14 3 -1 -15 1 4 -12 7 -9 1 12 -5 0 5
16 10 -8 11 -2 6 20 15 -10 2 -6 4 -13 -10 2 -1
-1 5 11 -12 -4 3 0 4 7 -3 -3 12 -9 8 2 5
-27 -22 17 -8 -3 -9 -3 -20 0 -1 10 -10 10 -1 9 -5
-4 -1 -22 6 -4 2 -3 -5 7 11 -9 -14 2 -9 -4 -11
-19 3 10 5 -28 8 3 12 2 -2 -6 -6 4 -2 -12 3
14 11 -14 -19 -28 -2 -5 4 -33 7 -8 11 11 -10 -12 -14
-12 -5 -32 9 4 9 1 -7 6 -8 2 3 -3 -2 -13 1
3 16 -3 7 -8 -12 1 7 9 10 -25 5 12 8 9 -17
8 11 -1 -22 -34 8 -6 4 -18 -3 -2 13 13 -2 9 -9
-15 -9 1 0 -3 15 -15 -3 20 -3 10 14 11 5 -27 7
17 12 -4 -21 -32 -2 5 -22 -35 13 11 -3 5 -24 -8 0
1 10 4 17 6 2 -7 -1 14 -4 -17 6 10 14 1 4
11 9 -8 12 -1 -14 -2 15 12 -24 -18 8 -5 -2 8 -42
-1 -1 13 14 13 12 -5 -17 13 -14 8 13 15 0 -9 18
-4 16 15 1 5 -9 -2 4 -8 -8 -6 7 1 11 11 8
-4 4 0 4 -1 9 -15 18 7 -7 -6 -7 6 -8 -14 17
13 -4 -5 7 -17 0 11 6 3 9 -10 -16 -7 4 -1 9
0 17 -7 -11 -2 10 7 3 -6 13 -2 -19 4 -1 -1 3
-28 -7 5 2 2 1 -19 -22 -4 -10 7 -9 20 -8 4 -1
16 9 -25 6 -7 -2 10 3 -2 7 -3 -4 4 -3 16 -5
-20 -1 8 -16 -37 -5 12 13 -4 -2 -4 8 10 -7 -12 5
29 -11 -1 -3 2 -4 -7 2 -21 1 -1 -1 -2 6 -1 -3
8 -4 -34 -9 8 2 5 11 -3 7 -13 -6 -11 -2 1 -2
0 1 -7 -3 -13 -6 -1 7 6 6 -19 8 -7 -4 3 -17
9 -6 4 -3 3 8 4 -8 -12 -4 8 2 -9 4 -7 9
3 -15 -21 0 -12 4 -28 0 5 -8 12 -4 23 -5 -3 4
24 2 -1 -36 -16 3 16 -23 -61 3 7 9 3 -14 15 -17
-3 13 10 2 27 6 10 6 -4 2 -3 -3 11 5 3 3
-3 -10 -5 -3 -4 -12 11 -2 4 -12 -15 7 8 2 4 -20
-7 -10 3 4 -6 5 -2 -15 6 -17 7 13 10 -10 -8 -1
-3 0 2 8 12 -4 -6 -2 10 -2 -7 -5 -9 11 4 6
-5 -2 -13 6 13 8 -3 13 2 -8 -5 5 4 -15 -1 -6
14 9 6 -9 -13 10 9 3 -6 8 -3 8 -26 -8 -9 -1
-10 -7 -4 1 1 4 4 0 6 -2 -4 -1 -7 -1 1 2
-26 -12 10 19 19 10 -1 6 24 9 11 -5 14 -18 3 0
4 4 -15 -6 -10 2 3 0 6 1 -10 -4 -9 -1 1 -3
-3 20 -1 21 -5 3 8 4 10 3 0 4 -5 2 11 -6
19 -7 -5 -18 -56 -18 -5 2 -49 16 0 7 -19 2 -3 -8
-4 -3 -19 4 -4 16 3 2 5 1 4 -11 -6 -3 6 0
-2 9 8 4 -4 -13 -10 -10 8 -9 -8 -4 0 -2 10 -24
-4 -16 1 -21 -35 -27 -17 -7 -18 4 4 -21 -21 6 22 -4
10 -19 -1 8 -35 -9 -26 -2 -3 -16 7 4 -3 7 24 -16
-2 11 -10 14 8 23 -1 -16 -14 0 -11 1 6 -18 -28 -3
-10 -17 12 17 13 -26 -5 3 -3 -5 -2 -6 -6 7 14 -7
0 0 0 5 -7 -43 -10 16 16 -17 -6 15 2 5 8 -34
8 1 -1 -6 6 0 -3 -17 11 -10 -1 -11 12 -5 12 8
0 8 -7 1 -5 3 -4 4 -10 4 2 15 8 7 9 -8
-14 -6 8 14 -3 -11 -9 20 7 -19 -7 -4 -10 -6 -2 -1
17 35 -20 9 8 2 21 23 -38 7 6 12 -29 -23 30 -36
2 -6 0 -11 4 -9 3 -1 19 12 -3 6 -27 11 -9 7
-19 -31 2 -7 -3 -1 -10 -12 5 13 7 -27 30 -17 0 2
-2 -2 -43 8 -7 10 0 6 15 -7 -14 -9 1 -9 -11 -23
-17 2 -7 20 -15 26 -11 -2 13 1 -17 -2 0 5 -20 -3
25 27 -7 -20 -44 -1 12 13 -105 13 0 33 -23 21 -10 -14
2 0 -37 -2 -5 9 7 -4 12 -2 -17 1 -15 -10 3 -4
-2 15 -9 28 -11 -15 -6 2 18 -17 -30 5 1 -10 4 -25
14 -16 0 -26 -34 -34 -15 6 -43 -25 -16 6 -23 38 8 6
-1 3 -5 -4 -48 0 -9 9 15 3 1 -4 7 22 30 -11
12 0 13 -19 -35 23 14 -36 -54 14 13 -8 15 -5 -13 3
5 -12 15 1 -4 -40 -33 20 14 -29 -5 11 -24 20 -6 -22
19 10 -2 20 2 -44 -19 21 9 -28 -34 23 -24 16 15 -52
-4 -11 -2 4 11 -3 -4 -7 3 -19 -13 5 27 16 19 18
-6 0 -2 30 18 9 -2 -14 7 -12 -14 17 -10 -4 -21 13
-13 -4 -6 2 4 -3 -2 8 9 -24 -13 -4 -28 -26 -6 19
-1 6 -2 10 -17 1 11 -7 -27 -6 -4 6 -17 -22 24 -1
13 8 -12 -5 -13 -7 2 -7 -3 -3 4 -15 -6 20 2 9
-30 -13 4 6 6 0 -9 -9 3 1 -3 -28 14 -2 2 -3
-1 4 -46 6 -2 12 12 1 12 4 -21 4 6 -5 10 -17
-16 -23 8 -7 -14 14 8 12 14 -3 -1 4 -10 10 -29 13
41 4 -1 -13 -12 0 8 -8 -81 3 3 9 -29 4 10 -13
1 1 -49 -1 8 10 4 6 13 -5 -15 3 -24 2 -8 -1
-18 -7 -9 6 -2 0 -15 2 34 -4 -23 13 -10 -9 8 -28
-5 -5 -3 9 -5 1 6 -4 -26 -12 -3 2 -11 20 -2 10
-3 -1 -14 15 -16 1 -15 5 18 5 15 -7 25 15 -8 -26
27 -7 8 -21 -43 -1 -3 -20 -65 2 3 15 9 -3 23 -7
-10 0 4 23 10 -29 -22 5 -7 -47 -17 -7 -11 16 3 -19
2 8 -9 20 -1 -41 -5 17 20 -41 -33 17 -24 4 13 -39
4 -10 -2 7 -2 6 2 8 -4 -24 -19 -9 12 15 -3 -1
-1 -12 -8 -2 25 15 5 -19 16 -2 -18 -8 -12 -6 4 19
-3 2 -15 7 16 -10 -5 13 10 -21 -15 7 -6 -2 -13 12
1 13 -1 2 -31 10 6 -1 2 5 -3 4 -4 -7 -24 18
-8 10 -7 6 -3 3 9 -7 -6 -11 0 -4 -5 8 11 -10
-15 -17 5 29 15 6 -7 -4 15 4 5 -10 1 -16 26 -6
-3 -3 -23 9 -9 16 -3 9 13 6 -5 -16 -4 -4 -8 -14
-14 11 11 6 6 -12 -10 0 -6 10 16 12 -24 -13 -1 -9
22 5 6 -23 -31 -11 7 11 -80 10 2 2 -19 12 -18 8
-9 -11 -11 1 4 13 1 -4 6 -1 -9 -13 14 -6 -8 8
-4 1 -3 -1 -5 -5 -3 0 5 16 0 -6 9 -5 -2 -23
-3 -13 -5 -8 15 17 8 -6 8 2 2 -3 -4 -5 -7 2
-4 -55 9 9 -10 -7 -26 -18 8 4 13 14 5 -19 -2 5
-4 7 -14 3 -9 16 -5 7 -10 -5 -2 5 -10 -3 -11 -10
-8 -7 -2 8 13 9 0 1 7 15 20 5 -4 0 5 -3
3 4 12 6 -5 -51 -11 4 -5 -6 -6 0 -18 4 9 -37
6 -28 4 7 6 -6 6 -30 17 -3 6 -1 21 -2 28 -2
8 0 2 -11 12 -7 9 -1 -25 2 -4 10 12 1 23 4
-15 -10 9 3 1 -10 -14 7 5 -5 -5 5 0 -30 -12 5
6 35 -18 -7 -17 13 0 -14 -36 5 7 1 -25 -6 -20 10
9 -6 13 -22 -6 -2 -2 -2 13 -3 7 -9 -2 -1 -12 14
-32 -29 -3 10 7 3 -1 -19 23 -11 -3 -17 16 -16 26 -15
9 -2 -40 4 -6 -4 12 9 4 1 -19 -11 -4 8 -19 -11
-12 -2 11 30 6 10 0 -14 17 -1 1 7 -14 -9 4 -17
38 23 -12 -12 -41 -7 -5 2 -128 15 -4 36 -15 20 -20 -5
-5 -9 -28 -1 4 4 7 13 -6 -7 -2 -12 -3 2 -4 12
-7 18 -7 20 -2 -14 -16 19 13 6 -15 16 -11 -3 6 -41
13 -11 -13 21 7 -10 -4 -2 -10 -6 -4 12 -3 6 -12 -2
3 -30 12 23 -13 -22 -18 4 -5 -2 2 32 -15 28 10 -9
-9 8 -11 -16 0 19 2 -14 -34 -3 -6 -4 -12 -28 -13 2
1 -8 4 7 7 -29 -21 1 8 -6 1 25 -18 2 -28 -6
8 14 2 8 5 -64 -23 9 16 -32 -10 23 -35 9 6 -68
14 -23 18 16 -7 -13 -5 -5 19 -23 0 0 12 14 21 -9
-9 -3 15 7 12 16 -15 -32 -6 -3 1 -8 11 -18 9 4
3 -15 18 3 6 -4 0 7 20 -8 -9 16 -4 -32 -20 15
1 1 -5 -5 -24 -1 8 -11 -42 0 -4 -23 -10 -13 14 8
17 3 -2 -13 -15 -15 4 6 0 -9 1 -12 -2 22 -12 7
-38 -19 -6 10 7 5 -10 -20 12 -3 0 4 7 -12 9 -2
-5 6 -26 -1 -4 -9 -1 4 2 7 -15 -2 -5 -14 -1 -7
-32 -7 8 -8 -8 -2 -14 -1 12 -9 8 2 -15 -3 -12 9
33 2 -10 -11 -18 -8 3 -8 -107 1 -12 -1 -20 10 1 11
-13 10 -30 -24 -8 -9 12 -6 5 -1 -1 -3 -8 -4 -11 0
-2 -8 -16 11 3 -5 -11 4 15 5 -17 13 -3 -9 11 -36
5 -15 -3 17 5 -7 4 -8 -8 2 3 -20 -4 10 -5 -13
-16 -1 4 29 -22 -9 -20 3 15 3 3 28 13 27 -18 -4
9 5 -6 -10 -3 -3 5 -11 -57 -2 -1 25 -7 -18 21 -8
5 1 2 0 11 -22 -17 7 12 -9 7 -1 -17 15 -22 13
6 1 0 14 8 -45 -19 12 10 -34 -5 2 -22 8 0 -33
9 -12 -4 5 15 1 15 3 28 -12 7 0 9 19 2 -12
6 -12 4 -4 12 9 -6 -25 8 -4 -9 -19 6 -10 22 3
-5 -10 1 -10 11 5 -7 13 15 -5 -6 8 20 -4 -7 -10
