-4 -15 20 -28 17 0 1 21 -8 0 3 31 -47 34 -62 32
-6 62 -4 -37 48 17 40 12 -46 -12 -16 -2 16 -16 -17 0
10 8 7 -10 2 -4 11 16 -16 11 -13 -4 -17 -16 18 3
5 6 -18 17 19 -10 27 2 17 -3 -5 -19 -6 -12 4 -13
-12 31 20 -5 18 1 -20 -4 14 -22 1 27 -54 -3 -66 30
1 62 24 -10 49 11 -6 -21 -60 -42 30 -62 7 29 -1 -42
-7 -20 -5 -38 6 6 23 41 -4 -25 -3 -29 -60 26 -39 3
3 40 -11 17 45 20 18 -8 -37 -29 12 -10 27 9 4 -31
-21 21 -4 -20 20 -11 -3 0 18 28 -9 4 -38 39 -45 24
-43 23 0 -13 38 -9 3 8 -51 19 -45 39 26 -41 -5 -18
-13 15 -6 -6 14 -14 14 -3 25 -32 22 -27 -25 21 -60 45
5 13 -8 11 54 26 -12 15 -57 -35 7 -18 37 6 8 -50
3 -3 -21 1 9 9 26 29 20 -11 45 55 -44 0 -43 -15
-21 36 29 1 25 3 -47 -35 -31 -20 22 -73 14 -7 -12 -20
-7 34 17 23 11 0 11 -6 13 14 -16 -48 14 -7 -1 26
-15 -23 -15 8 19 5 -6 19 4 -9 16 6 11 -32 1 -23
-36 19 14 15 -16 1 3 16 -22 -27 30 5 -41 3 -52 13
-15 49 24 -15 20 21 -10 -18 -67 -17 27 -51 -1 38 -9 -12
-4 -5 -6 -44 -1 11 16 28 -12 -4 17 31 -51 23 -46 46
16 47 -8 11 47 12 35 -2 -50 -14 -15 -23 32 0 9 -52
-25 -13 -7 -10 30 19 -6 24 -15 -58 9 -21 -27 21 -36 -7
61 26 -38 -2 33 4 -12 -24 -64 -8 -30 27 44 11 20 -28
-22 12 -36 -51 -3 3 25 49 -7 -8 18 28 -96 21 -98 33
13 74 -18 6 98 49 27 -17 -100 -43 -6 -60 65 5 17 -50
0 -27 9 49 6 -5 -6 19 -16 -45 45 30 -48 13 -37 -12
4 37 2 -53 63 41 12 -26 -56 10 -7 -49 -6 3 5 -6
5 33 -19 18 16 -19 24 35 9 -25 20 -14 -82 5 -93 37
4 66 1 -6 94 47 -8 -8 -113 -56 1 -29 66 8 -10 -40
-7 -7 24 6 12 12 -16 5 13 -12 9 12 -55 50 -22 33
64 48 -10 17 32 21 -21 -8 -27 -8 -18 -8 16 -31 -33 21
-19 27 5 10 8 -19 37 16 5 -19 0 7 -35 23 -46 47
-11 19 0 4 51 30 16 -16 -58 -24 -2 7 35 15 -15 -43
22 16 -32 -37 -20 10 9 -6 -24 -20 -19 33 -12 15 -44 46
-9 33 8 -48 21 14 36 -11 -56 -40 -34 41 10 -53 17 0
9 -19 -6 -39 4 12 -4 19 -10 5 18 18 -26 8 -57 24
3 25 9 12 42 26 3 -25 -67 -2 20 -16 34 13 -5 -1
15 -11 2 -23 5 11 -2 -4 -25 14 12 24 -37 -1 -61 12
23 19 -31 -24 32 3 9 -22 -54 -23 -7 -94 23 5 11 -26
24 21 -24 -32 2 -13 -11 25 -15 -3 8 10 -72 22 -81 46
20 87 -1 -14 93 43 7 -32 -124 -22 19 -18 62 2 4 -42
-6 -8 -28 -21 -4 -2 13 -5 -6 -1 22 24 -53 15 -40 16
-11 39 14 -46 44 -13 -6 8 -50 -23 -38 5 47 -50 -14 6
3 19 -35 35 3 -5 -1 35 -28 -5 -5 -38 -114 2 -78 32
-6 87 20 -25 76 56 -12 -19 -110 -52 2 24 53 -6 -6 -51
-11 -12 -25 -19 -13 -3 -14 -2 -16 -13 -5 1 -28 -20 -27 38
8 36 7 6 74 11 13 12 -71 -25 -4 -63 34 11 3 -44
0 -8 -19 29 2 -9 -1 6 -23 -7 21 -10 -68 15 -56 33
-4 26 29 2 32 33 -13 -6 -59 -33 -17 15 22 10 -9 -19
-36 20 -20 26 3 6 17 -5 18 -5 10 33 -23 19 -28 -17
-20 34 11 -12 25 26 -26 -27 -57 -25 7 -13 37 11 16 -22
16 -10 4 -11 15 -4 -7 -2 -14 26 -3 8 -4 -29 5 -16
-10 -20 -15 19 13 0 10 -7 -8 12 28 7 -8 18 3 4
-8 13 -20 -35 -12 -19 -16 -10 -16 -6 -12 2 -64 23 4 37
64 40 -17 -3 34 21 -15 3 -72 -4 -17 28 2 -47 12 -36
31 -13 -5 -10 5 9 -14 1 -21 -14 7 21 -51 -28 -23 31
16 42 7 4 53 -1 7 -7 -52 -22 10 15 16 22 -4 -32
-15 16 20 16 1 -9 14 34 1 -38 -9 -13 -37 53 -71 24
-32 4 -1 -53 61 23 19 14 -26 -34 36 -18 -3 11 4 -35
-17 5 -24 16 -6 1 -15 -1 -10 -22 8 -12 -49 -16 -44 38
3 39 26 -13 31 41 -22 -7 -47 -25 -9 27 33 10 -3 -27
21 19 -24 -8 -9 -31 -21 14 5 -19 0 -14 -31 16 -51 3
75 33 5 -46 64 27 -4 18 -36 -13 -33 -9 -8 -23 4 -22
3 2 -7 33 11 -9 -20 -17 -7 22 16 -20 -2 -7 -12 -1
-12 -4 19 -7 -13 23 -36 17 -8 8 5 14 5 -4 1 4
