-7 -7 -9 3 17 -24 6 1 2 -4 0 0 0 -5 -19 9
6 8 2 27 -2 7 1 4 18 -3 15 11 1 1 -9 2
-9 -6 7 9 -9 5 5 8 -4 -3 -4 -4 4 2 8 7
-8 1 6 7 1 2 -2 0 -1 -5 8 -2 4 -2 1 -4
-1 6 -8 1 -8 -16 11 -1 -3 -2 0 1 -2 7 0 -6
-8 -6 2 0 -11 1 -2 -7 -9 -2 -1 4 9 8 3 -2
9 -6 -4 12 -18 -22 12 -11 7 4 -7 0 8 15 16 6
5 4 3 2 23 -7 -5 -6 -4 -7 5 -5 4 8 -10 -4
-1 1 -13 -4 -21 -10 2 6 3 -16 -4 20 -3 16 -3 -8
1 -5 -1 6 0 1 -4 0 10 5 -7 -1 1 2 11 -8
-1 -10 11 9 -10 -7 -6 -7 14 9 -2 0 8 5 -1 -2
6 -2 -2 3 17 4 11 3 6 -7 10 1 4 -2 -1 2
-4 5 -9 -7 -2 7 -2 -19 2 10 -1 -19 -2 13 -6 2
5 6 12 -3 9 -4 -3 0 -10 1 -6 -13 -1 4 -10 -13
14 -9 6 -8 -2 2 5 8 -1 -13 -1 -16 5 -10 -6 17
-9 -3 0 5 -2 -1 1 -3 -10 2 -3 2 15 -1 2 -3
-3 -12 -6 -14 14 -27 2 -4 -7 -5 -13 6 -3 17 -1 5
7 -3 14 19 -9 0 5 -4 5 -3 10 3 13 13 -2 -3
-5 -8 2 -2 8 12 -4 -1 1 -1 -11 -2 -7 9 -4 -12
-7 4 0 -5 -10 -7 6 -8 2 -5 -9 14 0 17 -1 2
-3 -6 -19 -9 -1 17 12 1 3 0 -13 7 2 6 -11 0
-17 -7 -24 2 -15 -38 -1 8 1 2 3 2 15 -8 -5 -27
12 1 6 10 -2 12 6 -4 2 0 -11 -9 7 8 -2 3
-14 -2 -11 -1 2 -20 8 6 8 9 -1 6 -9 11 14 -8
-3 -4 -28 -15 -14 -22 -11 -4 -3 -20 -15 10 16 -5 15 -25
0 -3 -7 3 -5 -17 2 -1 11 10 -5 -5 10 -11 3 -15
1 -7 -1 -7 -23 -5 -7 -8 4 13 -1 7 6 2 9 -11
-12 -2 -5 7 3 5 12 -2 7 9 -3 -3 -4 9 -6 0
1 -16 1 5 5 0 11 -10 -1 12 10 -23 17 8 12 5
-6 2 -5 0 -6 -10 -5 -5 -3 5 -8 8 -6 7 10 0
15 -5 11 -4 6 -15 19 2 4 3 26 -10 20 -6 -10 20
-16 -2 -9 8 0 7 2 -5 -6 4 2 -4 11 -3 1 -2
5 -7 -13 2 -4 -11 9 -8 7 -9 25 -10 18 4 5 19
2 7 20 -18 -22 5 11 -10 4 6 26 -4 5 2 -3 1
0 7 15 1 1 3 -4 8 -4 7 -2 -3 0 -2 13 5
4 -5 0 3 16 15 11 11 7 -10 -10 -1 11 -8 -6 -6
-3 9 -7 -15 10 3 4 -1 10 -6 2 13 0 -15 -9 -5
-9 0 -1 -9 -17 0 0 -1 -2 -4 -15 0 5 3 3 10
-10 -5 7 -15 -15 -18 7 -9 18 8 -8 1 10 7 13 0
6 6 -7 -2 16 1 -1 -5 6 -12 -5 -7 12 2 -1 -6
-15 4 -6 9 -11 17 5 6 -1 -5 -1 6 -5 5 -5 -8
9 0 2 2 -2 -7 7 -7 18 10 -8 -2 6 -10 4 6
-3 -4 12 1 -12 8 -3 -9 7 12 2 11 5 1 0 -9
1 -8 6 -20 8 8 5 0 4 -9 -1 -7 14 12 -19 6
-5 -13 -13 9 8 -2 7 -17 1 4 -2 -10 -9 -2 1 4
-2 3 0 -3 2 1 -10 7 -3 0 7 -11 -11 1 0 0
15 0 8 0 24 4 -4 -6 -6 -6 15 -12 4 2 -6 5
-15 -2 1 -2 1 -9 1 -8 -2 -14 5 -3 10 -2 1 -13
5 -11 0 -15 17 -51 12 11 -1 4 -3 6 3 -3 2 4
2 -8 15 19 1 0 4 5 25 14 10 7 -3 15 -5 -4
-1 2 13 6 14 1 21 3 4 -15 -7 -21 -8 1 7 9
-10 -19 10 -2 -5 5 -5 -9 -14 2 -4 6 3 16 14 0
1 1 -13 -7 -11 9 1 -8 9 13 -8 2 9 5 8 0
1 2 2 9 8 -15 -2 -4 6 -6 2 -7 -24 0 4 -8
4 -3 -11 4 -5 -10 3 3 1 6 -9 -15 16 1 -4 -5
15 -8 14 -8 9 -13 0 1 -5 9 -13 -9 -13 6 4 -9
-3 0 -5 8 -5 0 1 -4 27 11 -6 -2 -20 21 6 2
-8 -5 12 2 5 1 6 11 9 4 9 0 2 -16 -6 -2
-16 -9 -4 -11 -12 17 -9 5 -4 18 7 1 21 16 -5 7
1 -6 10 6 -2 -1 5 -3 -4 11 1 7 4 15 9 0
-20 0 0 0 2 -13 9 13 -11 11 2 1 10 2 4 -4
1 17 16 1 9 18 1 16 5 8 4 1 -9 1 -19 -25
13 -27 -11 -3 -17 -12 12 2 -1 4 -18 -20 7 10 -7 14
-15 -8 4 4 -4 1 -1 -2 -8 -24 3 -8 18 -8 -1 7
3 -9 -13 -3 6 -44 -13 -4 -12 9 -11 -8 -14 15 8 13
-15 -8 -2 7 -16 2 5 9 18 23 2 -5 5 16 5 10
0 12 -29 -16 -41 17 5 -10 -5 5 -17 18 -5 -47 3 12
7 -40 11 16 -20 12 -13 -36 9 4 -4 -8 21 -19 6 7
-14 -13 -14 -22 -29 -15 15 0 2 -23 14 -9 39 -3 11 -40
35 24 30 12 7 32 14 -60 4 -30 15 2 27 -10 6 33
18 3 3 3 -9 -11 9 22 5 11 7 -8 19 18 0 -8
-6 6 5 5 5 4 -4 -40 -23 20 -12 -20 18 -13 24 8
25 16 27 15 -20 33 0 -16 41 -18 8 30 -10 23 -21 4
34 23 0 -1 11 2 12 -3 0 -17 -22 -7 -13 -18 16 27
-18 -2 -4 -3 -4 15 28 22 -3 18 31 3 14 34 -14 -7
-29 -21 2 -7 9 9 21 -28 -7 8 -22 -2 -2 16 4 -12
2 -6 -3 -3 1 4 33 5 -3 -9 2 -12 -11 -1 24 16
-11 1 -22 -9 -2 -17 -10 -14 -5 -15 0 -5 -3 -12 34 -3
-18 -36 2 2 -21 -51 22 -5 16 27 1 -29 13 25 11 13
13 8 13 1 39 18 -8 -8 10 -61 4 -9 -12 -6 17 9
5 -10 -2 -5 -14 -44 -2 10 2 5 -15 -5 -11 4 -1 15
-11 -21 18 -38 -20 9 18 6 2 5 11 -25 12 7 -25 0
-6 -15 11 -3 16 5 9 10 -6 1 -1 0 -10 -10 3 -7
10 -22 19 -5 5 11 7 -14 6 -9 8 5 23 -19 5 8
14 10 4 8 -4 22 4 0 12 -8 -5 9 -11 -10 -19 6
-26 7 7 -12 7 7 -11 14 2 -23 13 -5 15 9 -17 3
13 -3 12 -1 -3 -1 13 11 9 15 15 -8 3 5 -1 0
15 -5 -3 -6 10 1 -10 -10 -9 -3 -3 -12 2 9 13 6
-10 -1 6 4 -11 13 -3 9 -7 -17 2 4 -6 -2 8 1
-5 3 18 -3 13 -4 6 -6 -3 -2 3 2 -5 0 -7 17
-12 7 -5 -13 -17 6 -6 -18 -10 21 1 -2 5 13 7 -21
-3 -22 -1 -19 14 6 16 -18 -15 -13 -20 -13 11 -9 -6 -8
1 -3 5 18 10 3 23 -8 3 -2 14 -10 0 -4 3 2
2 -1 -9 13 -5 -8 -13 1 5 1 -6 6 -11 13 1 2
-13 -19 0 19 2 -11 2 -4 4 18 -4 -16 15 21 7 0
17 5 5 5 8 5 0 -1 0 -43 16 -5 5 -9 -8 6
-3 -16 -16 0 10 -23 14 -4 -5 9 8 5 14 8 -5 11
-3 12 1 11 14 7 -3 -1 34 6 11 8 -8 2 -16 -13
9 -3 21 -4 0 13 2 1 9 -8 3 11 2 -13 14 -9
4 -12 -3 11 -5 3 1 2 1 11 3 6 -8 16 21 -6
4 0 -10 5 -1 -1 -12 -5 9 10 -4 8 -13 3 -8 -15
6 10 -5 0 17 8 -5 -3 -6 -8 6 15 8 7 2 -10
-5 -3 -14 -2 -12 -11 8 0 9 17 -1 -14 1 3 -9 5
3 -15 1 10 8 -9 -10 -9 -6 -1 -4 -6 9 16 2 -4
0 7 9 -8 -20 9 3 -2 -11 10 -10 9 2 6 3 -4
-17 16 2 -10 18 13 -5 5 -9 -11 -8 -8 12 14 1 7
14 8 -1 -15 -8 -4 -6 4 1 4 -3 12 -6 -8 -2 -13
0 -7 8 -8 0 8 -2 -13 9 -2 1 3 -1 -9 5 1
-15 -19 3 -14 -4 -6 -8 -4 -7 17 -4 -17 -11 5 18 -5
5 5 9 -8 -5 9 10 4 -14 2 -3 -9 -8 11 9 -7
8 -6 2 -5 -3 1 11 0 -3 10 -11 -4 18 -7 -16 6
10 8 5 5 10 1 1 -4 2 -5 -6 3 4 -9 0 -1
-10 -25 -1 7 -3 -36 -4 -2 -7 20 -12 -5 -10 10 -5 25
-9 2 -2 9 22 22 8 6 18 12 5 0 -1 3 9 -3
-7 -2 13 -5 -4 21 2 12 1 1 10 -23 -10 0 -13 18
-3 -35 6 6 -11 8 8 -23 9 -1 -10 0 6 -5 0 11
11 12 -3 14 -23 6 1 4 16 7 -14 -5 26 -16 -36 -5
-7 15 -12 1 10 18 -10 8 0 -8 -5 3 3 11 -28 -8
12 2 3 -8 -6 1 5 5 12 3 -3 -20 25 10 -17 12
-10 -30 -8 -6 10 5 -15 1 11 10 -8 -3 -24 28 -4 0
-7 15 7 1 -10 24 -7 0 7 -11 -13 -2 26 0 4 -9
-28 37 24 -9 12 6 16 30 -1 -12 -3 -3 73 18 -58 5
35 9 -18 -18 -18 -3 15 26 -17 14 11 3 -37 -29 7 -15
-7 -24 3 -5 -2 13 12 -34 8 4 -19 4 13 10 -10 -13
-27 -14 -3 -4 3 0 6 0 -6 12 -15 0 -10 17 28 -12
-2 5 -8 5 5 -4 -32 9 -3 0 -10 1 7 -1 -6 -1
-20 -25 1 3 -6 -27 16 -9 -1 14 -5 -20 -4 -7 3 10
24 11 -11 1 5 10 -3 12 5 3 -1 14 -9 -22 -12 -8
-4 -20 -7 8 -7 -20 4 -10 -13 4 -2 -5 7 -1 7 22
5 -11 8 -23 2 4 12 -6 16 -7 5 -7 19 -7 -28 1
10 2 12 2 -8 1 -3 -6 3 -5 16 -2 1 -19 -5 10
7 -17 4 -9 13 -7 1 -29 5 -15 -7 5 16 -10 -8 -5
-8 10 -9 -6 -18 5 8 5 4 2 3 9 10 -16 -12 -4
13 10 -2 8 -1 10 14 -5 2 -9 11 2 -15 -12 -5 -2
-3 4 -8 0 4 -13 3 20 7 13 -9 -24 12 12 -15 9
13 -22 -11 -7 10 -1 -4 -8 11 1 0 -6 -1 -2 -12 3
6 2 6 -4 -12 9 3 1 0 -20 -4 24 -15 1 -16 -7
-8 15 12 -2 13 2 -8 18 2 6 -9 -2 16 3 -13 -1
23 14 8 -13 -7 -4 12 9 -7 6 -3 1 -10 4 -6 -21
16 -6 6 -30 19 9 4 -9 0 -25 -21 3 16 -10 -30 -6
-6 -25 -1 8 -4 -8 8 -9 -8 2 -13 -3 -21 9 5 6
-3 3 -6 -2 -8 2 -12 -2 -4 0 -4 4 -8 -2 3 -3
-24 -41 -6 4 11 -4 -4 -19 7 16 1 -14 0 -6 15 -2
10 2 -3 2 3 3 7 5 8 -8 -1 -12 8 -6 -17 -7
