20 -19 -5 -10 -21 -2 8 39 -22 -16 33 9 -23 5 23 -7 2 -11 -13 -6 -14 -5 -27 8 3 17 15 -2 -11 3 -22 20 6 5 2 -7 6 15 -14 32 24 17 -50 -32 18 5 81 -12
6 -9 1 5 -8 9 10 10 -12 -12 -7 -19 -19 8 -30 8 6 11 5 1 1 23 14 2 2 -18 -4 -18 20 5 -4 23 35 13 -9 0 -2 1 23 30 -31 8 68 -24 -65 79 -44 25
3 1 15 -4 -20 2 -19 -14 -20 -18 28 7 -17 14 -4 1 -14 -13 15 31 2 -15 -5 -2 40 -15 0 1 11 -6 -5 10 -3 11 0 -11 21 15 -13 31 3 -14 14 -2 42 7 -14 51
-8 -17 -3 -7 17 7 4 -1 21 -1 -12 19 -35 17 13 -23 0 9 -2 17 -9 4 -1 22 0 26 26 10 -30 12 22 22 13 13 10 4 7 21 -3 13 23 -24 19 -22 -17 11 9 49
19 9 -10 1 10 -8 25 -3 5 13 12 -13 16 34 -7 24 -2 27 6 -19 -36 -12 8 -16 6 -1 25 -18 11 -9 -14 -10 -17 7 4 -17 2 -22 22 -27 27 -17 -19 -10 36 -8 15 -11
0 0 0 0 0 0 0 0 0 0 0 0 0 0 0 0 0 0 0 0 0 0 0 0 0 0 0 0 0 0 0 0 0 0 0 0 0 0 0 0 0 0 0 0 0 0 0 0
0 0 0 0 0 0 0 0 0 0 0 0 0 0 0 0 0 0 0 0 0 0 0 0 0 0 0 0 0 0 0 0 0 0 0 0 0 0 0 0 0 0 0 0 0 0 0 0
0 0 0 0 0 0 0 0 0 0 0 0 0 0 0 0 0 0 0 0 0 0 0 0 0 0 0 0 0 0 0 0 0 0 0 0 0 0 0 0 0 0 0 0 0 0 0 0
-11 -6 -9 -36 -23 12 27 33 -12 -34 -2 11 2 10 8 5 -14 13 24 -13 -7 -21 11 14 -46 -23 -5 14 13 -9 -20 12 5 33 -7 29 -5 -30 -28 -22 -28 23 -25 6 21 -62 8 -8
-29 23 35 20 13 37 -22 -30 16 1 16 30 -1 -4 -14 -5 14 -8 11 -3 7 -11 19 2 14 -19 -17 11 10 2 -27 -26 42 11 -25 -20 -7 -2 -4 7 28 -4 8 15 -17 -25 -4 -17
-2 23 -6 -3 -30 22 -25 26 -3 -14 -10 -4 -7 -10 0 -13 -1 -14 5 14 4 0 3 -22 -24 9 -2 11 6 -2 -3 15 -11 37 14 31 8 3 -22 19 26 -15 20 9 29 34 -29 -21
13 -22 41 15 33 10 -21 -20 25 -2 2 23 1 18 -22 19 13 -26 7 -30 -16 3 -1 -17 3 3 -11 -14 -10 -1 -38 -6 12 -7 -9 -3 13 -14 19 -15 41 -43 35 -39 -9 25 15 66
-17 8 -24 8 -1 -15 32 -5 -5 2 10 -25 37 31 22 -1 -10 -26 9 -22 -7 19 0 2 -17 36 21 6 4 -34 -3 -14 -4 1 19 -21 -3 -2 -12 -5 21 -74 33 -21 68 73 58 -32
0 0 0 0 0 0 0 0 0 0 0 0 0 0 0 0 0 0 0 0 0 0 0 0 0 0 0 0 0 0 0 0 0 0 0 0 0 0 0 0 0 0 0 0 0 0 0 0
0 0 0 0 0 0 0 0 0 0 0 0 0 0 0 0 0 0 0 0 0 0 0 0 0 0 0 0 0 0 0 0 0 0 0 0 0 0 0 0 0 0 0 0 0 0 0 0
0 0 0 0 0 0 0 0 0 0 0 0 0 0 0 0 0 0 0 0 0 0 0 0 0 0 0 0 0 0 0 0 0 0 0 0 0 0 0 0 0 0 0 0 0 0 0 0
-16 -13 -13 -11 -25 -10 9 -8 -2 8 19 -18 -3 11 11 -40 -23 -3 3 15 2 -4 25 -9 -21 5 -10 -13 20 11 -26 -14 5 23 8 23 0 -22 -20 -8 -15 24 15 11 9 12 -40 62
5 1 3 31 5 11 0 -14 -3 6 11 -14 15 10 -9 12 -22 4 12 -4 -18 12 2 6 -16 -1 0 -4 -3 -9 -18 -8 1 -15 12 -6 -8 18 -44 -11 -23 -25 18 12 46 48 3 62
1 7 -15 -10 -22 -5 -5 24 -21 -26 -8 0 -15 10 -5 -20 -27 29 27 -1 12 -21 9 -17 -20 -17 0 28 -18 -2 -11 5 -18 25 -12 -2 -1 -17 -10 25 -19 8 15 8 35 3 -34 -8
3 7 43 19 36 9 6 -8 -12 3 11 15 17 23 -31 8 11 -1 12 -31 -27 -6 -6 22 -12 -35 -24 -8 15 -1 -28 -9 5 -15 -17 -5 -5 -5 8 18 24 -29 37 -46 10 26 -14 44
-6 -8 -2 -19 20 4 7 3 8 10 -5 0 31 2 -10 -11 -5 -46 -19 18 28 26 -15 -4 -18 41 16 18 -20 -42 9 13 -3 -3 -28 -21 -30 15 -5 12 51 2 6 -30 42 25 25 -47
0 0 0 0 0 0 0 0 0 0 0 0 0 0 0 0 0 0 0 0 0 0 0 0 0 0 0 0 0 0 0 0 0 0 0 0 0 0 0 0 0 0 0 0 0 0 0 0
0 0 0 0 0 0 0 0 0 0 0 0 0 0 0 0 0 0 0 0 0 0 0 0 0 0 0 0 0 0 0 0 0 0 0 0 0 0 0 0 0 0 0 0 0 0 0 0
0 0 0 0 0 0 0 0 0 0 0 0 0 0 0 0 0 0 0 0 0 0 0 0 0 0 0 0 0 0 0 0 0 0 0 0 0 0 0 0 0 0 0 0 0 0 0 0
3 -27 7 17 9 15 -23 1 -23 -31 3 -5 13 11 16 -18 24 -6 -18 -2 4 9 9 7 -3 -9 11 25 -13 4 13 -17 -30 35 -3 1 1 -3 -9 23 -13 7 7 21 14 -20 -7 -3
-15 -17 37 17 32 -16 14 -14 -10 -2 -17 -8 3 -9 -39 -3 -21 15 -8 -18 -4 27 -7 -27 17 -20 7 -11 12 5 -15 -13 3 17 0 26 -9 -16 -30 3 20 -41 11 -4 -3 -9 38 5
-17 -27 -5 -8 12 4 13 -7 26 -7 14 0 18 15 -9 -14 23 10 16 -6 7 -26 -14 1 7 -3 -8 3 -32 15 16 -26 8 24 -12 -6 2 4 4 17 -12 6 4 9 11 33 -24 15
-4 19 -14 -14 21 6 -10 -21 -10 -22 12 -12 -27 24 -11 13 -14 9 13 45 -15 11 1 8 -21 -35 10 21 3 -1 -20 23 -2 -1 4 5 -26 29 -10 12 5 -9 23 -25 10 16 -16 24
15 -1 11 -26 22 29 3 6 -26 -18 13 -14 14 1 -25 3 18 1 -20 8 16 0 -17 13 7 -13 9 -35 -3 -5 6 19 -15 -12 27 -11 -24 17 15 3 38 2 -10 -5 84 46 51 -76
0 0 0 0 0 0 0 0 0 0 0 0 0 0 0 0 0 0 0 0 0 0 0 0 0 0 0 0 0 0 0 0 0 0 0 0 0 0 0 0 0 0 0 0 0 0 0 0
0 0 0 0 0 0 0 0 0 0 0 0 0 0 0 0 0 0 0 0 0 0 0 0 0 0 0 0 0 0 0 0 0 0 0 0 0 0 0 0 0 0 0 0 0 0 0 0
0 0 0 0 0 0 0 0 0 0 0 0 0 0 0 0 0 0 0 0 0 0 0 0 0 0 0 0 0 0 0 0 0 0 0 0 0 0 0 0 0 0 0 0 0 0 0 0
-15 1 -19 0 -17 -6 8 -5 4 -37 -8 22 -1 10 23 -39 -7 25 9 1 -11 4 11 1 -21 18 -28 -8 4 24 -26 13 -6 50 -2 11 16 -38 15 1 -38 -7 50 4 38 62 -55 17
-2 -27 24 -3 0 23 6 -11 -27 -8 -7 18 -23 35 -1 0 -14 22 -12 -28 -26 14 29 -21 -8 -12 4 13 -5 -6 -1 12 37 8 -14 25 9 15 2 -19 -49 -20 2 -36 -7 2 -6 -24
30 -2 11 -21 0 27 8 41 -2 -22 28 -6 -26 12 -11 -24 5 16 -8 5 6 -2 -13 -25 -5 10 1 19 -13 -2 -29 13 -34 25 -14 26 6 -16 -2 4 15 -33 7 0 47 17 -11 60
2 -34 0 28 28 35 -25 -28 13 -1 -34 -12 -15 25 -5 1 13 4 26 -20 5 27 8 -8 -14 29 13 -17 2 -20 1 4 30 -4 -8 11 -6 -14 -14 -7 10 -28 45 -7 -23 95 -11 -48
4 -34 -12 -1 13 0 1 24 -23 1 19 1 13 19 1 16 -41 -28 12 -13 13 13 7 30 10 39 24 -19 -6 -5 -37 -13 -16 11 -6 -3 -24 -1 11 19 -35 -22 10 -69 59 -22 -5 2
0 0 0 0 0 0 0 0 0 0 0 0 0 0 0 0 0 0 0 0 0 0 0 0 0 0 0 0 0 0 0 0 0 0 0 0 0 0 0 0 0 0 0 0 0 0 0 0
0 0 0 0 0 0 0 0 0 0 0 0 0 0 0 0 0 0 0 0 0 0 0 0 0 0 0 0 0 0 0 0 0 0 0 0 0 0 0 0 0 0 0 0 0 0 0 0
0 0 0 0 0 0 0 0 0 0 0 0 0 0 0 0 0 0 0 0 0 0 0 0 0 0 0 0 0 0 0 0 0 0 0 0 0 0 0 0 0 0 0 0 0 0 0 0
23 4 -7 -10 -18 10 19 26 -29 -22 0 12 -27 21 -6 -44 -10 25 0 2 -9 -13 -1 14 2 32 16 -9 0 14 -22 28 -9 43 1 23 -9 -18 -34 1 27 4 10 34 2 2 40 58
21 -2 30 11 -1 27 -2 -8 31 4 -4 -9 -14 14 -10 15 -15 9 40 3 5 30 9 -13 -4 17 -4 3 1 -14 -11 -5 15 11 -36 -25 8 22 -26 17 -4 -7 45 3 2 38 -59 41
0 2 -4 -17 -22 13 -11 8 -24 -46 52 3 -14 -4 -8 -24 -16 -5 16 20 -24 3 22 18 -34 -6 -14 35 11 -26 -22 22 -16 33 0 27 -24 -29 -14 -8 43 -25 17 17 63 45 -50 -24
-22 10 49 32 44 31 7 -23 -18 1 3 24 -13 48 -44 -5 -19 -24 48 -7 21 43 27 -11 3 16 -29 16 0 -12 -32 21 37 -6 -14 -15 43 -10 -2 0 29 -37 52 -19 -37 132 -5 -65
-47 -31 -23 -32 22 3 42 33 20 12 28 -48 21 -3 -12 3 -56 -51 -22 0 44 42 -36 19 -5 15 15 14 -24 -57 4 -32 -17 -14 -4 -23 -61 5 11 37 18 -92 37 -43 61 37 82 -21
0 0 0 0 0 0 0 0 0 0 0 0 0 0 0 0 0 0 0 0 0 0 0 0 0 0 0 0 0 0 0 0 0 0 0 0 0 0 0 0 0 0 0 0 0 0 0 0
0 0 0 0 0 0 0 0 0 0 0 0 0 0 0 0 0 0 0 0 0 0 0 0 0 0 0 0 0 0 0 0 0 0 0 0 0 0 0 0 0 0 0 0 0 0 0 0
0 0 0 0 0 0 0 0 0 0 0 0 0 0 0 0 0 0 0 0 0 0 0 0 0 0 0 0 0 0 0 0 0 0 0 0 0 0 0 0 0 0 0 0 0 0 0 0
8 1 16 -15 -4 35 16 32 -15 -45 30 14 12 -4 -9 -29 -24 5 7 30 -28 -9 -2 19 -8 28 -7 42 25 -8 -4 13 -25 10 1 20 1 8 -32 11 -27 -21 18 58 22 97 -64 26
-23 9 -1 28 24 19 1 -9 2 13 -9 21 11 25 -11 -13 3 -9 47 -31 -9 -4 39 23 2 -23 -51 -21 -4 27 -32 -8 42 -18 12 -31 -5 4 -17 8 -18 -49 -5 -34 -9 -53 62 -7
9 -10 20 -14 -24 24 -27 12 -27 -45 12 33 -5 5 2 -45 -1 -7 27 23 -33 -9 -1 17 -25 0 3 23 24 -21 -20 -2 -30 71 12 8 -24 -57 -27 13 -20 16 24 21 63 -28 -65 -11
-10 17 18 0 52 19 3 7 -12 -22 3 35 0 55 -30 25 -11 -22 44 -34 7 10 -1 -11 4 -33 -47 -8 20 13 -38 7 45 -9 -15 -14 17 22 -20 25 44 -15 34 -27 -16 94 -41 -19
-60 -44 -5 -30 19 -1 53 12 34 25 11 -47 38 -9 6 -21 -59 -36 -14 23 26 37 -53 50 -2 9 23 20 3 -68 -26 -21 -17 -10 -26 -16 -63 -4 -1 33 -39 22 8 -26 4 -77 33 -43
0 0 0 0 0 0 0 0 0 0 0 0 0 0 0 0 0 0 0 0 0 0 0 0 0 0 0 0 0 0 0 0 0 0 0 0 0 0 0 0 0 0 0 0 0 0 0 0
0 0 0 0 0 0 0 0 0 0 0 0 0 0 0 0 0 0 0 0 0 0 0 0 0 0 0 0 0 0 0 0 0 0 0 0 0 0 0 0 0 0 0 0 0 0 0 0
0 0 0 0 0 0 0 0 0 0 0 0 0 0 0 0 0 0 0 0 0 0 0 0 0 0 0 0 0 0 0 0 0 0 0 0 0 0 0 0 0 0 0 0 0 0 0 0
-17 14 7 2 -31 7 16 9 -21 -19 26 7 -27 1 23 8 -28 8 12 -23 -16 -5 -12 21 -32 -18 27 28 6 4 -22 27 -25 38 12 -8 -6 15 -8 21 -27 18 24 12 -35 -3 -83 34
-32 -20 0 19 5 32 10 -9 27 0 -8 -15 -1 15 -43 -4 -8 -4 -1 -9 -16 -20 -3 -10 -20 -23 -33 20 -10 22 -15 -19 24 8 10 -18 7 -6 -5 -15 24 -50 34 -17 -22 47 -57 33
21 5 -17 -22 -8 35 -10 0 -2 -19 22 0 -2 26 11 -30 3 13 13 -25 18 -8 -14 -1 -29 -2 11 29 22 6 7 -18 -7 51 22 20 13 -32 -21 8 -27 14 9 26 14 28 -30 15
-4 -27 13 14 29 18 -2 11 5 -12 -14 0 -9 33 -23 26 27 -21 2 17 -25 -11 10 10 -8 -23 -23 -17 -11 -8 -17 27 13 -18 -1 -14 -18 17 -37 20 28 -7 25 -16 -6 58 -50 -1
9 6 -5 -14 19 14 43 28 17 15 -13 -5 17 19 2 6 -32 -4 5 4 -15 22 -27 7 2 48 31 2 -22 -34 -21 5 -6 5 -41 -17 -15 -32 -6 21 1 -21 -1 -16 83 36 114 -54
0 0 0 0 0 0 0 0 0 0 0 0 0 0 0 0 0 0 0 0 0 0 0 0 0 0 0 0 0 0 0 0 0 0 0 0 0 0 0 0 0 0 0 0 0 0 0 0
0 0 0 0 0 0 0 0 0 0 0 0 0 0 0 0 0 0 0 0 0 0 0 0 0 0 0 0 0 0 0 0 0 0 0 0 0 0 0 0 0 0 0 0 0 0 0 0
0 0 0 0 0 0 0 0 0 0 0 0 0 0 0 0 0 0 0 0 0 0 0 0 0 0 0 0 0 0 0 0 0 0 0 0 0 0 0 0 0 0 0 0 0 0 0 0
18 30 -6 7 -28 42 5 4 3 -22 19 6 6 21 -16 -17 7 3 30 -23 -27 9 31 9 -39 11 22 35 -15 -19 7 -20 -11 2 -15 29 3 -25 -10 -4 -27 16 -26 -59 5 -24 79 13
-16 -28 15 17 -2 10 -22 -3 14 -20 -38 -5 8 19 -38 -9 18 -5 43 -9 -20 11 -2 20 7 0 -21 18 18 16 -17 18 34 8 -10 -26 -9 -3 -6 20 108 -2 21 0 -7 62 -61 30
6 8 8 -7 8 17 26 17 1 -31 35 -11 21 -8 14 -14 10 -19 -14 -12 -18 -14 -18 -12 -22 6 -4 2 14 -3 -30 4 -25 2 3 42 -8 -22 -5 -28 6 -36 15 -1 31 63 -33 7
-13 -17 -4 21 13 19 -26 -14 5 -7 -25 -21 5 9 -43 7 -10 7 14 -27 8 32 -16 -32 -8 20 -18 -1 16 8 -26 -23 13 9 17 4 12 6 -14 -17 -19 8 35 4 7 90 -64 -34
-33 -11 -2 -19 -13 3 -10 26 18 -6 21 -17 -10 3 -33 -6 -22 -16 11 26 -3 20 -32 9 19 25 28 -7 -17 -43 -18 -22 8 -25 -1 4 -31 11 -11 12 17 -25 -23 -58 2 -46 49 -34
0 0 0 0 0 0 0 0 0 0 0 0 0 0 0 0 0 0 0 0 0 0 0 0 0 0 0 0 0 0 0 0 0 0 0 0 0 0 0 0 0 0 0 0 0 0 0 0
0 0 0 0 0 0 0 0 0 0 0 0 0 0 0 0 0 0 0 0 0 0 0 0 0 0 0 0 0 0 0 0 0 0 0 0 0 0 0 0 0 0 0 0 0 0 0 0
0 0 0 0 0 0 0 0 0 0 0 0 0 0 0 0 0 0 0 0 0 0 0 0 0 0 0 0 0 0 0 0 0 0 0 0 0 0 0 0 0 0 0 0 0 0 0 0
16 -13 -25 -21 -23 22 17 14 21 -22 31 18 13 15 -2 -44 10 -5 19 14 -4 -6 28 -16 2 -9 -17 0 11 1 3 -9 -7 8 -21 19 2 -43 -2 6 -38 -36 -26 26 28 -97 61 -29
-13 -23 39 16 -2 11 9 -31 13 -1 -31 30 3 42 -37 -3 -20 -34 12 -28 -23 -3 -14 8 4 -21 -15 9 17 -17 5 -9 22 10 4 -7 18 13 -19 2 55 -31 22 6 -11 -45 -68 -9
24 -6 3 -4 -4 14 -20 45 -37 -26 31 22 -5 12 -1 -47 -26 -13 16 3 -15 18 20 16 -51 20 9 17 29 -8 -35 32 -24 27 12 16 -23 -17 -31 -39 29 -17 22 13 80 1 -67 -20
-23 -22 38 35 26 40 29 -8 8 15 -23 21 18 32 -37 -18 -19 -7 25 -56 -3 24 2 -5 13 11 -17 -4 32 7 -19 -7 47 25 -30 -30 22 0 -26 0 -6 6 51 2 4 82 -69 -38
-44 -61 -12 -47 -4 -8 22 41 29 8 4 -12 65 28 -26 -8 -62 -21 19 28 3 46 -39 39 17 30 36 27 -28 -47 -19 -41 -5 12 -32 -36 -33 25 -6 49 -51 -44 19 -39 -18 -18 40 -25
0 0 0 0 0 0 0 0 0 0 0 0 0 0 0 0 0 0 0 0 0 0 0 0 0 0 0 0 0 0 0 0 0 0 0 0 0 0 0 0 0 0 0 0 0 0 0 0
0 0 0 0 0 0 0 0 0 0 0 0 0 0 0 0 0 0 0 0 0 0 0 0 0 0 0 0 0 0 0 0 0 0 0 0 0 0 0 0 0 0 0 0 0 0 0 0
0 0 0 0 0 0 0 0 0 0 0 0 0 0 0 0 0 0 0 0 0 0 0 0 0 0 0 0 0 0 0 0 0 0 0 0 0 0 0 0 0 0 0 0 0 0 0 0
1 34 25 -22 -29 40 -11 12 -11 -19 2 23 -7 -11 12 -21 20 -18 -15 12 -34 1 -10 27 -15 13 -8 -2 18 -20 11 -2 -2 45 0 16 -13 -34 -32 -18 64 8 -37 25 -4 62 -28 67
-25 11 21 -11 29 39 24 -12 8 -1 12 -15 -8 30 -19 -1 -17 -2 30 -53 6 -3 6 15 -9 -3 -15 17 20 -18 -25 -34 42 -9 -31 -24 37 21 -40 -27 53 20 17 4 49 52 -92 52
-5 -16 -9 -18 -12 50 -17 32 29 -25 21 28 8 20 15 -47 12 11 -12 -17 -32 32 30 28 -33 29 14 28 17 10 -6 2 0 44 6 7 -17 -54 -19 -17 -9 14 10 27 93 -52 -60 17
-16 -10 50 9 16 19 15 -13 15 -2 0 17 2 41 -49 18 -9 -40 36 2 23 19 31 -17 -1 -25 -52 11 23 -5 -44 9 15 -5 -42 -30 6 1 -45 -17 6 4 50 -4 -4 25 -32 -15
-35 -59 0 -48 12 7 45 35 28 5 14 -14 50 1 -31 19 -49 -53 -6 22 23 49 -36 44 -23 30 11 35 -25 -52 -23 -4 -8 20 -29 -26 -31 2 -5 56 -35 -4 26 -41 18 -3 20 -52
0 0 0 0 0 0 0 0 0 0 0 0 0 0 0 0 0 0 0 0 0 0 0 0 0 0 0 0 0 0 0 0 0 0 0 0 0 0 0 0 0 0 0 0 0 0 0 0
0 0 0 0 0 0 0 0 0 0 0 0 0 0 0 0 0 0 0 0 0 0 0 0 0 0 0 0 0 0 0 0 0 0 0 0 0 0 0 0 0 0 0 0 0 0 0 0
0 0 0 0 0 0 0 0 0 0 0 0 0 0 0 0 0 0 0 0 0 0 0 0 0 0 0 0 0 0 0 0 0 0 0 0 0 0 0 0 0 0 0 0 0 0 0 0
22 21 -28 1 1 13 -2 5 -11 -15 36 -2 -11 -7 -16 -7 -24 17 31 3 -15 -17 -10 -14 2 26 16 18 32 16 -32 8 -7 19 -8 11 -13 -13 -11 1 -13 13 32 31 7 -5 -10 -4
14 -5 21 24 19 22 -1 4 15 -2 18 5 0 40 -17 13 13 -7 -1 -1 16 3 1 -7 -6 18 -43 -20 -5 32 -11 20 -12 -23 2 -20 -15 -6 -22 -10 41 -13 22 8 -18 11 -3 10
3 4 -1 -20 -25 24 20 2 8 -49 33 6 -18 19 25 -13 -8 29 -15 16 -27 -8 9 19 -7 -15 -14 16 23 -11 -28 -5 -16 0 -17 -1 6 -31 2 11 -45 2 7 30 24 16 -31 26
-21 -9 25 5 3 -3 -6 14 -14 1 -19 -2 11 17 -25 5 14 -1 12 -29 29 8 8 -5 -10 10 -32 7 -6 3 3 -6 -10 -15 5 -2 10 -6 -38 9 8 -1 32 -1 -5 27 -18 -7
-43 -31 10 -4 10 -6 -3 1 -5 23 32 7 22 -18 -25 11 -35 -7 -17 -1 -5 19 -12 31 6 -1 23 20 5 -35 -37 18 3 5 -54 5 -42 -33 10 20 -62 -24 -14 -81 17 -48 52 -47
0 0 0 0 0 0 0 0 0 0 0 0 0 0 0 0 0 0 0 0 0 0 0 0 0 0 0 0 0 0 0 0 0 0 0 0 0 0 0 0 0 0 0 0 0 0 0 0
0 0 0 0 0 0 0 0 0 0 0 0 0 0 0 0 0 0 0 0 0 0 0 0 0 0 0 0 0 0 0 0 0 0 0 0 0 0 0 0 0 0 0 0 0 0 0 0
0 0 0 0 0 0 0 0 0 0 0 0 0 0 0 0 0 0 0 0 0 0 0 0 0 0 0 0 0 0 0 0 0 0 0 0 0 0 0 0 0 0 0 0 0 0 0 0
-11 -23 28 -28 -20 18 4 6 22 11 29 -17 -11 27 10 -3 8 12 6 -22 1 7 19 -28 -7 4 9 12 3 -22 9 22 -17 7 1 24 -26 -28 -25 -13 4 2 60 18 -27 -44 -64 20
-24 -22 33 18 -7 -1 22 -28 -9 18 -12 -11 14 -9 -30 -5 -6 -28 8 -8 26 -23 -7 -18 -7 8 -17 39 -18 -15 -33 10 12 -20 -24 14 20 -6 -10 -14 -4 -25 28 14 38 2 49 6
-28 7 -4 17 -4 -13 2 -2 31 7 27 -17 8 -11 -1 -7 -2 -23 13 10 -6 -10 20 -14 -4 2 12 0 6 9 -4 12 30 -14 10 -1 -2 7 -10 -9 -9 -18 19 -2 27 66 -36 -4
-19 -10 24 12 -9 -14 0 -19 9 14 18 2 -5 -1 -24 -9 -5 -7 -32 -14 -3 6 16 7 17 13 3 33 -11 19 -5 8 -17 8 -1 10 4 7 11 -13 5 3 19 5 7 -5 -34 11
-9 13 -5 8 19 1 -26 -2 11 10 2 26 -6 17 -8 25 18 -14 -3 0 -35 -7 -10 4 21 -19 -2 -17 -24 5 10 6 -14 -3 9 -13 -10 -8 13 -15 -22 -1 -8 -9 35 20 -14 -1
0 0 0 0 0 0 0 0 0 0 0 0 0 0 0 0 0 0 0 0 0 0 0 0 0 0 0 0 0 0 0 0 0 0 0 0 0 0 0 0 0 0 0 0 0 0 0 0
0 0 0 0 0 0 0 0 0 0 0 0 0 0 0 0 0 0 0 0 0 0 0 0 0 0 0 0 0 0 0 0 0 0 0 0 0 0 0 0 0 0 0 0 0 0 0 0
0 0 0 0 0 0 0 0 0 0 0 0 0 0 0 0 0 0 0 0 0 0 0 0 0 0 0 0 0 0 0 0 0 0 0 0 0 0 0 0 0 0 0 0 0 0 0 0
-19 34 -6 -3 -17 36 11 23 -11 -35 43 -3 -27 -1 15 -20 -22 -14 11 -1 15 12 -13 -17 -27 14 -3 -9 -6 15 -16 -3 -2 29 19 3 16 -30 6 12 7 -43 38 22 8 9 7 37
18 -23 16 14 37 9 17 2 -15 -23 -15 15 -25 17 -30 -9 -4 -7 14 -18 19 -18 17 -26 -17 20 -40 -10 5 -21 -17 17 5 -18 13 -6 16 9 0 11 65 20 10 38 20 47 -44 37
0 -24 3 16 -9 22 12 17 2 -33 29 9 -22 9 -12 -5 16 2 11 1 -25 -2 9 7 -20 7 10 -6 26 28 -16 35 -29 15 5 16 -20 -22 -20 -16 16 -11 22 3 47 24 -40 -11
2 -15 27 -1 10 -2 -1 -13 -20 3 -21 -2 3 16 -39 -8 -12 19 16 -28 -3 14 -4 -18 16 24 -36 -7 31 -7 -21 -31 7 11 -9 -4 -5 31 -30 -3 0 7 27 16 5 1 -42 26
-34 -26 0 -31 1 6 18 19 11 -1 6 -25 9 12 -5 6 -17 -11 27 -19 1 9 -25 -3 -28 -11 11 -1 -9 -21 -19 -3 6 -9 -35 -6 -3 12 8 10 -53 -54 -11 -42 -54 30 48 50
0 0 0 0 0 0 0 0 0 0 0 0 0 0 0 0 0 0 0 0 0 0 0 0 0 0 0 0 0 0 0 0 0 0 0 0 0 0 0 0 0 0 0 0 0 0 0 0
0 0 0 0 0 0 0 0 0 0 0 0 0 0 0 0 0 0 0 0 0 0 0 0 0 0 0 0 0 0 0 0 0 0 0 0 0 0 0 0 0 0 0 0 0 0 0 0
0 0 0 0 0 0 0 0 0 0 0 0 0 0 0 0 0 0 0 0 0 0 0 0 0 0 0 0 0 0 0 0 0 0 0 0 0 0 0 0 0 0 0 0 0 0 0 0
7 5 1 5 19 0 -6 25 -25 -26 20 27 24 14 -3 -9 13 -20 -8 25 -28 -20 -19 4 -2 -7 -20 15 -8 -12 10 3 -33 24 13 -11 11 -21 -30 6 -33 -4 12 31 47 126 6 21
-1 -5 19 -1 22 18 -26 18 -30 4 -3 -11 15 37 -13 23 18 -25 19 -9 18 -1 -12 -10 -20 7 -30 -7 6 2 -11 -24 -3 14 18 -16 5 -3 -33 -21 11 13 7 -14 -2 -84 15 30
-10 10 -26 -22 -18 26 0 14 -20 -40 3 12 18 29 28 7 -22 22 -16 -24 -2 4 8 8 0 0 -19 23 8 13 2 -12 -11 -2 -7 7 15 -23 -7 11 -5 6 2 14 67 -31 -27 18
-4 -2 36 3 7 12 16 4 -10 -2 -13 5 20 12 -30 -6 -11 -13 30 7 -11 6 -20 -11 -14 -15 -32 -4 12 7 -32 -20 -6 11 -8 -35 1 -7 -32 -8 -8 -4 37 9 -2 27 -18 25
-13 0 -1 -23 -19 5 36 21 33 -20 17 -33 41 22 -24 -14 -35 6 2 29 4 31 -30 14 5 12 -10 35 4 -31 -11 4 21 5 -11 -26 -16 0 -4 46 -46 26 -8 19 -2 -68 8 -19
0 0 0 0 0 0 0 0 0 0 0 0 0 0 0 0 0 0 0 0 0 0 0 0 0 0 0 0 0 0 0 0 0 0 0 0 0 0 0 0 0 0 0 0 0 0 0 0
0 0 0 0 0 0 0 0 0 0 0 0 0 0 0 0 0 0 0 0 0 0 0 0 0 0 0 0 0 0 0 0 0 0 0 0 0 0 0 0 0 0 0 0 0 0 0 0
0 0 0 0 0 0 0 0 0 0 0 0 0 0 0 0 0 0 0 0 0 0 0 0 0 0 0 0 0 0 0 0 0 0 0 0 0 0 0 0 0 0 0 0 0 0 0 0
-20 -11 -10 5 -1 27 -25 13 -4 0 0 -3 19 13 -25 -16 -19 -1 -10 22 -12 4 25 35 -31 -14 12 -6 -4 -10 -3 -31 9 -3 13 0 -2 -16 -24 -4 -40 -13 15 34 -32 10 -19 9
-9 3 37 -11 37 -16 21 25 -10 -8 -22 22 24 44 -32 12 6 -31 11 -6 -18 23 -12 -18 19 -8 16 -12 24 12 -21 8 5 13 -8 -6 -18 6 -18 -1 59 19 43 -25 21 41 -40 38
-20 16 3 -18 -10 -6 -4 21 14 1 -18 12 29 4 25 -11 -16 12 -13 12 3 -10 -6 -30 15 16 -2 -7 -29 -18 -20 -29 12 -13 -24 -23 26 23 8 22 -33 -2 1 19 28 15 -25 21
-9 2 -11 11 -1 5 -6 -5 27 0 2 6 -12 -7 -9 -13 6 -4 1 -11 6 3 -17 -20 -20 7 12 13 -10 28 -6 -19 -10 18 -10 6 -20 -18 13 -14 -6 -8 29 -4 3 20 -11 7
19 -6 3 -17 -10 -16 -26 12 27 -1 -12 14 -8 18 6 17 -20 9 -8 -4 -22 16 20 -23 16 -4 15 13 -19 -21 -8 -11 -9 16 -27 15 -12 10 -10 -16 -35 0 -30 -1 -50 -33 53 -48
0 0 0 0 0 0 0 0 0 0 0 0 0 0 0 0 0 0 0 0 0 0 0 0 0 0 0 0 0 0 0 0 0 0 0 0 0 0 0 0 0 0 0 0 0 0 0 0
0 0 0 0 0 0 0 0 0 0 0 0 0 0 0 0 0 0 0 0 0 0 0 0 0 0 0 0 0 0 0 0 0 0 0 0 0 0 0 0 0 0 0 0 0 0 0 0
0 0 0 0 0 0 0 0 0 0 0 0 0 0 0 0 0 0 0 0 0 0 0 0 0 0 0 0 0 0 0 0 0 0 0 0 0 0 0 0 0 0 0 0 0 0 0 0
