-2 -10 -23 15 9 -12 6 14 -16 -22 7 7 16 1 22 -8 -21 16 14 -23 -3 31 -11 16 -14 12 9 -1 -19 5 -8 16 -24 16 17 5 3 11 5 5 14 -42 18 3 -10 -20 13 -17
-3 12 -11 11 -17 -33 -13 10 3 -25 6 32 -23 -20 -19 -14 -7 -6 21 14 8 1 -10 -9 -9 -15 -14 7 -4 -9 -5 -7 14 17 36 -18 36 -1 6 -8 -42 16 -32 26 12 -7 -11 -4
16 15 -13 13 24 -10 4 -13 -9 -12 -1 0 2 -15 -10 -16 19 -11 -8 20 22 19 10 -11 22 -35 -27 12 7 7 -19 11 -19 11 15 17 11 2 21 17 3 -23 -8 16 24 -17 -20 -1
21 14 -2 -40 -10 -25 -3 3 25 -3 -4 30 -21 30 19 0 -13 2 11 12 14 3 -12 23 -15 5 -21 1 -18 -14 0 -2 -9 23 -23 -18 5 14 -29 1 -29 12 -9 9 -18 -15 16 47
8 -3 -8 3 -8 5 0 -18 14 8 -10 -17 13 -17 -19 12 8 -19 26 -2 -38 15 26 4 8 -9 -2 13 12 19 -9 3 -10 18 -4 0 10 7 0 -10 3 -5 30 37 39 15 -20 26
0 0 0 0 0 0 0 0 0 0 0 0 0 0 0 0 0 0 0 0 0 0 0 0 0 0 0 0 0 0 0 0 0 0 0 0 0 0 0 0 0 0 0 0 0 0 0 0
0 0 0 0 0 0 0 0 0 0 0 0 0 0 0 0 0 0 0 0 0 0 0 0 0 0 0 0 0 0 0 0 0 0 0 0 0 0 0 0 0 0 0 0 0 0 0 0
0 0 0 0 0 0 0 0 0 0 0 0 0 0 0 0 0 0 0 0 0 0 0 0 0 0 0 0 0 0 0 0 0 0 0 0 0 0 0 0 0 0 0 0 0 0 0 0
-1 -14 0 8 12 20 -22 12 38 -25 -46 11 2 -18 18 20 27 7 22 14 8 -3 4 -3 -26 13 -13 -3 21 -15 6 -31 12 -18 -16 45 -3 16 17 -7 25 -34 18 10 41 -32 -10 9
12 -11 5 -32 -3 -15 -8 5 25 -2 20 49 23 4 -10 21 -41 29 -6 3 -31 -16 19 1 -12 -2 -22 -10 9 -40 17 -22 -17 -29 14 -3 26 9 12 -22 -39 29 -27 3 -69 -8 25 64
-3 -28 -3 16 -10 33 3 -7 1 -8 -23 22 -1 8 -12 15 -7 22 -15 15 7 -7 1 8 16 3 23 -12 -35 6 -27 -8 0 6 -25 28 7 20 28 16 1 -39 1 23 33 -32 -16 5
-5 -24 19 -28 24 -13 12 -5 10 -10 -20 44 23 -9 -11 -8 10 23 20 3 13 -25 16 12 11 -25 5 -17 -11 -32 0 -20 20 -5 -6 2 -1 -14 17 -16 -37 23 -13 -1 -26 -8 19 69
33 -27 -14 8 13 -20 -8 -24 26 29 26 -8 -13 -23 16 38 5 -11 30 -22 -43 7 2 -2 -21 -4 -22 -4 -5 17 -24 -20 14 -11 6 -22 6 -15 -7 -10 -27 -5 -17 33 73 37 -9 50
0 0 0 0 0 0 0 0 0 0 0 0 0 0 0 0 0 0 0 0 0 0 0 0 0 0 0 0 0 0 0 0 0 0 0 0 0 0 0 0 0 0 0 0 0 0 0 0
0 0 0 0 0 0 0 0 0 0 0 0 0 0 0 0 0 0 0 0 0 0 0 0 0 0 0 0 0 0 0 0 0 0 0 0 0 0 0 0 0 0 0 0 0 0 0 0
0 0 0 0 0 0 0 0 0 0 0 0 0 0 0 0 0 0 0 0 0 0 0 0 0 0 0 0 0 0 0 0 0 0 0 0 0 0 0 0 0 0 0 0 0 0 0 0
18 19 28 -23 -4 25 -18 14 -10 1 -19 9 -5 5 -20 -3 0 13 18 -27 15 -31 -27 -2 0 11 -18 34 -14 -12 -1 -13 -6 23 16 18 -17 -28 12 -12 -14 5 33 43 21 14 -23 19
0 -18 -3 -25 -11 -5 -17 15 33 15 14 -21 35 -16 5 7 -6 17 11 1 -15 -30 28 7 0 8 14 7 -1 -13 -27 -9 -3 -16 -22 7 16 -13 -4 18 31 -2 21 -14 16 -11 0 12
26 -3 28 -24 -21 -10 7 12 17 -11 -42 -6 -27 6 8 -7 -17 25 31 20 -32 -11 -30 6 -19 6 28 2 2 -5 12 -23 -7 1 -11 20 4 -20 -3 6 -11 -29 20 24 39 -14 -32 47
-14 34 -14 -12 10 -30 -6 5 15 -21 -1 -14 12 -48 -15 8 -11 9 13 -27 -7 -6 48 -19 -3 -16 5 20 10 -18 -32 -17 14 -31 13 25 34 12 -17 -25 -42 40 -21 -1 -43 4 23 35
31 -12 -31 23 -16 -8 19 -30 -15 48 -1 24 4 7 25 37 -12 -17 18 -33 -39 5 -7 13 6 -11 -8 -1 9 -10 -3 -58 26 -25 -5 1 -30 -13 -13 -4 -43 20 0 28 2 43 18 25
0 0 0 0 0 0 0 0 0 0 0 0 0 0 0 0 0 0 0 0 0 0 0 0 0 0 0 0 0 0 0 0 0 0 0 0 0 0 0 0 0 0 0 0 0 0 0 0
0 0 0 0 0 0 0 0 0 0 0 0 0 0 0 0 0 0 0 0 0 0 0 0 0 0 0 0 0 0 0 0 0 0 0 0 0 0 0 0 0 0 0 0 0 0 0 0
0 0 0 0 0 0 0 0 0 0 0 0 0 0 0 0 0 0 0 0 0 0 0 0 0 0 0 0 0 0 0 0 0 0 0 0 0 0 0 0 0 0 0 0 0 0 0 0
-19 9 6 6 2 -3 -14 -24 13 1 -19 1 -6 -4 16 -14 7 -3 3 -9 -15 -6 -16 10 27 5 21 21 -12 16 -20 -32 4 13 32 41 24 0 1 -17 3 -49 -8 27 71 -30 -57 30
19 12 28 -4 12 -7 4 22 -7 7 9 2 -3 -27 25 -24 8 -8 15 -22 -8 -5 17 -19 -18 -30 -13 3 -19 -36 -30 8 29 -7 -23 12 -3 31 -4 -24 -39 31 -36 7 -87 -22 43 33
30 22 26 2 3 -18 -6 9 3 -9 -20 -5 -20 -8 -16 -12 16 -16 23 22 -23 7 -2 -5 -10 -29 -13 8 3 12 28 -22 -13 -8 -11 17 13 -30 -7 8 -4 -9 8 15 31 -2 -35 37
4 13 -29 -13 -9 -13 26 14 26 -10 25 -48 -15 -21 21 -19 -28 -25 -15 -4 -24 -8 27 5 -19 -9 16 36 -3 -3 -1 0 7 -17 -1 12 44 30 -37 2 -32 28 -14 10 -36 -3 20 10
17 -12 -25 18 -17 44 -3 -12 -2 21 -16 18 -6 -4 -7 13 9 -14 9 -3 -5 -1 -10 8 29 2 -7 -10 30 -11 9 -37 24 26 -1 1 15 -45 -15 -11 31 -25 0 16 62 18 1 11
0 0 0 0 0 0 0 0 0 0 0 0 0 0 0 0 0 0 0 0 0 0 0 0 0 0 0 0 0 0 0 0 0 0 0 0 0 0 0 0 0 0 0 0 0 0 0 0
0 0 0 0 0 0 0 0 0 0 0 0 0 0 0 0 0 0 0 0 0 0 0 0 0 0 0 0 0 0 0 0 0 0 0 0 0 0 0 0 0 0 0 0 0 0 0 0
0 0 0 0 0 0 0 0 0 0 0 0 0 0 0 0 0 0 0 0 0 0 0 0 0 0 0 0 0 0 0 0 0 0 0 0 0 0 0 0 0 0 0 0 0 0 0 0
19 2 -16 -7 27 1 -6 16 32 -18 -20 -16 14 -23 9 -20 -11 10 35 -24 -29 -20 -16 6 12 18 -11 -10 11 -10 7 7 -12 21 -14 21 6 23 22 -3 21 -29 20 41 10 -13 -38 25
12 -20 -11 13 -35 0 22 9 43 11 -14 -1 22 -14 3 -1 8 1 17 23 -16 10 -8 -13 10 -10 -16 -17 23 -38 -23 -11 -4 15 -2 -33 19 -9 -6 -24 -45 23 5 15 -42 1 8 -13
21 -10 -11 19 -14 19 1 15 20 0 -30 16 -29 9 -1 3 0 37 24 -3 12 6 -32 8 -12 -17 8 8 -23 -17 -33 -13 -16 7 29 7 -4 23 24 32 20 -52 -5 13 64 -29 -30 3
-25 8 -6 -7 -2 13 22 22 35 14 4 35 -11 8 -5 0 21 1 13 21 0 -24 9 23 -37 16 -24 -13 -19 -45 4 -18 -18 13 -20 18 -16 -5 -33 -13 -48 26 -11 11 -49 -27 25 26
49 -16 -1 32 -14 -1 22 -29 0 37 -9 -13 2 -15 23 12 -6 -3 0 -8 -14 8 13 15 -1 -4 11 0 1 -4 -1 -36 5 -2 -24 21 15 -43 3 -36 -29 11 -3 36 24 31 18 4
0 0 0 0 0 0 0 0 0 0 0 0 0 0 0 0 0 0 0 0 0 0 0 0 0 0 0 0 0 0 0 0 0 0 0 0 0 0 0 0 0 0 0 0 0 0 0 0
0 0 0 0 0 0 0 0 0 0 0 0 0 0 0 0 0 0 0 0 0 0 0 0 0 0 0 0 0 0 0 0 0 0 0 0 0 0 0 0 0 0 0 0 0 0 0 0
0 0 0 0 0 0 0 0 0 0 0 0 0 0 0 0 0 0 0 0 0 0 0 0 0 0 0 0 0 0 0 0 0 0 0 0 0 0 0 0 0 0 0 0 0 0 0 0
18 1 19 -19 13 -2 -8 7 -6 9 -12 1 -8 -12 -3 16 13 20 10 -25 -2 -29 8 -7 -21 -9 -27 7 -26 -4 -10 17 22 17 -11 27 0 -13 6 8 16 -5 21 11 15 -7 -8 2
-8 22 -13 -18 -19 -28 -13 -16 28 8 15 24 22 -4 3 -17 25 2 13 -1 2 -36 22 17 -24 -22 18 9 -19 -3 -25 -21 9 -26 11 -12 -15 5 18 21 -41 19 -33 12 -17 -3 -13 25
22 -28 -24 -2 18 33 -10 2 24 -18 -49 11 -25 -6 11 6 -4 33 21 -8 4 -5 -17 18 -22 -1 -24 33 -10 -4 -38 -21 -20 24 -2 35 -29 0 25 39 18 -49 10 33 68 -40 -42 8
-4 -34 26 -12 -19 -38 11 -13 28 5 15 50 3 -35 -15 -20 16 42 2 -5 1 -30 24 -20 -19 2 29 3 9 -61 -4 -25 6 -19 -26 -20 -13 7 -2 -22 -69 39 -17 5 -62 -25 45 41
40 -28 8 22 26 -13 -4 -7 4 52 -2 33 -26 -9 0 -12 -20 -26 15 -40 -61 12 11 -25 -27 39 28 0 1 -15 -33 -9 24 17 -9 0 -9 -70 -28 -39 -40 10 35 52 29 11 -33 18
0 0 0 0 0 0 0 0 0 0 0 0 0 0 0 0 0 0 0 0 0 0 0 0 0 0 0 0 0 0 0 0 0 0 0 0 0 0 0 0 0 0 0 0 0 0 0 0
0 0 0 0 0 0 0 0 0 0 0 0 0 0 0 0 0 0 0 0 0 0 0 0 0 0 0 0 0 0 0 0 0 0 0 0 0 0 0 0 0 0 0 0 0 0 0 0
0 0 0 0 0 0 0 0 0 0 0 0 0 0 0 0 0 0 0 0 0 0 0 0 0 0 0 0 0 0 0 0 0 0 0 0 0 0 0 0 0 0 0 0 0 0 0 0
2 -9 -15 15 -14 -7 4 -6 -16 16 -46 -1 -17 23 -12 -24 -2 12 27 7 -23 -37 12 27 -20 19 1 11 -18 -6 16 -13 19 9 25 10 32 1 -3 26 -11 -15 -3 10 56 5 -18 75
-2 14 7 -10 4 -29 -7 31 49 11 -17 -2 -9 -41 13 -14 7 18 -5 20 -3 -16 23 8 -1 -25 30 -4 30 -6 -3 -22 2 -36 -24 -6 19 3 10 -3 -9 18 -49 0 -30 -7 -16 23
10 -27 16 -21 -19 16 7 8 -14 1 -39 -3 2 -7 10 8 -5 22 32 -13 -10 -9 1 7 -11 34 5 11 -16 5 18 -10 -25 14 0 37 -18 2 -22 10 2 -35 30 35 67 -13 -65 57
19 6 10 -5 -39 -39 -17 20 58 -1 5 -10 16 -63 -32 -1 -20 32 -12 -21 -8 -20 43 -14 11 -31 37 -15 40 -35 -42 -33 41 -27 -23 -21 33 34 16 -36 -73 51 -21 -2 -63 -13 40 23
58 -38 -35 39 22 -27 -21 -32 -12 39 31 30 -23 -24 23 20 -41 -8 29 -19 -43 -15 -24 -10 -35 21 5 20 -7 5 -17 -6 11 -12 26 -2 -20 -64 -35 -4 -15 -21 -29 40 31 22 -15 12
0 0 0 0 0 0 0 0 0 0 0 0 0 0 0 0 0 0 0 0 0 0 0 0 0 0 0 0 0 0 0 0 0 0 0 0 0 0 0 0 0 0 0 0 0 0 0 0
0 0 0 0 0 0 0 0 0 0 0 0 0 0 0 0 0 0 0 0 0 0 0 0 0 0 0 0 0 0 0 0 0 0 0 0 0 0 0 0 0 0 0 0 0 0 0 0
0 0 0 0 0 0 0 0 0 0 0 0 0 0 0 0 0 0 0 0 0 0 0 0 0 0 0 0 0 0 0 0 0 0 0 0 0 0 0 0 0 0 0 0 0 0 0 0
13 29 -1 -31 25 35 -4 6 16 21 -39 -10 -12 21 11 15 -23 24 -2 -5 -12 -15 -29 20 -16 30 -18 0 -11 9 27 19 -17 21 7 32 13 -8 6 1 -54 4 -32 25 35 -7 -14 54
-9 -4 10 17 -37 -11 5 35 21 13 14 17 26 -3 -25 18 -33 13 -9 22 -13 1 35 -12 -20 3 1 2 3 -12 -25 17 -10 -27 19 -20 -8 -7 -31 -21 -26 27 -19 6 -15 -3 16 -24
1 -4 21 -13 -5 2 -23 6 2 1 -38 3 13 -23 5 22 -2 9 22 18 8 -16 -1 -17 0 14 14 7 -32 11 16 2 3 13 16 12 8 0 2 5 13 -27 15 18 47 9 -48 45
10 33 -8 -2 -30 6 2 32 63 -21 -1 -19 4 -26 -5 -22 -26 4 -14 7 8 -9 29 25 -4 -13 -3 0 -25 -22 -20 -21 27 -18 -9 9 33 20 -15 -22 -51 38 -25 6 -49 -15 20 9
45 -27 -27 39 -3 -18 6 -16 -11 34 -6 1 -20 -10 18 20 6 1 9 -7 -48 1 -30 27 2 -2 2 10 -9 12 11 -27 13 16 -1 -5 3 -26 -6 -23 16 -23 -3 33 21 38 7 19
0 0 0 0 0 0 0 0 0 0 0 0 0 0 0 0 0 0 0 0 0 0 0 0 0 0 0 0 0 0 0 0 0 0 0 0 0 0 0 0 0 0 0 0 0 0 0 0
0 0 0 0 0 0 0 0 0 0 0 0 0 0 0 0 0 0 0 0 0 0 0 0 0 0 0 0 0 0 0 0 0 0 0 0 0 0 0 0 0 0 0 0 0 0 0 0
0 0 0 0 0 0 0 0 0 0 0 0 0 0 0 0 0 0 0 0 0 0 0 0 0 0 0 0 0 0 0 0 0 0 0 0 0 0 0 0 0 0 0 0 0 0 0 0
14 -12 25 -1 12 20 17 21 19 5 -41 1 22 -21 5 -13 -4 28 35 12 -19 -21 -15 1 17 0 -24 -18 3 -3 -25 15 12 10 -9 9 13 16 -4 16 20 0 1 19 -17 3 4 30
-9 -16 4 1 2 -27 15 1 -7 24 1 31 1 3 -19 0 20 39 7 18 10 -13 30 -3 15 26 -5 -3 -17 -18 -5 -4 -16 -12 -1 0 -35 -32 19 -34 -63 37 -62 -11 4 -17 -2 18
-18 -23 -19 6 -5 28 -11 4 25 -7 -14 15 -14 4 -2 23 -9 12 20 -23 -14 -20 -23 24 -15 10 3 17 -11 -15 -22 4 22 9 3 31 -5 8 19 14 32 -50 19 22 59 -24 -7 12
-13 -28 16 12 -5 6 21 -38 -3 26 -5 25 2 -16 -3 -1 -14 17 -1 15 0 -25 17 8 3 3 -24 1 18 -41 32 -9 5 -10 -17 -17 -31 2 27 9 -38 21 -27 17 -23 -23 1 -22
66 -28 -7 20 10 -9 -25 -8 0 41 5 17 -24 -10 -9 -9 -14 5 -8 -2 -29 13 -13 3 -22 14 24 -22 -32 10 -4 2 23 12 7 -17 -9 -43 -18 -19 -12 -26 -14 35 18 18 22 -73
0 0 0 0 0 0 0 0 0 0 0 0 0 0 0 0 0 0 0 0 0 0 0 0 0 0 0 0 0 0 0 0 0 0 0 0 0 0 0 0 0 0 0 0 0 0 0 0
0 0 0 0 0 0 0 0 0 0 0 0 0 0 0 0 0 0 0 0 0 0 0 0 0 0 0 0 0 0 0 0 0 0 0 0 0 0 0 0 0 0 0 0 0 0 0 0
0 0 0 0 0 0 0 0 0 0 0 0 0 0 0 0 0 0 0 0 0 0 0 0 0 0 0 0 0 0 0 0 0 0 0 0 0 0 0 0 0 0 0 0 0 0 0 0
-22 2 18 29 8 -2 25 13 1 -10 -13 -5 -5 -1 -17 3 -1 -6 4 -30 12 -8 -13 -5 -26 -26 -22 -10 -17 17 -20 17 -6 2 23 42 7 -29 9 32 47 -49 22 36 40 -17 -45 6
10 -6 -20 8 -34 5 18 -19 37 -28 -25 25 -37 -15 -26 5 15 36 9 -23 16 -5 17 -6 -11 19 -26 -8 27 -47 14 -6 -3 -27 -3 2 3 16 4 -29 -31 29 14 -2 -28 -19 3 2
1 -15 7 4 5 4 1 15 22 6 -44 -18 0 -13 31 -26 -13 12 30 -43 28 -5 -18 13 -31 10 -33 18 -16 -8 -10 5 11 22 25 55 -12 -13 13 25 32 -47 40 28 69 -44 -22 -6
-5 11 42 3 -35 -49 5 -9 17 14 18 52 -12 -35 -36 -3 22 35 5 20 -1 -28 38 -22 -9 27 -16 -17 22 -52 7 -17 -21 -8 -8 0 -25 -13 20 -21 -52 33 -32 13 -42 -21 12 -13
70 -8 24 68 12 -26 -2 -17 -4 48 9 8 -19 2 12 -6 -16 -16 -8 -44 -71 3 -7 15 -28 20 34 22 -10 -17 -10 -16 -4 -22 7 18 -16 -55 -32 -23 -45 20 0 27 -20 36 16 -50
0 0 0 0 0 0 0 0 0 0 0 0 0 0 0 0 0 0 0 0 0 0 0 0 0 0 0 0 0 0 0 0 0 0 0 0 0 0 0 0 0 0 0 0 0 0 0 0
0 0 0 0 0 0 0 0 0 0 0 0 0 0 0 0 0 0 0 0 0 0 0 0 0 0 0 0 0 0 0 0 0 0 0 0 0 0 0 0 0 0 0 0 0 0 0 0
0 0 0 0 0 0 0 0 0 0 0 0 0 0 0 0 0 0 0 0 0 0 0 0 0 0 0 0 0 0 0 0 0 0 0 0 0 0 0 0 0 0 0 0 0 0 0 0
-13 12 19 15 11 16 -13 -16 17 -8 -42 -35 -3 2 -7 -3 -15 -8 13 12 13 -39 8 13 -27 12 11 17 5 2 13 3 -10 12 -13 24 -19 -3 -13 -1 5 -10 37 -12 41 -17 -14 30
-6 29 13 19 -26 -3 8 -2 38 24 -20 17 10 -41 -46 -6 -7 19 3 -1 7 -42 47 -3 15 -10 -10 14 39 -23 9 -12 -29 -11 -33 -6 -7 -6 6 -2 30 -2 26 -23 37 18 -39 17
-22 0 26 7 -2 21 6 3 -5 24 -47 -14 17 -7 7 -5 26 -5 28 -44 26 -36 0 26 -8 32 -17 -2 -22 22 9 -3 -5 14 -2 33 5 15 -25 3 15 -35 50 26 80 -8 -62 83
15 -9 26 35 -55 -13 21 25 29 -12 0 19 -7 -27 -38 -6 33 36 -15 10 -8 -31 40 -9 12 10 23 -31 18 -62 -26 5 17 -13 6 9 -7 -4 27 -10 -36 40 -23 -16 -48 6 11 8
67 -23 -7 52 21 6 -27 -16 8 36 11 25 -58 5 8 9 -13 -1 -16 -48 -54 -4 -10 -14 -28 32 12 34 2 -20 -29 -41 11 -6 16 22 12 -84 -14 -42 -15 9 5 1 -21 -12 9 -72
0 0 0 0 0 0 0 0 0 0 0 0 0 0 0 0 0 0 0 0 0 0 0 0 0 0 0 0 0 0 0 0 0 0 0 0 0 0 0 0 0 0 0 0 0 0 0 0
0 0 0 0 0 0 0 0 0 0 0 0 0 0 0 0 0 0 0 0 0 0 0 0 0 0 0 0 0 0 0 0 0 0 0 0 0 0 0 0 0 0 0 0 0 0 0 0
0 0 0 0 0 0 0 0 0 0 0 0 0 0 0 0 0 0 0 0 0 0 0 0 0 0 0 0 0 0 0 0 0 0 0 0 0 0 0 0 0 0 0 0 0 0 0 0
1 -7 17 -17 -4 4 -21 1 -12 20 -30 9 -22 -16 -24 -4 -13 -1 31 -9 21 -5 -9 25 -10 23 -18 3 -21 -6 16 23 -7 23 8 5 4 19 -32 35 26 -15 37 19 57 -11 -11 20
19 7 24 17 -46 -2 -5 -7 -14 17 -5 -7 -7 9 -19 -1 12 10 -8 21 16 -36 46 14 18 18 5 3 34 -47 -24 19 -20 -23 5 6 -1 11 -10 15 -59 35 4 -37 -39 -15 24 -13
-25 9 -7 -24 -1 11 7 -11 2 9 -17 -2 0 2 -7 22 22 2 34 -23 -12 -43 -23 30 7 29 13 12 23 -3 -9 14 -4 17 18 1 7 30 -23 -11 21 -35 29 15 52 16 -34 60
14 6 -7 34 -41 13 -9 -3 13 -5 -31 10 -14 4 -12 21 -8 30 -1 -9 13 1 12 7 14 7 -20 -9 19 -46 -28 16 21 2 -2 -16 -15 18 7 4 -18 26 -20 -13 -22 4 0 3
46 -23 -29 11 -2 -4 -28 -21 -15 42 -12 28 -27 10 -12 -1 -28 11 -14 -15 -33 23 10 -14 -21 13 19 20 -24 12 -19 -36 21 -2 1 8 -21 -16 8 -33 -22 2 -16 15 -50 -17 24 -50
0 0 0 0 0 0 0 0 0 0 0 0 0 0 0 0 0 0 0 0 0 0 0 0 0 0 0 0 0 0 0 0 0 0 0 0 0 0 0 0 0 0 0 0 0 0 0 0
0 0 0 0 0 0 0 0 0 0 0 0 0 0 0 0 0 0 0 0 0 0 0 0 0 0 0 0 0 0 0 0 0 0 0 0 0 0 0 0 0 0 0 0 0 0 0 0
0 0 0 0 0 0 0 0 0 0 0 0 0 0 0 0 0 0 0 0 0 0 0 0 0 0 0 0 0 0 0 0 0 0 0 0 0 0 0 0 0 0 0 0 0 0 0 0
10 -10 0 14 -15 12 11 3 19 10 -8 6 -20 -19 16 18 4 7 11 -13 19 -8 -21 3 1 -26 5 -2 -16 24 13 5 -21 21 -18 26 -15 -1 17 20 2 -26 18 28 55 -18 -43 22
-7 -12 19 -15 -21 4 -1 -23 -19 1 5 18 6 -24 -18 -2 -5 39 -6 13 18 -39 13 -3 15 35 -29 27 30 -24 31 5 0 3 -23 18 -34 -9 -10 5 -31 18 -34 -8 -12 -7 28 5
-28 10 -3 -2 23 6 -12 -17 11 4 10 5 13 -1 15 -4 -2 -29 2 -10 4 -3 -19 14 13 -7 -17 -3 21 3 -12 21 31 -7 -16 26 4 1 20 -20 16 -25 16 22 27 -15 1 8
-8 -18 3 -19 12 -5 17 -37 -26 -6 3 38 -25 -6 -1 -7 5 -3 -14 -7 6 11 13 -20 9 23 -18 3 2 -26 2 36 12 -4 4 -14 -14 11 15 -1 -13 5 -17 15 -2 -10 0 -6
24 -3 0 9 -1 22 -16 -2 2 21 3 22 -22 10 -8 -10 -3 -10 -19 -15 -33 22 1 -9 -7 -2 3 -28 -19 4 -22 -29 16 7 23 -18 -1 -13 -24 -1 -20 22 -3 19 -1 11 15 -38
0 0 0 0 0 0 0 0 0 0 0 0 0 0 0 0 0 0 0 0 0 0 0 0 0 0 0 0 0 0 0 0 0 0 0 0 0 0 0 0 0 0 0 0 0 0 0 0
0 0 0 0 0 0 0 0 0 0 0 0 0 0 0 0 0 0 0 0 0 0 0 0 0 0 0 0 0 0 0 0 0 0 0 0 0 0 0 0 0 0 0 0 0 0 0 0
0 0 0 0 0 0 0 0 0 0 0 0 0 0 0 0 0 0 0 0 0 0 0 0 0 0 0 0 0 0 0 0 0 0 0 0 0 0 0 0 0 0 0 0 0 0 0 0
-9 -17 5 7 -19 12 13 15 -9 14 -3 -11 32 14 15 -17 -10 4 -1 13 12 2 -23 35 -21 14 1 -4 3 9 -18 26 -13 18 17 16 -16 13 20 -9 44 -22 13 26 31 8 -3 0
-19 -10 1 -6 3 -24 -8 -24 28 -21 5 23 -10 -38 -22 -18 30 33 16 -12 -1 -14 26 -14 -8 33 -16 9 3 -55 15 16 -14 0 16 -3 -5 -10 25 7 -56 26 -18 21 19 3 1 18
-6 28 8 19 -16 5 31 15 14 -17 -17 -10 2 -1 -3 -13 -1 -9 6 -22 19 -13 -29 26 -4 9 -14 16 16 12 -13 14 -1 10 -4 44 15 8 -9 -19 17 -37 30 18 39 -38 0 -10
-10 2 24 -9 -1 -36 20 -3 4 -5 -13 41 -19 9 -4 10 9 10 21 11 -16 -12 38 17 8 6 -26 -16 19 -34 18 6 -30 0 -5 19 -20 14 35 -15 -20 15 -29 4 -12 3 -8 13
45 15 -16 22 4 7 -10 -20 -17 43 -8 0 0 2 1 25 -18 4 -9 -25 -39 0 8 17 -4 4 -6 -9 3 6 -14 -31 25 -34 11 14 -11 -40 -9 -22 -9 3 -39 -10 3 23 22 -61
0 0 0 0 0 0 0 0 0 0 0 0 0 0 0 0 0 0 0 0 0 0 0 0 0 0 0 0 0 0 0 0 0 0 0 0 0 0 0 0 0 0 0 0 0 0 0 0
0 0 0 0 0 0 0 0 0 0 0 0 0 0 0 0 0 0 0 0 0 0 0 0 0 0 0 0 0 0 0 0 0 0 0 0 0 0 0 0 0 0 0 0 0 0 0 0
0 0 0 0 0 0 0 0 0 0 0 0 0 0 0 0 0 0 0 0 0 0 0 0 0 0 0 0 0 0 0 0 0 0 0 0 0 0 0 0 0 0 0 0 0 0 0 0
-22 10 30 -12 -18 21 -3 4 -6 -10 -32 5 -16 15 -2 12 36 7 26 -1 9 -2 -34 -9 3 -16 5 -16 15 -1 -31 -36 21 -22 10 42 -14 -6 -6 10 13 -30 24 6 65 -37 -32 40
2 -5 12 -16 4 0 -5 -23 22 -17 -5 -5 -7 -6 -32 -6 -24 8 -6 0 -12 -12 45 24 -7 9 13 -5 -15 -56 -3 -6 8 -10 1 6 13 13 42 -29 -25 27 -12 5 13 11 -10 53
-1 16 22 6 7 -11 11 1 11 -14 -44 -23 -8 -15 -24 -2 23 -9 17 -3 -1 -43 7 18 -12 -1 -8 8 -6 19 10 -11 2 24 -7 30 33 -24 -10 17 3 -24 40 14 43 -5 -25 78
24 17 20 22 -29 -30 12 -12 -2 -16 -22 -8 7 0 3 7 -9 33 20 14 0 -26 28 15 22 -7 -13 17 6 -29 11 -11 -8 -12 23 17 -6 -17 14 21 -8 29 -17 -14 -25 19 -10 27
39 -10 -12 12 1 0 -30 -12 15 28 -16 12 -16 12 -29 32 7 -10 3 -49 -46 15 8 10 1 22 17 29 12 -4 -5 -28 25 0 -6 4 -17 -26 12 -37 12 2 -30 -3 -4 28 21 -12
0 0 0 0 0 0 0 0 0 0 0 0 0 0 0 0 0 0 0 0 0 0 0 0 0 0 0 0 0 0 0 0 0 0 0 0 0 0 0 0 0 0 0 0 0 0 0 0
0 0 0 0 0 0 0 0 0 0 0 0 0 0 0 0 0 0 0 0 0 0 0 0 0 0 0 0 0 0 0 0 0 0 0 0 0 0 0 0 0 0 0 0 0 0 0 0
0 0 0 0 0 0 0 0 0 0 0 0 0 0 0 0 0 0 0 0 0 0 0 0 0 0 0 0 0 0 0 0 0 0 0 0 0 0 0 0 0 0 0 0 0 0 0 0
5 -17 -11 -15 -15 2 18 -4 -3 -14 -36 -7 -3 -31 -24 5 6 24 18 11 -21 -29 7 22 9 4 30 26 -13 3 -15 0 21 -8 -26 15 -9 -10 4 16 -3 -5 9 -15 6 -11 -31 75
23 34 15 3 -4 1 29 -20 -20 -26 -19 -3 -18 -22 -25 -16 -11 22 1 -8 22 -17 17 14 20 11 26 -25 10 -13 -8 -26 -16 7 -4 19 6 22 5 -15 -32 17 34 -22 -8 4 -17 22
-12 -7 18 -5 0 -11 7 -17 -12 26 1 -7 -9 19 -18 -8 25 -12 23 -16 -29 -15 5 20 5 -10 13 -32 0 -9 17 -7 12 -9 -2 10 19 -2 -8 12 5 -16 20 10 34 8 -19 47
14 9 -15 15 -7 7 2 -21 -30 14 -10 -18 -4 -11 -13 22 -2 10 -2 -5 8 -7 1 -17 18 6 -16 5 27 -20 -17 18 24 8 27 -10 0 -19 -6 29 0 22 -6 -4 -15 7 -5 2
43 -33 -21 19 -13 20 -28 -26 29 9 21 11 -18 -7 -14 18 0 -5 8 -14 -8 19 11 -9 -4 -11 5 19 -7 0 -6 -36 -10 3 13 -6 1 -5 1 4 38 -18 -5 7 8 -7 42 -40
0 0 0 0 0 0 0 0 0 0 0 0 0 0 0 0 0 0 0 0 0 0 0 0 0 0 0 0 0 0 0 0 0 0 0 0 0 0 0 0 0 0 0 0 0 0 0 0
0 0 0 0 0 0 0 0 0 0 0 0 0 0 0 0 0 0 0 0 0 0 0 0 0 0 0 0 0 0 0 0 0 0 0 0 0 0 0 0 0 0 0 0 0 0 0 0
0 0 0 0 0 0 0 0 0 0 0 0 0 0 0 0 0 0 0 0 0 0 0 0 0 0 0 0 0 0 0 0 0 0 0 0 0 0 0 0 0 0 0 0 0 0 0 0
