14 -11 -22 7 11 -8 4 14 -12 -21 1 16 4 -4 18 2 -15 21 11 -26 -12 31 -13 2 -18 26 20 11 -8 17 -11 13 -23 25 7 6 11 17 2 6 12 -15 17 5 6 -17 -2 23 0 0 0 0 0 0 0 0 0 0 0 0 0 0 0 0
-6 23 -6 19 -34 -34 -10 -3 -12 -23 0 29 -31 1 -21 -18 -10 -7 8 28 17 8 -30 -10 -2 -8 -42 1 -1 9 -11 -13 28 10 23 -26 25 17 16 -9 -29 24 -1 13 -23 -4 23 -8 0 0 0 0 0 0 0 0 0 0 0 0 0 0 0 0
14 10 -15 16 20 -5 4 -9 -2 -18 12 3 9 -4 6 -21 17 -13 -17 15 16 31 9 -10 23 -29 -30 -2 8 -3 -14 14 -20 4 34 -5 2 -2 14 11 6 8 0 -8 -33 5 14 9 0 0 0 0 0 0 0 0 0 0 0 0 0 0 0 0
11 12 -4 -34 0 -12 6 15 20 -5 -13 14 -8 31 28 -1 5 -3 13 15 26 18 -21 14 0 7 1 4 -10 -20 17 14 -16 14 -3 -24 11 6 -26 3 14 34 4 -17 4 -4 -2 -18 0 0 0 0 0 0 0 0 0 0 0 0 0 0 0 0
-8 1 -7 -2 -21 -2 -11 -3 17 -6 -25 -14 11 -18 -16 19 -6 -19 17 9 -20 14 19 -7 3 15 10 6 -33 2 -6 12 -24 4 7 -3 14 21 8 -10 -45 73 4 54 -152 -14 -18 -1 0 0 0 0 0 0 0 0 0 0 0 0 0 0 0 0
0 0 0 0 0 0 0 0 0 0 0 0 0 0 0 0 0 0 0 0 0 0 0 0 0 0 0 0 0 0 0 0 0 0 0 0 0 0 0 0 0 0 0 0 0 0 0 0 0 0 0 0 0 0 0 0 0 0 0 0 0 0 0 0
0 0 0 0 0 0 0 0 0 0 0 0 0 0 0 0 0 0 0 0 0 0 0 0 0 0 0 0 0 0 0 0 0 0 0 0 0 0 0 0 0 0 0 0 0 0 0 0 0 0 0 0 0 0 0 0 0 0 0 0 0 0 0 0
0 0 0 0 0 0 0 0 0 0 0 0 0 0 0 0 0 0 0 0 0 0 0 0 0 0 0 0 0 0 0 0 0 0 0 0 0 0 0 0 0 0 0 0 0 0 0 0 0 0 0 0 0 0 0 0 0 0 0 0 0 0 0 0
10 -18 5 -8 9 9 -15 16 31 -41 -35 17 0 -8 7 24 30 6 20 9 16 6 -12 -17 -33 24 -2 10 23 -17 10 -18 7 -4 -44 41 -5 17 29 0 -31 27 -45 -10 -2 -11 19 7 0 0 0 0 0 0 0 0 0 0 0 0 0 0 0 0
20 5 5 -13 -10 -12 -3 -17 20 15 15 41 17 13 -22 7 -51 25 -15 34 -40 -4 -1 5 1 8 -42 -7 13 17 6 -44 3 -7 -1 -9 8 18 30 -22 19 -10 0 -23 14 -6 -5 -3 0 0 0 0 0 0 0 0 0 0 0 0 0 0 0 0
-10 -35 -2 -1 -4 38 8 -3 13 -25 -16 22 -6 9 -10 17 -3 28 -15 -1 15 -3 0 21 8 17 17 0 -15 6 -24 -5 0 13 -17 25 3 15 17 20 -6 2 -4 4 31 20 3 11 0 0 0 0 0 0 0 0 0 0 0 0 0 0 0 0
9 -1 18 -15 10 -1 36 -21 10 -1 -30 50 14 -3 -10 1 7 18 13 18 17 -18 1 12 19 -10 -34 -12 -8 -4 -14 -29 42 -4 -3 -1 -9 -1 31 -18 14 69 6 -8 -18 -6 -8 -44 0 0 0 0 0 0 0 0 0 0 0 0 0 0 0 0
0 -23 -25 -4 3 -20 -5 2 24 0 13 1 -6 -19 21 30 -16 -4 26 3 -39 -1 5 -1 -18 13 -13 -5 -78 9 -18 -5 3 -14 12 -23 8 13 -2 -2 -154 41 46 19 5 -90 7 33 0 0 0 0 0 0 0 0 0 0 0 0 0 0 0 0
0 0 0 0 0 0 0 0 0 0 0 0 0 0 0 0 0 0 0 0 0 0 0 0 0 0 0 0 0 0 0 0 0 0 0 0 0 0 0 0 0 0 0 0 0 0 0 0 0 0 0 0 0 0 0 0 0 0 0 0 0 0 0 0
0 0 0 0 0 0 0 0 0 0 0 0 0 0 0 0 0 0 0 0 0 0 0 0 0 0 0 0 0 0 0 0 0 0 0 0 0 0 0 0 0 0 0 0 0 0 0 0 0 0 0 0 0 0 0 0 0 0 0 0 0 0 0 0
0 0 0 0 0 0 0 0 0 0 0 0 0 0 0 0 0 0 0 0 0 0 0 0 0 0 0 0 0 0 0 0 0 0 0 0 0 0 0 0 0 0 0 0 0 0 0 0 0 0 0 0 0 0 0 0 0 0 0 0 0 0 0 0
37 8 18 -30 -8 21 -14 12 -16 9 -19 22 -18 1 -22 11 -6 10 13 -31 7 -27 -36 -11 -6 16 -15 43 -9 -2 -16 -8 1 28 0 20 -10 -19 20 -13 19 18 42 34 0 6 13 18 0 0 0 0 0 0 0 0 0 0 0 0 0 0 0 0
6 -1 7 -11 -25 -4 -6 -8 24 17 8 -3 15 4 2 8 -9 22 -4 16 -11 -22 16 5 6 19 -23 -5 2 17 -27 -23 23 -15 -34 -1 8 13 7 13 -26 25 17 12 -31 35 20 10 0 0 0 0 0 0 0 0 0 0 0 0 0 0 0 0
31 -13 32 -32 -28 -15 11 10 19 -14 -33 -3 -28 8 6 -3 -18 27 28 6 -36 -18 -29 4 -32 17 26 7 0 5 12 -12 -3 6 -14 11 -1 -21 -1 11 -3 -3 2 40 32 -11 0 -4 0 0 0 0 0 0 0 0 0 0 0 0 0 0 0 0
-4 44 -1 -6 10 -23 21 -7 10 -19 -6 18 2 -33 -17 7 -15 11 5 -14 -4 3 37 -14 2 -9 -45 15 12 8 -36 -29 36 -19 2 21 39 23 0 -28 -9 67 -3 1 5 5 -22 -31 0 0 0 0 0 0 0 0 0 0 0 0 0 0 0 0
1 -15 -31 5 -12 -10 20 -3 -18 20 -17 22 0 16 32 38 -52 -16 15 -9 -24 6 -10 6 12 2 -1 -7 -71 -10 9 -27 13 -16 -3 -1 -14 12 -7 12 -22 18 26 65 -64 36 39 58 0 0 0 0 0 0 0 0 0 0 0 0 0 0 0 0
0 0 0 0 0 0 0 0 0 0 0 0 0 0 0 0 0 0 0 0 0 0 0 0 0 0 0 0 0 0 0 0 0 0 0 0 0 0 0 0 0 0 0 0 0 0 0 0 0 0 0 0 0 0 0 0 0 0 0 0 0 0 0 0
0 0 0 0 0 0 0 0 0 0 0 0 0 0 0 0 0 0 0 0 0 0 0 0 0 0 0 0 0 0 0 0 0 0 0 0 0 0 0 0 0 0 0 0 0 0 0 0 0 0 0 0 0 0 0 0 0 0 0 0 0 0 0 0
0 0 0 0 0 0 0 0 0 0 0 0 0 0 0 0 0 0 0 0 0 0 0 0 0 0 0 0 0 0 0 0 0 0 0 0 0 0 0 0 0 0 0 0 0 0 0 0 0 0 0 0 0 0 0 0 0 0 0 0 0 0 0 0
-7 1 6 -9 -3 -10 -6 -19 -1 -17 -12 8 -9 5 8 -11 4 -6 2 -18 -11 3 -33 0 14 9 33 36 -15 9 -23 -17 2 25 9 37 21 -1 10 -16 -36 -9 -58 10 32 -35 -32 19 0 0 0 0 0 0 0 0 0 0 0 0 0 0 0 0
23 25 25 12 6 -4 2 2 -11 19 2 -3 -7 -17 14 -37 -1 -12 4 7 -18 3 -3 -16 -6 -21 -35 4 -14 13 -36 -13 46 13 -36 3 -11 37 12 -25 1 -2 -8 1 -5 -17 -20 -17 0 0 0 0 0 0 0 0 0 0 0 0 0 0 0 0
24 10 27 -3 0 -24 -6 12 2 -12 -1 -5 -10 -8 0 -27 15 -16 15 20 -31 22 1 -20 -13 -30 -16 0 1 8 28 -19 -10 -15 10 -5 7 -32 -8 1 -2 -3 -5 6 -18 2 6 0 0 0 0 0 0 0 0 0 0 0 0 0 0 0 0 0
5 12 -19 -12 -5 -13 11 25 17 -25 16 -34 -5 -1 32 -8 -16 -25 -14 -3 -8 2 15 -1 -9 -4 6 36 8 -3 1 5 -3 -5 -5 1 63 24 -28 3 5 25 -3 8 16 -8 -8 -5 0 0 0 0 0 0 0 0 0 0 0 0 0 0 0 0
-11 -13 -31 4 -19 35 -1 7 -3 1 -25 19 -1 -2 0 17 -3 -13 15 4 0 -12 -4 5 29 14 4 -8 -29 -22 11 -18 12 19 7 2 20 -32 -12 -7 -52 11 15 45 43 -9 -2 18 0 0 0 0 0 0 0 0 0 0 0 0 0 0 0 0
0 0 0 0 0 0 0 0 0 0 0 0 0 0 0 0 0 0 0 0 0 0 0 0 0 0 0 0 0 0 0 0 0 0 0 0 0 0 0 0 0 0 0 0 0 0 0 0 0 0 0 0 0 0 0 0 0 0 0 0 0 0 0 0
0 0 0 0 0 0 0 0 0 0 0 0 0 0 0 0 0 0 0 0 0 0 0 0 0 0 0 0 0 0 0 0 0 0 0 0 0 0 0 0 0 0 0 0 0 0 0 0 0 0 0 0 0 0 0 0 0 0 0 0 0 0 0 0
0 0 0 0 0 0 0 0 0 0 0 0 0 0 0 0 0 0 0 0 0 0 0 0 0 0 0 0 0 0 0 0 0 0 0 0 0 0 0 0 0 0 0 0 0 0 0 0 0 0 0 0 0 0 0 0 0 0 0 0 0 0 0 0
24 -4 -9 -10 36 -5 -6 15 30 -27 -14 -14 15 -24 5 -9 -4 9 26 -21 -16 -7 -20 -5 10 32 -17 12 11 -8 4 16 -15 35 -24 17 2 24 29 2 4 -3 -21 14 -21 20 16 -30 0 0 0 0 0 0 0 0 0 0 0 0 0 0 0 0
22 -2 -6 22 -42 -1 34 -10 27 13 -22 13 2 5 7 -11 12 -7 3 27 -13 16 -6 -13 15 -5 -47 -13 14 2 -35 -13 14 27 -2 -34 6 5 6 -24 -11 19 21 -6 32 47 -5 18 0 0 0 0 0 0 0 0 0 0 0 0 0 0 0 0
25 -15 -9 11 -10 16 0 12 24 -24 -24 21 -33 6 -7 -1 2 38 21 -8 17 4 -33 16 -24 -3 3 26 -15 -10 -33 -6 -16 20 18 8 2 17 25 39 4 8 -2 -16 -46 -11 25 8 0 0 0 0 0 0 0 0 0 0 0 0 0 0 0 0
-11 21 10 10 -7 10 47 1 28 13 -1 37 -15 11 -3 2 28 3 3 34 5 -13 -1 17 -23 24 -44 -7 -15 -16 0 -28 3 9 -2 16 -29 8 -12 -15 -19 4 15 7 -6 16 -12 -74 0 0 0 0 0 0 0 0 0 0 0 0 0 0 0 0
17 -13 0 21 -17 -2 25 -5 1 19 -26 -21 0 -14 18 14 -16 -4 -1 13 -11 -4 5 8 7 9 12 3 -71 -13 9 -11 -10 -8 -16 22 18 -4 12 -20 -128 68 -28 -22 46 22 -9 -6 0 0 0 0 0 0 0 0 0 0 0 0 0 0 0 0
0 0 0 0 0 0 0 0 0 0 0 0 0 0 0 0 0 0 0 0 0 0 0 0 0 0 0 0 0 0 0 0 0 0 0 0 0 0 0 0 0 0 0 0 0 0 0 0 0 0 0 0 0 0 0 0 0 0 0 0 0 0 0 0
0 0 0 0 0 0 0 0 0 0 0 0 0 0 0 0 0 0 0 0 0 0 0 0 0 0 0 0 0 0 0 0 0 0 0 0 0 0 0 0 0 0 0 0 0 0 0 0 0 0 0 0 0 0 0 0 0 0 0 0 0 0 0 0
0 0 0 0 0 0 0 0 0 0 0 0 0 0 0 0 0 0 0 0 0 0 0 0 0 0 0 0 0 0 0 0 0 0 0 0 0 0 0 0 0 0 0 0 0 0 0 0 0 0 0 0 0 0 0 0 0 0 0 0 0 0 0 0
26 -8 14 -25 19 -16 -12 1 -12 3 -14 10 -21 -12 -11 24 29 15 12 -36 -1 -22 5 -26 -19 -2 -26 27 -15 2 -12 13 22 29 -25 17 5 -20 11 17 27 -17 -19 -15 27 -17 -13 -49 0 0 0 0 0 0 0 0 0 0 0 0 0 0 0 0
-10 28 -12 -12 -18 -37 -6 -32 13 10 8 34 7 5 0 -21 22 -1 -4 13 10 -24 8 14 -18 -21 -29 14 -24 36 -37 -31 31 -15 -11 -19 -24 14 26 19 -11 -28 -10 -10 -20 -14 -11 2 0 0 0 0 0 0 0 0 0 0 0 0 0 0 0 0
28 -35 -10 -24 20 33 6 5 36 -30 -51 20 -39 4 -2 10 -7 43 23 -25 8 -10 -20 34 -51 24 -11 56 -6 7 -35 1 -14 44 -28 41 -17 -4 32 51 -2 -4 -11 4 128 -45 -33 12 0 0 0 0 0 0 0 0 0 0 0 0 0 0 0 0
16 8 36 12 -25 -27 63 -56 16 34 12 73 -25 -33 -27 -4 16 38 -22 22 3 -25 16 -25 -9 12 -47 4 11 -3 -29 -55 53 -15 -24 -22 -41 35 23 -27 -38 107 12 2 -42 18 -5 -132 0 0 0 0 0 0 0 0 0 0 0 0 0 0 0 0
-15 -20 9 5 11 -20 3 21 7 17 -10 23 -16 -9 8 -9 -60 -30 2 -10 -48 12 11 -23 -6 46 18 0 -94 -18 -19 9 8 17 7 4 -6 -28 -27 -16 -162 49 48 41 -104 14 -13 65 0 0 0 0 0 0 0 0 0 0 0 0 0 0 0 0
0 0 0 0 0 0 0 0 0 0 0 0 0 0 0 0 0 0 0 0 0 0 0 0 0 0 0 0 0 0 0 0 0 0 0 0 0 0 0 0 0 0 0 0 0 0 0 0 0 0 0 0 0 0 0 0 0 0 0 0 0 0 0 0
0 0 0 0 0 0 0 0 0 0 0 0 0 0 0 0 0 0 0 0 0 0 0 0 0 0 0 0 0 0 0 0 0 0 0 0 0 0 0 0 0 0 0 0 0 0 0 0 0 0 0 0 0 0 0 0 0 0 0 0 0 0 0 0
0 0 0 0 0 0 0 0 0 0 0 0 0 0 0 0 0 0 0 0 0 0 0 0 0 0 0 0 0 0 0 0 0 0 0 0 0 0 0 0 0 0 0 0 0 0 0 0 0 0 0 0 0 0 0 0 0 0 0 0 0 0 0 0
8 -23 -10 0 -14 -18 2 -6 -25 9 -45 -1 -20 20 -24 -9 0 7 20 -5 -15 -32 -2 21 -37 32 0 34 -20 -6 9 1 19 19 0 8 29 -3 3 28 9 7 -37 -22 -13 10 9 -14 0 0 0 0 0 0 0 0 0 0 0 0 0 0 0 0
15 36 11 6 -1 -33 7 2 31 21 -23 23 -36 -26 14 -19 9 8 -21 22 -3 -13 26 7 2 -18 -15 -1 18 46 -18 -30 25 -16 -32 -8 8 21 24 -6 7 6 1 32 17 21 36 36 0 0 0 0 0 0 0 0 0 0 0 0 0 0 0 0
24 -34 26 -45 -20 7 13 2 1 -11 -42 12 -16 -1 -9 9 -9 29 36 -33 -11 -19 -10 21 -51 52 15 43 -1 22 7 12 -9 24 -40 36 -12 -1 -4 15 0 -4 1 123 61 -9 -107 -2 0 0 0 0 0 0 0 0 0 0 0 0 0 0 0 0
46 35 27 11 -38 -43 29 -15 45 12 2 28 -9 -58 -41 2 -33 28 -33 6 -12 -20 32 -11 17 -20 -37 -17 24 21 -65 -61 83 -13 -36 -21 17 71 43 -42 -33 117 -33 -4 -34 11 -18 -55 0 0 0 0 0 0 0 0 0 0 0 0 0 0 0 0
15 -27 -33 18 17 -35 0 -4 -14 18 12 25 -25 -19 17 21 -75 -9 17 17 -44 -25 -18 -14 -15 27 -8 -1 -94 0 2 21 -9 -17 31 -7 -11 -17 -26 15 -133 28 55 73 -37 -32 -6 -7 0 0 0 0 0 0 0 0 0 0 0 0 0 0 0 0
0 0 0 0 0 0 0 0 0 0 0 0 0 0 0 0 0 0 0 0 0 0 0 0 0 0 0 0 0 0 0 0 0 0 0 0 0 0 0 0 0 0 0 0 0 0 0 0 0 0 0 0 0 0 0 0 0 0 0 0 0 0 0 0
0 0 0 0 0 0 0 0 0 0 0 0 0 0 0 0 0 0 0 0 0 0 0 0 0 0 0 0 0 0 0 0 0 0 0 0 0 0 0 0 0 0 0 0 0 0 0 0 0 0 0 0 0 0 0 0 0 0 0 0 0 0 0 0
0 0 0 0 0 0 0 0 0 0 0 0 0 0 0 0 0 0 0 0 0 0 0 0 0 0 0 0 0 0 0 0 0 0 0 0 0 0 0 0 0 0 0 0 0 0 0 0 0 0 0 0 0 0 0 0 0 0 0 0 0 0 0 0
23 15 -10 -34 26 24 -6 2 5 12 -39 -1 -22 20 6 17 -12 17 2 -22 -11 -7 -30 2 -16 28 -18 22 -3 9 16 17 -13 32 -1 23 15 -14 12 7 -2 -14 -35 38 31 4 -5 -14 0 0 0 0 0 0 0 0 0 0 0 0 0 0 0 0
-8 -1 12 22 -33 -17 9 20 10 11 7 36 11 10 -25 17 -30 12 -21 32 -3 14 23 -13 -15 6 -45 12 1 24 -32 9 10 -12 -3 -25 -6 2 -21 -22 -11 -8 -8 18 -11 14 14 -21 0 0 0 0 0 0 0 0 0 0 0 0 0 0 0 0
-5 -15 25 -31 -8 -7 -10 4 6 -12 -34 10 4 -17 -4 11 2 7 17 5 2 -21 -4 -10 -23 16 8 29 -15 23 9 14 2 16 -2 0 10 -8 13 5 0 -8 -9 21 -28 5 5 8 0 0 0 0 0 0 0 0 0 0 0 0 0 0 0 0
26 46 8 9 -34 -5 14 22 47 -16 -12 -4 -8 -13 -4 -3 -16 -3 -21 17 14 -7 10 23 5 -6 -24 -1 -20 3 -23 -29 40 -4 -12 1 34 30 3 -23 -12 12 -32 6 -18 5 3 3 0 0 0 0 0 0 0 0 0 0 0 0 0 0 0 0
4 -10 -25 12 -7 -26 17 3 -22 16 -17 -14 -21 -2 19 19 -32 -3 -1 20 -25 -6 -33 21 13 3 -7 2 -86 15 17 -2 7 10 6 -6 10 12 -13 -6 -16 40 37 8 35 44 10 13 0 0 0 0 0 0 0 0 0 0 0 0 0 0 0 0
0 0 0 0 0 0 0 0 0 0 0 0 0 0 0 0 0 0 0 0 0 0 0 0 0 0 0 0 0 0 0 0 0 0 0 0 0 0 0 0 0 0 0 0 0 0 0 0 0 0 0 0 0 0 0 0 0 0 0 0 0 0 0 0
0 0 0 0 0 0 0 0 0 0 0 0 0 0 0 0 0 0 0 0 0 0 0 0 0 0 0 0 0 0 0 0 0 0 0 0 0 0 0 0 0 0 0 0 0 0 0 0 0 0 0 0 0 0 0 0 0 0 0 0 0 0 0 0
0 0 0 0 0 0 0 0 0 0 0 0 0 0 0 0 0 0 0 0 0 0 0 0 0 0 0 0 0 0 0 0 0 0 0 0 0 0 0 0 0 0 0 0 0 0 0 0 0 0 0 0 0 0 0 0 0 0 0 0 0 0 0 0
18 -16 21 -10 21 25 13 13 15 2 -48 7 7 -15 -5 8 2 29 32 5 -23 -20 -22 -8 17 15 -24 1 15 15 -22 15 12 25 -22 11 14 17 -9 21 3 -30 10 16 8 -8 -39 16 0 0 0 0 0 0 0 0 0 0 0 0 0 0 0 0
-10 -4 0 0 0 -23 24 -10 -17 4 -3 35 2 22 -7 -20 2 36 -9 28 9 4 7 -4 8 19 -27 3 -30 18 -24 -28 11 -9 -5 -6 -48 -6 14 -34 -1 29 -19 -7 -14 5 -6 -21 0 0 0 0 0 0 0 0 0 0 0 0 0 0 0 0
-14 -28 -16 -4 12 26 -13 3 28 -17 -10 20 -22 4 -15 24 -12 13 23 -16 -8 -16 -28 33 -33 16 12 43 -4 -15 -26 10 22 19 -15 27 -2 9 31 13 -6 15 -4 -10 -23 -33 24 -3 0 0 0 0 0 0 0 0 0 0 0 0 0 0 0 0
-17 -10 9 14 -7 4 25 -57 -17 27 -6 2 -2 -32 -2 -1 -18 9 -17 32 -4 -20 1 -1 6 1 -39 16 6 -10 17 -28 10 -8 -9 -27 -48 7 27 4 -16 24 -10 -4 -7 6 23 -11 0 0 0 0 0 0 0 0 0 0 0 0 0 0 0 0
29 -11 1 8 0 -14 -15 9 3 26 1 5 -22 -12 -8 -15 -36 -1 -17 21 -7 4 -8 5 -10 30 6 -30 -91 6 4 11 17 -1 22 -12 -18 -2 -21 -13 -126 49 -32 25 -101 72 61 69 0 0 0 0 0 0 0 0 0 0 0 0 0 0 0 0
0 0 0 0 0 0 0 0 0 0 0 0 0 0 0 0 0 0 0 0 0 0 0 0 0 0 0 0 0 0 0 0 0 0 0 0 0 0 0 0 0 0 0 0 0 0 0 0 0 0 0 0 0 0 0 0 0 0 0 0 0 0 0 0
0 0 0 0 0 0 0 0 0 0 0 0 0 0 0 0 0 0 0 0 0 0 0 0 0 0 0 0 0 0 0 0 0 0 0 0 0 0 0 0 0 0 0 0 0 0 0 0 0 0 0 0 0 0 0 0 0 0 0 0 0 0 0 0
0 0 0 0 0 0 0 0 0 0 0 0 0 0 0 0 0 0 0 0 0 0 0 0 0 0 0 0 0 0 0 0 0 0 0 0 0 0 0 0 0 0 0 0 0 0 0 0 0 0 0 0 0 0 0 0 0 0 0 0 0 0 0 0
-2 3 26 19 7 -15 31 10 -5 -10 -4 2 -15 9 -37 8 -1 -5 0 -25 21 -3 -25 -12 -35 -12 -16 7 -15 26 -19 26 -9 17 -13 39 -1 -24 28 38 16 -12 28 31 -19 30 -1 0 0 0 0 0 0 0 0 0 0 0 0 0 0 0 0 0
17 8 -26 20 -32 10 31 -33 32 -29 -30 21 -37 -8 -30 -15 -5 29 -3 2 0 7 -2 -3 -5 19 -43 -4 22 9 -3 -37 23 -4 -8 -4 -9 27 9 -32 26 11 5 -30 -3 -52 -17 -39 0 0 0 0 0 0 0 0 0 0 0 0 0 0 0 0
15 -17 11 -7 16 2 3 10 27 -4 -52 -10 -22 -11 -1 -8 -16 14 39 -48 39 -19 -25 36 -61 30 -22 59 -8 6 -15 20 11 44 -16 62 -7 -12 28 36 -1 -1 -8 13 140 -140 -62 10 0 0 0 0 0 0 0 0 0 0 0 0 0 0 0 0
-1 42 36 9 -32 -43 50 -52 7 32 19 46 -33 -57 -47 -11 1 29 -22 49 -20 -24 22 -19 -10 26 -73 -7 2 4 -17 -56 17 -5 -10 -1 -60 14 24 -28 -29 47 -25 1 -29 24 26 -4 0 0 0 0 0 0 0 0 0 0 0 0 0 0 0 0
27 3 26 49 8 -29 11 9 -1 21 -6 -9 -17 6 13 -7 -39 -15 -24 -3 -59 -4 -10 15 -2 33 13 5 -117 -8 6 11 -9 -24 13 15 -15 -9 -23 4 -125 75 -81 -109 -10 -50 -56 -58 0 0 0 0 0 0 0 0 0 0 0 0 0 0 0 0
0 0 0 0 0 0 0 0 0 0 0 0 0 0 0 0 0 0 0 0 0 0 0 0 0 0 0 0 0 0 0 0 0 0 0 0 0 0 0 0 0 0 0 0 0 0 0 0 0 0 0 0 0 0 0 0 0 0 0 0 0 0 0 0
0 0 0 0 0 0 0 0 0 0 0 0 0 0 0 0 0 0 0 0 0 0 0 0 0 0 0 0 0 0 0 0 0 0 0 0 0 0 0 0 0 0 0 0 0 0 0 0 0 0 0 0 0 0 0 0 0 0 0 0 0 0 0 0
0 0 0 0 0 0 0 0 0 0 0 0 0 0 0 0 0 0 0 0 0 0 0 0 0 0 0 0 0 0 0 0 0 0 0 0 0 0 0 0 0 0 0 0 0 0 0 0 0 0 0 0 0 0 0 0 0 0 0 0 0 0 0 0
-7 -1 6 6 14 14 -10 -26 3 -4 -45 -24 -21 7 -17 21 -20 -13 7 2 9 -35 -6 9 -30 18 2 33 11 17 4 12 -3 22 -32 27 -19 1 -7 1 -18 -29 28 -4 22 -14 -8 21 0 0 0 0 0 0 0 0 0 0 0 0 0 0 0 0
1 47 15 23 -24 3 25 -22 32 6 -23 42 0 -20 -35 -21 -25 24 -16 9 0 -24 33 -3 8 -13 -40 15 26 24 -4 -44 9 0 -37 -11 -18 28 3 -5 -7 14 -3 -6 -30 -13 -9 10 0 0 0 0 0 0 0 0 0 0 0 0 0 0 0 0
-11 -10 34 -15 11 8 9 -4 -7 17 -48 -8 -2 -15 -24 4 23 -1 37 -47 33 -52 -4 31 -43 43 -6 43 -18 40 -1 11 0 35 -43 40 12 19 -4 14 7 -10 -25 100 41 -1 -160 -15 0 0 0 0 0 0 0 0 0 0 0 0 0 0 0 0
29 21 31 37 -66 -21 40 -20 14 -7 2 43 -34 -32 -49 -8 6 34 -42 36 -22 -31 22 -5 6 11 -65 -23 0 -1 -62 -44 52 10 -17 1 -26 19 39 -21 -16 30 -106 1 -36 26 15 8 0 0 0 0 0 0 0 0 0 0 0 0 0 0 0 0
14 -14 0 26 28 5 -4 11 4 5 5 8 -57 13 12 -5 -62 -6 -19 -14 -36 -11 0 -8 -5 35 -12 26 -93 -9 -14 -12 6 2 21 26 14 -33 -18 -22 -77 36 -26 67 -53 66 8 -6 0 0 0 0 0 0 0 0 0 0 0 0 0 0 0 0
0 0 0 0 0 0 0 0 0 0 0 0 0 0 0 0 0 0 0 0 0 0 0 0 0 0 0 0 0 0 0 0 0 0 0 0 0 0 0 0 0 0 0 0 0 0 0 0 0 0 0 0 0 0 0 0 0 0 0 0 0 0 0 0
0 0 0 0 0 0 0 0 0 0 0 0 0 0 0 0 0 0 0 0 0 0 0 0 0 0 0 0 0 0 0 0 0 0 0 0 0 0 0 0 0 0 0 0 0 0 0 0 0 0 0 0 0 0 0 0 0 0 0 0 0 0 0 0
0 0 0 0 0 0 0 0 0 0 0 0 0 0 0 0 0 0 0 0 0 0 0 0 0 0 0 0 0 0 0 0 0 0 0 0 0 0 0 0 0 0 0 0 0 0 0 0 0 0 0 0 0 0 0 0 0 0 0 0 0 0 0 0
23 -10 20 -25 -8 -5 -11 -3 -25 17 -24 18 -33 -9 -41 0 -19 -2 28 -10 25 -1 -23 22 -23 30 -10 22 -24 -2 9 33 -7 36 -22 4 -5 23 -17 36 12 21 31 -1 -4 -11 15 2 0 0 0 0 0 0 0 0 0 0 0 0 0 0 0 0
21 17 16 27 -42 5 2 -19 -18 12 -11 -9 -7 15 -22 -21 -8 3 -21 43 -1 -27 28 15 22 17 -14 5 29 0 -36 -11 3 -3 1 -2 -2 19 -5 11 -7 28 11 -32 21 -19 4 -29 0 0 0 0 0 0 0 0 0 0 0 0 0 0 0 0
-10 2 -4 -24 1 -2 5 -17 -4 10 -13 6 -8 3 -24 20 14 -3 33 -15 -18 -48 -27 22 -20 32 24 32 9 6 -17 27 -1 24 -9 -11 8 33 2 -12 -3 -11 -5 9 -24 14 24 30 0 0 0 0 0 0 0 0 0 0 0 0 0 0 0 0
4 13 -1 30 -20 5 -3 -18 -6 -9 -28 13 -18 -4 -14 14 -13 29 -20 6 4 8 0 3 15 -3 -49 -6 8 -19 -35 -8 26 16 -8 -25 -20 27 10 1 -4 8 -106 0 -5 9 -1 -10 0 0 0 0 0 0 0 0 0 0 0 0 0 0 0 0
6 -18 -22 -11 2 -13 -17 -2 -12 24 -23 3 -27 12 -9 10 -41 6 -19 8 -19 12 9 -17 2 21 1 5 -115 17 -7 -4 12 -6 10 6 -17 14 15 -10 -18 47 -14 66 -78 21 34 -6 0 0 0 0 0 0 0 0 0 0 0 0 0 0 0 0
0 0 0 0 0 0 0 0 0 0 0 0 0 0 0 0 0 0 0 0 0 0 0 0 0 0 0 0 0 0 0 0 0 0 0 0 0 0 0 0 0 0 0 0 0 0 0 0 0 0 0 0 0 0 0 0 0 0 0 0 0 0 0 0
0 0 0 0 0 0 0 0 0 0 0 0 0 0 0 0 0 0 0 0 0 0 0 0 0 0 0 0 0 0 0 0 0 0 0 0 0 0 0 0 0 0 0 0 0 0 0 0 0 0 0 0 0 0 0 0 0 0 0 0 0 0 0 0
0 0 0 0 0 0 0 0 0 0 0 0 0 0 0 0 0 0 0 0 0 0 0 0 0 0 0 0 0 0 0 0 0 0 0 0 0 0 0 0 0 0 0 0 0 0 0 0 0 0 0 0 0 0 0 0 0 0 0 0 0 0 0 0
15 -12 5 17 0 4 12 4 16 3 -9 10 -20 -16 7 19 1 8 4 -3 28 0 -21 -3 0 -13 7 23 -21 34 10 15 -23 35 -31 23 -16 5 25 21 -1 8 25 1 13 -2 2 29 0 0 0 0 0 0 0 0 0 0 0 0 0 0 0 0
-7 4 18 -12 -19 2 -1 -31 -42 -10 2 27 -5 7 -6 -29 -6 31 -18 19 19 -26 18 -4 13 28 -62 26 12 7 13 -9 17 9 -14 17 -43 -1 -15 2 5 11 -1 -11 20 13 24 -5 0 0 0 0 0 0 0 0 0 0 0 0 0 0 0 0
-34 3 -8 3 31 7 -17 -14 0 5 24 0 20 -3 21 -6 -1 -34 -5 2 4 4 -12 7 22 -5 -19 -1 11 -4 -7 17 19 -5 2 11 -4 4 17 -20 -6 8 -4 0 -4 -17 15 -4 0 0 0 0 0 0 0 0 0 0 0 0 0 0 0 0
-27 -20 -9 -24 18 1 1 -30 -33 -16 -2 8 -15 -11 6 -13 8 -6 -16 -4 11 23 -1 -28 8 17 -11 13 5 -25 5 33 -3 -3 15 -25 -12 -5 1 0 -3 -9 12 11 8 -5 -4 5 0 0 0 0 0 0 0 0 0 0 0 0 0 0 0 0
-3 -2 -2 3 1 20 -19 17 5 2 0 9 -18 11 4 -17 -10 -10 -15 0 -18 18 -3 -8 -4 14 -1 -18 -79 5 -23 -16 15 6 32 -14 2 10 -23 6 -115 85 -63 -28 -58 -18 36 38 0 0 0 0 0 0 0 0 0 0 0 0 0 0 0 0
0 0 0 0 0 0 0 0 0 0 0 0 0 0 0 0 0 0 0 0 0 0 0 0 0 0 0 0 0 0 0 0 0 0 0 0 0 0 0 0 0 0 0 0 0 0 0 0 0 0 0 0 0 0 0 0 0 0 0 0 0 0 0 0
0 0 0 0 0 0 0 0 0 0 0 0 0 0 0 0 0 0 0 0 0 0 0 0 0 0 0 0 0 0 0 0 0 0 0 0 0 0 0 0 0 0 0 0 0 0 0 0 0 0 0 0 0 0 0 0 0 0 0 0 0 0 0 0
0 0 0 0 0 0 0 0 0 0 0 0 0 0 0 0 0 0 0 0 0 0 0 0 0 0 0 0 0 0 0 0 0 0 0 0 0 0 0 0 0 0 0 0 0 0 0 0 0 0 0 0 0 0 0 0 0 0 0 0 0 0 0 0
2 -23 1 3 -9 0 8 12 -16 9 -8 -2 19 17 3 -12 3 -5 3 8 17 8 -26 17 -18 18 5 19 12 19 -18 23 -14 31 1 6 -12 11 27 2 14 -6 -45 10 16 -4 -14 2 0 0 0 0 0 0 0 0 0 0 0 0 0 0 0 0
-24 1 2 -2 8 -34 6 -29 15 -24 5 38 -16 -20 -22 -32 27 30 -3 4 5 -2 17 -18 -6 22 -57 11 -6 -23 0 -4 15 5 6 -11 -11 3 25 0 -27 10 -29 7 -18 -39 -18 -47 0 0 0 0 0 0 0 0 0 0 0 0 0 0 0 0
8 24 9 19 -4 6 20 14 13 -16 -10 -9 -2 -4 -9 -5 -9 -6 11 -17 25 -9 -30 25 -14 23 -1 28 5 7 -12 18 3 21 -6 41 12 16 -7 -15 1 -3 -5 15 38 -75 -32 2 0 0 0 0 0 0 0 0 0 0 0 0 0 0 0 0
-20 17 11 -11 -1 -23 35 -22 0 -8 -11 36 -21 -4 -7 -8 -10 9 4 31 -22 -2 32 13 5 4 -69 -7 1 -3 0 -19 -14 0 -6 16 -36 20 32 -20 -3 -20 -15 11 27 2 -6 20 0 0 0 0 0 0 0 0 0 0 0 0 0 0 0 0
15 13 -10 18 -2 7 -8 3 -6 13 -18 4 2 4 7 20 -36 1 -12 -6 -31 -4 11 15 1 25 -9 -13 -64 -3 -3 -11 10 -35 22 16 -11 -10 1 -16 -87 51 -5 -4 11 53 96 24 0 0 0 0 0 0 0 0 0 0 0 0 0 0 0 0
0 0 0 0 0 0 0 0 0 0 0 0 0 0 0 0 0 0 0 0 0 0 0 0 0 0 0 0 0 0 0 0 0 0 0 0 0 0 0 0 0 0 0 0 0 0 0 0 0 0 0 0 0 0 0 0 0 0 0 0 0 0 0 0
0 0 0 0 0 0 0 0 0 0 0 0 0 0 0 0 0 0 0 0 0 0 0 0 0 0 0 0 0 0 0 0 0 0 0 0 0 0 0 0 0 0 0 0 0 0 0 0 0 0 0 0 0 0 0 0 0 0 0 0 0 0 0 0
0 0 0 0 0 0 0 0 0 0 0 0 0 0 0 0 0 0 0 0 0 0 0 0 0 0 0 0 0 0 0 0 0 0 0 0 0 0 0 0 0 0 0 0 0 0 0 0 0 0 0 0 0 0 0 0 0 0 0 0 0 0 0 0
-16 -1 33 -21 -13 10 -4 5 -16 -14 -37 6 -20 16 -19 17 29 4 22 -6 14 -2 -43 -10 -14 -4 14 11 8 7 -38 -21 22 -11 -17 41 -14 -5 1 9 -15 -2 41 -6 1 -16 -11 0 0 0 0 0 0 0 0 0 0 0 0 0 0 0 0 0
9 14 11 -7 7 -5 -3 -40 -2 -19 -8 15 -24 20 -23 -28 -28 -2 -21 3 -15 -2 50 22 -9 4 -34 -6 -36 -13 -24 -26 29 3 1 5 4 25 38 -34 -14 13 -4 48 56 54 24 15 0 0 0 0 0 0 0 0 0 0 0 0 0 0 0 0
3 7 24 -5 11 -15 13 1 12 -2 -38 -18 -14 -9 -31 1 17 -8 18 -5 -6 -44 5 15 -31 5 4 24 -8 20 3 0 7 23 -17 15 26 -17 2 15 2 -8 -20 19 12 0 -53 -6 0 0 0 0 0 0 0 0 0 0 0 0 0 0 0 0
17 29 8 15 -16 -26 16 -19 -15 -13 -25 -2 -4 -4 -2 0 -26 24 6 31 -4 -24 13 16 14 -11 -58 18 -11 -3 -6 -32 -2 5 2 7 -6 -8 6 16 2 -12 55 5 3 7 7 7 0 0 0 0 0 0 0 0 0 0 0 0 0 0 0 0
0 -2 -13 -4 1 -8 -16 11 15 6 -23 2 -13 18 -17 25 -26 -9 -3 -19 -35 11 17 15 15 32 -2 14 -64 0 3 -11 19 -1 -1 1 -10 4 11 -25 -71 47 -28 16 0 21 18 24 0 0 0 0 0 0 0 0 0 0 0 0 0 0 0 0
0 0 0 0 0 0 0 0 0 0 0 0 0 0 0 0 0 0 0 0 0 0 0 0 0 0 0 0 0 0 0 0 0 0 0 0 0 0 0 0 0 0 0 0 0 0 0 0 0 0 0 0 0 0 0 0 0 0 0 0 0 0 0 0
0 0 0 0 0 0 0 0 0 0 0 0 0 0 0 0 0 0 0 0 0 0 0 0 0 0 0 0 0 0 0 0 0 0 0 0 0 0 0 0 0 0 0 0 0 0 0 0 0 0 0 0 0 0 0 0 0 0 0 0 0 0 0 0
0 0 0 0 0 0 0 0 0 0 0 0 0 0 0 0 0 0 0 0 0 0 0 0 0 0 0 0 0 0 0 0 0 0 0 0 0 0 0 0 0 0 0 0 0 0 0 0 0 0 0 0 0 0 0 0 0 0 0 0 0 0 0 0
19 -29 -17 -16 -9 -7 15 -6 -14 -22 -39 3 -13 -29 -33 4 14 14 23 0 -16 -22 6 7 10 -1 31 50 -6 6 -24 -2 24 4 -36 7 -8 -9 13 24 -18 -16 0 9 8 0 -26 -8 0 0 0 0 0 0 0 0 0 0 0 0 0 0 0 0
21 41 16 6 4 -6 40 -23 -28 -33 -19 21 -24 -1 -22 -26 -9 22 -12 5 29 -4 11 11 22 3 -15 -18 2 16 -17 -43 11 15 -13 13 11 34 7 -21 -7 6 -5 -1 -13 0 -6 -22 0 0 0 0 0 0 0 0 0 0 0 0 0 0 0 0
-8 -14 10 0 8 -18 -6 -21 -19 27 15 -8 -8 10 -21 -15 24 -20 20 -6 -31 -10 3 10 1 -17 7 -22 1 -11 10 -11 10 -13 5 -9 7 2 -2 5 -3 -6 -5 -8 -15 12 23 20 0 0 0 0 0 0 0 0 0 0 0 0 0 0 0 0
0 -4 -21 1 -5 -2 -20 -8 -37 -12 -15 -30 9 -12 -3 8 -12 5 -2 -2 5 1 -17 -18 15 1 -5 11 11 -20 -11 15 4 18 21 -18 15 -30 -15 27 2 -5 85 0 5 0 -6 -4 0 0 0 0 0 0 0 0 0 0 0 0 0 0 0 0
26 -24 -12 4 -7 20 -22 -13 27 -4 9 9 -27 3 -14 10 -15 -7 8 2 11 7 11 -17 -9 9 2 6 -55 -1 -4 -11 -13 -5 14 -8 4 20 4 5 -109 42 -57 2 -27 6 4 9 0 0 0 0 0 0 0 0 0 0 0 0 0 0 0 0
0 0 0 0 0 0 0 0 0 0 0 0 0 0 0 0 0 0 0 0 0 0 0 0 0 0 0 0 0 0 0 0 0 0 0 0 0 0 0 0 0 0 0 0 0 0 0 0 0 0 0 0 0 0 0 0 0 0 0 0 0 0 0 0
0 0 0 0 0 0 0 0 0 0 0 0 0 0 0 0 0 0 0 0 0 0 0 0 0 0 0 0 0 0 0 0 0 0 0 0 0 0 0 0 0 0 0 0 0 0 0 0 0 0 0 0 0 0 0 0 0 0 0 0 0 0 0 0
0 0 0 0 0 0 0 0 0 0 0 0 0 0 0 0 0 0 0 0 0 0 0 0 0 0 0 0 0 0 0 0 0 0 0 0 0 0 0 0 0 0 0 0 0 0 0 0 0 0 0 0 0 0 0 0 0 0 0 0 0 0 0 0
