0 50 -20 -1 15 22 -2 -23 5 -12 6 -20 -5 -27 -23 -42 16 5 39 10 33 -6 13 -7 5 -17 -22 -62
-11 -6 35 11 -44 -2 -11 10 -33 -3 19 3 5 -3 -30 -14 -22 2 -29 8 -5 4 -42 -25 -13 22 22 -19
-21 39 -6 2 -18 35 22 -41 11 -14 -18 -19 5 -22 -8 -6 20 -13 -3 10 41 -7 12 14 -7 -8 -6 -53
-24 -5 2 27 4 -15 -5 0 -16 -7 -3 -3 -5 11 -27 16 12 -7 -15 16 -9 -48 -29 1 -7 3 -12 5
1 -3 -3 -4 8 -1 -22 -10 -9 -37 1 34 23 12 38 -16 -11 16 27 -11 -10 -30 -55 -40 34 -8 -84 -19
0 0 0 0 0 0 0 0 0 0 0 0 0 0 0 0 0 0 0 0 0 0 0 0 0 0 0 0
0 0 0 0 0 0 0 0 0 0 0 0 0 0 0 0 0 0 0 0 0 0 0 0 0 0 0 0
0 0 0 0 0 0 0 0 0 0 0 0 0 0 0 0 0 0 0 0 0 0 0 0 0 0 0 0
-6 26 -15 -4 9 12 -17 14 -27 -24 2 -27 -17 -27 6 -26 -3 11 -20 21 -7 26 22 2 -22 37 -12 -10
-13 0 10 10 -49 13 -34 11 -45 -13 29 9 -6 15 -18 -8 17 -18 -15 -11 -1 -2 -15 -22 -4 -17 1 64
-29 33 -18 14 -11 51 21 -22 -5 -21 17 -3 0 -28 4 -15 6 4 2 27 26 -1 28 17 -21 -18 -23 -42
-38 6 34 3 -36 18 -25 9 -13 -13 33 3 4 15 -25 -6 26 -7 -30 14 1 -70 -34 0 -11 -21 -9 -3
-17 10 0 -22 -13 24 -36 13 -19 -25 7 37 10 -8 59 -4 -8 18 46 -7 -51 -33 -60 -48 68 -32 -82 -59
0 0 0 0 0 0 0 0 0 0 0 0 0 0 0 0 0 0 0 0 0 0 0 0 0 0 0 0
0 0 0 0 0 0 0 0 0 0 0 0 0 0 0 0 0 0 0 0 0 0 0 0 0 0 0 0
0 0 0 0 0 0 0 0 0 0 0 0 0 0 0 0 0 0 0 0 0 0 0 0 0 0 0 0
8 -32 18 12 -12 1 -8 10 -4 2 2 9 -2 -38 -44 -14 -11 -23 33 46 -13 23 -10 -10 -1 5 1 -4
8 23 7 -17 -26 2 -34 24 -6 -18 20 1 5 -5 -2 13 8 -5 5 -24 -17 -6 -37 -19 -1 25 -11 9
-11 -17 3 -17 15 36 -14 27 -6 19 12 -19 32 -43 14 -35 -16 -9 14 39 -36 6 36 -11 -17 0 -16 18
29 16 6 -2 -42 52 -37 -31 -23 2 43 11 6 5 4 -21 -1 0 -33 6 12 -45 15 -2 -15 -3 -19 -1
-18 24 5 -32 0 -9 -12 -3 -20 -24 16 34 -7 6 44 5 -6 2 46 13 -26 -32 -46 -46 64 -44 -59 11
0 0 0 0 0 0 0 0 0 0 0 0 0 0 0 0 0 0 0 0 0 0 0 0 0 0 0 0
0 0 0 0 0 0 0 0 0 0 0 0 0 0 0 0 0 0 0 0 0 0 0 0 0 0 0 0
0 0 0 0 0 0 0 0 0 0 0 0 0 0 0 0 0 0 0 0 0 0 0 0 0 0 0 0
10 -7 -17 -8 6 4 15 22 9 -8 7 -15 3 -37 34 -44 30 -10 -37 51 -2 -17 12 -12 -1 35 0 -15
26 4 0 -12 -48 13 6 -26 -21 -8 24 19 22 14 -15 -10 27 7 7 -9 -41 18 1 -12 -5 23 -42 18
4 -16 -3 -17 2 14 -14 -1 5 26 -9 -16 40 -37 5 -12 -4 -31 16 15 -29 7 5 -18 -6 -13 10 -5
46 6 -30 17 1 18 -14 -39 -16 12 6 2 -3 3 7 -1 -14 -1 -27 8 -1 -22 26 16 -13 -8 -14 6
-8 -2 2 4 9 -19 16 -20 -4 -7 6 11 -3 15 40 -8 -11 -9 3 3 17 -17 -82 -46 42 -8 -55 50
0 0 0 0 0 0 0 0 0 0 0 0 0 0 0 0 0 0 0 0 0 0 0 0 0 0 0 0
0 0 0 0 0 0 0 0 0 0 0 0 0 0 0 0 0 0 0 0 0 0 0 0 0 0 0 0
0 0 0 0 0 0 0 0 0 0 0 0 0 0 0 0 0 0 0 0 0 0 0 0 0 0 0 0
-32 4 -12 9 -10 9 26 -2 -31 -9 -9 19 -37 -15 -1 -23 3 9 -9 25 56 -5 2 16 8 -7 -13 46
-26 0 29 -1 -40 -16 -40 -17 -2 -5 24 -9 1 15 -11 -27 11 10 18 24 -20 13 -48 18 16 -4 -8 29
-22 56 -23 -4 -8 66 6 -4 -2 -32 -9 -18 1 -24 3 -16 17 7 7 22 33 -23 7 17 -16 -33 -5 -71
-15 11 7 7 -40 8 -28 12 -3 8 38 2 -17 16 -13 -5 11 -14 -23 16 -43 -12 -4 -13 -8 -15 -2 43
11 11 -11 -17 9 4 -10 -11 -16 -28 12 46 4 -19 34 6 -12 -9 68 4 -58 18 -73 -60 52 -29 -69 -18
0 0 0 0 0 0 0 0 0 0 0 0 0 0 0 0 0 0 0 0 0 0 0 0 0 0 0 0
0 0 0 0 0 0 0 0 0 0 0 0 0 0 0 0 0 0 0 0 0 0 0 0 0 0 0 0
0 0 0 0 0 0 0 0 0 0 0 0 0 0 0 0 0 0 0 0 0 0 0 0 0 0 0 0
-9 51 -17 -19 -9 19 3 9 23 -34 -7 3 -19 -16 -33 -43 -11 -24 -9 40 8 -16 -11 24 8 7 -5 -64
-48 -8 9 -32 -20 -1 19 33 -27 4 59 20 -8 3 -13 -21 -1 11 -32 6 23 -63 -16 -17 -12 -6 -15 -18
-30 38 11 10 -19 80 22 -10 -3 -37 -7 -10 -42 -41 9 -48 13 21 12 67 37 -12 16 3 -22 -6 -9 -90
-16 9 27 -5 -64 14 -50 17 -33 22 48 0 -26 11 -26 2 38 -22 -26 3 -50 -35 -28 -29 -4 -14 -2 57
-17 23 -23 -28 9 12 -38 6 -30 -32 10 54 18 -2 64 -7 -1 -12 60 5 -76 -6 -100 -61 71 -36 -120 -43
0 0 0 0 0 0 0 0 0 0 0 0 0 0 0 0 0 0 0 0 0 0 0 0 0 0 0 0
0 0 0 0 0 0 0 0 0 0 0 0 0 0 0 0 0 0 0 0 0 0 0 0 0 0 0 0
0 0 0 0 0 0 0 0 0 0 0 0 0 0 0 0 0 0 0 0 0 0 0 0 0 0 0 0
13 -9 1 32 -8 24 12 35 -32 -3 14 10 2 -28 -6 -58 2 -21 -20 27 11 15 -13 -7 2 8 22 51
15 10 35 -10 -34 9 -15 13 -26 -7 35 28 15 -3 -8 -16 2 -8 24 -23 0 4 18 3 -8 11 -3 39
1 -34 -7 -2 8 31 -6 24 0 14 21 -34 -7 -68 -7 -84 -20 -14 20 87 -43 21 41 9 -10 5 -12 4
25 18 20 -31 -51 28 -48 -29 -74 14 55 -13 -6 13 -17 -1 39 -11 -24 -4 -19 -35 -36 -6 -22 -6 -5 5
-3 23 11 -11 -3 -20 -6 -8 -6 -30 16 36 -11 14 61 -14 -1 0 43 2 -58 42 -80 -38 62 -68 -109 11
0 0 0 0 0 0 0 0 0 0 0 0 0 0 0 0 0 0 0 0 0 0 0 0 0 0 0 0
0 0 0 0 0 0 0 0 0 0 0 0 0 0 0 0 0 0 0 0 0 0 0 0 0 0 0 0
0 0 0 0 0 0 0 0 0 0 0 0 0 0 0 0 0 0 0 0 0 0 0 0 0 0 0 0
-26 -34 4 -2 23 23 11 41 -1 3 12 30 -23 -12 -17 7 -7 -10 20 23 -46 24 -37 -8 14 -12 16 39
6 4 5 0 -6 11 8 -11 -38 24 6 3 17 28 15 16 26 -14 -23 -8 9 -58 -12 18 -14 7 40 -57
7 -28 -31 0 21 17 -24 33 -9 22 25 -18 40 -61 11 -32 -16 -33 2 43 -36 19 0 -2 7 19 5 18
23 22 -3 -17 -23 19 -28 -31 -47 3 47 -7 3 21 -2 -12 6 -5 -17 7 -13 -13 -21 9 -20 -13 -4 -7
3 10 21 -19 10 -25 20 -23 7 -15 18 36 -20 -4 27 12 -27 15 31 -3 -2 23 -52 -43 43 -39 -52 59
0 0 0 0 0 0 0 0 0 0 0 0 0 0 0 0 0 0 0 0 0 0 0 0 0 0 0 0
0 0 0 0 0 0 0 0 0 0 0 0 0 0 0 0 0 0 0 0 0 0 0 0 0 0 0 0
0 0 0 0 0 0 0 0 0 0 0 0 0 0 0 0 0 0 0 0 0 0 0 0 0 0 0 0
15 -1 -1 3 -1 20 -11 11 -15 -33 -3 -26 -52 22 -35 -33 18 16 38 16 -4 2 1 1 -3 -20 -2 -63
28 9 41 -21 -41 -14 10 -21 -27 40 32 -27 -20 2 17 26 18 -10 24 -1 -53 24 -28 -8 -22 16 4 -15
-11 17 -11 25 1 9 -19 32 -24 -33 4 -9 -45 26 5 -19 1 56 4 13 24 -19 -8 -13 -11 2 8 -19
-33 -4 -6 -26 -28 -14 -19 36 -1 14 18 -3 2 -13 10 -9 39 8 23 -10 -20 -1 -32 -26 8 3 38 36
-10 16 -8 17 -4 16 -11 -10 -20 1 12 4 -5 -17 50 14 2 -13 24 19 -60 46 -97 -53 69 -31 -99 29
0 0 0 0 0 0 0 0 0 0 0 0 0 0 0 0 0 0 0 0 0 0 0 0 0 0 0 0
0 0 0 0 0 0 0 0 0 0 0 0 0 0 0 0 0 0 0 0 0 0 0 0 0 0 0 0
0 0 0 0 0 0 0 0 0 0 0 0 0 0 0 0 0 0 0 0 0 0 0 0 0 0 0 0
11 25 10 29 -16 11 20 3 10 3 -8 -21 -17 -6 17 -34 -1 -2 -44 31 -1 16 6 3 5 31 -13 -21
-12 -21 14 17 -45 -26 1 -11 -53 5 40 -11 6 -22 17 14 17 0 13 14 -19 21 -23 4 3 -9 10 65
-5 8 11 11 12 37 -11 42 -17 -40 -15 -21 -91 7 -4 -47 0 47 -10 62 39 -15 2 18 -3 8 -2 -76
-21 -7 8 -47 -63 -41 -31 30 -34 35 53 -9 -16 -12 9 -1 57 -3 30 -17 -43 3 -60 -21 5 -22 33 130
-2 15 16 3 37 -30 9 -31 -20 -30 19 35 4 -33 46 23 -22 -3 54 39 -41 41 -62 -76 76 -38 -102 1
0 0 0 0 0 0 0 0 0 0 0 0 0 0 0 0 0 0 0 0 0 0 0 0 0 0 0 0
0 0 0 0 0 0 0 0 0 0 0 0 0 0 0 0 0 0 0 0 0 0 0 0 0 0 0 0
0 0 0 0 0 0 0 0 0 0 0 0 0 0 0 0 0 0 0 0 0 0 0 0 0 0 0 0
36 -18 -6 -13 0 2 -8 54 9 -12 18 15 -26 -4 -5 -23 -28 9 16 50 20 -15 31 32 24 30 6 -48
-8 4 29 -31 -32 16 -11 16 6 10 43 -32 -27 12 32 -12 6 -18 22 -8 -40 16 -43 22 -23 5 48 18
42 -42 4 6 13 -17 -3 42 -6 6 12 1 -64 -26 6 -75 -8 13 -15 88 14 20 16 -13 19 14 1 -60
21 0 9 -70 -53 -17 -16 -5 -57 26 69 -1 -24 7 14 18 48 -14 27 -11 -23 -4 -45 -18 -7 3 13 135
8 12 -12 5 32 -17 12 -14 -7 -6 14 52 5 -22 45 -12 -15 8 28 -7 6 53 -63 -47 76 -28 -103 6
0 0 0 0 0 0 0 0 0 0 0 0 0 0 0 0 0 0 0 0 0 0 0 0 0 0 0 0
0 0 0 0 0 0 0 0 0 0 0 0 0 0 0 0 0 0 0 0 0 0 0 0 0 0 0 0
0 0 0 0 0 0 0 0 0 0 0 0 0 0 0 0 0 0 0 0 0 0 0 0 0 0 0 0
10 -38 12 8 -8 14 -14 32 -1 13 13 13 -11 -2 48 -48 -11 -11 -13 51 10 15 -8 20 1 15 0 -35
-1 6 30 -15 -46 -2 10 -7 -4 -19 40 15 -9 7 13 -12 46 18 -29 20 -57 22 13 -17 17 20 -18 66
33 -39 4 12 10 -41 -13 43 -14 19 18 2 -14 -9 17 -61 -6 23 -8 42 -9 9 1 -8 18 4 2 19
9 2 3 -47 -22 12 -9 1 -32 -2 34 9 -7 3 10 14 30 -2 29 -4 10 -12 -14 -31 -12 15 7 39
2 25 -24 9 2 13 -22 -4 -9 -1 9 45 -3 9 27 -14 -2 1 29 -9 1 44 -117 -43 56 -4 -76 54
0 0 0 0 0 0 0 0 0 0 0 0 0 0 0 0 0 0 0 0 0 0 0 0 0 0 0 0
0 0 0 0 0 0 0 0 0 0 0 0 0 0 0 0 0 0 0 0 0 0 0 0 0 0 0 0
0 0 0 0 0 0 0 0 0 0 0 0 0 0 0 0 0 0 0 0 0 0 0 0 0 0 0 0
-20 29 -13 -11 11 18 17 25 -7 8 11 -5 -35 -10 -4 -5 10 8 -9 15 2 -17 -1 -8 1 32 -18 17
-3 3 25 -35 -40 8 13 1 -20 27 15 -21 -33 -6 5 20 27 8 0 1 5 -22 -17 -21 28 -3 -21 7
-12 -4 18 27 -3 -16 -2 -9 -9 -28 -6 3 -40 30 0 -22 6 41 -13 10 33 -10 -6 -9 1 21 8 4
-42 -23 -6 0 -13 -35 5 22 4 -4 -11 1 13 -13 4 7 32 6 28 -17 -8 -13 -15 19 15 -18 10 28
-15 9 2 6 22 -1 -26 4 -32 -22 15 16 11 -1 10 -3 -6 1 28 10 6 33 -52 -56 50 0 -67 -2
0 0 0 0 0 0 0 0 0 0 0 0 0 0 0 0 0 0 0 0 0 0 0 0 0 0 0 0
0 0 0 0 0 0 0 0 0 0 0 0 0 0 0 0 0 0 0 0 0 0 0 0 0 0 0 0
0 0 0 0 0 0 0 0 0 0 0 0 0 0 0 0 0 0 0 0 0 0 0 0 0 0 0 0
20 -15 9 -14 18 21 -13 -10 -23 -18 13 37 -56 18 15 -15 12 13 11 45 6 14 -37 26 7 -6 21 -43
2 12 23 -25 -24 15 16 -6 -27 -27 34 11 22 -8 -15 -18 11 -26 31 1 8 17 -7 26 16 2 -11 -34
-2 -2 -17 17 14 7 -16 31 -14 -27 8 -11 -49 17 -14 -21 -5 37 -16 38 36 -6 13 30 -8 -16 -17 -29
-48 -16 16 -37 -29 -34 -1 17 -16 -4 35 6 2 1 14 4 42 7 35 0 -13 -13 -29 10 13 -27 24 54
7 9 4 23 18 -23 -11 -20 -35 -21 15 31 9 -10 49 -3 -16 15 37 26 -32 80 -76 -95 47 -44 -96 8
0 0 0 0 0 0 0 0 0 0 0 0 0 0 0 0 0 0 0 0 0 0 0 0 0 0 0 0
0 0 0 0 0 0 0 0 0 0 0 0 0 0 0 0 0 0 0 0 0 0 0 0 0 0 0 0
0 0 0 0 0 0 0 0 0 0 0 0 0 0 0 0 0 0 0 0 0 0 0 0 0 0 0 0
-1 -13 -7 -9 11 21 -10 30 5 -3 -16 21 7 -6 13 -52 -16 3 6 33 0 -8 -11 2 13 -15 -18 -25
7 -8 30 -11 -39 3 12 -2 -12 -1 15 0 -21 7 -22 27 20 2 -7 10 -32 22 -3 21 21 15 26 39
34 -23 4 -5 15 -21 -12 48 -17 23 4 6 -26 -2 21 -12 -5 15 -15 35 17 2 12 -26 10 -3 -7 -48
27 -1 -11 -53 -18 4 -1 -2 -21 13 45 11 -12 -6 28 4 15 7 23 3 0 9 -13 -9 -5 -12 9 78
-13 9 -10 16 10 0 0 -28 -4 18 1 32 8 -12 46 1 -27 15 17 10 26 41 -49 -68 69 -42 -76 27
0 0 0 0 0 0 0 0 0 0 0 0 0 0 0 0 0 0 0 0 0 0 0 0 0 0 0 0
0 0 0 0 0 0 0 0 0 0 0 0 0 0 0 0 0 0 0 0 0 0 0 0 0 0 0 0
0 0 0 0 0 0 0 0 0 0 0 0 0 0 0 0 0 0 0 0 0 0 0 0 0 0 0 0
1 -10 -1 4 -12 -16 22 40 27 9 13 43 -32 -22 2 -23 -30 -3 -19 24 -17 6 -40 15 7 -17 21 3
-1 -3 13 -5 -8 -3 0 5 -45 12 15 -41 -24 12 44 -30 7 10 -5 -31 -5 22 4 5 12 -39 0 -69
29 -24 30 -6 -3 -43 2 6 -8 27 -14 0 -11 18 16 -35 4 20 2 0 -1 1 14 -28 7 -11 6 -4
35 -10 -29 -16 -3 6 5 0 1 11 -4 3 -2 -21 17 13 11 6 13 -11 5 9 -3 -4 -5 29 -3 55
-13 8 -14 16 -8 21 -6 -5 5 6 -1 10 3 -4 24 -9 4 -8 16 -6 34 43 -56 -49 58 -50 -63 9
0 0 0 0 0 0 0 0 0 0 0 0 0 0 0 0 0 0 0 0 0 0 0 0 0 0 0 0
0 0 0 0 0 0 0 0 0 0 0 0 0 0 0 0 0 0 0 0 0 0 0 0 0 0 0 0
0 0 0 0 0 0 0 0 0 0 0 0 0 0 0 0 0 0 0 0 0 0 0 0 0 0 0 0
