-7 4 12 2 -27 -10 3 19
-11 -6 6 13 14 13 -2 -11
6 7 -17 -23 -22 1 17 25
5 -8 14 14 32 3 -17 -17
1 -18 -9 -9 -24 -23 17 17
10 -9 -3 24 23 37 -23 -7
1 11 15 -17 0 -4 0 -8
-10 14 0 38 35 44 -40 -33
2 14 -7 -35 -46 -16 5 46
-12 10 13 41 39 19 -50 -49
8 0 -2 -1 -34 -25 22 8
8 14 -8 10 23 18 -43 -73
-13 -5 -8 -13 -3 -14 13 31
1 -10 6 18 39 35 -19 -28
-3 1 -10 5 10 -14 -9 -8
10 -15 -4 27 21 32 -10 -16
-10 -11 -20 -28 -58 -27 -11 -24
-17 -14 -8 4 0 11 -28 -33
-4 -16 -1 4 1 -7 -10 11
1 0 -4 -15 -1 -20 -35 -44
24 -8 -12 -30 -8 -36 24 22
-5 -14 -8 7 30 34 6 11
-5 -15 19 -32 -51 -33 2 3
2 -16 -10 -10 -9 -12 21 20
8 -14 -10 3 -10 -5 23 33
3 -19 0 28 28 18 -5 -2
-15 2 6 -5 10 -4 17 8
-12 -4 -10 22 46 31 3 -20
8 -21 -14 -3 2 -3 -9 -6
5 17 -8 4 27 5 -5 -49
-6 1 -4 12 -3 10 -15 -17
19 -3 -4 31 52 63 -42 -73
-4 -9 -6 -16 -6 -27 48 50
-12 -3 -7 45 62 48 -23 -22
-11 -7 5 8 -16 3 11 8
9 -9 12 53 31 22 -22 -40
5 -14 -14 -2 16 -12 36 16
6 6 -16 25 42 10 -28 -35
12 0 -3 15 -13 8 2 8
-18 -7 8 20 55 45 -22 -36
-7 -5 -7 -36 -37 -44 20 20
8 -6 8 27 6 17 -43 -46
-2 1 10 23 3 -7 -3 -10
3 5 -20 22 21 11 -39 -33
5 -9 20 -35 -12 -26 18 28
-1 15 3 21 11 10 -19 -19
-16 16 -16 -39 -38 -18 -8 19
7 -15 -9 13 1 8 3 5
0 11 6 10 11 14 24 16
13 0 10 9 17 4 0 4
3 22 13 -8 -14 -9 -20 -8
0 8 -3 19 12 34 20 26
-24 6 -14 -9 -11 1 -29 -12
3 -12 17 14 3 4 -22 -45
1 -26 -13 9 -13 -8 -21 -5
-6 25 6 41 47 28 -42 -74
-2 -5 9 -12 -18 -9 43 15
19 7 -9 26 38 35 -23 -12
22 -7 5 -15 2 13 -18 -3
-2 -8 16 7 39 33 9 -6
-14 -12 2 8 -20 -13 -13 20
5 2 11 3 -1 13 -25 -30
-1 -27 -3 -18 -1 8 -32 -27
-11 18 -5 55 24 47 -26 -40
6 12 12 -26 -4 -19 8 21
6 -14 -4 2 34 22 -21 -44
-9 -6 -6 10 3 21 -23 0
13 -10 7 2 43 9 -23 -6
3 -20 0 -9 -27 -14 24 10
-9 10 8 13 31 -6 -30 -33
3 -19 -3 -29 -27 -29 14 -12
-16 6 -2 8 17 31 -7 15
