-29 25 -11 16 4 -16 18 -1
8 -21 25 18 -2 -4 13 -18
-23 29 -16 21 -15 -2 3 -7
-16 -5 -12 22 21 -22 2 -5
22 -9 -5 -10 -1 -11 -18 -3
10 2 20 -12 -9 -5 -19 -4
-16 -5 7 32 -25 -15 -8 3
-6 17 13 1 -13 0 6 17
-49 27 22 18 6 4 8 -4
33 -26 -14 2 -12 -1 -11 19
8 -1 -36 10 36 20 -39 -37
-18 -22 -3 27 36 -5 12 19
10 -24 29 12 20 -13 -31 -5
28 -17 -25 -17 18 -23 -13 -21
-43 39 20 28 1 -23 -4 -32
-48 -2 -9 -6 10 -1 -2 -9
26 -45 8 -7 2 14 18 -26
17 -29 0 22 2 -16 -17 -20
52 -42 -7 21 26 16 -1 -7
3 -33 14 40 16 -37 -10 22
-32 -24 -13 16 11 5 -5 -7
-23 23 12 -12 -36 27 -21 -15
-12 -10 22 30 -10 -41 -26 3
-54 35 13 9 -14 10 -32 -5
-3 -15 -22 -16 7 -3 -8 9
1 -15 25 0 -7 6 1 35
-51 20 -5 -4 15 -12 -13 -10
-75 21 8 29 6 -17 -12 -28
32 -40 -14 -11 18 -21 14 3
9 -6 15 -36 24 0 -21 12
-21 18 -12 9 -11 15 33 -15
-60 2 3 -21 -7 1 -4 3
-52 2 20 34 -15 -13 -33 6
47 -24 -6 -31 32 14 20 24
-15 -36 -29 14 19 -27 -78 -32
-32 -10 -6 32 -11 -21 -18 13
45 -76 33 -57 -11 12 41 1
36 -40 -12 -60 12 -57 35 1
-53 35 23 17 7 -20 11 4
-49 -86 -19 54 -16 -14 39 12
90 -107 9 -35 -24 43 -9 29
33 -68 -18 1 15 -2 -10 -15
8 -2 3 -41 8 12 8 -44
-25 -5 5 27 9 -61 17 3
14 19 5 -75 -35 -2 9 16
43 -67 -18 -36 -24 -39 -16 -84
-47 9 21 39 32 -40 -6 -40
-36 -36 1 18 -2 -6 1 -2
5 5 -7 -5 -16 16 -6 -19
-7 1 33 16 25 6 -4 -14
-43 67 -32 31 9 12 19 2
-28 -4 0 44 -26 14 -8 -27
25 -47 -10 -14 -9 -6 -8 -7
14 -12 -1 -9 3 -9 6 6
-27 -4 -9 11 5 8 -24 16
-17 -18 19 12 23 -1 -1 4
-57 37 7 16 40 -48 -4 -13
35 -23 -24 -17 14 5 9 -30
-37 21 -23 4 20 -25 -22 -40
15 -28 9 -18 23 10 19 -22
82 -76 22 -23 3 11 -33 -18
-8 -6 10 -61 26 56 -15 50
-74 64 24 31 -4 1 24 -34
-76 -1 24 5 -11 3 8 -1
127 -119 -1 -42 -7 45 -3 11
47 -38 13 0 -29 11 -12 -41
-15 6 -37 10 6 16 15 -7
-6 -27 17 26 -6 -17 -10 -24
44 -84 -21 -53 -30 29 5 36
41 -32 32 -51 52 -41 -18 -16
-52 25 1 48 30 -17 -18 -37
-100 25 5 16 -10 -46 -26 -37
