-3 -1 2 4 -49 -31 8 -37 -13 -11 -2 16 3 29 12 -12
2 6 -20 -4 -12 1 11 -24 17 -12 12 -5 8 5 12 -36
-22 -6 -8 -5 25 22 -8 16 15 -27 -25 -2 12 55 -7 20
-20 -38 -3 -10 -36 -13 -19 5 -13 -15 -10 -10 2 -4 9 -14
0 4 -32 6 8 27 -18 14 -4 5 -6 -5 9 -2 -7 4
3 17 -2 -2 -3 6 -21 26 -1 5 -10 3 8 -20 27 -11
-4 -20 -9 3 -25 12 -6 3 -9 -27 4 -8 -1 -22 11 27
27 -27 7 -21 -4 -2 14 -10 8 -17 12 -6 12 -32 -8 20
31 10 -12 -4 13 -12 4 17 -10 2 16 16 2 4 -17 -20
-4 3 10 6 4 -3 -29 3 -6 -17 4 10 -9 8 2 -2
6 -11 3 4 5 1 -2 9 11 3 -27 9 -6 34 -7 -5
7 10 -13 5 -7 41 -16 24 -6 2 4 16 24 48 7 43
-19 -5 -10 -14 8 -11 6 -38 -19 -7 3 5 -6 -39 -9 6
-14 1 -3 -3 13 -16 -18 -27 -3 -26 -13 -11 -3 -51 17 -3
15 5 10 11 21 -18 -31 -5 -12 9 -10 -5 5 -7 -20 -22
-12 11 -11 -15 -15 -4 -26 -33 9 4 -3 -20 18 -23 15 -33
-14 6 -2 -12 -20 -18 -2 14 -1 -6 -20 11 5 24 8 -27
13 -14 -3 16 -20 -18 0 -7 4 -2 21 -5 -8 25 -11 -9
-46 -4 -8 5 13 11 -11 -4 14 17 -20 -7 15 59 -1 4
-37 -17 -38 -17 -22 -7 -12 9 -6 -39 -5 -4 7 19 16 44
-15 14 -11 -16 9 26 -9 -8 12 -12 12 -6 -3 7 9 5
-6 12 -22 5 38 19 -3 -5 -1 19 12 16 18 -6 29 -28
3 -16 1 5 -26 -9 -1 13 -3 -3 -12 -21 -17 -17 6 -7
13 -10 -9 -38 -12 8 15 -3 2 -15 -7 -16 18 -41 -24 35
43 4 -16 -10 1 -4 4 16 11 -10 7 20 -4 -8 -16 -38
-11 16 20 5 22 -15 -45 0 5 -9 -19 5 -3 15 9 12
-15 -7 -9 11 5 -3 8 3 3 -13 -23 0 -12 16 -5 -12
16 -7 5 -6 -19 18 6 36 -11 -20 8 9 10 22 27 39
-1 -2 7 -22 7 -4 3 6 -4 -26 0 6 23 -31 -16 25
-5 -11 10 -3 20 -6 7 -15 21 -15 -19 -16 -6 -41 2 2
11 -1 -3 -7 17 -1 -15 -16 0 -9 -6 -6 7 21 -12 -7
4 -7 -4 -12 -3 -1 -18 -50 15 15 5 -2 10 -23 5 -14
-6 1 2 5 17 6 -1 15 11 -24 1 -4 17 21 -17 -16
24 -10 -31 -2 -29 -31 4 13 16 19 5 -16 -13 -7 -10 -15
-34 -16 -1 17 1 21 4 -5 -5 4 -34 -6 2 38 5 -18
-2 -40 30 8 -14 3 1 -2 1 -26 10 -19 31 30 -17 52
7 15 0 -21 14 24 -4 -12 -11 -13 20 14 4 -6 24 2
-9 -3 5 0 13 43 -23 -3 1 1 1 22 17 3 13 -19
-10 -7 9 17 -9 -11 -18 6 13 11 12 -12 -7 -12 -30 -28
-12 -10 1 -20 3 -2 1 0 1 2 6 9 28 -21 -19 42
17 15 -35 -3 5 2 -5 14 9 -8 3 -2 -7 -5 -4 -30
-19 -2 -23 9 45 -14 -43 6 -6 6 -6 -11 -22 -12 1 -19
-11 -4 -2 3 1 -3 5 -5 1 -1 -31 -11 -7 0 -29 3
-3 -6 4 -31 -15 24 -19 17 11 10 7 -25 -2 11 -3 5
11 -15 3 -20 6 -11 -29 18 -1 -40 5 -12 18 -3 10 25
1 0 -19 -15 -8 -30 4 3 34 -8 -3 -11 -5 -75 8 -27
-15 2 -12 3 2 5 -21 1 -13 -13 -5 0 8 4 -6 -18
15 4 15 -11 -11 27 -14 4 -2 18 8 9 0 -1 -3 -1
-4 -8 -7 4 -37 -19 -12 -54 5 -13 -1 7 27 -6 0 5
-6 15 -10 4 0 -7 13 -2 8 -10 35 -3 0 -28 5 3
-24 -14 -9 15 28 41 -32 26 15 1 -1 -15 -5 1 1 2
-21 -6 17 -25 -45 -21 2 6 -5 -33 -15 -1 18 -2 -16 -1
-3 -7 -21 14 12 5 -36 17 17 5 -6 -5 2 23 9 -27
32 11 38 0 9 -10 -9 32 14 8 -7 6 9 -37 -12 -100
11 -16 0 -1 -16 -2 -2 11 2 -15 4 16 13 27 2 -3
16 -10 -14 -15 11 2 13 -24 8 -13 1 -12 14 -7 3 -4
17 20 3 15 -10 18 -3 -6 -9 3 20 -3 5 -39 -4 0
-17 13 4 -1 3 23 -19 -13 -1 13 4 21 -22 21 3 8
19 -8 -4 4 1 6 -28 28 -1 -16 -7 30 -2 4 9 -3
7 -1 23 1 4 4 -7 5 -16 -10 5 5 33 -6 -8 16
2 -3 7 5 0 -14 -2 -62 -10 -6 1 12 -1 -21 9 0
4 -4 9 -19 1 -13 2 -38 4 -24 -1 2 11 21 -5 -15
-21 7 -8 12 34 -2 -15 21 -22 -4 -16 -6 -8 8 -24 -18
-5 7 8 -15 2 7 -37 -22 2 0 -19 -15 4 -8 -8 -47
-5 -16 -5 -23 -10 -13 -13 3 -1 -17 3 13 35 -15 -16 25
1 -6 12 -5 -25 -8 16 0 11 -34 32 -6 -5 -4 -8 16
-12 7 -19 -1 -11 30 -9 -4 -14 10 10 -15 -3 -18 3 10
-31 -3 -32 -3 -8 -10 -7 15 6 20 0 -18 -4 2 -22 33
2 12 -11 -7 11 0 -13 6 6 -5 12 0 -7 10 14 -10
14 -10 -27 6 12 0 10 -19 11 -1 -4 -6 16 -36 -5 -71
-10 -10 27 3 -8 9 -19 14 18 7 8 -4 -5 2 0 -21
1 -7 -16 -20 28 10 6 21 31 10 -12 -21 16 24 28 -31
5 16 -1 -3 -5 -2 15 -8 -10 -1 27 17 10 -39 -19 10
-18 4 31 3 15 -1 -22 -1 -5 -9 -24 2 8 32 7 24
-12 -19 -20 18 9 11 -12 5 13 -18 -26 -17 7 -3 2 -18
12 -12 21 -2 -22 9 -12 7 14 1 20 -20 26 -3 12 12
-6 2 12 -11 9 5 -22 1 1 -30 9 15 19 7 11 -21
3 9 16 -7 6 -3 -3 -19 9 -29 -7 -13 7 38 5 -24
-5 4 -24 26 23 28 -26 12 -20 -2 8 -5 -10 41 17 -37
-16 -12 -15 -21 6 12 -12 -24 -1 22 -11 -9 -16 -6 -9 -30
-19 -9 10 -5 12 4 -2 37 6 -16 -10 0 31 17 -6 27
12 -5 1 13 -31 -17 21 13 7 -5 6 -15 -12 16 -5 -13
-22 -1 -3 -8 -8 21 -12 -21 -10 -1 -13 5 -5 -16 0 5
-11 -6 23 18 -12 17 -18 4 -9 -16 21 12 8 19 -4 19
7 -1 -10 -36 28 10 -5 -2 5 -27 19 3 -17 -8 28 4
6 8 3 5 24 10 12 -17 -1 -12 -5 -6 12 -20 -13 -31
6 -5 23 13 -1 -1 -38 27 9 20 -6 -1 -1 -10 -13 -29
-12 -1 -4 -15 39 -1 8 19 18 0 -10 -7 5 12 16 -5
2 20 -17 0 -10 14 14 8 -5 -21 20 -4 -2 -23 -13 -2
-24 -11 -15 29 13 -19 -40 -10 17 -20 -30 -17 -5 0 19 -22
-16 1 -16 2 37 9 -2 15 6 -6 -54 -12 11 -27 -23 -18
-20 -31 10 -22 0 5 -25 32 11 6 10 -16 0 2 -12 -16
23 -10 14 -4 2 18 -17 25 6 -35 -5 8 19 17 15 -48
11 -8 7 -22 -6 -9 16 18 26 -8 4 -20 11 22 1 -47
-12 15 -10 4 3 10 -1 -3 -17 -18 -5 -1 -10 16 0 -15
-3 -2 9 -9 1 21 -16 12 -4 3 3 11 -6 22 7 10
-10 -10 -16 2 -51 10 -18 -59 -5 -5 -18 15 26 -12 9 6
-2 7 -45 2 -3 -1 16 16 -14 6 21 -3 13 2 12 -10
-6 8 -21 10 21 22 -9 25 -8 17 4 1 -13 -13 -11 -14
6 6 6 2 -69 -1 -1 34 -26 -13 5 0 -6 3 -33 28
18 -5 -14 -1 -6 -2 -11 0 -5 -4 2 0 -1 -27 9 -40
-14 15 30 28 1 -31 -24 27 -4 47 3 16 6 -55 -18 -23
12 -17 24 -1 -5 -8 -2 12 -8 -5 0 0 28 21 12 -7
11 -12 -8 -9 -11 -6 -5 -5 19 4 -11 -15 16 34 1 17
-18 3 0 17 -7 -18 20 -18 -12 -27 2 -4 23 -21 -2 -7
-1 10 15 8 -12 -2 -4 -18 -2 3 4 2 -13 -31 -13 3
12 -15 -20 14 19 -5 -1 42 -2 -2 -7 25 48 22 0 22
7 -9 8 -1 -21 -28 -5 -14 6 9 -6 -7 36 5 -19 -15
14 3 -6 5 13 -26 5 -39 5 9 -7 21 3 -6 3 -19
25 14 -7 -13 -13 -31 -1 -26 3 -16 4 0 -4 -5 -7 -24
-21 2 33 19 23 7 -3 25 -9 -2 7 -26 -13 1 -20 -3
-12 13 5 -15 -20 -1 -18 1 -7 1 -20 -2 -6 13 -11 -13
7 1 6 -17 -26 8 -14 19 17 -17 -5 -8 23 3 14 5
-7 12 14 -13 7 -3 12 4 -22 -22 37 -14 -7 -42 8 41
-10 -10 -1 3 -1 22 -3 -20 -9 12 2 6 -5 -15 11 4
-29 19 -9 -7 -20 12 -5 43 -4 6 22 -11 -24 12 -41 36
-11 -5 -18 -4 5 -7 2 2 3 -24 -4 -1 0 -35 -3 -35
0 17 3 14 15 -28 1 13 -8 26 15 16 19 -49 -2 -6
0 -17 16 7 -13 -13 -12 14 9 -10 -2 -14 17 12 -5 0
-2 -14 -7 -9 14 8 8 12 25 4 -3 4 2 26 7 -27
-14 16 1 12 -12 -8 10 0 -27 -8 19 -10 9 -3 -10 -8
-1 2 18 4 -9 -3 -32 -32 -13 -26 -16 20 14 -5 -3 10
-2 -14 -23 7 10 -2 -5 24 5 -21 -35 5 39 5 -11 1
12 -9 20 -3 -23 -27 -21 7 14 -1 1 -13 25 1 -18 -32
21 16 -9 3 17 16 -9 -8 5 -2 -9 33 -3 -23 1 -41
26 9 -1 -33 -11 -4 -4 -17 9 -7 2 -14 -15 -14 2 -43
4 5 23 3 19 -8 -8 3 -15 9 21 1 -12 -16 -5 13
-19 4 0 12 -13 0 -20 -9 9 13 -12 -15 -8 6 7 12
3 -4 2 -3 15 4 4 20 22 7 -5 -6 26 3 -7 -19
-12 12 18 -13 -8 10 8 4 -13 -11 15 -14 -5 -4 -12 16
-11 -7 16 -4 7 26 -16 -10 -12 -10 8 9 -21 -29 -9 -9
-7 23 17 -7 -9 11 16 7 -36 -43 37 9 -32 27 -9 19
-18 -7 -29 -30 28 -17 -3 1 2 2 21 20 2 -46 8 -15
-5 3 -4 -6 8 5 11 1 14 -15 26 -8 1 -43 -18 17
5 -12 -2 24 0 -4 -33 20 20 17 4 -18 -19 2 -11 3
11 -7 -13 -1 20 1 30 -22 21 9 6 -6 9 14 7 20
-12 10 -19 -12 -6 -9 15 -12 -26 -26 3 -36 -9 -38 -13 -5
-27 -1 -10 33 4 -18 -23 -20 19 -29 -7 0 3 -21 -20 -11
-23 -12 -2 10 28 17 7 26 5 -16 -34 -10 13 -22 -29 20
-15 -16 2 -7 11 -10 -43 16 18 -4 15 -23 31 -36 -2 -35
33 9 12 -17 -4 20 -12 6 16 -19 -11 19 11 -36 -7 -33
31 3 -5 -21 -25 -20 23 -8 16 -1 3 -13 -13 -12 1 -43
9 2 12 5 2 9 10 0 -11 -2 20 -1 -4 -21 -30 17
-11 -13 -7 12 -4 9 5 11 8 -6 12 9 -4 -1 7 32
