27 10 -8 15 -16 -21 10 15 -16 -4 23 16 -4 -5 -19 0
47 2 8 15 -9 -14 9 -10 -28 -4 6 -8 4 8 -11 17
13 -4 17 -4 -25 14 9 11 -14 9 23 -9 9 -10 -8 -14
0 -1 21 3 4 9 1 16 5 -6 -14 5 9 -37 -13 10
10 -12 6 15 -15 1 15 23 -13 16 21 0 5 -45 2 13
5 -8 -13 -7 -3 16 11 9 -25 11 24 -4 -26 -14 -14 7
-14 1 -11 -15 -11 4 -3 -13 -13 10 -15 -19 -8 17 -5 -21
52 11 12 15 4 -5 1 -24 16 -10 2 5 2 14 3 -13
-16 5 -56 -2 18 -1 4 -25 -27 -21 -18 -16 -33 35 -14 6
9 -2 -27 2 -12 13 3 11 -5 -2 -18 19 -4 7 -10 -2
-41 -17 11 4 25 19 -10 4 -7 -10 -1 3 6 -19 -6 -1
9 3 -16 6 -24 -18 15 -13 -13 -4 19 10 -12 14 10 13
31 -2 -23 -6 13 -13 24 -2 -25 -15 -8 -3 -39 27 20 -23
-5 -6 -4 -1 -23 7 11 4 -15 9 -13 21 3 -29 16 -6
-21 4 -6 -12 -10 -4 9 -19 17 -2 11 -4 -7 4 -23 18
6 -7 14 10 13 -25 3 -5 17 -10 6 21 4 -17 12 -4
3 3 -3 33 2 -25 18 0 15 16 9 15 4 -3 1 -19
54 -10 -7 16 4 -15 -14 -21 -28 3 6 0 -10 22 -5 5
17 -7 8 15 -13 12 -2 16 11 9 25 20 29 -28 0 -8
1 -8 -8 14 -19 16 3 13 -3 6 -8 -17 12 -51 -11 20
15 -3 -19 -13 -2 5 20 22 -9 -3 1 10 8 -29 -10 -18
11 -1 -10 -8 -34 1 4 22 -7 28 14 -20 -3 7 -13 -7
-15 6 2 -15 8 9 -7 -13 -9 16 -2 -1 -9 -1 -3 4
39 5 -22 16 -2 -3 -9 -6 9 -17 0 -7 -3 13 -6 -14
-4 -4 -51 28 9 0 -6 -9 -21 5 7 -11 -33 11 -22 -10
9 -7 -6 -11 3 5 7 -5 7 -5 2 7 8 14 -18 0
-49 9 -10 15 -8 13 -9 4 3 13 13 6 6 -9 -12 -29
-3 18 -4 10 -3 -5 -9 -22 14 3 -12 -7 16 19 13 -1
50 -19 6 22 -12 -12 13 24 -2 3 16 -3 3 -1 8 -16
-13 3 41 9 11 10 -32 1 20 -5 -26 2 16 0 9 -5
15 -6 -44 -13 -14 -8 5 -16 -23 -30 -21 -4 -40 27 -9 11
16 0 10 16 -16 10 6 5 -3 -23 3 -5 -1 4 6 -6
28 18 7 4 8 0 4 4 6 16 -9 17 0 8 -8 -16
35 3 -9 19 5 -10 -16 -27 14 -13 -3 8 -19 4 9 -10
25 2 24 11 -14 0 2 13 16 17 8 17 20 -25 -3 1
1 -1 -1 -11 -1 26 -1 23 -23 8 5 -22 -11 -31 2 30
-8 -1 -9 -13 22 2 9 -3 -2 2 -8 17 -7 4 15 -4
-19 -15 -12 2 -14 1 8 25 -6 7 1 -6 5 -2 -5 -10
-4 0 22 12 -5 -14 -2 1 -11 14 1 2 25 -19 1 -8
21 13 -37 19 15 -4 -3 -2 1 15 -8 2 1 18 -2 -19
8 7 -6 9 13 -13 5 -13 -18 -4 2 9 1 17 -16 -17
44 8 -15 -19 -14 10 2 5 -20 -4 2 -10 -18 3 -3 5
-39 12 14 -2 -9 10 6 -2 -12 -9 -1 -18 4 -10 -5 -15
-13 5 -22 -3 12 12 -20 -12 -5 -29 -25 -15 -25 8 -8 13
45 -16 10 -11 7 -9 18 12 -3 5 8 -9 1 -9 2 -2
16 27 21 6 13 4 -14 -20 22 -21 -22 -6 12 -16 12 -3
-8 3 -61 5 -15 8 0 -1 3 15 4 -14 -11 9 -7 -14
-10 -1 -20 -11 -13 20 -26 12 3 -6 -8 -30 -22 0 -6 16
17 -6 3 17 -3 -6 24 10 5 9 3 -2 18 -34 -22 -3
-3 -19 13 -6 -3 2 4 24 -12 15 11 0 -7 -16 -21 12
-6 -5 24 -13 -2 -11 -22 -5 1 3 -3 -6 5 19 -10 -6
16 3 14 22 11 -8 -9 3 12 2 3 -6 15 -40 5 -9
26 -3 -4 3 -17 5 4 23 -2 9 7 -11 0 -40 -20 20
9 -14 6 -12 16 21 3 15 -4 12 8 -4 14 -7 -1 -6
-12 5 -36 -22 -9 -1 -6 1 -14 13 4 -4 -23 14 -10 -11
16 -11 -6 -11 -6 6 14 3 -8 -12 13 -10 -15 -33 -11 9
-20 -7 -83 -7 11 4 6 15 -9 -24 -1 -19 -75 -24 3 15
30 8 -9 7 10 2 -9 -2 3 -3 -12 19 7 31 10 4
-36 4 -8 0 5 4 -13 -2 9 -4 -14 13 16 24 -19 -13
-3 -8 -20 -3 0 -17 21 -6 10 15 3 3 -2 8 -4 1
19 -2 10 -15 17 23 -3 18 -4 -22 -19 -18 -26 36 7 -10
14 -21 -7 -5 -21 1 22 16 -26 19 19 2 -10 -9 -3 8
1 -5 -7 6 -11 5 -7 -13 -14 5 -5 -1 -12 14 -20 20
-2 19 1 16 14 -34 25 -4 25 7 13 37 15 -6 -1 -6
-1 -4 -2 22 -7 -13 21 16 -3 11 -1 2 17 -39 -15 2
20 -5 -3 5 -10 -14 8 -7 -7 9 23 1 -10 -3 -3 3
11 28 28 -2 21 1 -4 -28 22 -3 -22 10 3 29 5 6
7 10 -6 23 0 -9 7 11 11 -13 13 -2 -1 -71 5 -27
24 10 -31 -6 -12 -15 -1 1 8 -1 -13 -11 10 -20 -12 -3
-14 5 19 -7 7 -8 7 8 29 29 6 -6 37 -11 -1 -15
5 2 -11 2 8 0 -11 -21 -15 -11 7 -1 -46 13 8 -5
39 -9 -28 -12 -6 15 6 2 -14 -10 19 6 -13 -53 11 -8
-2 -32 -35 11 2 8 9 16 11 6 8 -20 -31 -33 19 8
18 13 8 -6 -6 5 10 5 -3 1 -2 -2 7 12 -13 -7
-63 22 3 11 24 13 -8 8 21 8 -3 7 -4 23 -44 8
-16 6 -23 -2 7 -15 10 -11 -1 23 -2 18 29 55 -9 0
23 1 32 -3 -19 -1 16 17 39 -26 15 -7 13 54 -8 -10
0 12 23 -7 8 -4 -27 -18 5 27 -4 -4 57 7 0 -6
4 3 -82 8 -7 14 -8 15 -42 -21 6 -7 -59 -1 -6 9
25 4 -12 6 2 4 12 2 -16 -10 9 17 -4 34 -2 0
-9 3 17 -17 7 11 -4 -3 -19 4 -3 12 7 -2 -10 -5
10 5 3 5 12 2 -17 -18 11 -4 2 9 -3 1 -5 -1
17 27 31 9 8 -5 2 5 11 -7 5 -9 6 13 -10 -7
9 -5 -9 1 -2 12 10 5 -19 4 2 3 5 -39 6 3
-13 -5 -34 0 10 6 -5 -6 2 8 -9 21 -16 21 14 -8
-32 1 1 1 7 -10 -7 -17 15 2 5 12 19 4 3 -10
6 9 28 7 14 8 -5 -14 7 -12 -8 9 -8 10 3 -3
16 -4 -37 -4 23 4 -4 -11 -5 8 19 3 -5 -25 -2 -18
-5 2 20 8 4 11 4 -2 1 29 0 6 9 -7 3 -6
55 -7 -15 -14 -23 4 5 13 4 5 9 -6 5 7 -21 -5
-15 -3 9 -2 14 -1 0 -12 -15 0 8 -6 -24 13 -18 14
-17 -4 -42 -3 20 -1 -21 -12 -12 -14 -16 -7 -25 35 2 7
30 8 14 -2 -1 -8 30 2 13 -16 5 12 7 11 -11 -2
24 17 34 -13 26 8 -21 -9 4 -39 -24 6 43 -1 1 -13
-3 4 -69 6 -14 5 2 7 -6 17 3 -2 -25 30 6 -14
-13 -2 -19 -27 13 15 -22 7 -14 -7 -7 -40 -18 28 3 21
-4 -9 13 -8 -2 16 3 11 -6 4 -9 -2 26 -10 -12 -1
-11 6 -5 -10 -13 -10 20 25 -18 21 4 -11 -5 -67 9 1
-18 18 3 12 -1 1 2 1 7 -9 19 9 -26 0 5 15
20 7 7 17 19 -8 -10 -21 2 -14 -5 2 10 11 18 -14
8 -22 -9 -6 -4 2 -15 11 -7 11 -5 3 -12 -10 8 20
0 11 -1 1 22 15 -3 -3 7 -4 -18 -6 1 3 24 5
-11 -10 -29 -7 -31 9 0 -22 1 -5 -12 -5 -16 11 1 -23
-10 3 -14 -11 8 20 13 4 -14 4 10 2 -13 -23 12 -11
-5 -2 -22 3 10 -8 11 0 -11 -35 -4 1 -62 0 17 2
11 8 -3 9 -10 -12 -8 6 -4 -10 -11 9 1 16 -7 -5
7 -1 -14 3 -3 -7 -1 6 -20 10 8 -1 -21 3 -12 29
4 14 -26 -17 -12 -1 13 -5 -13 -24 -2 2 -2 40 -9 -4
14 -5 -10 -3 -3 2 -9 -21 -4 0 -18 13 -17 -5 9 -3
9 -24 -13 -6 -25 -8 40 34 -31 -23 20 6 -14 -38 -5 11
-9 -23 -40 9 9 12 -12 -3 -6 0 -7 -7 2 1 -26 3
-5 -6 25 14 26 -11 14 -14 16 2 10 27 8 3 -11 -8
11 6 25 -8 17 14 -6 2 -19 -10 -21 -8 12 1 3 14
7 2 -31 10 -9 -14 11 10 7 10 -1 13 -4 -31 -10 -3
-1 17 4 -4 33 5 -16 -1 7 -36 -4 14 -39 -16 8 -8
12 5 1 -5 3 -15 -1 -9 6 -26 9 -11 9 -3 2 -33
7 5 -18 -21 -10 5 -17 -17 -9 -7 -3 -9 5 9 2 -11
-12 12 27 24 24 -12 -5 -23 27 8 -18 25 8 11 14 -6
-4 -8 -17 3 3 0 -5 -23 -11 -11 0 -7 -8 3 6 -24
10 -13 2 -7 10 4 1 1 -4 -15 10 9 -17 -43 5 -2
-17 2 19 14 -9 -7 12 3 11 -26 -12 -2 -12 19 4 3
16 -5 -18 -4 -4 10 -7 -9 9 -15 9 12 12 15 2 3
-4 1 -23 1 7 -12 18 -7 -14 -2 8 5 -18 34 -33 29
18 17 -15 -8 3 -10 10 -9 -1 -1 11 -7 10 48 -1 14
15 1 -9 -12 1 3 -15 2 -7 -18 -9 12 20 28 4 -10
-9 -8 17 -7 0 -19 20 -4 -4 23 16 0 16 10 -8 -14
-1 -4 -85 -2 -1 -11 -12 5 4 9 -2 -6 -26 24 -7 -17
10 -1 1 2 14 -2 -7 9 -14 7 -7 -4 3 -3 -4 11
2 -6 15 -14 5 35 -33 15 -16 -26 -15 -26 4 -10 1 15
11 28 4 -10 8 -4 -15 6 13 4 -14 18 5 -22 3 -12
8 2 6 28 8 -14 -9 14 -3 -25 -4 -5 -26 -20 14 -3
10 -11 5 3 0 2 5 -4 6 -15 13 -13 14 -22 14 -5
9 -12 -17 3 4 -8 3 -8 2 -9 -14 19 -33 23 6 1
9 4 5 14 30 -5 -6 -36 3 -11 -22 -2 -3 -7 28 -10
-7 -18 16 4 11 -4 0 -18 -13 -8 3 10 2 21 -2 -22
6 -3 -7 -25 15 -4 8 -6 -30 -4 23 15 -12 -61 1 -8
-20 -14 17 -2 -3 17 -3 18 -17 1 -6 2 4 -1 15 10
24 19 -24 -4 -13 9 12 10 4 14 9 0 -4 11 -7 6
18 -9 -10 -4 4 -11 20 12 -19 -10 -2 -21 -9 7 -17 27
3 2 -46 6 -5 8 -6 -11 -18 -17 -7 -12 -15 43 2 0
24 -15 8 -1 1 -2 4 -6 0 -20 7 5 1 -22 4 -6
12 0 11 -9 0 -1 5 3 1 -14 -4 0 20 6 -10 -7
15 -13 -31 -4 7 -18 -2 -23 8 8 8 1 -16 33 4 -2
-14 0 -25 -12 -10 20 -14 -3 -3 -9 -15 -35 -38 7 4 0
