9 -10 0 -8 9 -16 -3 -7 -14 20 -9 9 22 24 -41 4
-11 3 -5 -4 3 5 -7 13 -17 19 -9 4 -16 -4 15 7
-37 -1 -3 7 -7 0 0 19 4 -8 20 -19 -8 6 6 -21
0 9 -10 10 9 -26 -13 -1 8 -19 18 12 14 -32 -14 -12
4 0 9 5 26 -15 -9 4 -2 10 9 6 4 10 22 15
-1 22 13 -4 11 17 5 -1 7 -9 -25 -3 13 12 -11 -1
13 -2 4 -21 -16 -27 -1 -15 -8 0 -25 -3 1 19 -14 -1
-13 -5 -4 12 -10 10 -8 -17 9 6 19 2 -14 4 -9 25
-5 20 10 8 2 3 0 0 3 -5 -5 -4 3 -10 6 10
13 0 -27 7 16 -15 12 -15 2 15 9 -3 -8 15 -5 16
6 9 2 9 -20 -3 -7 -13 -12 15 -1 18 0 -11 -19 14
-7 13 11 4 -7 4 -16 5 9 27 -14 1 10 -12 -32 25
-16 0 -2 14 -4 -4 16 15 -14 4 -12 1 0 6 31 16
13 24 3 -5 -14 -32 11 0 29 -20 2 -12 -49 20 13 -12
7 -5 -12 2 -3 2 -5 -15 -14 -11 -7 22 -14 29 23 33
-8 18 -1 -10 13 9 7 3 -19 3 7 11 -22 -30 36 11
13 -1 -11 -26 -6 -7 4 14 -1 11 -3 -1 -8 -4 -21 -1
8 -11 4 11 16 17 -7 3 -20 15 -10 -10 -15 0 35 4
-13 -1 4 7 -9 -13 14 -6 5 -8 20 -12 29 11 0 27
-11 20 -24 -9 -8 -37 -7 -15 -13 -10 23 12 17 -19 -7 -5
-13 -12 3 9 6 -15 7 4 -18 -7 11 12 13 3 15 -10
14 2 -13 8 -3 17 4 -10 25 -13 0 11 24 -1 -36 3
11 -6 5 -31 -7 -52 -14 -17 -24 -9 -30 -7 -3 26 -22 -19
11 -23 9 0 -11 -11 -2 -5 -10 -5 8 3 -10 12 14 53
-6 -7 -11 8 -10 8 -6 0 13 -4 -12 10 11 -17 -17 13
-24 -11 -13 21 10 14 21 -22 -11 9 10 16 2 -8 -3 8
-1 -11 -6 5 -9 2 3 7 9 11 13 -18 -9 -9 -2 -2
16 -4 5 9 -11 -3 -4 23 2 4 -10 0 15 7 -21 9
-15 -15 -6 10 -2 -9 15 29 -14 2 -6 -3 -1 12 34 6
5 1 -4 -8 -47 -27 2 -14 4 -25 18 -8 -7 42 -19 -22
-13 -9 -8 0 13 15 -9 4 12 -18 0 4 9 28 -6 14
2 -9 -23 8 16 11 4 -15 -10 4 -12 -1 -50 -5 27 25
-6 -9 8 -1 -3 7 18 10 10 21 -5 0 15 7 -6 -22
-16 10 9 2 6 18 -4 8 -16 -1 -7 -2 -10 19 19 2
-21 -3 11 -2 -5 -26 9 -3 10 -9 39 6 19 8 -4 13
-17 27 -12 23 16 -30 2 7 9 -1 17 26 -2 -4 5 8
-7 -1 1 -3 -1 -13 10 5 -7 -8 10 8 9 -5 -12 -1
-1 3 -5 1 -9 2 5 -15 21 6 -15 3 2 4 -26 20
-22 -17 10 -32 -2 -44 -10 -13 -3 -2 -17 -3 14 16 -15 2
-8 -27 9 2 6 -8 19 7 -4 -16 -13 -23 -18 8 42 16
2 7 2 -11 -9 11 -13 -6 1 0 -4 1 22 -16 -21 4
-10 -1 0 19 -14 -8 5 -20 -12 8 15 27 -4 9 8 6
0 10 -9 17 1 9 -12 -5 17 6 11 -17 -24 -25 12 -5
-5 -19 7 -18 -14 -11 -25 19 9 11 5 -11 1 -20 -10 19
-17 5 3 -14 6 7 13 22 -5 0 -8 -6 11 13 7 8
-9 0 23 5 -31 -31 -13 6 -6 -6 25 -1 -2 12 -4 -29
-5 11 5 17 10 -5 -3 17 14 5 6 2 3 29 -1 14
2 -4 -7 -16 19 21 7 -22 -1 -21 -6 11 -21 55 -8 7
1 11 -20 6 6 4 -2 -8 -6 -1 3 19 -6 -1 -22 6
-1 -8 -12 15 18 -4 1 12 -26 6 -18 -4 -11 -4 36 -7
-3 -5 0 -9 11 -6 2 7 -6 -1 14 -20 16 9 -4 -34
-24 -16 -6 2 4 -14 -10 5 8 -3 4 -11 35 -26 8 7
0 -12 -16 0 9 1 -1 8 -25 -2 10 11 5 2 6 16
6 6 21 -7 2 19 -8 15 -1 2 -19 -16 24 1 -20 -11
5 -6 3 3 -10 -17 -9 -15 -18 11 1 8 8 13 -2 16
-4 -11 2 7 0 10 -25 -23 12 4 1 8 -3 -7 -5 26
11 6 -1 11 -7 3 -2 -7 1 -6 2 -6 -17 9 -3 -10
5 7 0 -4 1 10 2 -18 12 5 -20 -13 5 0 -17 -14
-6 9 4 16 -33 15 9 -15 -3 8 15 22 3 -3 -10 18
14 9 16 14 3 16 -1 11 10 20 -14 16 6 3 -16 4
-28 -14 -15 9 2 -15 11 -7 5 25 -21 -5 -20 16 13 -2
20 26 -1 -14 31 -39 24 1 6 -21 -7 0 -3 15 10 30
18 -19 0 7 -16 -2 6 -5 -1 11 -23 28 -2 4 7 11
-13 16 -24 -12 37 9 -1 7 -18 34 -8 1 -21 -39 21 7
-1 9 9 -28 -21 -24 5 1 -4 -1 -2 -17 -40 -9 -11 8
9 6 7 17 8 0 -5 7 -4 2 -23 -12 -26 -10 27 6
1 -4 -12 25 15 -7 -5 23 39 13 39 -9 30 8 -7 33
0 7 -22 -1 11 -8 7 -10 2 -17 15 -2 9 -19 14 -12
-4 -13 9 1 -4 -3 0 -2 -28 5 2 3 7 4 2 -11
5 7 17 -16 -2 -1 -12 6 -1 -13 -12 5 15 -1 -3 0
10 3 -8 -18 7 -49 -28 -17 -30 0 10 -12 1 15 -7 -20
10 -22 -7 11 -21 -7 11 9 -19 5 -9 28 -10 -6 5 63
1 1 5 -1 -21 10 -12 17 -6 -16 -24 -4 -4 -12 3 16
2 -3 -3 19 1 18 15 -13 -14 -2 -1 -1 13 -1 0 -6
-7 5 -8 26 -18 11 -24 2 3 19 25 -24 15 4 2 -24
4 -3 9 21 -11 -35 7 14 19 14 -7 7 -12 17 -8 10
-22 1 -12 10 -5 -2 -3 9 -5 -4 -32 -22 1 25 15 14
-3 5 8 -23 -29 -57 26 -13 -11 -23 -16 11 14 21 1 13
5 4 10 8 -23 0 -5 -2 -8 4 -34 19 29 14 1 -6
16 -2 -26 3 56 35 4 -22 36 15 5 -13 4 7 -20 -3
8 16 -1 -33 -8 10 -7 3 22 -8 -1 -8 4 11 11 -33
17 -1 -8 11 6 22 0 -1 7 -8 -16 -10 -3 9 -2 10
-9 8 -22 -6 -24 -38 16 0 15 3 1 8 12 -5 20 39
17 13 -30 16 38 10 -14 5 26 -7 24 29 -1 0 6 15
-9 -8 -5 1 -2 -5 8 1 3 10 -13 8 12 -21 -5 19
-4 15 -5 -8 -12 -13 -13 -8 10 -2 -17 -2 10 -1 -2 4
4 -9 -4 -32 26 -19 -6 -22 -4 -17 11 -19 19 19 -8 8
-24 -14 -13 -6 -32 -1 11 1 -16 14 -33 -8 -15 -10 -2 -8
4 -2 6 -16 -25 11 -14 -1 -24 -5 -22 15 -12 -17 -6 -4
-12 -11 8 16 -28 -19 6 -17 -16 10 -4 27 -22 3 -7 1
-7 5 -19 15 -12 17 -29 4 35 6 25 -33 10 -44 1 -17
-4 -19 -9 0 -25 -7 -15 12 11 -2 4 -9 -2 -10 8 21
-27 5 -7 -8 2 8 5 22 -8 13 -12 -6 1 3 10 19
-19 -29 26 -27 -32 -40 20 -6 -31 -12 -44 18 6 45 8 4
-3 9 22 19 -9 12 -16 -3 3 10 -37 7 29 -6 -3 -4
10 -8 6 -6 39 40 5 -12 42 10 4 8 34 61 -14 4
-5 -5 -22 3 -2 -1 -23 -18 0 5 -5 11 5 5 1 20
4 -8 -29 17 15 -1 12 9 -1 -4 0 -14 -13 -3 26 -16
-10 9 3 -21 -10 14 2 20 -6 0 22 -2 -4 3 -4 -58
-8 -28 1 18 11 19 -12 -4 -12 7 6 5 19 -30 14 2
-6 2 -22 -6 14 0 -9 1 -13 -7 -9 11 12 3 5 7
13 -4 9 -11 -8 -18 13 20 -6 7 -15 1 -3 -16 5 14
21 -20 -9 23 19 -1 -18 -7 -9 7 17 -7 3 18 9 22
-4 4 -2 -4 -12 -1 -12 -1 7 3 16 -13 -6 -2 -7 24
4 9 4 5 -7 7 0 -1 6 -11 -17 0 7 -5 5 -17
29 0 11 3 0 17 7 4 23 4 -20 -5 -6 39 -10 6
-5 -9 -11 7 -41 -1 15 -5 -4 2 -6 10 3 -2 -1 33
29 8 10 0 5 -23 -6 1 21 7 -1 16 3 -4 -9 4
-30 8 14 7 1 20 0 -13 -1 12 -11 -1 11 2 -13 -10
-2 15 -33 8 40 -2 -8 27 13 17 1 -18 -39 -42 31 12
12 0 -12 3 -5 -9 4 22 1 6 -40 21 21 23 1 18
2 31 16 -21 29 37 -6 7 -11 -4 -16 2 -1 -31 1 9
1 6 -22 -16 10 -9 -22 1 12 13 -12 13 -15 -6 0 22
8 4 -18 9 -7 6 13 5 7 -10 16 -8 -22 -1 -2 -8
-15 15 -5 5 -6 -4 -11 5 25 11 10 15 22 23 -13 23
-7 -14 -10 6 14 26 5 13 3 9 14 8 18 -46 -13 -15
-5 -6 -1 -1 2 -10 -3 13 -24 -6 -3 6 -2 -5 -7 0
10 17 16 -21 4 -32 -9 2 8 3 -39 6 -10 -19 0 -13
-3 -30 7 -18 16 20 -13 -27 4 -7 18 -14 0 14 -3 4
-10 10 -17 -3 -38 -15 16 9 -11 12 7 -1 10 12 -4 36
-9 8 9 12 -7 -8 7 0 -1 -3 -5 -4 7 8 -3 24
21 1 11 9 26 -10 26 13 10 0 4 2 0 14 -1 17
-9 10 -7 10 -35 4 -13 -21 1 3 16 6 4 10 -4 -21
8 -14 -13 0 -9 -47 -9 7 3 9 -5 19 -13 24 4 2
-13 -7 -7 31 -15 5 -24 -14 8 21 -1 -2 7 22 -27 4
11 13 -52 3 -6 -38 6 36 8 13 -13 7 -50 -2 13 -11
-9 0 12 -3 -27 -39 6 0 -18 -3 -41 -12 -7 23 -19 -4
9 17 25 -16 3 46 -1 -24 20 -4 -38 -4 35 16 -8 16
16 4 -3 -34 12 8 -14 -11 18 10 3 11 3 -5 28 -15
9 -13 -20 -4 -16 -4 -16 -9 4 -5 8 -14 -29 -8 -8 -4
-21 7 -19 -30 -17 -7 12 16 1 -6 4 27 4 19 38 37
20 -2 5 36 19 17 -7 5 34 8 19 6 5 -28 -22 19
3 4 1 -16 -14 -12 2 -1 7 -11 -17 3 1 1 -17 15
-11 9 -3 -11 -8 -14 2 13 11 -12 -34 -5 21 -27 0 -9
4 -32 -13 -18 15 16 -4 -18 -2 -7 19 -14 4 16 -18 17
-27 10 -16 9 -34 18 24 14 -7 -2 9 -25 17 -6 -3 1
-16 7 11 -15 -19 5 -4 1 -17 -7 -24 1 -12 -6 -9 -2
15 -6 0 17 18 -15 1 -7 -38 4 1 3 -37 21 -8 5
-16 -18 -4 0 -24 4 -23 -24 16 12 14 -19 23 -20 10 -15
-16 -10 -16 -8 -13 -24 0 21 -14 -7 9 -14 1 19 36 22
-16 12 6 15 -10 2 -27 -17 -13 15 6 18 6 21 -17 19
-3 10 -38 6 -3 -19 30 28 19 6 -20 16 -9 23 5 -16
-9 10 14 10 -28 -38 10 16 0 7 -45 1 9 -2 -16 2
0 -4 35 -27 -37 31 4 -19 -11 -9 -40 2 39 45 9 -10
