-4 2 9 7 -15 14 -6 -15 4 -11 -2 -1 5 -7 3 15
-2 5 -9 -6 18 -5 17 18 -12 -7 2 6 -6 7 2 8
-23 0 6 35 -14 -3 1 25 11 4 -11 -14 9 -9 -12 -11
-9 -8 1 14 -1 -8 -6 23 -8 10 14 10 -2 2 -7 -6
-10 8 3 -8 10 -8 -6 15 -14 -3 -2 -20 -3 0 9 18
13 -8 4 8 -9 2 6 15 10 -2 -17 7 14 -5 -11 -20
8 7 -7 20 -14 2 -1 9 -1 7 1 3 10 -3 -12 1
-10 -3 10 4 -6 11 -3 -4 5 -25 -12 -16 3 -5 1 8
15 1 -4 2 -7 -9 -5 9 5 -1 -6 2 14 6 -1 2
7 1 3 14 -9 -8 7 -10 11 -4 -11 -10 6 10 2 -14
-15 -10 2 14 5 -3 -7 -3 -9 -4 -27 -6 -2 -13 7 -4
0 0 0 0 0 0 0 0 0 0 0 0 0 0 0 0
0 0 0 0 0 0 0 0 0 0 0 0 0 0 0 0
0 0 0 0 0 0 0 0 0 0 0 0 0 0 0 0
0 0 0 0 0 0 0 0 0 0 0 0 0 0 0 0
0 0 0 0 0 0 0 0 0 0 0 0 0 0 0 0
-46 -7 -3 6 -8 -8 4 4 1 1 -16 -9 1 9 35 -2
-9 19 -6 -12 2 9 9 8 10 -6 7 2 -4 19 8 2
-40 10 3 8 2 -1 -15 22 10 0 -4 -4 10 -6 -7 -7
-13 -1 13 5 11 1 -3 5 4 -9 -11 -7 2 -16 10 -4
-1 15 4 3 2 -17 2 6 -5 -9 -2 -3 -6 4 31 1
21 -5 -4 4 10 -3 -2 15 -7 10 2 8 1 9 -37 -17
2 6 -9 21 0 13 18 1 14 6 -13 -13 11 2 23 4
-24 -1 -1 11 8 5 -2 14 12 -23 3 -9 16 -1 17 -14
7 3 -15 -9 11 -18 15 2 9 5 1 13 -9 0 -9 -6
10 6 7 13 12 -7 -6 1 22 -1 -7 -3 6 19 -6 -19
9 -11 -8 -17 13 3 -6 0 -26 -18 -21 -6 0 -9 -9 -7
0 0 0 0 0 0 0 0 0 0 0 0 0 0 0 0
0 0 0 0 0 0 0 0 0 0 0 0 0 0 0 0
0 0 0 0 0 0 0 0 0 0 0 0 0 0 0 0
0 0 0 0 0 0 0 0 0 0 0 0 0 0 0 0
0 0 0 0 0 0 0 0 0 0 0 0 0 0 0 0
-14 5 -6 -1 -8 16 -3 6 2 -3 4 -18 1 17 33 7
-12 14 2 -10 8 -3 2 14 -4 -3 -1 9 3 0 -17 2
-19 -6 4 2 -12 -10 13 1 15 0 15 -3 1 -4 -17 -3
1 3 4 17 5 5 9 17 9 -7 9 -7 6 -11 -15 6
3 5 -7 -3 -23 -9 19 -11 -14 3 -8 -14 -15 -5 9 7
7 9 2 4 1 -17 -7 8 0 -12 -11 8 -6 3 -17 -1
7 -2 -12 16 -22 8 17 1 1 12 -28 3 15 11 12 -8
-12 0 10 -13 20 7 1 21 5 -21 0 -15 -15 -9 12 1
7 -4 -9 6 0 -20 4 -14 7 -6 -4 -6 -15 7 -19 8
6 9 2 18 2 -3 -2 -9 14 -7 -2 -9 1 17 -4 -15
-27 -20 -1 -7 -9 -11 -5 -6 -15 -14 8 -9 -16 3 9 -8
0 0 0 0 0 0 0 0 0 0 0 0 0 0 0 0
0 0 0 0 0 0 0 0 0 0 0 0 0 0 0 0
0 0 0 0 0 0 0 0 0 0 0 0 0 0 0 0
0 0 0 0 0 0 0 0 0 0 0 0 0 0 0 0
0 0 0 0 0 0 0 0 0 0 0 0 0 0 0 0
-2 -10 -3 11 1 -4 18 9 -3 5 -13 8 6 -4 -16 1
7 -3 -18 0 5 -10 -5 25 10 -8 -7 -2 14 13 -6 -2
-10 -18 -5 15 -5 -8 14 3 9 -15 -9 1 1 0 -26 -10
-10 14 -15 4 -2 4 8 -9 -3 13 -1 -13 -9 -17 -9 -4
12 -10 -7 4 -2 -6 -11 16 15 -25 -3 5 -3 7 7 4
17 13 7 -1 -5 -9 -4 -17 -10 -1 0 -15 -5 2 -19 -8
-8 -5 -2 20 5 -2 1 13 6 13 5 1 7 1 -5 13
0 -7 11 7 17 -8 8 8 7 -26 -6 -24 -3 2 7 12
28 -3 2 -23 -20 -1 -2 -1 -4 12 2 10 28 12 -3 -11
-2 2 22 24 -8 11 -2 -14 13 -15 2 4 12 15 5 -8
3 -12 8 -9 8 -7 -14 1 -17 -2 -23 -5 12 1 17 4
0 0 0 0 0 0 0 0 0 0 0 0 0 0 0 0
0 0 0 0 0 0 0 0 0 0 0 0 0 0 0 0
0 0 0 0 0 0 0 0 0 0 0 0 0 0 0 0
0 0 0 0 0 0 0 0 0 0 0 0 0 0 0 0
0 0 0 0 0 0 0 0 0 0 0 0 0 0 0 0
-40 0 0 7 6 -20 5 8 9 5 -2 -21 -18 -2 -17 -5
25 23 -2 1 5 9 9 16 14 -24 4 -3 17 7 -4 -12
1 1 -16 -16 24 -9 -6 -37 20 -21 -18 -22 -4 -15 -31 -9
33 0 3 -10 14 -8 0 0 -10 -4 9 -4 -11 -26 10 -2
25 17 -20 4 -6 -8 9 -1 -7 3 -21 -3 -4 -6 4 17
4 -12 4 -9 -23 10 -17 0 11 8 5 4 3 8 -23 -25
-8 3 -19 8 3 2 1 3 -9 14 -9 3 -21 -1 0 14
-33 3 5 27 22 -21 4 34 -8 6 -7 -35 -2 13 16 -3
63 18 -20 -7 -29 5 18 -3 -10 7 25 21 21 14 -16 5
0 -6 11 26 3 14 -5 -7 22 -35 -9 4 0 31 -20 -6
39 -15 -4 -12 9 20 -10 -4 -25 -17 -12 -10 2 8 12 9
0 0 0 0 0 0 0 0 0 0 0 0 0 0 0 0
0 0 0 0 0 0 0 0 0 0 0 0 0 0 0 0
0 0 0 0 0 0 0 0 0 0 0 0 0 0 0 0
0 0 0 0 0 0 0 0 0 0 0 0 0 0 0 0
0 0 0 0 0 0 0 0 0 0 0 0 0 0 0 0
-23 -1 1 -18 13 -4 -2 -15 -5 9 -15 -3 -14 2 14 21
10 23 5 9 -2 13 1 3 10 -5 10 5 0 15 -10 8
-5 -3 -7 12 -23 14 -6 -12 21 -26 22 -2 18 6 -29 0
5 5 -13 27 4 4 14 16 2 -12 14 -2 -1 -16 3 2
16 21 -22 21 -2 -5 27 -12 -14 13 7 -12 5 10 -8 4
-11 -15 3 -18 -10 2 -27 2 -8 -2 -17 -12 -8 13 -1 14
-13 5 -13 1 -9 -2 5 -5 -8 21 -27 -12 5 19 -8 7
-12 9 11 -33 18 -13 -11 5 0 -6 5 -26 -5 2 20 -22
12 7 -16 17 -17 0 27 13 0 -4 6 20 -6 15 -13 -6
17 12 5 3 1 7 -13 -9 22 -28 5 2 -10 22 -14 -1
2 -31 2 7 -5 -10 -3 6 4 -8 7 3 10 17 12 7
0 0 0 0 0 0 0 0 0 0 0 0 0 0 0 0
0 0 0 0 0 0 0 0 0 0 0 0 0 0 0 0
0 0 0 0 0 0 0 0 0 0 0 0 0 0 0 0
0 0 0 0 0 0 0 0 0 0 0 0 0 0 0 0
0 0 0 0 0 0 0 0 0 0 0 0 0 0 0 0
7 0 9 -11 2 -5 2 8 3 10 16 -11 18 -7 -2 5
-9 -15 -4 -5 8 4 12 -10 -15 -14 -3 -1 -6 21 5 -7
-26 2 -14 9 -14 1 12 -6 11 -3 0 -22 13 -3 -6 -10
-7 10 3 8 8 -4 0 7 6 -6 4 -2 -14 -6 -17 1
0 -17 4 -8 8 -6 14 3 -10 0 5 -11 -18 8 -8 4
-5 18 0 5 -7 1 3 9 -9 2 -6 -5 14 3 4 -13
10 -3 -6 -14 -12 12 -8 17 -3 5 8 -18 27 -23 1 4
-3 -18 14 3 3 9 -18 23 9 -6 17 -16 -10 -26 -8 13
32 -10 -2 7 0 -13 -2 0 6 -6 7 -3 37 9 10 -13
4 -8 6 0 -7 -5 1 -13 -7 -36 -12 -8 9 15 7 -7
-20 -18 -8 3 -3 0 -13 -7 -1 0 -30 3 9 -8 19 -5
0 0 0 0 0 0 0 0 0 0 0 0 0 0 0 0
0 0 0 0 0 0 0 0 0 0 0 0 0 0 0 0
0 0 0 0 0 0 0 0 0 0 0 0 0 0 0 0
0 0 0 0 0 0 0 0 0 0 0 0 0 0 0 0
0 0 0 0 0 0 0 0 0 0 0 0 0 0 0 0
-6 -6 -7 10 13 -8 -10 2 -10 11 -6 2 0 20 -12 9
10 9 3 3 13 0 3 -13 15 -21 -16 1 3 13 -8 16
-35 -5 -20 5 -10 -4 -8 12 23 -3 8 -20 26 -8 15 -27
-10 -10 2 -5 16 -3 -7 18 15 6 9 -3 7 -11 13 -6
22 -6 -8 10 4 9 -5 -30 -5 3 -8 0 3 -20 -19 4
-11 11 -18 -15 4 -17 -25 41 -14 8 0 7 14 23 11 -43
-4 -3 -7 5 5 4 3 3 -8 3 5 -17 -1 -13 -9 -7
17 -8 11 -17 17 -5 -8 16 -9 -15 22 -32 12 -1 -7 5
27 15 3 -10 -37 4 12 -2 5 -7 4 18 16 1 10 -14
1 11 -6 6 23 2 0 -4 5 -47 -3 -14 9 6 -6 -6
13 -17 -14 10 -7 8 -33 -4 -4 -13 -23 -10 25 -7 21 -1
0 0 0 0 0 0 0 0 0 0 0 0 0 0 0 0
0 0 0 0 0 0 0 0 0 0 0 0 0 0 0 0
0 0 0 0 0 0 0 0 0 0 0 0 0 0 0 0
0 0 0 0 0 0 0 0 0 0 0 0 0 0 0 0
0 0 0 0 0 0 0 0 0 0 0 0 0 0 0 0
-7 -3 7 -6 13 -22 0 -13 -13 16 -9 4 7 19 10 12
-3 4 -4 -5 5 22 1 -3 -2 -18 -8 10 4 6 2 14
-31 -2 -1 -15 -26 -6 16 43 9 12 18 -16 17 5 5 -9
-10 -10 -3 21 6 6 6 34 21 10 14 10 15 -6 -3 -13
7 12 2 20 -16 16 22 -41 2 3 -6 2 3 -15 -10 -5
-11 3 6 -30 4 -15 -2 41 -15 -13 -1 -3 -1 -1 -3 -14
-12 -1 -5 5 -6 9 10 -2 -1 23 -31 -22 25 4 -1 8
9 0 21 -24 4 -23 -10 -1 -12 -19 23 -1 -11 -11 -1 -14
-3 11 2 5 -28 12 27 13 2 4 4 -5 -4 13 -18 -3
-4 -9 -11 -7 0 0 -6 -2 13 -16 5 1 17 17 -11 0
-13 -29 2 28 3 4 -23 6 -5 0 -17 3 6 25 10 -10
0 0 0 0 0 0 0 0 0 0 0 0 0 0 0 0
0 0 0 0 0 0 0 0 0 0 0 0 0 0 0 0
0 0 0 0 0 0 0 0 0 0 0 0 0 0 0 0
0 0 0 0 0 0 0 0 0 0 0 0 0 0 0 0
0 0 0 0 0 0 0 0 0 0 0 0 0 0 0 0
