-17 2 30 -28 -8 3 4 17 21 -16 -21 -7 -6 -4 -10 -16
0 -1 -12 -5 7 6 9 -8 6 -4 -8 21 33 -23 -1 -27
-6 21 7 2 17 -28 -12 21 9 -25 14 -22 6 -11 4 -2
10 -10 4 -9 -13 -6 6 -19 5 -8 -16 -4 2 24 -15 12
-14 -7 16 -10 19 3 -6 -21 -5 19 0 -1 -4 -13 -15 10
12 16 3 4 15 -33 15 8 -9 -14 16 3 11 6 9 -23
-5 -3 -4 8 4 15 11 -36 -16 10 10 13 3 -32 -6 -4
19 -24 -14 0 -7 15 1 14 -15 15 2 14 17 -11 18 10
23 7 -27 -2 19 -6 -8 2 11 0 7 -14 25 7 -12 -62
0 9 4 -18 4 -8 7 0 -26 -1 -5 6 -10 -18 3 12
22 -8 -11 -22 -21 2 3 1 6 9 -12 -5 6 -3 16 0
6 -22 -5 10 17 13 25 -8 5 4 25 1 -15 5 6 4
4 -9 -19 -11 -5 8 8 11 -5 -9 -3 -8 -4 2 17 3
-13 -5 20 -1 23 17 5 -20 -11 -18 19 2 1 -6 0 1
12 -8 2 -1 5 -10 3 14 -21 -15 -1 4 -2 15 -16 -25
-4 5 -3 -3 -22 -6 -8 11 21 2 -13 -22 -9 -7 24 -13
-11 4 15 -3 9 -15 15 -5 -16 -30 -3 -1 -8 -13 -5 -18
-14 17 -13 26 15 23 0 -11 -16 -27 -22 -9 14 -18 6 -15
-3 -9 1 2 5 -3 -2 -19 0 -8 2 -15 -2 8 8 19
9 11 1 9 0 17 8 5 -14 -29 6 10 -13 18 7 13
13 4 1 -16 14 -26 8 -14 9 2 13 -7 10 -11 0 -27
1 15 -11 15 -16 -27 -8 -9 -11 4 1 -19 27 21 21 -27
-27 12 0 5 16 -7 -3 3 7 10 -2 5 6 -1 -11 -11
8 -11 -20 -9 23 22 10 -9 -21 -13 19 19 7 22 34 -38
26 5 -16 8 5 -11 4 12 6 -1 -14 8 7 12 -21 -35
-13 8 19 -7 6 -11 -16 22 -11 9 -13 9 -13 -19 11 28
5 -15 -29 2 -28 13 6 -5 -5 16 8 -9 15 8 19 -15
-13 13 13 -2 22 -6 -5 -4 16 -17 1 0 2 2 1 -39
-19 2 -2 5 22 29 -2 2 -7 6 -13 -16 5 -9 4 -1
3 -4 -4 -7 10 6 -5 16 3 7 -8 -8 -4 1 10 -31
-12 4 -18 -5 -6 6 5 4 4 4 18 7 -16 -7 -26 -5
-10 33 24 -13 -14 -11 -12 16 -4 -8 -27 5 0 -11 -21 7
-1 -7 -14 1 7 15 -10 1 -12 -10 -3 -7 -3 18 -18 -13
-17 -19 -10 7 -1 30 -33 2 -10 3 -19 10 -1 10 13 -28
4 -18 -3 -12 -19 -3 -1 -3 14 1 -7 2 -11 -15 11 5
-21 -10 -2 11 -4 19 7 10 -15 -25 -20 11 1 -22 13 -4
12 -1 -4 1 10 0 13 18 11 -8 7 0 9 -23 -29 -18
0 -1 -8 -13 -3 -17 -18 3 -6 6 0 -8 11 21 -6 12
-12 4 0 0 30 -19 3 -1 -5 12 -2 -4 -8 -31 -6 -12
20 -6 -24 23 7 40 -4 -5 8 -6 9 9 17 11 38 -9
-9 9 -5 -9 -5 -6 -11 -6 3 4 -9 -7 0 -1 7 3
-20 21 27 -16 14 9 8 14 -21 12 -15 32 -9 -5 33 38
9 2 1 10 -35 -22 -4 -8 1 -19 -12 -28 3 3 -11 -20
-13 -6 13 2 -8 26 -12 9 -38 -1 -29 0 -6 2 -2 20
-17 1 8 -2 -3 -6 3 -11 13 2 -8 -19 14 -47 18 5
-10 -12 13 2 -16 11 5 3 -1 29 -5 24 -3 7 -7 30
4 30 2 5 -7 0 14 -4 13 21 11 -9 -17 -16 -10 -10
9 0 -7 -1 3 -13 -14 16 6 16 -15 -5 -10 11 2 -11
-8 -12 10 -22 16 -34 17 17 14 10 -14 -24 17 -1 -6 -13
-6 19 21 -2 15 -23 -3 -24 6 21 12 2 0 -18 -9 -10
-14 19 22 8 -16 13 7 -3 -7 5 -12 3 -10 -1 -8 9
25 -8 -3 -6 -21 8 -5 -16 -19 -12 -24 -8 11 25 6 13
4 -5 2 -31 1 -8 21 17 10 1 -3 -5 1 -17 14 -13
4 -7 20 3 8 -3 -1 16 23 -13 -8 -2 -4 -18 -9 -6
-13 13 -11 -3 -13 5 11 -6 7 -12 8 7 5 16 -7 0
-6 2 -7 -14 15 -41 -3 -3 -15 9 5 -5 -9 2 14 -13
9 -2 -39 9 -4 -18 -6 25 -14 -7 14 0 12 -20 -3 -42
-3 -10 -9 15 3 -24 1 -3 10 13 3 -12 15 12 -10 -4
5 -17 2 8 3 21 10 13 -8 3 10 7 -14 -12 13 -4
22 -30 -22 17 12 14 3 -6 -4 10 30 15 15 -1 20 6
4 8 9 5 4 6 5 -13 -2 0 -1 4 7 -15 14 1
3 0 12 20 -8 -1 -13 -36 3 -10 12 -17 15 1 -1 -11
5 -11 12 -4 -16 10 -8 24 -16 -10 14 -16 -16 16 14 -19
-4 12 -4 -15 -13 2 -4 -7 8 15 2 11 -14 -3 7 19
-21 11 -16 -10 3 -14 17 17 -21 16 25 4 29 -10 -12 -43
7 3 25 -17 -4 19 12 -3 -3 4 0 6 -11 0 -20 -15
-8 -9 -7 27 16 35 6 -22 16 2 7 -6 -12 -20 -2 11
-8 -13 23 -7 -13 13 -13 8 6 -26 -28 5 1 -13 -4 21
1 4 -18 -13 -1 -4 -1 6 -4 4 -5 18 2 -25 19 -19
-27 18 11 2 -2 5 -8 5 16 21 -31 5 -6 1 -23 35
2 -4 18 25 18 -16 12 -9 17 13 2 -5 -2 -5 -10 16
-8 19 33 -2 8 -69 -16 -10 -4 -15 -13 -31 18 7 -18 -37
-2 -9 3 3 13 21 8 20 -16 -7 -16 3 3 3 6 22
5 4 -3 -2 10 -4 -13 9 11 -7 3 -18 14 23 -30 -5
18 -13 -21 -5 7 9 -4 -19 -13 -1 -7 -12 -1 -5 34 -7
19 20 2 -11 3 -33 12 12 10 -1 32 -15 24 15 4 -91
-27 4 5 7 1 15 22 -5 -2 12 17 -1 24 -25 -13 12
28 -13 -40 -4 3 -16 6 18 -18 -27 28 -33 28 6 11 -72
14 9 -27 8 19 -7 6 8 -24 4 12 6 -29 -13 22 -23
-12 2 37 3 -12 2 4 -5 -18 10 -13 2 -12 -20 -29 47
2 19 -9 1 4 14 -21 -4 -10 29 1 6 7 -3 5 -20
10 -21 6 7 7 26 -16 4 1 -10 22 -6 -2 23 -16 1
3 5 2 -13 -2 -21 -21 6 7 16 20 8 -19 17 15 -20
-23 18 8 16 -9 22 -7 -4 -14 11 -8 -9 -4 1 10 7
19 17 -22 -20 1 -16 -11 18 13 1 -9 -20 -3 -20 3 -10
-25 3 30 -7 2 16 -1 -13 6 13 -21 16 -16 11 -16 32
-14 10 2 -4 9 -11 -10 4 31 6 -36 19 -3 -16 -11 32
5 5 -3 -16 11 -47 -6 -2 -35 -15 -4 -7 7 -1 9 -23
-8 -6 -3 -8 -9 -4 4 -25 -12 5 5 -5 -12 13 3 33
-15 -4 22 6 -3 -19 -3 -12 10 5 -9 -23 15 -13 -18 -17
-12 3 -4 -19 -19 2 -15 -31 -4 -17 8 -19 -6 12 -5 -27
-8 13 18 -3 -20 5 -24 -13 -4 -6 -32 -22 -4 -10 -36 -4
-20 -1 -11 3 8 0 5 -8 -9 -9 13 -10 18 -32 -4 24
4 -2 -10 8 24 11 9 12 1 0 -6 5 -1 6 -6 -16
-7 13 -31 6 6 23 21 7 4 -1 25 -7 -1 -13 23 -3
3 -18 22 -10 4 -6 1 -9 -19 10 -3 12 -5 -10 9 25
3 -12 -3 12 2 15 11 -4 -26 -22 -11 5 -1 12 20 -11
15 -8 9 -20 16 -10 12 5 8 -1 -3 -3 -1 -12 1 -26
-10 -8 16 12 -14 29 12 1 0 -16 6 -11 10 -15 0 10
9 7 4 -17 -8 27 -7 -14 -12 -11 -11 -3 11 -2 10 -18
-7 4 13 -24 -7 21 -25 -13 13 -4 4 0 7 4 12 16
-5 -9 -4 5 -5 21 -10 7 -5 -14 7 -1 15 -15 7 -9
10 3 11 6 6 -9 -15 14 4 -21 -25 -10 -25 17 8 -5
-5 -1 -4 10 -12 36 14 -3 33 1 -13 -10 -3 -1 -17 3
-19 7 22 -4 10 3 6 -11 -2 4 -23 15 -3 2 16 11
-5 4 -28 0 8 23 11 -10 2 3 -14 -6 7 10 21 9
-16 17 6 0 11 -16 8 9 -4 30 10 -21 12 -12 13 12
10 -25 -11 5 4 -2 13 -6 -12 -7 3 9 1 -25 25 22
5 -6 -10 3 4 -7 6 0 2 6 -7 -7 1 17 3 -17
-15 21 11 -7 -8 -4 -11 -9 10 24 -3 -3 -8 -16 -4 22
-17 -1 39 -21 -5 4 -22 12 -2 -20 -12 -18 -18 6 6 -2
-20 1 -10 -3 -11 47 22 3 2 -6 -7 11 2 0 -9 13
6 3 -33 29 3 15 12 3 -20 5 28 8 43 1 -1 -15
6 1 -3 0 -14 -21 6 17 4 -22 -3 -3 1 -4 -34 -29
-3 -2 -10 -3 22 -1 -2 -1 29 -4 22 -7 1 -1 7 -12
4 -12 -5 -16 -16 11 1 -4 3 -24 -31 -17 -8 -3 12 4
2 -17 22 -22 -11 -5 -18 9 8 8 -8 13 4 10 -10 12
20 -29 -8 -17 1 15 12 -17 -3 -2 -1 4 9 -1 0 -3
9 -25 15 0 -1 -8 -19 28 35 -19 -6 5 -19 14 -10 8
-26 18 24 15 -21 44 -9 1 29 9 -21 12 -13 -10 -44 17
-15 -5 30 -18 -22 29 3 3 1 13 0 2 -28 -6 -9 56
16 -14 -23 -1 -3 5 -9 -33 13 -26 -2 -8 3 17 3 -23
-6 10 -8 14 -23 -11 -10 -31 0 31 4 1 18 8 15 -31
11 16 -28 -3 17 -35 -10 -8 25 -7 24 -14 9 14 9 -53
-8 5 8 2 6 -8 9 5 6 -20 11 2 25 -9 4 5
20 6 -13 -8 16 -40 -14 11 6 -8 7 -30 1 21 6 -61
-1 -9 32 -4 -6 -24 -9 12 -12 -5 -17 8 -29 2 -8 18
-4 -13 -11 23 0 30 0 -10 -22 -7 -23 27 -13 -17 6 29
7 17 -25 19 -29 6 -2 5 -6 24 -10 12 32 3 8 -10
34 -23 -28 -25 2 -14 -37 38 20 -7 1 3 -26 -5 3 -1
10 5 4 -10 2 -12 -18 13 4 -10 26 19 -12 0 5 -16
-21 -3 -16 23 6 39 1 -18 -9 9 -20 -10 3 11 19 2
-1 -16 8 -16 -15 1 -2 -1 12 -2 5 12 0 -4 6 6
1 -5 -21 1 14 17 14 -1 9 6 -1 14 -4 -15 16 33
8 -4 12 5 13 1 4 12 20 -18 -26 2 -5 20 6 4
-18 -4 4 -9 1 2 -3 8 14 4 10 -19 -14 -6 -34 21
-19 -7 26 17 -6 2 -7 -8 9 8 -2 0 -26 -7 12 37
17 -11 -30 16 -7 17 4 -3 16 -8 16 -8 14 18 3 -6
-15 1 -18 -9 -7 -1 -14 -33 -4 10 6 -17 4 -7 9 -9
-12 9 0 -12 -17 6 -10 16 9 5 -12 -9 8 2 -24 -13
-29 -4 5 1 16 -22 16 -28 14 -5 -2 13 33 -35 -19 -3
17 -9 -10 -1 4 -2 5 0 -3 -15 5 -2 14 -12 1 -23
-7 -16 -3 18 4 -7 8 5 -15 24 5 14 -18 5 17 4
3 12 -17 16 22 8 -3 -5 13 -13 -6 25 7 24 -1 -1
