-6 -17 -1 1 -15 13 4 32
6 13 9 -2 14 6 -3 10
-1 11 0 10 -6 -2 10 2
-1 -8 -12 13 10 -1 -17 -29
-6 -4 25 -5 -15 -1 2 15
-12 -18 -5 4 -23 7 36 33
11 -4 26 3 -11 -5 -18 8
-6 7 5 3 -11 -32 -21 -6
-2 -40 4 -2 -17 27 13 8
27 8 -6 30 -17 9 -30 16
-14 -3 8 -9 14 -10 0 26
12 -29 -2 14 0 4 22 -10
-10 -28 25 -13 26 19 0 -2
1 15 -11 -33 17 8 -19 -16
-9 -13 -17 12 -8 -10 -29 -20
-2 -7 20 -10 -3 4 -21 11
-6 16 26 -14 -25 -16 19 2
-3 -30 10 12 13 -7 -33 14
14 -13 -20 2 -15 5 -3 -19
2 -32 -6 1 -4 -10 12 6
-7 12 44 -19 25 -24 13 7
-9 3 -22 2 21 6 -10 16
20 23 -11 -3 -6 -5 -32 3
-27 6 -13 26 -24 10 40 -10
30 -19 0 0 6 -14 7 22
-4 15 0 -10 19 12 -15 11
9 -17 14 1 9 -10 -36 36
14 27 -14 -20 -10 39 18 -5
10 1 41 12 6 -52 -14 -27
-32 -2 17 4 5 -32 -4 2
-5 10 -24 13 27 -1 -45 -9
-1 -28 32 21 -2 -40 -6 26
-14 -4 32 3 -27 -35 0 42
-9 -40 8 33 24 -25 86 -5
31 19 16 -18 34 92 39 -43
-87 -2 -34 14 -37 2 -23 -4
2 -41 40 -39 -15 -9 -15 -15
19 -2 32 17 39 22 4 -30
65 -14 4 8 -8 22 -34 -35
20 -24 39 -7 -35 -33 19 9
-43 20 25 17 13 -40 12 22
-77 10 -3 41 -25 28 22 4
-43 9 3 37 -21 -60 -4 -21
-11 30 13 -37 8 20 0 -26
-35 16 28 -14 -32 16 23 16
-2 -7 3 -12 48 15 -47 16
-17 -34 8 5 -38 11 23 18
-14 21 6 -2 -40 9 24 35
3 -4 19 -13 25 -10 -30 -6
8 -8 26 6 -12 -6 8 -8
0 6 22 2 -8 3 -33 14
24 -21 -3 -4 2 -38 2 -1
1 -27 21 -34 19 -53 -32 9
-12 30 33 2 -27 -11 18 4
21 -2 -6 -22 1 13 -38 -8
16 -10 32 -35 11 -20 3 -15
12 -28 -8 -17 43 11 -27 -5
2 17 4 3 -5 8 -33 -35
-17 -2 -7 47 9 3 32 17
51 31 18 -26 -8 -3 -35 43
19 -14 36 -39 -35 -72 -26 30
-38 -14 11 34 -7 -10 1 -7
30 7 -4 -6 20 1 -13 28
13 -28 20 -47 6 -23 33 -4
18 -13 -36 -49 33 20 -40 -40
31 8 -19 -21 23 -18 -1 8
36 -1 -4 -41 -4 -4 -7 -24
6 11 41 15 28 -9 17 13
-26 7 41 22 5 8 70 -6
14 6 20 -3 -5 -17 -30 -19
-38 -25 6 7 -35 22 28 -4
-51 7 12 19 9 -48 52 -19
