6 10 22 -4 -1 -6 5 22 -1 -15 -27 -8 -4 1 -6 -16
-4 -10 -3 16 11 12 14 24 3 6 21 -3 24 9 -5 -14
14 9 -9 23 -14 -13 -2 39 -6 2 12 -9 -6 -21 -18 -14
10 4 -2 4 7 -6 -7 4 4 -12 17 -3 13 -8 -19 -7
2 36 4 14 -3 13 -24 -24 0 17 -9 -7 -4 12 2 -15
12 -5 15 5 21 -22 1 31 -14 -23 16 -3 24 10 -11 4
-7 3 -11 -16 16 1 -20 -12 2 -14 -7 -8 -12 1 -8 13
7 -15 12 16 -1 -9 -13 -7 0 16 -4 12 -9 2 7 -6
10 8 8 -7 -33 4 11 26 16 12 -33 14 -21 -8 -24 3
-5 -10 25 -22 -15 -4 21 8 13 -3 13 -2 10 4 -23 8
12 -11 12 -11 -19 -3 11 -1 -11 -7 -16 4 -12 -19 19 0
-10 2 4 -33 36 -7 3 -28 9 -20 27 0 11 -13 5 5
7 -14 -24 -5 22 5 15 16 8 -14 1 -4 -16 -24 -5 -13
-5 44 -12 7 -13 -23 -19 28 -20 0 -19 42 14 11 31 -4
-22 0 13 -7 -11 10 -1 -3 -9 11 -9 10 10 -14 22 1
20 52 -18 6 9 -19 17 -11 -5 -10 1 11 25 5 5 17
11 12 14 2 -16 14 18 23 -14 17 -11 17 7 16 -1 8
3 5 21 15 2 18 21 6 -3 10 4 19 -2 -5 5 -10
14 18 -34 -1 -24 15 -22 18 -1 10 12 15 -11 -29 -7 -15
25 -7 -11 -1 -7 -20 -4 22 3 3 8 -18 -11 -8 -11 -6
6 33 -3 17 8 13 -16 -13 15 -14 -5 -10 -27 4 9 0
21 -35 -14 -16 -26 10 21 -5 8 28 28 22 10 7 -19 -9
-5 -4 2 13 22 -17 -10 0 -8 -7 17 -25 -1 3 12 7
1 -30 14 3 3 14 9 -40 5 -9 -9 3 -5 2 0 19
14 7 -18 16 -8 2 -27 -13 -20 29 -17 -1 2 19 30 6
7 -17 11 -27 20 10 -2 -3 21 -1 7 -12 14 24 -18 0
15 -4 -12 11 3 10 4 -7 1 -9 -29 22 10 -19 5 1
15 7 8 -44 -5 -7 -5 -34 37 -21 7 -19 -23 9 22 -11
17 -54 -8 -48 18 23 6 24 34 18 29 12 6 -29 10 -32
-24 38 -27 22 17 -18 -41 32 -13 7 -25 38 6 4 6 9
-9 -2 2 14 -16 7 13 7 5 15 -11 -1 -18 9 -15 4
12 35 -15 5 -5 -24 7 -31 10 -15 -2 -12 6 10 -8 6
19 -20 17 13 -1 16 2 -4 2 21 -4 17 -2 14 -12 13
-6 1 1 11 -3 7 20 -8 -5 -13 -15 14 -16 4 -11 -20
8 -1 8 -13 -28 7 -10 10 -5 16 6 16 -6 -17 10 13
13 -16 0 23 14 -14 -9 19 12 22 7 -21 7 -24 0 6
3 1 -18 -2 -6 -2 -19 7 11 10 0 5 -9 15 9 12
4 -8 3 0 -33 11 6 -8 27 8 -11 -9 -10 -4 13 -10
2 -8 20 10 22 1 3 6 -16 24 13 20 9 -6 -2 -5
-16 -26 16 -1 -36 17 -3 3 11 -19 1 -12 3 -4 24 21
-3 20 -29 -7 -3 17 -20 8 -22 7 -11 31 13 0 -9 15
-9 -8 17 -17 -2 26 21 -29 7 -11 3 -12 31 26 -20 2
-1 -19 -15 17 9 -5 5 -17 16 -46 -27 17 6 -23 -18 19
5 -25 -14 -8 16 -3 -3 -9 6 -17 -3 -26 -17 1 9 9
3 -33 -14 -26 -7 21 -10 6 14 8 12 -15 4 -14 52 -16
0 24 -19 -4 13 -6 19 46 -6 -34 -6 33 30 -21 -51 12
-27 5 -16 9 -14 12 6 -12 5 -6 -18 15 -9 6 -12 24
13 23 11 -4 -21 12 -18 -12 17 7 -10 -3 23 15 -8 26
24 -1 11 -6 -4 -13 13 9 -12 -6 5 15 4 -11 -17 -36
2 -4 -13 25 13 -7 6 27 -12 4 37 3 19 -18 4 -10
-5 26 2 34 6 -8 -6 37 -13 1 10 20 9 -20 -5 -25
27 -17 14 9 9 18 15 9 4 -21 20 2 -12 -10 -9 25
-11 12 10 5 10 -11 8 5 15 15 -16 -28 -16 9 -3 13
21 -14 -4 14 18 -19 -6 14 -22 -21 -1 -15 18 6 -13 -3
1 23 -28 -11 3 16 -13 -27 14 -7 11 4 -2 -2 12 6
-3 1 10 -2 -5 4 -23 -20 2 29 4 1 7 3 8 -15
13 -6 29 -12 -23 -5 21 16 2 14 -2 0 -33 -15 -23 -12
27 -15 -19 -46 -9 13 17 5 21 -3 12 9 4 18 -6 0
8 16 8 -20 -11 4 -9 -8 9 -14 3 6 -2 -2 1 -18
7 -23 -6 -11 20 12 9 -8 16 2 2 9 12 -4 -16 -19
-3 -31 7 19 32 3 -7 -2 -7 8 12 -4 -6 -12 9 10
0 28 2 9 -23 -12 -9 17 5 -18 13 -8 6 -29 -3 -20
5 -15 -33 1 6 13 17 5 -12 0 -10 4 14 -16 -10 -25
-13 36 -23 -9 10 -28 10 -44 1 -22 -13 3 17 -2 -2 16
38 -21 29 4 -11 -14 6 13 -5 9 11 9 22 7 -4 -9
13 4 23 14 -15 -11 10 0 17 -8 29 21 7 -5 10 -13
-7 17 -30 -9 -18 -15 -51 10 7 8 4 5 5 -28 -9 -35
16 -21 22 -18 -10 6 24 -10 -13 5 5 -20 -21 4 16 5
-10 21 3 3 19 14 -4 24 -5 -11 -40 -11 -23 -7 -1 12
18 -38 0 -15 1 9 18 -21 -22 20 43 28 2 16 -20 -10
-1 8 -20 31 7 16 1 -19 -3 -7 -1 -35 8 -2 35 13
-11 -6 -15 26 12 0 -6 -19 -9 -10 -19 12 -2 -6 -23 -1
-2 11 -15 9 -33 2 -38 0 -5 36 0 -7 -9 -7 47 14
18 -10 -28 -21 3 4 -36 -1 24 1 38 -25 1 22 -4 -18
-22 31 -10 10 -9 -7 -50 3 -5 -2 -14 -3 -4 1 -7 8
19 -25 20 -24 -10 0 -20 -14 47 -13 32 -24 0 -5 -1 -26
-27 -40 -7 -8 31 13 -36 19 -28 21 -1 2 1 -12 11 8
8 59 -29 -25 -22 -29 -18 26 22 13 24 -5 14 -6 -5 -46
26 -18 -24 -1 -5 19 4 10 10 -3 25 -3 -3 -2 8 -34
14 38 0 -18 -10 -1 36 -32 3 3 4 -1 -11 3 39 7
9 -34 31 20 -20 -7 -14 -9 -18 6 12 -3 5 -7 11 -16
-3 -7 26 1 -16 -6 20 -4 12 4 -10 0 -2 12 18 -34
0 -2 -9 -22 -9 -8 -16 3 1 9 10 25 -5 0 -9 -4
21 -13 -3 -11 11 -3 -8 9 5 28 7 -21 0 7 10 2
-5 -6 -26 -29 -8 -4 4 38 -6 -1 -13 -17 -11 0 -4 22
16 -8 11 -13 -19 26 19 -12 29 19 16 -2 0 17 0 -26
-9 -1 7 17 16 17 0 2 2 16 10 13 6 -7 8 11
5 4 10 25 -19 4 11 18 5 -30 -12 -8 8 13 3 19
-17 -5 -23 6 -11 -19 -20 14 -39 12 -22 10 19 4 -34 17
-21 -6 -45 -4 -3 29 7 -24 5 -11 1 -32 27 34 -25 -5
-25 25 -17 6 0 6 -19 6 -18 -44 -24 22 -5 -14 -32 1
3 -26 -18 -4 -28 24 -3 5 10 -19 18 -26 -7 8 25 0
-26 -39 21 1 6 2 -23 24 -15 -2 11 12 20 -31 -51 13
-7 25 -15 -15 -7 -3 -6 18 8 0 17 -15 9 -17 -35 7
-14 -24 -18 11 14 21 -10 2 -2 -7 -12 -12 5 3 28 -15
2 23 23 -7 -17 25 12 34 -10 -8 -25 -11 4 6 19 -12
23 -17 17 -12 4 8 -17 -4 -8 -36 10 -2 5 -3 -7 -23
17 -1 4 30 11 13 6 21 -10 -12 33 10 0 -16 -11 -27
-3 -3 -11 12 -3 -11 -9 26 6 10 4 6 16 -5 3 -19
11 -31 4 -3 3 -7 -1 -3 3 -23 5 -8 -11 -2 -3 19
4 -4 14 24 -3 -5 -9 -25 -1 3 -16 -5 -10 9 -10 18
1 6 -1 15 -18 -36 -33 18 -24 -5 -5 -9 28 -18 14 -31
-2 12 3 -16 13 -8 -4 -20 11 -29 -13 21 -11 0 -10 21
-5 5 -18 3 -18 -9 -11 -9 12 5 -4 1 -3 -8 -14 -21
21 -20 18 -34 -19 18 21 3 -7 14 7 6 -6 -3 -14 -8
-3 -9 1 -37 -9 -25 -18 -30 -16 -4 -9 6 -5 8 -4 12
5 -32 23 2 1 -1 -12 -8 24 17 2 -21 -8 -17 -36 23
-19 15 -21 5 32 3 4 21 -30 26 -23 6 18 13 11 11
-26 -17 -7 14 4 -10 -34 -7 -26 13 -8 -9 1 14 -3 -27
-7 15 9 -1 -8 -8 26 17 5 -35 -6 -25 -20 -20 -38 1
12 -21 -14 -5 -5 -8 23 -5 -2 2 -14 -15 -9 7 5 15
6 30 -15 -9 3 1 10 -30 -10 -1 -10 8 11 -1 -11 7
30 -10 5 17 -25 9 -20 -9 -33 -14 34 -9 0 18 17 -15
5 3 -5 -3 -12 -9 -6 -1 15 0 26 22 16 -1 14 -32
-11 -2 -39 -3 -24 3 -12 -6 17 19 -4 7 -7 -18 3 -31
-8 -22 12 1 3 6 -10 -15 -10 -9 15 2 -10 -10 -16 11
-3 4 -8 11 5 7 -10 -2 6 -2 -13 -16 -23 -9 -6 -5
2 -27 -21 13 14 -17 -5 2 -21 -6 5 -3 8 -6 -18 -20
2 14 14 15 2 6 19 -28 3 -12 -2 -22 -19 3 13 -6
13 24 -8 19 1 -34 0 19 4 -5 -22 11 5 5 -39 -1
17 -12 -12 -17 -44 15 -7 0 9 36 -4 -19 2 5 38 3
-6 -8 23 -47 8 -21 -15 -24 1 0 18 -18 -2 8 -12 -8
-17 7 31 19 3 -13 5 10 17 33 -18 -3 -11 6 -15 32
6 -15 -11 -22 5 -11 -40 38 -2 29 14 19 4 -8 -18 17
-48 -6 -32 13 7 -1 -10 4 -20 1 -7 -14 10 5 -29 -20
12 25 31 -27 -44 23 31 10 8 -1 12 -18 -18 -33 -24 -35
37 -4 0 -2 10 8 -10 -6 -11 -27 9 -22 -19 -12 32 11
6 28 8 -5 -3 -9 6 -9 -10 -12 -7 -22 -15 9 33 7
15 -14 15 29 -4 -3 -18 -7 -25 -15 16 -11 17 4 25 -25
-19 -19 12 -15 0 -3 14 -2 2 -4 17 -12 -6 -17 10 -19
0 -17 2 -8 -13 14 21 -31 1 5 3 -1 -4 -9 -22 -2
0 -8 14 -10 8 -2 -5 -2 4 -1 9 -2 -19 -1 -10 18
-3 -1 -11 -12 -1 -9 -15 5 -3 14 -13 -4 -20 -2 -5 5
-16 -12 19 -13 4 -6 11 -2 12 9 17 -4 -7 5 -3 -5
2 0 13 6 25 -6 14 -26 0 9 -6 6 -7 0 2 3
-7 4 -3 6 -25 -9 4 38 -7 -11 -20 14 -1 23 -19 3
-2 -4 -21 2 -7 -4 -2 4 -25 34 -12 18 5 0 -21 14
-28 -8 28 -36 -8 9 34 -7 12 -8 -19 -13 -6 13 -16 -8
-20 14 2 -12 -20 -5 18 9 10 5 -41 11 -14 -1 -18 29
-11 -31 5 12 -11 18 -12 16 -1 -16 11 -6 11 -18 -3 16
-33 -36 -2 -16 23 -16 -4 8 -12 -17 6 -5 17 -16 -62 -1
-2 8 25 -22 -39 14 0 -5 -1 13 -5 -54 -10 -16 20 -15
19 -11 14 4 14 -10 -5 5 0 -10 -19 -18 -5 -10 30 -14
14 41 -2 1 -9 16 -27 25 10 2 -14 -15 5 9 -4 -4
