8 18 2 -16 -17 -1 1 -17 -6 11 -21 -26 -8 -30 -17 -13
-4 1 28 -7 5 -10 -1 25 19 -31 -10 4 24 12 -9 12
-10 17 -5 16 -4 -4 -1 9 -13 5 -15 12 -27 18 30 -6
2 0 -7 14 -1 -2 7 11 2 -44 -18 -6 -9 -19 -17 8
-8 6 -10 -6 -12 11 3 12 -21 -4 -7 18 -4 -28 -9 -1
-8 18 7 -23 5 0 -9 6 13 -9 -16 14 -5 14 -2 -12
-13 -13 -4 -22 -23 26 -25 -19 28 12 17 -28 9 0 6 7
2 -16 16 -3 -10 -6 11 0 -16 -3 -25 9 -19 -22 7 3
10 15 13 17 6 -10 20 -29 -21 -14 -5 -7 4 3 4 -8
-5 -14 -4 -12 9 -12 9 1 17 11 0 2 -16 -3 -16 11
-6 -10 -12 -9 7 -14 -10 0 -8 10 -4 6 -39 35 31 5
-26 1 3 14 3 42 0 -33 23 26 6 -4 42 -50 -48 -11
-9 -4 39 14 -20 5 12 -5 -11 5 -12 13 -5 12 -22 2
-16 -12 -7 9 -10 -20 -11 -24 -11 3 -8 6 -38 15 -2 -10
14 13 -16 -4 13 -4 -15 18 -1 27 -9 8 -6 -1 15 10
-1 21 -33 -13 3 -17 7 3 14 12 -3 6 -3 -5 4 11
5 31 -3 -6 -11 -6 -8 -7 14 -9 -11 -11 4 1 -3 -22
2 17 24 1 7 -6 14 18 12 -18 -30 18 12 23 6 -6
8 28 -8 11 -4 -23 -15 23 -20 11 4 22 -35 20 18 8
2 7 -24 3 2 -24 -15 6 11 -3 -5 15 -50 22 4 -8
0 -6 -20 19 -20 20 -1 1 -13 -29 -13 -3 10 -32 -16 0
-15 5 8 -18 -13 -15 -9 14 4 6 -12 18 -25 20 -7 9
-83 -32 3 9 -3 28 10 -44 45 6 14 -29 58 15 -18 8
2 -21 11 -10 -7 3 1 6 5 -4 -4 7 -18 23 -2 1
17 22 10 16 -12 2 12 4 -11 -7 -15 10 -27 42 2 5
6 -7 -2 -6 22 -28 1 -7 -3 1 1 -1 -16 29 -17 -11
-12 -18 -11 -1 18 -28 12 -35 1 15 0 -1 -25 10 65 4
-22 27 22 23 -9 18 -1 3 55 -3 -48 -7 38 14 -26 8
1 10 1 22 -9 17 12 -37 13 19 -25 7 22 -14 -27 -7
-15 -8 -15 -19 -1 -1 4 -35 6 -5 -1 5 -41 25 12 -19
1 -15 -20 7 -2 6 13 15 -3 13 14 -16 19 -12 -12 -6
11 2 -7 -11 22 -18 -15 -14 3 -9 4 -16 28 12 -8 -6
-4 24 -30 -4 -18 -2 16 -2 39 -30 -20 -4 14 22 -5 17
-9 7 13 -15 0 15 0 12 25 -23 -22 8 2 9 -8 1
12 0 -15 16 8 -19 14 14 34 3 8 12 -42 28 22 -9
-5 -13 -16 5 3 -21 -4 -8 27 11 -16 15 -16 -9 -5 -6
-2 -1 -38 10 -6 -2 0 4 -48 -24 -13 1 -21 -25 4 4
-6 -2 0 -9 6 -3 14 12 -11 5 12 13 -30 24 -9 -9
-51 -25 5 -7 21 16 13 -32 -31 -2 -4 -20 7 9 -26 11
5 -7 -14 6 -23 13 22 -5 5 -9 -35 -8 -6 18 8 1
4 11 -15 -9 -12 29 -5 -10 -4 -3 -8 8 -4 55 18 1
-10 -19 -3 -15 15 7 1 3 13 3 1 -16 -19 -11 3 -7
-21 -7 1 -4 8 9 -19 -6 -8 16 19 -1 -7 -12 61 -4
-2 18 -27 -5 -9 0 6 22 72 4 -37 46 -36 35 -22 6
-1 -7 -16 7 -29 -17 17 -29 -11 -3 -14 8 10 11 -35 16
-18 -3 -1 -13 -11 10 -15 0 5 -5 -4 -19 10 -22 -4 -16
1 8 -13 6 -1 13 -1 1 -7 18 7 8 13 6 -4 2
3 -1 -4 3 16 -22 -32 6 -45 4 13 -25 39 6 0 -11
18 9 -9 8 -23 -15 10 -19 -9 12 -1 -26 -1 -4 11 -13
6 10 15 7 -8 13 3 9 17 -37 -6 8 35 9 -45 4
5 -10 -15 7 -10 -13 16 26 -23 -6 -13 23 -37 -2 6 -29
4 -8 4 -14 12 -20 7 18 11 -13 6 -22 53 -17 -7 14
7 10 -6 -19 -8 -2 5 11 8 -13 -17 14 12 -14 -4 -7
-1 6 5 0 -5 5 6 9 -4 -23 15 -7 13 2 -5 11
-10 -11 6 1 -24 7 -25 -25 0 -23 -22 -17 -19 35 -15 -11
-19 -4 19 -3 -11 -5 1 21 -22 -4 -8 4 -12 -4 -1 -14
-8 28 17 9 3 3 15 -13 -27 -7 4 13 -8 3 -2 9
14 3 -18 -19 5 -21 -1 1 -6 -2 7 9 -32 -3 -5 -4
5 1 -24 -3 -3 12 -21 -11 -19 10 1 -4 -25 -36 38 2
-27 -5 30 -15 -4 31 9 -53 23 -28 -3 -46 20 -11 -39 -4
-14 17 20 -5 -21 7 8 5 3 1 -13 -1 -5 17 -7 -6
-5 -21 -17 12 1 3 -13 1 -15 8 -1 -3 -26 6 7 3
11 6 -1 -20 9 -32 1 18 -19 22 3 -3 -18 -17 -4 -12
-12 -9 -29 21 24 11 11 -6 9 -26 -36 12 -13 14 -11 -4
12 55 -9 -21 -36 0 -15 9 27 -13 -2 -18 20 19 5 0
-1 16 50 -1 5 -11 -20 2 15 -4 15 -19 29 33 -2 -4
8 -14 -7 4 3 -3 4 31 -23 18 -9 21 -43 -9 20 4
-5 5 -14 -14 0 -9 10 17 16 11 8 17 43 24 33 -7
9 24 3 -8 -9 23 3 -10 -1 -20 -20 -18 -9 -20 -19 -8
-16 7 -8 -15 -11 -17 -10 13 3 -18 -20 12 -17 -22 6 20
-59 -27 22 -22 4 22 -3 -35 29 -27 -34 -18 25 55 -14 -11
1 -10 17 2 2 -12 16 18 -10 -1 -20 1 -9 -30 5 0
-7 33 -1 -1 -15 6 -3 13 2 5 34 27 -27 26 4 -5
-13 9 -4 -20 19 -23 7 9 -1 23 1 2 -40 18 -2 -1
-12 -23 -7 10 20 -10 7 -40 16 -11 -28 6 6 -18 32 -6
-56 13 62 -8 -3 39 -16 -14 40 -82 -35 -92 75 66 5 21
0 18 39 18 -22 21 13 -6 15 -14 -14 8 31 -17 -30 -17
1 0 -9 -23 -11 -26 15 -1 10 30 20 8 -6 -1 37 -10
-9 -8 -36 5 9 -24 24 -7 -20 -9 -6 3 -31 -38 -4 8
4 -7 -22 15 10 3 1 -26 20 -1 -14 -7 3 18 -8 2
-17 30 -27 -16 -55 -14 22 11 30 -24 -20 -11 4 26 -6 11
-6 19 26 -15 -12 -18 -2 27 12 7 -7 7 16 7 8 2
-7 13 -9 20 -3 -12 4 16 26 14 -10 25 -23 15 6 -16
10 4 2 1 3 -10 -9 -5 25 12 -1 3 8 1 8 -2
-4 21 -15 0 -6 3 2 -31 -44 -23 -12 8 -18 -8 2 -8
6 -6 -4 -20 7 -28 1 28 -20 10 -10 29 -48 -21 -10 -2
-47 -30 12 -21 23 8 10 -6 5 -13 -10 -5 23 36 0 -3
9 -3 3 -5 -20 16 38 -12 2 2 -27 9 14 -9 -6 -3
2 5 -17 3 -4 17 19 7 -2 12 18 16 -12 59 2 5
-5 -3 -9 -13 19 -11 7 9 18 15 10 10 -23 25 5 -7
1 -9 -28 -6 -11 6 -23 -1 -5 11 8 18 -8 19 57 11
-21 31 -11 4 -19 -1 -1 29 20 -7 -30 12 -6 36 21 35
8 16 21 7 6 21 0 -43 7 -12 6 -6 21 1 -4 6
-9 10 -3 -25 -3 -4 8 7 3 -2 13 7 -2 1 -5 -16
0 -15 -40 11 1 3 -8 -21 -14 11 -3 -16 -1 -33 2 6
-15 1 -14 -8 21 21 -3 -6 -39 -10 7 -18 10 -19 15 -3
3 20 18 -23 -8 -3 -13 8 -20 30 4 -20 22 11 4 -27
0 -3 35 -15 -12 -1 -15 14 9 -16 -10 14 27 21 -28 -3
8 -6 -17 4 23 14 3 27 -26 15 11 1 -1 12 14 -9
-23 -3 18 -4 -15 -12 15 -8 -1 -12 22 -35 32 -14 -30 19
0 -2 -21 -4 1 5 -5 2 -7 6 -14 5 9 -5 -3 2
4 -1 -23 -16 -3 -6 0 -12 7 2 13 -5 7 10 -7 -4
20 -6 2 13 14 0 -24 14 -36 -2 23 -13 5 -15 13 -25
-4 1 20 8 9 3 2 31 6 14 11 0 -4 20 -5 -22
-1 11 2 -9 -6 -10 2 -8 -19 12 -1 16 -25 4 0 -11
-8 -1 -8 -26 -3 -15 -2 20 3 5 5 -9 -26 -8 10 3
-4 11 -16 16 -1 23 -2 -3 -16 20 9 -9 -18 10 45 -16
-4 22 -2 -37 1 16 -4 -34 9 13 -19 14 -67 70 -10 -24
-5 -8 26 12 -7 9 21 2 21 3 -18 -15 -12 26 2 -2
-22 -2 0 9 -9 17 -9 -20 14 12 14 -14 31 -21 -13 -3
-6 8 1 -8 0 -4 0 4 1 27 11 17 -35 -3 13 -1
9 6 3 13 12 -13 4 7 21 -37 -8 14 23 23 -10 1
1 42 0 -25 -32 12 -3 0 11 -19 10 4 28 33 12 -28
24 17 39 -8 9 9 -15 -9 -1 -12 30 -25 44 38 19 18
4 1 -14 26 18 1 3 21 -20 19 8 6 3 -4 16 -16
7 11 -8 -7 -15 -17 8 -8 -11 -4 -8 -12 38 25 10 14
27 20 -6 -14 -5 21 -2 -23 9 -3 -13 15 -11 4 -14 -14
-6 11 -12 -6 1 -6 -29 3 -1 -5 18 12 -4 -22 5 7
27 8 37 -9 6 -23 -9 36 19 13 12 4 17 -6 15 -29
2 1 12 -10 -1 -6 8 6 5 12 5 -4 6 0 4 2
-10 27 12 6 -2 8 15 -10 6 8 13 2 13 1 22 -7
-15 6 -4 -30 -11 -22 24 26 7 17 26 21 -22 0 9 -7
-10 -13 -12 8 7 -5 -22 6 5 22 0 -1 -9 1 39 -16
-6 37 17 -49 4 24 -10 -1 51 -16 12 -49 30 60 49 11
1 11 42 14 -2 10 29 -8 8 2 -33 23 -16 27 -10 -24
0 14 19 -3 0 7 -8 -13 -9 -8 2 -5 44 -32 -27 3
7 -3 -27 -9 2 -13 11 -6 -16 14 -3 -2 -57 -13 -1 -12
-9 19 1 5 19 -5 6 -14 10 3 12 7 2 17 -17 2
-17 25 -42 -25 -59 6 2 8 5 -12 -15 3 5 -10 7 -22
12 11 26 5 -12 2 -20 6 -2 2 -6 2 33 5 14 30
5 3 -3 12 -10 -5 -15 2 11 17 -6 9 9 9 1 -9
-12 -10 -1 7 -6 -13 -8 -10 9 1 -26 -15 23 29 -5 11
-2 6 -5 -27 -14 9 -4 -11 -12 -28 18 13 -7 1 6 0
-17 25 -6 -5 8 -4 -11 28 4 5 -8 0 -3 4 12 7
10 -15 2 7 5 -11 21 33 12 5 2 0 23 19 11 -11
3 19 7 1 -9 5 8 -21 -8 -3 -13 -16 5 21 -2 8
-7 -8 -6 11 -6 4 27 -51 18 13 -22 9 -30 24 -1 -10
-10 -20 -5 -30 14 -19 14 -15 15 5 21 11 -24 12 -4 -6
3 -11 -15 16 9 7 -37 18 0 33 22 -1 11 26 59 -15
12 19 -15 -6 -15 3 -20 33 54 19 -7 9 39 5 19 37
-3 -7 23 3 10 14 9 -27 -10 -4 -3 10 4 -8 -21 -31
1 13 23 2 -10 12 -4 -4 -12 3 -9 -6 0 39 -18 20
11 2 -23 -13 -1 -2 10 -34 -15 4 -4 -11 3 -33 12 -4
-26 13 -7 -6 15 14 1 -7 -33 4 15 -25 10 13 -30 -10
