-5 11 -1 0 3 -7 -6 4 -1 6 4 -7 -2 -4 7 -16
-2 2 -4 -6 24 -5 -12 -12 16 10 -26 -18 -5 18 -6 10
9 15 14 -7 -4 -4 -2 -4 -9 1 14 20 -11 -7 4 8
-4 4 -5 -3 -5 2 -1 2 -6 18 12 -15 -5 -15 10 9
-9 8 -6 -20 -10 10 1 7 -4 -9 2 -5 -6 14 15 -5
11 -6 -13 1 -8 -10 0 7 -20 -7 -7 -19 -5 -17 6 -13
8 -4 -6 -2 -11 5 -2 10 -6 -13 -39 -2 5 -10 -7 -2
4 -5 -3 2 -10 9 4 -7 5 7 0 13 1 -13 9 -8
15 6 -17 0 4 11 -1 7 27 -3 -9 -10 10 5 -2 -7
-10 -2 3 7 6 6 7 -2 -9 -3 1 -5 2 1 0 -7
8 1 -9 2 9 -6 14 -4 12 8 7 7 3 12 -13 -5
0 0 0 0 0 0 0 0 0 0 0 0 0 0 0 0
0 0 0 0 0 0 0 0 0 0 0 0 0 0 0 0
0 0 0 0 0 0 0 0 0 0 0 0 0 0 0 0
0 0 0 0 0 0 0 0 0 0 0 0 0 0 0 0
0 0 0 0 0 0 0 0 0 0 0 0 0 0 0 0
19 -6 1 -13 6 6 23 6 1 23 10 -2 10 4 -7 -14
9 15 -5 -10 -9 -4 -22 1 8 4 -23 4 -1 -1 5 20
2 21 3 20 -12 1 15 3 5 19 -4 15 -5 5 -15 0
15 -3 -15 -13 17 6 6 -9 10 23 3 -3 -4 -10 11 0
7 27 -10 -10 -25 6 -20 -15 -4 -11 11 -1 -10 -10 14 -4
-5 -3 -26 6 -13 -14 -12 0 -5 -27 5 -13 8 -3 7 20
6 -2 4 -20 27 0 24 8 22 0 -46 26 19 -33 -24 27
-18 -5 -15 23 -12 -17 6 -5 -2 -9 -3 -4 -6 1 0 10
-6 4 -1 26 -9 9 -3 25 17 -13 -3 -21 16 5 -11 1
9 16 11 -11 12 25 18 10 31 -2 2 15 7 11 -9 5
-13 5 -9 12 -17 -11 6 -7 10 -2 -4 7 -5 23 3 -11
0 0 0 0 0 0 0 0 0 0 0 0 0 0 0 0
0 0 0 0 0 0 0 0 0 0 0 0 0 0 0 0
0 0 0 0 0 0 0 0 0 0 0 0 0 0 0 0
0 0 0 0 0 0 0 0 0 0 0 0 0 0 0 0
0 0 0 0 0 0 0 0 0 0 0 0 0 0 0 0
-6 14 -20 0 -26 1 16 12 21 -4 2 0 3 16 -3 -2
-6 10 -20 1 -2 -14 -16 2 -2 19 -18 -1 -3 10 -11 7
3 1 16 10 -2 2 4 -3 -7 -10 -5 -4 22 5 -14 -3
19 10 -1 4 9 -3 18 -3 -2 23 24 6 12 -12 9 -10
6 14 5 -13 -27 -6 -6 -1 4 7 -3 -1 -3 -5 11 8
-2 4 -17 2 -20 -2 -10 7 -3 -11 -6 0 -4 -15 -7 -3
-16 2 4 -14 1 1 8 6 2 0 -37 -17 8 -3 -26 0
-2 17 -13 14 -16 16 -17 -7 2 -16 4 1 -6 -2 4 8
-13 -11 -4 23 -17 3 -20 12 -2 0 -14 -31 1 -3 -4 -2
-3 14 10 -3 1 6 0 -1 2 -5 -7 -11 17 13 -12 -7
12 -3 1 -1 1 -8 12 1 2 -6 -10 28 -8 8 7 -14
0 0 0 0 0 0 0 0 0 0 0 0 0 0 0 0
0 0 0 0 0 0 0 0 0 0 0 0 0 0 0 0
0 0 0 0 0 0 0 0 0 0 0 0 0 0 0 0
0 0 0 0 0 0 0 0 0 0 0 0 0 0 0 0
0 0 0 0 0 0 0 0 0 0 0 0 0 0 0 0
-5 14 -7 14 -16 -10 -8 10 1 -2 10 17 -4 0 1 -8
2 -11 -10 -10 12 1 -8 8 -9 -5 -1 5 8 2 -16 -2
0 32 11 -7 -11 -20 -5 -4 -3 1 -8 35 -21 -14 1 4
-9 8 -10 7 11 -5 15 12 18 5 3 11 -3 -7 -7 -7
-9 -3 -2 4 6 3 -6 -4 -9 7 -2 -10 16 4 -2 -21
13 -20 -27 0 -5 6 -3 5 -13 2 -1 -5 6 11 -4 6
13 10 -5 2 0 0 11 9 -7 7 -43 14 -2 -26 -7 9
7 -7 -6 11 -13 5 2 -6 2 3 0 0 2 9 2 -12
37 4 -2 3 -3 6 -2 2 23 -13 12 10 -6 -20 7 2
-1 0 -4 6 1 -7 21 3 -2 -14 11 -2 -8 2 -8 -7
6 11 2 11 12 10 5 10 0 -4 11 1 -2 -10 -9 8
0 0 0 0 0 0 0 0 0 0 0 0 0 0 0 0
0 0 0 0 0 0 0 0 0 0 0 0 0 0 0 0
0 0 0 0 0 0 0 0 0 0 0 0 0 0 0 0
0 0 0 0 0 0 0 0 0 0 0 0 0 0 0 0
0 0 0 0 0 0 0 0 0 0 0 0 0 0 0 0
31 3 -23 23 27 -40 8 -17 12 25 -3 26 -16 15 -1 -17
5 27 1 -31 -6 11 23 9 -17 -8 -14 15 11 -11 8 6
-4 34 -24 48 -37 1 6 5 19 0 -3 7 -11 42 -20 -14
9 27 -34 10 29 -12 7 -40 13 41 -1 8 -16 7 -12 -18
25 26 -12 -14 16 -35 7 -47 4 18 6 49 25 -18 8 9
1 5 -4 0 -2 -6 20 0 -31 -9 8 49 34 -29 9 15
4 43 15 -21 2 5 18 -4 27 -6 -59 37 0 -17 -29 4
2 -16 -21 0 -14 -10 27 -24 -11 -3 3 20 37 -14 7 -2
3 -11 -10 -13 -40 38 25 46 12 -38 9 3 3 0 -7 15
-14 43 -1 20 -1 25 -9 19 20 -8 -2 12 -38 20 -17 7
-5 -8 1 9 -28 5 14 35 -7 -24 2 -11 0 6 -6 3
0 0 0 0 0 0 0 0 0 0 0 0 0 0 0 0
0 0 0 0 0 0 0 0 0 0 0 0 0 0 0 0
0 0 0 0 0 0 0 0 0 0 0 0 0 0 0 0
0 0 0 0 0 0 0 0 0 0 0 0 0 0 0 0
0 0 0 0 0 0 0 0 0 0 0 0 0 0 0 0
15 10 -26 16 -5 -10 13 0 16 6 -6 4 0 20 -15 -25
8 21 15 -41 -19 11 -5 9 15 -11 -25 -9 -12 -5 -7 17
-14 -19 -20 40 -3 13 -3 5 -4 -6 -5 -72 9 39 -23 -9
21 30 -18 35 -2 -15 11 -35 25 5 -8 -12 -1 -4 -11 -25
16 26 8 -7 -5 -7 -12 -5 12 2 -9 35 -3 -6 -3 13
-11 17 7 0 -9 13 4 5 7 6 -3 30 1 -17 -15 2
4 30 -2 14 1 10 19 -2 -6 -6 -64 3 7 -1 -16 -16
-2 28 1 -26 -9 -2 -2 -3 -6 -3 -12 43 2 -35 12 42
-29 -22 -7 8 -25 19 20 24 -5 -9 -13 -8 -3 6 -6 -3
-3 4 5 35 -10 8 13 6 -2 -3 -12 -40 9 20 -22 -29
7 -12 6 -9 -6 -6 -7 6 4 1 -2 12 -2 -10 -3 -13
0 0 0 0 0 0 0 0 0 0 0 0 0 0 0 0
0 0 0 0 0 0 0 0 0 0 0 0 0 0 0 0
0 0 0 0 0 0 0 0 0 0 0 0 0 0 0 0
0 0 0 0 0 0 0 0 0 0 0 0 0 0 0 0
0 0 0 0 0 0 0 0 0 0 0 0 0 0 0 0
-4 5 20 14 -5 -7 0 -2 0 5 10 -20 -5 -13 -1 -6
10 -18 -21 6 -2 -5 -30 -8 -2 4 -10 -13 12 7 -5 -1
-2 6 -7 -8 -10 -19 -21 -6 -4 7 13 17 -8 -9 2 15
-1 -9 -6 2 2 6 4 7 -2 0 3 1 -6 0 -4 0
4 -20 -5 -21 9 -1 -2 -1 2 0 3 -24 -9 -2 2 -13
9 -11 -19 -3 -7 7 12 -2 -19 -4 14 -7 0 19 7 10
-7 -3 1 -12 0 11 16 26 -3 10 -46 3 24 6 -3 4
0 12 -2 -4 -8 5 -6 -4 -2 -3 11 12 5 -8 4 -4
24 -11 1 -14 3 -1 12 3 20 2 7 4 -1 -3 -9 3
-8 -19 1 5 0 2 16 3 5 4 10 3 -1 -5 -4 -5
26 2 6 -9 6 0 11 -2 17 -2 6 4 3 1 2 -13
0 0 0 0 0 0 0 0 0 0 0 0 0 0 0 0
0 0 0 0 0 0 0 0 0 0 0 0 0 0 0 0
0 0 0 0 0 0 0 0 0 0 0 0 0 0 0 0
0 0 0 0 0 0 0 0 0 0 0 0 0 0 0 0
0 0 0 0 0 0 0 0 0 0 0 0 0 0 0 0
33 -9 -15 23 -5 -49 -57 -33 1 24 0 -21 -14 0 -9 -17
1 29 -9 -13 -3 14 30 -2 10 -1 -12 0 18 16 -8 -11
2 17 -10 18 -21 0 -59 -10 -3 -11 -8 11 -9 2 -26 -13
39 -24 -8 39 23 -31 -31 -33 -3 21 -10 -15 -22 8 -18 1
20 -10 -3 -19 39 -40 4 -30 0 14 -5 8 10 8 9 6
-7 14 -8 -12 -1 14 43 -1 -9 -11 19 10 23 6 16 16
16 12 7 -32 17 8 4 17 23 -7 -64 23 15 -16 -32 16
7 1 -7 -2 -11 7 50 -1 -15 3 13 -4 9 15 9 1
-21 -4 -5 -35 -28 32 29 25 22 -31 -3 20 7 7 5 -1
-4 30 6 15 6 2 -34 7 9 -4 17 22 -27 -7 -11 12
-14 14 9 -9 -11 34 23 21 11 -2 6 1 6 -7 -2 0
0 0 0 0 0 0 0 0 0 0 0 0 0 0 0 0
0 0 0 0 0 0 0 0 0 0 0 0 0 0 0 0
0 0 0 0 0 0 0 0 0 0 0 0 0 0 0 0
0 0 0 0 0 0 0 0 0 0 0 0 0 0 0 0
0 0 0 0 0 0 0 0 0 0 0 0 0 0 0 0
29 -11 -23 17 -11 -30 0 -15 -2 5 -1 -9 7 -1 -20 -21
-19 19 -16 8 -1 -13 -13 -2 11 -3 -12 -17 -12 21 -17 -13
-12 -3 -21 31 -2 -1 -31 -14 -15 -20 8 -10 2 -17 -29 -2
38 -14 -16 47 4 -12 -15 -30 0 12 8 -22 -7 -4 -22 -14
-3 21 13 -15 -7 -7 3 -20 10 4 -7 11 -15 7 -13 -3
-22 15 6 -27 -25 18 -2 18 4 -9 -9 3 -10 9 1 1
5 2 -16 -4 -8 3 -15 -2 -1 -12 -54 2 2 6 -26 1
-8 9 10 -34 8 -1 26 -3 -4 4 -15 6 -2 -4 22 15
-56 -20 17 -18 -11 36 5 8 9 -1 2 -5 4 2 0 -11
3 9 -2 31 -8 12 -15 -18 2 6 10 -5 7 2 -23 -14
-3 -3 12 -20 13 4 7 7 17 10 8 13 9 17 -1 -4
0 0 0 0 0 0 0 0 0 0 0 0 0 0 0 0
0 0 0 0 0 0 0 0 0 0 0 0 0 0 0 0
0 0 0 0 0 0 0 0 0 0 0 0 0 0 0 0
0 0 0 0 0 0 0 0 0 0 0 0 0 0 0 0
0 0 0 0 0 0 0 0 0 0 0 0 0 0 0 0
