0 17 -11 7 -19 6 -5 -11
12 -5 1 7 11 -8 -13 -14
1 -9 -5 -1 10 -1 11 9
-4 6 16 -1 -26 -15 1 35
-9 3 4 -9 -35 -15 7 29
0 -6 -13 -4 -24 -1 12 11
-1 -3 -15 -12 -25 -18 1 26
21 1 22 -18 -20 -14 31 21
-5 12 -9 -14 -31 -25 27 9
-12 -1 10 -2 6 19 -4 -11
0 2 -11 -25 -26 -11 -1 20
4 -4 -9 -30 -55 -23 40 41
3 -15 13 -24 -29 -18 37 17
-12 4 -3 -1 -13 -1 3 12
16 7 13 -5 -44 -9 36 49
-9 13 -12 -13 -9 -8 0 1
7 -4 -12 -33 -28 4 34 42
-10 -7 -2 11 15 15 9 -22
28 16 -4 -4 0 28 -1 24
-5 -8 -2 -20 -26 2 2 17
-2 4 -3 -7 13 11 1 -2
4 5 7 -4 -5 20 -19 -1
-4 7 -7 -9 -22 -14 -1 6
12 5 14 23 -11 -9 -11 27
8 7 6 -10 -1 -23 3 -1
13 1 -10 24 6 14 -15 -7
7 -3 -10 1 -26 0 18 24
-1 -6 -10 -23 -24 -28 23 42
-8 12 13 -27 -31 -30 35 40
10 13 -10 -12 -29 11 6 40
-8 13 2 -14 -23 8 36 16
-2 -2 -5 -10 -22 -24 30 12
7 10 -17 -41 -24 -9 19 40
-6 12 3 30 35 11 -39 -34
-7 -11 -4 -24 -50 -14 19 29
-4 -1 -5 -51 -63 -28 35 64
-8 16 -1 -36 -32 -30 50 49
-1 -12 -10 3 -29 -4 0 17
2 14 10 -7 -6 -11 32 30
10 -12 -20 -26 -34 -26 10 16
1 -14 13 -18 -29 -27 20 25
1 5 -9 -1 13 20 -40 -15
7 1 6 -13 -16 -25 26 17
13 5 -12 -27 -34 -30 34 27
18 -8 -17 -6 -14 -11 22 27
-15 7 -3 22 1 21 -26 -27
-6 -11 -5 -7 -31 2 13 32
-10 11 -18 18 -14 27 -11 -15
-3 0 -6 -13 -17 -4 17 15
-17 7 -15 8 -6 7 4 -15
-13 18 18 8 5 -1 27 6
-1 6 -6 -2 -26 -15 16 3
2 -3 7 -10 -29 -20 36 45
-2 -8 23 -3 -8 -11 24 11
-5 3 -14 8 -7 1 -17 -15
6 5 6 -19 -27 -2 7 23
-14 17 8 -17 -39 -41 36 48
6 0 19 23 -4 -3 -8 0
-10 -16 -3 -19 -34 -14 13 30
-8 8 1 -23 -37 -32 25 46
-9 -12 -2 -31 -24 -37 43 31
-4 14 5 -13 -7 -12 24 32
0 11 -12 -3 -16 -8 -7 24
-23 -1 -10 2 -21 -16 -14 2
7 -18 -15 -13 -38 -9 26 44
-16 7 8 16 -3 2 -16 4
-10 0 -4 4 -29 1 -17 8
-12 13 -5 -25 -12 -7 24 29
-32 -10 5 12 -3 0 -25 -12
1 3 -16 9 23 26 -20 -32
-18 -12 -6 5 -5 -7 -7 -24
5 13 15 29 -2 4 -12 -4
