-8 9 -2 -21 -19 4 1 6
-11 14 0 10 12 11 14 -26
-9 -5 16 -4 -13 -15 5 16
0 24 -6 -2 0 -12 2 -10
-12 7 6 5 -6 13 16 -12
-12 -5 13 13 -5 -9 3 4
-3 0 11 7 -17 -5 12 -3
-3 11 -3 -1 -1 -9 -13 8
-11 6 6 20 16 1 1 -14
3 -2 16 16 2 -9 10 -11
-1 10 3 3 -13 -3 7 -5
-2 2 -10 -4 -9 10 8 14
7 1 -8 0 -14 15 -1 -9
-10 4 1 3 -9 -5 -18 13
20 -5 13 19 -9 -12 -10 -11
5 -8 -1 -19 -7 19 -1 4
15 -15 7 11 17 -8 -7 -9
-3 10 1 -4 4 0 10 -13
-12 -6 -12 3 8 14 -13 -6
15 5 -10 9 -7 -8 -14 -8
-15 -8 14 10 -4 -9 -3 5
7 6 -9 -6 10 2 -13 8
11 5 -13 7 -9 13 -6 17
-3 -4 -4 -15 15 -2 -3 10
19 -4 -10 10 -4 3 9 0
0 19 -11 8 21 -16 -9 -10
-1 2 -6 13 -15 0 1 -9
7 -8 9 9 5 -24 -16 5
-8 14 -6 -18 -13 -7 -14 -3
-2 14 -12 11 -19 16 -8 -4
12 -5 8 -8 8 1 3 -13
4 -11 -10 12 25 18 2 -26
1 -1 -2 -6 20 -1 4 1
-8 -13 7 2 9 -1 -5 10
0 -4 14 -14 -4 15 -13 4
-6 12 -11 -10 -20 14 6 0
4 8 -7 12 1 -6 -21 15
16 -4 -6 14 -23 -14 -14 22
17 -8 -3 8 4 -20 -7 11
-12 -5 1 17 -17 12 -4 -13
-11 12 -7 -9 -2 -4 -8 6
1 -2 9 -12 13 -10 -20 6
-1 5 -2 -16 7 6 -8 -12
-9 -7 15 -8 1 4 -9 -13
13 -4 3 -14 -8 -7 11 1
-13 14 -10 7 2 -17 4 -9
-8 12 -12 16 -10 2 -9 -16
5 3 -1 -9 2 -5 9 -10
5 9 -21 7 -4 10 16 3
16 5 -20 12 -3 4 -13 -3
13 13 4 15 1 1 -11 7
-8 16 -9 2 -16 4 -18 19
19 -9 -5 -18 21 -18 12 7
15 5 -8 13 7 -3 -12 -8
10 -3 8 7 5 7 -19 -16
-15 12 2 -16 7 14 -10 21
-7 -12 2 5 0 12 -24 -4
-9 4 -11 0 -14 18 -11 -2
-14 4 11 -17 2 -15 -12 -7
12 13 15 1 5 -3 16 -18
4 -17 6 -6 1 -18 6 6
-1 1 3 4 6 -14 3 14
22 2 1 -2 -6 6 3 2
-17 15 -5 4 -12 2 4 12
-15 -6 18 8 8 14 9 -17
3 -17 17 -4 11 6 -18 -2
-11 -1 -13 6 -18 -14 17 -15
-12 -2 -8 8 -16 -1 -4 11
-1 -3 7 5 7 -3 -15 -6
-17 -7 4 -8 -5 -3 21 6
-12 -19 -13 5 -8 -19 -6 13
3 4 4 20 -9 -4 19 -14
15 -12 8 18 -9 10 -6 -9
-2 7 6 1 17 15 7 8
-20 13 2 8 2 15 -10 12
-9 -16 -15 -13 1 4 -8 18
-9 1 13 15 20 -7 0 5
18 -1 -5 8 -14 -6 0 2
2 -8 -18 -10 -19 7 5 4
10 -8 14 -10 -4 13 5 7
9 9 -7 -10 -9 22 -2 -11
1 14 7 17 6 -11 -5 -8
3 9 14 19 20 -10 2 20
7 10 -12 -12 -2 5 -6 10
-11 -11 7 8 -6 7 10 -1
1 -11 13 -13 1 17 22 -15
-12 9 9 -13 2 -2 -9 0
4 12 -6 21 -5 3 -3 2
13 -11 5 16 22 -6 -10 4
6 -12 1 -13 -8 9 12 -17
3 12 -10 13 3 -7 20 -11
-8 -10 13 14 0 -3 -13 2
-5 -2 6 -12 2 2 -8 -5
-2 -11 14 1 9 -2 -13 16
-21 3 1 4 9 15 -3 10
-8 14 2 -16 2 -12 9 8
-10 -7 8 24 7 -3 3 -11
-14 6 4 4 -21 1 3 -4
-8 -2 2 13 -2 15 -17 7
11 -8 -4 -15 -3 -2 12 3
-17 7 -7 -5 18 -2 -5 -15
4 -4 8 12 8 -12 -2 0
-11 13 -14 21 13 -1 5 4
4 -7 13 5 -4 3 9 -24
-16 18 1 5 5 9 1 -5
8 -6 -2 -16 0 -13 -11 -8
-10 13 3 13 -6 -13 -8 -7
-17 16 -3 -8 4 -6 -3 -11
-11 16 6 9 -3 -2 10 -11
-4 1 -5 12 -16 12 -13 13
7 15 -6 -10 -12 24 0 -3
-1 6 1 -5 8 -12 3 -5
-10 10 18 -16 14 -2 14 -15
4 1 -6 11 -14 5 2 5
9 -16 6 6 -14 0 -6 13
-3 -7 8 11 -2 12 4 16
12 -14 11 -3 21 -11 13 11
-14 13 4 -17 7 14 -2 2
-10 20 3 -16 -8 2 26 -12
0 -18 5 -1 9 -13 13 -19
3 -3 -5 6 -12 -7 -1 16
-12 -14 -12 14 -15 14 -16 4
0 14 -5 16 -17 13 -9 -9
-8 3 -7 -12 19 10 5 4
-11 15 -2 -16 -13 14 21 1
17 4 -12 4 -1 -6 -3 -3
-15 -4 3 -18 -7 -6 18 18
-4 1 -2 1 16 -4 -21 5
5 -11 3 2 -15 -12 -17 20
6 -3 -17 -11 0 -4 13 -10
17 -13 -13 -10 5 7 5 -1
-8 -3 10 -8 -5 -5 16 14
14 -11 -2 -14 12 -8 11 -9
-10 19 -15 17 16 -11 -13 -15
-3 16 -19 5 -13 5 -1 -8
5 16 -6 -7 21 -5 -17 -2
0 5 0 -11 -13 8 7 -5
7 22 7 8 2 -11 3 6
8 -4 -11 -1 14 -7 6 -3
16 15 -1 2 3 -8 11 -8
18 -7 -3 -4 -21 -4 29 1
-8 8 4 -18 -18 12 5 2
-1 10 4 -1 10 -16 -17 4
14 -12 -1 -7 -8 5 -1 -8
