3 -22 -7 -5 -10 37 -18 16 17 -16 -7 4 7 -20 -13 6
-8 5 19 -19 6 -30 6 4 -22 15 0 -2 -22 9 7 -31
11 2 -6 -25 -14 24 12 25 -16 1 -29 -12 -4 11 -2 -16
5 -13 -9 -5 3 -9 19 -14 26 1 19 0 12 6 3 0
-26 19 -12 2 0 -13 10 -10 -14 4 9 -9 -8 -23 0 7
31 -17 -16 -1 -7 -5 1 10 -15 8 26 -21 -23 8 30 -21
5 -15 14 8 4 -6 9 -9 -9 -2 25 8 -6 -9 12 3
-33 -19 9 -33 -13 -6 -22 18 -32 -10 7 -10 1 20 7 12
-23 13 4 4 20 -13 -14 -2 0 -19 17 2 -3 -24 -20 1
-6 1 -19 -19 -28 -5 22 -17 -35 -5 10 -12 -1 -8 -7 20
3 11 6 -5 -23 -17 1 -4 23 22 12 23 5 -15 14 -1
-9 -23 -1 6 -8 19 19 -16 19 -4 12 -13 -12 0 9 9
-16 -2 6 -8 -10 0 4 -12 -28 13 10 -9 0 -4 13 35
-40 15 -14 -21 8 42 17 -19 -37 18 1 -16 30 1 14 55
0 7 -3 14 -15 -16 -7 -6 -3 -19 16 2 11 -1 8 4
4 -5 13 7 -3 -26 -18 15 -20 -16 -27 11 17 -22 1 14
-3 -6 -15 -18 12 -9 6 14 17 3 6 10 3 -9 5 0
-11 14 12 -21 4 1 -4 -4 -26 -4 -1 -2 2 11 -3 -24
8 -21 2 -30 -18 -13 -8 6 32 -7 -25 -14 -6 -3 12 17
27 -8 -2 2 -3 4 21 -1 -2 -15 9 -13 0 1 -13 -25
-19 12 -2 -20 8 5 1 -16 -26 -12 -10 12 4 -3 10 12
9 8 -14 15 -16 -4 2 14 2 -11 -16 -4 2 23 18 14
8 -3 6 -1 -8 -17 -10 -10 -8 23 2 10 -5 -6 -9 -7
-33 1 -1 -31 -10 11 -23 13 -62 -4 -24 -21 -14 -5 -8 -13
-9 -24 5 17 10 -8 6 -9 5 -23 18 11 12 -12 -16 11
10 -13 16 7 2 -9 18 -14 -2 -15 5 18 4 -4 -7 -9
33 -8 -3 9 -1 -12 8 13 -3 15 12 25 19 -6 2 20
15 -14 -10 6 -4 4 -8 -11 -10 -14 9 4 -7 11 -1 9
-15 21 4 9 -17 2 -22 9 -27 -11 -2 4 1 -22 14 -19
-19 9 5 -1 10 47 13 10 -56 -8 16 -6 2 9 -7 35
-17 18 -12 16 -10 -7 9 -14 -12 -22 -4 -19 -12 10 9 10
12 6 16 -4 24 1 -2 6 28 -16 1 -1 2 1 -1 0
-9 -3 9 -18 17 12 -9 -10 28 11 -3 -1 23 -6 -16 -23
-21 -2 -1 -8 2 -42 5 6 -13 10 -12 14 22 -30 4 -11
-14 -15 10 -15 -14 -20 18 7 41 5 -4 -1 1 -4 1 25
1 -24 -2 11 4 -3 -6 -17 -5 -2 12 5 -21 -2 -3 -7
-22 23 12 7 -8 -9 -14 -4 -33 1 -2 -1 9 -22 -6 -11
13 16 25 -15 14 -23 12 10 -40 -6 -17 7 -16 3 1 -23
-10 -15 -5 11 11 -3 2 10 -24 15 -5 -18 12 13 15 -15
-53 -18 -1 -11 6 6 2 16 -34 3 1 2 -1 19 -2 -5
-11 -24 6 6 -8 1 -8 1 26 5 16 -4 -12 -16 -8 22
18 15 -4 18 7 -9 8 -3 -2 7 7 2 -17 -13 -18 0
33 -1 0 10 25 -51 3 -6 39 -10 24 18 14 1 12 -3
13 6 -29 10 11 -11 6 5 -24 -17 -13 10 -26 10 -13 4
-3 -11 -7 -3 -16 12 1 14 -2 -19 -29 20 -3 -26 2 -4
-24 -3 4 -12 2 51 17 13 -46 10 6 -1 -28 -6 -1 28
11 -7 -10 -14 5 3 -8 12 3 -24 15 -9 2 6 -8 -2
-10 6 -6 4 27 -19 14 9 47 -8 -3 -8 15 11 -15 -12
25 6 21 -24 20 -3 34 -22 -42 -7 1 6 23 0 -15 31
-12 -1 3 -32 -16 16 -7 -9 -39 -4 6 -7 -13 3 10 -32
1 -2 -15 -2 1 2 2 -9 -11 -7 -23 -2 11 -8 -9 -18
-12 10 -16 13 -3 6 9 -21 3 13 3 -25 11 -4 -15 14
-27 3 -12 -15 7 24 -13 -11 -43 10 5 4 5 -5 18 9
20 -9 -14 25 -11 7 -21 24 58 8 12 17 3 18 5 -37
17 7 -6 1 -7 -7 22 -7 10 14 -11 7 20 -11 14 9
20 -10 -11 -1 20 -5 16 16 -47 18 -17 -24 -32 -3 2 -19
-2 9 -5 -1 -7 3 -11 -5 -8 -13 -13 -9 -13 -5 2 -14
-6 0 4 10 -31 43 -21 6 13 -14 15 -14 4 7 5 -1
3 -12 -2 -4 -11 5 -21 27 8 26 -9 -5 -2 -3 1 -10
0 4 -14 -6 -15 11 2 -9 17 -7 -8 -2 -4 10 -8 22
-39 -5 -11 -12 6 12 -23 8 0 -6 -28 -6 24 2 -5 27
-25 7 -11 -15 -8 38 0 -3 -10 5 -15 2 24 -11 -15 3
-1 -3 -16 3 9 11 -12 2 6 1 -3 -8 11 7 -12 -18
12 -15 10 -14 9 -13 -3 6 -26 -13 -24 -14 4 -3 -15 1
41 0 -7 -6 5 -15 63 -15 -15 -5 6 7 13 -24 4 21
-11 16 -16 6 -8 50 10 -12 -38 -16 0 -25 -18 -3 12 -16
10 7 -14 11 9 -3 29 9 21 -2 -9 -17 -8 0 16 15
-19 13 4 9 -13 21 -1 -22 -8 -6 -6 -25 -17 12 8 17
-19 5 -12 -14 -15 5 9 -6 -24 -4 16 -15 2 -16 -6 7
1 -11 17 8 -4 15 -22 1 56 4 1 19 -4 -2 -14 -19
8 -7 1 0 14 -3 5 30 -3 -5 -5 -17 21 1 10 10
13 4 4 -28 -7 9 4 35 -47 7 -3 -11 -22 -4 -4 -47
3 -14 -2 -11 18 12 -13 -6 -26 -4 4 3 1 7 9 -28
-23 4 6 -1 -14 11 -2 3 -2 3 2 7 19 -10 -9 10
1 1 -26 -1 6 24 5 25 16 2 1 9 5 -11 -9 9
-4 -3 -2 11 7 17 14 0 11 -20 4 19 -1 -20 -7 5
2 -20 -16 -22 -22 5 -53 8 -12 -3 -8 1 11 -22 -12 -20
-23 3 -2 -20 -3 51 -27 13 -9 6 -11 -2 -16 14 20 -37
-6 9 14 0 12 -5 -16 8 21 -19 -13 -2 -7 12 -11 -16
25 -3 4 4 -9 -26 7 2 17 -6 -13 3 23 12 17 3
27 34 -1 -5 -19 -30 64 3 -25 -7 -4 -8 23 19 17 12
-24 9 -13 -13 -18 15 -14 14 -35 11 3 2 -3 -24 11 0
-2 6 -3 21 19 -44 21 -5 48 11 -14 -10 9 -26 10 44
-25 -4 -16 10 -9 31 13 -20 -16 -2 -9 -34 -11 13 9 4
-6 4 -10 20 -17 12 2 -14 -10 13 4 -7 -1 -30 2 3
5 13 10 17 24 -3 5 10 41 -6 -15 5 7 -5 -10 -15
21 -7 10 17 -5 3 11 15 0 -2 3 -9 7 -9 10 1
13 2 2 -21 -24 16 27 28 -20 23 5 -16 -16 26 -5 -40
7 -15 14 19 3 4 14 11 15 4 -5 2 7 -27 10 20
4 -13 -2 10 0 28 4 5 -5 14 8 1 8 -13 -3 14
18 15 -15 17 11 -27 -2 -4 56 -11 1 19 -6 -4 11 9
-4 -17 -18 3 12 9 -3 -5 12 -33 16 -3 -9 -19 -15 5
-17 -14 15 4 4 1 -35 -24 -6 -9 -9 2 11 -31 15 32
-29 -14 14 -27 3 27 5 12 -2 -7 -11 14 -27 0 2 -11
-7 -7 -13 -2 15 -9 -2 -17 12 -8 -21 16 8 1 19 -22
-7 -8 17 -5 20 -35 8 4 1 4 11 4 -1 -4 12 -17
15 8 13 -7 5 -1 55 10 -26 10 7 6 21 -33 -25 30
-8 -2 21 -18 12 7 2 -11 -18 15 -24 -14 -11 -5 8 -8
-26 10 -4 10 6 -4 -14 5 -1 -4 12 -4 15 2 17 -34
-7 3 -3 -6 -4 0 4 -35 -4 12 -10 -16 -2 -7 -14 12
-4 17 -5 2 11 9 4 10 -25 7 -6 8 -3 -7 -12 -42
13 -6 -10 2 -13 -6 2 -19 24 2 20 10 12 -13 11 -34
28 -13 10 17 3 11 22 -27 -2 11 13 10 6 -11 11 37
42 -15 0 -6 -14 -17 22 14 -29 22 -4 -5 -26 -4 -5 2
5 -27 -9 -11 -10 11 -5 6 -27 -16 -7 12 -11 1 -8 -19
11 -11 6 -15 -23 1 -18 21 33 -9 -3 -3 -1 -23 -6 -39
-35 2 1 -23 -22 -8 -13 -11 8 7 -14 -11 -17 5 -20 -21
9 -12 -5 6 -12 12 0 6 -2 -5 5 22 9 15 3 30
-6 -6 2 13 4 29 -33 13 41 -3 -5 27 -12 15 3 26
3 -26 1 -8 -14 5 3 8 16 15 -22 -6 35 3 5 13
-20 3 -16 -10 -5 -5 -24 -11 -4 13 4 -1 -10 17 -13 -13
10 -10 9 7 -9 -12 -10 11 -46 15 2 1 12 18 11 -10
11 39 -14 -28 4 -34 60 -19 -25 8 0 -8 5 7 13 46
-16 5 -17 -16 -18 42 -2 -9 -41 -16 -4 -20 -36 -1 16 -39
-9 -5 -4 -1 5 -15 9 -3 26 -13 -4 2 3 -16 8 22
-31 -11 -12 0 2 25 -2 -21 -18 -8 10 -5 -12 -12 10 18
-12 -10 18 10 -2 -2 8 -7 13 -18 -6 10 -16 9 -14 -24
-33 -22 19 2 -5 10 -11 -33 56 24 -18 26 40 -30 16 -21
-5 -11 1 3 8 13 4 -23 12 9 -23 3 2 5 -9 5
26 -8 -1 14 -18 -18 12 11 -41 7 10 -12 -27 19 1 15
26 -11 13 6 -10 -4 4 20 -11 6 13 -10 -19 5 2 -2
-6 -17 -10 -4 -34 -2 -20 -13 21 10 17 11 -7 -6 11 -5
-4 19 -13 4 -3 7 -32 23 -5 18 -22 13 -7 -2 18 5
14 -7 -26 -3 12 5 -1 -7 -9 -27 -2 14 9 -18 10 17
4 -5 1 -11 -6 21 -22 6 10 24 -11 29 16 -20 -20 -23
16 -3 -14 4 -6 3 -6 -12 32 -1 10 14 -3 0 5 -19
0 1 3 10 0 -8 -23 -16 11 15 -13 13 0 12 17 -2
17 8 7 -2 -12 9 -23 -9 6 5 15 -4 -2 -13 9 -2
4 42 -13 -16 -3 -6 63 -5 -8 5 -5 -10 43 11 14 28
11 13 -8 -14 -10 -14 2 -10 -31 -1 5 -4 -7 14 -5 -13
1 -1 0 3 -14 -44 39 -8 45 18 -6 24 25 -29 19 43
-32 10 -2 2 8 36 -21 -32 -28 -9 -13 -14 0 7 4 24
-4 5 -6 5 -11 -5 10 3 -12 4 -7 -2 -23 1 -10 -7
-10 -6 11 40 5 3 -26 -31 21 19 -7 33 41 -28 -31 -24
8 19 -8 20 13 0 23 7 -29 2 -12 -16 19 -15 -14 17
18 13 2 -9 -10 -17 47 28 -1 12 -4 -6 -2 13 27 35
24 -22 23 18 -9 17 15 -1 -1 -6 -2 -7 -8 -9 -7 3
13 -10 18 8 -25 -32 10 4 -7 -5 -22 8 -8 -37 -3 27
-17 9 16 7 4 -37 19 -13 6 5 1 -4 -5 -11 3 -7
9 -30 -8 18 10 0 -1 -18 -14 -41 -6 11 5 -2 7 -14
-25 -28 23 -27 -18 4 -3 -19 -10 16 -39 21 10 -11 -8 29
-15 -10 11 5 5 -5 10 -4 13 16 11 11 6 -16 11 12
8 12 16 7 -1 0 7 -16 -3 -1 -3 13 2 -7 -5 -10
-3 2 8 1 -4 -6 -4 9 1 -13 -1 -16 21 14 18 -21
