5 8 16 3 18 5 4 -2 -2 1 4 20 11 -5 -11 1
4 -3 -12 -22 2 4 33 -17 17 11 20 21 7 2 1 -23
5 3 21 -11 3 -18 1 6 13 -6 -5 13 8 -1 12 -8
-7 5 -16 -22 -11 10 -37 2 7 -20 -3 26 6 -25 4 -26
-4 -15 -9 24 4 -21 -7 12 -2 3 -5 3 -2 -6 12 -34
14 9 3 13 18 -9 0 -29 23 -6 16 9 -6 9 -10 -6
-9 -4 -8 -5 -16 3 12 -10 -3 -31 6 8 -4 19 -2 -4
7 -5 -15 -2 -4 6 7 -1 -1 -12 -5 -21 9 -11 15 -3
-13 -13 -3 5 3 -17 19 -34 -2 5 -5 -7 5 12 13 2
9 -13 -12 -10 6 -16 13 7 -6 -1 2 1 -3 9 11 8
6 8 -6 3 27 2 13 -8 -14 25 -25 23 25 8 -19 -27
-1 15 -7 -9 2 0 2 1 -1 10 -19 7 -27 10 22 8
1 -18 10 -11 33 -5 7 -7 31 7 -3 22 -17 5 25 -5
5 -20 4 20 12 -17 17 -15 2 9 -12 5 -2 24 25 9
18 -11 -2 6 -15 -27 4 -4 9 -3 -5 9 2 2 7 -3
0 4 -6 2 -4 1 22 7 10 20 15 2 -9 21 6 13
12 8 -7 -7 16 -2 -3 -15 -3 6 6 12 6 -11 -17 -23
-27 -9 -8 -36 -2 -2 14 18 -4 -2 -4 22 3 14 -8 6
-2 -3 7 -1 -1 -5 -17 6 16 11 4 -9 -5 4 -16 -10
-7 -8 -12 -17 7 -3 -33 -9 -8 -20 22 37 -12 -9 -27 -10
3 -19 -8 18 -5 0 13 17 13 13 -12 20 -7 -7 -8 -11
-8 -5 -3 22 8 6 3 -9 6 -2 1 12 -5 2 8 -5
-2 -4 -8 -5 -8 -10 0 -9 -1 -18 26 17 17 1 8 -8
0 7 -9 13 15 8 3 4 -5 -12 -6 -11 -11 -8 21 17
4 16 16 -2 10 9 4 0 -16 15 -11 -19 13 -18 4 -30
-6 -10 -16 9 -4 -5 13 -9 3 10 8 14 13 -9 11 -8
-5 -1 -17 -20 7 -1 14 9 -30 -2 10 2 -9 -2 -25 -1
21 5 7 2 0 14 -7 15 -1 -3 -10 -20 -25 6 19 8
1 -10 -2 9 29 14 5 -3 30 4 -9 2 8 12 -7 9
24 -5 17 33 28 -7 -1 -13 7 0 7 -2 -2 16 29 -4
24 -13 3 1 -20 -22 -13 10 11 -7 -12 4 11 5 -7 -3
14 -5 -11 4 12 -19 -7 18 8 -5 5 16 -19 13 13 13
6 9 15 -19 0 10 -16 0 -13 11 0 11 17 12 10 -14
-4 3 -27 -13 -18 -10 2 10 -1 16 -6 1 -7 17 -38 11
4 -12 -1 -13 1 13 -3 24 2 0 -11 -18 -4 -15 -19 13
-9 -6 -3 3 25 9 -8 0 -6 -5 6 15 -12 13 -6 -8
-11 3 2 15 -13 -12 10 -1 0 9 -16 6 -15 3 -9 -8
-10 3 10 14 18 3 15 -24 0 0 25 -1 -4 16 15 5
-19 -8 -18 -14 6 2 4 -5 -10 -15 13 7 13 0 -3 0
-8 0 -5 17 12 -10 -10 2 -4 -10 2 -11 -8 -5 14 -3
14 -2 17 18 8 16 -19 -13 2 -2 6 -39 -3 -10 25 -23
9 -15 -9 -7 -8 -12 11 8 0 6 -6 -12 -8 2 -4 2
-30 -2 7 20 0 -28 10 -14 -33 -9 -17 32 7 -3 -5 2
3 23 -4 -16 -14 1 14 0 -6 3 4 -5 -13 12 25 14
-11 0 7 15 4 12 -4 -9 41 3 1 16 -13 0 2 17
2 -12 17 24 10 -4 -1 8 17 2 -10 -24 9 15 21 4
8 -3 -19 10 -22 -26 -13 -14 12 -12 -3 11 5 -5 -7 3
-17 -3 -25 -1 -14 2 -1 16 20 2 5 -2 -5 9 8 12
-10 -14 -7 5 -4 -13 -17 -2 4 -15 -16 23 14 4 -14 -9
18 -5 -5 16 1 29 23 -18 7 2 8 -14 -7 9 -1 -21
-6 -2 -1 -1 7 -4 -13 19 19 -1 1 17 8 7 8 -7
12 2 1 -2 9 16 -27 -21 21 -15 6 38 2 2 26 4
38 1 2 8 -10 28 -2 14 0 -4 10 16 -3 1 3 0
12 -18 -13 6 -16 16 30 -32 11 -19 20 8 1 9 -30 6
-6 -13 -13 -26 -14 -1 -1 6 13 -30 14 13 -4 5 -12 11
8 9 -5 4 -10 2 1 0 -8 0 2 -20 -11 -8 11 -7
7 0 1 -5 21 -14 -8 -12 -10 10 39 -11 -1 14 5 10
16 -4 -3 13 -8 5 -5 6 -15 13 -7 2 0 6 14 11
34 -8 2 -1 2 14 9 8 -33 3 10 19 2 10 0 -4
-11 22 -13 -3 -34 -7 11 -2 -18 5 -5 28 -25 10 -1 6
-12 -15 12 15 10 -1 -1 18 29 -3 9 -6 -8 -12 -21 -14
2 -17 4 -3 -18 -3 4 15 -3 23 10 -13 3 12 -15 -23
-10 -9 -3 22 3 -25 -12 -7 3 20 -9 -6 2 1 -1 20
16 6 -7 0 13 -7 15 14 19 3 2 21 -15 5 29 8
8 -3 2 2 3 -15 -27 -3 6 -3 0 11 1 13 4 1
-23 5 1 -10 -5 12 43 24 -20 12 -6 -7 -7 4 -21 10
-3 -8 -3 10 -6 -19 1 1 31 -1 7 12 -6 8 -8 -19
-12 -5 -16 4 8 9 7 -12 3 -22 14 36 -4 -11 -4 18
8 -4 9 7 -5 8 22 4 12 -6 20 35 -3 -6 -9 3
5 -14 16 24 0 6 19 -46 -1 11 -7 -8 1 19 -24 -12
-3 -16 -7 -8 -4 18 -11 -19 14 -31 12 10 11 -5 7 -13
0 -8 -12 5 -4 24 4 20 -12 -17 -8 -9 -9 -6 -22 2
47 -5 -9 -11 19 -6 -14 39 -6 -7 21 -25 7 -4 26 -16
12 -19 -9 11 7 -10 6 -7 -8 -7 12 10 3 11 10 -8
2 -13 -6 12 0 16 23 30 -18 -15 32 -8 -16 -13 4 18
6 5 2 5 -23 -15 0 0 -37 1 -6 18 -18 43 -6 18
-3 4 -4 8 -37 4 2 16 9 14 -13 10 -3 5 -28 13
-11 -8 -12 20 -42 25 10 -14 9 15 10 0 11 23 16 -11
-9 -1 12 9 -6 -23 -1 13 15 6 -17 8 -8 -10 6 24
14 1 -21 14 17 -1 10 10 8 11 19 6 -11 -5 12 14
-29 -6 -3 -2 -6 -29 -18 6 -7 -9 19 16 17 8 16 -17
10 17 -18 -2 0 4 33 -17 5 10 -12 11 -17 22 -9 1
0 -3 4 -16 -16 -6 -14 30 24 1 -16 2 3 -8 -13 -9
-4 -4 -21 -10 4 3 -5 -1 -8 0 -3 34 -18 22 6 5
1 -10 2 -7 -23 -8 21 0 0 -3 14 14 5 10 -4 -1
-15 7 9 34 -13 32 25 -51 -5 6 32 -13 12 11 -31 -3
8 -18 -18 -4 0 14 -2 -14 -8 -10 -2 14 8 -4 10 -7
-1 -12 -21 3 14 2 2 -15 -18 -24 5 -23 1 -6 0 2
34 27 -3 13 0 -16 0 18 -8 -16 -9 1 4 -6 -2 -10
6 -4 -17 12 8 -1 17 -7 -7 7 1 0 -7 0 -15 -6
-9 12 8 -5 -27 -36 6 -3 -33 3 -15 31 5 1 -7 -30
24 11 -21 10 -18 -10 11 5 -19 13 13 -20 -33 24 21 9
-28 5 9 21 -17 -36 -12 0 6 14 -25 26 13 13 -18 13
-7 -1 -10 11 -16 -10 -31 -1 8 12 18 -25 11 7 47 -1
0 -13 8 19 -13 -18 1 0 2 -3 -12 16 -4 -24 -5 11
-7 -2 -26 10 7 -4 14 17 25 13 -1 14 -16 10 34 -9
21 -13 10 -4 0 7 0 -12 2 -14 -8 7 2 5 -2 -13
-7 11 -9 3 -5 -1 11 -16 16 -4 17 18 20 -9 -14 -39
-6 -12 -8 -4 -19 -10 0 -7 12 3 16 5 18 5 8 -20
16 8 3 9 -8 10 7 -17 19 -3 -10 26 -13 -6 14 11
7 11 7 6 -13 10 -14 26 -5 13 -12 -14 6 -8 5 -2
-8 -8 -14 19 8 -29 8 -33 2 5 -12 -15 1 21 -10 0
6 6 -1 10 -6 -18 6 2 8 0 -5 -1 -4 20 -12 5
3 19 -21 10 10 9 -1 -12 4 -13 9 -34 5 -7 10 -10
1 5 5 13 -24 -11 10 -13 -34 4 28 -1 19 8 -36 12
-6 -18 -15 10 18 3 13 -2 -20 -11 -11 10 -4 -2 -9 -17
-2 4 -3 -7 3 -15 14 10 -16 21 -26 41 0 -6 -9 19
-15 7 -14 -11 22 -35 4 7 -26 -6 4 -27 -6 -16 15 10
6 -24 -12 -1 0 5 9 16 29 -15 21 17 1 -4 -8 -3
-2 -5 -11 2 20 -19 -10 12 2 14 41 -18 -1 -9 -33 21
-36 0 0 -6 30 -17 -3 -1 20 7 24 -14 -26 -31 4 -3
11 22 -6 -14 12 17 0 12 -2 -9 -15 -4 -3 -2 1 3
18 -4 -10 22 2 29 -20 -11 -8 -30 18 -26 -10 4 -7 -13
-21 1 -5 0 13 -8 18 18 4 2 19 -3 -5 -11 -27 -25
-11 -8 -5 17 -14 8 7 15 4 9 7 -3 -6 -4 -3 -33
-1 10 -14 -8 10 17 8 -26 9 4 6 21 -15 3 -20 -5
0 10 14 -9 -37 -26 -11 17 2 1 -5 10 -4 -8 -13 10
1 5 7 17 5 -24 -20 -15 -4 29 -8 -26 9 -6 6 1
3 -13 -18 -7 6 -8 8 10 -4 -3 -1 0 0 -5 -5 2
6 15 -7 -5 -10 15 10 13 -9 -9 -9 0 -1 -11 -14 -5
-2 -13 8 5 -2 16 -1 16 -12 -21 26 -22 35 10 -18 0
-2 3 -4 1 9 -10 24 -16 -22 -13 19 -8 15 -2 -9 -15
-1 -6 -16 8 3 8 2 0 -22 15 -5 -21 -20 11 4 8
0 22 -1 -5 0 -38 9 13 -38 -10 -22 3 -18 -8 4 -19
-1 -15 -14 -14 -1 -30 -11 -9 24 -10 1 -25 5 6 8 -2
0 17 -7 -29 -13 -66 -13 -18 -8 4 -43 20 11 -8 -1 18
-9 15 2 -7 14 -1 -6 11 5 6 -1 3 -2 -25 -7 1
-1 1 -12 3 -10 13 -1 5 6 -10 -20 4 -9 10 -12 0
-21 -17 10 -6 -12 -22 6 -17 -10 -9 12 -2 -13 11 -6 -11
0 7 -16 -20 -18 -25 12 -3 -9 25 -20 5 1 -19 -10 -21
8 3 -7 0 -12 -7 7 23 23 1 8 14 3 5 -10 -15
-1 -5 -5 -16 -5 11 -15 0 -14 -9 -4 13 -7 -2 -21 -17
-5 3 11 -9 -11 11 4 -15 -12 17 -1 11 16 -12 2 11
-12 26 4 12 9 -9 -4 -19 -16 8 38 -11 5 10 -10 3
-10 -13 -2 -5 -11 -10 22 11 3 3 13 18 8 -3 -3 6
11 11 -2 -11 5 -10 3 -17 -13 -5 -3 5 -1 4 -15 4
12 26 -3 3 7 -19 3 -4 -18 -14 -36 9 23 -7 -10 13
-4 1 -1 0 4 -2 23 -4 -14 4 3 -17 7 7 -1 -6
-8 8 -12 10 0 -33 -7 1 -17 -6 -19 5 2 -3 17 -24
4 19 -28 -4 34 -12 10 9 -15 -15 -9 -9 -20 -16 12 -19
-6 -18 9 6 33 -47 2 32 45 -8 -31 -2 9 -9 27 -14
7 9 -7 -21 26 -29 -19 18 5 -10 -9 -29 6 -28 -10 -8
-26 -8 5 15 -5 -3 -6 -11 17 -4 -8 -4 -7 -12 -6 -3
-4 10 -2 -20 4 8 -13 9 22 -4 -20 0 -3 5 4 -4
