-6 -8 29 4 -24 -17 39 18 -4 -15 9 15 22 -20 15 -1 -25 -3 -1 0 0 0 0 0 0 0 0 0 0 0 0 0
19 55 17 41 16 -8 -8 9 -2 -4 15 22 -17 8 20 7 -24 0 6 0 0 0 0 0 0 0 0 0 0 0 0 0
-10 -5 37 2 -7 12 -19 20 14 30 1 -5 5 -3 -29 -17 11 -4 -2 0 0 0 0 0 0 0 0 0 0 0 0 0
40 -23 20 -43 2 -3 -17 -16 -2 5 21 -9 0 3 -18 0 38 -1 -5 0 0 0 0 0 0 0 0 0 0 0 0 0
0 1 19 -9 9 21 24 -26 -11 7 -13 20 -40 6 93 38 -52 84 36 0 0 0 0 0 0 0 0 0 0 0 0 0
8 -21 21 2 -58 8 42 41 12 -15 0 12 -28 3 13 4 -10 -18 3 0 0 0 0 0 0 0 0 0 0 0 0 0
14 45 17 40 24 10 14 18 -4 -14 28 44 -36 -3 6 14 -41 18 23 0 0 0 0 0 0 0 0 0 0 0 0 0
0 -21 57 8 -47 -4 18 -18 -12 73 -10 -5 38 -26 -50 -54 5 8 -13 0 0 0 0 0 0 0 0 0 0 0 0 0
69 9 30 -19 -3 -23 -32 -1 2 -3 -34 17 -1 -2 -24 -22 45 -13 2 0 0 0 0 0 0 0 0 0 0 0 0 0
3 15 -10 -11 5 21 41 -35 -121 14 -21 20 -19 14 107 43 -67 70 49 0 0 0 0 0 0 0 0 0 0 0 0 0
5 -21 13 2 -41 -5 10 1 6 -16 -3 20 13 -8 3 -15 33 -7 10 0 0 0 0 0 0 0 0 0 0 0 0 0
24 57 21 30 8 11 23 -5 -7 -6 19 49 -37 -9 10 9 -16 -7 7 0 0 0 0 0 0 0 0 0 0 0 0 0
4 -4 26 -5 -27 -3 31 -70 -13 65 -2 -10 8 -33 45 65 -16 5 -53 0 0 0 0 0 0 0 0 0 0 0 0 0
32 7 4 26 -12 -3 -10 25 5 -11 -52 39 3 -10 -24 -18 -11 -24 -19 0 0 0 0 0 0 0 0 0 0 0 0 0
1 -5 -9 13 -5 14 52 6 -125 -29 -17 37 -7 43 71 97 -32 -27 130 0 0 0 0 0 0 0 0 0 0 0 0 0
13 -21 8 -6 -50 -21 -15 -4 -12 -15 7 -4 61 -5 -18 -16 27 4 -36 0 0 0 0 0 0 0 0 0 0 0 0 0
20 68 33 27 -8 9 5 -14 -10 2 15 51 -30 2 28 11 -15 -2 38 0 0 0 0 0 0 0 0 0 0 0 0 0
-5 24 -14 -9 4 16 5 -20 13 -3 -5 -2 -20 -16 26 18 8 -18 37 0 0 0 0 0 0 0 0 0 0 0 0 0
2 -21 -9 -18 -7 20 6 8 1 -2 12 10 5 -2 -18 1 -17 -14 -26 0 0 0 0 0 0 0 0 0 0 0 0 0
2 -14 10 5 8 7 29 6 -6 -28 -5 33 -1 40 45 83 -6 -36 81 0 0 0 0 0 0 0 0 0 0 0 0 0
-6 -8 10 7 15 17 54 31 7 5 6 1 8 -52 21 -4 -41 -7 7 0 0 0 0 0 0 0 0 0 0 0 0 0
39 59 8 28 -7 -10 -3 2 0 18 15 -8 -22 18 -20 -8 -7 -19 -13 0 0 0 0 0 0 0 0 0 0 0 0 0
-13 -23 58 12 -24 -8 -3 7 -13 55 5 -6 3 -17 -40 -21 16 -8 -3 0 0 0 0 0 0 0 0 0 0 0 0 0
5 16 18 21 -10 -38 -33 20 -1 -4 1 10 -35 -8 -11 12 15 8 17 0 0 0 0 0 0 0 0 0 0 0 0 0
-11 10 -11 -11 23 44 43 -34 -111 4 -34 3 -11 21 108 55 -76 123 77 0 0 0 0 0 0 0 0 0 0 0 0 0
-2 -26 26 33 -12 17 41 20 10 -22 -5 9 -16 -21 16 11 -11 -22 14 0 0 0 0 0 0 0 0 0 0 0 0 0
28 63 10 8 13 2 5 -1 -5 -9 34 29 -15 18 7 -7 -17 -8 1 0 0 0 0 0 0 0 0 0 0 0 0 0
8 -35 65 7 -96 -15 49 -57 0 81 -13 -3 42 -52 -53 -58 2 7 -22 0 0 0 0 0 0 0 0 0 0 0 0 0
94 47 27 72 3 -80 -39 13 -8 -14 -97 48 -44 -9 -10 3 18 3 13 0 0 0 0 0 0 0 0 0 0 0 0 0
-15 13 5 10 42 40 65 -39 -215 -12 -22 7 -18 -10 129 82 -114 125 83 0 0 0 0 0 0 0 0 0 0 0 0 0
10 -17 20 -9 -64 -30 11 2 -13 -48 -2 20 -2 0 13 -28 45 -7 31 0 0 0 0 0 0 0 0 0 0 0 0 0
8 47 10 31 -10 18 7 19 6 -22 34 28 -37 -4 -21 11 -20 22 -16 0 0 0 0 0 0 0 0 0 0 0 0 0
7 -11 49 -10 -65 -8 52 -100 15 76 -5 -4 15 -60 48 78 -23 -2 -47 0 0 0 0 0 0 0 0 0 0 0 0 0
112 60 33 67 2 -35 -14 -5 -7 -12 -114 100 -1 -16 0 2 4 -66 26 0 0 0 0 0 0 0 0 0 0 0 0 0
-20 -6 2 34 7 8 85 -18 -232 -29 -2 32 10 33 72 167 -61 -16 161 0 0 0 0 0 0 0 0 0 0 0 0 0
15 -15 10 -23 -33 -44 0 13 -10 -28 13 6 35 -13 -17 -22 28 3 -15 0 0 0 0 0 0 0 0 0 0 0 0 0
17 75 7 37 3 -3 10 6 5 13 10 13 -8 -13 4 1 -16 15 3 0 0 0 0 0 0 0 0 0 0 0 0 0
-9 12 16 -1 -16 5 12 -47 2 46 -2 8 -28 -42 36 28 4 -15 69 0 0 0 0 0 0 0 0 0 0 0 0 0
35 37 20 -4 -13 12 -8 1 -1 -2 -20 63 10 -20 -4 4 0 -61 29 0 0 0 0 0 0 0 0 0 0 0 0 0
-18 -16 -7 22 -22 15 57 -2 -115 -17 -17 23 4 47 57 148 -25 2 165 0 0 0 0 0 0 0 0 0 0 0 0 0
-3 -8 41 14 -17 5 54 16 5 -14 -5 -3 1 -32 -21 1 -18 -7 -5 0 0 0 0 0 0 0 0 0 0 0 0 0
13 32 22 -17 13 -49 -36 -20 6 6 -32 -6 34 -12 7 -5 23 12 -7 0 0 0 0 0 0 0 0 0 0 0 0 0
-1 -13 11 17 -11 -18 9 -37 -17 33 1 24 -10 -51 -19 -13 5 1 4 0 0 0 0 0 0 0 0 0 0 0 0 0
-12 41 22 8 6 -51 -3 9 -3 -8 -8 37 -80 6 27 11 -22 -12 6 0 0 0 0 0 0 0 0 0 0 0 0 0
-16 17 -12 -17 30 13 25 -8 -136 7 -27 -42 49 11 33 65 -64 106 26 0 0 0 0 0 0 0 0 0 0 0 0 0
-21 -8 27 20 -46 -22 63 30 -25 -14 -17 19 -21 -13 -34 2 -18 -14 -12 0 0 0 0 0 0 0 0 0 0 0 0 0
9 46 37 -34 20 -62 -27 -25 5 -5 -51 -13 11 8 7 -10 48 5 13 0 0 0 0 0 0 0 0 0 0 0 0 0
4 -31 37 9 -63 -27 18 -85 17 63 10 15 -1 -70 -1 3 -5 11 -4 0 0 0 0 0 0 0 0 0 0 0 0 0
66 89 27 118 12 -72 -1 -1 -14 -3 -110 73 -57 -5 30 14 -25 7 6 0 0 0 0 0 0 0 0 0 0 0 0 0
-46 7 2 7 32 40 73 -10 -221 -11 -29 -11 32 -9 37 116 -87 138 57 0 0 0 0 0 0 0 0 0 0 0 0 0
9 -16 14 -11 -55 -36 9 13 -3 -46 3 -7 -17 -13 11 3 24 -8 2 0 0 0 0 0 0 0 0 0 0 0 0 0
-15 28 24 -49 -15 -50 -8 22 3 -25 -31 25 6 8 6 7 14 -7 0 0 0 0 0 0 0 0 0 0 0 0 0 0
9 -26 9 5 -56 -31 32 -97 22 55 5 5 21 -61 -5 3 2 -19 5 0 0 0 0 0 0 0 0 0 0 0 0 0
46 82 0 163 6 -19 1 -6 -5 -6 -133 97 19 -10 8 1 0 66 5 0 0 0 0 0 0 0 0 0 0 0 0 0
-42 -11 -16 38 -12 -1 62 -21 -187 -13 11 8 -25 45 32 153 -56 96 155 0 0 0 0 0 0 0 0 0 0 0 0 0
6 -17 1 -3 -19 -27 -24 11 29 -35 16 -7 1 -60 -15 -24 37 -6 -16 0 0 0 0 0 0 0 0 0 0 0 0 0
-11 6 -12 -25 -12 -47 -9 22 1 -16 -26 2 23 -15 8 7 10 -8 6 0 0 0 0 0 0 0 0 0 0 0 0 0
2 -11 -7 9 -1 -20 16 -67 -12 45 4 5 3 -43 8 9 -2 4 20 0 0 0 0 0 0 0 0 0 0 0 0 0
-28 37 -6 54 -2 1 0 5 5 -10 -39 67 -2 -5 4 -11 4 46 1 0 0 0 0 0 0 0 0 0 0 0 0 0
-18 6 -22 23 -19 -20 29 -12 -128 -8 11 -10 -1 31 -8 90 -32 60 84 0 0 0 0 0 0 0 0 0 0 0 0 0
-11 21 34 8 -40 -20 44 -15 -7 -34 -5 7 -8 -19 -11 17 -15 1 0 0 0 0 0 0 0 0 0 0 0 0 0 0
-17 4 -6 -4 4 -47 -46 4 -1 -8 -36 26 -11 -11 -5 9 36 2 -14 0 0 0 0 0 0 0 0 0 0 0 0 0
2 1 -20 8 5 3 -3 -21 10 -1 -5 25 -6 -40 -7 -6 -2 3 5 0 0 0 0 0 0 0 0 0 0 0 0 0
-29 11 -5 4 16 -28 10 -9 -3 8 21 3 0 15 13 3 -11 5 -2 0 0 0 0 0 0 0 0 0 0 0 0 0
-4 12 22 -12 12 -2 8 3 -27 6 -3 -30 26 -1 5 29 -28 44 -3 0 0 0 0 0 0 0 0 0 0 0 0 0
-1 -19 1 -9 -56 -17 58 37 -15 -6 -11 6 -10 -27 -22 7 -19 -7 -2 0 0 0 0 0 0 0 0 0 0 0 0 0
7 14 5 -15 -5 -62 -35 0 2 1 -37 22 -19 -12 1 8 32 5 13 0 0 0 0 0 0 0 0 0 0 0 0 0
-5 -17 20 10 -13 -17 -10 -42 5 46 12 12 -19 -43 4 7 1 7 6 0 0 0 0 0 0 0 0 0 0 0 0 0
4 35 -2 74 9 -31 3 2 1 12 -39 24 27 14 16 8 -16 12 -1 0 0 0 0 0 0 0 0 0 0 0 0 0
-27 4 -11 -14 11 24 40 -16 -127 23 -29 -8 37 8 30 78 -42 73 21 0 0 0 0 0 0 0 0 0 0 0 0 0
7 -41 31 2 -23 -9 11 22 11 -35 -5 -4 -5 -4 17 20 19 -7 15 0 0 0 0 0 0 0 0 0 0 0 0 0
11 20 26 -41 -15 -79 -18 4 -2 11 -16 41 -6 -12 -11 0 22 -15 -10 0 0 0 0 0 0 0 0 0 0 0 0 0
4 -13 -9 10 -14 -27 10 -71 -7 47 10 -1 6 -35 -9 -13 10 -13 1 0 0 0 0 0 0 0 0 0 0 0 0 0
14 4 -3 59 -2 19 7 4 6 -8 -76 48 14 -4 13 16 -9 32 -1 0 0 0 0 0 0 0 0 0 0 0 0 0
-26 -4 -34 15 -12 -3 39 -1 -115 -11 -5 21 -12 57 6 73 -34 74 88 0 0 0 0 0 0 0 0 0 0 0 0 0
-6 -1 29 13 -51 -15 -9 -12 16 -29 4 -5 -16 -9 4 6 20 0 11 0 0 0 0 0 0 0 0 0 0 0 0 0
-12 -6 27 -24 -18 -36 -14 9 -4 -22 -27 20 -16 6 5 10 8 -18 12 0 0 0 0 0 0 0 0 0 0 0 0 0
5 0 -29 2 20 -9 7 -48 -2 1 1 -4 13 -20 -5 -1 0 -3 -12 0 0 0 0 0 0 0 0 0 0 0 0 0
-24 -19 -6 -12 5 18 17 -6 2 -12 -14 28 -12 1 10 8 -3 27 -4 0 0 0 0 0 0 0 0 0 0 0 0 0
1 5 -6 7 -3 -31 3 11 -7 -21 27 13 -20 38 -10 18 -20 53 44 0 0 0 0 0 0 0 0 0 0 0 0 0
