17 -25 -9 -19 -17 0 23 28 -25 -13 28 38 -9 5 19 -9 -4 -8 1 7 -17 -2 -22 5 11 37 6 -36 15 0 -26 25 9 -10 -2 -3 0 9 -18 31 -5 3 15 6 -6 19 2 -1 0 0 0 0 0 0 0 0 0 0 0 0 0 0 0 0
2 -8 7 18 -11 15 21 17 5 -16 -23 10 -12 12 -38 10 11 11 -14 4 -2 31 17 -9 -9 -19 -26 -18 24 5 -11 11 33 -4 -22 -12 -3 3 24 14 -2 1 -5 2 -6 10 -2 1 0 0 0 0 0 0 0 0 0 0 0 0 0 0 0 0
-3 1 17 -1 -12 2 -24 -17 6 -35 18 20 -22 11 -9 3 -9 -15 8 14 25 2 2 -5 27 -7 0 28 18 -13 1 12 -1 11 6 -14 23 23 -3 20 -2 -1 4 5 2 -5 -10 10 0 0 0 0 0 0 0 0 0 0 0 0 0 0 0 0
8 -13 -12 -14 10 1 9 4 8 -1 0 24 -27 13 18 -28 7 17 -4 9 -6 6 -4 20 10 13 23 1 -21 11 22 27 13 21 10 4 3 14 2 18 5 -3 5 2 2 -14 9 6 0 0 0 0 0 0 0 0 0 0 0 0 0 0 0 0
14 31 -9 1 0 -23 34 -11 19 0 4 -13 -17 34 15 22 1 21 14 -30 -20 -7 -21 -24 -1 6 8 -41 3 15 -7 -10 -16 7 -8 -20 -6 -14 20 -11 -58 37 -2 -87 -6 48 -29 -44 0 0 0 0 0 0 0 0 0 0 0 0 0 0 0 0
-17 -3 -2 -38 -33 16 43 20 -19 -29 -9 37 4 6 10 -1 -13 9 35 -5 -22 -13 13 6 -32 16 -12 -39 21 -5 -14 15 23 15 -6 30 -2 -28 -33 -16 -1 2 47 9 11 10 -36 -4 0 0 0 0 0 0 0 0 0 0 0 0 0 0 0 0
-26 32 31 20 3 42 -8 -19 29 3 1 29 -10 2 -7 2 6 -9 4 12 3 3 14 10 -7 -12 -20 19 15 -13 -25 -26 35 -4 -34 -36 -7 9 5 -7 -11 10 -21 -18 -15 9 -5 -4 0 0 0 0 0 0 0 0 0 0 0 0 0 0 0 0
0 13 -9 -3 -40 17 -13 6 -5 -9 -15 26 -6 -10 0 -16 -1 -16 23 25 6 11 -1 -24 -16 25 -2 33 26 -4 -14 14 -9 13 11 32 7 -12 -21 14 -1 -2 1 7 2 -8 3 -5 0 0 0 0 0 0 0 0 0 0 0 0 0 0 0 0
23 -22 38 23 12 14 -4 -10 28 -12 -7 35 -17 29 -24 11 16 -17 -11 -37 -16 28 1 -22 -10 0 -29 -15 -4 1 -25 -7 18 -16 -13 -4 12 -9 26 -26 9 -3 1 2 2 -32 11 6 0 0 0 0 0 0 0 0 0 0 0 0 0 0 0 0
-2 26 -18 15 -4 -26 25 6 2 -4 -5 -12 22 29 27 -4 -5 -37 16 -26 -12 1 -29 18 -31 29 10 -3 4 -4 5 -11 -5 3 14 -17 -14 -7 -15 -9 -64 0 -45 -44 19 -93 49 -80 0 0 0 0 0 0 0 0 0 0 0 0 0 0 0 0
-20 -14 -15 -15 -23 -9 26 -20 -11 18 14 7 4 5 4 -39 -27 3 16 23 -7 -7 29 -13 -7 16 -24 -43 44 12 -33 -11 10 8 4 26 -4 -25 -25 -13 -8 3 -2 9 2 -16 -21 1 0 0 0 0 0 0 0 0 0 0 0 0 0 0 0 0
7 3 5 42 -3 14 7 -8 18 1 -8 9 19 13 0 15 -20 6 -16 17 -21 23 2 -4 -34 3 -14 -6 -5 -9 -10 -14 -2 -38 1 -9 -12 21 -32 -28 -10 3 34 3 -6 -7 -4 0 0 0 0 0 0 0 0 0 0 0 0 0 0 0 0 0
2 -2 -14 -7 -36 -5 -5 14 -31 -5 -9 16 -18 9 -6 -32 -23 35 34 -5 8 -9 6 -15 -10 -4 -10 53 -4 -7 -28 -11 -10 16 -10 0 -2 -23 -17 28 -2 3 0 4 2 7 9 -4 0 0 0 0 0 0 0 0 0 0 0 0 0 0 0 0
12 13 42 36 27 5 14 -12 -2 -6 0 9 25 37 -32 13 9 1 -8 -20 -26 25 -2 6 -26 -29 -38 -13 18 0 -20 -8 13 -30 -26 -6 -3 2 16 13 1 -1 -4 5 2 -32 4 0 0 0 0 0 0 0 0 0 0 0 0 0 0 0 0 0
19 17 3 -3 7 -4 -3 15 -14 31 -15 7 15 0 15 -19 1 -27 -1 14 12 11 -48 -10 -7 19 12 6 -14 -10 11 15 -4 -9 -19 -14 -50 12 -4 18 -25 97 -101 47 35 -27 131 -77 0 0 0 0 0 0 0 0 0 0 0 0 0 0 0 0
-4 -26 9 14 -5 15 -13 -9 -34 -28 -5 16 10 -1 19 -29 26 -8 -11 5 -13 13 11 -2 5 18 1 -25 -5 7 16 -15 -16 13 1 4 3 -4 -16 21 -2 1 -3 8 -3 -13 0 14 0 0 0 0 0 0 0 0 0 0 0 0 0 0 0 0
-12 -7 35 21 25 -10 29 -6 5 0 -33 -5 -4 -2 -38 3 -28 16 -12 -8 -9 39 -11 -18 -5 -10 -2 -1 19 -8 -19 -16 -1 1 -11 8 -6 -5 -27 -10 1 9 -25 -16 0 -1 4 -10 0 0 0 0 0 0 0 0 0 0 0 0 0 0 0 0
-18 -32 -2 -9 7 8 -9 2 17 -9 12 5 19 21 -12 -22 19 6 8 -27 7 -14 -11 -3 8 -19 -4 43 -32 -4 12 -35 10 26 -5 -11 3 -6 4 3 -1 6 11 2 -2 5 -9 2 0 0 0 0 0 0 0 0 0 0 0 0 0 0 0 0
14 26 -21 -13 17 -3 1 -26 -12 -17 23 -10 -37 25 0 7 -2 23 3 31 -8 16 2 9 -4 -18 13 8 3 -1 -22 17 5 11 13 7 -28 30 -7 31 -5 0 -3 6 2 -14 1 4 0 0 0 0 0 0 0 0 0 0 0 0 0 0 0 0
29 10 17 -29 5 25 16 1 -6 -26 4 -12 -5 8 -15 4 12 -13 -10 8 16 1 -47 26 0 -4 -5 -32 -4 14 3 12 -15 -4 8 -12 -40 18 8 15 -22 101 -69 89 42 20 89 -79 0 0 0 0 0 0 0 0 0 0 0 0 0 0 0 0
-18 8 -22 -2 -26 -10 28 -17 -4 -25 -14 39 1 -1 18 -33 -17 21 21 5 -13 7 5 8 -7 42 -19 -68 18 16 -28 3 4 22 -11 10 12 -37 16 7 -17 6 -6 14 -12 10 -11 -5 0 0 0 0 0 0 0 0 0 0 0 0 0 0 0 0
11 -23 26 9 -10 34 13 -7 0 -9 -24 24 -22 27 -4 3 -13 28 -12 -13 -33 32 34 -31 -22 -17 3 18 -5 -1 6 9 28 8 -22 14 6 23 10 -27 4 -1 18 0 30 22 -16 10 0 0 0 0 0 0 0 0 0 0 0 0 0 0 0 0
27 -3 7 -25 -7 19 7 16 -7 -14 16 34 -27 7 -9 -28 8 17 32 15 12 10 -15 -25 -3 32 -4 28 13 0 -31 14 -26 0 -15 28 9 -13 -1 3 1 -3 1 5 1 0 -7 12 0 0 0 0 0 0 0 0 0 0 0 0 0 0 0 0
6 -34 -4 26 10 32 -9 -16 10 -2 -34 -1 -26 27 -14 -5 9 8 4 -24 2 45 8 -3 -20 17 3 -16 5 -32 2 3 31 -7 -12 3 -12 -15 -12 -11 4 -7 2 -3 -4 18 23 2 0 0 0 0 0 0 0 0 0 0 0 0 0 0 0 0
22 -23 -5 4 -1 -7 -8 45 -39 13 10 8 -21 24 8 16 -28 -12 5 -17 6 5 -2 27 -4 29 19 -17 -4 10 -23 -14 -11 18 -5 3 -23 9 9 0 -49 2 -48 -92 -37 -9 38 -78 0 0 0 0 0 0 0 0 0 0 0 0 0 0 0 0
26 -13 -9 -13 -22 1 37 3 -31 -16 -10 31 -16 19 -9 -43 -6 22 18 11 -16 -11 -3 2 23 60 -5 -49 19 15 -17 22 3 12 -14 27 -6 -18 -36 7 -7 3 38 8 -5 18 -10 2 0 0 0 0 0 0 0 0 0 0 0 0 0 0 0 0
16 5 28 22 -22 31 -1 -6 41 -5 -16 -3 -14 7 1 11 -19 14 26 11 -1 40 8 -5 -23 6 -10 11 -3 -13 -2 -8 9 -4 -42 -31 3 20 -20 1 -10 1 26 9 10 -4 -10 10 0 0 0 0 0 0 0 0 0 0 0 0 0 0 0 0
7 -2 -5 -15 -50 7 3 -22 -31 -21 29 65 -17 -8 -11 -43 -16 -9 60 41 -22 17 16 25 -12 61 -21 40 40 -20 -43 17 -6 -3 -11 26 -22 -33 -24 3 0 -2 -4 7 0 -11 -2 -10 0 0 0 0 0 0 0 0 0 0 0 0 0 0 0 0
-21 2 50 44 21 32 22 -8 0 -4 -24 35 7 68 -51 -1 -31 -27 28 -24 16 79 21 -9 -25 -10 -46 8 -9 -20 -20 14 47 -26 -34 -27 42 -2 6 -28 2 -7 4 -4 -11 45 24 2 0 0 0 0 0 0 0 0 0 0 0 0 0 0 0 0
-24 -21 -13 8 8 -8 16 68 -19 41 26 -10 29 1 -14 -5 -26 -23 -22 6 20 9 -46 -1 4 5 7 17 -4 -24 4 -28 -12 -7 28 -20 -62 10 8 13 -70 11 -132 -95 -61 -108 34 -104 0 0 0 0 0 0 0 0 0 0 0 0 0 0 0 0
4 10 14 -14 -18 28 34 16 -30 -28 21 25 11 -15 -15 -29 -30 4 20 29 -34 -7 -9 23 10 39 -1 -20 37 -13 -12 -4 -12 -19 -9 17 1 7 -33 14 -3 1 6 18 -6 -22 -5 8 0 0 0 0 0 0 0 0 0 0 0 0 0 0 0 0
-10 9 -3 39 9 26 9 -3 33 8 -24 25 13 16 -13 -10 -1 -5 39 -12 -18 15 41 12 -19 -21 -56 -16 -7 30 -25 -10 32 -25 -2 -40 -9 11 -11 0 26 -13 10 4 36 14 7 -1 0 0 0 0 0 0 0 0 0 0 0 0 0 0 0 0
10 -23 15 -13 -62 25 -14 -19 -37 -1 5 63 -6 2 0 -72 -3 -6 60 39 -42 1 3 18 -11 39 -6 38 50 -17 -46 -15 -13 38 -9 10 -18 -58 -37 20 -10 5 5 9 0 2 2 0 0 0 0 0 0 0 0 0 0 0 0 0 0 0 0 0
-5 28 30 27 33 22 20 17 13 -38 -16 30 -12 80 -44 26 -23 -33 1 -22 -1 58 15 -16 -37 -36 -69 -4 11 -3 -34 1 65 -40 -39 -24 21 30 -16 6 -2 0 10 -3 -7 42 0 1 0 0 0 0 0 0 0 0 0 0 0 0 0 0 0 0
-12 -21 4 -7 19 -9 20 55 0 45 -6 -20 15 -8 9 -10 -31 -9 -18 15 4 8 -63 46 -13 -14 30 30 13 -37 -7 -8 -18 -11 -2 -7 -64 5 5 4 -33 68 -171 110 -14 -115 145 -150 0 0 0 0 0 0 0 0 0 0 0 0 0 0 0 0
-10 5 4 4 -36 -3 29 -14 -30 -17 15 28 -23 -8 18 6 -18 12 26 -15 -28 -6 -8 3 -15 3 5 -13 29 10 -19 23 -16 2 4 -1 1 12 -13 17 1 4 -2 4 3 -13 -5 2 0 0 0 0 0 0 0 0 0 0 0 0 0 0 0 0
-31 -5 3 32 -11 39 13 -10 40 -9 -16 -3 0 10 -35 -7 -12 1 -8 -1 -22 -7 -2 0 -37 -22 -44 29 -11 22 -11 -22 22 -4 2 -23 6 -7 -4 -26 9 -12 25 2 -1 -5 16 -1 0 0 0 0 0 0 0 0 0 0 0 0 0 0 0 0
22 -11 -17 -20 -32 34 -3 -1 -15 14 14 28 -7 28 4 -50 -1 10 31 -13 2 -2 -13 7 -14 13 1 54 31 2 -12 -28 3 30 11 19 11 -42 -30 5 -7 9 16 4 0 4 -12 5 0 0 0 0 0 0 0 0 0 0 0 0 0 0 0 0
5 -21 11 18 20 18 9 11 9 -15 -10 6 6 36 -19 27 24 -16 0 10 -26 9 11 11 -15 -22 -32 -23 -5 -10 -18 21 22 -29 -9 -12 -14 19 -33 22 -1 1 9 -2 -1 18 -5 1 0 0 0 0 0 0 0 0 0 0 0 0 0 0 0 0
29 13 -2 9 10 2 26 32 -3 21 -20 1 17 12 5 6 -6 14 13 14 -19 2 -52 2 4 17 20 -6 -4 5 -13 20 -10 4 -16 -11 -21 -22 2 13 -32 85 -130 122 45 -10 106 -77 0 0 0 0 0 0 0 0 0 0 0 0 0 0 0 0
13 14 -12 2 -25 32 17 -21 -3 -5 8 24 17 21 -19 -11 5 1 44 -9 -20 10 25 0 -18 38 13 -12 4 -17 9 -20 -6 -25 -21 26 3 -22 -8 3 -11 2 12 7 6 0 13 2 0 0 0 0 0 0 0 0 0 0 0 0 0 0 0 0
-14 -23 15 23 -12 14 -18 0 27 -24 -53 22 10 25 -39 -8 22 -10 20 -8 -28 15 -6 14 -6 -8 -33 18 19 15 -18 14 26 -4 -19 -35 -15 -5 0 3 -2 -3 13 3 -1 -5 9 -6 0 0 0 0 0 0 0 0 0 0 0 0 0 0 0 0
3 17 5 -5 0 8 28 1 3 -20 24 14 12 -15 10 -13 9 -27 11 21 -15 -15 -21 -16 -37 47 -6 19 41 3 -35 12 -22 -29 -10 44 -4 -15 -4 -26 6 -9 -3 1 2 5 5 6 0 0 0 0 0 0 0 0 0 0 0 0 0 0 0 0
-12 -9 -9 15 7 16 -21 3 -8 -1 -34 -4 15 4 -48 1 -10 9 4 -44 2 27 -18 -27 -20 8 -22 -6 18 -1 -21 -31 16 -4 4 -2 6 -1 -13 -30 -8 2 14 1 -9 5 -3 -5 0 0 0 0 0 0 0 0 0 0 0 0 0 0 0 0
-32 -5 -1 -1 -16 -5 -24 62 7 -2 15 -2 -29 3 -24 -4 -25 4 7 12 2 2 -19 -22 13 9 18 -7 -12 -26 -8 -16 9 -25 8 7 -17 18 -9 -8 -65 -6 -4 -89 -99 -48 96 7 0 0 0 0 0 0 0 0 0 0 0 0 0 0 0 0
10 -13 -15 -19 -29 22 32 -6 15 -11 21 38 14 14 0 -46 12 -9 32 24 -15 3 28 -26 19 30 -31 -56 15 7 7 -10 18 -14 -24 18 8 -35 -10 18 4 -7 55 -2 1 20 -3 1 0 0 0 0 0 0 0 0 0 0 0 0 0 0 0 0
-9 -8 29 11 -22 15 16 -20 20 0 -48 27 -10 45 -30 -1 -30 -41 0 -16 -35 6 -22 19 -26 -28 -17 16 21 -31 11 -6 9 -10 -5 -22 16 17 -7 -21 -11 3 23 22 5 -42 20 -9 0 0 0 0 0 0 0 0 0 0 0 0 0 0 0 0
22 3 3 -1 -21 2 4 8 -40 1 25 59 2 -3 0 -47 -24 -14 62 41 -19 16 10 17 -37 89 5 24 59 13 -56 34 -16 -20 -7 23 -21 -25 -37 -18 -3 -2 -5 -1 0 -5 -1 -9 0 0 0 0 0 0 0 0 0 0 0 0 0 0 0 0
-33 -16 36 45 15 43 32 11 16 8 -54 30 11 38 -61 -18 -34 -18 9 -34 -15 45 2 -7 -36 -15 -49 0 36 1 -5 -11 50 -17 -63 -38 18 5 -19 -43 -15 4 20 4 -18 20 -5 -5 0 0 0 0 0 0 0 0 0 0 0 0 0 0 0 0
-16 -40 -11 -16 -4 -17 -8 94 7 24 -12 9 49 20 -17 -2 -44 9 13 29 -5 11 -28 25 17 4 31 19 -17 -17 -1 -28 -7 -3 0 -23 -18 30 0 17 -48 -101 -91 -77 -143 -184 148 -62 0 0 0 0 0 0 0 0 0 0 0 0 0 0 0 0
-5 23 19 -23 -28 30 2 -14 -23 5 -9 36 -4 -16 5 -14 20 -17 -1 21 -32 -3 -17 16 13 29 -21 -45 35 -14 8 -6 5 18 -7 12 -10 -28 -31 -15 14 -3 16 -2 -5 -9 -8 -3 0 0 0 0 0 0 0 0 0 0 0 0 0 0 0 0
-16 18 17 -6 13 40 23 -9 25 -6 -4 6 -8 35 -5 1 -16 -5 -1 -33 -4 4 -2 12 -30 -6 -20 17 15 -19 -11 -34 32 -26 -38 -24 28 20 -23 -44 5 -1 0 0 10 -1 -7 -7 0 0 0 0 0 0 0 0 0 0 0 0 0 0 0 0
-3 -17 -13 -17 -43 40 -9 9 -7 26 18 56 1 16 15 -63 7 12 27 28 -57 26 17 29 -26 74 0 43 50 17 -37 -10 11 2 -12 12 -18 -63 -36 -2 -12 13 17 -1 0 -1 -18 -5 0 0 0 0 0 0 0 0 0 0 0 0 0 0 0 0
-24 0 53 26 7 18 21 -2 23 -5 -33 23 12 53 -59 22 -19 -46 8 4 15 41 35 -25 -42 -19 -71 11 20 -13 -31 -4 26 -44 -66 -38 4 7 -39 -41 -10 6 24 -2 -5 20 -3 6 0 0 0 0 0 0 0 0 0 0 0 0 0 0 0 0
-6 -51 5 -14 5 7 10 91 -19 43 5 8 47 0 -18 15 -49 -8 0 15 -3 12 -29 15 -9 -15 14 47 -5 -25 -16 3 -9 15 1 -12 -30 0 1 26 -72 -134 -75 105 -21 -88 -18 -82 0 0 0 0 0 0 0 0 0 0 0 0 0 0 0 0
14 18 -22 2 -9 9 8 -11 -21 -6 24 13 -14 -15 -14 -13 -20 15 39 12 -28 -12 -10 -25 14 51 1 -34 36 21 -31 5 13 -8 -7 10 -7 -8 -20 6 8 6 30 9 -9 -8 -3 10 0 0 0 0 0 0 0 0 0 0 0 0 0 0 0 0
19 12 13 23 1 26 8 12 23 -1 -1 6 -10 44 -15 15 4 -13 -10 7 2 12 -7 4 -37 15 -50 -11 2 18 -12 21 -23 -44 -8 -35 -14 -1 -17 -32 -13 -10 32 20 -5 -10 16 -1 0 0 0 0 0 0 0 0 0 0 0 0 0 0 0 0
-5 14 5 -18 -37 20 8 -6 -3 -28 29 16 -11 12 22 -20 -10 25 3 19 -34 -9 7 18 0 16 -16 43 33 -8 -42 -13 -8 -20 -24 -1 9 -35 -5 20 -7 8 19 6 -1 0 -4 4 0 0 0 0 0 0 0 0 0 0 0 0 0 0 0 0
-21 4 19 8 8 -13 -7 17 -10 9 -29 -3 11 14 -35 8 8 -7 5 -11 24 10 7 0 -27 6 -43 -2 -8 -3 3 -15 -6 -35 -15 -7 6 -3 -34 -1 -3 4 20 -3 4 4 -6 5 0 0 0 0 0 0 0 0 0 0 0 0 0 0 0 0
-17 -20 12 16 -3 -7 -13 37 -12 36 22 17 2 -18 -11 20 -29 20 -22 2 -9 4 -2 13 12 -12 15 24 16 -15 -29 20 1 -5 -34 12 -32 -23 13 5 -49 -95 -63 126 29 -71 -95 -73 0 0 0 0 0 0 0 0 0 0 0 0 0 0 0 0
-11 -14 30 -32 -29 17 21 -3 12 20 26 5 -11 21 5 -3 -3 9 22 -15 -3 11 13 -18 1 29 16 -42 20 -29 4 16 -8 -17 -7 27 -30 -31 -28 -7 0 -3 -5 -7 21 -5 10 5 0 0 0 0 0 0 0 0 0 0 0 0 0 0 0 0
-18 -19 38 32 -15 10 29 -27 18 16 -33 -1 11 -11 -36 -3 -4 -25 11 2 19 -4 -3 -30 -19 1 -18 37 -18 -10 -29 4 8 -34 -35 -2 19 1 -5 -21 -4 4 13 6 -30 10 -13 4 0 0 0 0 0 0 0 0 0 0 0 0 0 0 0 0
-31 18 -3 19 11 -23 -8 -3 34 5 24 -6 6 -16 -3 1 0 -27 18 15 1 -10 11 -11 -25 12 14 25 12 7 -2 20 24 -21 18 -2 -6 13 -6 -16 5 -9 0 3 -1 4 9 1 0 0 0 0 0 0 0 0 0 0 0 0 0 0 0 0
-18 -9 10 -5 -4 -23 -3 -14 -5 25 15 18 -10 -18 -26 -11 7 14 -22 -21 -1 -16 5 19 22 6 2 23 2 22 3 7 -28 10 1 12 -6 6 18 -12 -1 3 -1 5 -9 1 -3 -14 0 0 0 0 0 0 0 0 0 0 0 0 0 0 0 0
-23 8 -3 2 0 -6 -16 -2 12 8 0 26 -45 11 -7 19 17 -14 -2 -4 -22 -5 -8 -2 16 -8 -1 -37 -17 12 13 2 -12 -9 -5 -15 -4 -3 0 -13 -35 -36 22 -63 -91 -8 101 -36 0 0 0 0 0 0 0 0 0 0 0 0 0 0 0 0
-12 21 -7 -13 -21 29 28 6 -14 -32 39 20 -13 -5 13 -25 -20 -15 31 11 10 14 -16 -20 -12 46 -21 -38 14 11 -13 -6 6 7 5 11 13 -36 -2 22 0 3 24 -1 -1 5 -5 -5 0 0 0 0 0 0 0 0 0 0 0 0 0 0 0 0
9 -20 17 27 19 14 12 1 -8 -29 -30 20 -27 14 -23 -11 -6 -3 5 -17 10 -6 17 -22 -33 -1 -52 -8 1 -21 -11 12 4 -39 6 -14 16 7 3 -6 8 -4 -21 -10 -10 3 -14 1 0 0 0 0 0 0 0 0 0 0 0 0 0 0 0 0
-4 -6 7 19 -6 13 6 -2 4 -32 20 19 -27 -1 -8 -4 18 -6 32 14 -15 1 5 7 -24 38 9 16 37 36 -22 39 -30 -7 2 18 -16 -20 -18 -6 -4 -2 1 -2 0 -4 1 -5 0 0 0 0 0 0 0 0 0 0 0 0 0 0 0 0
0 -8 26 -2 4 -8 -1 0 -10 -1 -44 4 26 21 -46 -6 -16 20 3 -32 -9 19 -8 -7 -13 -3 -42 -7 16 -9 -7 -32 9 -8 -23 -13 -7 30 -23 -26 1 2 4 8 -12 2 0 -18 0 0 0 0 0 0 0 0 0 0 0 0 0 0 0 0
-31 -12 8 -13 -7 2 5 46 -10 13 15 1 13 15 -10 -3 -13 -6 24 -13 -4 -7 -21 -6 -24 5 12 -2 1 -12 -15 -1 13 -12 -16 -15 -3 14 2 4 -47 -91 -5 -64 -112 -68 76 -11 0 0 0 0 0 0 0 0 0 0 0 0 0 0 0 0
6 16 4 3 5 -3 10 12 -41 -13 15 43 21 8 -10 -15 5 -21 10 26 -36 -17 -25 11 11 6 -15 -40 7 -17 -2 -10 -21 -2 5 -11 11 -25 -35 9 -6 6 7 -4 -8 -19 -15 -14 0 0 0 0 0 0 0 0 0 0 0 0 0 0 0 0
5 -5 20 12 8 26 -16 20 1 -1 -22 -3 14 34 -17 24 15 -25 14 5 9 20 -9 -23 -39 7 -35 -8 3 4 -6 -29 -9 -5 1 -30 3 3 -30 -27 -6 2 2 4 -23 5 -12 14 0 0 0 0 0 0 0 0 0 0 0 0 0 0 0 0
-9 12 -24 -13 -33 25 5 7 -21 -7 5 14 17 27 22 -5 -23 18 -17 -12 -10 3 5 11 -8 27 -21 53 14 14 -20 -16 -7 -17 -19 6 14 -19 -14 12 -5 12 12 -5 5 -1 -21 -5 0 0 0 0 0 0 0 0 0 0 0 0 0 0 0 0
-3 9 38 15 12 8 14 8 3 -5 -33 5 15 17 -38 -2 -7 -8 19 17 -15 12 -17 -9 -44 -13 -44 -9 14 6 -21 -25 1 -17 -28 -34 2 2 -24 -22 1 0 -1 1 -1 2 0 -11 0 0 0 0 0 0 0 0 0 0 0 0 0 0 0 0
3 7 1 -10 -22 -4 22 42 18 -14 8 -13 14 11 -26 -9 -21 18 4 20 2 11 -30 6 2 10 4 23 19 -6 -2 14 16 -9 -1 -25 -12 5 -8 38 -43 -159 -44 91 -50 -55 -96 -84 0 0 0 0 0 0 0 0 0 0 0 0 0 0 0 0
-10 -15 -13 0 -6 19 -13 -3 -13 -2 -4 21 26 3 -28 -24 -12 3 6 32 -22 3 29 25 -19 10 -8 -34 20 -9 -2 -31 13 -29 7 11 -1 -25 -34 -3 2 1 21 6 -6 -6 17 -3 0 0 0 0 0 0 0 0 0 0 0 0 0 0 0 0
-12 12 42 5 25 -8 19 21 0 -15 -33 33 22 45 -30 10 3 -27 8 -5 -26 38 -9 -12 3 -17 -1 -9 23 13 -21 3 8 -5 -17 -13 -15 5 -19 -13 -14 6 4 3 0 4 -10 13 0 0 0 0 0 0 0 0 0 0 0 0 0 0 0 0
-27 20 9 -15 -4 -8 -15 30 11 9 -13 -6 21 2 25 -9 -18 5 -16 16 -4 -12 -3 -28 4 -3 -6 33 -35 -19 -22 -28 11 -21 -27 -21 25 19 12 18 -1 5 13 2 1 -2 -3 1 0 0 0 0 0 0 0 0 0 0 0 0 0 0 0 0
-3 21 -14 3 6 -2 -9 -6 23 -3 10 7 6 -18 -5 -13 11 5 5 -4 4 -8 -13 -10 -27 8 13 14 -10 32 -5 -18 -9 8 -12 10 -17 -24 16 -7 0 -1 -12 -2 4 1 -2 -6 0 0 0 0 0 0 0 0 0 0 0 0 0 0 0 0
19 4 4 -17 -16 -20 -31 9 25 -10 -9 7 -12 10 7 16 -21 5 -3 5 -8 14 7 -12 14 -9 13 2 -12 -7 4 2 -11 4 -15 7 -17 16 -5 -6 -36 -106 -44 95 17 4 -99 -51 0 0 0 0 0 0 0 0 0 0 0 0 0 0 0 0
