5 -4 -22 5 11 -18 6 9 -11 -10 7 11 8 -4 21 -9 -6 -11 18 -19 -10 27 -16 9 -31 31 22 -6 -19 28 -21 6 -13 21 -2 2 20 15 8 13 0 -20 -3 21 10 -4 36 -3 0 0 0 0 0 0 0 0 0 0 0 0 0 0 0 0
7 11 -7 29 -24 -6 18 -17 2 -5 6 16 -35 -20 -31 -19 -6 -2 14 13 11 6 -16 -10 -4 -4 -41 8 8 -9 -8 -9 39 8 26 -13 31 18 20 -10 -38 2 20 21 18 4 2 -7 0 0 0 0 0 0 0 0 0 0 0 0 0 0 0 0
13 8 -12 11 4 -9 3 -17 -10 2 11 -6 1 -10 -3 1 24 -4 -16 33 20 21 10 0 21 -21 -25 3 8 -11 -6 13 -19 3 30 6 1 -5 11 12 -3 16 -25 24 0 6 -25 -19 0 0 0 0 0 0 0 0 0 0 0 0 0 0 0 0
17 21 2 -29 -16 -19 7 13 17 3 -8 13 -14 44 19 -4 -7 -5 3 22 18 10 -16 14 -1 7 8 3 -18 -10 18 22 -6 15 -2 -18 6 15 -25 3 -20 9 21 -2 -18 7 -21 -7 0 0 0 0 0 0 0 0 0 0 0 0 0 0 0 0
-11 8 -15 7 -9 -6 -11 -1 13 -1 -15 -12 4 -19 -11 16 3 -9 18 4 -18 13 26 1 5 3 15 11 10 4 -11 11 -19 13 0 2 25 13 -1 -8 -13 -1 24 17 93 19 -16 69 0 0 0 0 0 0 0 0 0 0 0 0 0 0 0 0
7 -2 -3 -12 29 10 -14 17 31 -20 -31 13 -6 -10 14 19 31 -12 41 16 -2 0 -15 -14 -34 34 4 -8 20 -4 -4 -16 20 4 -47 23 -6 16 27 -2 -11 4 -43 -1 -6 -7 -9 -8 0 0 0 0 0 0 0 0 0 0 0 0 0 0 0 0
21 -11 1 -5 6 6 21 -20 21 18 23 29 19 -6 -23 10 -44 39 -3 16 -24 -10 11 3 1 11 -48 -2 8 0 13 -48 0 -15 12 -3 21 13 24 -16 -17 2 -19 10 16 -6 -11 38 0 0 0 0 0 0 0 0 0 0 0 0 0 0 0 0
-13 -26 -11 -9 0 37 5 -10 8 -16 -16 15 -4 9 -12 19 -4 8 16 28 5 -5 0 23 4 23 17 -6 -35 6 -24 -5 9 22 -26 22 -4 16 9 16 -1 12 -31 23 6 2 -39 -18 0 0 0 0 0 0 0 0 0 0 0 0 0 0 0 0
25 -9 19 3 5 -4 56 0 17 -7 -29 52 13 -16 -16 5 -5 29 15 9 9 -25 8 16 18 -8 -27 -11 -12 -9 -2 -20 44 -11 1 -7 -2 -1 20 -19 -26 29 8 -3 -14 14 -33 -4 0 0 0 0 0 0 0 0 0 0 0 0 0 0 0 0
2 -27 -17 -10 5 -15 -14 -13 26 20 20 -6 -32 -20 24 30 -29 5 20 -10 -30 -1 9 4 -29 2 -4 9 -15 17 -21 -4 -2 -13 5 -18 0 11 -23 -10 -16 -37 11 22 26 20 -71 62 0 0 0 0 0 0 0 0 0 0 0 0 0 0 0 0
28 17 9 -24 2 16 -10 9 -11 15 -8 17 -13 1 -17 -1 1 -14 18 -22 12 -25 -39 -6 -12 20 -16 23 -17 0 -31 -14 12 28 -6 14 -12 -21 26 -2 4 13 -11 30 -5 4 26 0 0 0 0 0 0 0 0 0 0 0 0 0 0 0 0 0
9 -18 5 -5 -16 23 22 -16 32 30 16 -17 11 -12 -3 -2 -3 31 0 0 -12 -23 22 7 6 23 -21 -7 14 -9 -20 -16 21 -17 -22 11 8 6 11 16 -31 19 7 -15 -1 -3 3 0 0 0 0 0 0 0 0 0 0 0 0 0 0 0 0 0
32 -17 36 -27 -14 -7 5 10 24 -11 -39 -9 -22 10 6 -13 -19 8 45 27 -32 -10 -25 9 -34 23 33 1 4 5 1 -25 9 3 -41 20 -3 -24 -4 6 -1 -11 -27 4 10 28 1 -14 0 0 0 0 0 0 0 0 0 0 0 0 0 0 0 0
4 27 -11 7 19 -12 36 14 18 -26 -3 21 4 -46 -24 19 -16 26 5 -27 -7 -10 40 -12 5 -3 -32 9 15 6 -23 -30 29 -25 4 21 27 15 -9 -23 -18 32 -9 -4 -12 11 -26 4 0 0 0 0 0 0 0 0 0 0 0 0 0 0 0 0
-7 -18 -49 -1 -14 -12 15 -12 -17 34 -10 15 -28 9 27 34 -49 -12 14 -13 -23 -3 -2 15 8 -7 -3 3 -6 4 4 -33 15 -15 -10 0 -21 5 -23 4 -12 -41 -8 29 36 26 -26 45 0 0 0 0 0 0 0 0 0 0 0 0 0 0 0 0
-9 18 -5 -4 7 -10 -3 -18 4 5 -6 5 -14 0 13 -12 4 -15 -1 -7 -23 -4 -36 0 17 15 30 18 -12 15 -40 -20 14 26 9 18 15 0 12 -16 -10 -16 -41 0 25 -17 -24 7 0 0 0 0 0 0 0 0 0 0 0 0 0 0 0 0
28 8 22 22 18 11 36 0 -9 31 11 -8 -7 -34 10 -39 9 5 16 -10 -1 -4 10 -15 -6 -15 -40 7 -18 -1 -28 -15 44 4 -24 10 -11 32 9 -20 -22 -8 -19 20 -1 5 -11 16 0 0 0 0 0 0 0 0 0 0 0 0 0 0 0 0
23 10 23 1 -6 -32 -5 4 6 6 0 -9 -13 -2 -1 -15 13 -8 9 28 -24 18 4 -13 -15 -29 -13 7 2 13 35 -14 -8 -22 -4 2 10 -33 -12 3 -10 -8 -15 11 -5 8 11 -18 0 0 0 0 0 0 0 0 0 0 0 0 0 0 0 0
-1 29 -15 -12 6 -16 1 38 12 -1 21 -32 -12 4 24 -1 -20 -22 -9 -6 -15 2 11 -5 -9 -5 15 23 -2 5 7 14 -14 -3 -6 7 44 26 -32 3 -11 11 -2 -1 -2 4 -7 3 0 0 0 0 0 0 0 0 0 0 0 0 0 0 0 0
-7 -4 -28 1 -17 22 -3 8 -8 6 -18 19 -8 3 7 13 -11 -2 6 8 8 -4 -4 3 17 0 9 -4 18 -11 6 -10 10 23 -2 -1 20 -33 -29 -7 29 -7 -14 16 53 7 -7 62 0 0 0 0 0 0 0 0 0 0 0 0 0 0 0 0
25 5 -8 -9 50 -7 -2 9 25 -20 -11 -15 14 -25 9 -12 -16 -17 36 -22 -26 -10 -19 -6 2 44 -9 -3 -2 7 -10 16 -11 37 -31 5 11 22 26 -3 9 14 -1 39 -1 0 9 14 0 0 0 0 0 0 0 0 0 0 0 0 0 0 0 0
18 -7 -12 29 -36 22 51 -10 28 26 -14 -3 5 -15 -19 -14 17 2 17 17 -15 11 -14 -21 13 -11 -53 -13 30 -13 -35 -22 16 9 7 -28 15 6 3 -19 -29 -7 20 4 -9 -22 -33 -17 0 0 0 0 0 0 0 0 0 0 0 0 0 0 0 0
23 -13 -17 7 4 21 7 2 20 -24 -22 9 -23 3 -8 -1 16 4 40 19 16 5 -28 25 -26 5 3 6 -21 -25 -26 -22 -6 27 8 15 -9 20 18 38 7 35 -31 10 -43 1 -23 -16 0 0 0 0 0 0 0 0 0 0 0 0 0 0 0 0
-5 12 -2 24 -10 11 55 23 30 -4 0 37 -14 6 -13 -1 23 3 8 26 4 -25 4 19 -23 26 -37 -5 -16 -15 16 -18 1 2 5 9 -16 -2 -22 -15 -27 3 15 -3 9 -10 -32 -5 0 0 0 0 0 0 0 0 0 0 0 0 0 0 0 0
23 -15 9 23 -16 -10 15 -14 -1 21 -20 -24 -22 -19 23 13 -18 5 4 -3 -2 1 13 17 8 3 20 18 -5 -9 4 -14 -14 -2 -20 23 10 -6 -4 -26 10 -46 32 17 83 15 -104 58 0 0 0 0 0 0 0 0 0 0 0 0 0 0 0 0
24 7 16 -17 32 -13 0 2 -8 -6 -8 13 -18 -14 -7 7 20 -10 34 -28 -6 -22 2 -26 -28 9 -17 -2 -23 10 -28 4 33 33 -33 15 9 -16 4 13 14 -4 -30 17 10 -12 -19 -14 0 0 0 0 0 0 0 0 0 0 0 0 0 0 0 0
5 17 -17 -1 -17 5 26 -37 24 30 17 15 2 -16 -12 -27 14 15 9 4 1 -31 17 11 -14 -20 -38 9 -2 18 -28 -44 40 -22 -1 -10 -8 8 25 15 -21 -2 -9 2 -8 3 -25 18 0 0 0 0 0 0 0 0 0 0 0 0 0 0 0 0
19 -35 -19 -23 44 43 2 -5 28 -30 -47 3 -24 3 2 -4 -1 -5 68 13 8 -1 -15 43 -46 34 -4 15 -17 -4 -39 -19 8 56 -52 47 -36 -4 16 52 3 19 -42 25 59 -44 -67 -22 0 0 0 0 0 0 0 0 0 0 0 0 0 0 0 0
40 -26 21 35 -24 -18 89 -16 33 -11 9 74 -10 -71 -48 -2 10 58 -1 2 8 -51 21 -12 -3 24 -47 -12 17 -12 -12 -57 47 -18 -6 -24 -18 17 12 -23 -30 26 23 -12 4 -34 -39 15 0 0 0 0 0 0 0 0 0 0 0 0 0 0 0 0
-24 -42 2 -4 12 -6 -9 -11 4 35 -6 23 -57 -13 1 3 -56 -7 3 -30 -43 2 17 -26 -6 28 18 10 -4 -16 -10 5 9 13 2 2 -13 -34 -50 -27 -8 -75 34 43 101 45 -48 73 0 0 0 0 0 0 0 0 0 0 0 0 0 0 0 0
8 -7 -18 10 8 -16 1 -12 -26 12 -32 -2 -15 15 -15 -22 -14 -29 15 6 -18 -25 2 20 -33 39 0 16 -36 2 -16 -3 24 23 -3 -8 24 -2 4 23 -7 21 -49 -1 -8 31 18 23 0 0 0 0 0 0 0 0 0 0 0 0 0 0 0 0
5 23 5 13 12 -4 32 7 32 21 -13 9 -28 -44 -4 -31 17 27 1 12 -1 -15 16 6 3 -20 -25 -8 41 21 -12 -43 25 -31 -10 1 14 17 20 6 0 -10 -7 -5 -1 -5 -16 -4 0 0 0 0 0 0 0 0 0 0 0 0 0 0 0 0
24 -25 19 -33 11 16 11 5 -9 -23 -40 -6 9 0 3 -24 -7 -37 74 11 -6 2 -5 22 -48 59 17 9 -20 23 -10 -13 11 31 -83 44 -24 -4 -10 15 -3 -28 -40 21 41 9 -15 -17 0 0 0 0 0 0 0 0 0 0 0 0 0 0 0 0
61 -4 -1 36 -24 -23 53 22 58 -23 2 31 6 -85 -58 11 -28 61 -17 -27 -6 -36 34 -3 25 -8 -40 -27 42 9 -44 -64 70 -18 -21 -25 32 37 23 -34 -32 35 1 -6 -1 -21 -27 3 0 0 0 0 0 0 0 0 0 0 0 0 0 0 0 0
13 -53 -42 11 15 -22 -13 -20 -10 26 15 20 -64 -20 21 22 -76 8 14 -14 -31 -20 -9 -7 -24 21 -2 29 -11 6 -1 17 -19 -15 18 -3 -24 -23 -49 7 13 -60 -18 39 64 27 -61 73 0 0 0 0 0 0 0 0 0 0 0 0 0 0 0 0
18 33 -9 -22 36 25 -6 2 10 10 -31 0 -21 16 9 9 -22 -5 2 -13 -11 -6 -34 1 -21 32 -13 -6 -8 11 -1 8 -8 31 -2 17 14 -9 8 4 -11 -4 -40 23 10 0 5 -21 0 0 0 0 0 0 0 0 0 0 0 0 0 0 0 0
6 -11 8 30 -28 25 40 17 21 35 13 18 10 -8 -36 6 -34 21 -2 27 -10 8 30 -11 -13 12 -51 8 21 6 -24 -3 21 -16 4 -12 -3 -4 -19 -22 -21 3 -4 0 0 6 -13 -13 0 0 0 0 0 0 0 0 0 0 0 0 0 0 0 0
-7 -6 18 -21 8 -4 -2 8 8 -11 -32 4 9 -14 3 1 -1 -15 36 27 0 -9 1 -7 -16 21 16 15 -28 13 6 1 14 15 -30 8 11 -9 7 -4 -1 -19 -29 12 -8 23 9 -16 0 0 0 0 0 0 0 0 0 0 0 0 0 0 0 0
28 30 -13 25 -12 5 13 45 45 -24 -8 4 -5 -15 -14 5 -21 15 -6 -5 11 -13 19 24 11 -1 -23 -10 -13 0 -12 -25 23 -4 -11 4 36 21 -3 -22 -21 13 -17 4 -15 0 -14 -16 0 0 0 0 0 0 0 0 0 0 0 0 0 0 0 0
5 -17 -51 18 -6 -17 12 -12 -13 19 -11 -13 -27 -9 20 28 -38 12 -8 13 -18 -6 -20 31 10 -3 -4 17 -13 18 11 -12 8 8 -2 -5 10 12 -18 -9 17 -15 -33 21 81 37 -76 63 0 0 0 0 0 0 0 0 0 0 0 0 0 0 0 0
14 -8 23 -11 29 13 21 12 18 1 -39 5 14 -15 7 -9 8 0 39 17 -24 -14 -19 -7 10 18 -11 -24 3 20 -29 11 24 27 -29 6 18 12 -5 26 -5 23 -31 45 -17 8 -6 7 0 0 0 0 0 0 0 0 0 0 0 0 0 0 0 0
9 -18 0 2 10 0 46 -5 -5 20 2 23 5 -11 -22 -31 3 40 0 8 6 -1 18 -5 4 15 -42 15 -22 9 -23 -32 14 -17 -3 4 -27 -11 12 -35 -10 13 -26 -2 6 -13 3 7 0 0 0 0 0 0 0 0 0 0 0 0 0 0 0 0
-11 -15 -29 -10 23 20 -3 5 19 -28 -2 14 -16 7 -5 25 -7 -7 40 -17 -16 -7 -24 32 -26 15 13 17 -14 -31 -26 -6 26 33 -22 24 2 5 19 16 11 30 -6 18 -79 -20 12 14 0 0 0 0 0 0 0 0 0 0 0 0 0 0 0 0
-9 -19 11 22 -10 5 34 -47 -11 10 -9 3 8 -41 -17 0 -13 17 5 16 -2 -35 5 7 9 2 -53 7 10 -6 19 -37 16 -12 -2 -24 -23 6 18 7 -28 -11 -4 14 8 -24 20 1 0 0 0 0 0 0 0 0 0 0 0 0 0 0 0 0
21 -36 0 3 -2 -10 -22 -10 4 21 2 3 -36 -15 -3 -3 -30 18 -15 0 -10 3 -10 3 -15 18 13 -11 -29 2 5 10 8 3 17 -16 -19 -22 -27 -16 10 -47 -24 21 195 42 18 40 0 0 0 0 0 0 0 0 0 0 0 0 0 0 0 0
-7 14 14 13 32 -3 38 16 -6 -11 -1 -5 -11 7 -22 -3 2 -20 23 -15 7 -1 -27 -12 -32 -4 -10 -19 -12 28 -34 26 3 31 -15 28 2 -29 20 39 25 2 -30 34 1 -17 -19 -33 0 0 0 0 0 0 0 0 0 0 0 0 0 0 0 0
24 -8 -27 19 -21 19 51 -26 35 -19 -25 14 -36 -34 -38 -24 -1 36 6 -22 17 -4 6 -7 -9 13 -53 8 14 3 -3 -41 14 -18 -5 -2 3 20 3 -27 -12 19 14 -1 9 4 3 6 0 0 0 0 0 0 0 0 0 0 0 0 0 0 0 0
21 -11 2 -14 47 13 6 20 19 -32 -51 -19 -5 -11 14 -27 -8 -32 77 -35 28 0 -19 31 -53 32 -18 21 -14 -10 -33 -15 25 63 -38 62 -9 -13 14 33 6 12 -17 18 62 -64 -10 15 0 0 0 0 0 0 0 0 0 0 0 0 0 0 0 0
22 -1 25 30 -46 -27 83 -35 25 -18 15 49 -16 -85 -61 -4 9 50 -4 21 -9 -53 33 -5 -6 33 -82 -12 17 -2 -9 -75 27 -20 -1 -6 -24 -1 13 -20 -30 -23 1 12 20 -48 -8 1 0 0 0 0 0 0 0 0 0 0 0 0 0 0 0 0
22 -26 20 41 4 -10 3 -20 0 25 0 -15 -61 -8 10 -2 -47 -11 -15 -32 -50 -13 0 23 -2 28 13 31 -10 -10 8 -1 -22 -19 12 22 -24 -13 -40 -12 0 -63 16 21 49 -23 -53 23 0 0 0 0 0 0 0 0 0 0 0 0 0 0 0 0
-11 9 -2 13 32 6 -1 -26 10 -11 -32 -26 -12 8 -3 3 -16 -35 11 16 11 -24 -3 8 -30 20 12 6 2 13 -9 8 9 30 -37 20 -26 -4 -3 11 -9 -13 -16 -13 3 6 4 -13 0 0 0 0 0 0 0 0 0 0 0 0 0 0 0 0
10 27 14 20 -15 26 48 -13 39 16 -15 29 2 -49 -44 -41 -22 31 -8 -12 4 -28 36 -3 6 -18 -55 15 37 6 1 -45 0 -8 -25 -3 -2 15 0 -3 -19 -6 14 -13 3 6 -9 4 0 0 0 0 0 0 0 0 0 0 0 0 0 0 0 0
-6 -1 22 -11 51 16 13 6 -3 -13 -45 -12 20 -5 -4 -27 20 -49 68 -44 25 -24 3 24 -35 38 -4 6 -25 34 -20 -18 15 48 -75 36 15 15 -14 9 -13 -24 -19 15 57 -8 5 13 0 0 0 0 0 0 0 0 0 0 0 0 0 0 0 0
39 -13 17 52 -45 -1 64 14 31 -41 -2 49 -16 -67 -61 8 21 60 -11 0 -14 -52 24 5 11 18 -73 -39 14 -10 -49 -64 41 -3 -9 -2 -7 2 21 -13 -31 -14 -8 -19 9 -19 -19 2 0 0 0 0 0 0 0 0 0 0 0 0 0 0 0 0
2 -48 -10 8 13 11 -16 -17 12 12 4 -2 -94 5 9 9 -60 9 -19 -30 -40 -19 -1 -8 -15 26 -10 51 -8 -2 -10 -16 -6 0 17 19 -2 -51 -31 -33 20 -37 -14 -3 93 91 -4 27 0 0 0 0 0 0 0 0 0 0 0 0 0 0 0 0
18 2 6 -23 9 6 -3 3 -19 17 -19 12 -27 -14 -28 -7 -17 -8 27 4 17 -1 -23 20 -17 33 -15 -4 -16 -7 -9 28 5 42 -22 -10 -8 20 -20 38 12 16 -8 4 -7 -10 9 -40 0 0 0 0 0 0 0 0 0 0 0 0 0 0 0 0
32 2 16 27 -35 11 32 -12 -14 29 -5 -9 -7 -9 -33 -34 -1 13 -12 21 16 -38 37 14 19 15 -24 17 22 -3 -35 -13 -5 -16 4 1 -4 12 -9 15 -58 17 20 -25 -4 4 -11 1 0 0 0 0 0 0 0 0 0 0 0 0 0 0 0 0
-2 -1 -7 -18 21 2 11 -9 -3 -7 -12 0 4 7 -10 12 19 -20 34 -23 -11 -30 -18 23 -9 29 31 7 23 -4 -28 -2 6 25 -38 -3 15 30 -7 -10 3 -20 -12 11 -6 19 21 10 0 0 0 0 0 0 0 0 0 0 0 0 0 0 0 0
5 -5 -10 32 -17 21 1 -9 1 -28 -27 17 -7 -14 -30 23 3 42 0 -14 16 -13 0 9 21 2 -56 -23 17 -11 -32 -26 23 10 -4 -18 -13 14 4 10 -29 1 -7 -18 2 4 -3 1 0 0 0 0 0 0 0 0 0 0 0 0 0 0 0 0
2 -34 -31 -14 -3 -13 -17 -17 -17 13 -18 4 -54 4 -8 12 -43 12 -14 -4 -13 10 15 -16 0 14 -3 20 -24 19 -8 -10 5 1 7 6 -19 11 3 -20 -12 -23 -37 6 101 -11 32 41 0 0 0 0 0 0 0 0 0 0 0 0 0 0 0 0
21 -9 8 16 9 8 21 2 19 14 -6 8 -20 -18 16 20 -11 -3 21 -3 22 2 -17 -3 -8 1 12 6 -27 39 -2 18 -19 42 -32 18 -13 -2 19 20 -6 -2 -6 29 19 -7 -9 8 0 0 0 0 0 0 0 0 0 0 0 0 0 0 0 0
5 0 19 -6 -17 16 25 -12 -25 11 6 23 -1 -23 -36 -22 -3 45 -7 1 18 -34 6 -12 7 20 -56 36 27 4 15 -7 20 -8 -12 23 -30 4 -15 8 -4 7 -28 -24 -22 -10 9 -19 0 0 0 0 0 0 0 0 0 0 0 0 0 0 0 0
-29 0 -8 -10 25 1 -11 -16 7 8 23 3 8 0 18 18 1 -7 -10 -22 -2 2 -9 8 23 -10 -14 1 22 -21 0 12 15 2 9 9 7 2 8 -23 3 9 2 32 -37 -13 23 10 0 0 0 0 0 0 0 0 0 0 0 0 0 0 0 0
-28 -7 8 -29 0 -4 1 -38 -30 -5 0 14 -21 -8 0 -4 7 -13 -10 0 9 14 2 -25 6 13 -8 8 -4 -12 -1 25 9 -10 5 -22 -10 9 7 -1 -30 -4 -11 11 -2 6 38 4 0 0 0 0 0 0 0 0 0 0 0 0 0 0 0 0
-5 0 5 -1 -4 13 -17 3 -2 1 7 7 -30 3 4 -12 -12 -9 -12 4 -20 9 -4 -8 -6 1 -1 -18 -24 10 -23 -16 12 10 31 -14 4 5 -33 2 -22 3 14 5 80 -48 -9 13 0 0 0 0 0 0 0 0 0 0 0 0 0 0 0 0
-1 -9 9 7 5 4 14 16 -14 6 -4 -4 23 16 13 -23 -9 -27 23 24 17 15 -29 19 -25 32 8 -10 3 23 -29 19 -9 40 -1 9 -11 10 17 4 17 -8 -22 31 23 -4 0 8 0 0 0 0 0 0 0 0 0 0 0 0 0 0 0 0
-5 -16 2 0 6 -6 17 -16 27 -6 7 20 -21 -45 -34 -37 16 41 1 -13 -5 -9 15 -23 -8 19 -59 20 9 -33 7 -6 10 -6 9 -5 2 -12 18 -3 -25 -1 -18 8 -1 16 7 -16 0 0 0 0 0 0 0 0 0 0 0 0 0 0 0 0
14 21 3 8 3 5 15 12 8 -26 -13 -16 6 -3 -4 -1 -1 -21 23 -21 26 -4 -26 25 -14 23 -1 11 12 6 -20 2 6 32 -16 37 11 14 -17 -7 2 5 -4 13 8 -22 19 19 0 0 0 0 0 0 0 0 0 0 0 0 0 0 0 0
-7 7 23 -7 -17 -19 61 -17 16 -25 -13 34 -16 -28 -19 0 -2 15 11 23 -13 -22 28 22 5 6 -72 -13 3 3 3 -34 0 -13 -2 12 -20 15 20 -13 -24 -26 -17 -7 13 13 48 -16 0 0 0 0 0 0 0 0 0 0 0 0 0 0 0 0
4 -4 2 2 -6 1 -13 -8 -10 22 -14 -4 -38 3 8 19 -26 10 -3 -21 -35 -10 7 14 -3 13 -7 3 -3 4 1 -8 4 -26 18 16 -20 -31 -15 -21 -7 -30 -12 2 101 31 66 33 0 0 0 0 0 0 0 0 0 0 0 0 0 0 0 0
-11 10 26 -13 4 17 1 2 -11 -7 -24 5 -15 10 -6 9 15 -16 24 7 14 10 -36 -10 -9 5 10 -10 -1 6 -62 -22 28 -3 -16 32 -24 -8 0 8 -10 -13 -8 2 2 -3 -8 -6 0 0 0 0 0 0 0 0 0 0 0 0 0 0 0 0
16 3 12 -1 16 15 31 -15 16 -11 0 13 -16 -8 -46 -31 -21 22 -2 -15 -11 -8 35 21 -12 0 -32 -2 -14 -25 -17 -29 30 -10 16 13 14 26 38 -23 -15 14 -14 -6 -8 -1 -13 -8 0 0 0 0 0 0 0 0 0 0 0 0 0 0 0 0
10 13 26 -2 21 -17 10 12 14 -9 -37 -20 -12 0 -20 -8 8 -12 33 -14 -7 -26 8 10 -23 -1 11 12 -9 20 -13 -13 12 29 -42 15 37 -25 -5 13 -13 -8 -6 -1 25 9 23 16 0 0 0 0 0 0 0 0 0 0 0 0 0 0 0 0
25 14 9 20 -18 -11 30 -13 -2 -20 -24 6 3 -24 -14 20 -17 48 22 10 1 -38 13 24 18 -5 -67 2 -2 -3 -7 -53 -1 0 1 11 -1 -19 2 23 -6 -27 -8 -11 8 20 15 -2 0 0 0 0 0 0 0 0 0 0 0 0 0 0 0 0
-10 -21 -24 -16 -6 5 -16 -12 13 13 -17 -2 -41 14 -18 33 -26 0 -9 -28 -33 3 19 11 6 19 -4 27 9 6 6 -13 11 0 -8 4 -12 -3 -5 -32 0 -33 -44 4 90 -26 80 40 0 0 0 0 0 0 0 0 0 0 0 0 0 0 0 0
13 -12 -12 -8 1 -3 9 -4 -11 -17 -33 0 -11 -31 -24 2 2 -5 22 17 -12 -15 1 7 7 6 31 21 -11 4 -37 -5 23 8 -31 6 -12 -9 5 26 -20 4 -4 -14 1 -13 -12 10 0 0 0 0 0 0 0 0 0 0 0 0 0 0 0 0
38 25 17 5 7 22 51 -8 -17 -11 -19 5 -26 -23 -34 -36 -17 25 -3 -8 22 -9 8 12 17 5 -14 -9 17 6 -11 -43 9 8 -13 23 11 20 3 -20 -33 4 23 -27 -6 -1 -14 2 0 0 0 0 0 0 0 0 0 0 0 0 0 0 0 0
4 -8 6 -3 7 -24 2 -10 -15 20 12 -4 -10 16 -11 -8 23 -10 8 -24 -32 -2 7 5 4 -22 7 -12 9 -11 2 -20 4 -16 -9 -10 24 0 -1 2 -6 -9 0 15 -1 6 21 8 0 0 0 0 0 0 0 0 0 0 0 0 0 0 0 0
-8 3 -16 -1 1 3 -22 -18 -39 8 -11 -25 2 2 -3 23 -3 10 0 -12 7 2 -15 -21 14 -3 -9 13 14 -9 -15 7 8 9 9 -17 8 -27 -21 32 -21 -6 8 5 5 13 3 17 0 0 0 0 0 0 0 0 0 0 0 0 0 0 0 0
23 -28 -21 2 -12 5 -23 -9 30 -11 14 -1 -33 -3 -6 5 -17 -9 6 -2 8 11 11 -8 -16 4 7 27 -13 4 -14 -13 -23 5 6 -8 3 3 0 6 3 -8 -12 -4 47 24 11 13 0 0 0 0 0 0 0 0 0 0 0 0 0 0 0 0
