20 -3 -13 3 20 -7 -14 11
9 16 3 -4 -12 10 9 10
-21 10 -6 8 4 3 -13 10
4 5 11 -12 20 -7 -10 22
-13 10 -7 -19 9 7 17 -5
6 14 -7 -10 -2 18 -11 4
1 16 -3 -11 -23 3 9 29
5 20 1 -14 20 -11 -13 -13
0 12 -23 -13 15 -8 -25 -8
7 11 9 -4 10 5 7 -9
-7 7 -5 13 -26 -2 -7 20
-12 10 0 8 14 -15 -13 7
-8 8 -1 -1 14 -14 12 -15
8 -12 -9 1 -3 -4 -1 8
-3 14 -19 24 1 27 -11 -10
-13 -16 -6 0 5 5 14 -8
-4 -16 14 0 -13 -8 5 5
-1 -5 11 5 -6 -11 -14 13
7 16 -9 11 2 10 6 7
-9 -5 -3 -1 -12 3 3 -3
8 3 22 1 -11 23 -1 -8
-1 -9 5 -7 10 0 16 -13
9 8 -16 6 15 -2 -13 -19
15 -1 2 1 -12 17 19 -7
7 -2 5 -1 -15 -3 5 10
3 -16 19 -25 -23 -11 11 3
18 -7 -4 3 11 -14 -4 17
9 -25 3 12 3 6 -19 11
12 2 8 1 -14 -1 -15 -8
10 2 5 -7 -12 -5 -4 0
0 1 -3 -22 -15 -11 17 16
-9 -12 2 17 16 -14 -9 15
-19 10 -13 13 8 -4 8 -22
10 13 7 -2 9 -10 9 -8
12 -6 22 -1 -20 3 -15 -2
-3 -3 4 4 1 -13 5 -18
-6 3 -3 -5 1 -2 3 -12
3 -9 4 -10 -5 -1 -13 -15
-5 7 5 9 21 11 6 -17
6 -1 11 2 4 -1 -12 -16
-8 -8 -5 -5 8 18 -7 -4
-21 -2 11 4 9 1 -2 -5
2 -7 6 -12 -6 20 9 -1
18 -3 8 12 13 -16 -10 1
-4 -6 4 -4 13 2 7 3
5 6 0 -7 -7 11 11 4
-19 0 8 6 28 23 -14 -31
-8 14 -1 -8 17 -8 17 9
-1 -2 3 -5 4 12 10 -9
4 -10 -1 1 -8 1 -6 4
-1 11 0 3 -2 -13 -3 -12
-4 22 5 -2 -11 -9 18 -10
-10 -9 4 7 10 -8 -18 7
-2 -12 -1 -8 7 4 -1 14
16 -7 11 -4 -8 2 -12 21
15 -6 -18 14 -16 -8 11 10
2 -14 -1 13 7 -3 -9 -2
-6 -1 -20 -15 14 5 6 -5
-8 -10 -3 12 11 3 9 13
-2 -7 -4 2 -3 16 9 -21
12 3 12 -20 11 -6 10 -3
7 -3 -2 9 15 8 18 -13
-14 -3 4 10 33 18 -4 -30
9 2 10 -14 -18 16 6 5
-15 13 -21 -7 -15 -16 -17 -2
9 8 2 -12 -6 6 11 -14
12 2 -15 18 2 -11 -17 -8
16 -18 -15 -20 1 -1 -9 13
8 25 -8 17 -3 -12 16 8
-19 3 -16 -26 -2 -16 -15 11
16 -17 -18 4 17 7 -37 -13
-16 4 4 -1 4 -11 -3 5
