-10 10 -12 -8 3 -12 -7 -6 -3 -5 7 0 -2 15 3 13
9 -5 -2 -16 9 3 -6 -11 -12 2 7 11 -4 7 -19 4
-8 10 -11 8 -2 3 3 2 -3 12 5 -7 -11 -20 -12 -6
-6 -1 1 9 -4 10 0 8 -6 4 -2 2 11 25 -17 -9
-27 7 -12 -6 -7 12 -3 18 -1 11 -19 9 25 -15 -10 -7
5 -3 3 -11 4 3 -11 -14 -20 -9 -6 -3 5 -3 14 -11
-1 12 -5 11 11 4 -7 5 -14 2 9 0 -2 -5 12 7
0 -1 5 6 -12 1 -8 12 -8 -1 -17 -5 0 10 -5 0
8 -5 -3 -1 4 5 -9 -11 -11 -12 0 -25 -2 -1 -7 -7
-17 13 -1 -4 -6 -12 -5 -2 -9 5 7 3 5 -5 -6 6
-8 4 -4 14 -3 2 4 15 12 -7 -9 -9 19 3 -16 -5
0 0 0 0 0 0 0 0 0 0 0 0 0 0 0 0
0 0 0 0 0 0 0 0 0 0 0 0 0 0 0 0
0 0 0 0 0 0 0 0 0 0 0 0 0 0 0 0
0 0 0 0 0 0 0 0 0 0 0 0 0 0 0 0
0 0 0 0 0 0 0 0 0 0 0 0 0 0 0 0
-27 5 3 2 13 12 -12 7 -6 -8 -7 16 3 18 10 4
6 23 10 0 17 7 20 2 -2 11 1 5 0 -9 -20 -9
-5 -2 -4 -8 9 3 3 -8 -7 14 -4 1 -4 10 -1 -4
-2 21 3 8 -11 -6 11 14 -5 -10 28 14 11 -2 10 -5
-2 -18 -6 0 -19 -1 11 -1 -21 -4 7 -5 16 8 9 -3
14 4 14 -1 -17 -8 -14 -2 -7 -8 -17 -6 -10 -17 18 4
8 22 7 -1 13 11 9 1 -10 5 11 -5 -7 12 -12 3
-11 -14 -2 -7 -5 11 7 4 -11 7 -20 -7 15 3 9 -17
9 -8 -11 -5 7 5 12 4 -6 -2 7 -11 -12 10 -11 -8
-13 -9 -8 8 11 0 9 3 12 3 2 10 10 19 -12 -5
20 4 20 1 -22 0 -5 -5 0 11 7 -4 10 -2 -17 -3
0 0 0 0 0 0 0 0 0 0 0 0 0 0 0 0
0 0 0 0 0 0 0 0 0 0 0 0 0 0 0 0
0 0 0 0 0 0 0 0 0 0 0 0 0 0 0 0
0 0 0 0 0 0 0 0 0 0 0 0 0 0 0 0
0 0 0 0 0 0 0 0 0 0 0 0 0 0 0 0
-11 -23 3 6 -2 11 -4 -8 -4 0 -9 7 -25 -7 -2 -7
19 12 -5 2 17 -5 -9 18 -7 -24 -15 -1 3 -5 1 -10
-4 -8 -6 -8 -12 7 0 -11 -20 8 -2 -9 8 -10 -6 -12
-10 -7 2 -10 -2 -16 -6 -9 2 7 -3 0 7 6 2 3
-19 -5 16 7 0 15 15 -14 0 4 -9 -16 3 -11 11 9
16 12 -9 4 -10 -10 -24 -2 12 -3 -28 3 32 -8 29 -1
5 -1 -2 15 13 -3 6 1 -1 -12 -6 -7 -10 -7 8 -5
-4 -19 9 6 -21 -5 -2 5 -14 8 2 -3 2 -7 0 -15
-16 -1 9 2 11 5 3 6 11 -3 1 -6 6 -1 -14 8
-4 10 7 -1 5 6 -3 -8 0 -13 1 -10 -10 -11 -9 -6
2 7 13 2 -15 3 7 4 17 4 3 6 8 12 -18 6
0 0 0 0 0 0 0 0 0 0 0 0 0 0 0 0
0 0 0 0 0 0 0 0 0 0 0 0 0 0 0 0
0 0 0 0 0 0 0 0 0 0 0 0 0 0 0 0
0 0 0 0 0 0 0 0 0 0 0 0 0 0 0 0
0 0 0 0 0 0 0 0 0 0 0 0 0 0 0 0
-21 9 1 9 -4 -2 -8 0 -8 3 11 2 7 -10 -17 -2
0 -6 -7 0 -6 19 -10 5 -8 11 -3 15 -14 11 9 -7
-16 9 -4 -9 0 -13 -3 -14 -1 9 5 22 31 -3 1 -25
-9 -28 -3 3 -12 -8 7 5 -1 -16 -18 20 -35 -13 -31 3
-18 5 -6 -1 -2 -6 -17 -13 10 4 12 11 8 10 -29 -11
-15 11 11 -19 1 18 13 9 0 11 -25 8 3 5 -3 7
-21 0 1 -9 12 6 -10 -4 -4 11 -11 27 2 -14 3 1
-1 17 -3 3 -7 -12 -4 -13 -14 -8 -23 -8 16 -6 11 -12
5 -2 -3 -4 -18 -10 -8 2 -13 -10 1 15 30 -3 -6 2
-5 -9 4 10 -13 -5 0 0 0 15 17 3 22 18 19 -7
5 -14 -3 -6 13 21 2 4 0 -9 -18 9 -19 -1 -1 -3
0 0 0 0 0 0 0 0 0 0 0 0 0 0 0 0
0 0 0 0 0 0 0 0 0 0 0 0 0 0 0 0
0 0 0 0 0 0 0 0 0 0 0 0 0 0 0 0
0 0 0 0 0 0 0 0 0 0 0 0 0 0 0 0
0 0 0 0 0 0 0 0 0 0 0 0 0 0 0 0
4 5 11 16 22 -2 -8 7 -10 12 -21 -5 22 -29 -4 5
-19 -5 11 -9 5 19 -10 -14 19 18 9 -3 6 15 8 -16
-6 23 -18 -19 5 2 -30 -37 10 10 -2 34 39 12 4 -34
26 -27 21 -18 -7 9 20 1 17 -14 32 8 -35 -23 -35 3
8 -9 5 4 -13 6 -6 -8 -10 -19 1 10 -8 19 -17 -10
-26 -17 -9 2 21 13 11 3 -11 3 -12 19 -10 16 -14 17
-2 3 13 -4 -1 5 -1 -20 -3 21 -8 8 -9 -22 8 -10
10 7 13 0 -19 1 -1 -4 -2 -12 -25 -36 2 -21 5 0
-15 -2 -10 -23 -6 25 -7 -18 -34 23 -4 8 8 23 7 -27
-17 -15 -1 -11 6 11 7 9 -13 19 0 19 15 19 22 -29
30 -36 23 -13 -14 -3 11 -10 -2 -10 15 3 -26 -12 -33 21
0 0 0 0 0 0 0 0 0 0 0 0 0 0 0 0
0 0 0 0 0 0 0 0 0 0 0 0 0 0 0 0
0 0 0 0 0 0 0 0 0 0 0 0 0 0 0 0
0 0 0 0 0 0 0 0 0 0 0 0 0 0 0 0
0 0 0 0 0 0 0 0 0 0 0 0 0 0 0 0
-4 -5 -15 2 11 -12 4 16 -24 -7 -24 -1 -33 -25 -33 -5
0 1 1 -25 -13 -7 -16 14 11 9 2 -5 2 -17 20 -5
-3 -19 -20 -11 -24 10 -16 -21 -6 9 -13 44 -7 1 17 -6
6 -28 17 -18 -15 8 8 -13 13 -25 7 2 17 -9 -21 7
-8 -14 17 23 11 15 -7 -12 -10 -16 7 -5 -37 19 -16 -6
-24 31 0 1 29 10 14 2 10 0 16 -4 26 9 6 -15
-12 7 2 9 -9 10 4 2 16 7 7 14 -6 -5 24 7
-10 7 3 -11 -2 -7 -19 -14 2 -2 10 -18 19 -9 14 -5
-9 7 -6 8 -9 28 12 -21 0 5 3 2 -15 -9 16 -17
13 -14 -19 -2 -4 10 9 -4 -7 4 -11 14 -18 -2 18 -7
-9 -28 6 -5 1 -3 13 -14 26 -15 33 16 30 -5 -47 4
0 0 0 0 0 0 0 0 0 0 0 0 0 0 0 0
0 0 0 0 0 0 0 0 0 0 0 0 0 0 0 0
0 0 0 0 0 0 0 0 0 0 0 0 0 0 0 0
0 0 0 0 0 0 0 0 0 0 0 0 0 0 0 0
0 0 0 0 0 0 0 0 0 0 0 0 0 0 0 0
-10 -11 -4 4 5 1 -1 12 -9 -3 -23 44 -3 9 -4 0
-14 -16 17 -11 -3 10 -9 13 -6 -2 -3 6 0 12 -18 0
-8 -10 -5 8 0 -17 2 5 -10 -1 19 -15 -4 -18 -2 2
-1 10 0 -3 -7 15 14 10 5 6 -6 -4 -6 2 -18 -7
5 6 -15 17 -3 -16 1 -11 -3 1 4 -20 -6 -6 1 11
5 -3 9 9 -16 -6 -12 -11 9 -4 -2 0 15 -8 -3 -1
-13 -16 -7 3 0 -3 -15 -1 -6 -7 -14 4 18 0 -15 -12
0 6 -3 6 18 3 2 -8 -18 -8 -28 -1 -4 7 14 9
4 2 19 8 -1 -20 -25 -6 -13 4 17 -2 -5 -14 -13 -3
6 -5 14 -10 -5 -24 -11 -9 4 2 22 19 5 3 -5 2
10 4 -5 3 9 19 10 1 -2 -9 -1 -3 5 -13 -18 -3
0 0 0 0 0 0 0 0 0 0 0 0 0 0 0 0
0 0 0 0 0 0 0 0 0 0 0 0 0 0 0 0
0 0 0 0 0 0 0 0 0 0 0 0 0 0 0 0
0 0 0 0 0 0 0 0 0 0 0 0 0 0 0 0
0 0 0 0 0 0 0 0 0 0 0 0 0 0 0 0
-20 -17 3 -3 -1 1 8 4 5 -12 -3 40 11 11 -8 -9
-27 -12 4 -29 -19 -11 17 9 25 3 -12 3 2 29 6 0
-1 25 -21 2 3 4 -9 -15 20 11 29 -15 -3 -20 -11 -11
6 -5 3 -11 -11 15 28 -7 5 -7 36 20 3 -11 -17 3
7 10 11 15 -12 -4 19 -10 -11 9 -9 -16 -6 2 1 4
3 -25 5 0 -14 -7 -10 -15 -3 -9 -14 -8 3 -12 6 -1
-2 -11 -4 -4 -14 3 18 5 3 16 -9 -8 21 -2 -6 -5
5 3 21 -6 25 13 -10 -4 -20 -1 0 -13 19 16 4 10
-4 5 -5 -15 -16 0 -2 -22 8 12 -3 -16 -12 -22 -17 -18
12 -1 5 -14 -9 -8 -6 -8 10 9 -5 -13 -18 -28 8 1
15 -31 11 13 5 -6 7 2 -16 -9 16 2 13 -10 -16 15
0 0 0 0 0 0 0 0 0 0 0 0 0 0 0 0
0 0 0 0 0 0 0 0 0 0 0 0 0 0 0 0
0 0 0 0 0 0 0 0 0 0 0 0 0 0 0 0
0 0 0 0 0 0 0 0 0 0 0 0 0 0 0 0
0 0 0 0 0 0 0 0 0 0 0 0 0 0 0 0
-12 -4 6 9 -10 16 7 15 -2 -16 -22 46 19 -10 -9 -24
-10 -26 -8 -19 -23 -12 -7 4 10 -5 -8 -16 -14 19 -3 13
9 -9 -8 -3 1 -6 -22 -5 -5 6 14 -12 -32 -25 -17 13
12 -13 7 -11 -10 6 -12 -7 -11 1 -5 10 22 -24 -17 -3
-19 2 15 7 13 -11 27 -8 -3 10 -13 5 3 -1 2 -6
27 -5 -11 -13 -5 6 -15 -1 -7 -8 -12 7 3 -26 17 -2
13 3 -6 6 -10 -16 -6 8 3 1 -1 -5 -9 6 1 -5
0 -18 13 5 8 10 -3 -16 -16 -5 -15 -7 9 19 27 7
7 21 3 3 -4 -17 6 -17 11 -3 17 -7 -11 -6 -16 8
14 -3 4 3 -6 4 -3 -2 0 3 0 -1 -15 -2 6 -7
-11 9 11 8 -18 11 -7 -2 -11 -5 30 -2 23 -1 -19 -13
0 0 0 0 0 0 0 0 0 0 0 0 0 0 0 0
0 0 0 0 0 0 0 0 0 0 0 0 0 0 0 0
0 0 0 0 0 0 0 0 0 0 0 0 0 0 0 0
0 0 0 0 0 0 0 0 0 0 0 0 0 0 0 0
0 0 0 0 0 0 0 0 0 0 0 0 0 0 0 0
