-38 -3 0 -25 40 -18 2 22
1 -10 29 21 4 21 39 -11
-12 -18 -29 2 28 25 6 7
-2 10 0 -24 12 0 11 -4
-32 -3 3 -8 -13 7 26 -15
-5 14 33 -9 -38 26 26 -26
6 -21 -9 11 18 -5 6 5
-24 -13 11 9 5 -14 -2 -1
-3 -6 -11 -64 13 3 -9 11
-16 34 15 -30 -29 -4 -4 -26
-19 -7 -20 -13 -18 50 28 -33
-5 -11 7 -22 40 40 -12 16
-13 -12 4 7 9 -6 -9 9
16 -8 14 34 -10 -12 -8 2
18 13 19 21 8 -36 33 8
19 -21 13 -11 20 -3 -21 18
-35 -8 -10 -53 25 11 14 7
20 40 14 -24 -19 35 14 -7
6 34 5 -8 -45 7 -15 27
23 -25 16 -13 -4 6 -17 -21
23 16 22 -37 5 10 9 -27
-23 -22 45 -16 -9 32 38 -32
-23 -16 35 -10 -26 8 5 -31
19 -13 -14 6 15 2 -29 -36
-27 -24 30 -14 -1 -15 3 1
-1 31 19 15 -12 -12 -33 -22
-6 2 21 -4 26 23 -2 -28
34 -27 6 -32 -6 -11 -6 -25
-30 -1 1 1 22 9 -44 -28
-6 -10 31 23 14 -14 6 -38
17 32 -20 -12 -26 -12 -18 33
-14 -11 14 10 -1 -4 7 7
-6 -18 -18 -57 34 -3 13 -15
-36 -7 -31 6 -23 8 -19 5
-26 6 -21 -17 17 22 -7 -10
9 -9 13 -10 26 11 6 -16
-40 -28 -6 -46 -14 -13 -24 -2
-30 -24 3 9 -25 9 -72 -72
-22 62 16 -10 0 -29 -72 22
-5 -5 -23 17 12 -9 -33 20
-3 -6 18 -45 0 6 46 3
1 -6 31 9 -14 13 54 -23
20 -6 11 -29 -15 4 10 9
21 -16 -6 -18 -16 3 -49 -22
-15 -7 -16 -21 29 28 -4 2
-31 -20 -7 37 1 0 25 -41
-19 -32 -13 4 -14 11 -2 -7
13 -17 5 -12 1 -43 -13 4
8 -8 -30 -18 -17 -21 4 -19
-12 18 -3 -30 -10 25 50 -14
15 3 1 -7 20 12 -19 -5
-1 3 -16 -40 -14 10 -52 26
-12 -24 36 -42 5 18 24 25
0 11 38 -2 -9 -15 51 -12
-7 -12 3 9 2 11 5 -6
-9 -14 -25 -15 10 -6 -37 19
12 -33 10 -35 25 27 -6 -7
-2 25 19 -3 -30 12 -4 -29
-15 36 -9 -14 -14 5 32 3
14 0 29 -36 49 19 2 -1
11 -25 -32 -5 24 1 -4 13
0 -25 -1 26 -29 -2 -26 -23
7 27 16 37 14 -26 4 -6
-14 8 -2 13 -26 -29 2 -22
-42 36 -4 -23 17 -18 0 13
-8 16 -12 -26 20 -3 25 8
-9 8 -17 3 -23 11 33 -14
7 -33 16 -59 9 33 -55 -13
-27 29 9 -30 0 41 26 -4
-24 -42 25 6 -6 34 56 -40
11 -51 -16 -25 27 46 11 -28
39 -20 8 -5 -6 -2 -10 15
