25 -7 5 0 -8 -10 17 -2 3 -19 -11 -10 -12 4 -25 -3
-1 -24 0 -20 11 -1 -21 12 0 -7 -10 14 -9 17 8 3
16 -7 1 11 -1 -24 7 20 -9 13 9 -26 4 9 -3 -9
22 5 5 9 4 -9 -7 5 5 4 -8 -23 2 35 0 19
39 1 -24 -12 7 -2 -1 -6 -1 9 14 3 -12 18 -1 -12
9 -8 23 -11 -5 -8 -2 6 -2 -4 -8 -7 1 10 -2 -27
-2 6 12 10 -17 17 6 -11 -9 -13 13 -38 0 1 -8 11
-6 9 8 -8 -3 17 2 2 -5 -10 11 -3 3 -4 0 -5
-5 7 11 7 -3 -13 5 5 10 -30 -1 2 5 -12 -2 -6
2 -1 -11 -4 22 9 -7 7 -16 -4 -5 -12 7 17 7 11
12 10 7 -29 15 17 2 -10 5 22 10 15 2 9 19 6
-9 0 -14 -19 -1 5 -5 13 6 4 15 -36 -7 -9 -6 -15
-9 10 -6 6 15 -23 3 -4 -10 18 -4 25 3 16 -2 3
2 -1 9 22 -8 -14 -2 8 -14 8 5 -22 2 -13 6 6
-40 3 -17 1 -9 -2 -16 2 -14 14 10 0 19 4 8 -10
7 -11 21 -29 18 9 -17 5 7 4 -8 -3 13 18 22 -3
18 -3 9 15 -8 -12 3 10 11 -11 -23 -7 -16 -21 0 -4
12 3 26 -12 -6 -4 6 1 -4 -4 -3 8 16 -16 -6 -14
-18 -2 -16 3 -7 -9 10 9 4 4 -1 2 -6 16 -8 -21
-1 -27 1 -14 7 -32 2 9 7 -9 -7 -9 -21 -3 4 9
29 0 0 0 17 5 -5 -17 4 6 7 20 -9 15 5 -15
21 -11 17 -30 5 -2 6 17 -4 9 -12 8 -15 -8 14 -12
-2 -3 -6 -11 -15 11 -2 1 4 -6 8 -39 3 -23 -17 -7
-11 15 3 6 -11 -5 16 -3 9 4 -15 14 16 16 -8 3
-3 13 7 9 -5 -2 -2 21 12 -34 11 1 -12 -5 -13 15
3 11 3 7 -8 -22 8 -9 12 -7 10 -13 -2 6 -9 -9
1 -14 22 -35 12 34 -17 -12 -18 11 1 6 -6 -12 9 14
-16 1 4 -18 -11 10 19 -7 9 -27 16 -44 4 -34 -11 2
2 -17 12 -2 7 7 -1 -17 8 4 -6 -1 -8 11 4 1
-3 -1 -11 35 -20 -10 3 1 3 4 21 -34 0 -13 9 10
-15 9 -3 -18 1 -2 -18 10 -3 4 10 10 13 24 4 -7
10 3 3 6 11 17 6 12 -10 -13 1 3 -3 -2 -3 11
8 -9 9 -7 13 -27 17 12 12 -30 -5 -25 -11 -21 -6 -7
-11 24 -10 9 -13 -4 5 -13 -9 2 10 -12 -10 -4 -2 -5
-20 12 -3 -13 8 -15 -8 39 -13 4 0 -20 14 13 -4 -34
-12 -6 -13 -13 4 -14 11 1 -12 6 -14 1 -2 11 7 13
24 0 8 -5 -3 -13 13 1 -23 -3 8 4 -4 9 -8 -17
16 -1 19 -5 -1 -7 14 0 3 -13 -8 1 -12 -11 9 -34
-2 -22 16 -3 -13 6 2 2 1 -10 -10 -4 19 -8 -16 12
-19 -15 8 5 -9 -10 -3 -6 16 8 -9 -7 7 12 11 -2
-3 8 0 17 -5 1 7 8 -5 -9 -2 -15 12 -6 -14 4
23 -10 -1 5 16 -14 -1 6 -5 -9 -8 -3 -7 5 12 -11
-25 -10 1 -18 -6 6 -9 -6 4 10 -6 -6 -4 -21 9 10
-7 12 4 -27 4 -4 16 14 5 -5 30 -67 15 -25 -3 11
14 -9 15 19 -6 -20 -7 -16 7 -14 -13 -11 10 34 11 1
-2 7 3 21 -16 -34 -8 -15 -1 5 29 -23 11 -28 -10 -12
14 3 19 -4 -9 3 -12 -12 -7 0 23 4 10 -11 -11 -6
-25 12 -4 16 5 -10 -6 0 -39 11 14 -2 0 -10 -6 -9
27 3 9 9 -1 11 16 4 -9 -3 -5 -23 8 5 -1 4
13 -35 15 -9 24 12 -6 -5 0 5 -19 -4 -4 -6 12 4
-15 -14 6 -8 -3 -15 0 -4 -7 12 12 -31 -2 18 -1 4
4 13 -10 14 7 -9 -14 2 -17 7 -2 -1 -1 15 -1 4
19 3 13 -37 11 2 17 -19 -15 11 4 5 -10 -24 13 -15
8 -10 6 2 17 15 6 -17 9 17 0 -15 -1 8 -2 -21
-8 6 -5 20 -4 8 0 -8 -20 18 2 -30 -7 -18 -6 6
-10 14 -1 -13 -5 -11 1 12 -3 6 -14 7 -2 -15 -25 -4
14 -3 19 -7 2 -9 -4 10 15 6 -13 14 -9 5 11 1
-24 5 -7 17 13 -2 -23 -12 -5 -5 3 -7 -7 -1 16 7
-19 9 17 -18 5 13 3 -7 15 -12 3 8 4 11 1 -15
-19 -9 1 -26 11 7 7 -6 23 23 -9 -63 -7 -7 10 21
29 10 19 8 20 12 -3 -10 5 -11 -8 5 4 6 2 -10
-1 -12 22 14 -9 -21 -10 1 -19 -3 -15 -4 -10 8 6 8
-30 27 5 -13 6 1 -23 -4 -5 4 -9 26 27 1 20 6
37 -41 30 -43 9 0 -16 9 -7 1 -8 -3 -20 -10 11 12
-8 1 8 12 -4 25 -8 -11 -1 -7 -2 -8 0 16 6 -3
16 16 3 14 0 -17 -4 -5 -28 0 -13 9 1 -2 -14 15
-26 -9 -11 -28 -15 36 -9 -3 11 4 28 -21 1 -3 4 -15
-28 6 -25 15 -12 -42 15 -29 5 -5 16 2 -25 -4 -25 -12
-31 -19 10 -36 2 22 -2 -10 -4 -8 6 30 11 -1 6 -32
10 -21 17 8 -1 1 -12 -21 -9 9 -18 -8 -5 -40 -2 -20
-30 22 -31 40 -9 12 5 -4 -7 -3 2 -44 10 -11 -17 4
4 21 13 -5 -17 -7 5 35 8 1 -12 -12 -1 36 -15 -5
-23 -4 12 4 -15 26 13 -1 -12 6 -9 3 9 11 -1 10
-4 37 -18 0 -2 -29 5 -3 -9 11 7 -12 0 14 0 -20
-3 17 19 -40 -1 18 -10 8 0 -14 -4 18 -7 -7 3 -28
-12 -11 10 -26 -1 11 13 -15 25 -17 2 -79 -8 4 7 23
61 0 40 1 7 16 -8 11 25 -12 -13 -12 -17 -2 15 -2
-42 25 -12 2 -1 -23 -1 34 6 15 19 -1 24 53 11 -12
-6 12 17 1 26 -17 -20 2 -16 -24 -7 24 12 -24 18 -2
9 -16 -8 -8 -9 14 16 2 -14 10 -16 11 -6 -25 0 16
-4 9 2 17 4 19 4 14 9 -8 5 -23 -11 15 -3 5
-6 28 -28 5 -6 -13 9 10 6 -6 7 6 6 30 -19 -5
-37 0 -16 -19 -10 24 3 -10 -14 -2 25 -23 -3 -8 10 -9
-10 17 -6 11 4 -42 19 -5 -17 21 16 -16 11 32 -16 -9
-12 -14 28 -19 9 0 16 -19 13 1 20 26 2 -31 21 -33
-2 -5 -5 3 5 -2 -6 -15 -3 9 -31 -19 -1 -10 8 -24
0 -2 13 14 1 16 5 -9 21 -8 25 -29 -3 -7 -12 -2
12 -30 40 4 6 17 -3 20 21 7 -7 1 -4 5 1 6
-37 28 15 11 -10 -1 6 6 14 -16 1 13 17 9 13 -12
-2 12 -11 12 2 -19 -2 -2 -11 1 8 -3 -2 -11 -18 -25
13 17 -4 -30 -9 -24 1 -14 1 6 -3 6 -1 -22 -12 -1
-3 3 7 -42 -7 -9 16 6 24 -13 1 -93 11 -3 5 17
42 -21 37 10 5 -1 -9 -1 8 -35 -13 -31 0 -19 8 3
-36 2 -7 4 -10 -34 -6 45 18 36 11 11 38 34 2 -31
16 -3 12 6 6 -35 -14 -2 -16 -4 7 13 -11 -22 1 -3
-24 32 -51 -6 -3 5 7 18 -44 12 -3 -2 23 0 -23 -18
-9 17 11 -13 -7 5 7 13 13 -14 -2 -14 21 -10 7 18
-13 -17 21 -13 11 11 -14 -7 -14 13 19 -11 -8 9 9 15
11 -8 -13 -30 -11 -10 -9 -5 -9 -3 18 -20 5 -11 -3 1
30 16 14 4 -8 1 -2 1 -4 0 13 1 3 -7 -10 32
3 0 1 -2 -7 3 1 -8 -8 3 12 9 4 -12 14 -8
-4 0 1 -5 -6 -6 2 -14 7 11 -22 0 -8 7 18 -15
-1 -7 24 9 10 10 7 20 -19 -15 -15 2 -22 4 10 23
23 9 13 -9 2 -25 -5 1 14 7 9 -1 -5 1 -13 12
22 -14 35 -3 2 -9 -4 0 2 4 8 7 -4 -16 0 -17
-4 -9 7 -7 2 0 -11 3 -11 0 6 -1 -9 7 -1 -11
-1 11 -16 -30 -4 -16 -8 5 -1 -3 -3 4 10 -7 -5 -7
-13 -6 -5 -33 15 18 -13 -5 5 6 -2 -48 3 -3 -3 13
-10 18 -4 6 20 -9 7 8 11 3 1 -5 18 11 2 -2
-5 -8 31 22 -13 -27 3 17 -1 -1 18 -12 -1 -6 0 19
-9 12 1 7 -8 14 -9 8 20 -16 -21 4 30 33 -11 -13
20 -10 0 -7 20 -3 -9 -13 -5 2 -20 -2 -4 -11 7 21
21 -5 25 6 12 9 -12 9 18 -3 -1 5 15 4 5 15
-14 -1 26 4 -3 6 -4 11 10 -2 5 1 13 -2 10 7
-12 -20 -25 -29 -17 16 -21 -8 -2 3 38 2 1 -9 -2 -7
-31 13 -2 -3 -8 -17 -2 -22 14 5 1 14 -3 52 -8 -1
20 3 -6 -15 4 2 10 -7 -2 14 0 11 14 -34 8 -13
-3 11 -8 -4 12 -28 -21 -21 3 8 2 -15 4 2 20 -17
-16 -10 -9 0 -9 -16 -1 22 -11 -13 -37 12 4 37 -1 23
36 -8 14 7 -9 -9 16 -22 12 15 -18 4 -6 34 -6 2
23 -21 11 -21 6 2 -7 -13 -18 2 -10 -6 5 -11 23 -16
15 1 -2 -2 -25 -13 -6 2 -14 11 12 1 -2 -8 -23 -2
25 8 -7 -34 9 -10 0 11 5 -7 -1 19 -8 -1 5 -8
-10 1 0 -32 -12 19 5 -27 9 -14 -26 -60 7 4 -3 34
-4 8 6 9 1 21 -24 -7 10 -3 8 -5 -1 16 15 -10
-3 -4 10 26 -6 -3 13 62 -21 -3 18 -23 2 -2 18 0
9 14 20 10 -3 7 -24 11 -7 -20 -3 6 1 -4 -12 4
-6 7 -11 11 8 21 4 -16 -5 8 -23 0 -28 -39 -9 6
11 10 1 -5 4 20 -12 20 -8 -17 -21 -10 9 -11 -8 15
2 10 4 0 -9 -1 17 14 -4 7 -6 5 6 15 5 4
-18 -20 -14 -18 -13 4 0 -20 -7 -3 33 -13 -4 -23 4 3
1 10 34 -31 18 -19 -2 -17 5 35 29 7 9 -3 11 10
9 1 -5 -12 11 0 23 5 2 -9 2 22 9 -52 -2 -18
4 5 0 -29 3 -32 -16 -15 -7 2 -19 -7 -8 3 6 -13
4 -5 6 -5 -4 -26 -11 18 -19 -12 -19 5 7 20 15 24
12 -25 18 9 3 17 -3 -8 22 13 -7 -13 -10 14 18 21
35 -9 2 -11 -3 2 -10 -1 -13 -19 1 10 8 0 10 -24
1 0 -1 4 -7 -3 3 11 -24 8 -9 11 2 16 -5 -26
-2 17 -14 -16 -17 -23 -3 18 1 -12 -18 15 12 -6 -2 -20
-17 -9 13 -44 -10 -5 -5 4 22 -15 -8 -68 6 2 5 27
-2 -1 -1 34 -1 -20 -8 -14 13 -20 -17 -9 5 6 12 -12
-19 0 1 25 -1 27 5 57 -6 12 14 -10 15 -14 -3 -5
9 4 -9 -4 4 -25 1 -7 14 -5 1 11 -7 20 -4 -5
-3 29 -27 -6 11 -30 8 30 -17 17 -20 4 11 6 -30 1
