12 -4 -12 -13 10 -8 7 17 -4 -12 2 -6 -13 -24 13 -31
6 -3 19 19 -11 19 16 -2 -9 -9 -5 15 17 12 13 -26
9 -21 -7 -7 -14 12 -4 -7 -3 21 -9 9 -4 1 -11 21
2 23 21 22 8 12 -2 -15 16 7 2 -16 -11 13 22 6
-24 -8 1 -2 10 22 -14 -16 -7 9 16 5 -18 12 -1 33
18 -4 -3 -7 -12 -7 -19 21 -4 -19 -10 6 1 -6 1 15
15 6 18 5 12 8 -21 -8 3 8 4 -2 -1 -5 -9 -24
0 -15 3 26 3 -12 -16 18 -3 -9 0 14 3 0 3 8
8 -11 0 -1 -11 14 12 -4 -5 8 -9 -21 -6 10 -8 -6
-3 -20 -7 -1 2 6 19 19 -4 13 -20 -5 -15 -6 0 2
-30 -16 -2 13 3 -7 7 -50 -13 1 -16 -9 0 -6 -2 -19
-26 -13 7 8 4 -2 -8 6 -3 -9 13 -2 -8 -5 3 -13
-8 -2 -11 -16 10 13 3 5 9 5 9 -11 -1 17 -14 20
1 -18 4 22 -5 4 -6 28 0 2 13 -5 0 14 2 27
9 14 21 -11 10 20 -14 10 5 -2 -20 9 -20 -11 -3 16
-7 -10 -18 -13 23 11 11 -16 17 13 -20 10 -26 9 -10 -2
-1 -14 4 -24 7 2 0 -7 3 -5 -16 7 -12 0 0 -5
5 1 10 7 -15 25 25 11 -13 9 -3 8 8 -6 -6 0
9 -13 -10 2 -23 11 18 -11 -7 13 5 -1 1 5 -10 9
-26 5 6 13 15 3 -15 1 -21 5 6 -1 -17 9 6 0
-27 -5 1 -15 10 5 0 3 -15 14 9 1 -11 19 14 -15
4 -15 4 12 -22 12 -36 5 -14 2 -7 7 -4 -6 13 -15
-1 0 18 -1 19 2 -5 2 0 -3 7 -2 -12 -33 -11 12
6 -2 -1 28 -4 6 -6 18 -4 2 -6 -1 7 5 11 6
9 0 -8 13 18 3 4 -9 17 -3 -14 -3 -7 2 -3 -9
-1 3 12 -12 12 -10 23 -3 21 -7 -12 -11 -1 -14 -14 2
-31 -13 -2 -3 5 -20 -17 -16 -35 -8 14 -18 11 -4 -1 -22
7 20 0 -10 25 -1 -3 23 8 6 -10 -6 -6 -5 -18 -10
-10 -1 5 14 3 -1 11 -6 25 -11 12 -16 -14 0 -2 -9
0 -1 2 -8 -12 3 -4 18 17 16 3 0 -9 -6 10 -11
15 5 31 8 -8 21 0 -3 3 -4 -1 3 -4 -4 5 9
-11 4 -22 20 9 -7 -7 -6 -1 23 -6 12 -32 -2 -10 9
6 1 -3 -13 -1 6 13 6 8 4 0 17 -26 -2 3 10
-11 12 29 3 1 19 11 20 -5 10 -1 -9 -1 4 7 -2
-10 17 -11 -3 -10 9 0 -2 -13 10 -4 12 13 -1 -2 -2
-36 -38 5 8 28 11 -15 0 -25 6 12 -15 -2 5 22 26
-12 -12 11 -5 13 19 2 10 -2 -19 11 16 0 21 -3 -32
18 1 -24 -19 20 4 2 -13 11 -18 -10 -6 -7 11 10 10
-1 9 41 5 20 3 -3 -7 -5 -11 -14 -10 14 -19 -8 2
23 -40 -13 -16 0 7 -5 6 -3 -5 -24 -4 -7 17 -3 22
13 0 -7 -9 7 5 19 -12 -3 4 -13 -8 2 8 14 -13
4 -9 27 4 8 12 14 -2 -1 5 -4 10 -22 0 -3 -2
-22 -3 4 -1 20 -13 15 -20 -5 -18 -6 -10 1 14 -8 -21
1 20 6 -14 6 -2 -6 1 1 7 13 3 1 -7 -8 6
8 15 4 5 13 13 13 12 18 -1 23 -19 5 -3 -17 -36
18 -1 30 -3 4 3 -16 -8 -7 6 14 -5 4 -19 10 1
18 21 28 24 16 20 1 10 -29 -10 -2 4 9 -32 -9 3
-2 -18 -33 -9 14 13 -7 -17 8 6 -12 -4 -23 12 11 -25
6 3 7 13 23 -15 -14 5 9 -11 -1 5 -14 -31 -11 -77
5 -17 3 -8 -10 24 14 -2 1 11 1 -2 -3 19 7 -14
2 -17 9 -3 -33 1 -2 8 -13 3 -9 -3 7 21 9 47
12 18 13 -2 -6 0 3 8 27 3 5 23 10 12 1 -12
31 2 -36 18 -1 10 0 -3 -3 6 13 9 4 29 16 -9
-21 17 2 22 -30 20 -17 -9 0 -17 -10 19 -13 -9 -23 -14
-3 10 -11 27 -4 -5 -22 12 -15 -14 10 -10 10 -15 3 0
-20 -9 16 36 11 -8 8 3 -1 18 8 27 0 10 9 18
3 -14 -6 0 17 13 7 7 5 16 -22 -26 -6 21 19 -6
-21 -31 -21 -19 8 -6 -2 6 8 -9 -11 -7 2 5 21 18
13 35 9 23 9 -10 13 -21 6 -7 26 15 2 11 16 -3
3 -25 9 13 10 -4 15 -8 -3 -6 -8 16 -7 -11 5 15
9 -16 -11 11 25 16 -23 -8 -7 10 -1 -18 -23 -2 6 33
12 -6 8 7 6 -8 4 30 12 5 -4 13 -4 10 -16 -3
19 27 0 -36 24 -18 -11 36 15 4 -16 9 -23 14 -39 -2
21 6 15 1 16 1 -3 3 2 3 -9 30 -13 2 -16 29
-2 13 -13 17 9 6 -16 -7 1 0 -2 6 5 -11 -12 -21
-1 -3 16 -1 2 12 21 -24 -21 11 -9 6 15 6 15 -18
10 7 -2 1 -23 -1 8 -7 -2 14 -12 -10 -4 7 10 25
22 -1 1 4 -12 -7 -4 -7 34 -2 -11 25 20 -14 2 -29
15 32 -32 37 -16 -11 -27 15 3 32 10 5 7 -3 -7 -33
-14 5 -5 20 -46 50 -4 -5 10 -2 -10 11 -33 -51 -40 -34
13 -6 17 -16 -11 3 4 25 14 -6 -3 -11 15 -22 -22 2
9 -29 2 40 -4 13 2 1 -39 11 -20 -3 -4 3 -5 -14
8 1 -11 -6 20 19 19 -1 -2 3 -18 -24 -6 -3 7 -10
2 -18 -14 -34 3 0 17 9 4 14 -14 1 12 22 4 -7
15 -2 6 32 6 -5 14 25 23 14 25 12 7 8 -1 2
14 -5 27 8 23 -1 11 -12 -20 7 -7 8 -28 -9 2 -32
9 14 2 22 23 6 -17 -22 15 5 -1 -18 -15 7 11 -27
42 -20 19 -44 2 24 -3 4 16 -17 -8 1 9 9 5 -26
27 7 13 4 20 -15 -17 14 26 -12 16 10 -18 27 -28 7
7 19 2 -4 12 -3 0 24 16 -4 -1 11 -10 4 -15 32
18 0 -7 3 6 8 -3 -16 1 2 5 8 -11 -12 -6 22
3 -3 20 7 -6 26 -3 4 -17 16 -20 -19 10 -6 6 -6
-17 6 -2 -25 -2 -11 9 7 -16 10 -15 3 -6 13 4 12
0 -40 9 11 -14 14 -7 13 11 3 17 19 1 3 9 -2
18 9 -25 19 -4 7 -3 24 -5 2 -15 -7 1 17 -1 4
-26 9 -18 -1 -29 32 4 -9 7 -21 -10 20 -49 -24 -45 -13
11 26 16 -14 5 14 11 2 -1 -6 -8 -11 13 -15 -13 -22
0 -42 6 -26 -5 21 -15 9 -17 -18 -36 -9 12 8 -23 18
-7 -12 -6 -5 1 18 8 6 6 9 -26 -17 -10 -6 17 -14
-5 -2 10 -14 17 8 -6 5 0 9 -6 -13 3 23 6 1
17 -17 21 -2 11 9 27 18 25 -18 25 -15 8 18 -13 -16
9 28 13 11 15 -5 11 -12 2 8 0 1 -3 -23 20 -6
3 22 -11 20 24 14 -7 5 11 -13 4 -24 -13 -7 15 -37
24 13 15 -9 -7 19 9 -7 4 -12 -3 21 6 8 -4 -17
16 -11 8 18 16 -3 -35 -1 8 5 15 9 5 14 -21 17
17 2 12 1 0 18 13 1 -2 5 -28 20 3 -2 -12 10
-25 -5 -14 13 -6 -4 22 -6 5 6 9 -2 -6 -14 3 -45
-14 -13 -18 -13 16 9 2 -10 -5 -6 -11 -1 15 23 -3 -11
0 -10 10 -20 -17 -5 12 10 -28 -3 2 8 15 11 -8 13
13 -9 7 0 9 17 -12 -2 0 15 -32 1 5 15 -2 -9
-22 1 -2 6 -12 1 0 2 -2 -37 -10 -3 -13 -29 19 -14
6 -10 -11 -8 13 -20 -21 10 19 2 -14 18 27 -8 0 16
-16 4 -24 1 1 11 -2 -18 -6 11 -36 0 6 -31 12 1
2 13 21 11 15 -14 17 10 -10 -1 22 27 14 -4 9 19
-14 -3 2 11 6 5 24 -8 -8 20 -24 -23 -11 -1 6 -26
-5 5 -5 12 3 -1 13 -4 -21 2 10 -1 4 -16 -3 -9
7 -20 3 -2 3 0 12 8 -17 -5 -5 -13 7 -16 20 9
13 -13 12 -9 0 -9 -30 6 2 -1 -7 -7 -15 -1 1 24
2 -3 -12 -1 30 4 -25 -3 -4 9 22 -12 -2 -14 -3 12
-1 -2 5 -8 6 -8 0 7 14 -5 -10 16 8 9 -1 -19
-13 0 4 -26 -4 -12 24 15 -26 -7 -12 -5 -25 -14 12 -33
13 2 25 -19 20 3 -16 5 13 -13 -7 -6 -23 15 -3 1
6 -1 -2 7 1 12 24 -17 6 13 0 -4 -19 -6 -7 30
-17 -2 -15 -33 10 14 -8 4 6 9 6 -13 12 28 4 -7
-16 -3 6 -12 11 -8 6 13 -8 3 -1 4 11 22 -1 4
-3 -10 -7 -32 -2 8 -3 -28 12 15 -2 4 -7 8 10 -29
-36 -7 17 -3 -10 4 27 -21 9 -22 -29 -11 -18 -42 18 -38
26 -13 1 -33 38 -11 27 -3 28 -4 -12 21 -8 -3 15 24
14 -15 -8 -17 -8 -1 3 -14 3 -16 -33 -8 9 -30 11 15
-9 -32 -10 31 -15 4 5 13 -4 11 0 6 7 19 2 -9
10 5 -4 1 0 1 15 -14 -18 13 -26 -18 6 -3 1 -14
-7 12 -2 7 2 -4 14 3 -14 -1 -2 -7 14 -11 -1 -23
10 -23 -7 -22 10 -16 -3 21 -5 1 0 15 13 -21 42 7
-6 -4 10 7 8 6 -6 0 -31 1 -13 -12 -16 7 -2 -21
8 -6 -10 -12 9 16 -18 17 0 -11 15 -16 -7 5 -11 1
4 -21 -11 -42 12 -5 -6 -7 8 -7 -10 2 11 15 -2 18
1 14 2 -17 4 -23 -5 -1 9 -7 0 -8 -8 -40 19 -4
3 5 27 -36 0 -8 -9 16 28 -10 -27 17 0 -8 2 20
9 3 -10 2 12 18 8 -25 16 12 6 13 -13 -7 -20 19
-10 -16 10 -15 12 7 -20 6 -9 9 -5 -19 -19 10 14 -12
-4 14 8 -15 16 -3 -1 8 -18 13 4 2 5 20 -4 -5
-15 -12 10 14 15 20 -12 -6 2 17 1 -1 3 2 3 -5
-11 -2 12 -1 9 0 25 -20 17 -5 -15 -2 -24 -11 -17 -31
1 33 -18 4 11 -41 18 31 12 -5 0 16 0 2 16 -8
-6 24 -12 8 12 11 4 -30 -21 -19 -25 4 8 -13 11 -20
-3 -61 -22 -12 1 19 -3 7 -22 3 -9 -15 -10 25 -16 42
-9 -1 -15 -4 7 0 6 -5 -10 16 -15 -27 -5 5 -3 4
0 -8 -7 -29 -3 1 22 11 -13 0 17 -14 14 5 1 7
-6 28 11 21 -20 -5 9 -13 -5 -14 17 -5 5 -7 10 -24
-10 8 1 6 6 -15 -11 5 -26 -8 6 4 -8 5 3 4
10 9 -14 1 23 20 -17 18 5 -12 4 -18 -17 2 -5 -15
-4 -2 -9 -6 -12 -11 -18 6 -2 -3 -5 -8 1 -16 1 -3
6 -15 20 -12 10 -11 -9 12 20 2 8 5 -17 -11 -8 19
14 18 5 -17 6 10 -8 0 37 2 -18 -2 -1 -9 7 46
