-10 4 -7 -8 -4 -11 -3 -11
-19 16 -16 4 -8 17 -30 -34
12 8 -11 -4 -3 -4 16 -16
22 11 7 -19 -34 -8 34 13
0 18 2 -2 -14 16 -4 12
4 13 -7 1 17 5 -13 7
1 4 -9 2 36 8 1 -10
2 0 13 -18 -31 -27 34 36
10 19 -9 15 6 1 -6 14
-9 -11 -12 23 -8 6 3 -13
-1 -13 -9 1 -4 -1 -13 19
-12 7 -1 -10 -17 -21 13 38
8 8 -6 4 3 -1 1 -12
-5 -15 -6 -16 17 -9 2 -8
-7 -2 16 26 31 1 -53 -59
-1 -2 -3 -38 -53 -29 7 31
22 -11 29 29 4 1 -7 -15
4 20 0 -12 15 11 -7 -2
16 -17 12 1 11 -11 15 3
1 14 -7 -14 -5 -15 26 6
5 -1 -3 -7 14 7 -12 4
7 -2 16 23 27 18 -24 -38
5 -7 18 -14 -18 -41 -24 -31
8 5 7 -53 -57 -74 -25 -21
5 -8 10 -1 15 6 19 -19
1 -19 2 24 27 13 -19 -12
-10 -11 1 -15 6 4 3 5
-14 17 -5 -19 -7 -4 12 9
-20 -10 -3 6 -9 1 14 5
5 5 15 12 -11 -13 8 -1
-2 -13 -3 27 42 28 -6 -12
-5 3 -15 -4 -31 -6 47 75
12 18 -11 -4 13 4 -24 -18
13 -2 -7 -10 9 8 -22 -3
10 2 -3 -15 15 -13 20 -5
14 -2 -20 -16 -41 -13 16 21
-4 -7 -8 -5 1 7 -5 5
-20 -5 -10 15 -7 14 -18 -5
1 11 -5 37 34 47 -31 -50
-4 -6 -19 -47 -52 -31 39 50
-16 18 3 22 9 26 -21 9
-11 13 -13 3 -12 5 20 3
-5 -5 -2 -10 15 -1 -4 3
-3 3 16 -19 -38 -18 34 32
9 -14 -3 -1 -18 4 -3 3
4 -12 -16 35 14 29 -30 -25
3 -2 -8 2 2 -6 -74 -54
-8 -4 -6 -67 -77 -68 -6 19
3 12 15 -8 -4 -20 9 1
5 -2 -15 3 11 9 -9 -1
7 -18 -2 -22 7 7 15 9
13 -2 -4 -14 -10 -11 25 16
6 16 -1 -23 -24 -19 21 15
-9 -12 12 -4 -4 -10 9 20
6 14 -3 30 41 22 38 27
-3 25 -11 24 23 15 54 60
2 -14 11 21 18 -5 -14 6
2 -6 6 -12 8 -1 17 -9
14 15 -9 -17 -15 5 15 15
-4 14 3 -19 -18 -32 4 14
11 11 -6 -5 -17 -29 16 5
6 3 -3 -16 0 -8 16 8
-2 13 0 41 61 63 -12 -34
14 -5 -9 -18 11 -20 77 60
17 5 2 19 2 5 5 -23
3 -12 1 -19 8 0 5 -17
-3 11 1 -7 -2 16 -10 4
6 15 15 -2 -23 3 20 26
0 3 7 -24 -16 11 21 26
1 -8 2 -5 -6 2 -24 -4
5 -16 -4 13 14 17 -20 -12
-12 -14 14 -27 -54 -34 13 31
