13 23 -13 23 -25 15 -36 25
16 0 16 3 3 12 42 -56
12 -4 -13 -8 0 -20 -6 6
24 9 -32 -31 27 -40 -78 55
-2 -7 -7 -3 12 -4 -68 25
-19 17 18 48 -28 37 4 -9
-21 -8 22 25 -34 3 34 -37
-2 5 10 2 25 36 -3 1
-28 -4 21 6 -23 31 -1 2
-10 -30 -10 -51 -15 -12 61 -60
-18 23 -27 17 -14 3 -31 23
6 11 -29 -27 -8 -42 -75 43
16 -25 -9 6 -21 7 -71 34
-13 -2 -21 16 6 3 78 -65
15 9 -25 14 -17 -2 -13 -17
22 26 2 -6 46 30 1 -3
12 12 -4 9 13 -16 -52 43
2 -2 -17 -16 22 -23 57 -81
-6 -10 10 -3 10 9 -125 68
26 7 -6 -28 -12 -24 -11 15
-19 3 11 19 -32 -3 -53 13
8 -27 -29 -9 -11 8 61 -42
-3 -21 -3 -40 -12 -26 -19 -13
-2 30 -10 -10 28 -10 0 0
-11 -20 -11 -2 -25 19 -50 31
-10 10 -19 -28 -25 2 51 -58
-17 -16 -7 -7 0 -4 1 -1
27 11 13 -28 21 11 -24 3
-6 21 -3 -39 6 -9 -71 32
-3 19 -22 21 -9 61 -38 22
17 36 -7 38 -32 12 38 -68
-10 1 -1 9 -12 -34 -6 3
6 -4 5 25 5 4 -59 56
-20 -23 19 -39 9 -15 -2 -36
22 -13 -2 -18 3 -3 20 -38
8 -5 -8 -30 -7 -11 -5 22
-16 -13 10 -49 18 20 -91 12
-3 -18 15 -12 16 2 44 -35
13 -9 -18 53 -25 33 56 -99
6 -45 -8 46 0 1 -15 8
8 -28 -21 -26 13 6 -110 91
20 -6 12 -10 -39 -5 65 -81
-14 1 -3 -9 -8 4 -104 19
-2 41 -21 -21 -36 2 17 -32
36 -4 -19 -21 -14 4 -45 -4
20 -10 1 -75 16 -18 -39 6
16 1 -28 -32 -3 -5 -31 -57
-2 -16 -3 2 -17 -7 8 -9
-13 -13 13 -11 -1 -41 2 -5
-7 -36 -10 8 10 -9 62 -67
11 -2 -6 -7 -2 -16 46 -33
-3 6 -1 0 15 26 -76 55
11 -11 -12 -29 10 -36 -121 60
18 -8 13 -13 8 5 -13 21
6 2 25 -7 2 -24 71 -61
-19 0 -22 -18 -43 -6 2 0
14 -25 14 -57 20 -31 2 -7
22 -6 -3 -15 -32 -17 47 -54
-12 -14 -1 -69 21 -20 -28 35
14 -10 -3 45 -16 63 -60 37
16 7 -5 -17 -7 1 -84 23
-24 -24 -19 -41 44 -67 77 -41
-4 20 -10 4 3 -9 6 -62
22 -42 17 -25 -1 23 -1 2
13 -2 -27 -41 30 -14 -62 44
-21 -8 2 35 -10 0 72 -79
11 -45 -2 -3 -16 3 -106 56
14 22 -20 1 -30 27 -29 19
-11 -26 3 5 -36 -9 -98 46
15 3 6 -67 26 -33 20 -6
-15 -10 16 -31 15 6 28 -62
-3 44 12 -48 -18 -30 11 -3
