-8 -8 -11 -5 7 4 7 -5 -2 -2 -7 -6 14 3 -13 3
1 14 -1 3 -2 2 -3 3 0 3 2 -1 0 18 11 7
7 -6 -11 6 -4 11 5 -8 -1 12 -11 -1 -2 -7 -10 3
-2 2 -4 -4 -6 10 5 -3 -1 12 -15 -15 4 -17 -25 4
-11 4 5 -5 6 -7 -8 -3 9 0 1 9 15 2 12 -6
-4 6 -2 3 5 -3 -3 5 -14 -5 3 -13 17 -7 -1 14
3 -1 3 4 -11 -12 -21 -16 -1 19 -8 17 -22 -4 3 -1
7 4 -21 -5 8 -1 7 8 1 0 -9 2 13 4 -6 -2
7 -3 -6 1 9 7 9 8 4 2 -3 0 1 5 5 -5
3 -1 -3 -12 -8 -4 1 6 -4 16 0 -5 4 4 6 -15
-1 13 -3 3 4 1 -8 2 -4 4 3 -6 4 1 -7 -10
2 4 2 -1 0 3 6 9 -6 3 11 12 18 5 4 6
2 10 3 0 -1 12 -6 -3 3 2 9 -3 -1 -15 -2 1
-5 1 8 -11 5 6 -10 -7 19 -26 -5 11 13 3 9 -22
-3 -9 -14 0 -6 24 16 13 -4 -8 -10 -8 3 -2 -4 -8
9 3 -1 -2 3 -13 -11 -17 5 -5 2 11 8 -6 -23 -6
-6 -7 -11 -14 17 -6 0 2 -2 -2 -10 -7 22 11 4 -1
-6 6 0 -1 -1 -13 11 4 15 -8 16 3 11 25 10 10
-1 -7 -10 6 2 13 4 0 -8 19 3 -2 3 -9 2 -3
11 10 0 11 -10 12 4 -6 -7 28 -5 -11 8 12 -5 5
-17 4 3 4 -5 -2 -10 -7 2 2 15 3 6 0 12 -8
-3 7 -8 -14 12 4 -9 -2 -13 -17 3 -6 23 5 8 16
7 4 -1 1 -11 -8 -21 -19 -2 0 -3 5 -14 2 1 5
8 -7 -15 -21 5 7 0 0 3 15 -13 9 5 1 16 -1
0 -15 5 0 -1 13 17 16 12 1 0 8 10 2 -5 7
5 4 -2 -11 -3 -11 0 5 -8 1 10 2 5 3 7 -15
9 6 -9 0 4 -4 -7 -9 -6 12 -4 -5 0 1 -8 -2
-4 10 0 -8 6 6 -17 -2 -7 -13 5 7 16 22 -1 -5
-3 -1 0 4 3 13 0 -6 -8 -2 4 -1 -3 -6 -1 5
-13 3 12 7 -1 -13 3 -11 21 -6 4 12 -3 -1 -7 -13
-6 -9 -13 -4 1 3 8 2 9 -1 -4 5 11 11 -6 -10
2 6 6 1 13 -15 0 -9 4 -1 10 -4 -2 3 6 14
-9 -2 -5 -9 11 3 0 -7 9 3 -3 1 4 -16 -1 -9
-8 10 4 -6 8 -6 8 1 10 -11 3 -14 6 10 4 5
4 -1 10 -3 -9 14 -9 -5 -12 -9 -2 4 2 -2 -6 13
12 -3 -1 4 0 19 -2 -1 -10 12 -8 9 1 0 -5 -5
-10 0 12 -4 -2 8 -11 2 7 7 13 -4 5 -5 10 -16
2 1 -19 -14 8 2 -13 -1 1 3 -1 1 4 -15 -6 7
8 -6 -6 3 -7 -11 -4 2 8 -8 -3 2 5 -3 0 -4
5 4 -26 -18 -15 13 -3 8 -1 5 -24 -3 -2 -23 -4 -7
-19 -15 5 -8 -4 6 8 0 7 8 -1 8 6 -5 -1 0
13 -1 -10 1 1 -11 -7 3 -8 21 1 6 7 -2 -7 2
12 0 0 8 1 8 -17 0 4 8 2 -4 0 4 10 1
-16 -5 -2 -18 -3 -12 -11 -1 -10 -6 1 4 -14 -6 -9 -1
0 6 -7 1 -8 0 -3 -11 -12 -3 -3 -7 -13 4 4 0
-22 10 9 0 -11 -20 -10 -6 5 -9 -7 1 2 0 12 0
-11 -9 -14 -2 -13 -15 9 -2 0 -3 -3 -6 9 -3 1 -5
-11 12 -1 -8 20 -3 -3 -11 4 -16 6 0 9 -4 7 17
-13 -1 -7 5 15 4 2 -3 11 6 2 5 21 -3 -20 -29
10 3 -12 8 -5 9 -14 -11 5 1 5 -8 -3 -2 -3 -5
3 -4 -5 5 -3 13 -1 -11 -9 4 2 -2 7 -6 -12 -1
-2 4 -14 -9 -2 -1 4 -2 -12 -4 -18 2 11 0 -17 5
-6 1 6 -9 4 -15 -10 1 -17 3 -2 -8 -3 -1 1 -2
0 2 0 0 -2 -2 -6 12 -22 -2 -2 -10 18 1 11 19
-5 -2 -8 4 -2 -13 -11 -17 -1 17 -10 -5 -20 -15 -16 2
7 10 -3 -3 9 11 2 2 2 4 5 9 27 -1 10 11
13 3 -20 -5 8 18 18 14 -5 0 -5 -1 -3 6 12 -28
2 9 -6 -14 -1 6 7 5 -13 1 4 -6 9 15 8 -3
-3 3 10 9 9 6 -7 1 -7 -10 -10 -6 10 -6 -1 -13
2 -5 -6 0 -1 13 3 -1 -24 -17 -7 8 11 8 6 7
-8 9 7 5 3 0 -2 -5 2 28 6 -12 2 -13 -18 1
-6 16 14 -1 7 17 -14 -7 6 -6 2 -6 -4 -16 9 1
12 -3 -3 3 -3 31 3 13 7 8 6 5 5 -5 -1 -12
9 -10 -2 -6 -3 -12 -19 -20 -2 6 -13 9 2 -10 -18 6
-12 3 -2 -12 14 -14 -7 6 14 6 10 9 24 13 -6 -19
-4 12 5 1 -4 -4 -3 -7 15 -5 13 3 5 4 -6 -6
-1 -10 0 4 -5 17 2 -1 -3 12 3 -2 -6 -3 -2 -2
7 14 -6 -1 -8 -7 7 7 1 -9 -15 8 17 23 0 -6
-16 6 7 -5 -12 -15 -9 -8 -25 -2 3 -3 -9 -11 0 5
-5 17 -5 -5 12 3 -6 -1 -7 -26 -5 14 27 13 20 15
-4 2 -5 -7 2 -8 -11 -16 -4 1 0 -2 -12 -2 -6 13
7 -8 -1 -2 4 25 -9 -7 17 10 7 19 7 5 8 8
-3 -7 6 2 -2 23 11 15 6 10 3 8 3 -10 -3 4
-4 17 -13 -3 1 -12 2 11 -10 -20 8 -4 12 20 15 9
5 16 11 5 1 -5 2 -5 5 1 5 -5 4 -6 -8 -2
-8 8 -4 -1 1 8 -15 5 -15 -36 -7 7 8 23 19 -5
1 -3 -5 -5 1 -2 -10 -4 -11 17 2 -11 -1 -5 -23 8
-6 11 4 5 -7 11 -3 -13 -14 7 -10 -7 -18 -26 -12 -1
5 -2 2 14 -13 16 4 11 -3 -7 14 15 -7 5 5 5
-7 -9 -2 3 4 -8 -9 -17 15 21 5 4 0 0 -14 -2
-2 7 -5 -11 4 -7 -13 -3 12 11 3 3 -3 -15 -8 -8
-11 19 4 -8 -3 -7 -1 -1 9 1 18 3 -3 1 -14 6
-6 2 -1 9 0 1 1 -1 -17 -8 -2 2 -2 -4 8 16
7 9 1 3 -3 10 -10 -1 -3 -10 -5 10 7 11 19 -3
-20 -1 1 2 -3 0 -7 -5 -12 2 13 -13 -11 -6 17 2
-2 -3 -18 -8 11 -5 -20 -2 -15 -20 -10 1 -1 -20 2 5
8 9 7 8 12 -13 5 -3 1 -2 4 -6 -11 4 3 -2
4 -4 -10 -10 -14 29 -15 1 4 1 -12 5 -5 -25 -5 3
-17 -12 7 -11 -7 2 -1 1 -1 6 16 3 -5 -11 -14 11
-1 20 -19 -11 5 -11 0 10 -6 -7 8 5 13 -6 14 9
11 9 6 3 -9 -15 -9 -5 -4 -1 0 -1 -8 -2 -4 -8
-11 2 -8 -5 7 -3 -11 4 -21 -4 -1 0 -4 -3 5 20
-3 -1 -2 2 5 1 -12 -6 -11 -2 9 -10 2 -3 0 -3
-13 11 4 -3 -5 -6 -2 -17 -3 13 -3 4 -4 -6 2 -9
9 -9 0 18 -17 34 11 8 -4 -4 4 1 -11 -20 4 -13
-18 4 7 -15 12 -17 -1 -9 13 -15 4 14 11 -2 -4 12
-10 7 14 -3 0 15 -5 -8 3 1 -12 -8 14 1 -3 2
5 -4 -3 7 -3 4 -13 -17 -4 3 -7 5 -11 -8 10 3
-3 1 -4 9 -1 9 -9 -12 -9 -5 10 -5 2 -6 -15 3
-2 10 1 -1 -18 9 -13 -6 -5 -3 -4 9 3 4 -13 -1
-9 -3 -9 -15 1 -16 -3 2 -15 -9 -3 -1 11 17 -9 -9
-4 8 7 10 5 4 -8 1 -18 -7 -8 -2 2 -4 13 12
2 3 -4 -1 -11 2 -14 -13 -5 11 0 -3 -9 0 -13 -4
2 14 5 -3 8 -5 -7 1 9 14 4 7 13 -8 -7 5
3 6 -7 -6 10 5 15 19 -2 -1 -12 2 1 11 9 -5
-3 7 4 -2 -10 0 -3 1 -4 9 -6 -4 8 -4 18 2
3 13 0 -2 -7 3 -4 -1 10 5 8 6 4 -23 -11 3
1 -2 -12 -1 -2 6 -2 7 -12 -7 -8 3 17 -2 3 0
-7 -2 -1 10 8 9 -4 -2 -8 -9 2 3 -1 -2 -15 7
-7 -2 -7 -4 5 4 -12 -6 -2 -6 -8 -12 2 -11 28 6
7 6 5 1 -4 3 9 18 12 8 0 -15 0 19 4 -5
4 -8 -6 0 4 -1 -13 -21 -9 -1 3 12 -3 0 0 4
-13 8 11 -3 -2 3 0 -2 -4 10 10 1 -2 7 4 14
7 -11 3 -3 -13 8 -12 -15 -6 -11 -14 -7 -5 -9 -6 -5
-8 -4 0 7 -9 2 7 -14 -7 1 14 -15 -11 0 -1 -4
4 7 11 4 -14 -8 -8 -4 5 -1 -2 16 6 17 -9 -2
-3 -1 -22 -7 -16 -35 -3 -9 -20 -12 -14 -4 4 -6 -10 -13
2 18 1 -4 7 6 -13 1 -9 -9 -8 8 5 8 17 1
8 5 3 1 -4 4 -14 -6 -3 -8 6 -7 4 0 3 -2
-1 0 10 -4 -9 10 -14 -8 4 18 2 0 -3 -5 2 6
-1 1 5 -4 5 9 20 8 8 4 4 9 6 8 3 -10
1 18 -9 -11 -5 -2 4 11 -14 0 2 11 15 8 17 3
4 20 4 -4 -11 -21 -13 -1 4 0 5 17 0 -1 -12 19
3 -2 -13 3 -5 -3 -4 5 -5 -17 -9 -1 4 25 2 -7
0 -5 -5 6 1 9 -6 -9 -8 -1 7 6 1 1 -12 15
2 0 -6 4 -6 9 -1 -9 -7 13 -4 5 6 -16 -5 -8
3 8 -2 7 -5 7 -1 13 0 6 -8 1 -12 3 -11 5
-3 -12 -7 -7 7 -12 -18 -14 -4 -1 11 -2 -6 -2 -11 14
-10 1 -6 1 -8 9 -6 1 3 9 -5 -2 -10 -31 -10 -1
-4 2 0 0 -10 4 -4 -14 8 2 -11 -6 -6 -1 -18 9
-8 3 1 -6 -12 -3 -1 -11 -7 1 15 -11 -6 1 -8 -12
0 22 2 2 -9 -1 -13 -4 5 4 -4 7 8 8 3 0
-10 6 -7 -14 -7 -8 -6 -7 -12 1 4 -15 3 -7 2 1
-13 11 -9 -9 10 -9 -13 -5 -14 -19 -14 -3 0 -14 5 8
12 14 7 3 -1 7 5 -5 9 -3 4 -8 3 2 10 -4
-8 -3 12 -6 -14 -3 -6 -5 6 -4 -12 1 8 -25 -9 11
-12 -4 5 0 -3 11 3 9 3 21 9 6 -2 -8 -4 6
5 17 -7 -5 -7 -1 3 10 -10 12 5 2 10 -17 9 13
0 8 11 -2 -19 -20 -12 0 5 -3 1 11 -9 -1 -14 8
-4 -2 -24 -8 5 -21 -7 8 -3 -5 -10 -13 -5 -10 -1 -1
3 -1 -13 9 -2 6 -9 -6 -11 5 1 15 3 6 -2 12
13 -7 13 6 -7 -1 -9 -14 -9 8 7 18 19 11 10 -10
7 0 -4 14 -10 15 7 12 -8 -2 -9 -5 -7 -10 -4 -6
-14 -7 5 -16 5 -5 -1 -4 12 -25 12 8 -5 -10 -10 1
