4 -3 4 -7 5 9 1 -4 7 4 0 -3 1 0 -10 -6
-2 -6 -1 0 6 3 -9 -5 1 0 -13 2 12 3 -2 1
3 5 1 -4 -6 3 -10 -4 5 -1 8 -4 14 -7 9 4
0 3 -8 2 5 5 0 -10 -7 0 -2 -5 5 -3 10 -1
-1 17 -5 -5 -8 3 -11 -5 -7 9 0 -3 3 -5 0 3
1 -5 -10 -7 -1 6 -3 4 -8 4 -4 0 12 1 1 5
1 -19 4 1 -12 8 7 -1 -6 -1 -8 -2 9 -11 1 -8
-9 -15 -11 3 -8 4 10 1 -3 -15 -2 0 7 10 -11 -4
0 7 2 7 -1 -10 3 -13 15 -16 4 1 11 9 4 9
17 -4 -4 -9 10 -3 4 9 9 4 -13 -5 -2 15 -4 12
7 8 5 -3 -2 9 13 7 1 -28 15 -6 0 7 3 -4
2 -9 5 9 -5 10 -4 -14 8 -3 -1 4 -17 -11 2 12
8 4 6 -12 12 9 12 -13 -1 21 16 -7 -2 -1 -4 18
5 -4 -5 12 16 3 4 5 1 16 9 -6 -4 -6 -5 16
5 -4 -4 1 -3 -10 2 -8 -8 14 4 6 -2 -3 -2 -6
5 14 -5 -1 4 -4 -15 0 -5 -9 -1 1 13 4 2 -3
-12 -17 6 -8 1 3 10 -12 11 1 -7 -8 -4 -7 -13 -9
3 -14 7 1 1 9 -16 5 5 -11 -4 -11 5 10 2 5
-7 4 -5 10 4 -1 -20 2 3 -23 3 -1 13 -11 5 -17
-6 12 1 7 2 3 1 -4 -1 -6 -9 -9 -7 -20 -2 -7
1 15 -5 -17 -6 8 -4 -5 -11 16 2 1 17 -9 -6 8
3 -14 -4 -10 7 9 -7 -7 14 -7 -4 1 3 -4 -17 -5
-6 -20 -6 0 -4 4 21 -4 4 -14 -2 6 5 -5 -7 -10
-2 -16 5 -4 -12 5 5 9 0 -13 4 8 9 6 -2 -4
-1 13 -8 3 8 6 7 -6 11 -47 4 -4 9 1 8 0
3 -11 -5 -1 -1 -9 13 -2 6 -28 -3 10 -20 21 -2 5
1 1 3 12 -4 5 5 22 0 -42 11 7 5 3 -7 -7
9 -10 -13 -1 7 -1 -15 -7 -5 3 2 -6 -14 -16 13 12
7 8 2 -4 3 19 4 8 -4 9 17 1 5 4 -6 8
8 -1 1 0 7 8 0 11 1 7 6 -1 -7 7 -11 4
0 -6 5 -27 7 9 7 -16 -1 5 7 -10 6 -8 8 -3
-5 -5 -9 -11 -4 -11 -19 -2 -3 -18 -3 13 1 6 8 1
-9 -7 7 6 0 8 6 0 3 -3 -5 -1 -7 -10 -12 -9
-7 -4 17 7 -6 -1 -7 -5 12 -10 -6 3 -6 -5 12 0
4 -15 3 1 9 -1 -21 -6 5 -24 4 -8 0 -4 15 -2
-10 1 5 9 7 9 5 -7 3 -13 -8 -1 -18 -18 0 -5
6 3 1 -5 3 7 -12 -6 -20 9 -8 -6 8 -11 2 5
-12 -1 0 -10 1 3 -1 -6 0 -13 6 -4 0 -11 -5 -15
-13 -7 11 8 4 4 3 10 1 -18 9 0 8 -6 -7 2
-1 3 4 0 1 6 10 11 -2 -23 6 3 12 0 -11 -4
-3 19 2 -2 -2 -8 14 1 2 -54 0 3 16 10 -1 4
20 -4 3 2 -3 -5 3 1 1 -6 -9 -7 -13 5 4 -5
3 15 2 11 -6 10 8 -1 1 -6 9 -6 -6 -2 6 8
2 0 6 13 -7 5 -2 -10 -3 -1 2 6 -20 -14 3 -10
1 -3 3 0 5 4 -6 12 -2 8 17 6 -8 5 8 3
2 -17 -3 7 -3 3 4 8 -8 -4 -4 6 -7 15 -7 19
7 -17 7 -26 -4 -1 5 -19 13 22 -14 -5 0 -12 6 -4
4 4 -11 1 0 1 -13 -12 6 -5 6 -2 5 3 0 0
-1 -18 0 -6 -2 -2 3 -5 -4 0 1 10 -1 2 -13 -5
-9 -3 3 -8 -14 20 -5 0 -7 2 6 3 9 13 -7 0
6 -3 -2 4 6 2 -4 9 5 9 0 -2 20 -18 -2 -13
-1 3 0 3 4 3 -12 1 -9 -3 -3 -6 7 1 5 10
-4 16 -1 -9 -5 19 -10 -2 -8 -2 1 2 14 1 4 0
7 -9 -15 -2 -17 -3 -7 7 -2 35 -1 8 14 13 13 -2
2 -16 -6 -5 -13 5 17 -2 1 -8 4 -2 4 -3 -3 -6
-9 -12 -14 -15 -12 3 8 0 -7 -17 -2 4 19 16 -12 4
13 3 -12 7 -11 -2 -1 0 -7 -38 -7 2 3 13 9 1
14 -19 -2 5 3 -9 9 11 -7 -6 -7 2 -1 11 4 3
-4 9 3 -4 -3 8 12 7 -2 -25 22 -7 0 5 4 -9
0 0 -17 1 -5 -1 -8 -7 2 0 -2 3 -9 -13 8 1
5 18 -5 -9 -6 4 2 -1 -8 -7 2 -3 8 15 -8 14
1 11 -8 5 4 11 7 -3 3 9 6 1 0 5 -21 -6
-11 6 -7 0 6 -1 -1 13 12 18 7 1 5 -3 -1 -13
-8 -7 -5 -3 5 -3 -23 12 -8 8 2 -2 12 1 -3 -7
1 -35 -7 4 0 0 -8 -13 -9 7 -13 10 -13 9 1 -4
-2 3 18 -7 -18 14 2 1 -1 6 1 4 19 16 3 5
-4 0 1 7 6 3 -11 17 6 -7 3 -2 4 -19 -9 -16
1 -4 8 10 8 5 -4 -10 -4 12 -9 0 1 -3 15 0
12 11 -1 -11 -11 30 3 6 -7 -6 12 7 21 6 -4 0
16 -32 -7 -1 -2 8 -25 -7 11 35 -11 8 13 -6 1 6
3 -23 -10 -8 -14 9 20 1 -1 -34 0 3 5 9 -3 -11
4 -12 -3 -11 -14 15 17 0 -2 -29 8 8 12 1 -8 1
0 2 3 10 -9 4 10 2 0 -112 7 10 -1 9 5 -15
-7 -27 -13 3 -20 -1 -5 17 -18 -8 -6 37 -16 35 8 3
-6 7 11 -3 -1 15 15 19 -18 -66 15 4 19 12 -2 -19
-8 -14 -12 9 2 13 3 4 16 -28 -9 -12 8 -15 1 -28
-9 7 -18 -8 -9 13 1 5 -1 -20 0 -1 11 13 -11 -13
-4 -10 -7 -13 -10 20 9 19 -9 -9 15 17 24 7 -16 -13
-28 7 -5 -4 -8 17 11 11 15 5 7 6 22 8 7 -10
6 7 -3 -10 14 -3 -11 4 -10 -1 -3 4 10 -1 -12 21
-3 -17 0 12 -5 -2 9 -3 0 15 -2 14 -14 0 -8 -17
-9 -5 28 7 -9 7 -17 0 9 3 3 2 5 2 13 -8
-2 -33 -7 0 -1 -2 -19 0 14 -10 -1 5 -4 6 7 -10
-13 8 7 19 13 7 -1 -6 3 6 -7 -5 -12 -12 10 -5
-1 -3 -3 -15 1 21 3 -2 -9 -13 7 0 8 1 -5 -2
0 0 23 0 1 8 -7 3 -7 5 -11 -13 10 -9 -8 -13
0 -1 -2 -6 -1 17 11 9 -8 -19 11 -1 9 -6 -3 5
-7 6 0 4 1 15 9 6 -2 -22 -3 1 12 -4 -9 -3
9 -5 6 -2 3 6 16 4 -11 -108 6 12 11 18 -6 -6
23 -9 8 13 -10 9 8 13 -10 -7 -9 4 -16 -1 15 5
-1 -10 6 6 0 4 3 5 -9 -47 3 -2 0 2 8 -5
-14 -16 8 8 1 2 8 -2 13 -8 -5 1 -8 -6 12 -10
-11 2 -9 3 6 11 2 12 -13 -16 0 11 -8 9 4 -4
-6 -19 1 -8 -7 5 7 3 -25 -13 -8 13 11 20 -5 -1
-2 -23 0 -18 -3 -3 -4 -9 2 13 -16 -4 7 3 5 -10
1 -18 -18 -2 11 -11 -32 -7 -7 16 -4 0 6 0 7 11
-4 -10 3 -3 5 -1 -1 -6 -5 6 0 3 -3 8 -7 -4
-16 -3 2 -2 -5 7 -4 1 -2 -22 -3 2 4 5 -8 0
14 4 4 5 -4 5 -6 -7 -7 -3 4 -2 2 5 -3 14
-2 4 15 1 -3 11 -10 2 -9 -13 1 2 4 2 5 3
-12 5 4 0 0 14 -7 -9 -6 -6 0 8 7 -2 9 -3
-7 -7 -9 -3 2 7 2 13 -6 5 3 9 8 1 -1 -11
4 -20 6 -6 -12 12 5 -5 -5 -16 0 -9 6 -8 2 -7
-12 -2 -5 -13 -6 0 3 -2 -5 -29 13 2 9 -2 -8 -1
3 -2 -1 -9 -6 -5 -5 1 3 -1 5 1 3 1 -11 0
3 -3 -5 -13 11 8 8 7 2 0 9 -11 -3 5 2 -2
6 -4 0 -2 10 -1 -5 -9 7 -11 -1 5 -16 -2 -2 4
-5 -18 -1 10 -16 11 5 -6 -1 5 -1 8 -4 13 11 -2
-8 10 -5 -11 -18 2 4 -2 -12 2 2 9 -6 14 8 4
4 4 -10 4 12 6 13 0 4 8 7 -7 -13 -1 -7 6
11 2 6 6 0 1 -3 11 17 3 8 16 12 3 -1 11
-8 -1 -2 0 9 0 -20 3 -8 6 -6 15 13 8 8 11
8 -13 -1 -8 -4 -1 10 -2 -4 7 4 0 -12 6 -2 -1
-12 4 4 0 -4 5 10 3 -6 -14 9 7 12 17 -9 8
14 5 1 8 0 1 -10 10 -1 -7 6 2 4 9 6 18
-1 4 18 9 -2 9 -4 1 -9 -4 0 -4 -3 -3 14 14
-2 -5 5 -5 -3 21 -2 -2 -8 -2 3 -3 15 8 0 -12
7 -19 -1 9 -4 8 -18 9 20 7 -3 6 14 -6 -5 -7
-3 -26 -5 -12 -17 11 20 1 -5 -39 6 8 2 -1 -1 -15
-3 -2 1 -3 0 11 16 4 -6 -41 5 12 16 0 -2 -6
-3 -16 2 -1 -1 2 -2 4 -15 -32 4 3 7 12 0 2
5 1 -3 -11 -11 5 7 7 -14 -6 -1 -3 -7 -10 16 2
16 11 18 -9 3 3 6 -2 -17 -7 20 -7 11 9 -5 20
5 -18 -1 3 -6 10 9 9 3 -9 9 2 9 24 3 0
-8 0 -7 3 -16 10 -6 9 -11 -8 10 6 -5 9 2 -4
-5 -15 -2 0 5 6 11 -4 -8 3 6 7 10 -4 -1 -13
-11 1 -2 1 -7 3 2 14 6 4 12 8 5 11 -2 -6
6 13 -17 4 4 -9 -31 3 6 2 -1 -1 3 5 11 21
-5 -8 1 -3 8 0 14 0 -3 6 6 9 -9 -6 -12 -17
-8 7 18 10 -10 3 2 -7 7 -17 -2 -4 -4 4 7 -9
5 -17 -9 4 -5 1 -8 -4 -6 -6 -8 3 -1 13 -1 19
-10 6 -1 4 1 5 8 -1 -9 -5 -1 -1 -13 0 14 0
0 -22 3 -7 -5 12 -5 -8 -17 -12 2 5 2 7 -6 -11
-1 2 2 2 8 12 -18 13 -4 -6 1 2 3 -4 -7 0
0 -5 2 2 -8 16 5 4 -15 -29 7 3 3 -12 -3 -10
-3 10 7 -3 1 5 9 3 -3 -29 8 3 14 -11 -8 -6
-1 -12 9 -9 1 -2 8 7 -26 -26 8 10 17 23 -16 10
7 11 10 -8 6 9 4 -5 -10 0 8 -15 0 -35 4 -4
3 3 18 0 3 -9 -1 -1 -24 3 2 -7 -4 -1 4 15
13 -20 20 -8 -14 24 9 4 -12 -7 7 0 9 20 10 -2
-6 -5 -2 15 -6 5 -7 12 -18 3 0 7 -13 4 5 -9
-1 -13 10 -1 8 4 1 -9 -27 -8 -1 -4 2 4 1 -3
5 -10 -5 -3 4 -9 -14 -11 16 13 -7 2 7 -2 6 0
0 -7 -20 -4 5 1 -34 -4 12 -2 1 -20 -1 -7 10 5
