-1 6 20 -14 -15 12 12 -5
-9 6 14 -19 -7 -1 1 -7
13 -3 19 -11 -14 14 9 -14
13 -16 10 6 8 -18 -13 9
-4 -6 4 -4 -17 2 8 19
7 -9 12 -5 3 7 5 10
-17 15 -4 -9 3 0 11 12
-2 14 -5 -13 -4 -12 -15 -11
0 2 8 5 -12 -15 -12 -28
8 1 13 30 25 17 -23 -15
16 11 5 18 6 7 -20 8
20 2 -1 -21 14 12 5 42
29 24 -3 14 -10 14 22 12
3 18 -20 1 20 0 13 17
-11 13 -4 2 18 -9 -8 -27
-4 -15 11 0 -26 -15 -8 18
9 -11 -3 2 5 1 9 1
-1 -10 6 -5 -8 -30 11 14
19 15 -1 3 4 7 -10 -15
14 2 -18 -1 20 2 -24 -11
-2 -2 6 13 -6 -1 -12 11
-4 -13 -16 -6 -1 12 10 -16
-2 12 -3 18 -17 0 0 -2
11 -2 17 -13 -14 -8 -17 -23
3 -7 -15 0 -15 -7 14 -8
23 11 14 7 12 17 -21 -28
-8 6 10 5 26 21 -25 -32
0 -3 -12 -15 -31 -15 27 13
-1 9 6 -8 -14 -16 27 21
1 -15 6 22 -16 -8 28 26
-2 -15 0 28 30 26 -46 -37
-4 -19 9 -6 5 4 27 11
-10 -13 -6 -4 12 -4 17 0
16 -18 -8 -16 -19 -15 -9 7
-13 -15 -6 1 -13 -14 17 19
2 0 10 3 9 -9 -6 -26
-11 -9 -3 -6 15 19 -14 -2
-17 15 10 -7 22 14 -9 1
18 -15 -11 9 11 -7 7 -15
19 -5 -7 -3 0 -10 -19 -10
-23 -3 -9 -32 -32 -26 -4 -7
5 4 2 22 27 5 9 -19
20 -14 -1 16 31 19 0 -25
4 23 20 9 -18 -10 23 -4
7 9 -14 -6 -23 -7 -8 3
14 -15 17 -9 -17 -4 26 27
10 -11 -10 22 6 0 -11 -26
-7 2 7 17 16 4 -8 7
25 -9 5 15 -6 -4 -10 16
8 -9 8 -11 -11 -6 5 -16
-13 4 8 -1 18 -6 -27 9
12 -14 15 12 3 19 -1 -4
-10 10 10 -1 -14 -13 16 17
17 8 -14 -15 1 2 12 10
-9 17 19 19 14 -3 -16 7
-5 -9 5 22 24 -7 -40 -48
-6 -25 2 11 -10 -15 14 22
12 -12 3 -17 -32 -20 -25 0
11 -14 16 20 10 13 -36 -24
12 24 10 -24 -24 -26 -3 7
2 4 26 -12 13 -13 7 5
13 -14 -19 -7 16 4 -14 1
12 -22 -18 28 23 5 -23 -9
12 -15 -2 10 -14 -11 10 8
19 2 -7 -15 -12 3 22 22
13 -7 -19 -12 -27 -27 -3 3
16 -10 11 1 -15 21 -22 -7
11 10 -9 42 23 27 -15 -4
-8 -15 -6 14 19 -11 12 -10
15 15 -13 -20 -1 12 16 0
5 6 9 -15 -10 -5 5 -18
-1 0 0 16 16 30 -45 -50
9 9 -5 -12 7 3 9 21
-13 -10 14 -41 -44 -24 1 0
18 -7 19 4 -8 18 -17 -44
21 0 18 -28 -41 -27 -15 -18
8 -1 6 -7 -8 3 1 19
-8 -9 18 12 -4 9 14 12
-21 13 8 7 38 16 7 -23
11 18 -17 -5 -6 10 31 20
10 -10 -15 3 -8 11 16 -7
2 -19 8 5 7 11 21 15
12 10 -3 -14 -14 2 -2 -10
-4 -11 0 14 27 12 1 -8
3 -7 4 20 18 12 -5 -13
-5 7 -3 1 2 8 -2 -15
-13 4 9 -4 -9 10 10 2
4 -11 -7 19 5 27 -28 -31
1 -12 9 -11 4 -6 8 31
-14 -15 15 -19 -31 -36 8 -15
-1 -6 8 22 17 -5 -34 -24
-9 5 17 -9 -32 -27 -29 -18
-4 -8 -12 -23 -4 -6 -2 16
-12 8 -3 0 12 -12 -17 3
1 5 -10 9 4 23 9 -1
6 -13 -18 -3 14 4 18 0
9 -10 -2 -17 4 -8 1 -6
-6 -10 -9 -11 -3 -17 -7 24
5 -14 -4 7 10 -13 10 0
10 -7 2 6 -10 -4 -24 -3
-2 -7 -7 -19 8 7 -4 -18
0 -15 -1 -11 -14 12 15 -14
20 13 2 -8 7 -11 -2 -16
11 -5 0 30 37 32 -8 -1
-23 -20 -3 0 -7 -20 13 1
10 -16 3 -5 -14 -17 5 32
14 22 -11 -2 12 3 -12 -16
12 0 -11 13 -9 -17 -9 -12
12 22 14 -9 14 1 -3 24
10 4 9 8 -5 4 -16 9
12 -14 10 -10 13 10 1 1
-20 -23 -22 -5 -9 -12 -10 17
-19 21 11 -8 -2 3 13 -16
20 -4 -10 -20 11 -19 14 24
-4 14 -8 21 -9 -15 -12 10
-22 -13 -8 28 26 14 -49 -21
5 3 4 -16 10 -13 8 6
-2 -13 11 -12 8 -5 9 -10
4 -18 -11 -7 -9 -12 2 -15
8 16 19 30 48 36 8 10
-28 6 -19 -11 -18 -1 14 20
13 16 0 -10 1 -24 27 14
-5 5 -7 -1 15 4 -11 -21
-11 7 4 -13 -14 11 -4 -15
5 8 16 -18 12 -28 10 -1
3 11 7 7 -7 19 -22 -4
5 -19 17 -18 14 12 19 14
13 12 13 -7 -12 1 25 5
-10 6 1 -10 14 -1 -14 11
8 -6 -12 -4 -12 -4 -10 10
18 9 -3 -9 10 7 -16 -5
-26 0 -18 17 10 14 -32 -33
13 5 -14 -8 8 -18 16 5
-11 8 -10 -2 1 -13 19 3
-15 -15 -2 -19 -13 -1 -16 8
6 -3 10 20 40 33 3 -7
-4 3 -5 -7 9 19 22 -15
-16 17 10 -20 0 7 18 14
17 -5 14 -3 7 18 -19 -9
18 -6 6 29 13 23 -12 -18
-8 -16 -2 8 -27 -11 -16 -2
-15 -7 -9 -1 5 -10 -21 -21
5 -10 -4 -20 -11 6 23 18
-1 -18 -12 9 -9 14 5 -8
