2 -10 4 2 -10 14 -15 2 12 -8 -12 -24 9 -13 -12 -14
2 1 -1 7 5 -8 -4 -4 0 4 3 4 3 6 -14 5
4 -13 -1 2 0 -4 9 0 4 4 -2 -7 1 7 -1 -11
-9 -5 4 0 10 -1 5 10 12 0 13 -11 -2 20 -3 -7
1 15 6 -1 -1 11 -3 2 -3 -8 1 14 -11 -4 16 9
-9 1 -1 -4 -5 -3 5 0 9 13 2 10 -6 3 -1 -7
9 -14 7 2 -28 4 -24 -13 -4 8 -6 3 11 4 16 -22
4 -1 8 -3 -9 10 -8 -3 -11 -13 2 -16 10 1 10 -1
-6 -10 5 1 -8 3 -7 -8 9 11 12 5 -12 12 8 -2
-16 -7 8 -4 5 -7 1 -3 11 -4 0 8 -9 4 2 -11
8 4 7 0 7 5 -12 1 0 5 3 3 3 14 -3 2
-8 3 15 -7 18 -3 -7 -10 -20 1 -4 -3 -3 23 -8 -10
-5 2 3 -2 -4 9 -19 4 4 5 -1 -5 -10 -1 -1 -8
-3 -18 -11 3 4 10 9 -11 0 -7 0 -3 -12 -1 1 10
6 -3 3 -4 8 2 10 11 -21 -7 14 2 -5 10 3 15
5 10 1 10 3 12 -2 6 -7 -7 0 -1 2 0 3 4
9 -7 12 -6 -15 17 0 12 -7 -15 -14 -5 1 -16 -12 -4
-4 -5 11 20 6 11 3 16 -1 3 1 11 1 -3 -22 10
-5 -6 -8 11 -1 -4 9 2 -9 -4 1 -9 -1 -11 -10 -6
-6 7 -6 1 -5 -6 2 -7 6 -1 11 4 -3 -15 11 -11
2 15 0 -2 -7 6 3 4 -7 4 -10 -3 -10 -5 21 9
-10 -11 -4 -6 -3 -5 1 -2 -8 6 -6 -13 -11 15 -2 -6
0 -6 11 18 -27 2 -8 2 -3 8 -7 1 -7 1 -9 -9
-8 -5 -7 2 -7 0 1 -2 4 -5 11 -12 0 8 -3 8
-11 -15 6 -6 2 -7 -13 5 9 -1 3 -4 -11 -1 11 -8
-16 10 11 8 13 2 -2 -8 11 -7 4 6 -6 9 -4 -4
1 -14 3 -7 0 1 -2 12 -20 -1 -4 -6 -4 5 -16 1
-7 -3 19 -4 -2 -7 5 1 1 -9 6 4 -30 -9 -1 -7
-8 -2 6 2 -5 11 -8 -8 0 2 -4 10 -19 -1 -20 11
-9 5 -4 3 -5 11 -8 -2 2 11 3 1 -11 8 -10 6
9 -9 1 0 13 2 3 8 -3 3 3 7 -1 8 5 6
4 13 2 7 -8 29 -10 18 -2 -9 -1 15 2 -6 -9 3
13 -10 14 -1 4 -3 -14 -15 -3 -3 10 4 3 -13 1 7
-9 6 7 6 10 9 9 12 -9 -1 4 -1 1 -15 -16 12
6 -8 -5 0 4 0 6 11 -10 5 1 -11 4 -3 -15 0
9 -4 1 -6 -16 -2 -12 -3 6 -1 7 10 -1 -17 2 5
8 5 7 6 -12 5 -6 2 -7 6 -7 0 -18 -10 3 3
-21 -8 -5 -10 -7 -9 7 -4 -15 1 -8 -9 2 16 2 -14
1 -6 19 11 1 -6 -2 8 6 12 -11 -15 -11 -1 9 -14
-4 8 -3 -10 -7 -3 13 13 -3 0 6 -8 -9 17 -10 -3
-6 -10 -5 8 -2 11 -3 14 8 15 0 -10 -11 16 9 -2
-7 -4 7 1 15 5 -3 -4 5 -5 5 9 -17 5 -1 -11
1 -12 2 -8 4 -12 -2 20 -13 0 0 6 -2 -2 2 -3
6 -13 12 -4 -8 -15 0 5 -4 -14 6 -7 -29 7 1 3
1 -6 8 -15 13 8 -13 5 -7 9 -8 8 -12 6 5 4
-21 -2 -8 -3 5 -6 -14 -27 -7 -10 -8 -16 0 4 1 -15
-2 8 -1 -2 0 14 10 18 -8 0 -3 9 3 -18 -5 -2
-2 1 -10 -9 -2 12 -16 1 -1 -17 -4 13 5 -2 -4 -9
7 4 10 -9 -7 1 -14 4 21 -13 11 -24 -5 -18 -7 -12
-9 4 -8 -14 9 -8 -3 3 4 -5 4 10 4 14 5 -6
0 -5 -3 -13 -22 -7 -4 3 1 5 -6 -7 1 7 -3 4
0 6 1 -10 7 3 8 29 -9 -12 8 1 -6 4 11 -14
-7 4 -2 -11 0 -4 -9 0 -7 -10 -12 3 -9 -1 12 -4
-10 -1 -8 10 -2 -2 -4 13 10 16 -13 -2 1 9 3 -3
8 -6 -16 -4 -15 -1 -11 -13 5 0 1 -11 -3 7 14 -14
13 2 7 -6 -20 3 -21 0 18 -17 8 -7 5 -11 -4 15
4 3 -3 -4 -7 7 -18 -6 12 2 16 5 -6 4 16 -3
0 -7 11 -9 7 4 -1 -13 6 0 -4 10 -12 -1 -1 -1
0 10 -3 -8 -4 13 -11 5 -8 7 6 -7 6 18 1 4
5 2 20 -5 6 -9 -2 -4 -9 6 7 10 2 13 -9 -6
-11 -5 5 2 3 -1 -4 4 9 -4 -1 1 -18 1 -8 -11
-16 -20 -1 22 -5 10 12 1 -14 8 0 0 -13 -18 12 10
11 -13 3 3 15 -2 19 4 -20 -9 10 -11 -4 9 6 10
7 3 3 19 14 15 6 11 -14 -15 9 11 -3 2 1 8
17 -3 11 -1 -10 -3 7 -2 5 -4 -12 5 2 0 2 -13
-11 7 -2 8 18 -3 7 10 -6 -14 10 18 -3 1 3 8
0 -7 -14 13 -9 -7 8 6 -6 -8 -13 -20 -9 -7 -2 -6
-15 5 -16 5 17 2 5 10 -12 -10 1 14 -11 -14 15 -3
-2 13 -9 -6 1 3 2 6 -11 -13 -16 0 -14 1 11 1
-11 -11 3 7 4 1 9 7 -20 5 -19 -2 5 17 1 -6
6 -11 4 -3 -21 -9 -2 -4 2 -4 -5 -16 -8 11 2 -12
28 9 6 -11 -18 3 -1 -12 14 -8 5 -12 1 3 -7 -6
-3 -9 -5 -12 -6 2 -20 4 7 7 14 -9 -10 -13 10 0
3 -2 5 7 4 1 6 -12 8 3 2 -6 -16 0 -15 -10
9 -7 3 -5 15 8 -2 15 -18 10 1 5 -5 4 4 13
-5 3 4 7 6 1 8 6 11 -13 2 11 -6 -12 21 -1
5 -6 -8 -10 8 2 4 -8 -15 9 -7 7 -1 7 11 -8
-3 9 1 13 0 30 -2 13 7 34 -3 0 -8 -7 0 6
9 -5 -3 0 13 9 19 1 -18 -9 1 1 3 9 12 16
7 8 -1 10 0 30 -6 14 -5 -4 -2 25 -3 -4 -2 12
5 3 -1 -12 -4 -22 -12 -28 5 -2 5 14 -15 1 3 3
-11 -5 1 -4 2 13 6 7 -7 -12 6 -3 1 -3 -1 -9
6 3 -9 -3 -5 1 2 9 -12 2 -6 -14 6 -9 -15 -14
-1 -5 3 3 8 8 2 14 7 -2 1 7 -18 7 6 -5
4 10 -4 -7 3 -3 1 -1 -2 -5 -9 7 -9 -7 4 3
-11 -9 -1 -5 -1 1 13 1 -26 10 -13 -8 12 11 9 -16
7 -3 9 -8 -3 0 5 7 7 -11 -5 -4 3 8 17 -7
9 1 3 -14 -4 -16 3 -24 -3 -7 5 -12 -6 6 8 -5
-16 -17 -10 -2 -5 2 -1 15 -1 9 -1 0 -4 14 -12 7
-3 -10 4 -6 2 2 -6 -3 -1 -5 6 1 -21 -17 -18 -8
9 -3 -5 -2 6 4 0 32 -24 14 2 7 -4 -3 26 -2
0 -6 9 4 4 12 8 -2 -1 -4 -12 -1 1 -7 3 -14
3 2 -3 -22 3 0 1 -2 -15 -7 -7 10 -9 0 13 -6
-12 -4 -8 8 -17 3 -11 -4 -2 16 -16 -13 -13 -1 8 -10
4 7 -4 9 8 14 8 16 -14 5 -3 9 4 -16 -8 5
-3 10 -1 -8 7 18 -14 5 -11 -11 -6 8 9 6 1 -8
-16 -12 1 -11 4 -1 -14 -1 -6 -9 12 3 2 -9 -7 -12
7 0 -4 1 9 -5 10 -6 7 -13 15 3 -7 10 14 9
0 4 7 -4 -3 3 -3 6 -1 -5 -2 -13 -5 3 -1 0
2 -1 -4 -8 -10 -2 -4 10 7 -3 9 2 1 9 -2 -19
-19 -9 -6 1 -3 6 5 3 -21 -2 -9 10 4 6 3 -14
-2 15 -8 8 -6 12 -1 -2 9 10 1 -2 -1 9 -10 5
-5 -5 -7 -2 -9 4 -13 -3 -8 13 -2 13 -16 7 19 -15
5 4 13 -7 -6 -3 -11 4 1 -9 10 -17 1 12 5 3
1 -17 4 4 -12 7 -13 -5 3 1 5 -4 -8 2 3 0
4 -13 2 -7 1 6 -6 -4 5 -6 5 2 -9 -1 5 -6
11 -1 4 1 7 14 -3 2 4 1 -6 -12 -3 4 0 3
3 -4 -3 -19 -4 3 -3 -9 -8 -16 3 -3 -10 2 10 -14
0 14 2 18 7 -1 3 -2 2 -4 4 -1 -7 6 10 -7
-17 -9 -4 24 -4 -7 26 -15 0 3 5 9 -12 -13 12 22
10 -10 -13 4 6 -4 25 -9 -21 -11 7 -5 -2 8 6 15
2 14 -5 17 10 13 -9 10 -11 -7 9 2 -7 8 -1 12
-14 -10 0 8 4 -2 -10 1 9 -9 0 16 1 -11 -8 3
1 11 -2 29 15 4 1 1 0 -12 31 4 -2 11 19 9
-7 2 -1 8 -9 -8 -7 8 -6 -6 -9 -6 2 -1 5 5
-1 2 8 6 -14 0 -3 -1 -1 -1 11 -3 12 -3 -7 -10
-10 0 -4 0 -2 -3 1 -5 -14 -3 -10 4 -10 0 -6 -5
2 -9 11 10 5 5 3 0 -16 0 -10 8 -5 0 -9 -8
-3 -2 3 5 -12 1 -3 1 11 -12 -5 -8 -23 -8 -5 -11
21 1 9 -14 -18 -8 -6 -2 1 -9 18 -8 -13 16 2 4
13 -17 7 -12 0 -5 -5 6 7 -5 -4 4 -5 1 9 4
5 -2 6 -15 -1 11 3 2 4 6 -1 11 -16 -1 -3 -4
-1 -7 1 -12 -4 -1 -1 5 -10 4 -4 -5 4 -4 1 2
-6 0 -11 -13 -1 -2 9 -10 16 -16 16 -9 -18 -4 21 -10
15 12 -3 6 -1 14 0 -3 -3 8 11 -1 -10 16 15 -5
-1 8 16 -4 10 27 2 3 15 9 0 -14 -2 -6 -5 -1
-4 11 0 10 4 10 15 -16 -17 -6 -3 -2 0 -4 8 14
6 3 -5 23 -4 17 -7 7 -15 -12 6 15 -6 6 5 13
-18 -8 6 -3 9 -8 -4 -12 0 2 -11 15 -2 -4 5 8
2 -1 2 14 9 2 4 3 -5 -8 13 -10 -10 0 9 4
-1 -8 2 -2 5 -3 -7 17 -1 5 -8 -1 -6 -18 3 0
-8 -1 13 -4 -7 -3 -6 -2 4 11 14 -6 7 9 -11 5
-5 10 -6 1 3 -1 9 -10 -6 -4 -7 -1 -5 5 4 10
-5 -5 -5 -5 0 3 4 -4 -15 4 -7 2 10 6 -5 -10
-11 -4 2 -13 -1 -5 3 6 12 -11 -6 -6 -12 2 12 -8
11 -6 2 -14 -14 -3 1 3 -1 0 15 -12 -16 4 3 -7
-13 -23 -1 -2 -7 7 -4 5 4 12 2 -14 -3 17 -6 5
-5 -4 2 -11 -2 1 -3 5 3 -6 5 12 -12 -9 -6 -2
-2 -10 0 -4 5 -2 7 25 -9 10 4 -6 1 -9 9 3
2 -17 -3 -16 -6 2 -9 -3 13 -15 14 -4 -19 -7 13 7
-4 -3 -3 4 5 3 -4 14 -3 -2 14 8 -18 7 3 -1
-22 -11 0 7 2 -3 -2 -19 -3 9 -8 -20 -18 14 7 -1
-1 11 -6 6 7 20 3 16 -12 -2 -3 8 0 -15 -1 2
5 7 2 -2 2 11 -14 1 -2 -11 7 0 8 -7 -1 -1
