-2 -10 -23 15 9 -12 6 14 -16 -22 7 7 16 1 22 -8
-3 12 -11 11 -17 -33 -13 10 3 -25 6 32 -23 -20 -19 -14
16 15 -13 13 24 -10 4 -13 -9 -12 -1 0 2 -15 -10 -16
21 14 -2 -40 -10 -25 -3 3 25 -3 -4 30 -21 30 19 0
-1 -14 0 8 12 20 -22 12 38 -25 -46 11 2 -18 18 20
12 -11 5 -32 -3 -15 -8 5 25 -2 20 49 23 4 -10 21
-3 -28 -3 16 -10 33 3 -7 1 -8 -23 22 -1 8 -12 15
-5 -24 19 -28 24 -13 12 -5 10 -10 -20 44 23 -9 -11 -8
18 19 28 -23 -4 25 -18 14 -10 1 -19 9 -5 5 -20 -3
0 -18 -3 -25 -11 -5 -17 15 33 15 14 -21 35 -16 5 7
26 -3 28 -24 -21 -10 7 12 17 -11 -42 -6 -27 6 8 -7
-14 34 -14 -12 10 -30 -6 5 15 -21 -1 -14 12 -48 -15 8
-19 9 6 6 2 -3 -14 -24 13 1 -19 1 -6 -4 16 -14
19 12 28 -4 12 -7 4 22 -7 7 9 2 -3 -27 25 -24
30 22 26 2 3 -18 -6 9 3 -9 -20 -5 -20 -8 -16 -12
4 13 -29 -13 -9 -13 26 14 26 -10 25 -48 -15 -21 21 -19
19 2 -16 -7 27 1 -6 16 32 -18 -20 -16 14 -23 9 -20
12 -20 -11 13 -35 0 22 9 43 11 -14 -1 22 -14 3 -1
21 -10 -11 19 -14 19 1 15 20 0 -30 16 -29 9 -1 3
-25 8 -6 -7 -2 13 22 22 35 14 4 35 -11 8 -5 0
18 1 19 -19 13 -2 -8 7 -6 9 -12 1 -8 -12 -3 16
-8 22 -13 -18 -19 -28 -13 -16 28 8 15 24 22 -4 3 -17
22 -28 -24 -2 18 33 -10 2 24 -18 -49 11 -25 -6 11 6
-4 -34 26 -12 -19 -38 11 -13 28 5 15 50 3 -35 -15 -20
2 -9 -15 15 -14 -7 4 -6 -16 16 -46 -1 -17 23 -12 -24
-2 14 7 -10 4 -29 -7 31 49 11 -17 -2 -9 -41 13 -14
10 -27 16 -21 -19 16 7 8 -14 1 -39 -3 2 -7 10 8
19 6 10 -5 -39 -39 -17 20 58 -1 5 -10 16 -63 -32 -1
13 29 -1 -31 25 35 -4 6 16 21 -39 -10 -12 21 11 15
-9 -4 10 17 -37 -11 5 35 21 13 14 17 26 -3 -25 18
1 -4 21 -13 -5 2 -23 6 2 1 -38 3 13 -23 5 22
10 33 -8 -2 -30 6 2 32 63 -21 -1 -19 4 -26 -5 -22
14 -12 25 -1 12 20 17 21 19 5 -41 1 22 -21 5 -13
-9 -16 4 1 2 -27 15 1 -7 24 1 31 1 3 -19 0
-18 -23 -19 6 -5 28 -11 4 25 -7 -14 15 -14 4 -2 23
-13 -28 16 12 -5 6 21 -38 -3 26 -5 25 2 -16 -3 -1
-22 2 18 29 8 -2 25 13 1 -10 -13 -5 -5 -1 -17 3
10 -6 -20 8 -34 5 18 -19 37 -28 -25 25 -37 -15 -26 5
1 -15 7 4 5 4 1 15 22 6 -44 -18 0 -13 31 -26
-5 11 42 3 -35 -49 5 -9 17 14 18 52 -12 -35 -36 -3
-13 12 19 15 11 16 -13 -16 17 -8 -42 -35 -3 2 -7 -3
-6 29 13 19 -26 -3 8 -2 38 24 -20 17 10 -41 -46 -6
-22 0 26 7 -2 21 6 3 -5 24 -47 -14 17 -7 7 -5
15 -9 26 35 -55 -13 21 25 29 -12 0 19 -7 -27 -38 -6
1 -7 17 -17 -4 4 -21 1 -12 20 -30 9 -22 -16 -24 -4
19 7 24 17 -46 -2 -5 -7 -14 17 -5 -7 -7 9 -19 -1
-25 9 -7 -24 -1 11 7 -11 2 9 -17 -2 0 2 -7 22
14 6 -7 34 -41 13 -9 -3 13 -5 -31 10 -14 4 -12 21
10 -10 0 14 -15 12 11 3 19 10 -8 6 -20 -19 16 18
-7 -12 19 -15 -21 4 -1 -23 -19 1 5 18 6 -24 -18 -2
-28 10 -3 -2 23 6 -12 -17 11 4 10 5 13 -1 15 -4
-8 -18 3 -19 12 -5 17 -37 -26 -6 3 38 -25 -6 -1 -7
-9 -17 5 7 -19 12 13 15 -9 14 -3 -11 32 14 15 -17
-19 -10 1 -6 3 -24 -8 -24 28 -21 5 23 -10 -38 -22 -18
-6 28 8 19 -16 5 31 15 14 -17 -17 -10 2 -1 -3 -13
-10 2 24 -9 -1 -36 20 -3 4 -5 -13 41 -19 9 -4 10
-22 10 30 -12 -18 21 -3 4 -6 -10 -32 5 -16 15 -2 12
2 -5 12 -16 4 0 -5 -23 22 -17 -5 -5 -7 -6 -32 -6
-1 16 22 6 7 -11 11 1 11 -14 -44 -23 -8 -15 -24 -2
24 17 20 22 -29 -30 12 -12 -2 -16 -22 -8 7 0 3 7
5 -17 -11 -15 -15 2 18 -4 -3 -14 -36 -7 -3 -31 -24 5
23 34 15 3 -4 1 29 -20 -20 -26 -19 -3 -18 -22 -25 -16
-12 -7 18 -5 0 -11 7 -17 -12 26 1 -7 -9 19 -18 -8
14 9 -15 15 -7 7 2 -21 -30 14 -10 -18 -4 -11 -13 22
