-17 18 31 -5 2 -10 -3 -10 -12 17 -6 -1 -20 7 18 -10 22 18 32 -11 5 6 -10 10 -11 37 5 11 1 -12 13 5 14 1 -14 -19 1 28 3 -22 20 -18 10 22 -13 -2 9 -22 0 0 0 0 0 0 0 0 0 0 0 0 0 0 0 0
4 -11 -23 -16 6 15 -29 3 -5 22 -5 12 -13 11 5 5 35 26 -12 2 16 -17 -29 -30 -4 -3 34 15 4 9 -2 17 4 -8 -9 -12 16 4 -10 -26 -16 -18 -37 -8 -13 -4 5 11 0 0 0 0 0 0 0 0 0 0 0 0 0 0 0 0
14 21 4 -14 7 -8 -14 5 -1 6 -24 3 3 25 3 13 11 20 6 -41 -29 -21 15 4 22 -8 4 1 0 7 -4 -18 -8 7 -7 9 9 -7 -17 -12 27 4 -8 7 -1 -7 14 -34 0 0 0 0 0 0 0 0 0 0 0 0 0 0 0 0
-10 -5 -18 -13 4 13 15 -14 -20 -8 2 6 -12 -13 -1 11 13 1 0 4 -12 -9 -15 3 27 24 -10 7 2 29 27 7 -2 -17 -12 -7 12 5 -4 13 7 6 -11 -21 -2 -17 -8 16 0 0 0 0 0 0 0 0 0 0 0 0 0 0 0 0
16 -18 -9 2 8 8 5 -2 -7 -15 -6 -11 -19 -5 -8 -11 -10 19 12 -8 -25 -13 -26 25 2 -15 25 17 14 -21 -9 15 6 10 -17 -18 7 -7 15 -2 -53 55 33 6 -43 -8 -160 -20 0 0 0 0 0 0 0 0 0 0 0 0 0 0 0 0
0 0 0 0 0 0 0 0 0 0 0 0 0 0 0 0 0 0 0 0 0 0 0 0 0 0 0 0 0 0 0 0 0 0 0 0 0 0 0 0 0 0 0 0 0 0 0 0 0 0 0 0 0 0 0 0 0 0 0 0 0 0 0 0
0 0 0 0 0 0 0 0 0 0 0 0 0 0 0 0 0 0 0 0 0 0 0 0 0 0 0 0 0 0 0 0 0 0 0 0 0 0 0 0 0 0 0 0 0 0 0 0 0 0 0 0 0 0 0 0 0 0 0 0 0 0 0 0
0 0 0 0 0 0 0 0 0 0 0 0 0 0 0 0 0 0 0 0 0 0 0 0 0 0 0 0 0 0 0 0 0 0 0 0 0 0 0 0 0 0 0 0 0 0 0 0 0 0 0 0 0 0 0 0 0 0 0 0 0 0 0 0
11 10 23 9 -7 -21 -9 -2 -24 -14 4 -20 -8 -8 6 -34 -14 28 20 27 29 0 -14 18 -12 24 -21 -16 11 -7 -8 29 39 9 -27 -19 11 10 -7 17 27 -11 -25 13 -16 -13 8 20 0 0 0 0 0 0 0 0 0 0 0 0 0 0 0 0
-11 -5 -7 26 -28 -31 -2 -9 -18 -2 -30 -18 9 -5 15 -12 -10 36 -22 -9 26 22 -32 -7 -6 -26 2 19 -8 37 8 9 12 26 37 29 1 9 0 -7 -33 -28 -6 -8 -3 -25 -6 18 0 0 0 0 0 0 0 0 0 0 0 0 0 0 0 0
9 8 24 -9 22 7 10 -13 -13 -4 6 -13 0 6 8 -24 0 15 29 -31 14 -3 15 -7 27 5 4 9 3 5 8 18 17 8 -1 -21 -16 23 -2 14 20 -2 -1 1 -1 -27 15 -30 0 0 0 0 0 0 0 0 0 0 0 0 0 0 0 0
2 18 -27 8 -16 -7 -3 -30 -8 -13 -19 14 4 2 23 -10 22 -7 -11 -14 -16 15 -46 -3 26 8 6 5 26 37 -13 -4 4 28 -19 4 -11 -7 16 9 -14 -8 -37 -26 -3 -36 3 1 0 0 0 0 0 0 0 0 0 0 0 0 0 0 0 0
0 11 -6 14 -16 12 -15 15 9 -9 0 -8 -51 -8 -1 -9 -30 10 7 5 -12 18 -6 3 -5 -4 6 -6 -20 11 0 9 12 -8 -9 9 8 13 1 -10 -52 0 32 20 -54 -12 -205 -59 0 0 0 0 0 0 0 0 0 0 0 0 0 0 0 0
0 0 0 0 0 0 0 0 0 0 0 0 0 0 0 0 0 0 0 0 0 0 0 0 0 0 0 0 0 0 0 0 0 0 0 0 0 0 0 0 0 0 0 0 0 0 0 0 0 0 0 0 0 0 0 0 0 0 0 0 0 0 0 0
0 0 0 0 0 0 0 0 0 0 0 0 0 0 0 0 0 0 0 0 0 0 0 0 0 0 0 0 0 0 0 0 0 0 0 0 0 0 0 0 0 0 0 0 0 0 0 0 0 0 0 0 0 0 0 0 0 0 0 0 0 0 0 0
0 0 0 0 0 0 0 0 0 0 0 0 0 0 0 0 0 0 0 0 0 0 0 0 0 0 0 0 0 0 0 0 0 0 0 0 0 0 0 0 0 0 0 0 0 0 0 0 0 0 0 0 0 0 0 0 0 0 0 0 0 0 0 0
1 0 15 -22 20 -14 -7 -13 1 -35 16 -18 4 28 -30 -12 -20 22 2 27 -17 2 10 0 5 8 -10 10 -15 -8 -14 -1 -4 24 -14 -27 -13 1 -16 9 -19 -14 -15 19 14 -31 2 2 0 0 0 0 0 0 0 0 0 0 0 0 0 0 0 0
28 22 -15 16 -11 -32 11 13 -1 -21 -1 -23 -10 -8 8 -21 -6 26 -16 12 10 -15 -20 0 -19 27 8 -10 15 18 -43 11 17 17 29 30 12 -14 24 -20 17 -23 -2 -21 5 4 -9 -21 0 0 0 0 0 0 0 0 0 0 0 0 0 0 0 0
7 -18 -19 -1 4 20 -14 -12 -22 -15 22 4 4 -14 -2 -14 -16 17 30 -11 24 -3 3 15 17 17 -12 13 -21 0 6 2 23 14 -26 -16 -8 27 -7 -9 -7 2 -22 11 2 -23 25 -29 0 0 0 0 0 0 0 0 0 0 0 0 0 0 0 0
17 5 -5 1 -17 -23 1 17 5 2 -15 -8 -4 2 8 -4 49 2 18 2 -27 35 -34 -18 -13 -13 34 4 35 5 -15 -11 5 15 -10 30 16 -9 -22 6 0 -17 -24 5 -1 -16 17 -29 0 0 0 0 0 0 0 0 0 0 0 0 0 0 0 0
-19 8 -1 1 -13 -33 -5 3 -2 7 20 18 -30 -22 3 -5 -33 -10 -25 0 7 23 -12 15 18 19 5 -2 -14 3 21 8 -17 -16 16 10 -25 21 26 -5 -33 -24 8 21 -24 -16 -58 -19 0 0 0 0 0 0 0 0 0 0 0 0 0 0 0 0
0 0 0 0 0 0 0 0 0 0 0 0 0 0 0 0 0 0 0 0 0 0 0 0 0 0 0 0 0 0 0 0 0 0 0 0 0 0 0 0 0 0 0 0 0 0 0 0 0 0 0 0 0 0 0 0 0 0 0 0 0 0 0 0
0 0 0 0 0 0 0 0 0 0 0 0 0 0 0 0 0 0 0 0 0 0 0 0 0 0 0 0 0 0 0 0 0 0 0 0 0 0 0 0 0 0 0 0 0 0 0 0 0 0 0 0 0 0 0 0 0 0 0 0 0 0 0 0
0 0 0 0 0 0 0 0 0 0 0 0 0 0 0 0 0 0 0 0 0 0 0 0 0 0 0 0 0 0 0 0 0 0 0 0 0 0 0 0 0 0 0 0 0 0 0 0 0 0 0 0 0 0 0 0 0 0 0 0 0 0 0 0
8 32 4 6 35 0 -29 0 0 1 0 -2 2 35 -16 4 -10 0 -15 -17 -21 13 -18 -5 30 -6 5 8 0 -26 10 -5 -14 10 -16 -3 -31 16 -21 7 -13 -1 -7 9 13 -27 3 3 0 0 0 0 0 0 0 0 0 0 0 0 0 0 0 0
-6 -7 19 16 -18 -1 -14 20 14 -10 -31 -5 0 5 9 14 33 -8 -25 14 16 -6 -20 -9 -2 -15 25 -8 3 -2 -16 15 10 32 -2 -10 17 -10 25 -23 10 -23 -4 0 -2 -6 -10 -15 0 0 0 0 0 0 0 0 0 0 0 0 0 0 0 0
2 -1 -11 -22 13 0 -20 -4 17 8 -13 -1 -15 1 5 -8 6 -8 10 -22 -21 5 1 3 6 1 -12 -16 -3 15 -19 -40 -11 -3 -4 3 -15 4 -10 1 -4 7 -8 12 3 -7 13 -9 0 0 0 0 0 0 0 0 0 0 0 0 0 0 0 0
16 2 12 3 -15 10 -9 38 -22 4 11 -9 -22 -5 -4 21 17 16 21 20 -2 11 -14 -23 -14 -14 -1 7 -8 7 41 -10 1 -16 0 5 10 -20 -6 -2 22 -1 3 4 0 4 8 -15 0 0 0 0 0 0 0 0 0 0 0 0 0 0 0 0
-13 -2 -7 -23 0 -20 4 -7 1 -5 3 12 -14 -9 -5 12 -20 -1 -28 20 -10 -4 -19 9 31 19 8 2 25 14 15 -3 -1 -17 6 -15 -11 -30 15 0 -40 -21 -5 2 5 -20 -64 -9 0 0 0 0 0 0 0 0 0 0 0 0 0 0 0 0
0 0 0 0 0 0 0 0 0 0 0 0 0 0 0 0 0 0 0 0 0 0 0 0 0 0 0 0 0 0 0 0 0 0 0 0 0 0 0 0 0 0 0 0 0 0 0 0 0 0 0 0 0 0 0 0 0 0 0 0 0 0 0 0
0 0 0 0 0 0 0 0 0 0 0 0 0 0 0 0 0 0 0 0 0 0 0 0 0 0 0 0 0 0 0 0 0 0 0 0 0 0 0 0 0 0 0 0 0 0 0 0 0 0 0 0 0 0 0 0 0 0 0 0 0 0 0 0
0 0 0 0 0 0 0 0 0 0 0 0 0 0 0 0 0 0 0 0 0 0 0 0 0 0 0 0 0 0 0 0 0 0 0 0 0 0 0 0 0 0 0 0 0 0 0 0 0 0 0 0 0 0 0 0 0 0 0 0 0 0 0 0
-26 12 28 -3 37 6 -24 7 -19 -43 12 0 -7 -6 -26 10 5 3 -13 -10 33 11 -19 17 -2 27 6 10 11 9 -1 14 24 3 -8 -20 -14 14 0 9 28 -35 -30 -10 -34 -16 0 0 0 0 0 0 0 0 0 0 0 0 0 0 0 0 0 0
0 7 -11 28 -2 6 26 -15 -16 -10 -25 -8 17 -33 -9 -20 8 25 -3 20 -7 -11 -11 -39 17 4 9 6 4 11 -1 3 15 -7 14 13 -6 0 18 -22 19 -1 -7 -33 -1 -6 -8 12 0 0 0 0 0 0 0 0 0 0 0 0 0 0 0 0
19 38 23 -13 15 9 -3 -1 -14 -23 -9 13 3 26 -13 -26 -28 21 32 -35 4 16 -8 -4 3 3 4 20 8 5 26 0 23 -14 -14 10 -19 26 -20 -22 41 0 -3 0 -4 -20 8 -28 0 0 0 0 0 0 0 0 0 0 0 0 0 0 0 0
7 -14 -15 -4 -23 -8 3 -34 -4 -32 -16 -3 -5 -1 1 -31 -8 19 6 1 7 -1 -31 9 11 3 15 4 6 33 13 4 23 19 0 8 26 -5 2 7 3 -4 -22 -15 -2 -27 -5 9 0 0 0 0 0 0 0 0 0 0 0 0 0 0 0 0
-14 7 -6 7 28 8 28 3 -5 -6 -17 -11 -64 -2 0 12 -11 -5 -6 13 -13 9 14 8 28 9 15 8 -2 5 -5 -3 -3 -16 11 5 -30 -14 4 -25 -35 10 18 6 -66 -26 -159 -85 0 0 0 0 0 0 0 0 0 0 0 0 0 0 0 0
0 0 0 0 0 0 0 0 0 0 0 0 0 0 0 0 0 0 0 0 0 0 0 0 0 0 0 0 0 0 0 0 0 0 0 0 0 0 0 0 0 0 0 0 0 0 0 0 0 0 0 0 0 0 0 0 0 0 0 0 0 0 0 0
0 0 0 0 0 0 0 0 0 0 0 0 0 0 0 0 0 0 0 0 0 0 0 0 0 0 0 0 0 0 0 0 0 0 0 0 0 0 0 0 0 0 0 0 0 0 0 0 0 0 0 0 0 0 0 0 0 0 0 0 0 0 0 0
0 0 0 0 0 0 0 0 0 0 0 0 0 0 0 0 0 0 0 0 0 0 0 0 0 0 0 0 0 0 0 0 0 0 0 0 0 0 0 0 0 0 0 0 0 0 0 0 0 0 0 0 0 0 0 0 0 0 0 0 0 0 0 0
-6 35 25 26 6 3 5 -10 -19 -14 23 -27 -17 -18 -23 -16 23 8 23 -2 -5 16 2 4 8 33 -15 5 -11 8 18 6 4 -8 -6 -31 -28 21 14 10 12 -4 1 18 4 -23 5 -16 0 0 0 0 0 0 0 0 0 0 0 0 0 0 0 0
18 -19 -5 24 -26 -24 -5 -12 -35 9 -28 3 12 -23 19 -30 32 12 8 14 -21 1 -11 2 8 1 3 -12 8 -3 -1 -9 26 11 13 34 -12 -1 7 1 3 -11 -11 10 -15 5 -2 7 0 0 0 0 0 0 0 0 0 0 0 0 0 0 0 0
3 30 36 10 34 -24 21 -4 -29 -24 1 -1 3 23 -17 -12 -2 33 26 -45 0 29 5 -30 30 68 -24 44 24 26 5 18 6 -7 -29 -10 -35 46 -30 -25 9 -7 -17 -10 -1 -8 17 -35 0 0 0 0 0 0 0 0 0 0 0 0 0 0 0 0
8 15 -36 27 -41 -20 21 -54 -17 10 -47 -5 0 -12 19 -39 44 39 -22 9 -2 31 -35 -15 21 12 45 -15 35 66 -38 -36 33 48 -16 28 35 -17 -8 -26 -8 -19 -22 -14 -2 -50 -6 13 0 0 0 0 0 0 0 0 0 0 0 0 0 0 0 0
20 -5 12 8 2 -6 33 5 6 -2 10 0 -65 -44 2 -29 -25 10 2 4 21 17 -8 10 10 6 16 -8 2 9 21 -21 1 -27 -1 22 -17 -3 -1 -26 -34 15 26 11 -134 -26 -156 -127 0 0 0 0 0 0 0 0 0 0 0 0 0 0 0 0
0 0 0 0 0 0 0 0 0 0 0 0 0 0 0 0 0 0 0 0 0 0 0 0 0 0 0 0 0 0 0 0 0 0 0 0 0 0 0 0 0 0 0 0 0 0 0 0 0 0 0 0 0 0 0 0 0 0 0 0 0 0 0 0
0 0 0 0 0 0 0 0 0 0 0 0 0 0 0 0 0 0 0 0 0 0 0 0 0 0 0 0 0 0 0 0 0 0 0 0 0 0 0 0 0 0 0 0 0 0 0 0 0 0 0 0 0 0 0 0 0 0 0 0 0 0 0 0
0 0 0 0 0 0 0 0 0 0 0 0 0 0 0 0 0 0 0 0 0 0 0 0 0 0 0 0 0 0 0 0 0 0 0 0 0 0 0 0 0 0 0 0 0 0 0 0 0 0 0 0 0 0 0 0 0 0 0 0 0 0 0 0
-16 23 4 -12 1 -23 -11 -11 -11 -15 15 -14 -10 -7 -4 -16 12 1 -14 27 -13 20 19 -23 -23 -10 -15 20 8 -5 13 28 32 20 -3 -26 -8 24 -18 3 -15 -3 16 35 22 -19 7 8 0 0 0 0 0 0 0 0 0 0 0 0 0 0 0 0
28 17 0 6 12 -9 -18 -18 -21 32 -32 -13 36 -13 16 -18 44 19 -10 -29 -34 31 -38 -1 -7 -3 18 8 29 17 -30 -3 3 0 -12 6 6 7 7 1 0 -29 -39 0 0 -32 -2 -4 0 0 0 0 0 0 0 0 0 0 0 0 0 0 0 0
-11 14 29 37 9 0 0 12 -19 -20 21 -33 -18 0 -44 -9 20 26 27 -19 -2 -9 12 -16 24 37 -32 16 35 -4 -13 -6 32 16 -52 -44 -30 40 -34 -19 -15 0 -28 7 3 -20 23 -23 0 0 0 0 0 0 0 0 0 0 0 0 0 0 0 0
23 -8 -33 20 -17 -5 -23 -15 -22 33 -45 -5 22 -1 13 -11 66 -2 -11 -17 2 63 -42 -37 -27 3 39 9 47 64 -41 -19 4 37 -17 32 8 18 15 -48 19 -27 -25 -16 -2 -23 6 -16 0 0 0 0 0 0 0 0 0 0 0 0 0 0 0 0
4 -13 -6 -15 -32 -27 -4 11 2 -23 15 24 -47 -54 4 -29 -25 4 -13 -9 -10 20 -2 26 13 -20 -2 7 -3 1 8 8 21 -1 17 -22 9 0 17 11 -44 -32 6 1 -96 -9 -12 -67 0 0 0 0 0 0 0 0 0 0 0 0 0 0 0 0
0 0 0 0 0 0 0 0 0 0 0 0 0 0 0 0 0 0 0 0 0 0 0 0 0 0 0 0 0 0 0 0 0 0 0 0 0 0 0 0 0 0 0 0 0 0 0 0 0 0 0 0 0 0 0 0 0 0 0 0 0 0 0 0
0 0 0 0 0 0 0 0 0 0 0 0 0 0 0 0 0 0 0 0 0 0 0 0 0 0 0 0 0 0 0 0 0 0 0 0 0 0 0 0 0 0 0 0 0 0 0 0 0 0 0 0 0 0 0 0 0 0 0 0 0 0 0 0
0 0 0 0 0 0 0 0 0 0 0 0 0 0 0 0 0 0 0 0 0 0 0 0 0 0 0 0 0 0 0 0 0 0 0 0 0 0 0 0 0 0 0 0 0 0 0 0 0 0 0 0 0 0 0 0 0 0 0 0 0 0 0 0
-15 15 -4 -15 17 -26 -17 -8 9 -26 -8 -15 11 28 -8 -18 -27 15 -12 20 -12 23 -15 10 8 18 -11 10 7 -1 5 17 1 -4 -4 -18 -5 -1 -31 7 -5 9 3 -5 -3 -17 2 16 0 0 0 0 0 0 0 0 0 0 0 0 0 0 0 0
-14 -2 10 24 -12 -13 2 -6 7 -14 -17 0 10 11 -1 -20 3 10 -7 -2 7 4 -34 -32 18 -22 28 17 4 41 -34 4 18 -7 -7 1 20 16 28 -35 1 -14 -40 -26 3 -24 -4 0 0 0 0 0 0 0 0 0 0 0 0 0 0 0 0 0
5 26 -14 -18 9 -10 -9 10 -15 -32 1 -35 -9 0 -22 -16 2 13 15 -10 13 -3 -1 7 4 4 -12 19 -18 7 13 -13 30 2 -34 -28 -25 22 -3 11 7 -4 -6 22 3 -13 8 -16 0 0 0 0 0 0 0 0 0 0 0 0 0 0 0 0
-4 4 3 -17 17 -15 -12 13 -18 15 -9 3 20 -10 -6 2 21 -14 -5 -17 -16 27 -39 -10 -7 -10 33 18 24 31 -8 -9 -8 -19 -17 2 10 4 13 -13 24 -13 -27 -13 -1 2 10 -23 0 0 0 0 0 0 0 0 0 0 0 0 0 0 0 0
-10 7 9 -21 2 -17 -15 26 15 7 -9 13 -43 -30 -5 4 -15 -28 -17 10 3 -5 -4 14 29 3 4 -8 24 -3 -18 8 -10 6 -20 -15 2 -6 7 -6 -48 8 1 -8 -22 -1 -21 -18 0 0 0 0 0 0 0 0 0 0 0 0 0 0 0 0
0 0 0 0 0 0 0 0 0 0 0 0 0 0 0 0 0 0 0 0 0 0 0 0 0 0 0 0 0 0 0 0 0 0 0 0 0 0 0 0 0 0 0 0 0 0 0 0 0 0 0 0 0 0 0 0 0 0 0 0 0 0 0 0
0 0 0 0 0 0 0 0 0 0 0 0 0 0 0 0 0 0 0 0 0 0 0 0 0 0 0 0 0 0 0 0 0 0 0 0 0 0 0 0 0 0 0 0 0 0 0 0 0 0 0 0 0 0 0 0 0 0 0 0 0 0 0 0
0 0 0 0 0 0 0 0 0 0 0 0 0 0 0 0 0 0 0 0 0 0 0 0 0 0 0 0 0 0 0 0 0 0 0 0 0 0 0 0 0 0 0 0 0 0 0 0 0 0 0 0 0 0 0 0 0 0 0 0 0 0 0 0
-3 42 20 8 3 -18 -6 -6 -35 -26 -19 -22 -14 -17 -28 -14 -9 -6 -11 31 15 27 17 -14 23 23 -8 27 -18 17 16 29 24 -5 -22 22 -21 31 -9 25 16 0 5 8 7 -15 1 4 0 0 0 0 0 0 0 0 0 0 0 0 0 0 0 0
22 -9 11 33 -5 6 24 -31 -22 -19 -31 -17 22 -22 5 -14 24 7 13 -11 -23 23 -28 -3 18 -13 -2 -15 17 19 -1 -7 -15 25 0 1 -7 -14 14 -18 -9 -28 -11 -1 6 -34 9 -21 0 0 0 0 0 0 0 0 0 0 0 0 0 0 0 0
-5 39 24 -18 -7 3 29 -15 6 -27 20 3 -8 19 -12 -20 1 0 5 10 -7 33 -20 -8 -18 33 11 16 29 -11 6 47 25 -32 11 -3 3 22 -8 9 8 -19 13 0 2 -21 -3 11 0 0 0 0 0 0 0 0 0 0 0 0 0 0 0 0
-3 5 18 8 18 0 -10 -14 10 -8 -17 10 -1 20 -1 -26 -27 -7 -35 6 24 11 -24 -2 11 -7 11 -8 10 14 -1 -5 3 14 -8 11 18 -13 25 -10 -35 -20 -33 -32 2 -16 -2 17 0 0 0 0 0 0 0 0 0 0 0 0 0 0 0 0
-10 -2 20 -32 -6 -12 31 36 19 -7 -21 -7 -56 -37 10 10 5 20 8 -8 11 -6 28 -16 -1 -6 -2 -21 6 -1 3 -16 2 3 4 -3 19 -5 -11 7 42 -2 8 -25 -88 -22 4 -67 0 0 0 0 0 0 0 0 0 0 0 0 0 0 0 0
0 0 0 0 0 0 0 0 0 0 0 0 0 0 0 0 0 0 0 0 0 0 0 0 0 0 0 0 0 0 0 0 0 0 0 0 0 0 0 0 0 0 0 0 0 0 0 0 0 0 0 0 0 0 0 0 0 0 0 0 0 0 0 0
0 0 0 0 0 0 0 0 0 0 0 0 0 0 0 0 0 0 0 0 0 0 0 0 0 0 0 0 0 0 0 0 0 0 0 0 0 0 0 0 0 0 0 0 0 0 0 0 0 0 0 0 0 0 0 0 0 0 0 0 0 0 0 0
0 0 0 0 0 0 0 0 0 0 0 0 0 0 0 0 0 0 0 0 0 0 0 0 0 0 0 0 0 0 0 0 0 0 0 0 0 0 0 0 0 0 0 0 0 0 0 0 0 0 0 0 0 0 0 0 0 0 0 0 0 0 0 0
-26 24 19 -7 6 20 3 8 -34 -15 3 -12 13 -12 -18 0 22 -8 33 37 -21 18 12 -24 -13 40 0 7 24 1 -22 12 11 22 -21 -10 -6 2 -20 -2 26 -5 -2 -12 8 -6 3 -24 0 0 0 0 0 0 0 0 0 0 0 0 0 0 0 0
26 -3 -39 -7 8 -13 12 -19 -22 23 -30 -11 14 -16 -8 -32 9 15 13 -30 -5 -7 -36 -34 3 6 23 -7 -5 37 9 17 17 11 -18 3 17 -14 10 -28 -24 -13 -22 -17 -5 11 7 -16 0 0 0 0 0 0 0 0 0 0 0 0 0 0 0 0
14 72 39 29 -16 -20 26 22 -28 -34 -7 5 -8 24 -66 1 -5 29 11 -23 -21 30 -18 -26 6 37 -19 36 -13 -2 -3 33 25 13 -19 -13 -35 34 -36 -29 11 -25 -2 3 1 -11 -4 -2 0 0 0 0 0 0 0 0 0 0 0 0 0 0 0 0
19 -23 -22 28 13 -6 -5 -53 0 18 -62 28 20 -22 -25 -53 15 33 -46 8 27 31 -28 -9 -1 8 38 -5 27 54 -54 -1 7 41 -4 29 28 11 15 -23 -38 -34 -27 -23 3 -10 2 -6 0 0 0 0 0 0 0 0 0 0 0 0 0 0 0 0
18 -14 1 -10 5 -6 19 17 -10 -19 -10 12 -64 -56 26 -26 18 4 -11 -8 -12 -15 20 25 -2 -22 2 -9 -11 -6 3 -18 -24 5 9 -1 -9 17 -7 -23 30 -9 -7 -29 -132 -1 32 -45 0 0 0 0 0 0 0 0 0 0 0 0 0 0 0 0
0 0 0 0 0 0 0 0 0 0 0 0 0 0 0 0 0 0 0 0 0 0 0 0 0 0 0 0 0 0 0 0 0 0 0 0 0 0 0 0 0 0 0 0 0 0 0 0 0 0 0 0 0 0 0 0 0 0 0 0 0 0 0 0
0 0 0 0 0 0 0 0 0 0 0 0 0 0 0 0 0 0 0 0 0 0 0 0 0 0 0 0 0 0 0 0 0 0 0 0 0 0 0 0 0 0 0 0 0 0 0 0 0 0 0 0 0 0 0 0 0 0 0 0 0 0 0 0
0 0 0 0 0 0 0 0 0 0 0 0 0 0 0 0 0 0 0 0 0 0 0 0 0 0 0 0 0 0 0 0 0 0 0 0 0 0 0 0 0 0 0 0 0 0 0 0 0 0 0 0 0 0 0 0 0 0 0 0 0 0 0 0
-8 9 -17 13 -7 -6 -28 21 -16 -33 2 1 16 -1 -14 3 19 22 22 6 10 -10 5 -16 -10 12 5 -15 -5 23 -1 10 16 -6 -1 -30 -16 -1 -35 -21 -31 -14 -15 -6 5 -15 2 -6 0 0 0 0 0 0 0 0 0 0 0 0 0 0 0 0
-5 -12 -32 11 -6 -10 -3 -24 -20 17 -36 -21 33 -10 -12 -4 -3 2 -19 -20 7 31 -15 -15 -3 -18 37 -16 0 29 -9 14 25 19 -13 26 -9 24 1 -18 -22 -5 -35 8 2 -5 10 6 0 0 0 0 0 0 0 0 0 0 0 0 0 0 0 0
-21 48 31 24 2 -20 35 33 -46 -14 -15 -43 -10 -14 -68 -29 2 -7 -9 -8 15 7 13 -37 0 19 -16 22 -1 19 -7 -4 27 26 -20 -30 -59 44 -39 9 -12 -11 -6 19 -1 -10 -14 24 0 0 0 0 0 0 0 0 0 0 0 0 0 0 0 0
18 -1 -44 43 -5 -7 -10 -51 -32 25 -75 24 30 -26 -13 -21 28 40 -8 -24 15 27 -9 -36 -36 -12 34 -4 4 41 -70 -25 6 47 25 -10 -17 25 29 -52 -4 -29 -31 -6 -1 7 3 -23 0 0 0 0 0 0 0 0 0 0 0 0 0 0 0 0
11 7 -14 1 -16 11 -17 0 -9 -1 -15 32 -43 -53 -6 -20 -5 -11 -22 28 14 13 16 35 -7 -12 -20 4 13 21 -17 -1 -8 -4 -1 16 -21 10 -19 -22 63 -133 -20 -17 -12 15 138 5 0 0 0 0 0 0 0 0 0 0 0 0 0 0 0 0
0 0 0 0 0 0 0 0 0 0 0 0 0 0 0 0 0 0 0 0 0 0 0 0 0 0 0 0 0 0 0 0 0 0 0 0 0 0 0 0 0 0 0 0 0 0 0 0 0 0 0 0 0 0 0 0 0 0 0 0 0 0 0 0
0 0 0 0 0 0 0 0 0 0 0 0 0 0 0 0 0 0 0 0 0 0 0 0 0 0 0 0 0 0 0 0 0 0 0 0 0 0 0 0 0 0 0 0 0 0 0 0 0 0 0 0 0 0 0 0 0 0 0 0 0 0 0 0
0 0 0 0 0 0 0 0 0 0 0 0 0 0 0 0 0 0 0 0 0 0 0 0 0 0 0 0 0 0 0 0 0 0 0 0 0 0 0 0 0 0 0 0 0 0 0 0 0 0 0 0 0 0 0 0 0 0 0 0 0 0 0 0
-17 21 5 -1 12 -36 -6 -3 0 -34 11 -17 6 -4 -19 -12 31 16 11 11 -25 -7 28 -16 -14 22 2 16 20 9 -3 -6 26 -20 4 -32 1 25 -27 -18 15 18 13 18 -1 -9 32 -22 0 0 0 0 0 0 0 0 0 0 0 0 0 0 0 0
37 -4 -33 -19 3 14 -16 -29 -16 -9 -2 -11 -26 -3 -13 -14 -1 33 -4 17 5 11 2 3 6 7 34 -22 40 2 -18 10 8 -8 -12 34 -23 21 -13 -36 -5 -19 -35 -21 5 -38 14 -4 0 0 0 0 0 0 0 0 0 0 0 0 0 0 0 0
-31 13 -13 -6 -16 8 20 6 -42 -14 18 -25 12 -16 -26 -17 -4 -5 -17 25 35 -11 15 6 -18 17 15 22 18 -1 14 17 36 -8 -23 -10 9 24 -19 11 -8 -9 -9 15 0 -19 -12 18 0 0 0 0 0 0 0 0 0 0 0 0 0 0 0 0
-12 6 -10 1 19 -12 12 -18 -7 0 -35 -1 12 8 -2 3 8 -8 11 -26 -9 7 5 -18 -23 -10 25 -8 8 -9 -32 -19 -1 5 20 -17 3 24 5 -26 -3 -13 -39 -9 0 0 4 -3 0 0 0 0 0 0 0 0 0 0 0 0 0 0 0 0
-5 -2 8 -2 -16 -7 -1 11 -4 4 -20 13 -15 -37 -18 -2 -14 2 11 -4 27 21 10 23 -12 -12 -7 12 2 -7 -11 20 1 11 5 6 -5 18 10 10 58 -104 7 -3 11 3 139 13 0 0 0 0 0 0 0 0 0 0 0 0 0 0 0 0
0 0 0 0 0 0 0 0 0 0 0 0 0 0 0 0 0 0 0 0 0 0 0 0 0 0 0 0 0 0 0 0 0 0 0 0 0 0 0 0 0 0 0 0 0 0 0 0 0 0 0 0 0 0 0 0 0 0 0 0 0 0 0 0
0 0 0 0 0 0 0 0 0 0 0 0 0 0 0 0 0 0 0 0 0 0 0 0 0 0 0 0 0 0 0 0 0 0 0 0 0 0 0 0 0 0 0 0 0 0 0 0 0 0 0 0 0 0 0 0 0 0 0 0 0 0 0 0
0 0 0 0 0 0 0 0 0 0 0 0 0 0 0 0 0 0 0 0 0 0 0 0 0 0 0 0 0 0 0 0 0 0 0 0 0 0 0 0 0 0 0 0 0 0 0 0 0 0 0 0 0 0 0 0 0 0 0 0 0 0 0 0
20 12 4 -30 -8 -7 -19 18 8 -12 -16 -19 -18 0 7 -23 5 46 33 33 42 -16 -4 2 10 24 -3 -18 -10 5 7 5 24 16 -3 13 9 20 -38 -6 -5 -17 -13 -7 3 13 2 -18 0 0 0 0 0 0 0 0 0 0 0 0 0 0 0 0
-7 -3 -42 8 -5 -12 -8 -3 22 -3 14 -22 13 19 -13 19 11 -2 -8 -21 -8 15 -1 7 15 9 35 -16 18 17 0 7 -4 2 -3 -9 13 1 25 -25 -19 14 -23 9 3 -6 16 10 0 0 0 0 0 0 0 0 0 0 0 0 0 0 0 0
-9 25 1 -28 3 -3 11 -21 7 4 14 -1 5 -2 9 12 20 -4 -16 -5 -34 -6 -12 -2 0 2 14 5 -6 4 -6 38 -5 5 15 14 17 3 2 13 -4 -16 6 4 4 -10 2 7 0 0 0 0 0 0 0 0 0 0 0 0 0 0 0 0
-25 19 13 -4 21 15 15 -25 -22 18 -10 14 4 6 10 14 -17 3 -15 7 2 2 26 4 29 -20 -22 -22 9 -6 -10 -15 12 -2 -10 2 -5 -4 15 25 -36 -19 -12 -26 3 -14 1 10 0 0 0 0 0 0 0 0 0 0 0 0 0 0 0 0
3 -3 11 8 -19 10 -16 15 10 -4 -6 9 -14 -18 9 -13 -9 11 2 -11 -8 -25 14 8 -21 -23 2 4 8 5 -1 12 -26 15 -8 7 5 9 -12 5 13 29 7 -21 -48 1 -20 -9 0 0 0 0 0 0 0 0 0 0 0 0 0 0 0 0
0 0 0 0 0 0 0 0 0 0 0 0 0 0 0 0 0 0 0 0 0 0 0 0 0 0 0 0 0 0 0 0 0 0 0 0 0 0 0 0 0 0 0 0 0 0 0 0 0 0 0 0 0 0 0 0 0 0 0 0 0 0 0 0
0 0 0 0 0 0 0 0 0 0 0 0 0 0 0 0 0 0 0 0 0 0 0 0 0 0 0 0 0 0 0 0 0 0 0 0 0 0 0 0 0 0 0 0 0 0 0 0 0 0 0 0 0 0 0 0 0 0 0 0 0 0 0 0
0 0 0 0 0 0 0 0 0 0 0 0 0 0 0 0 0 0 0 0 0 0 0 0 0 0 0 0 0 0 0 0 0 0 0 0 0 0 0 0 0 0 0 0 0 0 0 0 0 0 0 0 0 0 0 0 0 0 0 0 0 0 0 0
-13 23 20 3 5 2 -11 21 -1 15 -5 12 2 10 -10 -34 -2 1 10 19 19 -4 30 -7 -12 22 -7 12 27 -14 -21 -16 30 21 2 8 -9 22 -16 11 14 -13 -4 -19 -5 -28 2 -6 0 0 0 0 0 0 0 0 0 0 0 0 0 0 0 0
16 12 -36 -16 14 17 -3 -3 -7 21 -31 -34 -1 -12 21 -14 21 24 -17 -11 -23 -6 -1 -39 -10 19 41 -18 26 36 2 15 -24 26 -3 -8 -6 2 -8 -15 -30 -23 -19 -10 12 -11 4 -18 0 0 0 0 0 0 0 0 0 0 0 0 0 0 0 0
16 38 25 4 -21 -3 18 25 -17 2 -1 -13 -16 17 -21 -10 -3 6 2 -6 -5 -2 -2 -10 6 8 11 0 -26 -16 -16 25 22 24 6 -16 -16 6 -31 16 19 -21 12 16 2 -29 -5 3 0 0 0 0 0 0 0 0 0 0 0 0 0 0 0 0
17 -2 4 25 15 20 -10 -43 -22 -22 -34 31 3 15 6 10 -9 14 -12 -7 6 15 -37 -14 -12 -32 4 -4 21 -10 -17 2 10 31 -4 6 1 -13 11 -1 -39 -30 -30 -27 3 2 1 -1 0 0 0 0 0 0 0 0 0 0 0 0 0 0 0 0
-7 -8 -15 -9 -26 -2 23 20 -14 -27 -13 18 -27 -48 17 11 -8 21 -3 -9 -3 9 -8 15 -5 -23 -5 -15 -8 -10 -10 23 -17 5 -1 -11 -5 18 15 15 28 -2 6 -13 -51 5 -16 -19 0 0 0 0 0 0 0 0 0 0 0 0 0 0 0 0
0 0 0 0 0 0 0 0 0 0 0 0 0 0 0 0 0 0 0 0 0 0 0 0 0 0 0 0 0 0 0 0 0 0 0 0 0 0 0 0 0 0 0 0 0 0 0 0 0 0 0 0 0 0 0 0 0 0 0 0 0 0 0 0
0 0 0 0 0 0 0 0 0 0 0 0 0 0 0 0 0 0 0 0 0 0 0 0 0 0 0 0 0 0 0 0 0 0 0 0 0 0 0 0 0 0 0 0 0 0 0 0 0 0 0 0 0 0 0 0 0 0 0 0 0 0 0 0
0 0 0 0 0 0 0 0 0 0 0 0 0 0 0 0 0 0 0 0 0 0 0 0 0 0 0 0 0 0 0 0 0 0 0 0 0 0 0 0 0 0 0 0 0 0 0 0 0 0 0 0 0 0 0 0 0 0 0 0 0 0 0 0
9 22 20 8 -9 -31 -8 -6 -32 -6 -18 -17 4 18 -30 -25 -7 1 29 3 -13 23 19 -9 14 20 -11 9 5 -16 2 -1 -8 -13 -42 5 -29 6 -20 -17 5 -8 3 19 7 -32 17 -24 0 0 0 0 0 0 0 0 0 0 0 0 0 0 0 0
19 -28 -14 28 -13 -5 9 -6 -11 17 -22 -5 -2 -3 13 -28 -6 5 -4 20 -3 -5 -36 -42 -24 9 21 -32 21 27 -37 22 15 26 -4 -7 -11 -28 0 -16 -17 -14 0 -32 11 -14 11 -35 0 0 0 0 0 0 0 0 0 0 0 0 0 0 0 0
-6 13 -14 -4 -22 -11 27 21 -38 -12 -22 -13 -1 -7 -31 -28 -15 -12 -11 9 36 16 19 -3 -5 18 0 12 -30 11 -8 -6 16 7 11 -16 -24 18 -21 26 -5 -8 5 23 -2 -13 -10 19 0 0 0 0 0 0 0 0 0 0 0 0 0 0 0 0
18 7 -12 21 23 -19 2 12 9 -7 -33 26 -10 -20 -32 -10 23 17 -8 -4 -16 -3 -36 -29 -24 5 36 9 -16 0 -20 -3 -27 11 21 -17 -1 -1 -4 -27 -14 -21 -42 4 -2 22 7 -22 0 0 0 0 0 0 0 0 0 0 0 0 0 0 0 0
5 3 -4 -19 -5 -13 1 7 -10 4 -19 7 -18 -39 -12 6 -2 5 -4 19 26 15 -22 18 -8 15 -6 -18 -8 2 6 -10 -6 -7 -10 9 -3 25 11 -15 64 -107 -4 5 31 5 105 33 0 0 0 0 0 0 0 0 0 0 0 0 0 0 0 0
0 0 0 0 0 0 0 0 0 0 0 0 0 0 0 0 0 0 0 0 0 0 0 0 0 0 0 0 0 0 0 0 0 0 0 0 0 0 0 0 0 0 0 0 0 0 0 0 0 0 0 0 0 0 0 0 0 0 0 0 0 0 0 0
0 0 0 0 0 0 0 0 0 0 0 0 0 0 0 0 0 0 0 0 0 0 0 0 0 0 0 0 0 0 0 0 0 0 0 0 0 0 0 0 0 0 0 0 0 0 0 0 0 0 0 0 0 0 0 0 0 0 0 0 0 0 0 0
0 0 0 0 0 0 0 0 0 0 0 0 0 0 0 0 0 0 0 0 0 0 0 0 0 0 0 0 0 0 0 0 0 0 0 0 0 0 0 0 0 0 0 0 0 0 0 0 0 0 0 0 0 0 0 0 0 0 0 0 0 0 0 0
-8 3 10 -19 -3 -31 -22 -3 -25 -37 -12 -9 -10 -11 -14 4 19 28 23 24 -2 -3 5 -37 5 -2 23 -3 -24 22 -1 30 18 -8 -42 1 -13 19 -37 -19 4 0 3 6 6 -19 2 -9 0 0 0 0 0 0 0 0 0 0 0 0 0 0 0 0
24 3 -32 4 9 -1 1 -18 9 -1 -2 -14 9 -6 -31 1 -7 9 -16 -12 20 22 -39 8 -21 -2 8 -19 34 -7 -26 26 17 23 5 0 9 -16 4 -13 3 1 -21 3 -3 -16 21 -13 0 0 0 0 0 0 0 0 0 0 0 0 0 0 0 0
-31 -2 -7 -3 -18 32 5 -20 -5 9 3 16 12 -25 -19 -10 1 -22 -10 10 -1 -4 10 9 -18 -19 13 -12 26 0 -3 -3 9 -9 11 11 20 11 -3 -5 -16 2 -7 2 1 -14 -5 25 0 0 0 0 0 0 0 0 0 0 0 0 0 0 0 0
3 -14 -19 -1 12 -3 -2 22 17 9 -14 3 -11 -10 -26 -11 8 -2 11 2 9 -11 28 -13 -15 22 -14 1 -34 4 6 9 -23 3 32 -12 -18 34 13 -3 -7 -8 -24 5 -3 6 7 -7 0 0 0 0 0 0 0 0 0 0 0 0 0 0 0 0
-6 1 -10 -6 -4 1 -27 -15 -8 5 -12 -1 -11 4 -14 -12 6 14 -8 6 -24 -3 25 22 -21 0 -6 31 -3 8 7 -3 11 10 25 8 0 11 -9 -4 81 -102 -10 3 43 0 100 47 0 0 0 0 0 0 0 0 0 0 0 0 0 0 0 0
0 0 0 0 0 0 0 0 0 0 0 0 0 0 0 0 0 0 0 0 0 0 0 0 0 0 0 0 0 0 0 0 0 0 0 0 0 0 0 0 0 0 0 0 0 0 0 0 0 0 0 0 0 0 0 0 0 0 0 0 0 0 0 0
0 0 0 0 0 0 0 0 0 0 0 0 0 0 0 0 0 0 0 0 0 0 0 0 0 0 0 0 0 0 0 0 0 0 0 0 0 0 0 0 0 0 0 0 0 0 0 0 0 0 0 0 0 0 0 0 0 0 0 0 0 0 0 0
0 0 0 0 0 0 0 0 0 0 0 0 0 0 0 0 0 0 0 0 0 0 0 0 0 0 0 0 0 0 0 0 0 0 0 0 0 0 0 0 0 0 0 0 0 0 0 0 0 0 0 0 0 0 0 0 0 0 0 0 0 0 0 0
