22 -16 -15 5 -31 3 40 16 -4 -31 -9 9 -10 -11 -36 3 -13 -9 -2 20 -5 8 16 7 2 15 -33 -7 0 0 0 0
-9 10 5 -33 24 12 -10 -13 -4 10 -15 -21 38 9 5 3 10 38 10 -27 0 22 13 -14 -12 11 -9 19 0 0 0 0
-2 -7 7 12 12 -12 -6 8 -18 -4 8 -33 8 -13 28 27 6 -2 -6 17 -6 16 5 -6 8 -9 13 -19 0 0 0 0
28 15 4 -21 5 -4 2 -8 -28 17 14 -6 -10 7 13 -7 12 22 13 -8 -21 17 5 -7 8 -12 -3 -6 0 0 0 0
1 -8 -9 -3 4 -17 -14 -10 11 -16 -14 4 -20 31 21 -15 3 5 -7 24 20 -9 -16 74 -76 -14 15 -20 0 0 0 0
0 0 0 0 0 0 0 0 0 0 0 0 0 0 0 0 0 0 0 0 0 0 0 0 0 0 0 0 0 0 0 0
0 0 0 0 0 0 0 0 0 0 0 0 0 0 0 0 0 0 0 0 0 0 0 0 0 0 0 0 0 0 0 0
0 0 0 0 0 0 0 0 0 0 0 0 0 0 0 0 0 0 0 0 0 0 0 0 0 0 0 0 0 0 0 0
15 -26 -6 11 -17 7 47 -3 -35 1 -11 18 -1 15 -35 21 9 -1 -3 2 9 72 -1 -26 3 8 -29 1 0 0 0 0
-3 17 12 -26 17 2 -12 7 15 26 -41 -3 16 -10 16 -24 -9 16 32 -25 23 -8 21 14 5 -12 16 8 0 0 0 0
-3 -26 -10 -12 -15 -7 11 40 -18 -14 8 -8 8 -20 43 30 -21 6 5 4 -3 24 -5 -4 8 -1 0 -6 0 0 0 0
16 5 -32 27 28 10 7 -8 -4 34 -13 -26 2 18 26 1 -1 53 -64 -18 -14 18 17 -3 16 -25 -4 2 0 0 0 0
-10 -9 3 -9 8 -64 -6 -8 15 -37 -15 21 8 55 -6 2 -21 9 -28 1 10 29 27 82 -113 -31 8 -32 0 0 0 0
0 0 0 0 0 0 0 0 0 0 0 0 0 0 0 0 0 0 0 0 0 0 0 0 0 0 0 0 0 0 0 0
0 0 0 0 0 0 0 0 0 0 0 0 0 0 0 0 0 0 0 0 0 0 0 0 0 0 0 0 0 0 0 0
0 0 0 0 0 0 0 0 0 0 0 0 0 0 0 0 0 0 0 0 0 0 0 0 0 0 0 0 0 0 0 0
29 -40 14 2 -9 10 16 -5 -14 5 2 -22 18 1 -39 19 -11 -3 -5 -8 -22 -13 -13 -18 9 -10 -13 -38 0 0 0 0
-5 -22 0 17 6 -18 -5 3 5 26 -27 -10 10 5 -19 3 1 -9 50 -7 26 -23 2 12 3 6 -1 -5 0 0 0 0
-19 -17 16 -25 -17 11 33 -41 3 4 -9 3 -8 26 -5 23 -57 3 11 -18 -2 26 4 3 -4 2 -21 -4 0 0 0 0
19 -10 -31 53 16 2 -3 2 0 -5 5 1 16 -24 -10 22 -2 30 -72 -21 1 -4 10 1 6 -11 -20 8 0 0 0 0
2 11 6 5 -18 -81 15 -16 -4 -37 1 10 14 37 0 16 -13 -9 -14 -7 8 18 22 46 -58 -10 25 -58 0 0 0 0
0 0 0 0 0 0 0 0 0 0 0 0 0 0 0 0 0 0 0 0 0 0 0 0 0 0 0 0 0 0 0 0
0 0 0 0 0 0 0 0 0 0 0 0 0 0 0 0 0 0 0 0 0 0 0 0 0 0 0 0 0 0 0 0
0 0 0 0 0 0 0 0 0 0 0 0 0 0 0 0 0 0 0 0 0 0 0 0 0 0 0 0 0 0 0 0
10 -27 13 16 -16 -4 -11 18 -12 -3 21 -11 -4 -11 -21 20 -34 4 -14 -12 17 67 16 9 13 22 -16 13 0 0 0 0
-4 -28 -6 -9 19 -23 -2 4 9 -14 -14 -9 14 11 -26 23 6 8 27 4 8 -30 23 10 -2 -23 -20 -41 0 0 0 0
-15 30 27 -3 1 22 5 -56 16 -2 -9 -11 -8 31 -14 20 -40 2 5 -10 6 22 1 -1 -6 3 10 -15 0 0 0 0
30 1 4 7 -4 -12 -5 0 -25 -21 34 18 0 -34 -24 15 10 -5 10 -14 -12 -3 -3 -2 -1 3 -19 1 0 0 0 0
18 0 2 14 -13 -39 14 -15 -14 13 -11 -4 -9 -3 26 -12 18 0 5 24 -10 -4 -1 21 -42 2 7 -22 0 0 0 0
0 0 0 0 0 0 0 0 0 0 0 0 0 0 0 0 0 0 0 0 0 0 0 0 0 0 0 0 0 0 0 0
0 0 0 0 0 0 0 0 0 0 0 0 0 0 0 0 0 0 0 0 0 0 0 0 0 0 0 0 0 0 0 0
0 0 0 0 0 0 0 0 0 0 0 0 0 0 0 0 0 0 0 0 0 0 0 0 0 0 0 0 0 0 0 0
10 9 -5 8 -23 -14 14 1 -5 14 -11 5 -6 -1 -28 27 2 -5 4 5 4 -8 -3 3 -15 9 -25 -22 0 0 0 0
10 -18 3 -22 30 -1 0 -16 12 15 -18 -15 20 9 -23 -19 -2 25 5 -20 28 77 21 -18 -11 -17 -31 28 0 0 0 0
-4 -44 4 6 -1 -7 20 28 -20 8 -6 -5 22 -4 21 45 -15 -5 -7 -2 -4 -32 11 2 7 13 15 14 0 0 0 0
53 -7 -1 5 18 -8 -13 0 -8 29 -7 -29 -8 12 20 19 0 40 -36 -19 2 18 17 -6 6 -13 17 14 0 0 0 0
5 -25 6 -13 7 -75 -16 6 12 -47 -29 19 -8 55 0 -6 -5 12 -15 17 -6 60 16 107 -112 -28 -2 2 0 0 0 0
0 0 0 0 0 0 0 0 0 0 0 0 0 0 0 0 0 0 0 0 0 0 0 0 0 0 0 0 0 0 0 0
0 0 0 0 0 0 0 0 0 0 0 0 0 0 0 0 0 0 0 0 0 0 0 0 0 0 0 0 0 0 0 0
0 0 0 0 0 0 0 0 0 0 0 0 0 0 0 0 0 0 0 0 0 0 0 0 0 0 0 0 0 0 0 0
9 -32 7 13 -26 -3 28 10 -23 -19 -18 13 14 6 -41 20 -7 -1 0 -1 11 13 6 0 -16 2 -19 -8 0 0 0 0
16 6 7 -37 31 13 -4 -13 16 -9 -18 -19 12 12 -12 -9 -12 39 23 -39 -7 1 22 16 -2 19 -15 4 0 0 0 0
-15 -61 -1 -19 -31 -11 35 49 -37 16 12 12 35 -9 38 54 -65 25 -7 -10 -20 -13 12 -1 3 1 -4 8 0 0 0 0
52 -1 -24 18 30 -12 -18 -4 34 29 -41 -61 -5 -6 8 33 -16 104 -126 -37 6 13 30 -5 9 -21 5 24 0 0 0 0
17 -1 17 -20 -11 -131 -12 -6 19 -93 -6 15 -16 115 16 -20 -27 -6 -10 9 17 100 8 141 -161 -55 21 -1 0 0 0 0
0 0 0 0 0 0 0 0 0 0 0 0 0 0 0 0 0 0 0 0 0 0 0 0 0 0 0 0 0 0 0 0
0 0 0 0 0 0 0 0 0 0 0 0 0 0 0 0 0 0 0 0 0 0 0 0 0 0 0 0 0 0 0 0
0 0 0 0 0 0 0 0 0 0 0 0 0 0 0 0 0 0 0 0 0 0 0 0 0 0 0 0 0 0 0 0
12 -23 9 2 -29 30 37 12 -29 -14 2 -7 19 6 -35 28 -5 -1 -12 -2 16 -23 23 17 39 -2 17 -31 0 0 0 0
-1 -2 1 -17 36 -11 -6 18 -9 -1 -18 -34 32 1 -25 -6 -10 29 60 -26 33 28 10 17 3 -4 -14 53 0 0 0 0
-22 -26 19 -33 -47 0 62 -9 -11 1 16 -8 -1 18 3 23 -98 33 12 -32 -18 27 9 -1 -11 0 -29 -4 0 0 0 0
22 19 -49 54 10 -9 -23 4 40 8 -13 -12 16 -33 -20 32 -6 62 -108 -70 -1 -32 26 2 -2 2 -13 4 0 0 0 0
14 15 -1 5 -15 -111 5 -20 -8 -62 -7 -3 -1 106 7 -6 -22 -7 -13 5 -9 111 17 63 -126 -40 42 -24 0 0 0 0
0 0 0 0 0 0 0 0 0 0 0 0 0 0 0 0 0 0 0 0 0 0 0 0 0 0 0 0 0 0 0 0
0 0 0 0 0 0 0 0 0 0 0 0 0 0 0 0 0 0 0 0 0 0 0 0 0 0 0 0 0 0 0 0
0 0 0 0 0 0 0 0 0 0 0 0 0 0 0 0 0 0 0 0 0 0 0 0 0 0 0 0 0 0 0 0
25 -32 12 -2 3 -2 8 0 -19 -10 28 -15 -28 -11 -41 21 10 23 -16 -23 -1 1 -3 13 26 -22 -1 25 0 0 0 0
0 -9 -22 -3 20 -7 -3 19 0 14 -9 -50 37 4 -10 -1 0 5 53 9 25 11 22 2 2 -34 -16 6 0 0 0 0
-11 6 18 -17 -16 18 45 -11 6 -21 -10 -15 -21 24 -12 24 -77 21 17 -21 7 18 0 -3 -13 8 3 -14 0 0 0 0
28 15 -32 46 -7 4 -17 7 3 -6 25 15 20 -13 -10 15 10 -5 -22 -50 -3 -25 17 1 -4 11 -3 -6 0 0 0 0
1 5 -18 5 -1 -74 0 -19 -7 -26 -21 -4 1 55 2 19 -8 1 -14 7 -21 55 26 25 -57 -23 32 -30 0 0 0 0
0 0 0 0 0 0 0 0 0 0 0 0 0 0 0 0 0 0 0 0 0 0 0 0 0 0 0 0 0 0 0 0
0 0 0 0 0 0 0 0 0 0 0 0 0 0 0 0 0 0 0 0 0 0 0 0 0 0 0 0 0 0 0 0
0 0 0 0 0 0 0 0 0 0 0 0 0 0 0 0 0 0 0 0 0 0 0 0 0 0 0 0 0 0 0 0
12 -4 -18 2 -12 -17 22 -4 -25 10 -6 14 -3 7 -5 15 0 10 9 -18 6 -15 8 -1 -12 -23 -7 28 0 0 0 0
28 2 -2 -7 32 14 2 16 19 9 -24 -44 17 3 -4 -8 -19 16 11 -23 6 -18 37 6 3 1 -2 -14 0 0 0 0
38 -30 -21 -15 -1 11 2 72 -14 -10 -14 55 18 -24 4 -3 -19 -5 -7 5 22 -30 -7 -2 -8 -2 15 13 0 0 0 0
-24 -13 20 15 3 1 10 -1 23 31 -39 -25 4 26 20 -1 -15 19 -36 -2 24 9 42 0 -10 3 4 14 0 0 0 0
-1 1 20 -2 2 -71 -5 30 7 -33 -2 16 15 51 -16 -2 -14 -7 5 -39 -14 49 20 88 -50 4 -7 -24 0 0 0 0
0 0 0 0 0 0 0 0 0 0 0 0 0 0 0 0 0 0 0 0 0 0 0 0 0 0 0 0 0 0 0 0
0 0 0 0 0 0 0 0 0 0 0 0 0 0 0 0 0 0 0 0 0 0 0 0 0 0 0 0 0 0 0 0
0 0 0 0 0 0 0 0 0 0 0 0 0 0 0 0 0 0 0 0 0 0 0 0 0 0 0 0 0 0 0 0
6 -11 0 -16 -6 -20 47 23 -3 9 3 1 -6 -19 -59 1 -5 15 -3 -7 4 0 -29 2 -36 -21 6 53 0 0 0 0
39 -1 2 -10 2 6 3 16 18 16 -17 -57 29 25 -18 7 7 18 11 -27 -22 -6 14 -3 24 -3 10 -21 0 0 0 0
25 -78 0 -15 -23 -12 45 77 -27 21 7 34 36 -11 -10 27 -62 13 -17 -13 5 -42 9 6 -6 -17 -15 13 0 0 0 0
15 -10 -1 20 -5 -16 -10 -3 56 22 -60 -64 28 17 4 5 -6 97 -111 -45 34 21 45 1 -11 4 2 25 0 0 0 0
8 12 20 -14 -9 -100 -15 21 9 -81 -19 7 4 122 -5 -12 2 -16 20 -12 17 68 8 136 -91 -3 16 -9 0 0 0 0
0 0 0 0 0 0 0 0 0 0 0 0 0 0 0 0 0 0 0 0 0 0 0 0 0 0 0 0 0 0 0 0
0 0 0 0 0 0 0 0 0 0 0 0 0 0 0 0 0 0 0 0 0 0 0 0 0 0 0 0 0 0 0 0
0 0 0 0 0 0 0 0 0 0 0 0 0 0 0 0 0 0 0 0 0 0 0 0 0 0 0 0 0 0 0 0
2 -32 22 -7 -28 7 33 26 -5 5 20 -8 2 11 -37 7 35 16 1 -1 -12 -34 -5 15 6 4 11 -9 0 0 0 0
32 0 1 -55 9 -21 3 8 7 -14 -6 -42 46 -18 -6 -14 4 5 -1 -24 -12 14 28 4 39 2 -24 -22 0 0 0 0
-16 -36 -10 -9 -54 -3 64 68 -13 1 25 -4 13 21 -30 0 -92 50 -1 -39 -9 -21 -9 1 -7 4 -31 4 0 0 0 0
9 4 -57 25 -11 -3 -34 7 82 -26 -38 -48 30 -3 -23 6 8 51 -75 -45 39 -11 12 11 3 2 5 14 0 0 0 0
15 -6 -14 -14 -5 -117 -15 -7 -10 -49 -10 -22 -7 91 -15 -9 4 -11 -2 13 -5 35 25 64 -14 -9 16 2 0 0 0 0
0 0 0 0 0 0 0 0 0 0 0 0 0 0 0 0 0 0 0 0 0 0 0 0 0 0 0 0 0 0 0 0
0 0 0 0 0 0 0 0 0 0 0 0 0 0 0 0 0 0 0 0 0 0 0 0 0 0 0 0 0 0 0 0
0 0 0 0 0 0 0 0 0 0 0 0 0 0 0 0 0 0 0 0 0 0 0 0 0 0 0 0 0 0 0 0
16 -12 -9 -11 -26 26 29 1 3 3 -3 -11 11 20 -22 4 26 8 25 10 18 -34 -14 -23 -7 -28 -23 61 0 0 0 0
10 3 -8 -34 41 1 -1 -8 -14 -2 1 -43 52 -11 -3 -21 -12 9 3 -30 -2 24 16 12 25 -15 11 -20 0 0 0 0
-15 -23 -27 -6 -19 0 45 27 -8 -9 7 -4 -7 11 -21 -30 -43 28 11 -12 0 -7 -11 -2 -5 -3 -11 -5 0 0 0 0
-29 -1 -37 18 -4 14 -17 11 49 -21 -17 -4 9 2 -7 2 0 -25 -6 0 30 -17 10 8 6 1 9 2 0 0 0 0
1 2 -20 -4 -4 -77 -8 0 -2 -28 19 -17 2 39 -25 15 -19 -20 -15 -18 -21 12 20 27 -6 -20 20 -4 0 0 0 0
0 0 0 0 0 0 0 0 0 0 0 0 0 0 0 0 0 0 0 0 0 0 0 0 0 0 0 0 0 0 0 0
0 0 0 0 0 0 0 0 0 0 0 0 0 0 0 0 0 0 0 0 0 0 0 0 0 0 0 0 0 0 0 0
0 0 0 0 0 0 0 0 0 0 0 0 0 0 0 0 0 0 0 0 0 0 0 0 0 0 0 0 0 0 0 0
16 -24 -28 -8 1 -20 62 10 -7 -29 -2 17 -11 4 -39 -17 -4 10 -3 6 -10 -52 14 -7 -31 -7 -20 -9 0 0 0 0
22 9 -12 -14 -6 -10 -17 8 3 28 -17 -28 2 -3 22 20 -6 17 11 -4 5 41 8 -12 -7 -26 4 38 0 0 0 0
40 8 -19 -8 11 6 -22 56 -12 -22 1 25 4 -33 10 -25 0 -2 -5 27 20 16 -15 -9 -6 -25 11 9 0 0 0 0
-47 8 35 -33 -9 5 19 -11 -1 -3 -36 -8 3 -2 3 -26 4 12 8 29 17 4 22 -3 -14 14 -20 -4 0 0 0 0
-8 9 9 0 0 -30 0 21 10 8 1 4 -4 17 -2 -9 -1 -12 20 -17 15 -43 3 66 -25 0 9 -26 0 0 0 0
0 0 0 0 0 0 0 0 0 0 0 0 0 0 0 0 0 0 0 0 0 0 0 0 0 0 0 0 0 0 0 0
0 0 0 0 0 0 0 0 0 0 0 0 0 0 0 0 0 0 0 0 0 0 0 0 0 0 0 0 0 0 0 0
0 0 0 0 0 0 0 0 0 0 0 0 0 0 0 0 0 0 0 0 0 0 0 0 0 0 0 0 0 0 0 0
15 -24 -11 -15 -16 -4 33 -4 -30 18 3 -9 2 -3 -33 25 1 7 6 8 -4 -2 2 -14 -27 -8 7 17 0 0 0 0
31 -9 13 -21 6 -2 2 4 13 3 -39 -27 19 -7 9 -8 4 21 10 -31 24 13 11 -15 8 -17 8 -6 0 0 0 0
36 -44 -9 -4 -6 -9 23 69 -9 -8 2 15 10 -23 -4 -1 -13 -7 -6 4 23 -4 -10 4 0 -19 -8 3 0 0 0 0
-25 -2 10 3 -1 -2 2 2 22 12 -45 -32 27 14 4 -21 15 48 -57 5 19 31 21 4 -8 3 -12 11 0 0 0 0
-13 -2 -4 0 1 -39 4 19 22 -28 -21 9 17 57 -15 -8 11 -2 11 -28 -2 4 7 85 -26 24 -9 -39 0 0 0 0
0 0 0 0 0 0 0 0 0 0 0 0 0 0 0 0 0 0 0 0 0 0 0 0 0 0 0 0 0 0 0 0
0 0 0 0 0 0 0 0 0 0 0 0 0 0 0 0 0 0 0 0 0 0 0 0 0 0 0 0 0 0 0 0
0 0 0 0 0 0 0 0 0 0 0 0 0 0 0 0 0 0 0 0 0 0 0 0 0 0 0 0 0 0 0 0
31 -40 26 1 -34 0 1 10 -5 10 13 -20 10 10 -17 3 9 6 14 -13 -21 -47 -29 13 -5 -12 19 -13 0 0 0 0
3 -4 18 -27 30 15 16 2 25 9 -20 -38 42 -18 -15 -11 3 2 -5 -28 6 49 -3 -22 28 -16 26 29 0 0 0 0
-13 -28 -12 0 -22 7 31 35 2 5 0 10 6 30 -38 3 -50 20 -4 -29 7 -18 -12 5 2 5 -22 -27 0 0 0 0
-7 -24 -40 40 -1 3 -15 15 48 -18 -9 -24 29 20 -15 3 3 6 -35 -18 35 23 2 11 9 -11 0 2 0 0 0 0
5 6 -9 -6 -9 -71 -4 -7 -8 -30 9 -12 19 36 -17 15 9 -19 -13 -10 0 -9 15 44 13 -2 -4 -32 0 0 0 0
0 0 0 0 0 0 0 0 0 0 0 0 0 0 0 0 0 0 0 0 0 0 0 0 0 0 0 0 0 0 0 0
0 0 0 0 0 0 0 0 0 0 0 0 0 0 0 0 0 0 0 0 0 0 0 0 0 0 0 0 0 0 0 0
0 0 0 0 0 0 0 0 0 0 0 0 0 0 0 0 0 0 0 0 0 0 0 0 0 0 0 0 0 0 0 0
8 -1 -2 0 -31 9 38 31 25 3 -9 8 10 22 -8 -13 3 -14 14 6 0 -22 -12 11 -11 -25 -6 -21 0 0 0 0
-4 -4 9 -25 25 -18 -9 1 3 16 -3 -20 31 -5 -21 5 -5 -4 -16 -19 -3 12 14 1 -6 6 24 12 0 0 0 0
-17 1 -19 5 -2 5 1 -17 1 9 8 1 6 18 -24 -31 -10 10 -1 -5 -2 -1 -10 0 2 -8 -6 -7 0 0 0 0
-33 -14 -12 1 -6 2 0 4 21 -22 -2 7 -2 2 -15 0 -6 -27 35 4 31 1 -1 7 7 -7 -6 -15 0 0 0 0
13 -2 10 2 -4 -47 -9 5 -30 14 23 -11 1 -16 -11 1 5 -17 -5 5 4 -58 11 18 32 4 3 -11 0 0 0 0
0 0 0 0 0 0 0 0 0 0 0 0 0 0 0 0 0 0 0 0 0 0 0 0 0 0 0 0 0 0 0 0
0 0 0 0 0 0 0 0 0 0 0 0 0 0 0 0 0 0 0 0 0 0 0 0 0 0 0 0 0 0 0 0
0 0 0 0 0 0 0 0 0 0 0 0 0 0 0 0 0 0 0 0 0 0 0 0 0 0 0 0 0 0 0 0
