-4 -15 20 -28 17 0 1 21 -8 0 3 31 -47 34 -62 32 -55 0 7 27 8 -18 10 -18 19 10 31 -21
-6 62 -4 -37 48 17 40 12 -46 -12 -16 -2 16 -16 -17 0 22 30 6 -16 12 6 -20 -14 13 15 10 -1
10 8 7 -10 2 -4 11 16 -16 11 -13 -4 -17 -16 18 3 9 28 -30 7 5 -1 6 21 -1 11 10 8
5 6 -18 17 19 -10 27 2 17 -3 -5 -19 -6 -12 4 -13 21 -16 -7 -19 -10 9 3 19 10 12 41 11
-39 23 -52 -3 -29 -48 -44 9 15 -5 -24 9 -13 18 11 -5 12 -2 1 0 3 15 16 -3 24 17 5 24
0 0 0 0 0 0 0 0 0 0 0 0 0 0 0 0 0 0 0 0 0 0 0 0 0 0 0 0
0 0 0 0 0 0 0 0 0 0 0 0 0 0 0 0 0 0 0 0 0 0 0 0 0 0 0 0
0 0 0 0 0 0 0 0 0 0 0 0 0 0 0 0 0 0 0 0 0 0 0 0 0 0 0 0
-12 31 20 -5 18 1 -20 -4 14 -22 1 27 -54 -3 -66 30 16 -39 -28 80 -32 -16 14 28 7 -25 -8 20
1 62 24 -10 49 11 -6 -21 -60 -42 30 -62 7 29 -1 -42 50 -30 5 0 2 4 7 1 -5 39 -18 -15
-7 -20 -5 -38 6 6 23 41 -4 -25 -3 -29 -60 26 -39 3 -17 22 -35 64 10 7 4 40 8 12 -5 21
3 40 -11 17 45 20 18 -8 -37 -29 12 -10 27 9 4 -31 25 11 -21 -14 -2 26 -1 15 0 32 34 16
-79 31 -95 16 -9 -88 -64 -19 27 -40 -60 -2 -9 34 32 -1 20 29 34 23 11 -6 -25 14 31 -4 28 27
0 0 0 0 0 0 0 0 0 0 0 0 0 0 0 0 0 0 0 0 0 0 0 0 0 0 0 0
0 0 0 0 0 0 0 0 0 0 0 0 0 0 0 0 0 0 0 0 0 0 0 0 0 0 0 0
0 0 0 0 0 0 0 0 0 0 0 0 0 0 0 0 0 0 0 0 0 0 0 0 0 0 0 0
-21 21 -4 -20 20 -11 -3 0 18 28 -9 4 -38 39 -45 24 -49 -27 16 57 10 -2 -8 -43 9 15 19 21
-43 23 0 -13 38 -9 3 8 -51 19 -45 39 26 -41 -5 -18 -5 4 36 12 -28 19 -14 -19 21 -5 19 17
-13 15 -6 -6 14 -14 14 -3 25 -32 22 -27 -25 21 -60 45 6 -5 -25 33 -5 7 -7 -4 12 -5 3 35
5 13 -8 11 54 26 -12 15 -57 -35 7 -18 37 6 8 -50 19 -12 -20 10 8 51 6 -28 19 20 -6 23
-69 26 -96 23 -9 -51 -59 -16 15 -8 -59 -16 -1 39 31 -14 51 59 5 18 19 1 -24 4 44 25 10 -9
0 0 0 0 0 0 0 0 0 0 0 0 0 0 0 0 0 0 0 0 0 0 0 0 0 0 0 0
0 0 0 0 0 0 0 0 0 0 0 0 0 0 0 0 0 0 0 0 0 0 0 0 0 0 0 0
0 0 0 0 0 0 0 0 0 0 0 0 0 0 0 0 0 0 0 0 0 0 0 0 0 0 0 0
3 -3 -21 1 9 9 26 29 20 -11 45 55 -44 0 -43 -15 17 8 15 50 -18 6 -2 20 -19 -12 27 28
-21 36 29 1 25 3 -47 -35 -31 -20 22 -73 14 -7 -12 -20 14 14 46 12 29 32 17 -22 26 14 0 22
-7 34 17 23 11 0 11 -6 13 14 -16 -48 14 -7 -1 26 16 14 17 -28 -20 7 -1 -16 14 -4 -10 21
-15 -23 -15 8 19 5 -6 19 4 -9 16 6 11 -32 1 -23 13 -7 -19 4 12 29 11 -20 31 -6 -25 20
-21 17 -19 15 -24 -26 -35 9 12 -13 11 -11 -9 22 14 -18 36 8 -22 0 -11 -5 -21 -2 12 30 2 -4
0 0 0 0 0 0 0 0 0 0 0 0 0 0 0 0 0 0 0 0 0 0 0 0 0 0 0 0
0 0 0 0 0 0 0 0 0 0 0 0 0 0 0 0 0 0 0 0 0 0 0 0 0 0 0 0
0 0 0 0 0 0 0 0 0 0 0 0 0 0 0 0 0 0 0 0 0 0 0 0 0 0 0 0
-36 19 14 15 -16 1 3 16 -22 -27 30 5 -41 3 -52 13 -33 -8 12 35 -12 7 27 1 -30 -21 -39 28
-15 49 24 -15 20 21 -10 -18 -67 -17 27 -51 -1 38 -9 -12 -4 27 -6 -1 22 -22 -1 13 8 25 12 -14
-4 -5 -6 -44 -1 11 16 28 -12 -4 17 31 -51 23 -46 46 36 -9 -20 64 6 -3 6 46 5 6 21 11
16 47 -8 11 47 12 35 -2 -50 -14 -15 -23 32 0 9 -52 21 -23 -4 -4 -13 27 -4 20 22 22 -1 5
-61 35 -82 0 -22 -72 -66 3 50 -50 -54 -39 -29 71 21 -16 24 22 43 -16 -4 -7 -27 37 3 19 -14 8
0 0 0 0 0 0 0 0 0 0 0 0 0 0 0 0 0 0 0 0 0 0 0 0 0 0 0 0
0 0 0 0 0 0 0 0 0 0 0 0 0 0 0 0 0 0 0 0 0 0 0 0 0 0 0 0
0 0 0 0 0 0 0 0 0 0 0 0 0 0 0 0 0 0 0 0 0 0 0 0 0 0 0 0
-25 -13 -7 -10 30 19 -6 24 -15 -58 9 -21 -27 21 -36 -7 -35 -5 12 35 31 21 6 -13 27 -7 -3 -12
61 26 -38 -2 33 4 -12 -24 -64 -8 -30 27 44 11 20 -28 -12 -5 17 -15 15 -16 39 9 -18 19 -16 -16
-22 12 -36 -51 -3 3 25 49 -7 -8 18 28 -96 21 -98 33 35 -6 -61 115 22 -19 9 16 32 -8 -30 15
13 74 -18 6 98 49 27 -17 -100 -43 -6 -60 65 5 17 -50 17 -3 -26 -8 -14 16 -10 -8 39 35 6 1
-106 28 -119 60 20 -84 -86 6 42 -64 -113 -35 -9 71 28 -17 53 84 76 20 5 -8 -52 54 38 1 3 7
0 0 0 0 0 0 0 0 0 0 0 0 0 0 0 0 0 0 0 0 0 0 0 0 0 0 0 0
0 0 0 0 0 0 0 0 0 0 0 0 0 0 0 0 0 0 0 0 0 0 0 0 0 0 0 0
0 0 0 0 0 0 0 0 0 0 0 0 0 0 0 0 0 0 0 0 0 0 0 0 0 0 0 0
0 -27 9 49 6 -5 -6 19 -16 -45 45 30 -48 13 -37 -12 10 -16 43 70 -14 3 25 -8 -5 -23 5 39
4 37 2 -53 63 41 12 -26 -56 10 -7 -49 -6 3 5 -6 36 -24 9 -9 22 7 30 -33 47 35 15 -3
5 33 -19 18 16 -19 24 35 9 -25 20 -14 -82 5 -93 37 -21 9 -37 91 14 3 4 -4 9 -21 24 20
4 66 1 -6 94 47 -8 -8 -113 -56 1 -29 66 8 -10 -40 20 22 -35 -9 -23 32 13 -43 55 24 -12 -5
-115 30 -115 62 9 -91 -72 -21 7 -35 -81 -9 -2 70 42 -14 73 76 56 38 -1 -2 -57 20 37 -6 5 -8
0 0 0 0 0 0 0 0 0 0 0 0 0 0 0 0 0 0 0 0 0 0 0 0 0 0 0 0
0 0 0 0 0 0 0 0 0 0 0 0 0 0 0 0 0 0 0 0 0 0 0 0 0 0 0 0
0 0 0 0 0 0 0 0 0 0 0 0 0 0 0 0 0 0 0 0 0 0 0 0 0 0 0 0
-7 -7 24 6 12 12 -16 5 13 -12 9 12 -55 50 -22 33 -26 -56 34 22 19 -14 -8 -29 -4 -4 -8 2
64 48 -10 17 32 21 -21 -8 -27 -8 -18 -8 16 -31 -33 21 0 16 -23 -3 7 -11 1 -30 -6 7 2 -7
-19 27 5 10 8 -19 37 16 5 -19 0 7 -35 23 -46 47 -2 -23 -8 23 -57 14 14 40 17 -22 -7 -10
-11 19 0 4 51 30 16 -16 -58 -24 -2 7 35 15 -15 -43 10 -16 -23 -1 -42 47 20 -8 33 6 -2 -2
-65 14 -98 1 -1 -74 -63 -27 21 -45 -31 -2 -4 44 41 -2 49 30 8 -11 12 17 -36 12 6 1 3 -10
0 0 0 0 0 0 0 0 0 0 0 0 0 0 0 0 0 0 0 0 0 0 0 0 0 0 0 0
0 0 0 0 0 0 0 0 0 0 0 0 0 0 0 0 0 0 0 0 0 0 0 0 0 0 0 0
0 0 0 0 0 0 0 0 0 0 0 0 0 0 0 0 0 0 0 0 0 0 0 0 0 0 0 0
22 16 -32 -37 -20 10 9 -6 -24 -20 -19 33 -12 15 -44 46 8 -36 -7 48 -2 -4 19 1 25 -14 7 -3
-9 33 8 -48 21 14 36 -11 -56 -40 -34 41 10 -53 17 0 34 -14 21 13 -32 -13 25 23 5 16 16 -6
9 -19 -6 -39 4 12 -4 19 -10 5 18 18 -26 8 -57 24 32 11 -20 53 -28 -23 9 20 18 -14 -5 43
3 25 9 12 42 26 3 -25 -67 -2 20 -16 34 13 -5 -1 -17 24 -15 15 -8 4 33 12 -6 40 29 -11
-59 36 -57 64 12 -43 -79 -27 20 -71 -45 -21 3 40 21 -1 60 21 45 8 -23 31 -35 14 8 -24 32 10
0 0 0 0 0 0 0 0 0 0 0 0 0 0 0 0 0 0 0 0 0 0 0 0 0 0 0 0
0 0 0 0 0 0 0 0 0 0 0 0 0 0 0 0 0 0 0 0 0 0 0 0 0 0 0 0
0 0 0 0 0 0 0 0 0 0 0 0 0 0 0 0 0 0 0 0 0 0 0 0 0 0 0 0
15 -11 2 -23 5 11 -2 -4 -25 14 12 24 -37 -1 -61 12 14 -39 -3 65 -23 11 25 34 -24 -21 -16 38
23 19 -31 -24 32 3 9 -22 -54 -23 -7 -94 23 5 11 -26 29 -6 26 -11 15 28 8 1 -5 17 12 17
24 21 -24 -32 2 -13 -11 25 -15 -3 8 10 -72 22 -81 46 29 -28 -49 98 1 -3 41 -21 -16 -32 -24 22
20 87 -1 -14 93 43 7 -32 -124 -22 19 -18 62 2 4 -42 -6 2 10 10 -17 17 45 27 1 40 41 -19
-114 45 -107 45 17 -72 -86 -21 6 -72 -96 -31 35 77 30 -1 64 59 74 12 2 25 -62 21 39 6 16 2
0 0 0 0 0 0 0 0 0 0 0 0 0 0 0 0 0 0 0 0 0 0 0 0 0 0 0 0
0 0 0 0 0 0 0 0 0 0 0 0 0 0 0 0 0 0 0 0 0 0 0 0 0 0 0 0
0 0 0 0 0 0 0 0 0 0 0 0 0 0 0 0 0 0 0 0 0 0 0 0 0 0 0 0
-6 -8 -28 -21 -4 -2 13 -5 -6 -1 22 24 -53 15 -40 16 -24 -59 17 49 10 -7 2 10 -14 -27 -10 12
-11 39 14 -46 44 -13 -6 8 -50 -23 -38 5 47 -50 -14 6 23 -26 7 -4 2 -16 13 12 36 4 -32 -16
3 19 -35 35 3 -5 -1 35 -28 -5 -5 -38 -114 2 -78 32 -8 -24 -24 105 8 12 18 3 -31 -23 25 23
-6 87 20 -25 76 56 -12 -19 -110 -52 2 24 53 -6 -6 -51 15 27 -6 0 -25 33 44 27 19 24 -5 -24
-65 28 -117 53 19 -78 -76 -38 -8 -80 -107 -42 48 70 35 -31 45 70 51 22 13 10 -25 51 -3 -25 24 5
0 0 0 0 0 0 0 0 0 0 0 0 0 0 0 0 0 0 0 0 0 0 0 0 0 0 0 0
0 0 0 0 0 0 0 0 0 0 0 0 0 0 0 0 0 0 0 0 0 0 0 0 0 0 0 0
0 0 0 0 0 0 0 0 0 0 0 0 0 0 0 0 0 0 0 0 0 0 0 0 0 0 0 0
-11 -12 -25 -19 -13 -3 -14 -2 -16 -13 -5 1 -28 -20 -27 38 11 -33 -23 36 -31 24 -14 31 14 6 -13 10
8 36 7 6 74 11 13 12 -71 -25 -4 -63 34 11 3 -44 39 -26 8 6 16 1 54 16 24 19 9 -12
0 -8 -19 29 2 -9 -1 6 -23 -7 21 -10 -68 15 -56 33 13 -19 -31 60 -57 1 -5 51 -14 -22 20 22
-4 26 29 2 32 33 -13 -6 -59 -33 -17 15 22 10 -9 -19 1 27 -17 6 -14 14 26 7 9 30 11 -15
-48 20 -97 50 16 -45 -47 -35 -8 -26 -81 -30 20 60 28 -23 54 50 8 7 -9 36 -3 37 -7 -30 7 -6
0 0 0 0 0 0 0 0 0 0 0 0 0 0 0 0 0 0 0 0 0 0 0 0 0 0 0 0
0 0 0 0 0 0 0 0 0 0 0 0 0 0 0 0 0 0 0 0 0 0 0 0 0 0 0 0
0 0 0 0 0 0 0 0 0 0 0 0 0 0 0 0 0 0 0 0 0 0 0 0 0 0 0 0
-36 20 -20 26 3 6 17 -5 18 -5 10 33 -23 19 -28 -17 -27 -13 38 46 19 -11 2 24 2 12 -24 32
-20 34 11 -12 25 26 -26 -27 -57 -25 7 -13 37 11 16 -22 31 -9 12 -8 -7 12 10 -4 14 11 -9 -22
16 -10 4 -11 15 -4 -7 -2 -14 26 -3 8 -4 -29 5 -16 3 35 -28 6 -32 -12 9 9 10 -13 -14 36
-10 -20 -15 19 13 0 10 -7 -8 12 28 7 -8 18 3 4 -18 11 3 -10 -15 -3 29 21 -16 14 33 11
-42 12 -46 39 -4 0 -18 -17 -19 -38 -13 12 36 -4 29 22 15 26 -9 8 -5 30 -1 -13 3 -28 -2 25
0 0 0 0 0 0 0 0 0 0 0 0 0 0 0 0 0 0 0 0 0 0 0 0 0 0 0 0
0 0 0 0 0 0 0 0 0 0 0 0 0 0 0 0 0 0 0 0 0 0 0 0 0 0 0 0
0 0 0 0 0 0 0 0 0 0 0 0 0 0 0 0 0 0 0 0 0 0 0 0 0 0 0 0
-8 13 -20 -35 -12 -19 -16 -10 -16 -6 -12 2 -64 23 4 37 -28 -70 44 54 19 -18 -8 14 -18 10 -2 28
64 40 -17 -3 34 21 -15 3 -72 -4 -17 28 2 -47 12 -36 -9 13 -7 27 -32 22 9 10 -16 24 0 36
31 -13 -5 -10 5 9 -14 1 -21 -14 7 21 -51 -28 -23 31 3 17 -51 55 -11 15 37 -1 -43 -8 10 35
16 42 7 4 53 -1 7 -7 -52 -22 10 15 16 22 -4 -32 -18 23 11 4 1 24 73 29 -53 14 25 8
-47 28 -90 57 -3 -42 -79 -23 -6 -50 -72 -13 27 27 19 -16 53 26 48 18 2 18 -12 7 6 5 19 25
0 0 0 0 0 0 0 0 0 0 0 0 0 0 0 0 0 0 0 0 0 0 0 0 0 0 0 0
0 0 0 0 0 0 0 0 0 0 0 0 0 0 0 0 0 0 0 0 0 0 0 0 0 0 0 0
0 0 0 0 0 0 0 0 0 0 0 0 0 0 0 0 0 0 0 0 0 0 0 0 0 0 0 0
-15 16 20 16 1 -9 14 34 1 -38 -9 -13 -37 53 -71 24 -7 -6 48 61 -34 -4 -12 20 -12 -8 -11 32
-32 4 -1 -53 61 23 19 14 -26 -34 36 -18 -3 11 4 -35 14 -25 -14 19 -1 0 35 9 14 -4 16 16
-17 5 -24 16 -6 1 -15 -1 -10 -22 8 -12 -49 -16 -44 38 15 -17 -21 38 -4 5 6 -4 -28 -5 -6 36
3 39 26 -13 31 41 -22 -7 -47 -25 -9 27 33 10 -3 -27 -7 16 -11 31 -7 39 69 14 -37 17 -8 -6
-52 34 -77 35 19 -72 -69 -31 -2 -37 -72 -26 29 44 12 -31 48 25 4 8 -2 22 -3 27 16 0 21 -16
0 0 0 0 0 0 0 0 0 0 0 0 0 0 0 0 0 0 0 0 0 0 0 0 0 0 0 0
0 0 0 0 0 0 0 0 0 0 0 0 0 0 0 0 0 0 0 0 0 0 0 0 0 0 0 0
0 0 0 0 0 0 0 0 0 0 0 0 0 0 0 0 0 0 0 0 0 0 0 0 0 0 0 0
21 19 -24 -8 -9 -31 -21 14 5 -19 0 -14 -31 16 -51 3 -34 -54 -2 40 -18 -27 -8 12 -35 3 9 14
75 33 5 -46 64 27 -4 18 -36 -13 -33 -9 -8 -23 4 -22 -8 40 24 11 25 -19 -1 43 21 -15 -4 -8
3 2 -7 33 11 -9 -20 -17 -7 22 16 -20 -2 -7 -12 -1 -7 14 17 6 -13 1 -24 0 -18 -4 13 49
-12 -4 19 -7 -13 23 -36 17 -8 8 5 14 5 -4 1 4 15 18 -9 13 -16 13 17 7 7 24 -13 -8
-18 41 -27 12 -20 -25 -26 -16 -15 -4 -21 -4 26 35 13 -25 10 12 -38 16 3 12 23 -5 11 -21 25 3
0 0 0 0 0 0 0 0 0 0 0 0 0 0 0 0 0 0 0 0 0 0 0 0 0 0 0 0
0 0 0 0 0 0 0 0 0 0 0 0 0 0 0 0 0 0 0 0 0 0 0 0 0 0 0 0
0 0 0 0 0 0 0 0 0 0 0 0 0 0 0 0 0 0 0 0 0 0 0 0 0 0 0 0
