12 43 -2 -12 16 25 14 16 -3 15 4 1 -11 -37 7 -7 9 -36 22 -16 14 -25 24 -8 7 -35 6 -19 0 0 0 0
-34 -21 23 28 -37 0 3 13 -25 3 14 12 -3 -3 8 -8 -8 2 -42 14 2 -5 6 -25 2 -21 -2 15 0 0 0 0
-11 12 1 5 -22 44 21 -30 24 -15 -15 -19 8 -7 -10 -3 55 -37 -17 31 -8 -6 -10 21 5 -5 -17 -11 0 0 0 0
-8 -8 55 12 10 -22 3 0 -6 -7 -5 0 -3 17 -24 15 12 -2 -11 21 -16 6 -7 13 2 -14 -15 26 0 0 0 0
9 -18 -5 -11 20 -3 -11 -5 -8 -32 -16 8 14 13 5 -15 -4 15 11 -7 122 11 28 -27 54 -36 -26 -7 0 0 0 0
0 0 0 0 0 0 0 0 0 0 0 0 0 0 0 0 0 0 0 0 0 0 0 0 0 0 0 0 0 0 0 0
0 0 0 0 0 0 0 0 0 0 0 0 0 0 0 0 0 0 0 0 0 0 0 0 0 0 0 0 0 0 0 0
0 0 0 0 0 0 0 0 0 0 0 0 0 0 0 0 0 0 0 0 0 0 0 0 0 0 0 0 0 0 0 0
2 28 10 -4 5 24 -11 33 -14 -13 12 -24 -26 -18 -6 10 4 -32 29 -8 -11 32 -20 -9 -20 -16 19 -12 0 0 0 0
-35 7 16 45 -10 23 -15 20 -26 8 24 13 -13 9 -1 -5 -4 -11 -46 -1 5 -32 9 -35 1 -24 -21 11 0 0 0 0
-13 5 -5 21 -10 52 8 6 17 -20 14 -36 1 -16 3 -29 60 -22 -5 49 21 -13 8 6 2 -10 2 -18 0 0 0 0
-39 11 77 -27 -22 9 -21 6 2 -8 27 8 -2 23 29 -8 15 5 9 26 -24 -7 -3 36 8 -38 -13 16 0 0 0 0
-4 16 -11 -21 -6 16 -23 6 -43 -38 -6 4 1 5 0 -14 29 29 28 -16 151 -9 52 -47 78 -54 -10 -10 0 0 0 0
0 0 0 0 0 0 0 0 0 0 0 0 0 0 0 0 0 0 0 0 0 0 0 0 0 0 0 0 0 0 0 0
0 0 0 0 0 0 0 0 0 0 0 0 0 0 0 0 0 0 0 0 0 0 0 0 0 0 0 0 0 0 0 0
0 0 0 0 0 0 0 0 0 0 0 0 0 0 0 0 0 0 0 0 0 0 0 0 0 0 0 0 0 0 0 0
-4 20 19 8 -13 13 -9 24 -7 -5 -24 -6 -3 -26 -11 11 0 -46 4 5 -11 -3 0 -3 -16 33 35 -18 0 0 0 0
-2 24 1 24 1 8 -23 -1 -2 -2 27 14 17 0 13 11 5 0 -33 -16 1 -6 7 -13 1 11 -41 4 0 0 0 0
-9 -43 -4 -2 11 38 -20 42 -18 7 17 -30 22 -34 0 -66 15 -24 14 32 2 -25 25 -13 -5 4 3 1 0 0 0 0
34 23 27 -10 -29 26 -45 -15 12 -3 20 11 15 16 58 -28 -10 7 12 20 -12 -16 37 26 13 -24 2 -33 0 0 0 0
-15 26 2 -21 -6 -3 11 3 -28 -31 -2 -13 -16 12 -4 4 28 2 29 1 232 -22 30 -52 77 -56 19 -5 0 0 0 0
0 0 0 0 0 0 0 0 0 0 0 0 0 0 0 0 0 0 0 0 0 0 0 0 0 0 0 0 0 0 0 0
0 0 0 0 0 0 0 0 0 0 0 0 0 0 0 0 0 0 0 0 0 0 0 0 0 0 0 0 0 0 0 0
0 0 0 0 0 0 0 0 0 0 0 0 0 0 0 0 0 0 0 0 0 0 0 0 0 0 0 0 0 0 0 0
-5 11 -10 -1 2 12 25 7 11 -21 -2 -16 2 -11 7 -1 10 -24 -14 3 -13 3 -23 -7 -10 56 31 -8 0 0 0 0
10 7 -1 13 -17 3 10 -5 -1 1 2 12 13 8 9 -9 -6 3 -9 -6 12 -11 10 -15 6 6 -35 -8 0 0 0 0
-3 -23 -2 -16 3 16 -16 0 -8 16 -13 -4 27 -35 2 -26 12 -49 16 17 -3 -8 -3 -3 -4 -2 11 -7 0 0 0 0
66 8 -1 21 4 -4 2 -19 5 0 -8 -2 9 12 -3 -7 -9 -1 -15 15 -8 3 34 5 8 -4 3 -30 0 0 0 0
1 -7 3 -1 14 -18 26 -7 12 -12 -8 -6 -9 18 13 0 -3 -15 -2 6 122 -16 9 -29 35 -31 31 26 0 0 0 0
0 0 0 0 0 0 0 0 0 0 0 0 0 0 0 0 0 0 0 0 0 0 0 0 0 0 0 0 0 0 0 0
0 0 0 0 0 0 0 0 0 0 0 0 0 0 0 0 0 0 0 0 0 0 0 0 0 0 0 0 0 0 0 0
0 0 0 0 0 0 0 0 0 0 0 0 0 0 0 0 0 0 0 0 0 0 0 0 0 0 0 0 0 0 0 0
-5 29 8 -2 3 8 2 18 1 -4 -11 16 -29 -22 6 8 11 -30 19 -12 32 -29 9 -2 24 -67 -34 -12 0 0 0 0
-40 0 14 43 -19 -20 -18 -12 -1 2 16 -7 6 2 -14 -12 0 4 -34 34 -30 44 -38 -15 -13 -15 -17 18 0 0 0 0
-6 31 -9 7 -9 71 2 -2 22 -18 -2 -17 6 -16 -1 17 59 -7 -3 17 -31 -15 -8 38 6 -13 -21 -24 0 0 0 0
-8 24 45 18 -34 13 -12 13 6 12 35 9 -12 15 8 -3 -12 -9 1 20 -16 -3 -6 -4 -2 2 20 -2 0 0 0 0
0 4 -16 -17 19 8 2 -17 -35 -31 1 7 2 -2 2 -3 13 16 25 -6 135 0 69 -55 50 -65 -20 7 0 0 0 0
0 0 0 0 0 0 0 0 0 0 0 0 0 0 0 0 0 0 0 0 0 0 0 0 0 0 0 0 0 0 0 0
0 0 0 0 0 0 0 0 0 0 0 0 0 0 0 0 0 0 0 0 0 0 0 0 0 0 0 0 0 0 0 0
0 0 0 0 0 0 0 0 0 0 0 0 0 0 0 0 0 0 0 0 0 0 0 0 0 0 0 0 0 0 0 0
15 71 4 -13 -10 13 -5 42 17 -15 -9 -35 -2 -30 -19 -21 -9 -64 12 9 18 -10 -11 -14 8 -37 -10 -25 0 0 0 0
-44 3 25 33 -26 -4 -6 13 -14 1 62 4 -5 -8 -2 -22 -20 15 -58 11 7 4 -15 -32 7 -14 -24 15 0 0 0 0
-7 17 23 19 -12 76 5 1 30 -29 -5 -42 -37 -35 1 -41 69 13 12 61 37 -26 -2 15 5 -12 9 -19 0 0 0 0
-23 24 54 -3 -58 19 -58 8 -2 29 40 8 -22 17 60 0 -4 -16 19 15 -35 -7 10 1 -11 4 24 3 0 0 0 0
-26 23 -29 -15 13 12 -14 0 -74 -54 -2 4 10 9 -5 -24 61 -2 42 -8 277 21 20 -87 106 -99 -37 -10 0 0 0 0
0 0 0 0 0 0 0 0 0 0 0 0 0 0 0 0 0 0 0 0 0 0 0 0 0 0 0 0 0 0 0 0
0 0 0 0 0 0 0 0 0 0 0 0 0 0 0 0 0 0 0 0 0 0 0 0 0 0 0 0 0 0 0 0
0 0 0 0 0 0 0 0 0 0 0 0 0 0 0 0 0 0 0 0 0 0 0 0 0 0 0 0 0 0 0 0
0 40 6 12 -7 33 -11 37 0 -13 2 -17 7 -27 -9 -20 -7 -49 0 -17 0 2 14 13 -15 55 45 -1 0 0 0 0
-11 24 19 50 -17 14 -7 18 -18 -4 32 21 10 3 8 -5 -4 0 -42 -9 -15 15 -32 -29 -7 2 -53 6 0 0 0 0
3 -41 0 20 4 42 -7 17 3 -2 22 -55 -21 -60 -16 -79 14 -15 17 57 15 -32 18 -29 -3 12 19 0 0 0 0 0
27 25 33 -54 -36 7 -54 -15 -23 30 29 0 -10 26 74 -17 25 -3 21 10 -17 -32 2 14 -4 -5 5 23 0 0 0 0
-18 25 -6 -2 5 -17 12 5 -56 -48 6 9 -18 24 -11 -30 61 0 31 -13 304 11 -11 -80 121 -93 6 14 0 0 0 0
0 0 0 0 0 0 0 0 0 0 0 0 0 0 0 0 0 0 0 0 0 0 0 0 0 0 0 0 0 0 0 0
0 0 0 0 0 0 0 0 0 0 0 0 0 0 0 0 0 0 0 0 0 0 0 0 0 0 0 0 0 0 0 0
0 0 0 0 0 0 0 0 0 0 0 0 0 0 0 0 0 0 0 0 0 0 0 0 0 0 0 0 0 0 0 0
-13 12 11 0 16 28 -4 32 -11 -4 -6 -16 -8 -11 -1 18 1 -27 26 -13 5 6 1 8 -2 52 16 -7 0 0 0 0
6 13 9 49 -11 14 -11 -6 -7 19 -6 14 11 13 11 19 16 -11 -45 3 17 -1 -5 2 9 12 -17 16 0 0 0 0
2 -18 -28 9 17 24 -34 10 -5 5 19 -32 22 -56 -4 -12 3 -31 14 23 4 -22 4 -16 -8 -2 16 -18 0 0 0 0
42 26 22 -34 -12 1 -16 -10 -15 14 21 1 0 25 27 -22 19 3 2 15 -2 -19 4 12 6 -11 -2 12 0 0 0 0
4 11 10 -12 17 -26 27 -12 -15 -27 8 9 -20 6 -11 -5 14 20 25 -8 214 12 -1 -47 64 -48 2 29 0 0 0 0
0 0 0 0 0 0 0 0 0 0 0 0 0 0 0 0 0 0 0 0 0 0 0 0 0 0 0 0 0 0 0 0
0 0 0 0 0 0 0 0 0 0 0 0 0 0 0 0 0 0 0 0 0 0 0 0 0 0 0 0 0 0 0 0
0 0 0 0 0 0 0 0 0 0 0 0 0 0 0 0 0 0 0 0 0 0 0 0 0 0 0 0 0 0 0 0
5 2 16 1 6 14 6 24 -7 -5 -1 -17 -34 6 -19 13 -9 -31 22 -25 -4 -6 6 -14 18 -36 7 -12 0 0 0 0
8 8 26 32 -27 -14 4 -18 -23 29 13 -13 -12 -10 0 19 12 -1 -39 4 21 17 -10 11 4 0 16 0 0 0 0 0
0 24 3 22 4 -1 -18 35 4 -15 1 1 -27 16 5 6 -22 69 10 5 -34 13 -3 25 -11 -4 -14 -24 0 0 0 0
-51 -5 -8 -24 -17 12 -25 13 4 19 6 0 -7 -18 29 -9 3 7 6 -15 10 5 -44 -20 -7 17 26 -7 0 0 0 0
-17 18 -4 18 -4 3 -13 -5 -71 4 15 -4 -6 -13 -8 3 33 -10 10 14 154 55 -25 -52 94 -42 16 -4 0 0 0 0
0 0 0 0 0 0 0 0 0 0 0 0 0 0 0 0 0 0 0 0 0 0 0 0 0 0 0 0 0 0 0 0
0 0 0 0 0 0 0 0 0 0 0 0 0 0 0 0 0 0 0 0 0 0 0 0 0 0 0 0 0 0 0 0
0 0 0 0 0 0 0 0 0 0 0 0 0 0 0 0 0 0 0 0 0 0 0 0 0 0 0 0 0 0 0 0
17 53 20 6 -8 7 18 38 24 12 -14 -20 -27 -22 -17 16 -3 -51 10 -12 -5 13 -6 -15 -6 -37 -60 -16 0 0 0 0
-20 -4 21 59 -12 -8 -16 -22 -31 29 43 -21 10 -25 -2 15 -2 -3 -51 3 0 10 -11 26 4 16 29 4 0 0 0 0
13 5 17 19 12 22 -11 60 15 -23 -17 -33 -66 1 -15 -35 -19 66 -1 47 23 15 -7 11 4 -1 19 -10 0 0 0 0
-57 -7 -8 -56 -38 -15 -63 1 -14 46 31 -3 -28 -15 96 -6 11 -1 47 -9 -2 9 -45 -42 -18 30 28 -2 0 0 0 0
-10 23 10 10 23 -33 18 -29 -99 -27 23 -4 5 -27 -28 0 48 6 25 12 222 73 -6 -86 140 -66 -7 -9 0 0 0 0
0 0 0 0 0 0 0 0 0 0 0 0 0 0 0 0 0 0 0 0 0 0 0 0 0 0 0 0 0 0 0 0
0 0 0 0 0 0 0 0 0 0 0 0 0 0 0 0 0 0 0 0 0 0 0 0 0 0 0 0 0 0 0 0
0 0 0 0 0 0 0 0 0 0 0 0 0 0 0 0 0 0 0 0 0 0 0 0 0 0 0 0 0 0 0 0
6 38 -4 -8 5 10 -7 42 20 -20 -5 -15 -4 -3 10 7 -43 -21 -12 -5 2 -5 15 22 8 31 15 7 0 0 0 0
-11 17 19 45 0 23 -22 -9 8 8 35 -15 -3 2 -8 -31 -18 -5 -68 2 -3 1 -4 37 -3 14 30 4 0 0 0 0
37 -17 3 16 13 -32 -5 37 1 5 8 2 -57 -34 -4 -85 -40 38 4 44 25 13 -12 -23 15 9 32 -8 0 0 0 0
-8 3 -27 -61 -33 -9 -47 -10 -27 27 35 1 -28 5 88 7 8 -17 52 -1 7 -18 -22 -17 -15 13 -6 25 0 0 0 0
-1 27 -9 19 11 -19 16 -7 -69 -12 18 21 4 -15 -28 -25 47 6 15 -24 221 58 -23 -64 160 -19 2 14 0 0 0 0
0 0 0 0 0 0 0 0 0 0 0 0 0 0 0 0 0 0 0 0 0 0 0 0 0 0 0 0 0 0 0 0
0 0 0 0 0 0 0 0 0 0 0 0 0 0 0 0 0 0 0 0 0 0 0 0 0 0 0 0 0 0 0 0
0 0 0 0 0 0 0 0 0 0 0 0 0 0 0 0 0 0 0 0 0 0 0 0 0 0 0 0 0 0 0 0
-6 5 4 -7 0 5 -10 32 3 -3 -15 8 -12 -3 -5 5 -42 -34 13 -13 -21 -9 -11 25 -29 39 -30 -25 0 0 0 0
-2 22 31 19 -18 -2 -20 -5 18 -10 26 -7 -10 2 1 -15 17 5 -79 4 -13 16 21 34 9 -2 19 6 0 0 0 0
19 -6 0 14 7 -44 -9 25 -18 13 18 31 -10 -17 3 -51 -53 49 8 3 4 -2 8 -20 -3 3 2 -16 0 0 0 0
0 3 -28 -22 -14 18 -32 -1 -10 -3 8 8 -4 1 30 5 -3 -8 17 -5 14 -20 -13 5 -3 -3 -10 20 0 0 0 0
-9 20 -20 13 -10 15 -14 18 -46 9 11 21 0 2 -17 -21 34 -9 11 -19 159 57 -27 -33 95 -6 -5 9 0 0 0 0
0 0 0 0 0 0 0 0 0 0 0 0 0 0 0 0 0 0 0 0 0 0 0 0 0 0 0 0 0 0 0 0
0 0 0 0 0 0 0 0 0 0 0 0 0 0 0 0 0 0 0 0 0 0 0 0 0 0 0 0 0 0 0 0
0 0 0 0 0 0 0 0 0 0 0 0 0 0 0 0 0 0 0 0 0 0 0 0 0 0 0 0 0 0 0 0
20 28 10 -10 17 -1 17 33 -6 14 11 -15 -32 -16 -12 26 4 -35 6 -11 21 -18 1 -17 17 -11 2 -5 0 0 0 0
2 7 18 0 -20 8 12 -13 -10 29 17 -15 -17 -15 11 7 0 -9 -42 -9 -26 14 -24 5 -14 21 8 -11 0 0 0 0
-6 1 14 21 0 -30 -5 7 7 -14 -9 -21 -21 24 -3 -4 -24 42 -5 20 -10 14 -1 6 -13 0 -6 -9 0 0 0 0
-63 -23 -18 19 -4 -21 -5 1 -3 -22 -13 -7 17 -20 -14 13 -6 1 13 -19 18 9 -8 -8 -1 -5 14 -5 0 0 0 0
-1 9 12 0 6 -4 -20 7 -44 -7 13 -17 11 -5 -12 0 9 1 -5 5 87 46 -21 -19 71 -11 10 -13 0 0 0 0
0 0 0 0 0 0 0 0 0 0 0 0 0 0 0 0 0 0 0 0 0 0 0 0 0 0 0 0 0 0 0 0
0 0 0 0 0 0 0 0 0 0 0 0 0 0 0 0 0 0 0 0 0 0 0 0 0 0 0 0 0 0 0 0
0 0 0 0 0 0 0 0 0 0 0 0 0 0 0 0 0 0 0 0 0 0 0 0 0 0 0 0 0 0 0 0
19 1 16 -7 17 21 -5 8 -23 -1 2 8 -33 3 5 17 1 -23 20 -1 8 14 2 -8 9 -9 -2 -12 0 0 0 0
5 17 29 23 -28 7 -5 -32 -8 -14 32 3 16 -15 -23 -3 -6 -23 -25 13 2 -7 -14 17 -3 31 28 5 0 0 0 0
6 -4 -11 18 21 -7 -12 63 5 -14 6 -40 -26 13 -11 -14 -27 36 -19 42 7 21 -1 2 1 1 14 -8 0 0 0 0
-81 -17 -9 -23 -20 -14 -32 -11 -10 -17 36 -1 3 2 50 1 -18 1 42 5 22 3 -18 -22 -1 -7 11 -3 0 0 0 0
4 9 13 20 5 -23 1 -15 -76 -10 13 -2 0 -13 -13 0 17 11 4 12 112 66 25 -52 131 -3 33 0 0 0 0 0
0 0 0 0 0 0 0 0 0 0 0 0 0 0 0 0 0 0 0 0 0 0 0 0 0 0 0 0 0 0 0 0
0 0 0 0 0 0 0 0 0 0 0 0 0 0 0 0 0 0 0 0 0 0 0 0 0 0 0 0 0 0 0 0
0 0 0 0 0 0 0 0 0 0 0 0 0 0 0 0 0 0 0 0 0 0 0 0 0 0 0 0 0 0 0 0
0 11 5 -14 7 15 -10 22 7 -10 -25 -8 7 3 -1 -9 -34 -27 10 2 7 2 -4 2 -1 8 29 -4 0 0 0 0
0 5 21 40 -24 11 -3 -15 5 -5 21 -5 -17 12 0 3 -5 -4 -65 1 -36 -6 -21 42 -16 24 -10 -17 0 0 0 0
27 -12 -3 -5 13 -35 -14 62 -22 18 0 -34 -20 -7 10 -24 -40 29 3 21 13 17 -10 -7 14 5 17 -5 0 0 0 0
8 -9 -43 -61 2 6 -43 -9 8 10 26 5 -19 0 77 -8 -6 3 27 16 13 -1 -31 -19 2 2 -7 5 0 0 0 0
-3 17 -11 21 -8 -7 10 -7 -45 17 -1 17 3 -21 -13 -2 24 -6 11 -1 134 44 -16 -41 112 8 14 -1 0 0 0 0
0 0 0 0 0 0 0 0 0 0 0 0 0 0 0 0 0 0 0 0 0 0 0 0 0 0 0 0 0 0 0 0
0 0 0 0 0 0 0 0 0 0 0 0 0 0 0 0 0 0 0 0 0 0 0 0 0 0 0 0 0 0 0 0
0 0 0 0 0 0 0 0 0 0 0 0 0 0 0 0 0 0 0 0 0 0 0 0 0 0 0 0 0 0 0 0
-8 28 -5 9 -17 -6 24 20 23 1 -12 8 -9 -23 -5 -1 -31 -19 -19 -26 12 -30 2 6 -3 27 3 0 0 0 0 0
-2 7 8 28 -8 -3 -10 2 -6 20 -2 -21 -31 4 24 -5 4 14 -54 -14 7 8 -5 15 -2 -11 10 -13 0 0 0 0
17 -13 27 -7 -12 -49 10 14 -25 26 -19 -8 -11 11 6 -17 -46 31 10 -9 -3 11 3 -8 -1 1 -2 -2 0 0 0 0
29 -15 -53 -23 19 0 -5 2 14 4 -21 0 -6 -22 8 4 5 4 -1 -6 7 3 -18 -5 4 4 -6 3 0 0 0 0
-5 13 -13 10 -15 16 -8 13 -16 22 -2 2 4 -7 -6 -4 13 -17 -8 -11 92 13 -10 -5 71 14 2 -12 0 0 0 0
0 0 0 0 0 0 0 0 0 0 0 0 0 0 0 0 0 0 0 0 0 0 0 0 0 0 0 0 0 0 0 0
0 0 0 0 0 0 0 0 0 0 0 0 0 0 0 0 0 0 0 0 0 0 0 0 0 0 0 0 0 0 0 0
0 0 0 0 0 0 0 0 0 0 0 0 0 0 0 0 0 0 0 0 0 0 0 0 0 0 0 0 0 0 0 0
