-15 9 27 -8 -3 -11 12 -8 -2 16 -9 2 -29 10 21 -7 19 12 33 -14 27 1 -11 4 -11 26 6 6 -2 -12 18 10 16 -2 -11 -15 1 33 7 -23 54 -6 25 -7 -30 2 0 3 0 0 0 0 0 0 0 0 0 0 0 0 0 0 0 0
-9 -12 -33 -27 3 16 -38 -2 0 21 -1 21 -24 11 15 6 34 19 -16 12 16 0 -29 -23 -7 -5 18 12 5 6 13 10 -13 0 -17 -22 20 2 -3 -28 -8 12 -35 13 -10 -14 27 19 0 0 0 0 0 0 0 0 0 0 0 0 0 0 0 0
22 15 1 -14 5 -22 -20 3 -4 1 -23 -15 11 27 2 10 19 20 4 -29 -24 -15 15 1 15 -4 9 0 -2 8 -7 -15 -8 10 -11 22 14 -21 -16 -13 -17 -6 1 -10 6 -8 4 2 0 0 0 0 0 0 0 0 0 0 0 0 0 0 0 0
4 0 -11 -11 5 -2 14 -8 -21 -10 6 2 -22 -17 -7 13 15 0 4 10 -9 -5 -10 -11 33 41 -16 13 5 28 24 15 -6 -18 -9 0 16 6 -2 5 -17 -6 -2 -4 4 -3 15 -12 0 0 0 0 0 0 0 0 0 0 0 0 0 0 0 0
26 -19 -6 31 -14 14 14 -6 -10 -17 -5 -5 -15 -16 -8 -4 -19 23 18 -11 -17 -9 -23 47 7 -1 22 12 12 -23 -11 18 9 12 -18 -12 9 -20 9 5 44 -15 -75 62 -120 -44 9 16 0 0 0 0 0 0 0 0 0 0 0 0 0 0 0 0
16 4 4 6 -16 -24 1 5 -20 -11 1 -18 -21 -9 6 -31 -13 26 13 18 42 -2 -20 5 -7 12 -24 -19 2 -8 -3 33 41 5 -19 -19 9 12 -10 13 49 7 -9 13 3 -11 54 13 0 0 0 0 0 0 0 0 0 0 0 0 0 0 0 0
-31 -4 -11 29 -21 -31 2 -26 -17 -7 -32 -5 16 -5 25 -14 -16 33 -26 3 28 37 -33 4 -7 -38 -4 15 -1 45 6 -12 -2 30 24 17 6 2 9 -9 -7 0 0 -9 9 -15 17 36 0 0 0 0 0 0 0 0 0 0 0 0 0 0 0 0
5 7 18 -16 9 -8 14 -6 -11 -1 3 -29 -12 1 9 -28 7 18 24 -17 38 -1 13 3 18 -12 3 20 -3 1 6 25 13 5 -1 -14 -14 14 7 13 -9 -14 5 -7 1 -10 9 0 0 0 0 0 0 0 0 0 0 0 0 0 0 0 0 0
3 26 -30 2 -7 -12 -3 -20 -5 -15 -15 5 3 -3 25 -15 8 -10 -14 4 -4 21 -43 -1 29 12 -11 7 26 33 -10 -1 -3 33 -30 -7 -17 -10 13 4 -74 -10 -8 -7 9 -4 30 -19 0 0 0 0 0 0 0 0 0 0 0 0 0 0 0 0
1 17 -11 37 -61 13 -48 9 12 -7 4 -15 -22 11 2 0 -39 10 7 -5 -15 14 -1 23 -2 11 5 -11 -15 11 1 10 27 -13 -6 14 14 12 0 -4 -47 15 -65 71 -125 -41 -37 6 0 0 0 0 0 0 0 0 0 0 0 0 0 0 0 0
-7 -13 14 -20 15 -16 4 -10 8 -35 15 -29 -1 30 -27 -8 -24 18 4 21 9 -3 12 2 0 -11 -15 11 -17 -6 -6 3 0 20 -13 -29 -16 5 -11 9 24 19 5 -11 -4 -14 -7 29 0 0 0 0 0 0 0 0 0 0 0 0 0 0 0 0
7 22 -24 9 -3 -24 1 10 0 -23 4 -19 -16 -11 18 -22 -9 26 -16 30 9 3 -17 19 -24 20 -2 -12 18 15 -28 3 3 29 13 12 14 -17 29 -22 16 18 -2 -11 5 8 -8 -7 0 0 0 0 0 0 0 0 0 0 0 0 0 0 0 0
0 -23 -20 3 -1 -9 -21 -8 -24 -13 23 -1 5 -11 5 -9 -17 16 27 0 27 -4 5 19 10 3 -22 13 -22 -2 12 17 16 7 -18 -16 -10 24 0 -7 2 -15 2 1 -5 -1 10 -1 0 0 0 0 0 0 0 0 0 0 0 0 0 0 0 0
-1 9 -10 -8 -5 -31 -1 13 7 1 -13 -16 5 -2 15 -7 28 8 15 26 -15 40 -31 -3 -19 -21 33 0 42 2 -13 -6 10 18 -21 13 14 -15 -15 2 -65 -11 -15 -3 7 2 31 -16 0 0 0 0 0 0 0 0 0 0 0 0 0 0 0 0
-19 5 -3 11 -72 -41 21 -3 -2 8 23 22 -2 -2 7 -2 -41 -17 -23 4 11 23 -6 35 25 26 4 -5 -21 -1 25 12 -11 -20 24 11 -20 22 28 0 68 14 -80 35 -38 58 2 -34 0 0 0 0 0 0 0 0 0 0 0 0 0 0 0 0
11 30 -6 -3 28 -2 -20 8 4 1 1 -13 -9 35 -19 7 -12 2 -16 -26 -4 15 -19 -17 39 -11 -3 16 -6 -23 19 3 -6 9 -13 -7 -36 26 -29 6 0 -31 -4 10 3 -14 29 -26 0 0 0 0 0 0 0 0 0 0 0 0 0 0 0 0
-29 -8 17 15 -13 1 -15 12 17 -13 -29 8 4 1 18 18 27 -14 -26 22 14 3 -14 8 -5 -30 22 -12 6 1 -13 -6 -7 31 -13 -22 21 -17 34 -23 11 3 -11 5 -11 -7 -13 2 0 0 0 0 0 0 0 0 0 0 0 0 0 0 0 0
4 7 4 -17 7 -18 -45 -14 19 8 -15 -4 -23 5 14 -9 -3 -13 14 -13 -32 11 3 2 -3 12 -16 -11 -5 12 -18 -38 -19 -2 -7 9 -9 17 -3 2 9 -5 -2 3 -4 -2 2 4 0 0 0 0 0 0 0 0 0 0 0 0 0 0 0 0
21 1 13 1 -11 -1 -13 32 -22 9 13 -21 -21 -3 -1 25 7 16 25 24 1 7 -16 -23 -6 -9 0 -1 -2 6 32 -9 3 -14 3 12 15 -29 -3 -12 -11 -9 -7 -2 3 5 17 -9 0 0 0 0 0 0 0 0 0 0 0 0 0 0 0 0
-1 1 -13 2 -34 -9 -12 -6 3 0 7 7 3 -5 -8 20 -19 -3 -25 -2 -10 -13 -21 25 40 27 9 -5 24 8 12 0 9 -25 6 -16 -9 -36 11 6 -89 29 -83 14 -10 57 -11 -16 0 0 0 0 0 0 0 0 0 0 0 0 0 0 0 0
-26 15 14 4 33 12 -12 18 -12 -43 15 10 -10 0 -22 16 5 -5 -11 -24 33 5 -21 13 8 14 8 8 3 8 1 17 24 -3 0 -22 -9 14 2 11 44 -48 -23 -19 0 -14 36 -26 0 0 0 0 0 0 0 0 0 0 0 0 0 0 0 0
-9 20 -7 13 -3 8 25 -15 -10 -11 -26 2 4 -33 -4 -25 0 26 -7 31 7 1 -7 -17 11 -4 4 11 12 19 10 -13 12 -6 6 10 -10 4 23 -19 40 8 11 -22 8 29 0 -3 0 0 0 0 0 0 0 0 0 0 0 0 0 0 0 0
3 33 14 -22 3 -2 -2 9 -18 -32 -8 -10 1 25 -11 -29 -17 21 30 -19 43 12 -10 6 -5 -11 5 28 4 7 23 10 23 -21 -20 8 -24 15 -17 -21 -11 -9 6 -12 3 -12 10 3 0 0 0 0 0 0 0 0 0 0 0 0 0 0 0 0
8 -10 -23 -14 -14 -2 11 -33 1 -28 -14 -16 -6 -3 2 -33 -12 18 9 19 18 2 -29 7 17 8 -6 3 10 31 7 9 22 19 -8 0 23 -11 4 3 0 -17 -4 -4 4 -8 21 -16 0 0 0 0 0 0 0 0 0 0 0 0 0 0 0 0
-6 10 -6 34 -24 4 16 0 -4 5 -18 -15 -30 10 -2 13 -21 -3 -4 -1 -11 6 16 21 23 19 16 3 2 3 -12 -2 2 -18 6 12 -28 -17 3 -22 -49 -17 -80 83 -107 -74 -8 -17 0 0 0 0 0 0 0 0 0 0 0 0 0 0 0 0
-14 47 15 25 6 8 16 2 -8 -12 21 -30 -16 -8 -22 -13 21 3 24 -13 3 5 1 6 11 20 -21 2 -20 11 28 14 4 -19 -3 -38 -35 23 18 12 -36 20 6 12 10 2 -27 -49 0 0 0 0 0 0 0 0 0 0 0 0 0 0 0 0
0 -5 -14 15 -19 -20 -3 -10 -32 12 -26 14 10 -23 26 -34 35 11 5 25 -16 16 -12 20 1 -7 -11 -9 15 -3 3 -21 21 19 -2 12 -10 -3 2 12 4 47 0 15 -6 -2 -14 0 0 0 0 0 0 0 0 0 0 0 0 0 0 0 0 0
-24 21 10 4 18 -50 17 14 -30 -31 -3 -19 5 33 -11 -10 17 38 18 -39 42 19 2 -20 13 40 -23 52 13 25 4 43 8 -19 -15 -8 -35 33 -29 -27 -22 -19 4 -12 5 -11 19 -3 0 0 0 0 0 0 0 0 0 0 0 0 0 0 0 0
-12 34 -43 11 -27 -15 32 -41 -10 10 -48 -19 0 -15 20 -48 32 45 -27 50 8 39 -33 -10 22 6 27 -7 41 66 -38 -33 31 52 -38 6 28 -9 -7 -29 12 -21 -11 -1 4 -9 31 -22 0 0 0 0 0 0 0 0 0 0 0 0 0 0 0 0
19 -7 7 29 -79 -13 27 -1 11 -4 12 -6 -2 -6 4 -23 -48 9 2 -10 18 9 -1 36 10 9 20 -11 4 9 21 -23 5 -33 -5 24 -16 -1 1 -22 56 7 -85 96 -169 -92 -29 -59 0 0 0 0 0 0 0 0 0 0 0 0 0 0 0 0
-29 25 -5 -4 -5 -26 1 0 -15 -16 17 -19 -12 -3 -6 -13 11 -2 -10 12 -7 18 19 -22 -17 -20 -22 29 2 -4 17 32 39 15 3 -36 -10 30 -19 5 -4 -27 4 13 33 13 22 -27 0 0 0 0 0 0 0 0 0 0 0 0 0 0 0 0
12 29 -3 -4 16 -4 -19 -16 -22 28 -38 -11 29 -17 15 -27 33 25 -14 -12 -16 43 -37 25 -18 -19 16 13 37 25 -23 -20 -2 1 -25 -8 -3 9 7 -1 18 4 -28 11 6 -18 -14 -25 0 0 0 0 0 0 0 0 0 0 0 0 0 0 0 0
-38 19 19 21 0 -28 -1 30 -19 -15 19 -50 -22 9 -34 3 30 32 23 -2 18 -13 12 -2 11 20 -45 28 30 -5 -9 10 30 4 -47 -52 -35 36 -26 -18 25 -21 2 7 -7 -2 11 -5 0 0 0 0 0 0 0 0 0 0 0 0 0 0 0 0
-12 -2 -51 -1 -8 2 -18 -10 -17 38 -42 -21 37 -13 21 -16 38 0 -22 32 26 71 -41 -12 -37 -21 28 2 58 64 -41 -14 -6 43 -42 2 0 10 22 -51 25 -18 -20 1 6 8 31 -19 0 0 0 0 0 0 0 0 0 0 0 0 0 0 0 0
-8 -14 -8 -15 -111 -46 -10 7 11 -18 16 25 10 -20 8 -24 -45 -3 -15 0 -9 14 4 54 17 -12 0 5 -6 -4 8 7 22 -10 19 -15 12 4 21 23 21 -17 -84 62 -95 18 2 -97 0 0 0 0 0 0 0 0 0 0 0 0 0 0 0 0
-25 24 -12 -19 16 -22 -7 -4 19 -28 -11 -25 14 38 -10 -15 -29 14 -9 10 2 14 -16 9 11 8 -19 8 0 5 14 25 9 -13 -4 -27 -13 4 -28 9 -36 -36 -5 3 -15 15 17 9 0 0 0 0 0 0 0 0 0 0 0 0 0 0 0 0
-35 7 -2 12 -8 -11 -4 -7 8 -11 -16 9 10 8 4 -21 6 7 -10 5 8 16 -35 -18 6 -31 17 18 7 39 -31 -10 10 -1 -20 -22 23 12 23 -26 -21 19 -31 -13 16 -6 6 -2 0 0 0 0 0 0 0 0 0 0 0 0 0 0 0 0
-12 30 -8 -23 6 -28 -28 9 -15 -31 1 -41 -6 14 -13 -6 0 10 16 7 9 -5 1 16 -2 4 -18 23 -22 3 12 3 21 -3 -25 -25 -25 34 2 14 6 -9 -4 7 -5 1 2 2 0 0 0 0 0 0 0 0 0 0 0 0 0 0 0 0
-16 12 2 -23 24 -17 -15 15 -15 20 -8 -9 21 -19 -5 5 15 -11 -5 6 -12 27 -33 -4 -6 -19 33 17 34 33 -14 -8 -7 -18 -19 -1 14 0 18 -15 12 -12 -15 0 5 7 23 -14 0 0 0 0 0 0 0 0 0 0 0 0 0 0 0 0
-15 9 16 -2 -51 -35 -18 19 17 5 -11 16 -24 -13 -3 12 -26 -27 -11 -1 1 -8 -2 29 29 15 1 -12 16 -10 -18 11 -6 0 -13 -16 2 -3 7 -2 6 9 -76 40 -30 65 -29 -6 0 0 0 0 0 0 0 0 0 0 0 0 0 0 0 0
-8 31 12 1 -4 -18 14 0 -34 -31 -25 -24 -23 -12 -31 -14 -8 -11 -13 25 39 21 16 -20 28 8 -4 25 -20 16 20 38 29 -8 -12 21 -25 32 -7 21 1 27 19 -1 5 -19 -49 41 0 0 0 0 0 0 0 0 0 0 0 0 0 0 0 0
10 -5 4 30 -6 8 27 -30 -19 -19 -35 -6 17 -22 7 -16 23 5 5 -6 -14 37 -29 0 -2 -18 -13 -7 22 16 5 -10 -20 31 -6 -10 -3 -10 22 -20 5 -27 0 11 9 1 14 -28 0 0 0 0 0 0 0 0 0 0 0 0 0 0 0 0
-20 36 14 -24 -1 13 20 -10 3 -34 17 -13 -16 24 -2 -19 13 2 4 7 15 32 -22 11 -16 26 18 24 25 -9 0 49 32 -36 11 -6 0 20 -9 6 -12 -9 7 -6 5 -6 17 4 0 0 0 0 0 0 0 0 0 0 0 0 0 0 0 0
-6 13 7 11 6 8 -9 0 14 -8 -14 -3 -7 11 -8 -29 -21 -10 -36 8 21 10 -24 8 15 -11 2 -7 15 15 -4 -3 -5 13 -14 11 19 -10 26 -14 12 -12 -7 -1 8 4 15 -17 0 0 0 0 0 0 0 0 0 0 0 0 0 0 0 0
-17 -4 20 -25 -53 -16 31 31 21 -5 -20 -10 -27 -22 12 21 -1 22 13 -14 11 -6 29 -8 -12 0 2 -27 3 -3 3 -20 -2 5 -5 1 20 -9 -13 13 75 8 -49 67 -3 -163 -26 -28 0 0 0 0 0 0 0 0 0 0 0 0 0 0 0 0
-32 23 -2 -9 -7 21 19 20 -35 -14 1 -12 -3 -13 -17 3 23 -8 24 23 -3 15 8 -28 -6 23 4 12 14 0 -16 23 16 16 -5 -15 -9 3 -23 -7 34 17 -4 -14 10 -7 -28 -40 0 0 0 0 0 0 0 0 0 0 0 0 0 0 0 0
9 3 -36 -1 18 -15 25 -23 -22 17 -31 -5 24 -17 -5 -33 3 17 11 -22 5 -1 -32 -22 -3 -3 20 0 3 43 7 5 16 10 -27 -11 18 -16 17 -28 -26 -14 3 -6 -2 31 5 -50 0 0 0 0 0 0 0 0 0 0 0 0 0 0 0 0
-11 54 13 21 -8 -21 35 40 -33 -41 -7 -13 -8 29 -58 7 16 34 2 -24 13 19 -20 -3 13 2 -19 38 -14 0 -3 47 32 3 -5 -21 -45 14 -38 -31 7 -14 -1 -1 8 -5 20 -2 0 0 0 0 0 0 0 0 0 0 0 0 0 0 0 0
-9 -9 -37 24 9 6 -1 -35 7 14 -58 19 23 -37 -26 -64 9 37 -53 30 32 38 -22 18 -9 -10 29 1 31 55 -46 7 2 42 -24 8 22 18 18 -19 55 -21 -10 5 7 7 21 -29 0 0 0 0 0 0 0 0 0 0 0 0 0 0 0 0
-2 -10 5 -17 -65 -24 -37 8 -7 -15 -9 15 -26 -30 32 -24 11 2 -15 12 -13 -9 30 44 -6 -13 4 -11 -7 -6 2 -25 -31 8 2 7 -9 20 -5 -16 -50 -31 -67 79 -44 -180 -23 -54 0 0 0 0 0 0 0 0 0 0 0 0 0 0 0 0
-24 -5 -23 11 -14 -6 -11 27 -17 -36 -2 -15 11 4 -16 4 18 19 21 -3 38 -16 6 -14 -11 -10 4 -11 -7 24 6 18 24 -10 7 -37 -21 1 -33 -24 -37 1 1 9 -9 -2 -29 43 0 0 0 0 0 0 0 0 0 0 0 0 0 0 0 0
-24 -7 -39 11 4 -2 0 -20 -20 15 -39 -15 33 -15 -10 -7 -5 6 -24 -6 15 46 -13 1 -25 -29 31 -7 6 26 -3 10 24 29 -27 7 -7 26 7 -19 -22 -12 -14 24 11 23 -5 -11 0 0 0 0 0 0 0 0 0 0 0 0 0 0 0 0
-52 45 24 21 5 -25 25 43 -47 -12 -16 -46 -26 -7 -47 -18 5 -5 -10 -12 32 -1 14 -9 5 -6 -24 31 -3 18 -2 11 29 12 -6 -46 -67 52 -35 9 13 -13 -6 13 -4 1 4 -1 0 0 0 0 0 0 0 0 0 0 0 0 0 0 0 0
-16 6 -66 34 -7 10 -10 -47 -23 26 -72 6 46 -34 -6 -27 10 44 -15 -3 20 27 -9 6 -42 -43 31 -11 14 41 -69 -25 6 50 6 -33 -22 22 35 -51 68 -14 -13 14 -2 15 20 -24 0 0 0 0 0 0 0 0 0 0 0 0 0 0 0 0
-8 4 -18 -12 -101 -8 0 -8 -5 3 -13 25 10 -5 -1 -14 -11 -19 -22 28 9 8 21 39 -17 -14 -15 -1 5 17 -12 -4 -9 -7 -3 15 -18 20 -14 -19 72 3 -23 41 33 -30 -49 -64 0 0 0 0 0 0 0 0 0 0 0 0 0 0 0 0
-26 23 -8 -8 1 -33 9 11 0 -35 12 -31 -8 -4 -21 -9 31 21 9 -3 -3 -5 29 -19 -2 13 0 32 12 11 7 9 37 -22 15 -41 -6 34 -34 -20 9 -17 2 14 -16 3 41 -17 0 0 0 0 0 0 0 0 0 0 0 0 0 0 0 0
18 -1 -30 -16 10 13 -10 -25 -15 -14 1 -5 -20 -8 -10 -11 -9 33 -3 20 10 11 14 21 -3 -4 34 -15 45 4 -16 -1 3 -14 -19 19 -22 18 -5 -34 -5 -26 -10 5 8 -8 -12 -21 0 0 0 0 0 0 0 0 0 0 0 0 0 0 0 0
-50 6 -15 -4 0 4 0 7 -46 -23 20 -30 14 -2 -9 -7 0 -6 -16 20 33 -16 18 19 -11 12 12 20 21 2 18 28 40 -14 -11 -19 4 29 -24 12 2 -10 -5 10 -5 0 0 3 0 0 0 0 0 0 0 0 0 0 0 0 0 0 0 0
-36 11 -23 2 9 -7 10 -19 -3 3 -34 -14 17 0 -3 2 7 -1 11 -19 -14 4 6 6 -28 -27 33 -12 18 -5 -37 -14 3 2 14 -20 8 24 16 -28 21 -7 -12 7 0 13 13 -12 0 0 0 0 0 0 0 0 0 0 0 0 0 0 0 0
-15 -1 12 -8 -73 -15 -38 10 -2 11 -17 17 11 -26 -18 -1 -11 -3 12 4 28 21 13 38 -12 -10 -4 8 0 -13 -15 17 -11 11 -5 7 -9 16 9 17 12 -19 -17 55 53 -19 -18 -65 0 0 0 0 0 0 0 0 0 0 0 0 0 0 0 0
14 13 -12 -29 -11 -1 -6 22 11 -11 -15 -20 -16 5 9 -18 7 38 28 23 39 -21 -7 -9 16 7 1 -21 -15 4 6 6 23 12 8 8 13 16 -37 -7 -4 -16 -4 -12 21 22 9 -19 0 0 0 0 0 0 0 0 0 0 0 0 0 0 0 0
-14 9 -41 -6 -6 -8 -5 -2 30 -1 12 -10 -2 19 -8 14 5 -1 -15 -21 7 20 3 30 7 1 32 -8 23 21 10 -9 -6 0 -7 -10 11 1 35 -22 -3 -28 -5 10 -11 8 30 6 0 0 0 0 0 0 0 0 0 0 0 0 0 0 0 0
-1 11 1 -14 13 6 -2 -31 2 -4 15 -3 2 -3 18 7 22 -8 -15 -14 -31 -2 -12 8 9 0 25 0 -5 5 -8 40 -1 7 19 18 20 1 1 12 -16 -6 6 -2 5 -5 11 2 0 0 0 0 0 0 0 0 0 0 0 0 0 0 0 0
-13 26 15 13 10 8 10 -19 -19 14 -7 8 -8 4 3 12 -6 4 -6 -15 -11 -5 29 6 37 -9 -19 -18 10 -6 -11 -14 18 -8 -1 15 2 2 15 22 -2 -6 -3 0 8 4 9 -12 0 0 0 0 0 0 0 0 0 0 0 0 0 0 0 0
7 0 12 21 -44 20 -32 10 6 2 0 9 -15 -20 11 -8 3 14 6 -22 -9 -22 16 12 -25 -16 3 -4 14 4 -4 13 -26 22 -13 8 6 0 -17 9 6 7 -49 33 14 -118 -4 27 0 0 0 0 0 0 0 0 0 0 0 0 0 0 0 0
-23 31 10 2 -3 9 0 28 8 19 -8 8 0 15 -10 -30 1 -2 5 10 20 -9 29 -8 -12 8 -4 7 21 -8 -13 -8 31 18 12 6 -12 22 -8 11 5 -13 4 -17 2 -19 15 -11 0 0 0 0 0 0 0 0 0 0 0 0 0 0 0 0
8 26 -43 -24 19 22 0 2 -4 26 -30 -26 -3 -14 28 -15 24 28 -22 -3 -17 5 0 -22 -13 15 33 -14 32 36 4 7 -22 34 -11 -25 -4 2 -9 -2 0 -34 -5 8 20 -16 4 0 0 0 0 0 0 0 0 0 0 0 0 0 0 0 0 0
11 25 9 5 -16 -4 20 34 -20 -5 -3 -28 -28 13 -12 -15 9 11 -3 -14 21 -3 -2 5 10 -14 14 4 -25 -13 -14 28 32 20 8 -20 -20 -11 -32 13 5 -6 -1 3 5 -2 10 -1 0 0 0 0 0 0 0 0 0 0 0 0 0 0 0 0
8 2 -10 28 6 24 -8 -34 -16 -26 -30 21 5 11 6 1 -19 14 -14 -4 12 18 -40 7 -14 -36 -4 -6 24 -12 -11 8 6 31 -18 -7 -4 -12 13 -5 8 -8 -12 5 9 5 14 -23 0 0 0 0 0 0 0 0 0 0 0 0 0 0 0 0
-11 -15 -23 -14 -79 4 17 17 -13 -23 -7 15 7 -30 19 15 -11 13 -6 2 6 6 -1 28 -9 -23 -1 -22 -10 -11 -10 18 -21 5 -11 -7 -2 10 13 23 57 21 -49 55 -12 -134 -30 7 0 0 0 0 0 0 0 0 0 0 0 0 0 0 0 0
-10 23 9 11 -13 -33 5 -1 -40 -7 -17 -34 6 21 -33 -24 -6 -2 26 -8 -10 23 18 -16 16 7 -16 16 1 -14 2 2 -2 -14 -32 -9 -33 7 -24 -18 7 -18 1 -4 -1 0 16 -36 0 0 0 0 0 0 0 0 0 0 0 0 0 0 0 0
5 -17 -20 19 -9 2 11 -3 -10 16 -29 0 -12 -7 12 -36 -15 10 -10 25 16 -1 -34 -14 -37 -8 21 -25 26 31 -31 4 12 24 -15 -21 -19 -30 4 -18 9 -37 15 -13 5 -3 12 -20 0 0 0 0 0 0 0 0 0 0 0 0 0 0 0 0
-13 9 -15 1 -8 -19 12 18 -39 -9 -24 -12 -7 2 -16 -19 -16 -12 -13 1 21 16 21 11 -3 13 -4 12 -31 8 -4 1 17 2 23 -19 -24 22 -18 23 10 -8 -6 8 -4 0 0 4 0 0 0 0 0 0 0 0 0 0 0 0 0 0 0 0
-2 15 -20 28 11 -25 -6 22 12 -10 -30 17 -7 -32 -32 -14 12 22 -12 5 -17 -3 -35 0 -31 -13 49 7 -7 2 -16 -1 -29 11 14 -26 1 2 2 -30 3 -10 -15 10 2 9 15 -18 0 0 0 0 0 0 0 0 0 0 0 0 0 0 0 0
-12 2 -5 -33 -56 -20 -9 2 -7 1 -12 10 2 -19 -8 13 0 0 -5 29 27 13 -16 36 -4 19 -6 -22 -11 -2 9 -12 -9 -9 -12 9 -3 25 7 -4 60 8 -24 43 62 2 -51 -87 0 0 0 0 0 0 0 0 0 0 0 0 0 0 0 0
-19 9 3 -23 -11 -26 -12 -2 -18 -35 -16 -19 -9 -6 -17 7 22 28 21 15 5 -6 3 -40 4 -14 24 -6 -27 31 6 37 26 -9 -34 -2 -16 22 -30 -18 11 -31 1 4 3 1 32 9 0 0 0 0 0 0 0 0 0 0 0 0 0 0 0 0
13 13 -42 -6 12 2 -4 -17 11 5 -2 -7 9 -9 -26 2 -3 11 -20 -9 23 29 -39 22 -28 -6 2 -17 37 -10 -26 15 16 28 -1 -16 12 -18 4 -3 -5 8 -6 16 14 4 20 4 0 0 0 0 0 0 0 0 0 0 0 0 0 0 0 0
-27 -3 8 -1 -1 39 -7 -31 -7 10 6 12 0 -26 -7 -7 -8 -26 -7 12 -20 2 15 21 -4 -15 8 -12 32 0 1 -11 6 -6 8 8 15 17 0 -3 0 -6 -2 5 -2 -3 0 4 0 0 0 0 0 0 0 0 0 0 0 0 0 0 0 0
1 -21 -28 11 -4 -7 -13 19 18 9 -8 -6 -9 -18 -26 -8 5 -5 13 -12 10 -17 29 8 -17 15 -5 -10 -27 3 4 13 -24 0 38 -7 -12 24 20 -7 0 -7 -7 7 1 7 11 -9 0 0 0 0 0 0 0 0 0 0 0 0 0 0 0 0
-10 1 -6 -7 -28 -4 -33 -20 -12 10 -10 5 -16 1 -12 -5 18 15 -2 18 -16 4 26 25 -21 12 -6 26 -8 6 7 -1 14 16 26 12 4 8 -10 4 13 -1 -7 24 76 -20 -26 -49 0 0 0 0 0 0 0 0 0 0 0 0 0 0 0 0
