7 17 -27 -10 3 -22 5 -16 -11 19 7 -6 -18 6 10 -16 0 -6 17 5 25 7 33 43 17 -24 -9 34 0 0 0 0
-30 0 8 -2 4 6 3 17 -11 -23 9 27 7 -14 -20 -17 -9 3 -22 9 57 25 -2 -13 -11 45 -5 0 0 0 0 0
-10 26 -19 0 -9 1 17 -21 32 -22 -7 0 -4 1 -12 -3 28 -12 11 -5 20 -7 -25 -8 2 30 -38 -25 0 0 0 0
-6 -5 4 5 17 -29 14 -1 -6 -5 2 -7 -6 11 -9 2 14 -18 -8 16 -60 -6 -55 17 18 -32 21 -3 0 0 0 0
12 -21 -2 -6 6 -3 -9 -8 -8 -47 -2 24 4 9 17 -13 -28 18 18 -12 58 46 -66 -21 -7 -15 -44 88 0 0 0 0
-4 25 -29 -9 -3 -16 -28 3 -51 24 -2 -18 -38 10 -8 5 -13 -7 26 13 -27 19 -36 4 -9 13 0 -10 0 0 0 0
-25 3 0 -16 24 31 -3 19 -34 4 5 11 -3 -2 -8 -17 -14 1 -13 0 3 25 37 -2 6 -41 -4 -2 0 0 0 0
-18 16 -6 10 -4 33 5 -5 38 -27 22 7 -6 1 -3 -14 6 -4 7 5 41 -11 25 14 -4 -5 -8 -58 0 0 0 0
0 4 13 -17 -24 -1 -1 4 -7 -15 30 -1 6 11 -10 18 17 -21 -12 20 -54 -23 -57 52 -131 -35 13 -28 0 0 0 0
-1 1 -3 -20 -15 17 -22 6 -17 -71 -5 12 2 5 57 0 -36 19 31 -18 36 150 -137 -64 24 -3 -44 108 0 0 0 0
-13 20 -7 23 -24 -28 -4 -17 -21 -1 -13 14 -19 9 -20 2 13 -1 -13 25 -1 9 -107 -14 6 -15 27 3 0 0 0 0
4 29 -11 -19 36 23 -8 22 -8 -23 -5 14 24 -12 12 8 1 6 3 -17 33 6 16 -5 -19 58 -20 20 0 0 0 0
-19 -19 -3 -5 15 23 -19 30 0 -2 14 -14 17 -9 8 -11 -18 -28 25 -1 -27 -15 30 2 -8 5 7 62 0 0 0 0
54 18 1 -9 -33 26 -23 -6 4 1 18 5 8 -6 1 17 -5 -6 -7 7 3 -28 10 117 -185 -23 58 -50 0 0 0 0
-3 16 5 -24 -10 -35 10 0 14 -48 1 -6 -11 11 53 21 -41 -5 12 -4 50 113 -102 -74 45 -54 -23 99 0 0 0 0
-6 26 -45 -4 -8 -4 21 3 36 -6 -2 -11 -16 6 5 -1 32 3 -16 21 53 -23 9 7 -4 26 -9 -6 0 0 0 0
-3 -7 -20 -20 30 -2 19 4 3 -5 4 18 13 -4 3 -4 5 6 17 -2 -10 8 11 19 -23 0 22 -49 0 0 0 0
-10 -15 -13 -6 10 10 -17 8 -17 11 -15 -3 25 -14 3 7 2 -37 20 -6 -7 -3 -18 5 -4 -21 22 29 0 0 0 0
49 5 -9 10 3 -5 -9 -13 8 9 -10 -4 -2 -5 1 9 -7 -4 -4 4 28 -8 28 72 -54 0 54 -32 0 0 0 0
8 5 6 0 2 -51 24 -6 25 -20 6 5 -8 17 20 8 -28 -5 -4 3 23 47 -76 -56 14 6 -42 76 0 0 0 0
-6 24 -17 0 -6 -30 -7 -26 -39 24 -11 7 -40 20 14 2 -4 -12 16 15 -33 -99 55 -9 38 -8 4 34 0 0 0 0
-25 -4 -11 -5 34 -5 -25 -20 -18 -7 15 2 4 7 -22 -30 1 6 2 14 -26 -36 27 49 78 -36 26 -8 0 0 0 0
-17 36 7 -8 0 27 4 19 35 -32 -6 -2 -5 -13 -4 15 28 9 23 -11 23 -2 -27 -4 17 -21 -30 -33 0 0 0 0
-2 11 -7 -8 -16 10 -3 6 13 12 31 4 -11 8 1 12 -3 -10 -5 16 -79 -92 1 -72 44 -30 27 13 0 0 0 0
2 -10 -2 -18 1 7 2 -18 -14 -46 -9 16 -1 -11 60 11 -43 13 28 -1 88 128 -88 -75 20 -46 -21 148 0 0 0 0
-1 91 -39 2 -27 -32 -13 -14 -52 -1 -9 -26 -36 10 -14 -17 -1 -21 -1 32 -67 19 -26 -73 49 13 -4 70 0 0 0 0
-29 5 -14 -17 34 4 11 28 -9 -7 17 10 -3 -13 -6 -35 -23 17 -19 8 26 52 -4 -96 42 67 -59 9 0 0 0 0
-24 13 67 -2 -11 47 10 10 50 -44 1 -1 -42 -26 0 -21 17 14 35 23 84 7 33 11 -21 -12 -14 -122 0 0 0 0
14 5 -7 -21 -40 14 -29 12 14 10 39 2 -6 -2 -12 46 0 -21 -7 2 -121 -183 0 -140 102 -34 74 52 0 0 0 0
-10 -6 -18 -25 2 4 -21 -5 -21 -82 -15 15 10 2 101 7 -50 2 33 0 99 185 -139 -48 80 -61 -40 175 0 0 0 0
-9 72 -32 28 -16 -14 -16 -33 -35 14 13 -5 -29 15 -7 -3 30 -10 -14 15 -75 -54 -35 -23 40 -2 47 30 0 0 0 0
7 13 -10 -14 42 11 9 31 -17 27 -2 15 20 -9 16 -21 -15 7 0 -7 -11 -42 -21 62 82 -21 23 37 0 0 0 0
-10 -44 41 1 12 21 -12 20 10 -10 19 -26 -21 -52 -3 -37 -20 -45 43 32 -19 5 44 -8 0 28 2 86 0 0 0 0
46 10 3 -52 -32 4 -33 -2 -8 -7 37 -1 5 5 -13 51 12 -10 7 -6 -32 -69 -12 -2 139 -9 83 21 0 0 0 0
0 8 3 -17 -2 -48 7 1 9 -75 -2 7 -6 25 91 10 -49 5 7 -12 50 208 -135 -89 112 -54 -36 102 0 0 0 0
-11 32 -18 5 -9 -10 -6 -8 -46 -12 -17 9 -27 14 13 22 16 11 19 11 24 59 27 -79 84 39 17 -28 0 0 0 0
11 3 1 4 31 30 -3 12 2 -2 -12 12 21 5 3 4 9 -5 3 0 -42 -17 -38 -92 48 60 30 42 0 0 0 0
-3 -28 -8 6 21 7 -28 37 -35 0 13 -9 24 -46 2 2 -7 -53 23 10 -25 2 -14 -2 0 -22 1 52 0 0 0 0
32 18 4 -35 -5 8 -9 -12 -13 -5 30 2 1 15 -1 12 4 1 11 6 22 15 -26 58 97 -4 59 -18 0 0 0 0
13 1 13 -17 5 -57 27 -10 12 -24 -2 17 -13 7 47 18 -50 16 -1 -4 15 103 -98 -54 58 -28 -17 117 0 0 0 0
0 20 -15 -1 -4 -3 -11 -13 -34 11 -12 -19 -56 38 0 16 1 -17 30 2 -43 17 29 6 -15 -30 -9 34 0 0 0 0
22 20 -1 -14 17 -14 9 -18 -12 6 -1 -10 -7 -7 -5 -10 11 -5 6 3 24 7 -17 -6 -17 48 -33 -46 0 0 0 0
-4 13 35 9 0 0 -16 26 5 -23 0 0 -24 -4 1 13 5 60 9 5 18 -20 -14 -37 15 18 -27 -30 0 0 0 0
-39 -7 -4 -13 -10 8 -18 14 10 -5 20 1 7 -6 10 -16 -3 11 0 -13 -7 69 46 -117 -7 2 -34 16 0 0 0 0
-14 2 -1 10 -4 18 -13 -5 -24 -28 0 -11 -3 -15 48 13 -33 -4 10 24 37 110 -84 -13 11 -24 -16 100 0 0 0 0
6 62 -9 16 -11 -25 4 -42 -51 57 -15 -4 -38 28 -3 9 -4 -17 5 18 -79 54 -29 0 9 2 -19 -12 0 0 0 0
15 18 1 -2 28 -7 0 -25 -30 38 -8 -16 28 -27 0 -18 -8 0 11 10 -15 -55 -7 49 -42 -59 16 7 0 0 0 0
4 1 64 -8 4 22 -7 34 27 -32 -5 -21 -66 -14 -12 -3 -9 45 4 35 76 40 10 26 -20 31 -52 -40 0 0 0 0
-43 -10 -14 -31 -34 -24 -22 4 -1 17 48 -2 -5 -8 15 27 2 15 9 -18 -2 194 78 -213 3 0 -15 -17 0 0 0 0
-4 -13 13 2 33 -22 18 -34 -22 -76 -8 -17 10 -32 81 17 -66 -5 11 19 89 221 -108 -82 80 -73 1 151 0 0 0 0
-8 82 -41 1 -5 -2 -9 -7 -19 -5 -8 9 -30 25 19 13 -7 3 -16 18 -35 -11 -77 17 -3 -1 6 59 0 0 0 0
4 14 -1 -13 40 31 0 12 -3 -10 -4 -26 0 2 12 -51 -19 -3 -8 7 41 4 4 28 -48 43 15 5 0 0 0 0
34 -35 58 1 2 -5 -4 16 -5 -3 6 -8 -44 -49 3 -13 -17 -16 -5 45 34 10 42 15 -14 36 -17 22 0 0 0 0
-7 -2 1 -41 -38 -9 -27 -6 -14 8 43 4 -10 4 -2 65 -2 13 17 -17 -7 106 9 -77 9 29 27 24 0 0 0 0
5 7 -9 6 24 -37 17 -9 18 -47 -12 4 20 -14 75 -3 -68 -3 -9 -18 31 180 -112 -34 111 -43 -28 148 0 0 0 0
-12 29 -22 6 -5 -3 -13 -25 -11 21 -2 24 -28 37 11 3 -2 3 9 15 36 30 -3 30 3 -2 -23 -28 0 0 0 0
13 34 5 -19 30 -17 -8 -2 32 -2 -6 6 -1 1 6 -33 28 -4 -25 11 1 26 25 -1 -9 -23 45 -59 0 0 0 0
25 -26 30 10 0 -31 -5 19 -55 9 12 0 -5 -36 12 -8 -7 -6 8 10 -23 -1 -10 -3 -6 -14 -22 43 0 0 0 0
-2 5 10 -21 -7 23 -19 6 -3 -14 13 12 1 4 -6 17 -4 10 10 -12 -5 -17 -6 3 -9 37 -7 4 0 0 0 0
-3 13 -22 6 -4 -7 -15 12 15 -13 -7 13 7 1 44 -6 -38 -1 -7 -14 -9 107 -94 -16 51 -5 -9 95 0 0 0 0
11 5 -15 -11 3 -10 14 8 -18 36 2 -17 -30 19 -3 12 -4 -13 10 9 0 23 21 8 5 24 -37 14 0 0 0 0
11 24 6 -36 17 22 9 -11 -16 8 7 -1 -5 -17 0 -12 -6 -12 0 -12 9 -29 -33 125 30 -19 -28 -7 0 0 0 0
4 6 8 17 -12 -23 0 -10 2 -18 0 4 -21 12 -10 -6 5 39 -16 14 7 -7 1 -22 3 45 -25 -16 0 0 0 0
-47 -17 8 21 -6 -18 6 -4 -12 -2 -18 -10 14 -8 0 -9 6 4 1 -15 26 18 1 38 -11 -43 -38 12 0 0 0 0
-8 1 12 10 9 9 -15 5 -19 -36 7 -17 6 -7 5 -10 -19 -2 3 7 5 59 -67 -30 -11 -3 -16 54 0 0 0 0
4 2 -17 2 19 9 -14 -27 -30 8 9 3 -49 50 7 14 17 -7 18 20 -28 54 -47 5 23 32 -17 -25 0 0 0 0
18 38 -5 -25 17 12 11 -24 -20 -20 -5 9 19 -18 -22 -16 -13 -22 8 10 53 5 -8 49 -42 88 -33 -5 0 0 0 0
11 -3 -1 5 14 7 -15 16 17 -18 16 -12 -28 4 -12 4 -19 29 -15 23 44 19 1 25 -13 23 -44 13 0 0 0 0
-65 -13 7 -13 -25 -18 -9 -3 0 -11 30 -1 11 1 10 10 -8 16 3 -4 22 28 3 52 0 -51 -44 15 0 0 0 0
6 -4 14 19 15 -17 1 -23 -10 -66 5 -12 1 -15 47 2 -59 10 12 8 34 127 -86 -48 37 -28 -12 83 0 0 0 0
-11 24 -30 -2 -8 -5 -10 -26 7 10 -23 10 -18 35 1 -3 5 15 7 26 -21 19 -78 1 -5 -30 -24 4 0 0 0 0
11 15 3 -10 20 9 18 6 14 14 -22 -6 6 -8 4 -8 -22 1 -16 18 14 35 -79 143 -22 -14 8 60 0 0 0 0
25 -12 17 -5 6 -3 -12 23 -18 12 0 2 -9 -9 16 13 -15 2 -15 11 24 -4 23 19 -4 26 -13 -5 0 0 0 0
-3 -2 -4 -27 -9 8 -15 0 14 -2 29 12 -9 -3 13 16 -18 18 -1 3 2 12 -3 29 -3 -12 -8 10 0 0 0 0
5 6 -17 14 8 -25 9 -10 28 -27 -8 3 12 -15 44 7 -59 -10 -6 -5 18 89 -99 -33 62 -19 -16 89 0 0 0 0
-7 28 -22 5 -22 -11 20 8 53 -12 -10 17 -13 3 5 -1 -10 -3 -15 -4 56 38 13 4 -14 59 -23 -27 0 0 0 0
4 13 6 -17 16 8 -7 15 -13 2 1 -25 -18 -4 22 -25 -11 12 -9 -15 22 33 -22 -17 -12 36 -1 -15 0 0 0 0
18 -8 20 -3 -13 -29 10 -11 -37 23 -17 4 -8 9 10 -2 2 10 -3 -10 -12 2 -7 6 9 -21 -3 16 0 0 0 0
16 -6 -4 5 5 5 -2 3 1 9 -20 3 -7 -13 3 1 -6 7 -4 -9 6 0 -18 38 -6 7 -8 17 0 0 0 0
-10 15 -15 12 -7 3 -3 18 27 -2 -2 -10 11 -2 6 -9 -14 -22 -14 -14 -24 12 -70 -5 33 11 -23 60 0 0 0 0
