19 -20 -4 -15 -16 4 17 32 -14 -5 44 12 -22 7 23 -7 -5 -14 -13 0 -16 3 -26 13 9 24 10 -6 -7 -5 -30 31 9 -6 6 -7 -6 22 -14 27 1 32 18 47 -10 10 -43 -22 0 0 0 0 0 0 0 0 0 0 0 0 0 0 0 0
-3 -10 4 10 6 4 14 11 12 -17 -4 -3 -16 8 -42 15 7 9 11 -2 -2 29 16 -19 6 -16 -23 -19 23 0 -5 16 32 20 -14 -2 1 5 21 26 15 9 2 25 -15 6 -48 -50 0 0 0 0 0 0 0 0 0 0 0 0 0 0 0 0
6 14 15 8 -16 -7 -24 -17 -4 -25 26 6 -18 14 -7 3 0 -8 14 23 20 -9 -2 10 33 -14 -4 -12 -1 -14 -25 13 -6 12 5 -14 20 1 -2 15 0 -2 -6 7 0 0 11 9 0 0 0 0 0 0 0 0 0 0 0 0 0 0 0 0
1 -10 -16 -3 8 3 -7 -3 12 -4 -2 6 -40 5 17 -23 7 20 -11 11 -1 -5 5 16 3 20 17 17 -33 9 19 26 6 16 15 5 11 16 5 8 2 -5 -13 -5 -1 4 7 11 0 0 0 0 0 0 0 0 0 0 0 0 0 0 0 0
9 13 -11 3 -5 -14 15 -42 9 6 7 -16 4 30 4 16 -3 24 5 -14 -15 -36 -22 1 -22 -4 2 -37 22 22 -20 -6 -18 3 -9 -27 -14 -32 16 -66 35 18 -77 -79 117 162 -27 -111 0 0 0 0 0 0 0 0 0 0 0 0 0 0 0 0
-12 -8 -3 -37 -19 20 35 23 -11 -31 10 8 -3 0 10 2 -15 6 23 -5 -23 -17 6 29 -42 -14 -14 11 10 -17 -16 23 17 20 -1 25 -5 -17 -31 -22 5 -2 37 -63 -5 -12 -55 -25 0 0 0 0 0 0 0 0 0 0 0 0 0 0 0 0
-40 19 33 17 17 36 -24 -31 29 7 18 34 0 9 -14 5 9 -18 17 18 8 -2 20 -9 11 -9 -18 15 8 -10 -23 -25 48 34 -35 -21 -6 9 2 5 0 13 23 34 -1 3 -34 -47 0 0 0 0 0 0 0 0 0 0 0 0 0 0 0 0
4 20 -8 -5 -28 33 -22 14 3 -8 15 -7 -13 -14 6 -9 -6 -16 5 18 -2 9 -4 1 -18 11 -1 -11 9 -14 -14 27 -5 29 17 31 5 7 -23 14 7 -7 13 10 7 -2 -6 6 0 0 0 0 0 0 0 0 0 0 0 0 0 0 0 0
7 -23 29 14 32 -2 -24 -11 53 -2 11 29 -4 20 -22 20 12 -27 10 -21 -20 -7 2 -31 0 4 -22 -22 -14 -7 -30 -10 20 22 -9 -1 15 -19 19 -13 4 -8 -15 -5 -1 8 8 17 0 0 0 0 0 0 0 0 0 0 0 0 0 0 0 0
-5 21 -20 26 -12 -6 32 11 -21 -33 -2 -29 9 21 24 -3 7 -20 2 -52 -2 1 -30 -11 -40 29 12 19 17 9 2 -8 -6 -12 12 -28 -12 -23 -9 53 31 10 -92 -41 93 142 -24 -107 0 0 0 0 0 0 0 0 0 0 0 0 0 0 0 0
-18 -21 -13 -18 -19 -3 13 -12 2 30 29 -12 -1 7 7 -34 -32 -7 6 22 -10 -7 22 -8 -7 6 -17 -14 24 3 -23 -7 11 10 11 19 -14 -5 -25 -11 -14 -5 21 -38 16 -30 -6 1 0 0 0 0 0 0 0 0 0 0 0 0 0 0 0 0
-5 5 7 34 22 -1 2 -14 32 -3 14 6 15 13 -10 25 -23 -2 18 9 -15 13 1 -17 -17 2 -9 -7 -1 -15 -8 -10 -2 0 7 2 -6 18 -31 -16 -18 -30 40 -28 23 -35 -58 -38 0 0 0 0 0 0 0 0 0 0 0 0 0 0 0 0
1 5 -18 -17 -22 2 0 23 -22 2 -1 -2 -13 4 -6 -18 -32 28 30 2 -3 -13 4 1 -6 -8 -10 20 -16 -14 -8 -6 -7 9 -7 -5 -9 -8 -22 14 5 -4 27 5 3 7 -17 1 0 0 0 0 0 0 0 0 0 0 0 0 0 0 0 0
-5 12 32 21 43 -1 -1 -18 14 1 4 23 10 34 -41 19 6 -4 17 -19 -26 -9 0 -1 -18 -40 -38 -3 13 -9 -18 -15 17 8 -20 -4 -1 -12 11 17 5 -11 -5 -5 0 10 1 10 0 0 0 0 0 0 0 0 0 0 0 0 0 0 0 0
7 -3 2 -4 6 15 25 -20 -23 29 -14 -3 16 -7 12 -14 0 -26 -16 34 16 12 -62 -6 -19 14 11 2 -8 0 26 17 4 -17 -19 -31 -54 24 -4 -28 -21 11 -6 -62 125 -30 50 -64 0 0 0 0 0 0 0 0 0 0 0 0 0 0 0 0
3 -29 10 16 11 22 -18 -7 -26 -29 13 -6 6 -2 19 -23 23 -12 -20 8 -16 9 6 17 1 -3 1 20 -17 -5 22 -11 -18 22 5 -1 1 10 -15 18 21 -16 4 60 20 42 27 42 0 0 0 0 0 0 0 0 0 0 0 0 0 0 0 0
-24 -14 32 16 37 -16 16 -17 -4 3 -18 -7 5 1 -41 5 -24 8 -4 -3 -3 32 -6 -35 11 -11 1 -9 9 -2 -16 -15 10 33 -7 21 -6 -4 -29 1 -5 -23 35 -37 -5 -41 7 -76 0 0 0 0 0 0 0 0 0 0 0 0 0 0 0 0
-16 -18 -10 -7 9 -11 2 2 19 6 1 1 24 11 -7 -10 25 13 9 -5 9 -28 -11 0 29 -7 -1 -6 -49 3 27 -35 6 21 -3 -13 0 16 7 10 -3 3 2 -7 -4 -8 -8 -1 0 0 0 0 0 0 0 0 0 0 0 0 0 0 0 0
10 32 -30 -13 15 -3 1 -27 -16 -16 4 -14 -30 16 4 12 -8 23 8 34 -9 1 5 29 -20 -34 6 12 1 4 -23 23 -1 -9 16 0 -24 25 -7 15 2 -5 -3 -2 0 8 -2 16 0 0 0 0 0 0 0 0 0 0 0 0 0 0 0 0
14 -4 15 -34 11 19 4 19 -5 -34 -3 -13 -14 7 -15 -1 13 -5 -20 -32 17 -28 -43 11 -13 -17 -11 -10 -8 22 17 11 -6 3 13 -18 -34 4 4 71 -34 7 -32 -54 107 -41 32 -17 0 0 0 0 0 0 0 0 0 0 0 0 0 0 0 0
-15 2 -24 2 -21 2 17 -13 11 -31 6 19 -2 0 19 -35 -12 20 12 -4 -12 9 8 17 -19 21 -24 -16 7 21 -26 9 7 37 -6 9 14 -30 16 6 -20 14 82 -29 0 11 -120 -22 0 0 0 0 0 0 0 0 0 0 0 0 0 0 0 0
-5 -25 31 0 11 27 3 1 -9 -5 0 21 -25 39 -10 7 -17 19 -7 -10 -27 31 22 -32 -7 -5 16 11 -11 -10 3 18 33 15 -17 26 5 12 8 -10 -8 15 110 11 -4 -16 -28 -58 0 0 0 0 0 0 0 0 0 0 0 0 0 0 0 0
31 1 8 -24 3 35 12 14 -3 -16 49 -11 -32 10 -6 -32 2 14 0 8 0 12 -15 2 -9 11 -8 0 -8 -12 -38 20 -21 2 -14 29 5 -18 -15 1 2 -7 -13 7 0 1 12 6 0 0 0 0 0 0 0 0 0 0 0 0 0 0 0 0
-1 -42 -8 21 26 29 -25 -15 32 2 -25 -4 -16 24 -9 2 5 4 25 -25 0 20 11 -17 -17 25 -1 -15 -3 -32 8 5 39 16 -9 9 -9 -2 -17 0 1 -7 7 -5 0 4 -3 0 0 0 0 0 0 0 0 0 0 0 0 0 0 0 0 0
12 -21 -13 -1 2 -2 -15 37 -51 29 4 4 4 15 5 14 -26 -15 6 -14 8 -2 -21 -1 6 38 19 0 -4 9 -6 -9 -8 6 0 -16 -34 21 6 29 23 -9 -61 -150 121 160 -2 -96 0 0 0 0 0 0 0 0 0 0 0 0 0 0 0 0
20 -10 -6 -15 -13 10 27 10 -16 -10 8 13 -24 14 -8 -48 -15 19 1 4 -19 -4 -7 20 13 40 1 -17 5 11 -20 27 5 30 -5 21 -8 -7 -39 6 7 3 59 -126 12 -55 -61 -42 0 0 0 0 0 0 0 0 0 0 0 0 0 0 0 0
11 -7 27 8 1 23 -6 -4 45 -10 7 2 -22 2 -8 21 -20 5 41 12 5 22 12 -17 -12 14 -10 2 1 -14 -6 -7 10 33 -44 -18 12 8 -20 15 -6 -6 59 -13 38 -20 -7 -37 0 0 0 0 0 0 0 0 0 0 0 0 0 0 0 0
-4 -12 -5 -35 -23 28 -5 -25 -9 -21 69 0 -18 -9 -11 -34 -31 -14 25 11 -44 28 13 39 -15 16 -28 12 15 -36 -28 28 4 10 -6 22 -27 0 -39 0 9 -11 18 14 10 4 -3 9 0 0 0 0 0 0 0 0 0 0 0 0 0 0 0 0
-44 -9 46 27 56 22 -2 -6 37 -3 18 43 -6 69 -54 13 -34 -42 58 22 14 41 22 -43 3 8 -36 19 -4 -26 -13 8 60 39 -34 -14 43 -5 0 5 3 -11 9 -15 1 8 -9 4 0 0 0 0 0 0 0 0 0 0 0 0 0 0 0 0
-22 -8 -13 -2 12 7 22 40 -25 37 10 -23 22 -9 -8 -3 -24 -27 -18 28 23 14 -78 1 15 1 8 14 -8 -21 31 -22 2 -26 31 -62 -74 28 5 23 36 0 -115 -104 102 172 29 -161 0 0 0 0 0 0 0 0 0 0 0 0 0 0 0 0
8 -8 10 -17 -8 40 21 22 -11 -31 39 12 10 -12 -15 -27 -31 1 12 25 -40 -4 -4 31 -1 26 -7 31 26 -7 4 4 -8 -7 -2 16 2 23 -38 16 3 -20 -41 -55 -6 19 123 30 0 0 0 0 0 0 0 0 0 0 0 0 0 0 0 0
-34 13 6 29 37 17 2 5 31 13 0 30 9 33 -25 -3 -5 -22 51 -10 -9 7 32 9 -7 -18 -46 -22 -8 21 -27 -12 38 -2 0 -27 -8 -3 -13 15 16 -32 54 -38 -15 -55 5 -137 0 0 0 0 0 0 0 0 0 0 0 0 0 0 0 0
4 -32 9 -41 -28 38 -9 -17 -19 -3 38 29 -15 -2 1 -50 -22 -16 32 30 -63 7 -4 36 -10 16 -8 10 29 -26 -2 -1 -9 51 6 14 -26 -31 -55 19 5 -4 40 5 2 6 -24 0 0 0 0 0 0 0 0 0 0 0 0 0 0 0 0 0
-35 12 17 1 64 11 5 14 42 -29 13 54 -6 68 -51 44 -24 -47 43 -18 4 2 8 -36 -12 -39 -62 -6 17 -3 -19 2 60 39 -38 -5 21 25 -15 16 3 -10 21 -11 -2 11 -3 24 0 0 0 0 0 0 0 0 0 0 0 0 0 0 0 0
-30 -13 3 -2 14 6 49 28 -6 49 -11 -27 29 -13 12 -13 -27 -5 -8 27 7 29 -85 7 1 -8 34 24 9 -26 8 -13 -3 -23 -7 -38 -68 17 2 32 -63 -77 17 -68 153 -26 155 -130 0 0 0 0 0 0 0 0 0 0 0 0 0 0 0 0
-16 5 8 4 -26 8 21 -7 -15 -8 29 15 -29 -11 17 3 -28 8 14 -20 -31 1 -11 16 -20 -15 10 16 14 2 -13 22 -11 20 10 -10 -1 26 -15 18 8 24 -2 51 7 62 -5 71 0 0 0 0 0 0 0 0 0 0 0 0 0 0 0 0
-39 -19 1 19 12 30 9 -6 39 -13 4 -5 -7 4 -40 5 -12 -8 3 -6 -13 -25 0 -7 -29 -22 -40 19 -9 25 -16 -20 21 28 3 -14 12 -20 -1 -14 26 -22 21 -31 0 -15 5 6 0 0 0 0 0 0 0 0 0 0 0 0 0 0 0 0
18 -6 -21 -35 -10 44 6 -4 -7 10 33 -5 -6 20 8 -34 -9 6 13 -13 -10 -1 -15 8 -5 2 2 26 18 1 23 -18 6 32 21 20 8 2 -37 16 -4 3 5 -8 -4 -10 -5 -4 0 0 0 0 0 0 0 0 0 0 0 0 0 0 0 0
-6 -21 3 11 30 13 0 9 23 -17 -13 14 -6 28 -19 35 22 -21 4 22 -26 -20 15 9 -11 -33 -31 -22 -9 -8 -11 21 22 -4 -2 -14 -12 16 -33 18 0 -8 19 -7 -1 7 -3 16 0 0 0 0 0 0 0 0 0 0 0 0 0 0 0 0
20 14 -4 9 4 16 23 22 -14 22 -13 -1 12 9 1 6 -7 4 -1 26 -19 3 -62 5 -2 37 19 -4 0 -3 -13 13 -5 -4 -21 -25 -28 -25 -3 14 -76 -6 -35 -65 134 -18 83 -29 0 0 0 0 0 0 0 0 0 0 0 0 0 0 0 0
13 21 -6 4 -20 43 19 -15 10 1 24 3 6 24 -16 -7 -1 -5 28 -20 -23 27 25 13 -27 19 13 24 -14 -17 9 -15 -2 -20 -16 22 -1 -6 -10 -6 -7 8 28 6 14 -33 -2 -40 0 0 0 0 0 0 0 0 0 0 0 0 0 0 0 0
-29 -32 15 20 8 5 -28 1 33 -25 -35 9 11 19 -52 -2 18 -11 44 1 -26 8 -2 -10 4 1 -37 21 19 9 -8 12 29 17 -21 -24 -7 4 -2 18 15 -14 33 -30 15 -2 10 -1 0 0 0 0 0 0 0 0 0 0 0 0 0 0 0 0
3 2 7 -8 8 22 35 7 2 -27 43 -10 13 -14 13 -11 4 -25 -13 -7 -21 -4 -19 -3 -35 14 -8 -4 13 7 -27 13 -15 -6 -3 42 -4 -19 -13 -28 4 -11 -4 2 -2 6 2 -1 0 0 0 0 0 0 0 0 0 0 0 0 0 0 0 0
-15 -19 -4 22 10 23 -16 8 -1 -7 -6 -19 10 3 -38 8 -12 -1 14 -6 3 24 -17 -40 -3 32 -10 10 15 7 -13 -23 16 12 2 5 10 8 -10 -18 -1 -4 28 -11 1 5 -12 -2 0 0 0 0 0 0 0 0 0 0 0 0 0 0 0 0
-22 14 -1 3 -19 -5 -43 18 5 10 10 -5 -13 4 -19 -3 -12 -1 14 52 3 -4 -47 -3 43 10 19 -18 -13 -14 -2 -16 12 -22 6 -15 -34 25 -11 -35 -16 -33 -42 -44 -77 72 41 -77 0 0 0 0 0 0 0 0 0 0 0 0 0 0 0 0
13 -19 -18 -23 -14 29 31 -3 22 -14 40 12 9 8 0 -41 5 -15 18 17 -18 7 19 3 8 3 -30 -3 9 -3 8 -3 10 -8 -19 12 3 -25 -11 9 -20 -45 35 -45 0 -86 30 -110 0 0 0 0 0 0 0 0 0 0 0 0 0 0 0 0
-25 -28 31 10 -5 10 0 -28 18 4 -25 32 4 49 -35 3 -24 -44 9 3 -27 -4 -11 -9 -6 -14 -12 14 15 -27 19 -8 23 31 -6 -2 19 26 -8 -3 -4 -20 27 0 -6 46 35 50 0 0 0 0 0 0 0 0 0 0 0 0 0 0 0 0
19 -20 8 -15 0 41 4 18 -32 -8 63 20 -10 3 -2 -42 -44 -25 26 6 -37 41 8 37 -54 34 0 -14 46 4 -41 40 -3 0 1 17 -24 -2 -54 -28 5 -10 21 10 10 9 -7 11 0 0 0 0 0 0 0 0 0 0 0 0 0 0 0 0
-48 -35 41 39 35 43 24 9 43 16 -3 34 18 43 -66 -10 -34 -34 35 -19 -13 22 2 -51 6 15 -30 -9 34 -4 8 -16 60 62 -61 -22 20 -6 -21 3 0 -4 46 -13 3 1 -10 -6 0 0 0 0 0 0 0 0 0 0 0 0 0 0 0 0
-6 -24 -10 -8 -11 6 13 95 -6 0 -8 -4 33 13 -13 4 -30 6 13 19 0 37 -74 1 42 12 36 52 -12 -12 7 -23 -2 0 -10 -56 -33 34 4 108 -44 -53 -98 3 -106 102 67 -99 0 0 0 0 0 0 0 0 0 0 0 0 0 0 0 0
-6 18 23 -28 -20 44 -1 -4 -7 15 6 22 -6 -12 7 -7 10 -26 -13 17 -39 8 -19 27 6 14 -19 -10 19 -18 22 -3 11 20 -3 6 -18 -4 -35 -18 24 -37 -14 -86 -13 -32 87 -16 0 0 0 0 0 0 0 0 0 0 0 0 0 0 0 0
-40 13 22 -8 41 28 16 -8 38 -10 15 3 -7 33 -23 12 -18 -12 31 -27 5 -10 4 -17 -18 -1 -21 18 20 -26 -5 -36 35 8 -41 -11 38 24 -21 -30 9 -7 -24 -15 -10 29 58 59 0 0 0 0 0 0 0 0 0 0 0 0 0 0 0 0
-12 -38 -12 -39 -15 70 2 25 12 17 38 27 4 9 16 -45 -15 -1 -6 -1 -68 45 20 42 -27 45 2 28 29 14 22 -4 25 18 -2 7 -21 -27 -51 -12 1 -3 35 -2 3 -1 -19 12 0 0 0 0 0 0 0 0 0 0 0 0 0 0 0 0
-37 -15 53 8 28 17 29 4 42 0 1 41 6 57 -59 30 -24 -64 50 42 10 16 29 -43 -9 -13 -52 21 23 -11 -17 -3 36 20 -66 -29 2 1 -44 -13 -2 -1 32 -9 3 0 -13 5 0 0 0 0 0 0 0 0 0 0 0 0 0 0 0 0
-3 -34 5 -12 6 16 37 43 -22 46 -2 -2 45 -4 -7 25 -33 -16 1 61 -3 34 -69 13 28 -7 19 29 -21 -13 19 2 3 11 0 -47 -43 38 3 9 -187 -100 12 14 -12 -79 149 -19 0 0 0 0 0 0 0 0 0 0 0 0 0 0 0 0
19 13 -22 -1 9 20 9 -9 -14 -8 44 -6 -17 -17 -14 -6 -28 8 29 10 -33 -8 -16 0 9 33 3 14 28 11 -22 9 10 2 -3 5 -11 5 -22 0 20 7 -5 109 7 53 23 44 0 0 0 0 0 0 0 0 0 0 0 0 0 0 0 0
5 -3 11 22 16 21 -5 4 13 1 19 3 2 45 -15 19 11 -14 -5 25 11 0 3 -21 -18 24 -45 -18 -6 26 -2 19 -11 -10 -5 -18 -13 7 -16 -15 -5 -17 -2 -19 -26 25 19 2 0 0 0 0 0 0 0 0 0 0 0 0 0 0 0 0
-7 1 2 -29 -26 25 30 -3 -2 -23 27 8 -12 12 19 -9 -19 22 -12 17 -43 2 8 14 6 -6 -18 -1 21 0 -11 -19 -2 -20 -21 -7 6 -7 -17 19 -6 2 8 -3 -1 -11 -9 -10 0 0 0 0 0 0 0 0 0 0 0 0 0 0 0 0
-26 -7 25 10 7 3 4 14 -13 7 -16 3 13 18 -37 11 6 -12 14 -13 28 8 9 -15 -12 14 -38 1 -1 4 19 -10 -4 -15 -14 -2 8 -9 -30 15 -2 -2 20 -5 3 2 -3 16 0 0 0 0 0 0 0 0 0 0 0 0 0 0 0 0
-18 -12 12 8 3 -11 -10 53 0 34 16 20 -10 -18 -4 20 -27 7 -17 -21 -14 2 -43 3 34 -16 11 56 3 -16 -5 21 15 19 -38 -16 -44 -16 6 90 -189 -101 22 -32 -12 -62 91 31 0 0 0 0 0 0 0 0 0 0 0 0 0 0 0 0
-9 -18 24 -26 -24 26 11 -1 20 13 41 -18 -12 20 8 -2 4 9 6 -26 0 12 18 -10 -11 3 14 8 6 -18 9 17 -5 -6 -1 25 -27 -23 -25 -10 -1 14 86 4 -14 -10 -16 -28 0 0 0 0 0 0 0 0 0 0 0 0 0 0 0 0
-29 -25 40 19 3 3 20 -18 5 22 -9 -8 12 -5 -41 -3 -11 -32 14 7 22 -5 -15 -28 -7 20 -9 33 -22 -19 -32 10 9 -20 -29 11 16 -7 -8 -3 -10 -3 -7 -10 15 10 15 18 0 0 0 0 0 0 0 0 0 0 0 0 0 0 0 0
-24 18 2 35 1 -14 -1 -12 26 3 18 -14 17 -15 -1 -3 7 -21 13 10 5 -7 16 -1 -20 -3 15 -1 0 10 -15 12 30 -19 13 -12 -4 2 -3 -19 2 -6 3 0 -2 4 2 -3 0 0 0 0 0 0 0 0 0 0 0 0 0 0 0 0
-6 -6 18 14 -16 -11 3 -7 -11 24 18 -5 -4 -10 -18 -16 3 11 -32 -22 -6 3 16 9 24 21 7 34 -12 23 1 6 -20 -12 4 2 0 26 14 -7 -3 5 10 -3 -1 -6 1 -3 0 0 0 0 0 0 0 0 0 0 0 0 0 0 0 0
-9 10 -7 1 2 -4 -38 -13 9 17 -1 18 -19 7 -7 23 20 -13 -8 -23 -19 -29 -33 1 12 -20 -5 -15 -20 12 17 11 -13 4 -3 -23 -12 -4 3 -12 -2 21 -88 -3 -68 58 13 -25 0 0 0 0 0 0 0 0 0 0 0 0 0 0 0 0
-19 23 -3 -11 -12 38 20 10 -3 -32 54 1 -24 -8 16 -29 -28 -17 11 2 7 22 -17 -5 -23 21 -15 -10 0 12 -15 0 11 20 14 5 14 -27 -2 18 5 -44 37 -71 -3 -50 -26 -8 0 0 0 0 0 0 0 0 0 0 0 0 0 0 0 0
8 -27 16 15 44 8 13 3 -6 -33 -6 28 -33 14 -31 -2 -7 -11 20 -14 15 -23 22 -32 -25 15 -51 -16 8 -21 -14 14 7 -4 3 -1 24 -1 1 8 11 4 -80 7 -6 30 6 40 0 0 0 0 0 0 0 0 0 0 0 0 0 0 0 0
1 -19 10 22 -4 24 8 -5 5 -34 28 11 -18 3 -9 -2 14 -4 12 -15 -20 7 5 25 -28 14 7 -21 26 34 -25 37 -24 4 2 10 -19 -14 -25 -17 4 -6 13 5 6 5 -5 9 0 0 0 0 0 0 0 0 0 0 0 0 0 0 0 0
-7 -22 31 -2 13 -1 0 0 -3 -10 -9 -4 11 25 -46 0 -20 8 15 1 -8 13 -8 -32 10 23 -31 -8 29 -10 -2 -31 11 22 -25 -2 -5 26 -25 2 -6 5 13 -10 -1 -8 -3 -6 0 0 0 0 0 0 0 0 0 0 0 0 0 0 0 0
-23 -12 9 -13 -5 6 17 16 -13 12 2 -9 12 10 -3 3 0 -1 30 2 2 -12 -52 1 -3 -18 11 0 -1 12 3 9 18 -8 -14 -40 -13 22 6 4 -25 -18 -99 -4 -98 54 45 -36 0 0 0 0 0 0 0 0 0 0 0 0 0 0 0 0
8 1 -4 2 15 6 -2 16 -30 -17 28 27 21 8 -6 -10 7 -22 -5 19 -39 -15 -18 17 1 -13 -18 9 -6 -5 17 -8 -18 5 11 -12 13 -8 -37 8 -1 9 -46 -52 7 -5 39 -10 0 0 0 0 0 0 0 0 0 0 0 0 0 0 0 0
-14 -5 26 -2 33 16 -22 29 -5 5 2 -3 15 45 -28 28 8 -40 24 9 15 12 -19 -23 -31 17 -30 -11 4 -4 -8 -34 -7 24 5 -16 1 -9 -33 -11 -12 29 -42 -7 -6 8 21 95 0 0 0 0 0 0 0 0 0 0 0 0 0 0 0 0
-12 -3 -27 -26 -20 30 12 2 -17 -9 0 17 22 20 21 14 -30 16 -18 -19 -14 9 4 14 2 10 -17 27 3 21 17 -16 -3 -4 -10 -1 12 0 -15 11 0 -2 17 -4 2 -3 -13 6 0 0 0 0 0 0 0 0 0 0 0 0 0 0 0 0
-14 5 38 13 15 13 21 10 2 -2 -11 8 16 17 -43 4 -8 -21 28 20 -12 2 -15 -25 -19 -8 -27 -2 14 7 -15 -28 -4 18 -26 -30 4 4 -23 -17 -4 4 6 -12 4 -9 2 -20 0 0 0 0 0 0 0 0 0 0 0 0 0 0 0 0
9 14 5 -3 -30 9 36 13 20 -16 8 -24 29 12 -22 -7 -15 26 7 12 6 15 -58 0 3 -5 3 22 13 3 -1 12 27 3 -10 -45 -14 2 -6 39 -174 -60 45 50 -65 -70 86 -25 0 0 0 0 0 0 0 0 0 0 0 0 0 0 0 0
-17 -17 -7 4 4 30 -18 0 -2 2 7 7 17 1 -27 -26 -21 0 -9 25 -25 11 28 35 -26 -12 -3 -10 6 -11 4 -32 21 -16 13 2 1 -12 -33 -5 -11 -4 0 90 0 45 3 63 0 0 0 0 0 0 0 0 0 0 0 0 0 0 0 0
-16 3 40 -7 49 -14 21 26 -3 -19 -12 34 17 42 -32 21 3 -34 19 -7 -19 21 -7 -17 9 -10 5 -18 27 16 -25 5 9 25 -16 -4 -10 -4 -17 -2 -4 33 -16 -10 22 10 32 86 0 0 0 0 0 0 0 0 0 0 0 0 0 0 0 0
-17 22 8 -8 -6 -9 3 26 -1 4 -24 14 32 -2 28 -1 -16 8 -20 16 1 -15 -1 -21 12 6 0 -3 -34 -6 -9 -32 10 -20 -23 -23 24 34 13 21 -4 1 5 -3 -1 -5 -2 -7 0 0 0 0 0 0 0 0 0 0 0 0 0 0 0 0
1 19 -15 12 -9 9 6 -10 8 -15 0 -1 -8 -24 -2 -13 8 4 -9 -6 7 -7 -10 -3 -28 3 15 3 -6 38 0 -13 -20 -1 -7 6 -14 -28 19 -16 -2 3 1 -6 3 -7 2 -18 0 0 0 0 0 0 0 0 0 0 0 0 0 0 0 0
17 -6 3 -7 -22 -18 -27 -3 19 -7 2 8 -11 13 3 19 -10 5 -13 11 -5 3 -1 -4 16 -6 11 8 -6 7 -4 -1 -15 21 -19 10 -20 3 -3 -15 -169 -67 11 3 -26 -56 71 1 0 0 0 0 0 0 0 0 0 0 0 0 0 0 0 0
