4 -5 -6 -11 -21 16 22 30 11 -29 3 10 -29 3 -36 19 -39 -11 -25 31 -25 -69 38 24 -52 29 -49 27 0 0 0 0
16 10 -2 -26 15 26 -22 -18 -26 29 -22 5 7 4 -22 -6 4 35 -3 -15 -27 72 -2 -20 -46 -2 66 -36 0 0 0 0
17 -5 7 20 18 -27 -34 21 -5 -15 11 -32 14 -14 31 34 2 0 -13 -2 -4 56 -7 7 36 5 38 -15 0 0 0 0
17 8 19 -26 1 -5 -3 -16 -17 -3 3 -12 3 17 -11 -15 7 10 9 0 -15 -61 -59 -6 65 -41 -3 -16 0 0 0 0
-7 14 -16 -17 -13 4 -15 -11 14 -21 -64 8 -82 19 2 -33 -9 -14 -11 35 -19 23 18 23 -9 50 -99 -29 0 0 0 0
12 -23 7 2 -19 -2 20 -5 -24 -22 -21 -12 -2 39 -61 13 -5 -6 -13 -11 16 43 26 -10 -4 11 3 -8 0 0 0 0
24 3 -2 -24 11 -5 -29 24 -14 33 -7 17 1 -12 -8 -6 -12 20 -11 -25 16 42 45 -16 -90 -31 103 87 0 0 0 0
4 -25 -6 -30 -12 -12 -15 54 4 -24 7 -4 0 11 2 39 -2 -3 -5 -5 6 -33 0 0 7 18 -17 17 0 0 0 0
4 3 -36 7 18 10 -1 -9 16 33 -9 -39 -2 33 4 -14 -7 27 6 -16 -8 2 -35 -7 56 -56 -14 -25 0 0 0 0
-31 6 -12 -35 6 -53 -25 -18 39 -25 -99 41 -131 6 -38 -16 -18 -8 -41 22 -42 -42 -75 1 58 -26 -90 -118 0 0 0 0
-16 -22 28 -17 4 33 -2 -9 0 8 13 -26 14 -1 -56 44 -44 3 -16 -11 -47 -47 -19 -26 -43 -16 26 -6 0 0 0 0
19 -17 -1 14 -27 -28 -25 2 -32 46 -21 12 -15 28 -59 8 5 -10 31 6 17 -57 99 15 -11 39 1 22 0 0 0 0
-4 -32 11 -19 13 18 4 -13 25 -13 -6 25 -19 27 7 15 -20 -8 28 -28 0 -45 -17 20 17 7 -55 5 0 0 0 0
17 -11 -22 26 3 -20 -26 9 21 16 6 -6 8 2 -5 13 7 12 -8 -5 3 106 -447 -7 17 -5 -95 2 0 0 0 0
-19 34 8 -20 -24 -61 9 -8 25 -15 -88 29 -116 1 -28 -4 -20 -32 -25 2 -45 -16 27 14 37 76 -144 10 0 0 0 0
16 -12 32 7 -25 -11 -3 12 -6 -22 17 -21 -4 28 -33 19 -45 0 3 -14 39 -1 -8 17 -51 -2 -1 22 0 0 0 0
27 -28 -16 3 25 -19 -20 5 -4 13 -7 0 -23 6 -14 11 15 3 -30 16 0 -28 64 2 5 -15 53 -80 0 0 0 0
3 -7 20 8 35 34 -14 -27 20 -8 -7 -3 -6 -8 14 11 -17 -3 -25 -6 -13 -4 178 20 -4 -4 23 -16 0 0 0 0
21 -4 25 1 -9 -33 -22 4 -14 -15 23 24 -2 -21 -15 13 13 13 -8 -2 -4 95 -533 -2 27 6 -85 10 0 0 0 0
2 5 -11 -9 -25 -26 18 -11 -9 -12 -52 5 -68 4 12 -29 5 -8 -7 32 -30 -32 -132 8 34 63 -73 -32 0 0 0 0
7 3 15 -14 -1 -3 -13 10 -1 7 -22 -4 -18 25 -71 48 -30 1 2 3 -8 -12 76 1 19 24 -20 46 0 0 0 0
45 -44 -12 -32 33 22 -33 -14 -10 39 -13 0 2 14 -68 3 -3 32 -23 -36 48 -60 146 -2 59 110 -156 63 0 0 0 0
6 -56 7 8 -7 -23 -17 58 0 -3 -4 -3 17 33 7 63 -3 -7 -7 -27 4 112 -24 16 26 -3 55 -24 0 0 0 0
35 -13 -22 5 16 5 -25 4 13 40 -6 -59 -5 22 3 4 -17 37 -8 -28 -6 -22 -36 -10 50 -27 17 1 0 0 0 0
6 -11 -1 -46 15 -57 -28 -2 30 -39 -117 31 -156 2 -37 -26 -4 -13 -7 42 -39 21 -46 28 29 22 -124 -52 0 0 0 0
-18 -22 36 8 -44 -16 -15 6 -1 -32 -28 -13 16 42 -49 8 -48 -13 -27 -11 30 -8 129 -24 -11 -28 3 -28 0 0 0 0
31 10 -15 -22 -7 22 -39 -18 -14 21 -16 -13 -14 24 -58 -10 -17 32 -15 -43 -35 -70 56 -29 -25 16 -29 -29 0 0 0 0
-20 -85 11 -26 -29 -26 -12 62 -5 -4 7 32 21 62 8 70 -27 24 82 -52 -18 46 39 6 33 22 -28 54 0 0 0 0
40 6 -63 -13 5 8 -31 -6 65 58 -28 -98 -13 8 -23 18 -31 62 5 -49 -27 -213 51 -7 61 -38 -58 52 0 0 0 0
2 22 12 -67 0 -111 -32 -14 57 -47 -137 49 -256 6 -15 -45 -28 -29 1 37 -34 4 34 19 74 86 -146 -81 0 0 0 0
4 -28 18 -21 -26 47 23 12 -18 -14 -11 -10 18 27 -62 40 -49 5 -5 -20 -4 26 49 9 -14 -24 45 -6 0 0 0 0
32 -8 -19 -16 16 1 -51 16 -33 41 -36 -23 -20 22 -42 -10 1 23 6 -35 8 -55 -6 31 -16 29 54 -78 0 0 0 0
-27 -55 22 -23 -47 -9 27 49 18 -26 14 22 -16 63 17 18 -38 24 46 -52 -21 -89 -16 22 13 10 -61 16 0 0 0 0
13 20 -79 26 3 -12 -32 3 60 40 -4 -29 -8 -18 -37 19 -15 51 -4 -51 -51 15 33 9 13 -33 -99 64 0 0 0 0
-4 25 -4 -41 -8 -92 -12 -30 46 -37 -136 33 -233 29 -23 -31 -24 -28 -6 25 -49 -41 -16 -5 108 98 -134 -88 0 0 0 0
5 -8 48 -18 -13 -18 1 0 7 -27 21 -16 -20 25 -59 28 -22 29 -26 -24 41 69 88 11 24 -48 27 -27 0 0 0 0
12 -10 -21 16 -7 -5 -44 22 -22 38 -5 -26 -6 31 -36 0 -6 -9 22 17 -7 3 113 6 68 -12 -14 -33 0 0 0 0
-12 -33 16 -2 15 24 14 21 18 -29 -10 7 -28 16 17 17 -42 12 32 -28 10 40 105 20 -1 -6 6 -39 0 0 0 0
26 12 -31 24 -16 -1 -29 7 25 3 15 8 9 -1 -24 12 14 0 2 -23 -29 92 -52 4 5 -20 -33 14 0 0 0 0
-9 27 -13 -30 4 -42 -17 -30 18 -17 -103 11 -123 30 -27 -6 -25 -21 0 24 -43 64 -16 5 40 86 -114 -42 0 0 0 0
-1 -4 -6 -12 -15 -13 -17 -6 -12 21 6 14 -26 44 -20 22 -36 5 -39 -6 -42 16 51 1 -23 -1 2 20 0 0 0 0
45 17 -27 35 9 47 -15 21 16 16 -28 -32 1 6 -33 -13 -28 30 7 -30 -5 -29 -90 1 -27 -12 9 -19 0 0 0 0
22 -39 -11 -12 -27 -13 -3 58 -16 -4 -18 43 20 18 -7 7 -14 2 40 -1 31 101 -45 11 -8 4 51 -5 0 0 0 0
-9 -4 -16 12 7 25 27 -6 30 31 -21 -44 1 9 13 -1 -31 21 -10 -22 16 122 59 0 -10 -13 -61 23 0 0 0 0
3 10 3 -17 -3 -51 -24 10 46 -40 -94 40 -97 14 -27 -12 -12 -3 11 -11 -78 82 43 10 -11 57 -62 -113 0 0 0 0
0 -11 40 -22 -31 -27 11 22 33 -14 -9 -39 8 -3 -78 -1 -26 20 -33 -28 7 75 -22 5 27 33 -1 -43 0 0 0 0
51 -16 -28 -4 -4 15 -5 25 -14 30 0 -31 14 33 -44 31 -9 31 11 -37 37 2 -58 -17 45 -7 77 -7 0 0 0 0
-3 -65 14 -24 -50 -25 26 87 -13 22 0 42 20 69 -36 42 -40 18 3 -31 -4 -299 41 21 -1 7 -27 37 0 0 0 0
34 0 -44 2 2 -1 -3 -7 72 45 -27 -101 19 5 -14 -6 -17 58 -15 -61 26 299 34 8 -2 -19 -54 45 0 0 0 0
8 28 11 -39 -4 -71 -40 4 70 -40 -176 37 -199 31 -32 -22 17 -23 13 14 -41 21 91 37 47 83 -117 -51 0 0 0 0
-37 -25 39 -27 -29 21 -2 11 8 17 30 -13 -6 36 -69 26 -10 19 -31 -3 -47 55 -22 -4 14 24 35 -7 0 0 0 0
48 17 -17 -25 -39 -10 -19 18 -10 -8 2 -33 35 14 -53 -6 4 17 -6 -29 -6 11 -16 -8 20 8 5 -12 0 0 0 0
-39 -59 -1 -8 -57 -9 64 74 -7 -1 23 13 -6 69 -25 -4 -47 45 73 -30 -6 -86 -7 14 -25 -17 -33 75 0 0 0 0
31 19 -96 -5 -18 2 -37 8 97 16 -4 -71 4 -11 -7 1 8 38 16 -58 26 -9 -114 17 -7 -20 61 92 0 0 0 0
8 0 -25 -40 -2 -98 -43 -21 55 -27 -142 13 -188 27 -38 -22 11 -9 -6 37 -76 -59 57 -7 93 105 -91 -43 0 0 0 0
15 1 37 -18 -59 22 31 -1 31 -18 -9 -28 25 55 -28 7 9 12 27 1 31 -16 -18 -20 28 7 -23 0 0 0 0 0
26 2 -35 -18 45 18 -10 -15 -31 32 -9 -29 16 -8 4 -27 -17 13 -11 -28 29 58 -14 22 -9 16 -62 -18 0 0 0 0
-32 -49 -22 10 -17 3 37 59 -14 -5 4 15 -14 18 20 -34 -17 31 15 -18 11 -25 24 9 -7 -6 -15 -52 0 0 0 0
-14 4 -57 18 9 6 -15 16 60 4 -2 -18 6 -4 13 7 -8 -15 5 -4 19 85 -94 6 -17 -15 62 87 0 0 0 0
8 9 -26 -25 -11 -49 -10 -4 41 -25 -92 4 -116 7 -33 5 -23 -18 -22 -4 -54 -2 46 -7 4 59 -67 -76 0 0 0 0
5 -26 1 -13 22 -5 50 8 11 -49 -5 -8 -17 12 -57 -2 -9 22 -28 9 -10 -51 44 -20 -25 20 -22 -8 0 0 0 0
22 -3 -19 -27 0 18 -12 33 -12 33 22 -11 -2 1 -2 37 3 10 18 1 0 -163 -35 -9 7 2 -36 -15 0 0 0 0
35 15 -16 -13 12 -3 -14 35 -22 -5 4 12 8 -34 0 -16 -16 4 -36 37 19 63 -31 1 -1 9 29 16 0 0 0 0
-35 10 36 -31 2 12 22 -8 7 -7 -24 -20 13 -6 18 -23 4 3 -7 9 7 331 25 -7 10 1 -17 -27 0 0 0 0
-9 22 -11 -1 -11 -1 -10 13 23 1 -57 13 -31 13 -12 -13 -1 -8 6 1 -40 0 40 11 -26 6 -13 -30 0 0 0 0
7 -18 0 -5 -29 6 1 -7 -18 18 -12 -41 17 2 -42 25 -25 2 -27 -2 57 -15 3 -25 -45 37 10 -22 0 0 0 0
33 -2 -12 -11 -9 31 -2 8 -8 37 -33 -20 16 1 -25 -7 9 22 8 -32 59 -2 -44 -26 -21 -25 -20 -73 0 0 0 0
25 -35 2 -21 -18 -19 20 60 -5 -2 -3 13 1 24 -33 9 -4 -5 44 -3 32 -63 1 15 -24 -2 -7 -16 0 0 0 0
-15 6 -17 -6 -3 11 7 -1 27 32 -15 -55 22 7 14 -25 12 25 3 -27 19 30 17 -6 -10 -7 -29 -43 0 0 0 0
-24 2 -30 -8 -11 -29 -7 8 64 -23 -126 34 -106 8 -32 -14 24 4 -6 -8 -85 72 81 14 1 49 -72 -163 0 0 0 0
14 -41 44 -5 -29 21 0 0 19 -3 9 -38 14 8 -22 7 -9 15 -5 -23 -28 34 -71 1 -37 -19 37 -34 0 0 0 0
4 4 7 -30 13 32 8 22 8 33 -1 -27 6 3 -13 -19 24 -18 -24 -14 -50 4 -35 -7 -67 -30 47 -72 0 0 0 0
-29 -39 -9 6 -19 9 37 37 0 10 -2 19 0 32 -26 -11 -16 21 -6 -16 7 -72 -1 12 -19 -16 -18 73 0 0 0 0
15 -19 -46 19 5 -4 -8 8 55 -2 9 -29 14 10 -4 7 13 -11 11 -14 29 -32 -23 17 -9 -12 9 -33 0 0 0 0
-15 12 -26 -20 -24 -43 -18 -15 42 -23 -92 20 -87 9 -21 7 6 -9 -26 0 -74 -72 52 9 43 71 -67 -82 0 0 0 0
8 18 15 1 -39 18 42 31 42 0 -20 2 30 25 -27 6 -15 -2 -6 6 38 12 -10 20 -45 -7 2 -98 0 0 0 0
-4 -1 5 -11 21 6 -17 16 -8 46 4 4 8 17 -38 11 -2 -11 -9 -8 10 -1 15 44 22 9 -10 -52 0 0 0 0
-23 -5 -23 17 15 13 13 -11 -12 26 10 0 6 -3 6 -40 -2 11 -24 22 -8 -7 33 8 -4 -1 -1 -45 0 0 0 0
-22 -14 1 -3 9 -8 6 4 18 -24 4 11 -7 -7 10 5 7 -7 -3 11 16 -13 -19 17 6 0 24 -10 0 0 0 0
9 1 -5 6 -19 -24 -14 -2 2 -13 -33 -1 -9 15 -23 -2 3 -11 -15 14 -52 -12 18 3 17 33 -18 -31 0 0 0 0
