6 12 9 -7 -8 -9 4 7 17 -6 -5 -30 7 5 2 -5
-3 -9 2 -2 8 7 -2 -6 12 -2 0 -3 -5 -3 16 12
-9 -6 -1 11 -3 8 -4 5 -17 -7 5 -12 6 0 -5 -13
-8 -4 0 -5 6 7 5 -16 1 -5 -4 0 2 -5 -7 -2
1 -7 -8 5 -5 13 13 -5 -11 12 9 0 -3 0 -4 -8
6 6 2 -10 6 -2 -2 -4 -2 15 -8 -5 1 3 -6 2
-2 2 -17 -9 -12 -10 0 -5 2 -15 -6 20 -11 8 -2 7
-4 -27 -9 -7 4 -6 11 5 -22 5 4 -11 14 -4 6 -2
5 -13 1 9 15 2 -16 6 -5 9 0 6 -6 21 -8 5
2 -5 -6 -4 1 -2 -6 -19 12 -3 -2 16 -3 -8 3 -5
3 9 5 3 -4 -5 11 -6 -4 -9 -19 -12 9 -7 -10 0
-8 12 8 6 2 -3 3 21 -6 0 -11 19 6 -15 -6 -6
-1 8 -2 -2 -12 2 -8 -2 4 -7 8 -5 6 -9 -4 -1
-15 -4 8 14 -7 6 -5 11 5 5 -7 -8 -3 -2 -4 -10
9 11 4 11 2 14 -5 0 -3 -9 10 2 1 -3 -2 7
-10 -3 -9 -13 -5 4 8 4 5 3 -3 -1 -7 -7 -13 -4
1 13 -10 1 -18 -5 9 -1 -9 -16 -4 -42 1 -3 4 -3
15 4 5 7 15 -15 6 -10 15 -10 13 -14 -2 1 -2 19
-1 -7 8 7 -8 9 1 -5 -14 -3 3 -11 -2 9 -1 -5
0 6 4 2 8 -4 7 -8 12 -2 12 9 -3 -2 0 9
-6 14 -8 5 -13 18 -1 -8 7 -3 8 -5 -6 1 -11 12
-2 12 2 6 11 1 1 10 -1 10 7 -3 -5 -4 -6 8
-2 8 -9 1 6 -24 13 -9 8 -10 -2 48 -7 23 -10 2
4 -16 -15 -15 4 -6 -3 8 -20 -8 14 6 10 4 19 -6
-1 -2 3 4 -7 -1 -8 2 -4 -9 -11 1 -1 16 -6 8
-6 8 5 2 10 -8 1 -7 7 -18 9 1 3 13 18 5
7 -11 -3 -11 7 -6 11 -7 -2 16 -14 11 -3 0 4 -8
-6 -2 2 -21 8 -10 8 -7 9 11 -3 19 -16 -18 -10 -10
5 2 -7 10 4 2 4 -10 -12 5 0 -2 -9 -7 -16 -5
-19 7 6 2 -23 11 13 14 0 -5 2 3 5 -2 -8 1
-14 -1 7 -8 1 -18 -4 7 -7 5 -14 -14 -9 0 9 -1
-2 -15 0 -7 -6 -5 6 -3 -2 -6 7 1 -15 6 -9 -2
-17 -3 3 6 -9 4 5 0 12 -7 8 -29 -12 3 -8 15
22 15 8 2 13 -6 11 -13 -1 4 0 -13 7 1 6 12
-6 -2 -8 -2 -9 10 -2 0 1 7 -3 -20 -2 13 -10 -1
2 1 7 5 9 -8 1 -17 -2 -1 2 17 -3 1 4 4
-2 1 4 4 13 -5 -5 -9 30 10 15 -5 11 -11 1 10
-9 4 7 -13 -3 -7 15 -5 0 16 -7 17 17 -14 1 -5
-2 4 9 5 7 6 7 10 -9 -30 18 22 5 1 -7 15
-2 -25 -8 -27 -8 -2 -7 15 -16 -4 7 2 1 14 -9 -2
0 8 -6 -2 0 0 13 -1 4 -6 5 21 -13 16 -6 -7
2 -7 5 -10 1 -12 3 4 -5 -21 6 9 2 10 9 -5
6 -19 8 -12 5 -14 0 -5 4 5 -7 -6 -3 -16 8 -4
-11 10 -6 -3 2 -3 10 6 7 -1 -20 15 -17 -3 1 -13
7 10 1 1 2 -12 15 -19 13 4 -4 -5 -8 -2 -14 8
-15 0 9 2 -16 13 2 11 5 -13 -3 -5 8 9 1 6
4 3 0 5 -4 -8 2 0 0 -2 -2 10 5 -4 -4 5
-8 -15 0 -14 3 -7 -2 -2 0 -9 7 -2 -4 3 -17 5
9 -9 8 -4 1 -9 4 3 9 -8 -6 -18 9 -1 7 16
15 12 2 6 15 6 6 -24 2 -17 7 -15 -8 -10 -5 3
-13 0 -5 4 7 -1 -5 8 12 -14 -11 -3 -1 3 7 9
-5 -2 -4 -10 10 -4 5 -35 8 -1 7 9 2 -3 6 20
-5 -14 -2 -21 11 -25 -7 11 0 3 -23 -3 -5 0 11 -8
-1 10 -1 9 11 -6 3 8 19 23 -13 -3 -13 10 4 4
-22 -5 -13 -18 -29 -12 -1 -7 7 -8 -18 18 -7 20 -12 -1
2 -8 4 -9 3 -2 3 -7 -14 -9 -8 -2 1 1 2 -1
9 -4 -7 9 -8 3 4 15 -8 -2 -7 1 7 3 -8 8
11 -14 -12 3 -6 -8 -9 -24 -2 17 -11 13 -5 -9 2 -17
2 1 4 -1 -14 13 -2 -9 6 -12 -7 -21 9 -9 -13 -4
-2 2 10 3 2 -6 -7 10 0 8 -4 16 -3 -9 -4 -10
-16 -1 -12 -8 1 -14 -17 7 7 -23 -6 1 -5 9 11 14
-9 3 1 20 -5 10 -1 9 1 -3 13 -1 -9 5 2 7
-5 -1 -4 13 -13 25 8 14 6 -15 27 9 5 1 3 21
-2 -1 -7 -2 -8 0 -11 0 2 7 -11 4 -6 10 -13 0
1 -19 3 -13 -1 -16 0 -2 -4 -15 6 -25 8 -2 5 -5
1 4 2 7 -5 -6 5 -28 1 -9 13 -8 -9 -6 -14 -11
-20 -15 1 -6 -1 -11 -18 17 17 -21 -10 -16 -1 1 16 11
6 3 5 -2 5 -27 8 -38 0 -7 -4 14 4 5 -3 7
9 1 4 -3 -6 16 7 5 -27 -1 6 -13 4 0 9 -21
-9 10 -4 8 5 0 -5 13 -2 19 0 1 6 -1 5 2
-10 -6 -2 1 5 -11 9 2 -2 -18 -1 36 3 24 -11 4
4 -5 -8 5 -6 -6 -7 1 -3 -9 2 -1 9 15 -3 -1
4 -3 -5 -7 3 -2 8 -3 -12 4 7 21 4 4 -2 4
17 -13 -8 -9 9 -18 -11 -26 4 18 -14 40 -4 3 3 -9
-25 -14 11 8 -4 6 -1 2 3 -10 0 10 -1 0 -4 1
-4 3 3 -17 -4 -7 3 14 3 20 -3 18 -17 -14 0 -4
4 4 -3 1 -10 -3 13 6 -5 -12 4 0 -3 -5 4 -5
-15 8 11 1 -4 12 6 22 11 -18 5 -2 1 9 -7 20
-6 -5 -9 -20 19 -51 -7 0 -4 4 -32 -20 5 -13 8 -26
-1 -14 9 -12 -4 5 -5 -10 -1 -5 -9 5 -13 12 -18 -2
-2 8 8 -8 -16 18 9 3 -3 -15 7 -53 -5 6 4 13
3 5 7 1 -14 -3 4 -18 3 -1 -1 -8 2 -8 2 -10
-5 -3 2 4 3 -2 -8 17 10 -13 -1 -26 3 2 17 11
13 4 -5 -14 7 -8 -4 -39 -5 11 -12 18 -1 -6 -10 -12
-8 20 14 6 -18 20 13 -20 13 -7 26 -24 9 15 -11 10
-11 -15 -1 -5 13 -7 24 -13 0 13 -10 20 14 -15 5 -11
-7 2 12 4 -7 -8 1 4 -13 -18 26 16 2 2 -3 2
11 -16 -7 1 -9 -4 -5 4 3 -3 6 -18 -10 11 -3 12
-2 -4 2 -14 2 -27 10 12 -22 3 5 40 -12 8 -5 -5
10 -6 7 -1 1 -31 3 -31 -6 1 -10 42 0 -1 1 -11
-2 -22 7 0 -8 -11 -12 -10 -2 -4 12 3 8 -17 6 1
4 -1 -25 -9 1 -3 1 -2 7 16 -7 28 -31 -1 4 -22
2 -8 9 2 -7 -1 5 -21 1 -3 2 7 -6 -3 -4 17
11 -7 -1 -6 6 6 5 3 8 1 1 1 1 1 6 8
1 12 -2 12 -8 13 -1 1 1 0 16 12 -5 2 -1 8
-7 -9 2 -2 -3 5 -14 -2 -4 -9 7 -6 -14 -11 -10 3
0 13 13 0 -10 12 3 -11 -4 -4 -12 -36 2 -5 2 -2
18 8 -1 -5 -6 2 -5 0 -2 6 10 -1 5 -13 -14 -9
16 14 3 5 8 8 4 -28 -1 1 -8 -16 -4 -3 -3 -8
21 -3 0 1 1 -16 -6 -38 -9 15 -29 27 4 -16 -14 -14
-7 -10 -5 -12 6 -21 5 6 4 12 -14 -16 0 -8 10 18
4 -7 -5 -6 3 -12 -7 15 8 3 1 -4 -14 -5 2 -2
-12 -12 -24 -13 -16 -13 -4 -7 11 -9 -11 10 -4 11 -4 -9
17 -6 13 2 -6 15 -5 -7 8 -7 3 -13 6 6 -6 9
5 -6 8 10 0 0 -1 6 2 11 -7 12 9 0 -12 6
-6 -3 9 -6 0 4 -14 -2 9 -4 5 6 -2 -5 -4 6
-12 1 8 -6 4 16 -3 -1 10 -9 -8 -7 0 -6 -8 -6
7 -18 -2 7 7 -9 8 4 -14 2 -3 24 -12 2 -5 7
-6 -15 -1 2 4 -10 13 2 3 8 5 5 -8 9 -4 4
7 -1 9 1 12 -4 -10 -26 2 15 -11 19 -3 -1 -11 -6
11 -7 6 10 -6 10 0 4 10 -25 31 -2 -9 9 -5 6
-15 3 -4 -12 -5 0 4 -6 14 2 -1 -10 -16 -5 -2 7
1 -16 2 -6 -13 -8 -2 -11 14 -2 12 -40 7 -3 -5 15
-7 -2 6 0 -5 -6 -14 10 4 -5 -5 -3 2 -7 -1 -12
24 12 9 0 1 22 3 -31 -10 7 -5 -18 -12 -10 -16 -7
14 1 -9 -1 -9 -17 0 -39 -14 14 -17 33 -7 -19 -3 -18
7 -8 -9 -19 15 -41 -11 5 1 2 -10 -5 -1 -11 17 -11
2 -3 3 8 15 -9 14 5 -4 -1 -6 -14 -12 13 2 -16
-2 3 -10 -5 6 -16 3 7 5 -29 7 47 2 22 -9 2
22 1 2 5 -6 7 -6 -9 11 -19 -1 -11 6 15 -17 13
0 -11 6 -11 -5 4 21 -5 -2 7 0 28 7 -5 -14 -5
-12 22 4 5 2 10 3 7 11 -14 11 7 -2 2 7 7
-8 0 6 -12 12 -2 -7 -13 5 -3 2 10 7 -1 -7 -4
12 -11 -6 -8 -4 -18 -7 6 2 14 2 2 -22 4 5 -2
-17 6 -6 13 -2 -33 -10 8 15 -15 -15 -8 -6 -3 8 -8
19 -9 4 -17 20 -29 -9 -33 -17 24 -14 30 -5 -9 -7 -15
-1 -1 -6 -28 17 -33 -1 -5 0 16 -32 -28 6 -15 6 -29
-6 14 4 2 -4 1 -2 -8 21 -17 -5 5 -28 -6 -10 -4
15 -9 -3 -7 -3 9 -1 -3 -2 -16 3 -45 -18 4 -6 -7
-17 -5 4 5 0 3 -14 12 5 -2 0 4 -6 4 11 13
17 -2 4 9 -11 20 7 -38 -6 -2 13 -27 4 -1 -9 -3
7 3 9 6 -16 9 -5 -6 -7 9 -9 34 -9 -8 -12 -5
14 7 -2 5 -6 2 5 1 -21 -2 0 -22 5 -6 0 -10
-15 -4 1 3 21 -11 14 -13 4 6 -19 9 7 -24 1 -12
-9 4 -4 5 3 -2 1 13 -2 -36 22 12 11 7 -9 0
21 -8 18 17 -15 25 -6 -8 -17 -13 22 -24 -11 -3 -16 14
8 -12 1 -14 -4 -8 22 -18 -14 18 -5 47 2 -12 2 5
-4 7 14 3 0 4 -6 -1 8 -7 13 26 10 -7 -4 5
-16 -7 8 1 -4 -18 1 -1 4 -24 13 -6 -5 2 1 -4
-9 2 -10 -10 4 -11 -2 -3 -2 8 -12 2 -35 19 4 -11
-2 6 13 -1 -13 -14 13 -13 -5 6 4 18 -10 -7 3 2
12 -13 -16 -3 6 -4 -14 -13 -22 26 -19 11 -7 -11 -5 -18
0 1 3 9 -3 17 -5 -3 1 5 16 16 3 10 -10 13
0 3 -2 -2 -7 7 4 -18 0 -9 10 4 -21 -15 -22 7
