10 7 7 -39 -50 -50 -46 -30
4 5 -3 12 -15 -9 -10 -19
-12 3 -9 41 23 60 20 53
-4 1 -10 6 1 6 9 -9
18 -18 -4 3 3 8 8 24
15 -11 16 -14 -3 -16 5 -27
10 1 -3 -18 8 1 9 -17
20 -11 -3 23 -6 26 -4 -9
0 7 -9 -37 -74 -42 7 11
4 -11 3 0 2 -8 1 -13
-8 -14 1 21 -4 18 55 47
1 4 10 4 9 -6 -1 1
-7 9 -18 -18 -1 8 -5 10
-14 22 7 -1 9 0 0 6
-14 12 7 4 -6 -1 9 -13
4 11 14 -3 2 26 -5 -9
-13 7 8 -34 -38 -26 8 6
6 7 1 -13 2 -2 9 18
-5 15 -9 -8 2 -17 41 35
-18 6 8 17 -1 -9 -4 13
-8 1 21 1 -23 -17 19 7
7 -13 5 -3 -17 8 -23 10
-7 -17 10 3 10 -10 -2 -1
2 -12 -9 21 20 -2 0 3
14 -16 12 -36 -38 -55 12 44
-9 9 8 -2 13 -15 -4 19
-8 -14 0 -10 2 -29 49 38
-15 6 2 1 -7 4 5 8
18 -1 -2 -5 3 12 -10 -18
-6 2 3 9 -4 7 -17 -14
-9 -12 3 -6 13 -16 7 8
17 19 12 20 18 -6 -18 3
-7 5 -24 -42 -25 -15 40 30
5 7 -6 10 -15 -12 -5 4
0 -1 2 -28 -43 -33 30 54
14 10 -13 -18 10 -1 -4 -1
-8 7 -1 -3 -1 -5 -9 8
14 4 -9 6 5 8 19 -14
-1 2 4 -3 8 -3 9 -7
4 4 -4 2 11 1 -10 9
-7 -20 10 16 -3 6 55 36
-8 9 9 4 -10 -6 -5 22
1 5 0 -44 -68 -33 -8 11
7 -12 3 -5 -8 12 -2 -5
4 13 -9 12 -14 -12 -3 5
8 -14 -2 -8 -11 -3 8 11
5 5 -7 -8 -4 -16 10 3
-1 3 -15 6 2 -3 -8 0
-4 8 -7 -7 -27 13 16 46
4 5 4 -8 -10 6 16 0
12 -7 10 -27 -31 -33 11 6
-11 0 0 -1 19 3 4 -8
-19 12 8 5 7 -20 0 -2
-13 -1 21 12 5 -13 -11 12
-10 -4 16 14 -7 3 0 -9
12 -12 -14 13 -4 14 -15 22
-1 -18 7 10 23 21 32 41
11 -6 1 -12 6 -8 10 -8
-2 7 -10 -53 -47 -64 3 -6
6 -14 9 5 9 7 10 4
16 -4 8 1 -6 -16 6 -13
10 -7 4 -17 25 -10 3 29
20 0 -13 2 4 8 2 -4
-2 8 15 19 -5 6 17 17
0 3 -15 45 24 18 7 43
-11 -1 4 5 -25 -13 15 -5
7 -1 7 -29 -34 -33 -39 -22
-2 -11 1 19 0 1 7 8
-5 -8 7 -17 3 -18 21 11
-8 0 1 13 -9 8 -10 17
-5 -5 -4 -8 -5 -3 -5 -15
-20 -14 2 -1 20 -14 -7 -14
