-9 -22 -9 17 -13 -10 -15 -5 -1 16 -4 0 -2 11 -1 10
1 -6 6 1 -11 2 -14 2 -20 -17 -10 -2 -14 12 2 -5
-3 -11 -25 -5 2 -19 -15 4 1 -12 -7 -17 -24 2 13 -2
10 -10 -3 19 -4 5 7 -7 16 10 -2 18 -5 2 -6 5
-2 3 -5 14 -5 13 -3 8 -10 -8 -4 -15 -8 -5 -5 -3
-15 -9 -6 -1 8 2 -3 -2 5 -3 -6 0 0 2 -6 -4
8 -11 -14 -4 -9 -15 -19 2 15 -13 -8 -2 -1 -1 -8 -9
-11 -3 -1 1 -5 9 -11 11 -9 -11 -3 7 6 -1 9 -11
1 8 24 4 -5 8 -8 -3 23 -13 -11 -7 20 5 2 -8
1 -2 -14 -8 -8 7 -2 -2 -14 8 5 -13 8 17 2 -9
2 -6 3 -11 2 -5 -27 -17 0 -10 4 -9 -6 3 3 -7
-5 15 0 3 -15 8 5 -1 -26 -18 -18 -5 0 -3 -11 -16
6 -9 -1 14 -6 3 -23 -7 -3 -2 -2 0 13 -9 -4 -4
-4 9 10 10 9 0 3 -4 -15 31 4 2 4 -9 -5 28
-5 2 -7 0 -3 -9 5 7 -23 -13 -33 -2 0 15 5 -8
-15 -1 1 9 0 -8 9 8 -1 -8 -17 4 4 10 2 -12
0 5 -1 20 -8 -2 -10 -21 -2 5 5 -17 -11 -3 -4 21
-8 12 -8 14 -7 2 -14 3 -30 -18 -3 -8 -9 1 2 -3
-4 -1 -32 -7 -2 -1 -20 12 12 0 -7 -13 -7 5 -3 13
10 9 -14 5 5 6 4 1 -9 -10 -9 -3 -9 -3 -11 14
4 -1 -6 8 -8 11 -8 12 -19 -11 -16 -8 -7 -6 8 -10
-11 -18 6 1 7 3 -2 14 5 -26 -5 -4 6 -7 -3 -17
10 10 -13 -7 0 -19 -10 -6 14 9 8 6 10 13 -13 6
-11 -6 -11 20 -18 16 -12 27 -7 -14 6 -4 14 0 -5 -17
9 -19 -4 8 -15 23 8 -4 1 -6 7 -8 9 -14 16 -13
2 1 -8 -7 1 -5 -12 -7 -19 -7 -1 -6 -3 7 -1 -16
-5 -19 1 10 8 -6 -27 -19 3 -13 1 4 -9 4 -6 -13
8 -10 -13 7 -6 15 -4 2 -17 -20 -11 -13 -1 -17 -11 -24
5 0 -6 8 3 9 -11 -3 17 11 8 4 10 6 -4 -7
0 -13 -14 9 -10 -2 -12 -1 -11 34 -11 -2 2 1 10 15
-5 -9 -11 2 -14 1 -6 0 -10 -26 -32 -13 -5 12 0 -24
-15 -2 14 26 1 4 24 20 -3 -8 -7 9 7 0 -7 -12
1 6 -1 16 -7 2 -25 -14 4 -2 2 -13 -3 2 -8 11
6 12 -6 3 -7 5 -4 -6 -23 -8 -2 -17 -8 -5 -6 -18
2 13 -30 -8 2 -9 4 3 -2 16 7 -11 3 6 -7 11
13 -14 -7 3 -1 -11 16 11 -5 -24 -17 -6 10 -9 3 -11
0 0 11 7 0 12 -19 -1 -3 -12 -8 -6 0 -3 -3 -7
-5 -3 0 2 5 -1 2 8 -2 -25 7 5 0 -7 -3 -7
-13 10 -5 -4 -19 -2 11 -1 -1 11 3 20 4 11 -12 18
-11 -1 -6 3 -10 19 -11 5 -12 -8 5 -10 19 -8 -4 -29
13 -7 5 -1 -8 13 6 7 -3 -18 -2 -13 14 -28 7 -26
-9 5 -5 -11 12 3 -6 3 -33 -7 0 6 -1 -5 13 -10
-12 -2 -2 -4 0 3 -9 -10 4 -2 8 2 -12 5 -2 -8
19 0 5 11 -1 -3 -15 -1 -11 -20 -18 3 2 -8 -8 -15
9 -1 -9 0 2 9 2 -6 -3 -1 -5 4 4 -2 -1 -9
8 -1 -3 -3 6 -17 1 1 -2 33 5 4 -1 4 17 9
-17 -11 -4 6 -29 6 -7 -2 -11 -29 -38 -17 -4 7 -2 -27
-17 -9 3 17 2 -8 -4 -14 -4 -11 -7 -5 -3 7 10 -2
-8 -6 -8 -7 -4 -3 -5 -13 -18 4 -5 6 11 16 2 11
-18 -14 10 -5 -13 4 2 11 -21 -12 -16 6 -2 -1 7 -9
-18 -13 -26 -12 24 -10 -23 10 -5 -20 -15 -23 -13 13 6 -20
6 -14 12 13 -12 7 13 4 10 -15 -6 11 7 -1 -13 -22
-1 4 -8 1 -8 6 -3 15 -22 -16 1 -11 -12 -11 -5 -4
-9 -11 9 5 -1 0 2 1 -2 8 -7 2 0 1 -1 -11
16 -8 1 -8 0 -12 -13 2 0 14 -9 -6 2 10 -6 -7
3 -5 -10 -15 -7 -3 -18 -3 -2 -14 1 4 -15 -8 -1 -5
10 -4 24 12 -2 10 12 -12 9 5 -1 4 -3 -6 7 33
8 -9 1 2 -18 7 9 1 -19 -13 -2 -13 8 15 -1 5
8 -3 5 -11 -7 -8 -29 -14 -2 1 -1 -6 -2 -4 -7 -3
-7 13 9 2 -19 16 4 5 -33 -27 -11 -7 -6 -14 -10 -21
4 -8 16 13 -7 -6 -13 -3 -6 -15 -7 -13 8 0 -16 -1
-14 -2 17 6 17 3 7 8 -5 8 4 11 17 11 -24 6
0 5 3 1 2 -8 2 7 -6 2 -18 5 10 6 2 7
-16 -1 3 7 -5 -7 -8 14 0 14 -12 13 -1 -4 8 -10
-11 -2 14 5 -1 2 12 -17 -8 -22 -3 -18 -8 0 -11 18
-12 -3 11 -4 -7 7 5 9 -31 -18 -7 -1 10 -9 15 -20
-15 -5 -18 -11 25 -2 -36 19 14 -14 -13 -26 -20 11 19 1
-4 -5 -20 -1 -17 8 8 0 -22 -27 6 -9 2 5 -10 4
-9 -7 -14 8 -16 12 -3 11 -20 -31 -15 -17 -10 -5 2 -7
-15 -11 13 14 -17 1 10 12 11 -5 -3 -15 9 -6 1 -14
15 20 2 -3 -2 -13 8 -7 -5 21 0 4 1 7 -6 14
3 11 -13 1 -17 6 -5 7 -2 -19 2 7 8 -1 9 1
7 -16 9 14 -5 19 17 8 -9 6 7 -9 13 1 13 17
12 -3 7 5 -1 -1 -12 -2 -26 -5 -12 2 0 8 -5 -5
1 -6 4 0 -4 -3 -10 -6 2 5 11 -2 1 6 -9 0
1 -12 -3 6 -21 14 -4 9 -14 -28 -20 -8 10 -13 -6 -29
1 18 15 13 -8 7 -2 -3 20 5 15 10 2 7 -26 4
-11 -24 14 5 -1 1 -30 7 -12 -4 -13 -6 6 16 -10 -5
8 -3 -8 2 -16 -2 -2 0 -17 -5 -20 -3 -3 9 1 7
-19 17 12 14 -7 -4 26 11 -5 27 -5 10 10 3 8 -3
-3 0 -8 4 -1 7 11 -13 10 1 -4 -17 -11 -4 -11 -14
-4 -1 5 1 2 -1 8 6 -34 -5 6 -20 3 -8 -8 -13
-7 14 -31 -5 13 -9 1 11 14 10 17 -15 -7 11 16 5
-1 -6 -14 6 -3 -3 9 8 -7 -24 -7 3 2 -11 -4 -10
2 -5 -6 5 1 11 -13 -3 -4 -16 -15 -13 -4 3 -7 -11
-8 -2 6 1 -7 -2 13 2 1 -3 9 1 0 -6 7 -11
-10 3 21 12 -16 -1 10 -8 4 24 -13 19 10 7 -8 2
-2 7 2 -7 -10 0 -1 -2 -3 -28 2 -9 9 -11 7 -20
18 -6 13 13 -4 10 20 12 -4 6 0 5 5 -21 8 7
0 -3 -1 3 -5 1 -5 3 -30 -23 -5 -2 8 -2 7 -4
-10 6 4 3 -7 -4 -11 -10 -4 2 0 12 -19 1 -3 0
6 0 9 -2 -4 -6 -9 -10 -17 -16 -15 2 6 -1 -16 -5
11 0 13 4 -2 11 20 -10 0 -10 6 5 0 0 -15 3
-2 -6 6 -4 3 -1 -14 -1 19 13 0 10 4 12 22 7
-6 -13 -6 18 -11 8 3 13 -14 -4 -26 -23 -13 11 -4 -10
-11 14 18 4 -13 -15 21 -15 -8 17 -22 -6 12 4 8 -10
-9 -6 2 -13 1 1 -20 -16 -11 5 2 6 11 12 -3 8
-14 -36 5 -8 -24 7 9 -1 -7 4 -6 -1 11 -3 -3 -4
-11 -4 -22 3 33 -20 -7 3 8 12 -1 1 12 8 -26 -6
3 -1 11 0 -3 5 9 10 4 8 -1 6 4 3 -1 -26
0 -3 -9 -7 6 11 4 5 -13 -3 -4 -13 0 1 0 -1
-16 -18 16 -2 1 -6 -6 -7 8 4 3 12 7 5 -3 5
10 -16 -4 -7 3 -10 -3 -4 4 4 -12 -10 -9 0 0 -20
16 -14 4 6 17 -9 -4 -4 -1 3 -3 -1 -9 -2 -23 -10
-5 8 20 -1 -4 13 6 -6 9 -26 -9 -4 -12 -11 -1 5
8 -16 -2 21 -13 -3 -6 2 -15 -11 -7 -19 5 7 4 -3
5 -5 3 -5 -7 -8 -31 -11 -4 -7 1 -13 -1 3 -3 4
4 18 1 0 -1 -2 -1 -5 -29 -7 -6 -1 7 -7 -3 -6
1 11 10 6 -10 -7 -8 -12 -8 -25 2 -7 3 -12 -20 -3
-12 -7 23 -4 33 -4 21 1 3 -11 3 4 -13 15 -23 5
11 -4 -7 0 14 -10 -7 -3 -1 11 -21 4 5 6 -3 4
-19 -4 -7 -6 11 -5 -12 -4 -3 8 -5 3 6 0 -5 -2
-6 -4 8 -6 -6 0 -5 -26 -10 -11 -3 2 -6 -4 -13 6
-20 -21 -3 -11 -13 15 -23 8 -14 -5 -6 -2 6 -4 -2 -18
-6 6 -25 -4 45 -5 -10 16 7 31 -5 -11 -2 15 -3 -7
-2 -17 -1 9 -10 9 12 2 -21 -5 -1 -15 -1 6 -3 -20
-3 -11 -8 5 -6 6 -11 0 -15 -19 -15 -12 7 -3 -5 -4
-13 -2 10 -2 -9 5 0 2 14 -2 0 -10 10 -2 -11 3
0 15 -7 -10 -7 -11 -8 -9 7 8 -6 5 -13 1 4 18
10 12 5 9 -1 -10 -2 10 2 14 -4 21 -2 13 -11 1
5 -8 -5 13 -6 19 14 0 -7 -13 6 -14 -29 -13 -9 -17
13 -3 4 23 -8 -9 -11 6 -27 1 -16 1 -4 14 8 -10
4 0 10 7 -7 -10 -27 -9 -2 -5 6 2 -5 5 -12 10
3 -8 4 1 -6 2 1 4 -22 0 -5 -9 -5 -11 -7 -4
3 18 17 11 -3 -4 1 -8 19 -7 12 10 -11 8 -26 2
-16 -15 14 13 9 -9 -17 7 1 -30 -16 -9 -13 9 -8 10
3 -6 -4 3 -4 2 -2 -2 -14 12 -15 -2 -1 13 -8 10
-12 -7 -3 -3 3 -7 0 -9 -3 19 10 7 14 4 -8 7
-11 14 -8 10 6 -4 -1 -26 10 -12 -2 -4 -13 -3 -15 -1
-17 -2 -11 -12 4 12 -15 -15 -10 11 4 -1 -8 -7 -14 0
7 19 -21 -6 31 -8 10 9 -8 32 9 -1 2 20 -5 -2
-3 1 -13 7 -3 7 -3 -1 -2 -9 -3 -14 3 -3 5 -11
-2 0 5 -3 7 6 -2 -4 -4 -1 0 -6 -3 -1 -11 0
-11 3 17 -3 -18 -8 -2 -8 8 5 1 -6 -1 -6 -7 -7
-9 6 -10 1 -25 3 7 -24 16 18 -16 10 -5 2 0 6
5 18 12 7 13 -12 -3 4 -8 2 -11 9 9 7 4 -14
11 -18 2 4 2 10 16 14 6 -10 -3 -4 -24 -25 -13 -19
3 -1 6 6 -16 -7 -11 5 -39 -16 -15 0 0 1 2 2
-11 -8 9 6 -3 -12 -10 -15 3 -12 -3 2 -16 -4 4 14
17 8 7 -3 2 -20 -13 -7 -9 -5 -7 -3 4 -10 -13 -2
4 -6 15 10 6 1 8 -7 1 -22 1 8 -10 -1 -12 -5
-6 -5 9 3 5 -10 -10 12 10 -19 -7 0 -8 9 22 9
-15 -6 1 7 -3 5 -2 5 -8 7 -30 -11 -11 2 -3 3
-23 -1 2 -2 -18 -8 -11 -33 -8 1 -16 1 7 3 -1 -5
