39 -14 -31 32 -16 -16 -3 -11
30 0 -35 19 27 7 18 -8
33 -18 -38 14 -2 -20 2 -32
-31 -28 42 12 1 16 -16 -6
-37 16 6 -47 18 -35 9 -23
78 -7 -103 29 15 -8 12 1
-24 -7 16 32 -9 11 -19 -7
26 31 -17 37 6 -11 14 -5
49 31 -40 21 1 -14 -9 19
43 15 -44 31 22 6 -5 11
11 -18 -64 6 13 0 -13 6
-37 -31 52 20 5 19 -26 -30
-100 -20 29 2 -5 20 2 -19
33 10 -115 -19 0 8 15 -23
-6 -9 17 36 -19 11 -30 -4
47 -15 -45 3 -9 -12 -25 -10
46 -14 -28 -14 25 27 1 6
48 14 -51 14 10 9 -14 10
27 -39 -80 12 19 -25 9 0
10 -4 3 -8 3 14 -20 0
-73 -14 15 -5 18 29 -8 -26
63 -18 -97 24 8 -31 8 -27
-6 37 0 4 -10 14 37 10
28 -1 -13 -20 0 -13 -6 11
38 5 -34 0 -29 0 -8 1
48 -24 -47 4 2 15 4 8
36 1 -44 29 5 -21 19 -13
-44 -50 54 20 -11 24 -47 -8
-49 -3 13 12 14 -20 36 -10
24 -14 -116 9 23 -4 15 -34
-48 -9 48 9 -47 -8 -29 -14
53 6 -49 9 4 14 -2 -3
36 -11 -21 21 -21 -6 -14 -2
48 -8 -73 21 9 -2 -19 -7
48 -16 -85 -9 41 -16 21 -9
-1 0 -9 11 -26 33 15 -29
-129 -20 24 25 0 -41 12 -39
61 15 -138 11 30 -23 10 -35
-52 -3 44 -13 -18 11 -8 18
67 -23 -51 26 1 12 9 12
56 1 -49 -9 18 -8 -1 2
89 19 -90 17 -28 -15 25 -15
14 11 -42 -16 -17 13 -16 -46
34 -46 -23 5 -6 23 7 10
-100 1 55 3 -21 12 1 -1
16 -20 -134 19 -12 -35 -3 -54
34 7 -16 4 -6 -3 -23 23
15 16 -18 -41 23 8 12 -9
43 -5 -25 -13 9 16 7 -10
34 -28 -36 -22 6 -1 -14 3
53 5 -67 -5 38 -9 -6 -24
3 1 7 -11 9 -2 19 -13
-64 6 14 14 -2 -40 12 -22
-16 16 -94 10 1 -32 16 -12
-23 -11 25 -21 14 36 3 9
63 5 -49 4 1 -5 33 0
51 3 -42 -16 -14 -15 29 6
54 19 -51 -41 -13 -16 25 -7
21 -24 -110 20 -6 -22 -3 -43
87 -10 -69 -23 -8 15 23 8
-114 -27 -6 20 21 -17 21 12
-6 -34 -95 1 -23 4 -29 -27
-47 40 17 -24 -2 41 -18 -5
95 -28 -77 -11 -1 -43 -7 9
67 32 -34 -12 -22 -5 -25 -10
40 -24 -68 -13 6 -3 34 0
56 -20 -95 -38 19 -7 16 -28
56 -29 -76 -25 4 -13 -2 -5
-111 -36 30 28 24 -13 10 -22
7 5 -71 -2 -4 -24 -35 6
85 -1 -41 -23 29 23 15 -15
59 -21 -34 -19 18 9 5 -8
