-2 -7 5 -5 -8 -8 2 2 -1 4 -14 9 9 2 -4 -7
7 7 0 -3 3 -7 5 -5 2 3 -3 1 -3 -5 0 6
13 7 2 -10 -1 -11 11 -12 -5 -4 4 5 11 -12 -4 -7
-17 -3 2 -8 -1 2 -6 -6 10 -6 4 -8 -8 -8 3 2
-2 3 -25 0 -2 -2 -5 2 -9 -1 -8 -3 5 -10 8 6
4 -15 0 4 -17 -6 0 0 7 0 2 -7 -6 2 4 -1
12 1 9 -4 -14 1 -7 6 -2 1 5 4 -7 4 -4 -4
-3 6 3 7 9 1 9 -5 14 11 27 6 3 -5 -6 6
4 7 -1 -4 -10 -3 9 -9 -2 2 5 2 -8 -7 -12 4
1 6 -4 -2 -1 -3 -13 11 1 -1 16 -1 -7 -12 0 19
-3 -7 -10 1 -7 -6 -17 -2 -6 0 11 -5 -6 -2 2 1
-5 11 -13 -3 -13 6 6 6 -4 4 6 -3 0 -4 -7 5
7 -21 -17 9 1 7 -2 9 -8 7 7 -5 10 -6 -4 -7
6 5 2 -6 -13 -2 -13 -7 -2 -4 -9 14 -2 2 2 -13
-23 -3 5 4 -14 2 -2 -12 -1 -12 5 10 12 -11 1 -10
1 -7 0 -10 -9 17 20 -1 -2 -8 -15 -3 -2 -3 4 4
-6 -3 9 -1 -21 1 5 3 -6 -8 -2 1 8 -14 -32 -3
13 -7 -9 7 6 -1 -9 -4 -11 -6 -2 7 0 -6 -29 12
7 2 4 1 7 -14 11 -11 -6 5 -8 -10 7 -9 4 3
-16 -3 0 -1 3 -13 -3 4 15 2 0 -11 7 -5 -3 15
-3 3 -34 -4 9 1 -32 -4 0 8 -20 3 4 4 3 0
2 -21 -3 3 -19 -8 1 3 3 -6 -1 -9 -6 0 -4 3
6 -3 5 3 -10 -6 9 10 -2 1 6 -11 2 10 1 4
5 -5 0 2 5 1 9 -5 5 12 15 3 -9 5 -15 6
-7 6 6 -4 -3 0 26 -6 1 5 13 -4 7 1 -19 2
-6 3 -10 7 0 2 0 17 9 -3 -7 0 -19 -10 1 22
-10 -8 -12 -9 -5 1 -7 -3 -7 0 3 -2 -8 4 8 -4
-1 0 4 2 -7 -2 16 2 4 -2 30 0 -16 7 -30 -5
2 -14 -14 13 -9 6 2 -9 -11 7 5 1 7 13 -5 -1
-8 -2 -13 -3 -6 -2 4 -9 4 -7 0 12 4 -6 -4 -10
-9 -6 -3 3 -22 16 -6 -7 11 -2 -10 2 6 -5 3 1
2 7 0 5 6 -9 12 -4 -8 13 12 -4 -2 19 -15 -1
-8 3 0 2 -10 -4 -4 8 2 8 -12 -3 5 -11 -37 5
25 4 5 2 13 11 0 3 -19 5 3 11 -6 -8 -23 16
-10 0 8 3 6 -9 -5 -5 3 0 -2 2 2 -11 -10 -11
1 10 1 -12 3 -15 -4 3 23 0 -10 -19 9 -13 -4 8
-6 -5 -20 -1 5 4 -23 -10 9 12 -16 -7 3 11 1 -2
-11 -24 2 11 -9 -7 -3 14 -3 -7 -2 8 3 -7 -2 -2
-8 -9 -9 6 -1 15 3 13 13 -11 0 9 6 7 -2 7
-5 -7 5 23 8 27 -2 -6 14 -8 12 8 -7 -3 -21 9
-15 -1 9 -7 0 -6 14 2 4 -3 15 0 5 -3 -25 4
3 4 6 1 2 -20 0 18 -8 -8 7 5 -3 0 8 4
-5 -3 -4 -1 -3 2 -5 -6 8 4 -2 13 -11 3 5 -14
10 2 -6 11 -2 0 -8 3 -7 3 -8 3 -16 4 -12 -1
-8 -19 -33 15 -8 6 -2 -2 -7 7 0 -9 2 11 4 1
-22 4 0 -12 -3 3 -4 0 3 -12 6 -2 9 -13 7 7
0 12 -7 17 -14 1 -20 2 -7 -11 -4 4 8 -3 8 14
-6 -18 -6 19 -4 3 -12 -10 -3 10 -10 -15 -5 20 1 -5
-4 0 4 -1 -9 -18 7 8 -10 1 -10 -1 7 -7 -9 3
-12 0 4 2 -13 5 0 13 10 -7 -6 -13 0 -1 -4 -6
8 11 13 -16 0 -12 15 0 -3 3 0 -9 10 -6 -9 -5
-9 5 4 -13 23 3 2 -8 -18 -15 -18 14 -19 4 4 5
-7 -17 -28 2 -16 -4 -6 2 -4 4 -2 -1 12 -15 -1 8
1 -7 -11 15 -2 -9 -5 -2 -9 13 2 -1 -6 2 -8 -6
7 1 6 1 -24 -7 -13 -6 -8 4 7 5 1 7 7 4
12 4 9 9 8 -1 0 -2 21 10 16 4 -3 7 -8 -9
-6 -4 0 1 3 -6 11 -14 -10 -6 5 -4 -3 3 -12 -12
-13 -3 -9 -4 -19 -18 -7 9 -5 -2 20 -5 -1 2 -9 2
0 3 -10 -4 3 -2 -8 4 -4 3 11 3 -2 -6 -15 9
-5 0 -8 3 -8 3 -3 -6 3 11 22 4 6 1 -15 4
2 -27 -18 5 -7 -3 0 -4 -5 14 4 5 3 6 4 3
6 1 3 -7 -9 -4 -12 -12 -1 5 -11 22 -7 7 5 -24
-17 5 -4 -1 -8 3 4 -2 8 2 1 17 6 -1 10 -12
4 -10 9 -18 7 15 10 -13 -7 -20 -17 5 3 -15 3 7
-3 6 -3 2 -30 -5 9 -2 -2 -8 -12 9 2 -11 -37 -1
-6 -4 -3 10 -14 2 0 17 15 7 -5 -3 11 -2 -15 1
-15 5 8 -4 -2 1 16 0 1 6 -3 -23 12 -8 -2 6
-16 6 5 4 17 -4 -13 -9 -22 -11 -15 5 -1 1 16 3
6 -17 -23 -9 -4 -16 -5 -1 -10 7 -4 13 3 -3 -4 8
1 -15 7 20 -25 -29 -3 3 -7 9 -1 4 -6 17 1 8
16 -4 0 -5 -18 -20 -2 0 -7 8 3 -14 -7 10 5 1
23 -9 4 0 16 -8 8 6 8 12 3 11 -11 6 -29 -7
-32 -7 -3 -6 -6 2 15 1 4 5 7 -4 1 0 -23 -12
-29 2 -16 9 -13 7 3 8 8 9 -6 -20 1 -11 5 14
-2 0 -20 -6 6 -14 -8 5 -17 4 -9 9 -17 -1 -6 3
15 2 -4 4 0 -9 12 3 -7 5 38 0 -5 6 -34 8
10 -17 -22 15 -13 -8 14 -2 -11 9 3 -4 3 16 7 1
9 6 -18 -4 -19 -3 2 -17 8 13 7 26 5 2 -12 -20
18 1 2 5 11 2 -10 8 -10 16 -23 3 -12 18 27 -14
14 5 17 4 15 -23 13 -12 -12 8 -3 1 16 11 -18 1
-6 -1 12 -2 -25 -14 0 4 1 -6 -13 6 0 -2 -40 -3
24 3 9 1 16 3 3 14 -3 1 6 5 1 1 -29 8
-12 -8 7 2 0 1 -14 12 2 2 4 -9 13 -15 -4 -12
-16 19 1 -13 -2 8 -21 -4 0 -16 -3 -1 6 2 -4 7
6 -6 -23 -7 -4 8 -9 -11 6 -6 -3 -3 1 3 -2 0
9 -24 4 10 -15 -14 -2 6 11 -10 3 1 -7 4 -12 5
11 -13 -16 -7 -5 -8 16 10 -8 3 -10 -6 6 12 15 4
6 -12 2 17 9 22 1 1 20 -10 6 8 -3 -3 -15 6
-14 -7 4 -2 1 1 15 -2 0 2 1 3 12 -5 -32 -5
-10 -5 4 -2 -4 -32 -2 11 -8 -1 4 -18 4 2 8 -12
-9 0 5 2 11 -6 -3 -2 -17 18 -17 4 -17 2 15 -9
8 16 -13 1 3 -22 5 5 -18 2 -20 1 -16 3 -16 4
-10 -36 -34 8 -7 -7 6 -1 -6 1 -4 -4 -5 9 3 -8
-6 13 -7 -18 -11 1 2 -1 4 5 -4 6 11 -14 -13 3
-8 6 -1 18 3 -1 0 16 3 15 -7 -18 1 17 25 0
0 -28 -3 6 -4 -2 5 -1 4 20 -24 -11 3 24 -5 -6
7 -3 8 6 0 -9 3 4 -4 3 -16 3 5 -5 -10 10
-4 -3 -1 -6 -16 -8 2 -11 -10 3 -2 -2 0 3 4 -4
-6 10 6 -14 -11 4 5 1 2 -10 -11 4 0 0 -9 0
7 0 -7 -8 -15 -3 -12 -12 2 -15 -14 21 -12 4 -4 1
6 -14 -15 -23 5 1 3 8 0 -6 -1 -2 -1 -23 1 -4
1 -19 1 13 -7 -11 -5 5 -18 18 -1 11 -8 0 -4 6
5 -4 9 2 -13 -4 -17 -10 -11 5 7 7 0 5 1 7
9 -8 0 10 2 -11 1 3 -1 7 6 -1 4 -7 -16 0
2 -2 3 5 2 -3 2 -1 -7 3 4 -4 -4 4 -11 -9
-12 -11 3 -2 -19 -13 -17 3 -4 -1 -8 3 1 3 -4 -4
-8 -2 -8 -6 2 0 -4 15 8 -2 7 -7 -7 -8 -9 5
-9 -8 -10 -2 -11 7 -7 8 5 3 13 1 6 -5 -9 -2
7 -40 -10 12 -12 -12 16 2 7 11 -3 -3 6 5 -3 -2
0 7 -5 7 -15 1 -2 -5 -9 6 -12 -10 4 8 -6 -15
-17 7 -19 1 -27 6 -4 5 12 -10 7 18 -2 -4 -1 -1
-9 -21 7 -18 -18 -7 1 18 -9 -1 -31 -1 -24 -14 -12 -7
-2 11 5 5 -9 -18 3 1 -17 -7 -18 3 4 -8 -29 3
3 -5 -12 3 -13 4 -5 2 -16 4 -12 -4 -3 8 3 -2
-13 1 9 -6 -2 2 13 4 -12 4 2 -13 0 -21 10 7
-3 -11 -3 -3 1 -4 0 -22 -10 -15 -38 26 -11 5 -5 4
14 -7 -27 -33 9 -10 -1 -2 5 -12 1 9 -2 -12 -9 -2
-8 -27 -11 13 -20 -21 -1 -4 -9 12 4 14 0 1 10 -3
11 -9 0 -3 -11 -6 -8 3 -23 9 -7 -5 10 6 7 9
4 3 3 3 9 1 0 11 9 7 -1 4 10 1 -24 -2
-22 -13 -1 -11 2 9 16 11 -5 3 2 -9 3 -9 -24 4
-12 -6 2 -12 -6 0 -6 1 -3 5 -11 -9 2 -5 8 -9
-13 0 -12 2 7 -16 -13 6 -10 1 -2 -12 -8 -5 -4 1
7 8 -2 5 -3 -19 19 7 -8 14 22 -1 1 6 -36 -9
9 -48 -12 9 -10 -16 6 -9 -3 13 9 3 4 8 5 -10
-8 16 -4 0 -6 1 -12 6 -4 10 1 4 4 1 -3 -17
19 3 -14 -1 -15 8 -8 -2 14 -5 3 10 -3 6 -4 -11
2 -1 17 4 11 -18 2 16 -12 5 -12 2 -11 3 -28 -8
-7 3 1 4 -10 -6 9 12 -4 -7 -18 1 1 -6 -26 10
20 -10 -6 2 10 -3 -5 -6 -11 17 -4 5 3 -3 -15 3
-13 8 3 3 -9 6 -16 15 -5 -14 -7 -9 8 -9 3 -7
-27 4 -4 -8 9 13 -20 -14 -22 -12 -19 6 0 -3 -3 -10
-3 -2 -24 -20 -5 1 -2 -17 13 -10 4 -4 -1 7 1 -6
-2 -45 -7 6 -3 -2 -5 7 13 4 2 17 -9 5 -6 0
8 -13 -10 9 -33 -4 10 3 -10 -6 -20 2 13 14 17 11
-4 0 2 3 10 23 -16 4 28 4 -5 4 2 -17 -23 5
-13 3 4 -10 4 2 13 9 2 11 4 10 9 -12 -25 0
-10 -11 -2 -17 -8 -22 -8 -3 -12 7 -5 3 1 -4 13 -14
-13 3 1 -6 8 -6 -6 -2 -9 14 -10 -7 -15 10 9 -7
2 16 -13 2 17 -17 0 -7 -2 11 -23 -6 -7 -11 -14 0
0 -55 -20 11 -7 -13 13 -1 7 18 -3 -10 -7 12 5 -13
-23 6 -5 -17 -4 3 2 7 7 -2 -2 -16 14 -10 -6 12
-12 7 -11 5 -16 -6 -2 -19 5 7 -3 -7 10 13 16 3
-5 -11 -4 8 -18 1 10 13 -9 11 -17 -8 -33 12 -10 -1
