-3 -17 2 -21 0 -6 -7 -20
8 0 15 -20 -13 -13 6 13
14 7 -18 -20 3 -25 -1 16
-3 -15 -7 14 -14 4 -9 -11
8 15 13 3 12 -10 -18 -15
13 -6 -7 13 -15 14 29 10
-1 3 -18 -13 -9 -24 -14 -9
18 13 -6 -4 22 20 23 9
12 7 -10 -23 11 -19 7 22
11 -8 13 8 12 4 3 -15
9 -9 -5 -14 -27 -2 34 26
8 -12 2 6 9 30 -12 5
-17 -5 -17 -9 15 -20 8 -1
10 -1 -1 -17 -18 11 25 23
-14 12 8 11 30 -2 -5 11
25 -14 -4 6 12 16 29 22
7 0 -3 -22 3 1 -31 -1
16 -3 -12 -25 -28 -29 1 11
11 -20 10 -20 9 -2 16 -8
-6 5 16 -17 -5 -17 15 27
17 -2 13 12 -11 -6 -27 -29
4 -22 -6 -19 -28 -12 -1 20
9 8 7 12 1 1 10 27
-13 12 14 20 13 4 26 0
3 8 16 1 -21 -3 -2 3
13 -16 -2 17 9 -2 -37 -25
-6 -9 14 -21 -14 -34 30 37
3 -3 -11 19 9 8 -13 -13
-17 14 5 19 8 10 7 9
-17 12 8 -26 -27 -23 27 13
21 16 -8 29 8 20 18 16
13 1 -8 -21 -3 -17 -18 6
16 -2 -17 -1 -20 8 -27 -21
-6 -12 -7 -14 8 -17 -2 -12
12 1 3 3 3 -10 -11 3
21 -7 -3 -3 -16 6 -4 14
-3 -7 3 13 16 -5 18 10
-17 -9 -4 -11 -29 -34 -13 1
-7 -13 -14 -16 -17 -16 -27 -12
19 19 -6 8 -1 -1 24 28
-7 20 -9 29 -1 6 3 0
-6 -11 -11 -27 -13 8 -33 -19
0 3 14 -27 -11 -18 5 12
-18 -3 -1 5 -11 -19 -17 -5
9 -12 14 -11 13 13 2 -8
-11 3 0 -5 -2 -22 19 -2
3 -1 14 21 14 20 4 2
33 5 3 9 13 -6 -13 -10
4 -15 -2 -3 -8 16 -33 -18
15 -24 -1 -32 -5 -38 -3 5
7 -16 1 -18 -13 -11 30 23
-16 -9 12 -23 4 -16 26 13
8 1 -6 20 8 18 -21 -43
-8 16 -8 8 11 23 36 33
6 -8 -13 -15 -26 -25 17 -2
10 -12 -10 -24 -18 -9 5 -5
12 -2 24 -20 -42 -36 0 17
-18 9 -1 16 13 24 4 3
4 -6 4 -26 -26 -4 29 14
2 9 2 29 32 28 0 -6
9 9 16 12 -11 1 -5 17
16 -10 -7 -19 -4 -29 1 -3
-7 12 -23 12 18 20 -2 -32
-7 -2 -10 -2 -8 -5 23 26
7 10 -21 14 25 15 0 0
-18 10 4 -43 -17 -40 38 1
4 6 -2 4 -28 -9 -13 15
-8 7 16 -14 -36 -38 17 38
-13 20 4 -8 7 7 -66 -45
-2 13 -22 -7 -18 -23 26 22
4 18 16 17 7 13 19 10
2 -5 17 0 -9 -5 8 7
0 4 -4 -55 -44 -20 -16 -1
8 8 20 34 20 28 -10 -31
-17 -7 -8 -25 -41 -42 50 50
7 -14 -16 7 29 20 -26 -20
16 8 8 21 -8 6 -9 -6
6 11 -11 -32 -45 -26 23 1
-12 11 0 31 6 -2 -30 1
22 15 -11 -72 -77 -50 3 -14
-8 0 -10 -12 20 -16 -1 6
7 13 -14 -5 0 -3 5 32
-11 -13 9 -9 10 7 5 -9
11 -5 17 -24 -24 -11 2 -2
-2 -6 -7 -9 23 14 -18 -11
-17 -23 8 -48 -28 -35 18 19
-1 -10 -6 -15 -28 -35 -18 -9
14 15 -2 -12 5 -8 22 30
-2 11 -2 7 -10 18 -6 -12
9 18 -6 23 26 -2 -25 -12
-12 4 -7 -18 4 -33 31 6
8 9 -17 -17 18 -16 -42 -42
1 -13 3 -2 -1 3 -26 -15
6 1 3 -5 -26 1 3 1
-10 15 6 3 19 14 -28 -11
3 19 -1 -35 -32 -4 -29 -14
-15 -12 3 26 14 16 18 21
4 -16 7 10 -14 -6 13 4
18 -16 10 14 1 -10 -6 11
-8 10 -13 -4 7 11 12 19
22 0 19 14 18 26 -20 -15
19 -11 4 25 16 3 20 32
8 10 4 -10 8 11 1 -11
-1 7 -4 -35 -20 -11 -23 -22
3 23 8 1 -35 -24 31 17
4 -17 14 6 2 0 14 26
11 9 -12 -9 -21 -26 9 12
3 4 13 22 -1 22 18 11
-9 12 -18 0 13 -2 -3 -14
6 -11 23 -19 1 -5 4 14
13 -18 13 -16 -9 11 -23 -13
-14 10 -3 -20 -18 9 49 19
21 16 -10 2 37 27 -5 -8
11 -5 -16 -16 -1 -18 25 34
-3 0 -16 -13 -5 9 -9 14
3 8 11 -30 -16 -26 18 23
3 16 20 24 13 4 -25 -34
-16 -17 -13 3 6 -15 21 36
2 -4 14 5 17 5 31 15
4 12 5 -16 -44 -42 -14 -7
9 23 16 -18 -37 -38 6 4
4 23 20 28 18 36 11 16
8 -10 16 -28 -31 -6 21 7
5 -10 -9 10 24 40 2 6
9 11 3 9 -11 -13 -3 4
8 16 22 -16 -22 -11 -22 4
-13 3 14 17 -3 6 -32 -17
15 20 -8 -31 -57 -50 3 -16
8 20 16 26 23 22 22 -6
-12 8 21 -14 -16 -2 12 30
16 -1 -18 17 3 -2 -8 5
-5 -3 12 7 -27 -22 21 28
16 16 -3 -6 27 9 5 8
-14 -10 -18 -30 -8 -14 16 10
4 0 17 6 10 5 -21 -2
-12 -6 -14 -17 -37 -14 -10 12
0 -5 3 -5 20 16 -15 -11
-10 17 -4 7 6 1 -23 -21
-1 -12 13 -4 2 -1 9 -4
3 -22 6 3 -1 10 -29 -34
-18 7 8 13 -12 7 7 -21
8 -1 -1 -25 13 -26 19 5
-4 15 -11 1 -18 6 -18 -7
5 33 33 -2 5 6 -3 -26
