-18 8 30 0 -8 -2 10 -24 -10 28 -7 -11 -35 17 15 -10
5 -12 -19 -28 0 29 -33 9 3 27 -2 22 -17 12 8 11
14 20 -1 -11 -2 -32 -18 -4 -13 -6 -25 -25 10 21 4 13
-9 -5 -19 -7 12 -9 18 -19 -26 -13 0 3 -14 -18 3 3
34 21 9 3 -10 -15 -12 3 -45 -5 2 -26 -13 -10 13 -42
-21 1 -3 24 -13 -23 -7 -16 -21 -8 -35 3 16 7 10 -14
15 5 26 -15 21 8 9 -17 -25 4 4 -37 -2 -4 12 -27
-3 20 -24 -3 -19 -13 -10 -24 -5 -8 -18 13 9 3 26 -12
8 -7 23 -16 24 -5 7 -19 2 -17 15 -37 -3 35 -31 -28
24 23 -12 4 -16 -7 9 16 5 -13 -3 -12 -15 -9 13 -22
21 -12 -24 -7 9 14 -22 -17 -35 2 21 -15 9 -9 9 -23
12 5 -4 -12 -4 -24 2 24 4 5 -18 -7 7 -2 6 -5
23 44 -8 -5 34 11 -32 4 -17 11 2 -20 2 36 -12 -4
-18 -1 24 11 -4 9 -22 25 14 -15 -34 17 6 12 5 17
-10 14 -5 -29 13 -21 -34 -14 4 4 -17 -21 -24 2 16 -12
20 -1 4 -2 -15 1 -9 35 -23 7 9 -14 -19 -8 -5 18
-11 21 18 4 32 12 -37 11 -37 -28 10 -1 -1 -3 -24 8
-11 8 -3 11 -2 15 23 -18 -10 -7 -29 10 3 -30 -9 -19
27 28 27 -12 23 14 1 -1 -34 -22 -7 -21 18 23 -16 -38
17 -14 -14 -12 -22 -5 0 -32 1 -23 -23 -5 1 -4 9 -33
6 33 35 28 23 18 13 -11 -23 -2 22 -35 -11 -8 -29 -32
17 -16 0 12 -22 -20 -7 -8 -29 8 -30 24 15 -26 20 -30
31 6 31 17 48 -26 13 0 -50 -2 4 -29 26 26 -17 -24
-1 21 -23 10 -31 -13 25 -38 -6 18 -51 -7 -2 -11 23 -39
5 32 3 -1 3 -20 -25 -7 -36 8 14 -25 1 -10 -2 -36
14 15 3 -15 14 5 -16 -20 -18 34 -37 2 24 -14 13 -21
5 9 33 31 17 5 -10 20 -28 14 18 -54 3 0 -36 -19
9 -11 -31 -14 -9 19 -19 -1 -12 40 -44 -5 37 0 17 -6
-8 10 2 -16 37 -10 -8 -14 5 -17 -6 -33 22 41 -18 -35
-21 -2 9 9 -11 -12 -6 -2 9 -16 -20 16 13 5 -5 -19
12 33 -11 -19 20 -11 -22 3 -26 -19 3 -54 9 11 -20 -22
-10 5 6 -25 22 -14 -7 16 -15 21 -12 -4 16 -14 -3 6
9 36 21 23 5 -2 10 -5 -43 -12 -25 -29 -24 -5 -48 -19
24 -8 15 27 -7 21 20 -22 -13 -12 -35 -6 29 -24 7 -10
2 28 26 -19 1 9 19 -11 -3 -26 18 -4 -12 11 -26 -31
-3 6 20 2 11 6 -19 -6 16 -11 -16 3 -2 20 8 -29
-2 33 4 -13 5 29 -1 15 -54 -6 2 -13 2 -19 -16 -7
17 1 -33 -8 23 -7 7 -21 -19 19 -34 6 24 -6 -9 -28
40 49 32 30 6 0 23 31 -34 -15 -6 1 2 21 -78 -18
14 -19 -12 12 14 11 -15 -36 7 17 -60 26 28 -21 -16 -53
12 6 -8 31 9 12 -11 29 -25 -11 -3 -14 13 8 -31 -18
-9 -11 -29 4 -7 16 -5 -18 -14 28 -46 -7 39 -14 -9 -6
2 43 34 15 24 4 21 40 -54 19 -16 -40 -16 -14 -68 -48
13 0 -41 17 -8 22 -21 -32 -19 31 -73 21 44 -24 -7 -15
-2 30 -8 -11 14 -22 -10 4 -16 -24 13 -31 0 -8 -20 -19
27 0 -28 -25 15 21 -25 -19 -11 -13 -4 7 -17 3 -14 -6
-24 9 -14 -7 7 7 4 9 -49 -5 18 -27 14 -7 -29 -35
-9 5 -12 -9 21 1 8 -12 -3 -3 -38 -6 19 4 4 3
26 15 -13 -29 -17 -4 -33 17 -8 2 -21 -21 -14 3 3 -25
-10 2 -30 1 -1 -2 -12 2 29 1 8 -4 -3 23 -11 21
-13 24 -4 -28 10 -8 2 -30 -3 -11 14 -4 -12 -7 1 3
-13 24 12 13 13 -2 3 -25 -26 13 -13 7 1 1 15 5
-4 16 23 4 8 16 -4 16 -6 27 -11 9 -2 14 -18 -52
25 15 -26 -18 23 21 -5 7 2 22 -33 -21 3 -16 28 -9
36 28 20 -2 -14 -3 9 31 -25 3 -6 -18 -32 3 -22 -24
17 -2 4 16 14 27 -24 -32 -17 -27 -32 32 18 15 11 4
21 25 12 14 -11 -30 -22 -8 -56 14 -21 -28 11 15 -34 -45
12 -25 -6 17 -7 10 10 1 -7 19 -30 11 -17 -3 11 -30
-5 17 -19 -14 -15 -17 5 21 -39 2 -27 -4 -14 -8 -29 -36
8 7 -11 13 20 -15 -3 23 12 -14 -29 22 -5 -22 -31 -11
-4 -6 10 -20 3 -17 -13 -13 -31 -27 -15 -22 -9 -4 -27 -15
28 3 -28 -1 15 -2 -6 -9 14 -1 -5 -5 13 -12 -30 6
-33 18 -2 -19 -14 33 -8 -27 -4 2 -3 20 -9 -32 -19 -20
5 -19 -30 -2 5 -4 -14 19 14 3 -12 -2 1 -14 -21 -15
