-13 1 -1 14 28 24 -127 29 -54 22 -83 -76 31 -83 -40 77 204 -10 -15 0
-22 82 -85 -144 10 -20 -11 -75 -1 -13 90 -26 -83 -27 5 19 -339 52 7 0
-30 12 -29 -4 -4 -18 -33 -2 19 -4 20 -16 19 -29 -2 4 40 0 -13 0
-16 11 -44 23 -42 -3 11 -8 -5 -13 1 9 -13 1 12 -4 -64 9 -2 0
-13 40 35 -14 -16 -22 0 12 -2 69 -9 41 82 -145 -155 73 -133 95 76 0
0 0 0 0 0 0 0 0 0 0 0 0 0 0 0 0 0 0 0 0
0 0 0 0 0 0 0 0 0 0 0 0 0 0 0 0 0 0 0 0
0 0 0 0 0 0 0 0 0 0 0 0 0 0 0 0 0 0 0 0
-25 15 -32 -3 -2 19 -159 103 -87 32 -128 -49 75 -37 -36 92 233 -117 6 0
35 100 -77 -156 55 -7 22 -21 -10 -32 64 -15 -80 10 137 4 -301 88 -3 0
-59 5 -37 -4 8 -19 -32 -32 60 -8 -1 -10 27 -19 18 -9 64 -30 -2 0
-48 -8 -37 11 -69 55 -1 9 -1 14 -16 -7 -31 5 37 -5 -88 -3 -8 0
-17 40 34 -18 -26 -6 -12 5 -13 105 -35 -11 55 -144 -177 106 -60 80 92 0
0 0 0 0 0 0 0 0 0 0 0 0 0 0 0 0 0 0 0 0
0 0 0 0 0 0 0 0 0 0 0 0 0 0 0 0 0 0 0 0
0 0 0 0 0 0 0 0 0 0 0 0 0 0 0 0 0 0 0 0
-58 20 -59 -44 -6 30 -159 150 -66 -1 -122 45 164 -10 -64 102 439 -67 -1 0
-15 66 -77 -156 36 -17 8 -14 -42 -26 103 -31 -136 -58 57 46 -369 68 24 0
-39 0 19 20 2 3 -10 -55 35 -9 -2 -39 28 9 1 35 107 -28 -5 0
-44 -14 -7 -9 -45 52 -11 38 12 19 6 2 -36 20 54 -8 -138 34 -9 0
-19 47 19 -35 -12 0 -17 -6 -22 97 -37 55 30 -110 -52 172 141 37 68 0
0 0 0 0 0 0 0 0 0 0 0 0 0 0 0 0 0 0 0 0
0 0 0 0 0 0 0 0 0 0 0 0 0 0 0 0 0 0 0 0
0 0 0 0 0 0 0 0 0 0 0 0 0 0 0 0 0 0 0 0
-59 2 -43 -23 22 19 -140 58 -79 -4 -101 226 162 -8 -121 12 34 -32 3 0
-17 84 -81 -167 36 28 -20 -18 54 -33 96 39 -28 8 121 52 -69 54 28 0
-5 -6 31 23 -4 5 -11 -22 -1 0 8 -7 20 9 -6 29 48 -3 7 0
-8 12 -11 1 -18 -4 -3 15 10 -13 6 -9 -22 31 35 -3 -86 26 0 0
-19 45 23 -32 0 -14 -11 3 -14 52 -24 98 46 -94 -69 129 67 69 41 0
0 0 0 0 0 0 0 0 0 0 0 0 0 0 0 0 0 0 0 0
0 0 0 0 0 0 0 0 0 0 0 0 0 0 0 0 0 0 0 0
0 0 0 0 0 0 0 0 0 0 0 0 0 0 0 0 0 0 0 0
-38 41 -64 15 28 6 -121 104 -49 3 -105 -60 38 -37 -63 99 173 -25 -1 0
25 114 -73 -205 73 -28 2 -63 -4 -48 92 -47 -164 8 99 -68 -406 97 -4 0
-50 -8 -20 4 7 -12 -24 -25 69 14 -5 -18 23 -39 -8 -1 86 -16 -28 0
-36 -1 -36 11 -79 69 -1 3 8 5 -18 -6 -21 5 50 -1 -124 1 3 0
-25 79 44 -44 -13 -1 -17 -4 -6 95 -11 44 39 -129 -183 127 -106 105 96 0
0 0 0 0 0 0 0 0 0 0 0 0 0 0 0 0 0 0 0 0
0 0 0 0 0 0 0 0 0 0 0 0 0 0 0 0 0 0 0 0
0 0 0 0 0 0 0 0 0 0 0 0 0 0 0 0 0 0 0 0
-28 35 -59 -31 34 19 -157 149 -102 17 -113 -77 80 -16 24 95 232 -51 -40 0
43 97 -109 -215 60 -76 -8 -81 -25 -8 115 -86 -297 -57 26 -51 -549 75 5 0
-85 -4 -14 -16 -2 -2 -27 -69 137 -11 0 -28 31 -12 33 18 86 -23 -10 0
-45 -20 -18 18 -118 133 -2 6 1 14 -15 -16 -34 6 53 -17 -167 -2 3 0
-28 81 42 -48 -13 -10 -20 -10 -18 174 -42 -62 24 -140 -170 156 -74 103 111 0
0 0 0 0 0 0 0 0 0 0 0 0 0 0 0 0 0 0 0 0
0 0 0 0 0 0 0 0 0 0 0 0 0 0 0 0 0 0 0 0
0 0 0 0 0 0 0 0 0 0 0 0 0 0 0 0 0 0 0 0
-29 -1 -52 -12 38 55 -183 146 -110 6 -153 91 193 -40 -62 137 517 -58 2 0
55 123 -80 -199 90 -55 14 -33 13 -33 114 -59 -197 -12 139 -44 -551 70 -1 0
-59 0 21 5 5 5 -19 -117 94 -18 19 -23 36 20 4 59 146 -15 -9 0
-38 -19 -5 -11 -96 112 -20 31 -5 6 9 -21 -47 11 54 -26 -193 27 1 0
-5 47 38 -36 -12 -15 -12 6 -22 146 -46 28 -11 -143 -43 216 108 41 103 0
0 0 0 0 0 0 0 0 0 0 0 0 0 0 0 0 0 0 0 0
0 0 0 0 0 0 0 0 0 0 0 0 0 0 0 0 0 0 0 0
0 0 0 0 0 0 0 0 0 0 0 0 0 0 0 0 0 0 0 0
-50 9 -51 -7 5 60 -136 105 -44 11 -155 218 217 -11 -79 42 326 -34 -34 0
53 81 -100 -162 20 -60 5 -10 -24 -35 181 -70 -198 -54 63 -36 -420 92 2 0
-27 14 32 15 10 -5 -16 -73 23 -17 5 13 34 2 -26 10 122 -25 5 0
-30 7 -22 -20 -63 48 -15 26 5 -9 7 -25 -36 17 51 2 -160 26 0 0
-2 55 51 -45 -18 -15 -18 14 -13 83 -13 88 15 -95 -20 161 139 38 79 0
0 0 0 0 0 0 0 0 0 0 0 0 0 0 0 0 0 0 0 0
0 0 0 0 0 0 0 0 0 0 0 0 0 0 0 0 0 0 0 0
0 0 0 0 0 0 0 0 0 0 0 0 0 0 0 0 0 0 0 0
-23 16 -44 -20 12 -29 -120 104 -44 -5 -131 -80 18 -98 -47 74 101 -35 -8 0
73 88 -109 -98 39 -76 13 -52 10 -32 115 -29 -150 -41 -112 -52 -141 46 54 0
-29 -14 -4 -4 -7 8 7 9 78 18 5 8 32 -32 -11 2 85 -26 -19 0
-5 4 17 0 -55 93 19 -3 8 8 -10 -4 -19 5 39 -15 -176 12 17 0
-5 67 35 -39 -1 1 -41 -11 -17 92 -13 -31 -19 -106 -54 84 -95 115 79 0
0 0 0 0 0 0 0 0 0 0 0 0 0 0 0 0 0 0 0 0
0 0 0 0 0 0 0 0 0 0 0 0 0 0 0 0 0 0 0 0
0 0 0 0 0 0 0 0 0 0 0 0 0 0 0 0 0 0 0 0
1 53 -64 0 7 -47 -146 152 -92 2 -119 -104 80 -43 -16 123 113 -63 -15 0
29 112 -97 -188 79 -75 36 -12 -39 -18 95 -67 -100 26 -54 -53 -122 62 53 0
-61 13 12 -8 -20 20 5 -19 145 1 16 -10 31 -34 8 18 105 -29 -26 0
14 -6 28 -6 -119 148 1 -20 4 -8 7 -2 -22 -10 25 -42 -184 -1 30 0
-20 72 58 -32 7 -14 -10 3 -19 121 -4 -110 -41 -135 -51 105 -134 129 98 0
0 0 0 0 0 0 0 0 0 0 0 0 0 0 0 0 0 0 0 0
0 0 0 0 0 0 0 0 0 0 0 0 0 0 0 0 0 0 0 0
0 0 0 0 0 0 0 0 0 0 0 0 0 0 0 0 0 0 0 0
-2 57 -83 -18 19 3 -146 167 -107 -23 -137 30 200 -47 -1 162 504 -70 -47 0
102 101 -98 -144 84 -102 16 -13 -36 -14 135 -47 -81 -53 -72 -56 -311 100 61 0
-38 19 16 7 24 4 18 -75 107 -9 9 15 47 -12 -9 57 93 -16 -19 0
37 -18 28 9 -98 111 -21 -17 -18 7 7 -9 13 18 -12 -50 -144 8 30 0
-12 62 60 0 -17 -20 -19 24 -7 122 -30 -82 -20 -135 59 141 0 37 99 0
0 0 0 0 0 0 0 0 0 0 0 0 0 0 0 0 0 0 0 0
0 0 0 0 0 0 0 0 0 0 0 0 0 0 0 0 0 0 0 0
0 0 0 0 0 0 0 0 0 0 0 0 0 0 0 0 0 0 0 0
-48 40 -71 -16 42 20 -151 132 -80 15 -105 279 267 -16 -91 40 388 -60 -41 0
34 71 -90 -158 33 -81 28 -15 -36 -46 72 -37 -96 15 -16 -33 -236 57 59 0
-6 7 -4 11 27 -9 23 -44 40 -3 9 62 56 -17 -32 15 101 -8 -20 0
22 -17 13 19 -29 53 -3 2 -13 28 12 -16 9 -3 16 -23 -119 31 9 0
3 62 36 -12 -27 -7 -43 7 -10 102 -26 30 2 -106 64 120 38 23 58 0
0 0 0 0 0 0 0 0 0 0 0 0 0 0 0 0 0 0 0 0
0 0 0 0 0 0 0 0 0 0 0 0 0 0 0 0 0 0 0 0
0 0 0 0 0 0 0 0 0 0 0 0 0 0 0 0 0 0 0 0
-13 3 -59 -1 44 8 -120 66 -58 21 -109 -14 46 -33 -60 54 65 -9 30 0
8 107 -47 -136 -6 -14 -3 -15 -40 -56 74 -51 20 31 -30 -65 8 53 28 0
-22 -3 -18 -11 -18 13 15 32 32 5 29 7 20 -18 -2 -2 67 -2 0 0
16 -5 10 24 -26 27 36 -13 7 2 -16 -13 1 -5 6 4 -102 0 16 0
12 20 23 1 -14 -20 -8 6 -20 44 -15 -17 4 -66 -69 17 -76 91 112 0
0 0 0 0 0 0 0 0 0 0 0 0 0 0 0 0 0 0 0 0
0 0 0 0 0 0 0 0 0 0 0 0 0 0 0 0 0 0 0 0
0 0 0 0 0 0 0 0 0 0 0 0 0 0 0 0 0 0 0 0
1 6 -57 -43 43 -19 -131 96 -94 23 -137 -119 84 -56 11 79 55 -41 11 0
43 96 -88 -91 24 -79 -9 -17 44 -27 115 -61 -40 -38 -93 -34 31 96 43 0
-29 20 -23 20 -16 4 3 8 68 13 20 -4 17 -22 9 9 109 -26 -31 0
8 7 3 10 -73 88 19 -18 1 -7 -4 4 1 6 -1 -9 -133 0 26 0
-1 44 53 3 -4 -13 -20 20 -11 81 -22 -64 -7 -137 -50 43 -161 109 111 0
0 0 0 0 0 0 0 0 0 0 0 0 0 0 0 0 0 0 0 0
0 0 0 0 0 0 0 0 0 0 0 0 0 0 0 0 0 0 0 0
0 0 0 0 0 0 0 0 0 0 0 0 0 0 0 0 0 0 0 0
-52 -25 -78 -22 45 21 -124 140 -94 50 -105 75 198 3 -17 150 360 -35 -40 0
13 85 -83 -156 29 -58 -18 -10 -49 -27 58 -39 -14 -2 -54 -85 -69 84 8 0
-1 26 17 24 20 -8 11 -17 37 -5 -9 -5 44 -17 -11 35 40 -29 -21 0
40 7 25 4 -33 50 -19 -16 -12 7 34 2 -1 11 -14 -44 -68 23 27 0
-33 72 46 -14 -4 -3 -40 10 -5 94 -23 -59 44 -109 25 92 -75 54 77 0
0 0 0 0 0 0 0 0 0 0 0 0 0 0 0 0 0 0 0 0
0 0 0 0 0 0 0 0 0 0 0 0 0 0 0 0 0 0 0 0
0 0 0 0 0 0 0 0 0 0 0 0 0 0 0 0 0 0 0 0
-72 15 -46 4 11 -5 -96 106 -53 -4 -126 256 184 -8 -65 102 354 -36 -76 0
31 84 -110 -49 -29 -37 15 -15 -6 -8 126 -62 -81 -23 -47 -55 -111 106 33 0
20 -14 4 8 19 -2 23 5 6 12 14 42 29 -24 -6 22 30 9 -16 0
45 -8 33 17 18 -12 -4 -8 -12 20 16 -18 -3 -8 2 -26 -40 25 15 0
-22 36 4 -1 -11 -4 -21 -5 -11 41 -18 -17 30 -109 32 71 -67 49 28 0
0 0 0 0 0 0 0 0 0 0 0 0 0 0 0 0 0 0 0 0
0 0 0 0 0 0 0 0 0 0 0 0 0 0 0 0 0 0 0 0
0 0 0 0 0 0 0 0 0 0 0 0 0 0 0 0 0 0 0 0
