-2 -3 -5 3 13 12 8 -7 0 18 4 19 -8 -7 9 -15
-14 5 -24 -15 -9 -4 -21 -6 18 7 14 -3 5 -2 31 -2
30 -6 -11 -40 -3 -5 8 12 18 9 4 10 24 -10 -12 1
11 3 13 0 -24 -17 19 -2 -30 11 17 -17 -11 -10 0 4
-2 -17 -5 -4 -14 -14 -16 2 1 -21 -9 -3 15 -15 -3 -16
-19 34 -7 -5 2 16 1 20 14 7 -1 -5 15 -6 21 2
-23 18 -2 13 1 -10 11 -5 19 16 6 28 3 -2 8 11
-5 12 7 -10 -19 29 10 -23 5 -35 -16 -10 10 -5 23 -3
10 9 6 -10 -32 5 20 13 -31 -14 -2 3 5 -13 10 -10
-43 14 25 -16 -4 -18 13 -10 24 4 -38 2 -9 5 -42 10
-19 3 1 11 -16 -11 7 -2 -8 -19 4 16 7 -6 25 15
-24 21 4 -8 -6 8 10 19 -6 -22 -28 -14 23 -5 30 -18
-29 -1 25 -13 25 3 -17 -3 -5 -1 -18 23 -15 10 -16 -5
4 -11 5 -18 -19 9 10 9 16 11 9 7 17 10 -11 11
-12 18 9 9 -6 1 -30 15 -1 2 2 4 2 17 6 16
13 -11 2 1 0 8 14 -2 10 3 -4 15 -3 -12 -23 -17
17 2 -9 -9 -4 11 22 -13 -3 15 9 8 -13 13 8 -9
-5 -21 -10 14 7 -26 -5 -8 -6 8 -4 15 -20 -2 26 23
-8 0 16 -27 -1 -22 24 14 -11 -5 -22 -1 1 -19 -21 10
-9 -7 10 -15 2 -7 5 -11 -2 3 14 30 7 4 -27 -12
-13 -8 -10 -2 2 -8 17 2 20 7 24 -5 -10 -19 4 -19
-14 6 -14 -5 -13 1 -3 -2 5 -3 -9 -13 -3 -25 6 -10
0 4 -6 -11 9 -1 21 -8 17 -8 10 -5 2 21 7 15
9 30 2 5 -15 5 -14 12 20 -38 -17 -14 -15 27 16 -12
12 25 -8 -14 -41 6 4 4 -10 5 3 -18 1 5 10 -3
-20 4 15 21 -10 -18 -7 -13 32 9 -18 -3 -19 6 -30 -4
-12 6 -7 -1 -24 -6 5 -21 5 -43 8 10 -25 0 1 20
-30 2 -3 10 7 8 13 -7 4 7 -22 -14 18 -3 24 -15
-3 -13 -20 35 31 5 0 -9 -11 1 1 10 -17 5 11 -2
-11 -8 43 -14 2 -3 3 12 -17 9 -28 35 -16 -8 -50 32
-11 8 15 -13 9 8 -4 -12 -18 -13 -4 4 8 -10 17 -17
8 9 -3 20 9 15 6 8 -14 22 -16 -10 19 7 8 -1
14 4 -15 2 -16 0 -9 10 8 2 -10 23 10 7 10 2
3 -19 11 8 -6 -3 3 24 18 -12 9 -19 2 -9 6 16
-22 3 8 -4 24 10 -1 -9 -2 5 -21 7 -22 -4 -6 5
-19 0 16 8 -7 15 15 -3 -14 -7 31 23 -6 -5 -16 -15
-3 -2 15 -4 3 -7 -5 28 -3 -2 17 -1 3 -17 -4 -9
-2 13 4 -3 -11 3 2 1 -5 -9 -23 -6 -19 -4 -24 17
-1 30 2 -4 -20 -14 18 -1 -6 -22 1 1 1 27 3 5
1 15 1 1 9 5 -6 4 7 -18 1 0 5 11 15 12
3 -5 8 -12 -19 15 -11 3 -3 -7 -13 -21 17 0 6 17
27 8 -4 27 -1 7 -21 19 -2 -15 20 -14 6 19 0 15
7 -17 -5 -12 -6 16 13 -21 -19 -43 8 18 6 23 -11 5
9 -1 -16 -14 -13 18 14 1 -17 5 3 -10 12 11 16 8
15 4 -10 -19 -16 -21 13 4 9 -5 8 -15 21 12 20 9
-33 6 30 -7 9 1 -6 -11 -14 1 -41 22 -8 -3 -46 27
0 6 21 11 -33 -2 -12 -5 14 -1 6 12 0 -7 35 -7
-25 4 -12 -3 -10 -13 3 -5 -1 4 -13 12 -12 4 7 3
19 -8 -8 -9 -8 19 -3 -4 11 -9 -16 20 -18 24 -13 9
-14 -18 -26 12 -14 -1 -17 -9 17 -2 8 -8 7 -6 1 16
-20 2 21 -19 1 -6 -6 -10 9 -2 -17 14 -12 7 -39 0
11 -13 -40 8 -12 -7 17 -5 -4 13 -10 -10 1 -1 13 -22
1 -14 -12 4 16 -14 3 -3 -20 -3 -3 3 -13 -5 -15 2
-5 -3 7 -4 13 30 -6 0 30 0 -5 18 -3 -27 50 -14
-19 -11 -2 -4 13 -9 -7 -9 10 7 23 35 -18 -12 -2 8
-25 13 -1 2 -10 10 7 -7 15 -11 -10 -3 -5 -7 0 -23
-18 7 10 -10 -26 8 13 -12 4 2 -27 12 13 2 11 11
-36 -11 12 -11 17 -7 0 12 9 -18 -25 19 -2 -3 -38 2
-10 5 2 -3 11 9 -7 3 8 -14 4 -5 11 13 -3 -11
-6 5 3 5 -3 -22 8 7 -2 16 11 -4 15 3 2 8
-42 -1 24 21 29 16 -17 11 -41 8 -23 23 -9 7 8 -7
-33 -15 29 0 -11 3 -19 5 7 -13 -2 24 -9 -4 -35 7
-6 8 -3 -7 -16 -12 12 -19 -36 11 -2 -1 25 23 -1 -18
-1 -5 14 13 -6 2 10 14 11 5 -15 3 3 -11 -9 -9
13 1 -13 -6 -9 27 16 3 17 10 -18 -18 -6 17 10 -18
9 -6 -20 -6 -13 -19 0 17 19 25 36 -11 -12 11 17 15
-67 -3 47 22 36 12 -12 4 -43 -19 -8 20 -37 1 -6 19
14 10 -23 -6 3 -4 1 0 0 7 -21 -2 18 23 -17 -15
9 -16 -8 -10 1 -8 -4 -2 -25 6 -3 -5 15 -1 5 9
-24 13 8 9 5 0 35 -3 2 0 -12 -20 17 -6 8 17
-3 16 3 2 -18 -9 -16 11 -7 -9 14 18 -9 25 4 15
-24 -7 11 8 -2 -23 -25 25 9 -12 3 14 10 -16 13 2
-27 -23 15 0 -9 -5 -7 -1 -1 -13 -14 24 14 13 0 2
-14 0 31 13 5 9 -24 -10 10 -13 -10 13 -18 -18 -46 30
-12 16 -17 14 0 6 -7 -12 8 -40 7 15 -3 22 -7 6
-2 4 -9 9 -3 3 2 -12 -3 14 0 -4 -3 -1 3 13
27 12 -34 15 -8 8 21 -13 23 -10 43 -23 -2 20 36 -17
-49 -18 55 16 29 17 9 -16 12 -13 -64 54 -25 3 -58 30
-20 -12 -2 14 -29 19 -1 -9 -23 19 -7 -19 16 -6 13 3
-11 1 -9 -13 6 17 -1 18 8 -16 -11 -8 -2 1 -12 3
20 -17 -23 7 -21 23 -8 14 -12 3 -20 9 7 28 -4 -5
12 20 -14 -19 2 3 -5 -4 24 20 29 -24 14 1 -8 -15
26 -2 -5 33 11 22 -1 22 -4 15 20 -29 -12 20 -7 1
8 -5 -2 -6 17 -15 -3 5 -12 0 20 31 -9 25 -33 18
-9 -11 -12 11 -5 -1 12 10 4 4 11 6 -7 -23 19 12
-10 -8 5 20 -7 -7 -5 -7 -6 6 -6 3 -18 2 14 14
3 31 -19 -16 -8 -6 -9 12 8 -20 2 -2 0 13 -8 -14
-15 1 2 -4 1 -16 -39 -7 2 -14 4 24 -7 0 -12 -2
-23 -1 5 2 -15 -14 -7 5 16 -4 11 6 -2 -14 -3 23
-8 3 2 20 0 19 -18 15 -2 17 13 8 4 6 -16 7
25 -11 17 -4 -12 -1 -18 -28 -21 -33 -10 -1 -14 28 1 30
15 7 -11 14 7 -12 -10 -9 -6 23 3 -14 -5 7 -3 -4
6 2 -8 -31 -34 -21 -2 5 7 -9 9 -13 26 -14 -5 -5
0 -9 15 22 29 5 -4 10 6 7 -20 36 -35 -10 -20 12
-17 14 6 3 -37 -6 20 -2 0 -6 9 0 0 -24 -18 -17
-37 -7 -23 4 -2 -2 -8 -23 -16 -12 -6 -9 3 -8 -6 8
15 11 5 -9 12 4 -8 19 28 -11 4 -15 1 -5 19 -25
-13 -8 5 3 -4 6 5 -3 25 18 -15 -2 -8 4 3 -12
-25 2 14 4 11 2 5 -4 -13 8 -8 14 3 15 -1 25
5 -16 -22 9 9 9 6 19 -6 -7 -11 -9 6 9 24 -5
11 -12 -20 11 21 14 6 -15 -22 -16 -15 -13 -11 11 1 2
-13 -11 -10 3 27 30 -17 16 17 -4 21 24 16 -7 -16 23
-32 12 -14 -7 24 -29 25 -12 7 22 0 0 -3 -8 11 -22
-8 -3 10 10 0 0 18 15 13 0 -6 14 -7 -19 -1 -16
-3 -7 4 15 5 4 -18 -12 -7 10 -13 11 -6 4 2 13
1 -22 21 -30 1 -2 1 18 26 4 -12 6 -2 -13 -25 2
2 -6 4 -2 26 8 16 8 -9 -5 -11 4 -9 -9 37 -2
-9 -4 -17 5 -14 -9 -25 -22 5 -8 -26 -13 -15 4 23 4
12 9 21 6 0 -1 0 -4 -17 15 1 9 0 -12 -12 -8
-6 14 7 17 17 7 4 0 0 15 -11 -5 10 -5 -9 -12
-1 -6 -24 9 -16 -9 -2 -42 -17 11 15 9 4 19 -1 10
-16 20 4 -14 2 17 17 -10 -9 -24 -15 -11 -15 16 -12 3
-7 1 21 -2 -22 1 -5 21 29 -11 -2 8 6 -4 23 -10
-20 14 -1 0 -6 -18 12 8 25 8 -13 -1 9 15 23 14
2 -6 30 23 4 11 -9 -7 -21 0 23 6 -20 26 4 4
16 -10 -29 -16 -14 -5 -2 23 -2 -7 11 -7 17 23 9 11
-16 -15 -33 12 19 28 29 -14 -18 11 -13 -6 5 21 3 12
26 -20 -2 -6 3 2 8 7 -16 6 20 15 -3 18 -10 8
-38 -3 -6 7 8 1 4 -6 -9 -12 11 13 -6 17 2 -6
8 -22 -1 -9 16 -32 -13 22 10 -10 16 10 3 -3 -3 -6
-18 -12 10 19 39 5 -11 -23 12 11 -18 34 3 -10 2 17
-21 3 28 -8 7 -12 -6 -19 0 14 -24 13 -22 -25 -24 -1
-20 0 29 -8 7 -3 -22 9 2 -6 2 -4 8 -2 12 12
2 -8 3 -2 6 8 -7 -21 5 -9 -14 -4 -10 -9 -2 4
14 4 -48 2 -37 14 2 -10 31 -8 2 -26 23 4 -1 8
4 12 -1 25 -5 5 4 3 6 -8 -9 8 -18 -21 8 12
-1 -11 0 -23 -22 12 -4 -43 -31 23 22 11 -9 1 -21 -8
-28 18 -21 9 -21 1 14 -8 2 -26 -3 4 15 5 -17 -5
-6 -2 3 31 -4 -9 -12 21 -9 5 -19 -2 -16 11 14 -12
-5 21 1 -10 -5 -10 9 19 13 11 9 -32 20 12 -18 -2
41 -5 -22 13 -33 12 -13 16 24 -1 16 -20 2 1 30 -20
-13 17 -26 -6 -3 -7 -7 19 30 -14 -2 -7 -5 24 -4 14
-19 9 -18 -9 24 16 41 -4 4 13 -26 8 7 -3 -7 -7
9 -14 -3 -6 3 10 16 0 -12 3 16 7 14 17 -25 21
-18 11 0 -4 -1 -8 4 14 10 -21 11 -32 -7 9 6 -17
-2 -36 7 -8 18 -10 -8 -3 2 2 33 29 -7 3 -6 3
-5 -31 8 14 14 15 6 11 15 19 16 13 -4 7 -9 44
14 -2 15 15 20 9 -13 -11 -13 18 -7 -3 -19 8 12 -5
15 14 21 -5 12 3 -21 -7 -9 -33 8 -9 14 7 11 -9
26 1 -12 -7 -2 11 0 -28 -11 13 -8 -27 2 14 -4 16
-6 -16 -3 -22 10 -19 0 15 -13 9 -11 -15 -8 -12 -6 20
1 28 -19 -4 -15 9 5 -5 7 -9 12 -14 4 8 10 7
4 -4 -3 -20 -20 -12 32 -22 -10 1 28 7 -26 9 -18 2
-22 15 -21 -8 8 -1 3 14 -11 5 21 13 -13 22 -11 -17
