-9 10 0 -14 -1 -19 2 -32
-3 -8 -10 12 -11 11 14 -1
-11 3 10 6 -12 -8 22 16
42 39 16 -25 -32 -35 7 4
3 8 -6 10 -15 22 50 32
-1 19 2 -26 -7 -7 3 12
-18 -14 23 -1 -13 -10 -11 10
-4 2 -10 13 -13 -5 -8 -22
-17 -3 8 -43 -45 -16 -21 4
4 2 -14 2 19 -2 5 -2
-1 18 14 7 -1 11 11 -15
-3 -12 -13 -10 -15 -22 17 27
-21 -1 -9 34 35 25 -25 -35
5 2 -2 38 25 27 -15 -13
12 -2 -5 12 19 20 -19 7
-8 9 -13 4 4 8 -3 2
-19 -17 6 -7 21 -11 -13 -46
-14 -3 -8 8 -5 7 12 9
-8 0 -8 -21 -41 -25 36 66
-3 13 28 -103 -127 -94 8 -16
-9 7 13 1 10 -3 46 30
-9 -8 -8 -17 -38 -33 6 9
6 9 -11 -8 -18 -33 -9 -7
-8 -7 17 20 -2 18 19 4
-19 -18 7 -22 -25 -17 7 11
3 3 3 1 -6 14 -6 -8
-8 13 7 10 25 35 -63 -57
-12 11 7 -49 -46 -25 36 51
-4 4 -28 18 42 32 -56 -74
15 9 -6 6 0 19 -9 -38
19 10 7 9 40 37 -20 -43
-7 10 14 8 -1 -15 28 15
20 -1 2 26 51 31 11 -16
3 11 17 -6 3 19 11 -10
3 -5 -2 -45 -60 -57 16 17
8 33 11 -87 -85 -82 -23 -11
-7 4 3 -3 -23 -15 28 7
-2 8 -8 7 -15 -8 -7 -1
6 2 0 -6 17 -11 13 17
5 6 6 -13 3 3 15 22
-3 -16 3 22 -8 17 27 35
16 -10 -1 -8 20 8 -21 -17
17 4 -13 10 6 8 -25 -29
-10 -3 8 -31 -36 -14 6 4
7 -4 -8 18 6 15 -22 -34
3 22 26 -13 6 -10 6 -14
18 -15 -7 11 9 7 -18 -21
-16 -18 -4 -18 -17 3 -12 17
-18 8 -2 10 6 -6 -20 -47
13 4 -7 7 -7 16 -3 -8
10 -4 -18 -9 -8 -7 22 45
19 -1 -5 -80 -109 -79 -12 18
-15 -10 9 -13 -3 8 40 28
16 -6 18 -31 -49 -29 10 27
3 -5 -2 -17 -29 -30 11 16
-3 10 -6 -1 -11 2 -18 -9
-6 7 -13 -11 -2 -16 -7 -17
7 0 13 -2 19 2 -8 -25
21 16 -4 -3 18 12 -24 -54
-10 -2 9 -24 -33 -19 30 34
-9 -24 -12 32 53 19 -32 -63
-5 -3 -11 8 3 26 -35 -20
-15 4 14 28 29 4 -41 -31
-18 5 2 5 -14 -5 22 7
9 -3 0 24 18 7 -7 -36
9 7 2 27 15 1 5 5
-4 18 -4 -36 -66 -23 14 38
-4 14 9 -132 -134 -99 21 5
-3 15 -6 -10 1 -10 17 13
2 -16 4 -47 -25 -26 16 24
4 14 -19 -6 -3 4 -9 10
14 3 7 9 15 -8 9 -5
-2 6 -23 8 -16 -14 28 34
-10 -1 4 0 15 -7 -9 1
-4 -15 -1 15 38 8 -23 -44
7 -10 -6 -44 -45 -48 49 22
-2 15 -6 40 36 44 -25 -23
-12 20 5 -12 5 -16 -24 -37
6 -21 10 26 19 12 -25 -24
-2 -6 -14 -29 -28 1 18 -1
-10 10 5 43 65 56 3 -2
-21 -10 -17 23 22 11 -7 -22
13 17 4 -66 -64 -54 35 43
6 16 39 -65 -85 -76 -5 14
8 10 7 -30 -31 -11 8 3
-17 4 11 -26 -14 6 11 19
1 -21 11 16 6 8 5 -10
-1 -5 -14 -5 18 -10 -12 12
-4 11 7 31 20 17 4 17
-12 10 11 -3 -23 -9 8 1
6 8 17 25 13 25 -40 -35
4 19 -19 -4 -34 -22 17 30
-13 -17 15 14 -2 31 -5 8
8 -4 9 -28 -15 -25 2 -13
-8 18 0 14 36 -2 -39 -33
15 9 -17 -23 -5 1 11 10
20 -5 -12 -22 18 12 -30 -27
-13 -2 -13 1 5 5 -1 23
15 -10 10 1 -4 2 -3 11
15 9 24 -76 -68 -64 -2 -9
3 -12 -22 -7 5 -9 -13 15
5 2 29 -33 -37 -11 24 16
5 -2 7 -22 -13 -20 3 22
13 3 -11 3 -7 -9 -9 7
-6 -8 -19 -7 -5 14 -5 8
8 13 -6 -9 17 -10 5 -21
-3 22 9 2 18 -11 -8 -35
14 -9 7 -1 -1 3 19 14
-2 -18 20 14 36 12 4 -20
11 9 8 3 8 18 -22 -21
-3 0 -2 34 27 30 0 -29
-9 -11 -1 -13 -11 -25 15 -8
-14 -11 1 27 44 14 -7 -28
-8 -10 -6 9 25 3 -13 -12
4 19 4 -30 -39 -32 33 35
22 -5 17 -73 -106 -94 -32 -20
-4 12 -3 -31 -8 -28 -10 -29
15 12 -8 -34 -36 -26 18 3
7 12 3 -7 14 17 -12 16
1 -9 9 -24 -2 19 -16 -3
0 14 3 -5 -7 -9 14 19
-4 -8 -3 -10 7 0 -3 -13
13 4 -1 9 33 20 -52 -68
-11 -13 1 -24 -36 -2 53 62
8 15 -15 37 35 8 -16 2
-1 -11 -6 -23 -9 -20 -22 -10
3 -10 4 33 33 22 -32 -19
8 12 -14 -5 1 -21 10 28
7 -5 9 36 67 43 13 17
-21 16 9 29 16 6 -19 -20
-4 -3 10 -24 -54 -36 46 53
40 28 16 -10 -7 -6 47 57
-4 -21 -15 -43 -25 -17 -15 -11
9 -8 0 21 22 13 8 13
2 -10 -20 3 29 12 10 -17
-10 -14 -2 -22 -19 -25 -12 15
10 11 -8 36 26 29 8 26
7 2 4 2 -1 -7 0 3
-5 14 -2 -5 16 17 -18 -39
2 2 8 -19 -13 -3 5 19
5 14 -15 24 12 7 7 6
22 11 17 -25 -33 -18 14 -1
2 4 7 10 18 29 -15 8
9 -20 -8 -7 -1 -5 -13 14
