8 2 18 -21 -18 0 0 -20 13 -18 -4 -12 0 8 -18 -13
-5 -8 3 17 14 -5 25 -7 11 -12 6 -5 -16 13 40 -10
5 4 32 8 0 -26 21 6 4 -1 14 -17 5 -9 -14 -1
2 -1 -2 -2 29 -7 0 18 18 0 -2 -9 0 1 -16 -6
-5 -13 8 4 -25 27 -25 -1 -21 -5 -6 -7 20 5 -1 -9
-2 -4 -2 19 0 -4 -10 -11 5 -12 -18 -4 -6 4 15 -2
-16 6 6 -3 3 -8 -5 -7 3 4 -1 -12 -12 -15 -9 -8
4 -9 18 -11 -1 9 -9 -27 -6 -15 -12 -8 5 13 -8 1
-5 -13 -2 9 8 10 -9 9 2 -2 9 -5 -5 -2 -5 3
19 1 10 -11 5 3 -2 -4 -5 -11 13 5 -9 2 21 8
4 -15 -5 3 2 19 9 -4 8 -7 -4 5 -4 7 15 -12
-12 -5 -13 4 4 10 -18 21 15 8 13 -9 -5 13 3 -1
2 6 -20 -8 -15 -9 -25 -15 12 1 -6 -6 -6 -5 -3 10
-4 12 -6 -3 -11 -14 22 -9 16 9 -15 11 -13 -14 -9 7
13 2 -16 4 -3 -8 8 19 -4 0 -25 5 -7 7 -11 1
5 8 2 5 7 5 10 -2 4 -8 -17 -5 -2 -23 -4 -1
-1 2 -4 -22 -29 0 7 0 20 -21 11 0 -7 -2 16 3
7 13 -26 19 22 8 31 -10 30 -13 8 -21 -5 4 37 -6
-9 13 40 6 1 -9 19 5 -7 17 10 -12 9 -8 -10 -2
12 -10 -3 12 8 -6 -19 -1 11 8 3 7 15 11 2 -3
1 -15 8 -7 -9 27 -6 1 -17 3 -8 0 0 6 8 -12
-2 5 -2 7 -8 2 6 4 3 -6 -13 8 8 -4 18 2
-23 -16 16 -1 12 0 9 -1 0 8 1 -13 6 -2 7 -14
-10 -4 22 -4 -16 17 -7 -7 6 -6 0 19 -5 -2 13 1
2 18 -9 16 17 0 11 -4 0 -9 8 -13 7 3 -2 -12
-5 1 9 -5 -24 -20 6 3 -3 -14 -6 -6 -7 -21 4 -7
-4 -13 -33 -8 13 16 -6 6 -10 -10 7 12 -1 -2 12 -3
-1 12 -7 -12 9 -4 -20 18 -4 -4 2 -20 -3 -8 13 9
14 -2 -43 7 -12 -2 -15 -20 8 -6 -7 6 2 7 -2 12
-6 9 -11 -14 4 -15 10 -5 11 14 -4 10 -18 -27 2 -5
10 -2 3 6 -5 6 -16 15 7 2 1 8 11 0 -20 -26
-6 15 6 -7 -5 12 -2 -11 -3 -2 0 5 0 8 10 -11
-1 0 2 -17 7 -14 18 0 -4 5 13 3 4 0 -31 -4
-16 6 -30 22 -2 -26 8 16 27 -14 -4 -1 -1 5 22 -8
-15 7 20 0 -1 -9 4 -6 -25 -9 -4 -8 -6 1 11 11
-13 -3 -3 2 -16 1 -14 20 27 7 7 -2 7 -7 8 -15
-12 -11 21 3 -2 13 7 -17 -4 4 -11 -2 5 0 11 -2
-5 -13 -19 1 8 -5 -13 -7 -1 -11 -3 4 -5 -6 31 10
4 -4 7 1 -3 -6 9 -13 -12 0 8 -7 9 8 4 -20
-17 -16 9 10 0 -6 3 4 19 -6 8 3 17 -1 -14 -13
9 7 -12 9 8 -2 16 -3 6 -4 8 -24 -3 18 -7 7
-14 -8 30 15 -32 5 1 16 -6 13 10 11 -12 -2 12 0
-6 -9 -4 -7 6 -8 0 2 -14 10 12 19 4 -19 -9 -9
11 18 -8 -23 2 -13 4 -12 -5 -21 -12 -4 3 1 0 19
0 -4 -22 18 13 -1 -28 -6 5 4 -8 16 -11 12 -14 -4
14 -7 -25 -2 3 8 7 -2 -12 -3 -5 -9 19 4 -10 13
-6 15 10 13 8 8 -29 10 7 17 6 -6 10 -4 -5 -11
-19 11 31 14 -17 12 -4 -15 10 0 1 -2 5 23 26 -25
7 10 6 -15 -22 -8 8 -8 -7 -31 -9 -15 16 32 8 6
-4 4 36 -7 -1 8 0 -12 -18 2 -10 -18 -3 -8 30 2
-9 -14 29 13 4 -18 5 -13 37 -2 5 -7 -15 5 -32 5
4 0 -13 9 27 1 12 -8 -3 -2 5 1 -1 -17 -6 -1
4 1 8 4 -18 -14 -16 -3 -18 3 -5 -4 -4 -6 -9 -14
16 -3 30 3 3 11 3 -4 -4 -6 9 -2 -2 -4 23 3
-5 8 4 2 3 -11 16 -3 5 8 -11 -9 -3 -8 -12 -3
25 1 45 -14 -4 5 -13 -5 -14 -20 1 -2 4 -3 -13 1
-4 7 1 8 -12 -10 -7 13 -6 2 1 -9 0 3 1 5
8 -19 16 -6 -15 -11 -6 -4 -3 5 15 12 6 -22 9 14
-9 5 -24 -5 22 1 9 -7 24 -5 7 11 -10 17 17 7
-1 -10 -13 -3 -3 2 -8 13 2 23 15 -3 10 4 16 -9
-1 6 2 -15 -16 -13 -20 -7 6 -14 -17 -18 0 -17 7 14
-3 -8 -10 -14 -8 -16 13 2 1 -4 3 8 -7 -16 -25 9
19 12 2 7 -5 -6 6 -8 1 9 -2 -8 -8 7 -6 -1
-13 -15 11 14 -10 -1 33 14 7 0 4 -13 5 7 -5 -15
-8 -14 7 -17 -14 -1 7 -18 -7 -11 3 5 -2 16 -11 10
-3 -4 3 3 -10 15 -2 13 11 4 14 -3 13 -28 53 6
4 6 52 -6 4 -4 4 18 3 11 -10 8 -4 -13 -2 -5
20 -14 9 -16 -14 -9 8 1 11 -9 -21 4 -6 20 1 -3
1 0 26 1 -16 1 -15 -2 -10 -11 3 -19 -3 9 -21 12
-5 -1 21 -10 -8 20 3 -3 -9 -1 6 14 -1 -17 30 2
-26 10 -4 8 -4 9 13 5 -15 3 -11 6 -6 -6 4 -18
-2 0 63 -8 -8 15 -20 0 11 -5 21 0 6 -11 -18 3
11 18 -20 -5 12 -6 12 0 -20 2 -5 -28 -8 8 -13 -8
11 -11 5 -13 -13 10 12 4 1 -2 11 -5 -17 -38 21 -16
-10 -17 -50 12 34 -5 6 -11 -18 4 -2 11 -1 -9 3 14
-8 -4 -8 -11 4 -13 -15 -3 -14 2 4 3 12 -25 8 14
-6 -12 -25 -1 -5 3 -18 2 4 11 -11 1 3 -19 9 17
-3 -15 -12 -26 4 10 -1 2 -10 23 7 -13 -6 -11 -19 13
16 2 25 -1 -14 4 -10 1 -15 22 1 -20 -9 25 10 -14
-23 18 29 19 -3 15 13 0 2 -10 8 0 -8 20 21 -14
3 -10 -7 -29 0 -34 10 -23 -37 -3 2 -7 -6 -18 -34 7
-19 0 0 -11 -5 11 -24 -8 1 9 -11 -10 19 -18 19 5
2 4 1 2 -7 4 -3 -16 -21 -11 1 8 -6 2 16 -9
8 -16 11 5 -25 34 -10 14 13 -8 -14 5 -2 19 13 -17
8 4 4 -6 -6 5 5 -13 6 -2 16 -17 -4 -4 -7 14
-2 -18 -14 -21 11 11 -5 -7 -38 5 9 12 -12 -32 15 26
-23 -8 9 -14 16 -2 19 -13 1 4 10 5 8 2 6 -18
-3 -2 26 11 9 8 -4 15 8 -7 20 9 15 -23 -31 7
7 5 -13 -7 9 6 15 -11 -1 16 -11 -40 -14 0 -14 6
-1 -6 17 -6 -20 6 -1 9 -6 16 7 8 -2 -20 8 -14
-7 -17 -23 16 27 -4 7 3 -21 18 13 7 -4 -4 -6 10
10 15 1 -20 7 -17 -3 -14 -16 6 -7 7 -2 -4 5 14
-3 6 -30 3 15 5 -8 -19 -9 11 -15 10 10 5 13 -9
12 -12 -8 -16 6 -1 -3 9 -36 6 -4 -21 7 -19 -15 1
-14 18 31 9 -14 9 -24 11 4 16 3 -6 7 32 16 -30
-27 6 22 10 -21 -5 15 -20 10 -5 2 -7 -8 31 19 -23
8 16 17 -10 -4 11 3 -7 -4 -37 8 5 -7 10 2 5
5 -3 18 -17 -28 -10 -4 1 -37 6 7 -7 -10 -9 5 0
-13 -1 27 1 5 3 14 -16 14 1 17 -1 5 -4 -2 6
-4 12 14 -1 20 -17 20 6 9 5 -14 4 -17 -8 -18 6
16 0 12 -2 -12 -8 -2 11 -19 13 -17 -9 -9 5 -14 -12
13 -9 9 6 15 -2 24 15 -16 -6 -16 19 -31 -12 12 -6
-23 11 24 10 25 4 18 -6 -13 -7 4 8 4 10 11 -18
-3 8 18 -12 -4 -14 -14 4 -12 -6 -12 -11 10 11 -13 -2
-6 -11 2 -5 7 -2 0 12 4 6 7 22 4 4 -3 2
9 -9 2 -11 -32 12 -29 -12 -6 5 13 7 7 -18 1 -6
-4 4 -37 -14 31 17 22 -7 19 5 6 -10 5 -6 9 0
-7 -12 -17 3 -10 10 -7 0 16 4 16 11 12 -11 4 -7
5 12 24 9 2 7 17 15 9 -4 15 -7 -6 2 2 4
16 -9 -15 -5 13 2 32 -1 10 -7 2 4 -12 -15 -9 14
15 6 -22 0 -6 -22 2 3 6 -17 -20 10 -21 7 8 17
-5 -17 14 -4 6 7 14 15 -1 -4 6 4 -14 4 -13 -1
-11 13 -31 -22 -16 4 8 -8 19 -14 12 -1 8 3 -11 4
-7 10 14 -23 -24 -2 -7 -6 -19 10 8 -17 1 -9 16 18
-5 2 9 3 6 -6 0 3 -21 -1 7 -16 5 4 22 -14
26 -14 1 -2 -3 7 8 -10 4 -13 -4 1 -8 7 8 4
-7 6 -7 -10 -14 -5 21 -2 -11 -8 2 -5 11 -2 -21 10
8 0 25 -8 3 0 20 1 -9 11 -8 14 -1 -12 5 9
-27 -9 6 16 17 1 -2 -3 -24 -13 9 -16 -7 7 40 -3
3 -5 45 4 0 -13 -16 19 -8 -10 3 -13 -8 10 -5 -9
-21 12 -4 2 10 -12 1 -8 3 0 8 -10 11 -10 -19 0
-3 -24 -9 -6 -21 10 -18 7 -8 5 -6 -2 13 -13 15 1
10 6 -46 -14 27 -5 2 -22 0 -3 -22 -11 2 -17 -16 20
14 -18 -25 -6 15 0 3 -3 5 16 2 16 -12 -13 7 15
-1 -6 0 4 4 2 2 1 6 -2 9 -15 13 1 20 -13
4 -19 -20 -21 3 9 10 5 -21 20 -3 4 8 -23 -27 23
9 -2 4 24 -11 -1 -8 -3 -5 12 -4 -9 0 15 31 7
-10 11 23 -2 9 3 -3 12 10 -4 11 18 -1 1 2 -23
5 1 -29 -10 7 -37 -8 -10 -30 -20 -10 12 5 -32 -71 14
-1 3 -2 -19 -18 -7 1 -8 -12 17 16 -19 16 -11 -1 2
2 9 -10 -2 -10 -14 -4 -1 -36 -23 6 5 0 13 31 -18
17 2 12 7 -8 26 8 -4 24 -27 -18 2 -6 20 6 -19
3 0 3 0 -5 -7 13 -8 8 -4 -5 -16 -7 16 -25 13
4 -12 -1 -6 16 -5 19 11 -24 13 -10 3 -7 -45 1 14
-11 9 32 5 9 24 18 9 7 -11 23 1 12 9 28 -11
-17 8 21 2 14 2 4 3 5 1 13 -13 -6 2 -29 -6
-13 -1 -5 4 -2 -3 29 -9 9 9 7 -27 -17 7 -7 10
-24 -14 -14 9 -35 30 -40 5 -11 -5 -1 11 26 4 20 -20
19 -2 -27 -9 21 -30 22 -13 11 0 -19 8 0 0 -20 18
17 5 -8 -24 -20 -14 -4 -30 3 -11 -18 9 6 -21 -15 10
-1 2 -29 -2 -7 23 10 -2 8 10 -1 -10 18 4 9 -20
15 10 -8 -26 19 -7 12 9 -16 4 14 -15 21 -14 -35 5
-16 -8 21 -5 -15 -1 -9 1 19 6 14 -5 6 32 6 2
-1 -3 14 3 2 -2 7 -14 7 -14 4 5 -9 26 -5 -28
