1 5 -1 -3 12 -12 -3 -9 3 0 4 0 4 -6 -4 2
5 -10 -7 0 -4 -2 -3 -6 3 -1 -14 -12 8 5 -2 1
1 -8 -11 15 -15 -15 1 5 5 -9 12 -4 14 -1 0 -14
15 22 6 -24 -5 -7 -18 11 -14 -10 6 17 -10 1 -17 4
-2 -3 4 13 2 4 0 5 -1 9 -12 6 -7 6 -8 20
6 -6 2 11 8 27 10 3 7 1 -7 -1 -10 16 -3 14
9 0 1 -14 26 17 -2 -3 -3 -5 -2 -6 4 -1 6 -5
-13 -1 1 0 -1 -4 7 4 -13 -15 0 -3 6 -12 -3 0
-1 14 -4 -5 -8 5 -12 18 5 7 -5 -6 18 -9 5 -4
6 -4 5 16 2 5 1 -4 4 0 10 8 6 -8 -6 0
-15 2 4 -5 -15 12 0 6 12 -15 19 18 2 -20 -1 0
22 9 10 -6 2 -9 -1 8 9 10 1 2 6 -7 2 -1
11 11 -1 8 -5 32 -14 -9 -14 -16 5 -5 18 -16 11 -11
10 1 3 6 -2 1 2 8 -1 -17 -24 -1 -20 -8 2 -3
-15 6 -7 -3 0 -16 2 -6 -3 8 -3 -26 -6 -10 -1 -5
11 -14 -3 -13 2 -3 -14 -4 -11 10 -6 -3 -6 -8 -9 19
-7 15 3 1 2 -6 -5 4 -5 -4 2 -3 -19 -10 -1 7
1 2 -7 -20 1 14 1 -18 -8 1 -15 -11 -14 4 -12 -8
4 -6 -3 17 9 -17 7 9 12 1 1 -6 3 -2 -5 -4
1 -10 -4 -17 -28 1 8 18 -25 -9 -30 17 16 -13 15 9
2 23 0 -3 8 9 -3 26 4 -16 4 13 19 -6 -5 18
18 -19 -13 8 15 9 3 2 -11 -8 2 -13 12 -1 10 -13
23 18 1 -12 -32 20 12 7 -10 -8 0 7 13 7 9 5
-12 15 1 12 -8 -4 19 16 4 2 9 -9 1 7 -16 6
-8 20 -12 -3 -19 18 -6 31 -5 16 -20 9 -2 5 -17 18
-16 8 0 10 -12 11 15 -17 24 4 -3 25 23 16 -4 15
-2 -9 4 -2 1 20 -6 8 2 -1 9 10 7 -8 14 -15
2 -2 -2 -7 6 9 -11 -7 -13 13 9 -4 1 7 0 -4
10 -6 -5 27 -5 12 7 -7 5 -7 9 5 7 16 4 -4
1 10 13 9 -14 -10 -13 -1 -6 -4 -4 9 -27 4 2 26
-8 12 -2 -4 6 0 9 18 -6 4 -13 -11 -4 -1 -8 13
15 1 -8 2 -13 26 -24 6 -7 -5 -3 12 -13 5 -3 10
-6 7 -3 -14 23 1 -14 2 -12 0 16 3 -11 -3 0 -5
-7 -30 1 0 24 -10 -6 -20 9 -1 -15 -5 -4 10 -9 -13
-2 -4 -1 17 5 -13 10 -4 0 -2 -4 11 10 13 -10 -2
10 -9 4 -2 -11 6 -8 -12 -7 3 -22 -15 -4 2 2 4
10 7 0 6 8 4 15 22 5 13 -2 -7 -3 -6 -24 9
13 9 -4 -13 11 -11 16 0 7 13 6 -27 -5 8 17 24
22 -24 -12 -7 7 2 -13 8 7 -9 3 -5 10 22 14 -21
-7 15 -6 4 -18 12 -6 17 1 -6 -17 6 -5 15 -3 -15
-17 -3 -12 11 -11 -2 14 6 -4 17 -4 -5 2 -1 -28 3
-5 12 -1 -5 -6 6 4 7 0 16 -8 9 4 1 -2 -4
-14 -11 3 -4 7 -5 -7 -16 4 2 4 0 -10 -3 10 8
15 -11 7 -6 6 0 -23 -20 -3 10 13 -8 8 -11 8 -8
3 -11 -5 4 -15 9 4 10 -20 -14 8 6 7 -5 11 -12
4 -7 10 -8 14 8 -9 13 -29 -6 2 -4 14 -5 -9 6
-9 -4 13 14 12 -5 4 10 -4 10 -4 7 19 14 3 -16
4 -4 11 4 -12 4 -5 -7 -15 -13 10 6 2 10 -16 13
4 15 6 -10 -11 -4 -13 15 -7 6 2 -6 0 -8 1 -3
-3 0 -11 10 -11 9 -22 9 2 6 -12 -6 -5 1 3 -3
-12 -6 -22 -3 -9 -7 3 9 9 10 -7 -13 7 -12 13 -4
-12 -21 11 -16 11 2 -5 -20 -4 -6 10 -3 4 -16 18 -17
-9 -7 -3 26 -10 -10 16 -36 9 -26 -10 10 -5 5 -24 8
-1 8 4 12 9 29 14 12 1 -14 -4 21 -12 4 -7 12
12 -16 8 -9 13 2 8 -1 8 -9 -11 8 -13 8 10 2
9 -6 -3 7 13 -13 18 -10 -6 -14 14 7 -1 0 3 8
-12 18 -6 19 -1 26 -10 16 1 7 -10 22 -3 10 -16 5
-1 10 -5 -10 11 8 -7 13 -7 6 -4 6 8 7 0 1
-1 -6 0 1 -15 16 7 -12 15 -2 12 13 15 -15 -5 -1
18 29 5 -4 6 -10 5 -7 0 7 13 15 -8 3 -8 -2
0 20 -7 -1 -3 21 -3 -12 2 -14 4 -13 6 4 20 -18
-6 16 3 -7 16 -9 -9 -3 -4 -7 -22 9 -19 9 -2 -24
-11 20 -15 -10 4 -15 -20 -18 5 3 9 -13 -24 -5 -16 -28
-1 -3 2 1 34 -4 -2 5 7 16 -12 -11 -10 -2 -11 -11
-8 -14 5 -7 8 10 -20 9 -26 8 3 6 -3 -4 11 -2
24 -6 -7 -9 -30 9 -24 16 -16 3 -5 -13 -33 -1 -11 -11
2 -11 -7 17 9 -7 -1 0 2 0 2 5 3 -6 10 -5
-16 -39 5 21 34 18 11 2 14 -15 -17 -22 0 -5 8 -57
19 21 -11 4 -47 17 10 -10 -3 -16 2 -5 32 -26 -13 -7
-2 -17 13 17 56 17 15 15 2 14 0 -11 1 -20 -4 -18
7 26 17 -10 -3 10 4 11 4 -8 -18 9 -4 18 -6 3
-8 18 -6 -6 19 -3 21 -5 17 2 -1 5 -15 12 -4 5
1 23 -8 3 -25 18 -7 29 -14 24 -25 2 -14 -15 -21 11
0 5 5 -16 2 -2 8 1 -4 11 -6 3 1 7 -3 13
2 9 5 1 10 18 4 2 12 -1 -2 2 20 -14 6 -6
-9 6 3 -14 -2 -12 -15 -29 -9 14 10 14 4 3 7 24
-19 3 -3 13 -15 20 6 -7 2 -25 -9 8 11 12 -5 2
2 13 7 -1 -30 2 -9 -6 -25 -2 -2 -6 3 -18 16 26
-2 1 -10 -6 -14 20 -6 18 -14 -1 -7 -28 -25 -4 6 18
11 28 2 0 -31 12 3 4 3 8 -5 -3 -6 14 -1 1
-6 -7 -4 2 2 -1 -15 -10 -6 4 9 0 8 -4 -3 -5
-15 -26 10 4 15 -3 5 -19 13 -8 -7 -2 5 5 2 6
10 -13 -4 24 5 -1 1 -1 9 7 4 5 16 4 -4 -9
17 -9 -6 5 -16 12 4 22 1 -20 -4 -11 -6 18 -20 8
28 14 1 10 -22 0 1 23 14 -15 -7 -6 11 0 -2 -13
13 -15 -20 4 11 17 27 36 4 9 -4 -17 -6 -18 6 -2
23 -19 -2 -12 36 -3 -14 12 -13 -4 -8 -22 -7 18 -9 -21
-1 4 -1 2 -2 18 -7 3 0 -4 -13 -10 -20 -21 -4 4
2 8 -13 17 1 6 15 6 3 17 6 -3 -1 6 -32 15
2 4 -1 -2 -1 -9 -4 -1 -15 6 -7 0 -8 -6 -11 -1
13 14 8 0 -10 12 -4 -9 1 0 -3 -2 -11 1 1 8
6 -13 15 -7 1 -16 -37 -58 -16 13 15 9 6 7 -6 6
-14 3 -13 -15 -17 8 1 -3 -6 -17 -7 1 11 -16 10 -3
7 -16 12 0 12 -11 -12 8 -9 -7 -1 9 33 -3 6 -10
-12 -16 -6 7 16 -6 -2 19 5 -6 8 -3 21 10 -2 -20
-12 3 2 -11 -34 5 -14 0 -20 7 -9 -10 23 -10 -2 19
1 5 -3 -13 -3 -2 -2 8 8 -6 1 -2 -4 -9 -9 2
-1 -3 3 5 2 9 -17 -1 12 0 -13 -8 8 -1 -7 -19
-3 3 -10 11 -5 -29 2 -2 -3 11 -10 -10 8 -4 -4 -4
-2 -7 11 16 -12 0 -7 15 -14 -25 17 14 4 16 2 0
-16 -5 -22 7 -2 -1 -4 -45 8 7 -1 1 -13 -4 -6 29
-6 8 10 9 -39 16 4 1 -14 -15 -4 2 1 3 -22 -8
7 -19 -2 -2 21 -9 2 7 -8 -14 -3 -14 -8 12 -2 -8
11 6 -3 0 17 -2 2 -7 0 -10 11 4 -16 16 0 -2
2 6 5 10 14 5 3 -2 17 2 -24 8 -16 5 0 -3
4 16 -1 -6 0 -5 -3 6 4 19 7 -7 -10 0 5 -3
-20 2 13 5 -11 -7 -8 -19 7 -10 8 15 -2 -23 10 5
12 33 1 -11 5 8 -4 -27 -13 14 11 19 -2 -1 -5 3
-7 14 -18 1 17 5 7 -20 -5 -2 -1 4 16 8 10 -13
-5 6 9 -12 -3 0 -22 -5 -14 -3 2 0 3 -4 -23 -14
-3 -7 0 0 19 -11 -19 4 -3 -19 0 -11 -7 -7 3 -6
7 -7 -3 -5 6 -12 -7 12 -15 -7 0 -18 0 2 -4 9
-2 -10 7 -5 12 1 -7 7 -5 7 -7 7 4 -14 10 1
11 6 -3 -6 -21 6 -5 4 -15 -2 4 -10 -5 7 -14 -3
-6 15 -18 21 4 -8 13 0 7 1 6 5 1 5 1 2
24 -16 26 37 21 -16 -9 21 -21 -39 9 10 -26 36 -22 -23
-14 5 -32 -12 -21 18 -11 -24 -19 -9 -10 -25 -17 -15 14 14
1 0 13 20 29 6 -9 9 -14 -10 2 5 2 26 -10 -11
-6 16 -2 -13 1 0 -4 0 -15 -8 -9 -9 13 11 -15 -5
12 6 0 -15 9 6 5 -14 -3 7 1 6 -27 -6 18 16
-4 16 0 27 -7 20 9 17 -7 32 -16 -3 0 -8 -6 1
23 1 -1 -20 -15 10 -4 -1 -7 -3 12 -6 -3 4 -6 2
-6 -6 20 -8 3 11 -18 -13 7 -20 12 16 -15 0 10 -1
5 -4 -3 -14 -10 8 -8 -41 -10 -5 4 14 -5 3 -11 16
-26 -6 -9 2 12 0 9 -4 -11 -3 9 8 -3 -4 1 -6
5 -1 -9 -14 -12 -5 -35 -7 -9 7 6 -8 23 2 17 14
-9 -3 -14 -1 13 9 -3 23 -3 -28 1 -15 24 -7 13 23
-11 17 -12 -5 -35 -10 -12 1 9 -11 5 -9 17 5 -7 -4
10 -11 -6 -12 18 -2 -7 -4 0 -9 3 -12 -2 -10 7 -5
-16 -22 -14 9 -8 -7 -7 -14 6 -16 -3 -3 33 13 -1 3
2 -4 -11 17 3 6 10 -2 6 1 6 4 6 5 -8 -13
-2 -14 -4 3 -12 -5 -6 9 -26 -14 5 -29 15 2 1 2
-5 1 -13 -6 1 -16 -25 0 11 -26 -10 -18 -11 4 -19 2
-2 3 2 2 29 13 -3 20 -7 -5 2 -15 -5 21 6 -12
11 -8 4 -11 45 -5 -10 0 -4 -2 0 -20 -4 12 -23 -32
25 3 -7 2 20 10 4 -13 -1 -10 -17 7 -20 0 15 -2
-2 19 -16 4 16 5 6 5 12 17 -3 10 -24 8 -34 4
5 -3 5 3 -8 0 -6 -5 0 -1 1 -14 -2 11 -6 6
-1 8 17 -6 -7 6 -6 -7 -7 1 10 5 -22 3 9 13
1 -14 12 4 -13 -5 -17 -59 -13 -2 7 -2 -12 13 1 3
-24 -12 -5 0 11 -6 4 -14 -5 3 3 -1 0 -8 -6 0
7 -24 1 -12 4 -1 -19 -4 -4 -6 -1 -16 2 -10 -12 6
3 1 7 17 28 -1 7 13 21 -5 4 12 30 10 -9 -15
-27 5 9 -8 -30 -12 3 -8 -5 -7 -6 -18 26 -15 -1 2
