8 4 -8 0 2 -6 7 -13
8 -8 -8 5 10 4 -1 -2
-2 3 -8 13 11 20 3 -4
5 1 7 -9 -20 9 -10 17
-7 15 4 -1 -8 14 -2 -6
18 4 -8 2 -8 -4 -12 31
-3 -13 21 -2 1 10 -14 -1
9 -22 -12 -2 -9 2 11 1
6 -16 -13 9 -1 11 -11 9
-12 25 16 -15 8 4 9 -19
-4 10 -11 -5 -8 -14 -2 -1
-9 -15 18 11 5 10 -3 -8
0 9 -12 6 -2 11 10 3
12 -6 15 -14 -21 -6 15 16
1 20 -5 4 -23 12 13 -4
13 10 17 -3 -6 -20 -8 -8
-2 -6 -2 -8 14 -1 17 -3
-7 -8 -4 -15 -7 -24 -2 -9
11 12 -22 3 3 -3 0 19
-11 15 -9 7 -6 -23 -2 2
-18 10 -2 -5 0 5 -10 8
-6 -2 0 -23 -40 -41 12 21
2 -11 -12 4 8 11 -13 14
-15 14 -7 -5 -9 -9 24 17
0 -6 1 -1 22 -13 13 0
-12 -10 -10 7 -2 -16 18 -1
0 16 11 -10 20 11 -24 -13
-4 -3 -9 10 -2 -3 -8 -10
-4 -5 8 -9 24 3 -13 -2
-17 -16 2 -6 -26 -16 13 22
-1 9 -8 1 -7 7 20 10
5 9 7 7 -12 17 19 8
11 4 -20 0 20 -3 -8 11
21 21 -12 -11 0 -5 22 20
-9 -12 -1 18 16 18 -3 -19
13 1 -8 -3 -9 17 -15 0
12 -20 12 -12 15 -1 0 2
-8 -9 -5 -10 3 -23 10 10
-10 -9 8 -2 10 -6 11 13
1 -21 -19 -4 12 5 13 -15
-14 1 -8 -2 -15 0 1 -9
-14 -1 15 -10 10 -8 1 10
-6 -11 9 -6 -4 15 -16 0
7 9 -9 8 12 13 -1 5
-9 11 10 20 -17 -3 21 -16
9 10 18 -31 -40 -24 35 5
-9 4 -6 -12 3 14 4 -8
-14 1 -1 -4 5 11 -8 -2
-22 -6 8 -5 17 17 13 -10
17 4 7 5 -2 11 20 1
-9 -19 6 17 -4 -13 1 -16
-4 10 5 2 16 0 -8 -2
-10 11 0 2 4 5 -12 16
6 6 -20 3 -5 -2 10 13
-1 9 1 -2 10 11 6 -13
0 0 -12 9 -2 -21 -11 -9
10 10 9 11 25 1 14 16
-6 -7 19 -10 -5 14 -9 -15
1 12 1 -2 10 12 2 -16
10 3 -19 -15 -17 17 11 -2
13 -11 -1 -12 -1 -9 5 -2
-12 9 2 -13 18 19 -23 -2
-11 21 -12 16 -9 -9 9 3
-12 6 6 -8 18 9 21 30
2 7 -11 -22 -2 -11 -4 -9
-13 -1 -4 -12 12 -7 17 -8
10 -6 -14 -5 15 -6 0 -5
9 -12 -1 -1 -6 14 -15 -5
-12 3 3 21 -12 -14 -7 -3
-11 -12 5 -22 -2 -5 7 10
8 -12 14 11 -20 -15 -10 -6
17 16 -9 3 -11 -23 -7 -3
