1 -18 4 -7 -5 11 -6 -11 -1 11 7 12 2 12 -4 -8
4 1 1 13 -16 -4 -8 -1 3 -7 0 -2 4 -2 13 -15
-6 3 -1 0 8 -2 -12 0 2 -1 -20 -1 1 18 -12 12
-9 1 2 19 1 8 0 -19 13 13 -15 -17 -8 -5 -3 4
12 8 6 6 18 2 -10 21 22 5 11 16 -8 -10 -9 -11
-8 1 4 -1 1 4 15 -7 -4 -19 -3 3 -6 -13 3 -3
-11 -3 -6 4 0 10 6 1 -10 -23 -6 -3 -9 2 -5 2
6 9 6 -28 -10 -26 -13 -16 4 -22 -5 -2 -11 2 14 10
14 -17 -8 11 19 -5 2 -10 18 1 -13 12 8 3 -5 20
9 12 11 -4 15 0 -2 0 -7 -2 15 22 7 -17 12 4
14 -8 4 9 -9 1 7 -3 -8 0 11 -3 -8 17 -20 -11
0 -3 -9 -4 2 16 10 -4 -15 -11 -7 -1 -5 -8 -9 2
30 -13 8 19 27 8 -11 16 20 -1 3 0 17 1 -12 7
-19 12 -5 2 -5 -11 -3 4 25 -4 -7 8 -18 -7 5 -9
4 3 -5 6 -8 -29 -30 -19 4 -8 -3 -2 -6 -8 18 7
-2 11 -18 2 -10 -2 7 5 -3 -9 18 1 -24 0 0 -28
-4 7 -8 15 10 13 -19 -17 -10 29 19 -11 -2 -6 -8 10
1 -33 -1 10 -12 12 -2 13 -4 1 -2 -4 -1 18 17 -15
10 5 -4 5 -9 -3 -15 -21 -2 -13 -19 -9 -11 7 -23 -13
-3 -6 -8 -12 1 17 5 -1 11 -10 -8 -4 1 -3 16 -10
1 12 -6 7 24 -7 -6 4 21 8 3 3 -2 3 -3 -7
3 2 -4 9 7 3 17 10 9 8 -4 11 6 -6 1 -5
-3 1 -3 -23 16 8 4 0 -7 -34 -6 -4 -8 3 -5 3
-4 -30 4 -4 -3 -12 -18 12 -7 -21 -9 -9 -3 0 -2 1
12 -17 7 10 16 4 6 2 7 2 -7 2 2 -9 -9 8
1 0 5 -4 10 12 -8 4 2 1 -4 5 1 -13 12 -6
-5 -8 1 19 -20 -9 -16 5 -13 9 11 -10 -17 7 4 -6
-23 -26 -6 14 3 11 7 12 -12 -16 -10 3 -5 -12 -16 10
0 -2 11 21 17 4 -6 0 5 -9 6 -3 -3 31 10 0
-6 11 -3 -40 1 -2 1 -11 7 3 -22 -15 -17 16 22 -7
-1 10 -5 -26 -17 -15 -21 -5 -2 2 -3 2 -7 7 14 2
-1 -29 0 -51 -24 18 17 24 0 -6 2 -8 -11 -3 1 -17
3 -7 -2 6 -2 -15 -27 -4 10 14 8 -1 -8 11 17 16
7 -7 -7 0 4 0 -14 -18 -6 11 -7 -19 12 -14 3 13
-26 2 -2 12 15 -6 -14 -3 -4 -12 1 8 4 -2 -6 -18
0 -6 -4 31 25 15 3 -12 1 1 2 -4 10 3 8 21
15 5 -6 -7 6 -6 4 17 8 6 8 -3 -10 10 -13 -7
-3 -2 2 -13 8 12 -22 5 7 8 2 2 -19 -10 7 7
-2 6 6 4 -8 6 -16 -6 -2 -16 5 3 -11 -5 4 -6
2 -9 11 19 5 -7 -1 7 -5 -8 12 -18 -2 -4 -7 -14
6 -13 6 6 10 -4 3 -3 -4 -2 -19 17 8 0 -8 7
1 -6 -1 9 -3 1 -15 6 11 -1 -1 -4 5 -14 2 -11
16 14 -7 -4 -2 -27 10 7 2 0 1 -13 -39 -1 -1 -15
-22 5 6 11 -8 -9 -7 12 -13 -6 -13 -9 -20 -6 -6 -7
7 3 -8 11 -15 -11 -3 -8 -11 -5 4 3 1 2 -15 2
-1 20 5 -35 4 0 -41 -10 -1 -21 -12 -13 -10 7 -10 -14
-14 -14 -13 -18 1 -8 -9 -9 6 4 2 -4 -16 9 16 -2
-12 23 -6 24 -34 10 -20 -15 0 -2 3 -18 9 -22 -46 -22
-3 -9 -3 -7 6 14 -2 4 -9 2 17 -4 0 8 7 -23
-11 1 6 -17 -14 -40 -6 -30 -15 0 3 7 -5 5 8 4
-3 13 12 -3 33 3 -11 -3 -20 -8 -5 -10 -18 3 -7 -1
7 6 -17 1 -3 -30 4 -14 -17 -5 1 15 -5 4 7 10
7 -10 3 -6 16 0 -8 -4 8 12 15 26 9 0 -9 0
-2 -3 -5 -18 4 3 7 -9 5 -14 -4 2 5 -2 5 0
5 5 -9 1 10 -4 15 -8 3 -12 -1 -13 7 19 4 13
9 -4 -6 -30 -4 -26 -1 -6 1 -1 -9 -1 -3 7 -1 8
-2 -4 -10 1 0 12 7 -2 -5 -4 -11 21 -4 5 -18 -2
-11 0 7 7 9 -10 9 10 4 4 24 18 8 -20 16 6
-13 -16 9 13 -10 16 -4 -1 -3 -7 3 4 7 -10 -13 -2
-15 -7 -1 1 17 10 9 12 -10 12 -17 -4 -1 -20 -10 -13
2 0 -5 -16 6 -4 -6 3 17 -17 3 6 25 1 -18 11
2 2 -9 -1 -12 -2 1 -4 -4 -38 6 5 -6 0 9 -18
1 -19 -1 -4 11 -7 3 4 11 -2 -8 -2 -5 1 -2 19
3 14 -14 22 -9 -8 14 0 -4 -9 -7 -4 -7 10 5 -9
-20 3 7 9 15 23 -24 -8 -17 16 21 -16 -6 -19 17 -3
-5 -19 19 -36 5 9 2 1 -22 -7 -5 8 -12 15 22 2
13 9 2 -2 14 -5 -4 1 2 -19 -21 -11 33 6 -1 8
0 -4 -10 -38 3 -38 30 20 -21 -4 14 26 8 9 7 5
9 -9 11 13 4 -9 -7 -5 8 12 10 23 0 -2 -8 1
1 12 -5 -13 14 -3 -2 -33 21 9 -6 7 -9 -5 -7 -8
8 -11 -10 -9 18 -5 6 -24 -6 -24 -2 10 -14 20 -2 0
-1 -43 5 -17 14 -3 -6 -7 7 -6 0 3 -18 -13 -23 -6
3 -11 -1 8 -15 2 -2 -4 -1 9 -10 1 4 -1 -11 1
-1 8 15 3 -23 -7 11 17 9 8 5 17 -4 -13 9 -19
-19 -18 3 26 -25 3 -16 -15 -9 1 -5 -32 8 -13 8 5
-21 -12 -7 17 4 19 -8 29 -7 9 -14 1 -19 -21 -29 2
-2 -17 20 -54 4 -15 -11 27 -27 -21 -1 6 0 32 11 -3
2 -41 -1 5 6 14 -8 -8 -7 -43 7 -12 -4 7 -15 -19
-5 16 -4 9 19 -17 -5 6 4 -4 -22 7 -5 8 -2 15
12 -6 -4 -12 -7 -15 14 10 -12 15 -8 -9 8 31 10 -12
1 4 -7 5 1 -6 -15 -10 4 -1 4 3 -9 -1 21 1
-4 -14 8 14 27 33 -11 14 -15 1 10 -25 -19 -16 -2 11
-12 26 -8 19 25 4 -1 -6 13 -11 3 -9 3 -7 7 -1
-8 -15 8 2 16 -6 10 22 -23 1 21 -1 -2 3 9 20
2 19 -14 -1 -5 -13 7 -10 -9 10 12 12 -5 12 16 7
2 -5 1 -12 0 -2 -10 -13 13 11 0 6 -1 -17 -2 1
2 -8 -3 -5 -6 4 -1 -18 -6 -23 -7 -6 -1 3 7 4
-12 -25 0 14 15 12 5 2 2 -16 8 -16 -7 -9 -13 -2
-4 -24 1 15 4 10 -2 7 -9 7 -13 8 -20 -4 -11 11
8 4 -7 9 7 -8 -10 10 23 0 0 17 8 -7 1 2
6 11 -1 8 -11 -17 -9 14 -5 9 -19 -6 -20 3 11 -9
-18 13 -15 32 -17 6 -5 26 -15 7 -29 0 -24 -4 -9 7
-5 -12 18 5 -1 11 -18 26 -2 -17 -1 8 1 -11 -22 -29
-8 -2 4 12 11 6 -19 -17 5 -41 1 -12 -5 15 -32 -4
-7 -20 -6 -8 14 -1 10 1 -3 0 -7 -3 -6 -15 -4 4
8 3 14 35 -22 26 -13 4 5 1 11 -16 9 -27 -9 -15
8 2 -1 -4 0 -8 2 -3 -12 4 -6 -9 1 9 5 -8
-3 4 -10 -8 -1 12 5 -8 -11 2 14 1 18 -8 12 6
2 -8 12 -5 7 -3 -12 -6 6 -19 6 9 -7 -5 5 12
-6 -29 -24 18 -1 -26 -2 -16 -1 14 1 7 10 -1 -10 9
14 4 19 -6 9 3 -14 -15 6 2 11 23 13 3 2 -17
2 -5 -8 6 21 -11 -3 -3 -2 5 -6 1 8 0 -3 8
-11 -2 -21 18 9 11 12 2 0 -6 8 -20 10 7 -15 17
9 13 -8 -24 -15 -8 0 -13 -5 18 4 1 0 9 -1 0
4 6 -6 3 -8 16 3 -2 -1 6 2 0 -4 8 -16 10
-9 2 -1 -2 -15 -4 -3 15 -3 -2 6 4 -7 -11 21 12
-4 6 3 0 -16 5 21 -9 -1 -2 2 -8 11 0 -10 -6
-1 -7 -8 0 5 8 7 -8 -16 -5 -5 -2 -11 -14 12 -1
14 7 -4 7 8 4 1 -3 26 7 12 -1 20 10 -18 -9
-2 4 2 -1 -8 -5 3 1 0 -27 19 -8 4 2 3 -33
3 16 12 18 -17 6 -2 2 9 2 -8 -1 5 -22 13 -5
19 16 -9 -8 1 1 11 -1 -13 4 14 5 -3 -1 3 -14
-15 16 -9 -2 -7 8 -11 -1 -18 -2 8 -27 -9 3 4 4
2 2 3 -16 11 -16 -8 -17 9 21 12 6 11 -6 8 -11
2 -5 12 6 15 4 -20 1 21 -5 -10 7 20 22 12 1
-8 3 -9 3 0 -30 -30 4 -18 2 -2 9 11 -4 17 -9
2 -11 -4 -12 2 -7 1 1 12 14 18 17 9 7 2 -9
5 29 -11 25 21 17 -5 -24 21 5 4 7 -6 -15 -16 1
-2 -11 -16 9 21 -2 0 -21 6 -2 2 5 7 7 -11 9
-7 -21 1 4 9 6 6 -10 0 3 12 -1 2 -6 -12 6
-5 -26 10 -7 -6 0 -5 -5 -20 -3 -6 8 1 7 -5 1
8 -10 -11 1 -8 10 -4 4 3 1 10 -1 1 7 14 -13
-6 19 3 -7 -31 5 7 2 -18 2 4 -19 16 1 -17 2
-8 -26 -5 -7 8 0 -2 -10 7 3 -2 -11 -12 -7 3 -4
0 8 -5 -9 8 -12 -6 -6 -18 12 -2 -4 6 27 5 21
-25 -28 2 31 -6 6 2 -22 -6 -31 4 -2 -6 -25 -17 -15
-8 20 0 -12 3 3 2 8 -2 5 -11 0 -11 -8 13 -1
-7 21 3 7 -10 -23 -13 -17 -4 34 4 3 10 10 3 -3
15 17 3 1 10 -10 -23 -16 -6 -9 1 -7 -20 20 3 4
-1 -10 6 5 15 -5 3 -11 3 9 12 -13 15 -20 2 14
-5 4 -14 -1 0 -22 -13 -5 17 5 12 9 5 7 19 -2
-11 -4 3 8 0 -20 -25 4 -5 5 9 -15 0 -6 29 5
-4 -2 5 -5 5 -10 -5 2 7 -7 19 11 -11 -4 5 5
-8 -4 9 -9 9 18 -6 -9 -4 1 -3 -6 -3 -11 -3 8
-18 -6 -14 -1 -4 -17 -11 -14 7 3 1 -4 4 -5 -7 4
-10 -13 4 9 11 7 10 15 -12 -5 11 2 5 -12 10 6
-7 -36 -4 4 -1 -7 -12 -3 -11 9 -15 -3 -16 -3 -14 -3
13 -10 0 -6 10 10 -4 14 21 1 2 14 3 13 3 -11
1 16 2 4 -20 -14 -2 -9 -8 13 -1 -9 -3 14 -9 3
-9 -14 -22 6 8 -16 -9 4 11 -1 -29 -9 -17 15 18 1
-8 -14 14 -12 -2 -12 -19 -10 1 -2 -4 -12 -11 -20 14 -22
-11 -6 5 -18 -12 -10 -5 -11 3 -14 3 -7 6 -14 -12 -2
-13 -12 -3 -23 3 2 -9 6 -10 -2 -12 -9 -18 -11 -2 1
6 -8 4 -14 -16 -18 5 -5 -18 9 13 8 0 -6 -2 -20
