-5 2 -6 14 15 14 0 6
2 -11 0 -15 5 14 -2 1
-9 1 0 0 -27 -11 14 14
16 -19 -6 1 13 15 -5 10
-4 6 -9 -23 -28 -33 19 -3
-7 -4 19 32 15 18 0 -21
21 -5 10 -4 4 13 -11 -5
6 -3 -10 13 -5 26 -5 -14
-5 -20 4 18 1 6 -17 12
-10 -4 17 -8 -11 8 -3 -5
-1 4 5 -17 -12 -4 16 5
5 -11 15 7 7 5 -12 2
-3 22 2 0 -20 -6 -16 -10
6 13 1 -13 9 -5 10 -19
6 3 3 -37 -39 -45 -10 -35
8 -11 12 5 8 4 12 -8
-9 18 18 12 -4 3 14 -1
-6 -4 5 0 6 -12 18 21
3 12 -10 -40 -56 -40 25 18
6 3 -11 5 16 -2 -3 19
-5 -9 -5 -15 -17 -24 -23 -21
-21 23 -11 22 24 9 -22 -19
12 10 -15 23 30 22 -13 4
-18 -3 -4 23 7 15 -23 -16
-5 -11 23 -13 1 8 -4 -20
12 15 5 -20 16 15 -2 4
-22 10 11 12 -9 -3 9 11
-13 12 -16 6 15 -5 0 -3
9 -1 2 2 -2 13 -5 23
17 -6 14 -1 5 10 -10 -10
-18 7 -13 -50 -29 -34 30 39
-5 24 3 -5 -3 -7 -7 -13
0 1 -11 2 1 -2 -6 11
-15 14 -12 9 -18 4 -12 10
3 -14 8 -13 17 -20 45 27
16 7 -8 5 18 8 7 -16
-5 -5 8 2 4 -8 5 -20
11 17 -3 -9 7 11 -11 -11
-5 4 11 1 11 11 24 13
-5 -10 9 0 9 1 11 0
8 24 -10 -14 -14 -8 1 -6
8 -10 1 0 -3 -13 14 9
9 13 13 -3 8 -20 -11 1
21 10 -13 -4 -3 3 -2 -11
-1 15 23 11 13 -11 35 5
5 -14 -14 -4 0 -18 8 7
-2 0 5 5 -8 6 24 35
-10 -13 11 -16 -16 -8 -5 -9
0 -18 8 22 -4 -8 -8 -9
4 -8 -14 16 13 15 -17 9
0 13 17 -19 -46 -26 -12 -5
-16 15 -8 13 0 -7 -9 -1
9 21 17 -8 -10 -13 6 23
-4 25 -7 18 41 45 -5 -15
-9 -14 -13 -4 4 13 3 -3
-4 -13 7 26 24 -4 -3 -20
12 5 -1 -15 10 -1 -3 2
9 -7 -18 0 -14 0 1 -13
7 7 18 -24 -23 -17 14 3
14 -12 15 -4 8 -7 2 7
-7 -14 2 -24 -18 -31 -6 -12
8 -12 -12 8 -4 13 16 -19
8 -17 7 -43 -44 -44 4 -16
-20 22 -16 -4 19 -2 -9 -7
-7 -10 17 -2 7 21 2 -12
-9 4 -5 -5 -5 14 4 -10
-17 -13 6 -60 -66 -45 25 58
-20 -3 2 20 2 -13 -2 -18
8 -2 0 -22 -21 3 -19 -15
4 7 -2 0 18 27 -16 -22
1 -23 -2 4 21 20 0 -7
12 5 17 23 9 -4 0 -26
1 1 1 1 -4 -12 15 -8
4 10 -5 -3 15 -23 12 -11
-9 24 -10 0 -8 -4 8 27
-10 -14 -1 -12 4 9 -7 13
14 8 15 -12 -12 -2 -10 -13
-9 -2 3 6 13 0 -13 10
-19 20 -7 -17 -11 -30 30 36
10 9 -8 19 -4 -9 14 18
1 -21 -5 6 19 9 13 -15
10 -12 9 -6 -16 -18 6 3
8 -1 4 5 0 8 49 51
7 14 -10 -4 1 14 -3 2
-19 6 11 -8 0 14 13 -12
10 10 5 -4 -23 6 -3 0
12 1 11 19 22 28 -10 19
8 13 -4 -9 21 -2 -23 5
1 22 -7 13 -5 -4 -8 14
11 -4 8 -22 -7 6 19 12
9 22 -11 -16 -10 -1 20 4
-9 -14 4 10 5 -8 2 12
27 4 11 -8 2 13 6 -17
-1 9 3 0 -9 -2 5 -18
-9 -26 2 7 11 19 37 30
-6 9 0 17 -4 9 -1 -7
4 -2 16 11 22 -5 -7 -3
-10 1 -1 0 5 -6 15 -2
-1 -10 15 -36 -26 -17 21 20
-11 17 -8 -19 5 -16 -15 4
18 0 12 0 -2 -14 30 33
-4 0 2 12 38 26 -14 -38
-11 -26 -22 -15 -27 4 -1 -17
-9 10 -5 -3 9 7 -20 -22
18 10 -2 -4 15 0 -7 -12
-9 20 14 -2 -14 2 18 9
0 15 4 -1 -21 -3 5 7
-4 8 -6 10 9 15 -14 0
15 0 -4 5 -12 14 -30 -10
0 -18 -20 -14 10 2 6 -11
3 -9 0 -18 -35 -31 6 7
12 -16 -5 -21 14 2 -2 -12
14 3 2 -7 5 19 -14 10
-13 18 11 15 -8 -11 -22 19
8 18 -20 -18 -48 -22 55 57
4 1 8 -16 19 -12 11 -14
8 -6 6 -26 -4 -11 3 20
8 17 -15 16 -6 11 -29 -23
-17 6 -15 1 3 2 -28 -2
-22 5 -8 30 5 -2 2 -17
-1 -8 11 2 8 -2 11 12
5 -16 8 -7 -4 -8 13 -12
-2 -10 6 -19 -10 15 10 8
7 -15 -10 -19 -10 0 17 12
2 -1 7 -11 2 5 2 6
11 -14 16 4 -10 -5 13 -18
7 -16 0 -24 -17 -8 33 26
-13 -2 7 5 9 17 -4 4
-11 -17 -13 8 -10 -10 8 -1
11 5 -11 -12 -15 4 1 -3
-23 10 -22 -11 10 11 44 40
-4 15 -14 4 -18 -5 -14 -9
19 18 0 13 -9 14 8 -6
-16 4 17 -9 -11 -24 -30 -28
-4 -10 14 6 21 13 5 -7
-8 3 -21 31 5 10 -15 -11
-15 -3 9 9 -3 12 21 -12
-12 -9 6 -4 8 -4 14 1
17 -14 7 -2 -6 -9 20 -6
-12 6 1 1 14 -15 19 -11
10 9 0 2 1 -6 9 -26
12 1 -1 -12 8 -13 -22 6
-1 10 0 22 21 8 35 44
3 -6 11 0 0 1 12 21
