16 -13 -28 -2 -22 3 8 52 -2 -36 -4 13 -10 -8 -3 5
13 23 -24 -15 18 19 -14 -21 -36 17 -17 -10 -3 -15 4 28
-10 -19 5 3 -3 -16 -17 26 -15 -10 14 -21 21 -6 14 33
7 12 -12 -22 -4 -2 23 -13 -25 24 22 -27 -19 13 -37 -9
-2 -26 -20 -11 1 5 3 7 -49 -5 -12 27 8 21 5 36
13 14 -30 7 -1 4 -19 2 7 35 -29 19 -24 -32 -5 -9
0 -32 -17 -38 -7 -11 -11 30 -24 -17 14 -14 12 -10 12 48
7 11 -51 16 11 15 21 -1 -30 48 -8 -21 -30 23 -25 4
11 -11 4 -9 12 16 -8 -18 -5 9 7 -15 -11 -4 -13 21
12 -10 -19 40 -15 -13 -6 -7 -33 36 -34 2 -35 8 -19 32
4 -32 10 -32 15 25 16 -60 13 5 -15 10 -39 42 -7 14
33 0 -45 36 -2 1 20 1 -22 23 -6 57 -20 2 -55 9
6 -9 10 2 -9 -6 -21 0 -29 1 22 7 -26 13 9 41
11 -13 -34 12 5 -33 -6 17 0 3 -4 15 -33 3 -35 35
6 -15 34 -7 22 33 14 -70 35 14 -5 -5 -33 26 -14 6
36 1 -4 -3 -13 -12 19 -3 -15 -9 19 56 -15 -16 -63 1
-16 16 -21 -19 -16 -25 -17 23 -18 18 -1 0 3 -20 0 42
31 -21 -25 -3 10 -2 -7 -23 -7 3 -11 -9 -6 3 -23 -7
-10 -47 -3 -29 -7 -16 -9 34 -17 2 -5 -8 27 19 4 59
30 -6 -24 17 6 1 -1 2 -26 62 10 -42 -20 18 -30 11
-13 -7 3 -18 -13 -4 -26 22 -21 -19 -30 8 5 12 2 9
33 25 -20 -10 2 9 -17 -31 -13 -16 -13 -5 -28 1 -3 18
-18 -41 -16 -59 -21 -28 -20 31 -42 4 9 8 29 29 19 66
47 7 -46 11 4 -3 -9 -7 -14 68 -21 -52 -32 -2 -51 34
-21 -7 -9 -27 -18 26 29 36 -49 -4 5 2 15 4 6 54
21 17 -18 1 7 -9 -14 6 -20 1 -13 -26 -9 15 -13 -3
-7 -19 2 -56 -8 -3 29 -40 -6 0 9 -6 -48 47 7 13
35 21 -72 31 -14 -4 -6 0 -2 39 -23 48 -16 -17 -71 8
-5 13 11 -34 6 3 -9 5 -14 -6 18 -6 -53 9 -18 14
18 11 -39 22 6 -7 -22 -3 -19 10 -9 -38 2 4 0 19
-5 -5 16 -21 9 21 29 -38 25 -12 -8 -7 -55 28 -6 14
42 13 -45 32 -14 9 -1 5 -12 12 13 61 0 -11 -64 6
-1 -2 -35 -14 0 -23 -22 40 -23 10 0 12 9 38 39 22
46 28 -36 28 21 21 -17 17 22 3 -19 -26 7 -3 19 3
15 1 -31 -33 -11 -7 -24 67 -36 -4 -15 35 46 2 -1 18
-16 -17 1 13 11 3 -20 6 16 44 -38 -59 23 0 48 22
-18 -11 -13 -41 8 -22 -10 40 -10 12 2 -4 15 -18 -21 13
47 -20 -50 35 -31 18 -3 4 25 27 -10 -38 21 14 -15 30
6 -9 -20 -37 -22 -25 -12 78 -57 10 -2 24 54 37 -9 54
34 -2 -20 6 -7 -15 -52 0 19 51 -55 -88 32 -9 29 24
-23 -2 7 -28 -4 9 -3 25 5 13 26 -6 -13 35 2 12
47 25 -23 -14 -16 -17 -12 5 5 -17 -7 -24 31 2 15 -2
-17 -1 -11 -25 -15 -7 38 28 -29 9 20 -12 -9 61 -7 6
50 11 -73 7 -10 -3 -73 6 54 4 -48 -11 28 -24 11 5
4 9 -12 -29 -23 23 8 -8 -10 15 -2 -5 1 42 4 21
19 2 -48 2 11 1 -5 -1 -7 17 5 -24 38 -12 10 -2
-20 4 -24 -4 -4 -1 26 17 -14 -6 0 2 -24 41 13 -38
-3 0 -52 18 4 10 -38 6 50 5 -30 16 26 -8 23 0
-1 -13 -40 -20 15 -30 16 17 3 -27 14 7 5 -8 -22 1
41 12 -43 8 -20 -8 -22 17 -4 24 -22 -26 0 -6 45 35
23 24 -16 -13 -4 3 -28 65 -29 -16 3 16 40 -16 5 -2
-30 13 23 -27 1 2 -10 -5 10 3 -31 -49 21 -13 46 2
12 -1 -14 -40 15 -3 -16 12 -23 31 -3 1 5 -17 7 29
47 0 0 -2 -22 2 -4 4 4 1 -41 -8 11 -13 21 19
30 -10 -18 -28 -10 -14 -3 82 -39 -12 -4 3 31 11 -12 20
-5 2 -8 2 -5 -4 -34 0 12 31 -38 -67 38 11 58 -7
6 -21 15 -13 -14 -4 -24 18 -3 19 24 -17 14 11 11 33
26 20 -6 -7 7 20 8 4 28 18 -27 -37 28 -1 17 -5
-14 -7 -13 9 5 12 22 4 -15 13 -3 10 -1 50 -16 -3
42 -20 -49 19 2 0 -50 3 43 -19 -26 -5 33 4 32 3
-3 42 -3 -25 -8 18 26 41 35 19 -12 32 -2 20 13 -4
13 6 6 -7 11 -10 -19 -3 3 18 -9 -5 29 -2 -11 25
-18 4 -9 23 11 18 13 -18 -5 22 11 4 4 26 1 -32
-4 -14 -24 -6 10 -2 -21 2 39 -25 -22 11 11 -9 32 -7
