3 6 0 26 -20 -12 28 -2
-12 -6 16 -3 -28 17 -7 6
-5 -8 25 -53 -1 8 10 -10
14 0 -26 -22 -3 -14 28 -14
-8 -20 -16 22 14 10 5 2
16 11 16 -24 -7 -9 -29 16
-18 5 -13 -14 -48 13 -9 -24
0 30 23 -4 -1 -1 1 19
-7 45 -23 21 -42 31 0 -15
-6 12 31 29 32 28 -24 16
19 21 39 1 5 -10 -9 14
-13 -17 36 -6 -14 23 3 8
-10 -20 23 32 4 25 6 -1
25 16 -16 -18 4 -63 -15 13
19 2 13 -2 -30 -16 -10 -23
-2 -21 -16 29 -18 -2 9 -14
-14 11 16 24 -21 -11 0 8
22 -7 13 12 12 2 -9 17
-6 -17 7 38 14 -1 1 -24
23 9 -4 9 -8 24 5 -9
-6 5 -10 13 22 39 10 19
-7 11 24 0 16 -3 -20 3
19 3 0 -29 -13 -32 -43 -19
-37 16 -1 30 7 18 33 8
-28 -2 29 18 -39 24 -24 -25
24 -13 13 25 16 -20 18 -2
0 -52 0 -66 19 17 -16 2
14 12 -15 -13 -19 -13 37 0
4 -6 16 9 -23 33 5 -11
10 -1 -5 10 -26 -57 -42 6
-3 -6 32 -12 -11 7 -46 17
-15 -14 -11 -14 0 22 -1 0
-29 34 5 -16 -48 -11 1 -13
-20 23 -4 5 -3 43 29 -8
21 -5 10 -33 79 -96 -26 -4
-14 -35 18 13 3 77 23 -31
-13 17 24 -2 28 5 22 -31
31 9 -24 18 19 -49 -43 3
14 -12 -29 -42 -13 48 -46 -7
-18 -3 3 12 7 -23 4 23
-13 23 27 8 -50 15 5 1
7 -6 0 -20 28 25 25 0
-12 -29 -13 70 31 -15 0 14
-7 -8 3 15 4 47 -4 -17
-32 -17 -16 3 32 29 26 -20
8 25 0 14 -20 -41 -11 4
-26 28 -45 16 -31 16 -37 7
7 -12 -7 -1 -5 -19 39 17
19 24 -25 -19 31 39 -9 -20
-20 14 -15 9 34 46 -4 12
21 -21 16 3 32 -17 -28 -17
-26 -8 -28 -20 -13 -36 37 11
12 12 -7 -6 7 -9 35 -13
-6 -6 -22 -18 -24 -8 -10 -7
8 32 -8 -7 -28 28 -19 22
23 -6 11 -12 15 24 -34 -11
7 21 23 -29 8 -42 -28 12
24 1 -22 13 -22 -15 49 -1
-10 -13 -14 41 -13 11 -4 12
-25 -1 -22 -1 10 2 37 18
-23 23 37 -23 -13 8 21 -23
24 1 12 -28 -1 -33 -12 -17
-9 -14 7 -57 -29 -44 -48 -13
11 35 27 -13 29 6 -23 5
20 -28 -31 -25 9 -15 18 -7
-9 27 3 20 -19 32 10 1
-15 25 -15 100 -39 18 24 26
13 -17 -6 14 -10 33 8 -20
-6 -10 -25 -6 15 -9 -6 4
-7 14 -8 -15 -10 19 -33 0
-22 3 -22 -47 -36 19 -31 7
-4 12 -3 -13 -13 -16 31 3
