7 30 15 0 -16 -61 -10 5 -22 37 20 -11 -30 -74 -13 -7 20 -9 -7 0
34 59 13 44 20 -32 -8 9 -55 4 4 -16 -22 -24 58 -1 58 46 -7 0
-8 -32 38 2 -15 8 -19 29 8 -20 22 -19 -13 -35 -7 -2 32 -5 0 0
-3 -21 -7 -4 6 10 -10 -13 -21 20 -9 -14 -30 1 -13 5 29 16 12 0
-21 51 1 -26 -22 -2 70 -25 -3 -56 18 -71 -30 33 86 -99 -40 -14 -78 0
0 0 0 0 0 0 0 0 0 0 0 0 0 0 0 0 0 0 0 0
0 0 0 0 0 0 0 0 0 0 0 0 0 0 0 0 0 0 0 0
0 0 0 0 0 0 0 0 0 0 0 0 0 0 0 0 0 0 0 0
16 15 44 -9 -77 -49 1 -32 10 10 -12 7 -36 34 17 29 70 16 -22 0
9 -90 -25 63 42 -58 22 49 -71 -27 -25 -5 -50 -14 8 24 27 25 2 0
9 -33 103 14 -69 -29 -3 -9 -16 15 -1 -2 -40 3 -2 10 23 1 -28 0
15 -6 -10 22 32 -17 -23 5 -64 5 -20 -14 -154 -17 -19 -18 31 15 -2 0
-2 112 -23 -40 -38 0 102 -17 -25 -28 -8 -48 -29 -2 143 -98 -25 -18 -78 0
0 0 0 0 0 0 0 0 0 0 0 0 0 0 0 0 0 0 0 0
0 0 0 0 0 0 0 0 0 0 0 0 0 0 0 0 0 0 0 0
0 0 0 0 0 0 0 0 0 0 0 0 0 0 0 0 0 0 0 0
36 66 16 -11 -38 -27 3 -23 24 49 0 -9 2 50 -5 -8 -5 -1 -29 0
31 57 -4 36 26 -25 -2 12 -43 9 10 -3 -53 -118 4 8 29 41 -9 0
28 4 74 2 -40 -22 26 -68 -21 61 -28 -19 -79 -5 2 -9 10 -3 4 0
65 -26 -4 14 9 -26 -7 17 -44 -12 -26 30 -139 0 -3 -19 38 -11 -29 0
2 109 -7 -45 -41 -11 122 -2 -24 -72 -9 -48 -71 87 68 -70 1 -31 -86 0
0 0 0 0 0 0 0 0 0 0 0 0 0 0 0 0 0 0 0 0
0 0 0 0 0 0 0 0 0 0 0 0 0 0 0 0 0 0 0 0
0 0 0 0 0 0 0 0 0 0 0 0 0 0 0 0 0 0 0 0
42 3 44 -12 -23 -37 8 -53 -11 43 -2 -7 163 -3 17 11 55 10 22 0
63 -45 21 68 -3 -43 -6 -9 -61 -47 13 -1 -39 -40 9 -31 1 15 14 0
7 -4 -11 -13 4 15 12 -17 9 28 -12 14 2 6 10 -11 13 -27 15 0
31 -39 -3 -14 -9 -1 8 -7 12 1 -17 25 -25 3 5 -6 35 12 -34 0
-20 33 8 -27 -14 -16 69 -9 -3 -63 0 -68 -26 9 123 -106 -9 -75 -69 0
0 0 0 0 0 0 0 0 0 0 0 0 0 0 0 0 0 0 0 0
0 0 0 0 0 0 0 0 0 0 0 0 0 0 0 0 0 0 0 0
0 0 0 0 0 0 0 0 0 0 0 0 0 0 0 0 0 0 0 0
10 -18 58 -29 -23 -39 4 10 44 67 -48 18 -89 -54 43 -21 37 28 -4 0
10 -22 -15 13 34 -45 -2 18 -37 21 -7 -10 -17 -108 44 -17 -10 -29 15 0
-1 -33 115 7 -51 -49 -18 15 -11 1 28 -5 -39 -91 24 2 68 -2 -23 0
18 -19 -11 42 26 -11 -20 12 -86 5 -6 -23 -33 -10 -62 20 18 23 4 0
-15 102 -32 -31 -24 18 81 -21 4 -37 -28 -43 25 15 142 -98 -83 -4 -32 0
0 0 0 0 0 0 0 0 0 0 0 0 0 0 0 0 0 0 0 0
0 0 0 0 0 0 0 0 0 0 0 0 0 0 0 0 0 0 0 0
0 0 0 0 0 0 0 0 0 0 0 0 0 0 0 0 0 0 0 0
43 34 56 43 -24 -13 -34 -33 15 3 7 -9 -81 14 -57 -25 24 -8 16 0
23 27 -15 39 56 -26 13 -23 -95 -14 19 -37 -165 44 -117 39 1 101 -19 0
18 -36 166 3 -121 -65 6 -58 3 19 1 -8 -81 -53 -14 -21 32 -28 -28 0
80 -28 -10 83 65 -54 -16 3 -147 -8 -39 -33 -100 -56 -74 -2 27 25 -14 0
-2 131 -18 -28 -4 -7 155 -13 -10 -61 -7 -42 -29 11 114 -114 -71 -6 -60 0
0 0 0 0 0 0 0 0 0 0 0 0 0 0 0 0 0 0 0 0
0 0 0 0 0 0 0 0 0 0 0 0 0 0 0 0 0 0 0 0
0 0 0 0 0 0 0 0 0 0 0 0 0 0 0 0 0 0 0 0
8 19 53 -6 -53 -70 -7 -31 -12 38 -55 -20 -40 -13 -55 -39 9 36 -21 0
-8 -26 9 27 13 -19 0 15 -61 -43 8 -4 -24 -162 14 -2 5 -17 6 0
40 -10 131 -6 -80 -48 30 -120 14 80 -27 -17 -12 72 -22 19 7 -34 -7 0
136 -19 7 75 39 -48 2 -7 -110 -13 -64 -12 -71 9 -39 -11 16 -15 -35 0
-11 110 -4 -34 -15 -36 153 -12 -11 -50 -7 -14 -63 -18 157 -116 -32 -39 -52 0
0 0 0 0 0 0 0 0 0 0 0 0 0 0 0 0 0 0 0 0
0 0 0 0 0 0 0 0 0 0 0 0 0 0 0 0 0 0 0 0
0 0 0 0 0 0 0 0 0 0 0 0 0 0 0 0 0 0 0 0
31 81 27 -22 -4 -53 -10 -56 -15 62 26 -2 116 108 12 9 -38 4 18 0
10 37 -31 68 39 -39 -19 -1 -51 1 -21 -56 -63 2 -144 15 -1 49 -28 0
7 -6 57 1 -11 -37 6 -52 6 72 -12 5 16 -8 23 31 22 -10 -17 0
61 -9 6 38 3 -6 -3 3 -45 3 -32 8 -2 17 -17 0 17 -19 -25 0
-10 76 -14 -28 -43 -10 101 -9 -4 -47 -8 -56 -67 57 89 -102 -17 -64 -40 0
0 0 0 0 0 0 0 0 0 0 0 0 0 0 0 0 0 0 0 0
0 0 0 0 0 0 0 0 0 0 0 0 0 0 0 0 0 0 0 0
0 0 0 0 0 0 0 0 0 0 0 0 0 0 0 0 0 0 0 0
18 33 77 -6 -40 -48 -26 -7 9 41 -6 -7 -29 -43 -16 7 -33 23 23 0
76 77 34 59 35 13 -24 -51 -77 1 11 -19 94 23 75 17 21 23 22 0
6 -7 45 3 -15 -65 -5 -3 -13 1 21 -2 -22 -82 -3 -3 71 -16 14 0
-2 9 9 75 24 -38 10 7 -73 -1 -11 0 3 14 -54 15 -12 -35 -15 0
-5 64 -24 -12 16 -27 85 15 -36 -32 -37 -95 17 50 12 -100 -44 -16 -91 0
0 0 0 0 0 0 0 0 0 0 0 0 0 0 0 0 0 0 0 0
0 0 0 0 0 0 0 0 0 0 0 0 0 0 0 0 0 0 0 0
0 0 0 0 0 0 0 0 0 0 0 0 0 0 0 0 0 0 0 0
-10 42 66 22 -85 -53 -1 -29 -16 28 -8 13 -66 -6 26 7 67 -5 25 0
36 -39 24 27 37 -103 14 -9 -50 5 -48 -26 -60 1 -34 -24 5 -13 -7 0
23 -12 114 -3 -85 -86 -17 -72 15 6 23 -29 -14 -118 -10 -35 47 -8 -26 0
73 4 5 145 55 -45 20 -9 -154 8 -53 4 66 31 -72 14 -8 -35 6 0
-12 133 -7 -10 6 3 156 16 -7 -45 -31 -23 -42 -2 59 -70 -63 -41 -71 0
0 0 0 0 0 0 0 0 0 0 0 0 0 0 0 0 0 0 0 0
0 0 0 0 0 0 0 0 0 0 0 0 0 0 0 0 0 0 0 0
0 0 0 0 0 0 0 0 0 0 0 0 0 0 0 0 0 0 0 0
60 83 73 -23 -68 -73 -27 -26 24 28 2 8 4 54 33 3 -59 -37 -30 0
31 66 17 27 6 6 -5 4 -61 -16 20 -13 134 26 69 -4 23 32 36 0
22 -12 88 -7 -81 -87 8 -97 26 86 -8 -3 -38 102 59 -14 37 -51 4 0
138 -1 -11 129 49 -18 13 -17 -110 -23 -86 29 43 -19 52 -20 22 -6 8 0
-7 102 -12 9 -27 -41 153 -6 4 -32 -26 -41 -52 43 -25 -104 13 -27 -35 0
0 0 0 0 0 0 0 0 0 0 0 0 0 0 0 0 0 0 0 0
0 0 0 0 0 0 0 0 0 0 0 0 0 0 0 0 0 0 0 0
0 0 0 0 0 0 0 0 0 0 0 0 0 0 0 0 0 0 0 0
40 26 63 8 -20 -17 -20 -31 39 44 29 -6 90 -9 21 -23 21 -2 3 0
63 -67 -14 56 -2 -55 17 30 -41 -47 37 5 -11 -18 26 -38 -55 -8 16 0
8 -8 27 4 -10 -65 19 -55 -9 78 -4 -3 13 1 19 22 21 -14 -1 0
67 6 -1 57 17 -6 -1 0 -47 -28 -42 18 -16 -6 64 -2 8 -31 13 0
3 86 -26 4 -17 -56 90 -10 -20 -34 -6 -83 -6 35 19 -93 -14 -32 -84 0
0 0 0 0 0 0 0 0 0 0 0 0 0 0 0 0 0 0 0 0
0 0 0 0 0 0 0 0 0 0 0 0 0 0 0 0 0 0 0 0
0 0 0 0 0 0 0 0 0 0 0 0 0 0 0 0 0 0 0 0
18 22 63 6 -62 -67 9 -23 -1 20 -15 39 -66 -23 19 21 30 36 9 0
21 -20 -18 75 69 -29 -16 10 -45 -6 -15 -6 9 10 -73 -21 -47 -33 31 0
-2 3 -8 0 4 -18 -7 10 4 -20 13 10 -11 -34 -13 -9 20 -12 14 0
-10 8 -9 30 21 -7 19 -18 -30 11 4 27 2 3 12 -1 11 -9 -7 0
-6 65 16 2 -11 -15 61 15 -29 -47 1 -69 5 30 43 -120 -21 -20 -58 0
0 0 0 0 0 0 0 0 0 0 0 0 0 0 0 0 0 0 0 0
0 0 0 0 0 0 0 0 0 0 0 0 0 0 0 0 0 0 0 0
0 0 0 0 0 0 0 0 0 0 0 0 0 0 0 0 0 0 0 0
20 22 28 -30 -74 -33 -1 29 13 5 -21 13 -138 -49 39 -27 -3 15 -10 0
14 6 23 70 23 -30 8 0 -40 41 -26 -55 41 161 -242 3 22 72 -36 0
10 -8 65 10 -30 -53 -24 -23 -4 5 16 1 -2 -60 14 -17 42 19 -21 0
25 6 -4 69 25 -7 16 -9 -74 12 -19 31 1 35 6 -12 10 10 10 0
-28 78 -19 -15 -21 -6 125 7 -30 -26 -43 -47 -5 50 -11 -78 3 -43 -72 0
0 0 0 0 0 0 0 0 0 0 0 0 0 0 0 0 0 0 0 0
0 0 0 0 0 0 0 0 0 0 0 0 0 0 0 0 0 0 0 0
0 0 0 0 0 0 0 0 0 0 0 0 0 0 0 0 0 0 0 0
21 -6 30 32 7 -51 -7 0 -14 40 -15 0 4 0 -17 -38 14 27 -26 0
79 12 49 59 16 -60 20 -12 -89 -1 -2 -13 30 42 -20 -1 -45 -30 34 0
10 -8 18 -3 -21 -49 5 -46 -6 64 -6 -19 -34 13 37 -15 24 -42 -6 0
44 -15 2 54 1 2 6 6 -35 -17 -66 50 -2 22 5 -30 4 -19 20 0
-9 69 -21 -9 -19 -29 123 -5 -18 -41 -17 -29 -56 26 31 -127 40 -70 -26 0
0 0 0 0 0 0 0 0 0 0 0 0 0 0 0 0 0 0 0 0
0 0 0 0 0 0 0 0 0 0 0 0 0 0 0 0 0 0 0 0
0 0 0 0 0 0 0 0 0 0 0 0 0 0 0 0 0 0 0 0
3 76 44 -6 -29 -26 -12 -44 23 30 -23 3 34 53 105 -39 -21 5 -19 0
-19 -20 17 49 9 -9 -6 22 -20 -6 -35 -35 62 119 -192 28 29 60 -15 0
10 -8 -58 -13 11 -11 23 -19 -3 34 -2 -4 -4 14 -1 -10 6 -22 19 0
23 -13 0 11 -5 -2 10 -3 10 -25 -45 45 5 6 8 -3 -1 -31 -5 0
3 53 12 -2 -9 -45 42 -5 -10 -46 8 -64 -25 49 -22 -107 -5 -56 -101 0
0 0 0 0 0 0 0 0 0 0 0 0 0 0 0 0 0 0 0 0
0 0 0 0 0 0 0 0 0 0 0 0 0 0 0 0 0 0 0 0
0 0 0 0 0 0 0 0 0 0 0 0 0 0 0 0 0 0 0 0
