9 -2 -10 -2 19 -1 -3 -13
3 13 -7 21 -4 -9 0 -17
2 1 6 16 -18 8 0 -11
-1 -8 9 1 3 16 3 -7
12 -1 7 -24 -35 -23 14 -6
4 1 10 -8 -2 -16 0 13
2 -20 -17 6 3 5 -3 15
-5 -12 2 -3 0 13 0 -25
9 6 5 19 -1 6 -17 3
4 2 4 -3 10 19 5 -12
-15 0 -15 -12 14 -3 -7 8
6 0 8 26 4 -5 -5 12
4 5 -12 -26 -13 -28 -10 14
4 -15 -9 20 -6 6 -24 -21
4 -21 15 -3 -20 -16 -3 -8
0 -17 -27 3 19 13 -23 -18
-17 -2 -13 18 1 12 -9 17
4 -8 -4 -14 14 -16 -17 2
4 -13 15 -11 9 -2 -2 13
-13 1 -9 3 0 1 -8 -24
-16 -12 -5 14 16 -13 3 14
6 1 5 -2 4 -1 2 -19
-11 -28 -20 31 22 29 -21 2
7 -9 2 -1 21 -13 -11 7
0 -6 3 -5 22 -4 -2 -9
9 -17 10 18 4 15 -4 -19
13 10 -4 -14 14 -7 -15 5
-23 -35 -11 26 26 30 -2 -6
15 12 3 46 42 36 -17 -12
0 -1 -33 7 -3 -1 -24 -26
-1 11 11 -34 -27 -15 -13 -25
16 20 -1 12 7 18 -3 -9
-4 -2 14 37 21 5 -14 -13
-9 -15 7 15 22 18 15 -11
3 -7 -9 -4 8 -4 0 -7
-21 -19 -6 31 51 42 -15 -18
9 16 -10 11 -1 22 4 7
-32 -22 -11 11 24 12 -25 -38
3 11 3 -21 -36 -33 10 21
-25 -3 -4 29 37 16 9 -9
18 -16 4 0 -4 5 -7 -9
-12 -8 -6 -16 5 18 13 3
23 -15 -18 21 15 22 -13 -7
-10 -16 8 7 24 -9 -13 -15
-9 -4 0 -16 -31 -22 6 0
-11 -18 -7 30 28 -6 -29 -25
0 -5 -8 4 20 16 -12 1
-6 -10 -12 6 -16 -10 -14 -12
-15 -6 2 10 1 12 13 -16
10 9 1 5 -11 -8 -15 -2
-2 18 -1 -1 -12 7 -3 -4
-10 -22 -21 -14 9 -5 -9 -13
17 12 16 10 43 22 -10 -11
11 -7 0 18 14 -1 -15 2
-7 -5 -2 48 29 15 -12 -24
0 -20 7 15 30 22 -3 2
-1 -3 2 0 -5 4 -7 16
-12 4 -14 -1 -12 4 15 6
11 -13 0 -9 -8 5 -10 -6
-9 -9 -10 -12 4 -4 -18 -26
19 5 -8 9 -13 5 -11 11
-26 -30 -21 22 13 13 -1 -8
0 9 -9 19 24 28 -5 -14
-2 -10 -24 13 26 15 -25 -16
-22 -22 -21 -4 -23 -10 7 4
-19 -6 7 3 -9 12 -3 0
-5 16 8 -7 -1 -1 13 13
-19 -3 -16 14 16 -5 3 -15
12 -12 -3 -24 -23 -27 -9 12
-3 -8 -9 7 6 20 24 12
7 9 -2 40 3 -2 -14 -24
-23 -14 -24 8 -19 -8 1 -10
