-4 -6 -8 -9 0 -4 9 -30 -16 15 1 9 5 -20 6 15
3 3 -4 -12 -14 -12 -10 -5 -7 5 -13 7 2 9 -6 6
1 4 0 11 -1 1 0 -6 -1 11 -7 -2 8 11 4 -8
3 3 4 -3 -1 -2 -14 1 -9 -1 -12 14 5 -4 7 14
-2 3 -5 1 8 -13 0 4 -11 3 -12 -2 11 1 9 -4
4 2 7 8 -7 10 -9 0 1 -1 -2 2 -11 1 1 1
-5 7 4 4 1 -10 -5 5 -3 -3 -7 0 4 -6 -4 -16
10 -2 0 -7 -8 4 5 3 -4 3 4 -2 -2 1 -1 -2
-9 0 9 0 -4 18 9 -2 2 1 3 -1 6 0 -1 9
-20 -5 6 11 11 -2 -5 -8 -3 1 -4 -10 1 -5 2 -1
8 -2 -5 -15 -6 -4 -10 6 -12 2 3 16 1 13 0 3
-2 -7 7 3 -7 -17 -5 -4 6 5 -1 3 7 -4 -7 -2
-12 -13 -13 8 -1 12 10 -3 -8 1 0 -17 -5 -11 -4 -2
5 -1 6 1 7 8 -3 17 -3 2 3 -2 -4 3 -10 -7
8 2 4 5 -4 9 -10 4 -4 6 -7 -6 5 -1 -2 -1
-2 -12 -1 -3 2 -2 -5 7 6 0 9 7 12 1 0 2
-8 -5 7 -9 4 -8 7 16 10 -28 -10 4 -32 9 16 -8
-2 -3 4 0 -15 -1 16 10 8 5 3 -11 3 1 -18 -2
-19 13 -7 -12 0 -3 -11 -13 4 -4 -16 -15 -2 5 -1 -24
-16 -16 -9 13 0 9 16 -9 1 -1 6 -14 13 9 -4 -9
-9 3 -17 0 20 -7 12 -11 4 -9 -7 -1 11 -1 15 -7
-9 -1 -11 -7 10 3 -9 -6 -16 2 -13 -4 -5 -7 4 -12
-8 8 -4 9 11 -7 -2 -2 9 -3 15 -3 -3 -1 -1 -28
-1 3 8 9 10 -6 -2 -2 -13 0 -12 6 -9 10 -3 -5
2 -8 -2 16 7 10 -2 3 7 -8 3 -10 -12 -8 9 -2
-4 4 -11 2 1 1 -10 -4 -8 -8 6 -14 -6 -9 17 1
-22 -3 -5 8 6 -9 24 -10 -2 0 4 -27 6 -4 2 -21
10 -2 -1 -6 9 -4 -9 9 -4 8 -15 2 -9 9 0 5
-31 -6 -22 0 2 16 14 -1 3 5 5 -8 6 -9 -4 -1
0 -2 -10 -1 7 -8 11 -16 6 -15 -7 3 17 -15 10 10
-6 0 -3 0 5 3 -1 -7 -12 3 -3 5 14 -2 5 0
-3 10 -5 -3 7 -14 4 -5 0 4 -15 5 9 2 -2 -1
3 -4 0 2 6 0 4 0 0 11 3 -6 -1 5 0 -11
-8 -7 17 14 5 0 11 -2 11 -16 6 -18 -12 8 -9 -13
-13 -5 -10 -8 9 9 -20 5 3 9 4 -18 12 -17 6 -2
-1 7 -5 0 2 6 -6 -1 -1 -14 -5 -2 -10 12 -9 -20
-25 -6 -16 5 21 -9 18 -6 -2 6 -6 -7 4 -3 21 -21
-1 -1 11 -3 -14 9 -20 21 7 -1 12 0 -9 -5 6 10
-13 3 10 5 -4 -9 3 2 -4 3 16 -8 7 -7 -4 -23
0 -4 -14 -11 -7 -1 -2 13 1 6 0 2 9 -7 0 -1
-2 1 -10 7 -8 -2 -13 0 -6 0 8 6 -5 -1 4 0
3 0 -6 3 -9 -16 -1 -7 -7 11 2 -4 10 -2 4 -10
8 -9 8 -9 2 -6 -18 0 -8 -14 -9 14 -1 -7 -2 21
2 0 -6 -5 -10 14 -10 1 8 13 14 -14 4 -2 -1 2
-12 -12 -4 -2 2 0 1 -1 -3 0 1 3 -8 -2 1 7
-3 -9 5 14 6 -4 -15 18 1 -27 3 2 -21 5 12 -13
-4 2 2 -1 1 5 -8 13 7 1 6 -8 -4 -10 -4 4
-2 -8 0 -5 4 15 -7 -5 4 -7 -2 1 -19 -9 3 0
15 20 4 7 2 3 8 13 4 5 -1 -4 -16 11 -11 -5
0 9 -14 -4 -4 -17 -4 -4 1 -3 -14 9 -1 -4 7 -12
-6 -5 -4 -5 7 -17 -8 3 10 3 -2 2 -5 -3 -2 1
6 4 16 -1 16 12 -24 4 -14 -10 -9 5 -5 13 -9 0
18 13 3 -6 6 -13 -11 12 7 -8 -8 10 4 11 9 10
-8 -5 2 4 1 -5 -7 -4 1 -5 12 -5 0 0 -6 -8
5 -13 -8 -5 -10 6 -4 0 -17 -2 -13 -3 14 6 7 25
-1 -1 12 9 -7 -3 4 13 -2 1 13 1 -18 1 -7 13
10 -9 9 -2 -8 14 -2 -3 -7 -6 -15 11 -7 6 -6 7
-11 -18 -9 9 0 12 -10 -5 -12 6 3 -12 4 2 3 6
3 6 0 -2 0 1 -15 0 0 -1 -3 10 -3 -4 -3 8
2 0 -11 6 -2 -15 11 -2 -10 -7 -8 2 3 11 4 -10
-1 -7 -1 8 -4 11 -5 7 7 7 -3 1 -4 -1 -3 2
-1 5 -21 -6 7 -4 -3 -14 -3 -25 -1 6 0 0 7 1
2 -4 -21 -4 8 -7 5 -9 -13 -4 9 -4 14 -4 -1 5
7 -3 -3 0 -10 -16 0 -12 7 16 1 14 13 -4 6 13
2 -24 14 23 -9 0 3 -19 -11 29 14 -27 13 10 -11 8
1 5 -15 -5 0 -11 -12 -6 -7 -5 -5 3 12 -3 -2 8
-11 -6 -26 -17 -3 -2 -21 1 7 4 2 -5 8 -18 4 -12
6 6 6 -5 -4 -2 2 5 -15 5 2 19 -3 -22 4 12
17 -2 0 -1 4 2 -4 12 -10 -11 -3 5 -3 12 -6 3
-15 0 0 -4 3 -2 -8 -10 -9 -3 4 -1 2 -21 -3 9
10 2 -3 1 -17 -6 -21 9 -12 -12 -22 23 -1 12 7 28
-6 0 3 7 21 -2 -1 -15 -17 -9 -16 7 1 26 5 -22
13 -12 4 6 -17 8 1 8 -3 7 -19 20 6 -5 -12 28
-11 0 -9 -2 -1 -3 -4 -10 4 3 6 -15 -10 -9 4 -3
7 -3 15 -3 -9 1 20 -3 -9 16 6 -10 9 -12 13 8
-7 -3 8 -2 18 8 -10 0 -2 -5 -10 -5 -16 -6 -14 4
14 8 13 -2 -6 -4 -5 11 15 1 7 4 5 5 0 1
-4 17 13 1 2 -3 -6 14 14 -29 5 12 -56 4 -4 -25
-11 -3 -31 -14 -10 0 -2 0 12 -7 8 4 8 -17 5 5
6 14 -4 -6 14 -11 9 6 -17 -5 -9 -4 -11 6 -8 -5
2 22 -18 -7 -5 -9 0 -1 8 8 -5 7 9 -2 -6 21
7 11 20 0 -20 15 1 25 12 4 2 -8 -2 2 -38 2
-16 -6 -13 -11 2 -4 0 -1 4 16 2 -6 3 -23 5 2
-19 -13 -2 17 1 -1 23 -4 -9 1 0 -12 8 2 -7 -19
-4 -19 2 9 -5 4 -6 -1 -4 -11 -1 -6 -3 -1 -4 0
16 1 11 9 0 -11 -3 13 -17 7 -12 0 -4 22 -7 1
16 8 10 -9 1 -3 -16 1 -7 -20 -29 14 -11 3 6 15
0 -1 -19 -14 -11 6 5 3 5 4 6 0 9 -13 -4 11
6 0 3 7 8 17 13 2 7 -2 2 -2 1 1 4 8
-6 4 -10 3 -10 -7 4 -10 -6 1 -3 -13 -9 -2 6 -6
-11 13 -3 13 4 -3 -4 10 -10 -6 2 -2 2 10 -5 -16
3 -5 9 5 -14 3 -2 0 6 5 7 -4 3 -16 7 4
3 -8 15 -7 -7 9 -3 1 -7 5 -22 13 -2 8 0 3
-3 -25 -3 -1 -20 -3 6 -24 -26 46 3 -7 22 11 10 13
18 -1 8 8 -4 -6 -7 4 7 6 -13 13 -18 15 -1 -9
-5 3 1 10 -7 24 -12 1 -12 -8 8 -16 -6 -15 1 -5
1 -2 -7 6 -6 -7 -10 1 4 0 -1 2 1 9 -3 -10
-6 -2 -7 8 -5 -14 -7 -6 -13 0 13 -4 -11 2 -5 -5
-8 -10 -1 6 8 18 -7 6 -2 5 3 -5 4 -10 1 12
-13 -6 -7 8 -1 7 18 -4 -10 -2 -2 -13 1 0 -1 -1
7 0 2 4 -16 -1 -9 -4 0 -11 -1 -6 -16 -6 -6 9
-3 -5 -22 -2 1 14 15 -10 -4 6 9 -4 5 -1 3 6
1 0 -3 -8 9 3 2 -3 -11 4 5 5 1 6 2 -6
11 0 15 6 -3 -2 -4 -3 8 0 1 2 -7 -3 -5 -2
-17 -4 -7 8 9 -9 4 -24 -16 -1 0 -1 7 -11 9 -8
3 -6 -10 -4 -3 -3 -1 -3 -1 -1 0 -4 -6 9 4 2
-10 -4 1 6 1 -4 12 0 2 11 8 -14 -7 9 -4 -9
8 2 -3 -3 -4 -1 -6 3 3 -3 1 7 -1 3 -1 6
-2 9 -1 9 -3 -4 -9 0 4 5 -6 1 0 3 -5 -3
3 0 16 -2 -3 3 -3 14 0 -8 -1 -6 -2 5 -9 -9
-8 3 -4 0 -1 -1 5 -2 -2 -2 -2 -4 -5 -3 0 5
9 8 -7 -7 -7 -22 1 -6 4 -4 -5 3 3 8 -4 6
-4 6 -4 0 6 -14 -5 3 2 18 -9 4 12 0 5 -7
-2 -5 -15 -10 6 -6 -11 -1 -1 -4 -1 2 3 -7 0 2
-7 7 -5 -14 -5 4 -2 1 3 18 -4 -8 3 -17 3 -1
-4 6 8 -9 -4 -1 -20 1 -12 -11 -11 4 -2 -10 -9 1
3 -11 -6 7 -3 12 -14 1 -11 -19 13 4 -4 -8 -5 3
-6 8 6 11 -14 -11 8 -9 -6 8 -5 2 4 -3 -11 7
-12 -17 -11 4 5 16 13 -12 -3 -16 16 -16 -2 -8 -1 -7
-11 -7 1 16 14 -10 -9 -27 -17 -20 -13 -3 -6 10 8 -5
-14 -5 -4 -3 7 -16 16 -12 -1 2 10 1 1 -3 16 -14
-13 -3 -6 -1 -1 11 8 3 -8 -2 -7 0 -3 3 6 4
18 6 13 -8 -10 0 -22 5 -1 -10 -7 17 -2 -17 -9 10
-8 7 -8 -1 8 5 -1 2 -9 -4 -9 -1 -4 0 -8 3
17 4 17 -1 -1 -7 -11 -7 -22 -1 -9 12 3 12 -5 -1
2 -11 9 6 -21 13 17 -4 0 40 -1 -10 14 4 -26 15
6 -3 12 6 -11 -14 7 3 7 2 -8 6 -10 5 -2 -7
-4 -3 3 -7 -1 15 0 21 -18 -9 -4 0 -15 2 -5 -10
-8 -5 1 3 -4 -8 -12 19 1 30 3 7 -16 -2 -8 -4
-4 -2 -5 -18 -7 -12 -4 3 -1 19 -6 -5 5 -6 -11 20
-4 4 3 -8 -3 11 7 -2 5 14 13 3 5 -4 15 13
12 -5 -9 -7 -3 -9 -4 5 1 -9 13 15 10 6 7 11
6 7 4 11 -8 5 -10 8 -4 -6 7 3 0 -11 -13 9
7 -1 0 -1 14 -22 5 -14 -33 -9 -4 0 10 14 7 -6
-10 -14 -14 3 4 8 3 2 -4 -10 6 -11 -6 0 -5 12
1 3 -13 -18 -8 3 3 12 -4 4 0 -5 14 -23 -2 9
6 11 -3 -5 3 -4 9 13 15 -3 6 7 0 -1 4 -12
-2 -3 -2 2 4 6 -1 -2 -13 4 -12 -3 -1 -9 1 -12
-6 2 -2 6 8 1 7 -10 -3 2 -2 -3 -2 2 -7 -9
0 2 8 -1 -1 7 7 -2 -4 0 2 -2 6 -17 1 -9
10 0 -6 0 0 -6 -5 -7 -14 -8 6 5 8 2 6 1
3 28 -18 -14 19 -8 3 -10 19 -23 -8 3 23 -9 12 16
-1 -2 11 5 5 -3 10 -3 -5 0 -4 -1 -9 7 -7 -6
-7 -2 -7 2 -2 15 2 -12 -13 -8 10 -13 -10 -8 3 1
