10 23 4 -9 -3 -38 9 12
-13 2 -36 -21 -6 6 -5 11
7 31 19 -51 -2 -5 36 1
13 22 2 11 21 -2 -26 -42
9 6 18 -2 9 20 15 -43
-4 2 11 -54 -5 -9 32 -16
-35 -3 -22 27 -50 28 -76 19
19 8 -11 -62 14 -35 43 -25
16 15 37 -12 27 -16 18 -3
-28 -9 -14 22 -21 -42 -17 16
-12 15 10 -24 -28 0 25 -18
-8 9 -12 -17 36 29 -28 -22
8 13 -16 -27 20 25 -39 -65
23 1 11 -49 25 -10 11 -8
-18 34 -9 9 -47 -6 -55 25
3 19 -5 -54 11 -51 73 -20
6 14 17 -16 -8 -68 37 10
-12 30 -1 5 -9 -33 18 25
-4 24 -23 -45 -2 6 42 -24
-15 8 11 -14 -1 36 -56 11
-17 27 12 43 -15 53 -41 -58
8 14 -11 -48 8 -1 12 -34
15 -10 12 27 -37 -16 -42 15
19 13 -10 -62 35 -27 54 -59
0 21 -14 -19 -3 -42 -15 9
-40 -31 -39 25 -41 -84 -70 37
28 -7 11 -37 -16 23 -4 0
29 -11 14 -4 13 -34 27 -30
-1 8 -2 9 -27 11 6 -23
8 -26 -3 -47 0 22 -6 13
-29 11 -28 22 -126 6 -87 -6
-9 18 -7 -68 13 -54 66 -8
-15 2 -33 -14 -26 127 -95 16
-37 30 7 -23 71 -132 144 -5
29 41 6 -79 57 -12 16 18
-7 13 2 -63 56 -75 28 -64
24 16 37 -5 35 10 -14 -39
-15 -7 -12 -62 34 93 -43 -106
29 7 20 4 -49 -103 -38 60
-10 -28 30 120 -19 -122 12 56
10 17 3 -127 -5 -60 -1 96
15 6 23 -33 58 -85 2 -54
-20 3 11 -42 -11 37 9 -20
1 -11 -21 12 82 9 38 -155
-3 -17 -17 42 -34 19 -18 -116
6 1 2 -98 42 66 -67 -3
7 15 9 -2 54 -51 25 -38
2 -13 9 3 7 -9 -5 -1
2 22 18 4 -13 -47 3 35
-6 12 12 -19 -6 4 -39 17
-24 19 12 -27 -36 56 -27 10
5 -8 14 -6 37 -11 11 -53
14 8 -25 -23 31 25 18 -48
-12 32 -5 -59 -20 21 18 31
-12 9 -2 2 -21 -5 -25 12
18 9 -7 -44 9 2 16 -21
-31 -11 -39 -46 44 22 22 -30
-1 27 20 -75 -9 -56 65 -4
-17 -6 17 -40 -23 56 -19 0
-15 9 13 -50 14 -12 35 5
-14 17 18 -3 -49 30 1 -43
-13 -12 -8 10 -140 57 -119 -19
0 0 28 45 -83 -29 -2 41
6 26 -8 -77 12 -6 44 2
-8 0 16 -28 -23 -88 57 45
24 9 25 -1 -21 -72 42 -3
-13 -17 -12 -50 -19 57 4 23
8 21 -30 -62 84 14 25 -69
-35 7 -25 62 -15 40 -49 -100
-7 -17 -15 -87 -63 60 5 6
3 11 22 -5 25 -33 -41 12
19 0 -14 -40 29 20 9 -38
