-14 14 20 -2 -6 13 12 -3
0 11 -2 -4 3 -1 3 3
21 20 13 7 -14 17 10 -10
11 14 7 -1 10 -7 14 -9
11 19 13 12 -10 16 21 14
-12 -5 12 -18 -18 -4 5 -8
18 -5 15 -5 -6 -6 19 5
-21 -15 -11 -11 13 -1 3 -26
-25 -5 8 -11 -4 9 1 -28
-21 -12 -21 15 -6 14 10 -18
-12 3 1 -6 -1 -15 10 11
-13 -5 11 21 26 13 0 8
10 5 16 4 -6 -13 11 8
25 18 5 9 15 13 21 24
12 14 -14 -2 -7 17 7 2
12 2 -4 0 -26 -15 0 16
10 5 13 25 25 10 -8 19
13 13 19 25 26 -5 -4 -5
22 24 26 -2 21 -4 19 5
6 -16 21 -17 0 -17 5 3
-10 -10 -10 0 -16 -11 -22 -28
-14 9 11 -28 -5 -27 2 9
17 -2 -17 -11 -1 -13 -20 -8
12 -11 15 14 10 11 6 17
9 -13 15 0 10 21 -18 -12
-4 11 17 -6 -9 -5 15 -2
19 14 8 -17 14 5 -9 -19
6 -14 -4 -9 14 16 -9 -18
-1 -11 -14 -16 -10 -17 -4 13
-4 1 2 0 15 -10 -12 13
-22 -21 -9 15 13 -7 -5 -23
24 11 31 -6 -14 -1 21 -8
22 12 1 19 5 -13 13 21
-14 10 11 3 22 16 2 -3
-4 29 27 -14 -16 -11 5 -3
-10 -11 -11 -3 1 -7 17 13
-23 -2 12 9 14 -2 -11 -14
4 13 5 -10 -5 -8 3 -20
5 -1 -17 -6 -26 -26 8 -3
10 19 -7 7 15 5 13 1
-13 -5 -12 11 11 -15 -5 11
22 21 12 -15 -7 11 22 15
-10 -5 -17 -12 6 5 -4 13
18 8 16 24 26 -4 -6 -8
12 -2 -12 15 -4 -4 -25 -13
-2 -12 7 -17 16 8 -16 14
-5 -20 -10 18 16 5 -9 -30
15 8 8 -13 7 -21 2 -5
3 12 13 -10 -2 0 17 -13
-18 -9 7 -5 -9 -6 -15 6
6 -4 -6 8 -4 -16 -10 5
26 9 24 10 5 -16 16 27
-7 3 17 12 4 13 0 27
21 -12 -15 4 -4 2 7 16
-1 -2 -3 8 -8 7 -7 -11
-29 -33 -19 12 8 10 5 -4
-1 -15 -17 -8 -13 -3 -29 -8
-12 7 6 9 7 -1 9 -12
-3 -17 -14 4 -22 -16 13 -3
-16 11 -8 17 16 -7 -21 -17
2 -6 3 -13 -13 18 -11 -13
2 -2 -3 -12 -7 -16 24 -8
19 17 8 8 11 -4 -15 11
-20 -5 -20 11 20 0 -1 -6
-2 13 -17 -3 -3 16 -10 10
-12 -5 -22 13 -8 -13 -24 -8
16 19 2 11 -4 -13 -6 -7
15 28 20 -11 -16 -11 -2 24
-28 -17 -13 -29 -13 -26 -7 -9
18 23 18 -4 16 -15 -3 0
15 -19 15 13 19 9 -17 -16
-11 20 12 -12 -15 -5 -13 11
-13 17 24 26 -15 18 -13 20
15 4 -14 -11 17 -1 12 14
-10 16 19 -9 -1 -3 4 8
-25 -17 5 2 14 17 8 -18
10 -6 -10 12 31 -4 -17 4
-17 15 17 8 -15 4 -11 5
-9 -8 -7 27 28 -1 10 -10
9 10 -7 10 38 25 -3 0
-14 -15 16 -12 -1 -20 24 13
-2 0 21 -18 -22 -16 18 -5
6 21 21 -11 -4 -13 18 17
-11 12 4 7 -15 -23 9 -1
-3 4 1 -11 24 -1 -1 -13
8 18 24 11 2 5 5 22
-25 -1 -11 -22 -3 -8 6 0
10 9 9 -11 -29 -21 29 31
-13 18 -8 -7 -13 -21 18 15
-9 20 -6 11 -20 9 3 18
-3 6 -28 -7 -14 -9 -5 -27
1 14 1 13 17 5 5 5
-17 0 -19 25 -2 11 -24 -23
7 12 -10 -9 0 0 3 10
-24 -21 -26 30 3 27 -24 -29
23 4 26 28 17 17 17 -2
5 -25 -24 8 -10 -19 -11 -4
-18 -12 -4 9 15 -5 1 -10
-10 22 -8 -24 1 -11 -9 5
5 0 15 3 12 13 6 19
8 -10 0 -19 1 2 15 -7
6 -13 -6 10 14 16 16 -12
9 15 11 8 13 -8 -8 -3
-9 -10 5 5 -10 -10 -6 -9
-10 6 -15 4 11 0 -15 -24
-7 -4 -4 24 -4 12 5 -14
14 7 9 15 8 -10 -10 0
-4 -5 14 -14 2 -13 -10 -11
-10 1 -18 17 0 16 -16 -2
19 2 9 -18 -3 20 -4 -16
12 14 23 -8 -30 -26 5 12
-15 -13 3 14 -10 11 -30 -33
1 -6 -2 9 4 -22 -24 -29
9 -9 4 14 18 -14 -19 -10
13 7 14 -12 -13 -15 -10 -15
6 16 -6 -8 -17 9 10 6
8 -11 7 -13 -10 -7 0 16
0 9 8 17 4 -6 -10 8
-14 10 7 24 28 32 -3 -6
14 -13 -13 -17 -5 4 13 -5
22 23 17 -9 8 8 -7 6
-18 4 -14 15 20 21 -22 -33
1 30 17 38 2 18 18 32
-6 -29 -23 -29 -19 -13 -11 -25
-19 3 -32 6 27 29 4 -31
12 4 1 1 -7 -15 1 -22
22 -4 28 3 -9 -11 24 13
-3 -6 -23 -9 7 11 -28 -4
9 -9 -24 -9 -30 11 -16 -6
6 14 3 -12 -19 -20 3 -6
5 -14 -9 -29 5 -13 14 14
-24 -15 0 -5 -22 -18 -8 -10
10 0 11 -2 21 4 3 24
11 -14 4 11 -3 7 -2 7
-12 -18 17 13 -4 0 10 -7
7 -4 6 -21 12 0 8 20
18 11 13 10 -20 -24 23 0
-18 1 -23 -13 11 20 0 -15
-13 0 5 -8 13 17 19 6
0 -18 -5 -8 0 0 5 13
-21 -24 -14 16 17 25 -23 -23
-21 -13 -6 5 -15 -7 -15 -9
19 -7 -9 -23 -11 12 0 15
3 -9 -7 -14 -2 6 -28 -25
