-28 -17 2 21 35 7 -21 -16
-10 -19 0 52 67 63 45 47
27 7 21 -26 -13 -6 20 12
8 0 -8 -11 -15 -16 -9 -9
-14 4 -16 29 16 33 -21 -12
-18 -17 8 -38 -40 -32 9 18
9 10 -22 -6 -22 -2 3 -3
-20 -4 4 28 20 26 -11 -9
6 7 5 6 11 7 19 6
12 -19 0 1 -5 -19 4 23
-14 6 5 21 22 21 14 6
1 -2 -26 19 14 -1 28 28
12 13 17 16 9 8 17 -2
2 -15 13 13 11 26 13 13
1 13 4 21 38 14 58 52
-15 1 10 -39 -16 -19 38 10
4 -26 -21 34 51 46 -30 -30
-36 -8 -23 13 29 14 13 21
14 18 -7 -48 -40 -50 41 39
9 -16 12 -19 0 -11 -9 12
-9 14 13 51 31 26 -23 -10
-8 -12 -1 -30 -45 -64 40 25
-19 -11 -12 12 1 -3 -3 2
-9 17 3 19 31 4 -26 2
-1 -2 7 -10 8 -15 -19 -33
-18 12 9 -16 -6 -11 22 38
-1 0 3 32 24 11 -22 -41
-8 -6 3 -26 -1 -3 45 81
10 12 25 21 43 11 -29 -22
9 -8 12 4 15 9 -24 -11
-12 4 -6 20 54 46 48 24
-2 5 -7 -41 -50 -56 63 62
-6 14 -17 9 8 -3 -25 7
0 -14 -15 -24 -2 -6 -8 -12
18 26 3 4 -27 -5 -1 11
-9 11 -11 5 9 10 4 -27
-9 -24 4 12 21 5 17 -15
-1 -18 11 -47 -43 -32 6 12
18 2 10 -4 12 -16 -15 8
17 2 -4 5 0 -15 20 4
-10 0 1 -20 -37 -21 -50 -51
11 7 -1 10 -22 -16 -1 -12
-9 -22 -14 -10 22 13 -15 -45
1 -19 0 -17 -30 -33 26 12
7 -1 16 0 -3 14 -23 -18
7 14 13 15 18 6 -19 -19
9 5 -8 35 19 12 5 -5
-11 -13 1 -21 -38 -3 -1 37
-13 -20 -11 46 36 20 -21 -20
7 -2 -17 19 41 21 33 23
-11 4 5 -40 -35 -45 32 20
-1 12 5 -18 -23 -13 14 14
-14 16 -7 7 31 16 -11 -35
0 7 2 -24 5 -17 17 43
-11 -5 -21 -4 -9 1 15 20
-5 -4 -8 23 43 32 -20 -32
-11 4 -17 10 36 40 25 19
-1 2 -6 -20 -36 -8 16 31
15 14 6 31 19 15 13 11
2 -2 5 -4 17 -3 47 45
3 0 0 20 1 14 -27 -21
-1 6 -4 23 13 -1 -28 -5
-2 1 7 31 -8 18 50 56
-4 5 0 -38 -58 -52 48 48
-2 9 -10 66 38 62 -15 -17
-9 1 -19 -1 -8 0 26 18
11 6 14 -84 -80 -74 20 15
2 -4 -9 11 -3 14 4 9
16 -8 18 55 30 25 -20 -31
-7 -4 -16 -12 -24 -32 30 56
-6 17 3 -21 7 -9 22 19
1 6 -10 22 -8 15 -11 -28
5 -7 13 11 26 -2 19 6
15 11 -15 -37 -27 -14 30 31
-22 2 14 54 58 52 -28 -10
-13 -2 4 -30 -13 -6 43 85
11 11 -1 39 34 35 -50 -45
-3 2 -6 2 30 3 -14 -13
-1 9 -22 13 47 39 4 3
10 -9 9 -45 -70 -67 48 56
13 -5 0 36 22 37 -8 -19
1 8 10 -59 -45 -52 -8 -18
-14 -16 19 -28 -21 -47 12 6
1 -3 16 -2 5 -8 -5 -21
-17 0 3 25 23 26 -12 -17
-7 -1 -2 -9 -18 -26 36 40
1 -10 18 21 -11 -4 14 18
14 -14 0 -22 -16 -28 3 25
-12 -9 -19 -13 -21 -29 -26 -47
-21 -10 0 -23 -3 -8 3 -16
1 -24 -8 23 10 4 -29 -40
8 -6 -16 -29 -59 -24 54 65
-17 4 -12 13 28 21 -38 -37
-7 11 7 25 24 -8 -38 -46
12 7 13 14 41 20 16 1
22 -17 -8 -37 -19 -31 30 47
-20 -14 -7 4 41 19 -7 -3
-12 6 -7 53 39 41 36 47
25 -12 10 -29 -15 -28 -6 15
18 -12 -4 -1 13 -17 10 8
3 0 -14 28 37 23 -13 4
-6 -17 -18 1 23 31 15 20
-24 -14 11 8 -3 -16 4 -7
7 12 5 27 12 32 -28 -23
-11 11 17 34 38 50 38 49
6 -7 -10 -18 -23 -7 22 10
12 -18 -10 19 29 14 -10 16
-7 -25 -13 6 10 26 31 12
2 17 1 -6 12 3 -27 -20
7 -18 -10 8 17 0 -21 -9
18 -14 15 -46 -26 -46 -34 -31
-11 8 -4 -36 -38 -37 22 41
8 -4 -1 34 17 36 2 -15
-12 10 7 -24 -3 -1 -15 -28
-3 -11 -15 -58 -59 -64 -21 -13
-8 -14 -9 -12 -6 8 7 19
-4 6 -4 39 17 21 -17 -18
8 -10 -19 20 -2 14 41 47
5 13 -17 4 1 -10 35 13
-11 -8 13 -21 -24 6 -10 16
-9 -19 -1 27 32 26 20 7
-4 -8 9 -11 -26 1 6 28
-6 -7 -2 17 31 43 -32 -27
2 -7 -7 -20 -41 0 81 85
3 3 3 27 30 16 -30 -48
-17 18 -13 20 -4 28 -17 -28
-6 -7 -5 6 -16 -30 -10 -18
-12 4 7 -39 -46 -49 39 54
4 -10 1 13 19 -9 -3 3
26 -9 -1 -62 -76 -53 -28 -12
-1 20 -4 -31 -26 -7 -18 -17
10 13 8 0 13 -2 2 6
-6 12 -22 -10 7 14 -9 -16
0 14 3 -8 16 16 38 47
-17 8 0 -2 -5 12 5 9
23 14 19 -23 -37 -43 5 7
4 1 -10 12 7 -9 -30 -2
9 22 8 -8 -12 2 -10 -15
-11 -29 -6 17 27 25 -21 -58
-15 12 -3 -55 -58 -37 25 38
-22 -30 5 14 23 -20 -11 -27
17 -8 -8 -2 19 2 -18 -34
-19 3 3 -7 -30 -17 -52 -35
6 -6 -5 -1 -47 -23 28 28
