-6 -4 -15 -8 -3 7 1 -11 -7 0 -7 2 -12 -1 15 -1
-13 7 -13 23 0 7 -7 -4 -9 -9 -2 8 -14 -6 -1 8
-19 17 -12 -18 -12 16 -8 -15 -8 5 -9 -10 -8 2 16 -2
7 -12 -14 22 -23 -20 20 -14 -13 -10 -12 27 -5 -7 4 -8
5 7 -5 -2 -4 -4 7 11 6 1 -17 3 -9 -11 -14 11
-2 4 -2 10 -11 3 5 0 -5 5 -1 -6 14 12 0 8
-7 2 -16 -1 2 19 -4 17 12 -3 9 -9 -12 -22 12 11
3 3 1 -10 -7 13 -23 27 -3 -16 -5 -16 8 18 -7 26
-9 0 1 5 5 -17 7 -12 4 13 -13 3 -5 14 0 7
11 -2 11 -12 10 -3 -10 3 6 -7 15 2 13 -3 -14 6
1 -20 -7 2 -22 -2 2 8 -15 9 6 18 7 -13 -5 4
7 -1 1 -1 -6 11 9 20 -14 3 -2 39 -4 -18 0 7
0 -4 -10 -22 -9 5 17 3 7 7 14 -6 -19 9 3 3
-4 -1 20 -14 11 -5 -6 1 19 18 -11 10 3 23 -13 14
-20 -5 -6 3 -2 -16 9 8 0 -7 -17 19 -3 26 -21 0
-10 10 4 -1 8 -2 -1 14 15 -8 -15 18 -4 9 7 -2
-6 6 1 -4 -18 19 -1 14 -2 5 -5 14 -19 -18 11 12
-28 11 -16 24 -19 -21 -1 -27 3 -4 -13 17 -11 -6 11 9
-12 0 -6 2 -4 -4 1 2 -9 -2 3 4 -11 24 -3 -4
-10 -19 -11 4 -32 -6 12 -24 23 -13 -2 40 -4 5 10 4
-9 -7 12 -14 15 3 12 1 -4 -7 3 15 3 -6 8 12
6 0 -12 -16 -14 8 4 -20 -1 5 11 -8 17 21 -2 -12
-12 -14 -12 -11 4 18 3 20 -33 -27 1 -9 14 -43 8 13
-6 -10 8 1 -5 34 5 42 -24 -8 -2 6 -10 18 10 27
-8 6 5 -13 11 -9 6 15 -12 -14 3 -2 -3 10 11 22
-8 -10 -5 4 4 4 0 0 13 -4 -5 4 -13 1 -8 12
4 -4 12 -1 -20 21 10 16 -5 -5 14 9 7 -17 -7 6
-12 -12 -8 -13 -10 7 9 26 -10 4 2 2 -1 -3 6 -3
-4 0 -7 3 -11 -13 -1 -6 -5 -9 4 -6 -12 3 -13 8
-8 -2 16 1 -7 -42 -10 -25 16 -9 -10 9 2 -15 -16 0
6 -11 3 -3 5 -17 -4 -56 33 5 13 -4 12 34 -46 -3
4 15 -1 -20 -5 13 12 -13 -39 -1 10 18 -12 -16 7 1
-13 8 -20 -8 2 4 -18 14 -4 -8 2 17 -9 3 37 5
-2 -9 -19 2 -21 -9 -4 -21 31 -6 -17 35 -26 -54 -1 -12
-2 10 -4 11 -16 -2 0 -26 5 14 -17 9 -7 22 2 1
-12 2 6 9 0 31 5 -4 34 -25 -4 -9 6 44 16 4
2 0 12 -14 28 -1 -15 -7 19 2 -15 3 21 32 -20 4
0 12 4 -6 5 -10 3 -16 9 13 7 -11 5 28 -1 3
-12 -16 -16 -8 -4 17 3 9 -2 -18 -9 -55 0 32 -13 -12
-12 -8 -23 0 8 13 1 16 15 -9 -5 1 -12 18 19 22
0 8 0 -13 -9 -2 -27 7 -34 -19 -8 -3 3 -28 -1 17
-32 10 -13 -2 1 -4 -10 8 5 -9 -14 9 -11 -11 16 13
-4 0 -5 -8 -12 -9 -1 7 -2 3 15 17 -2 -37 8 8
-15 3 -17 -14 5 -1 5 7 -24 5 -3 -2 -3 2 -4 7
-1 3 4 2 5 -2 -4 10 -3 -16 -6 -16 -10 6 -22 9
-5 -7 0 6 -4 -25 25 -42 -2 -3 -19 4 -13 -35 4 -14
6 -4 -21 22 -6 -11 -9 -19 27 7 5 33 10 -7 -35 0
-9 21 -3 -7 1 2 4 1 -28 -9 -3 -10 0 -14 9 -2
-13 10 -3 -21 -19 11 14 16 -5 -23 -5 -27 6 7 9 -13
-18 -14 15 0 -3 6 6 13 -4 -22 9 2 -3 12 -10 1
10 -19 14 -18 -18 2 7 4 11 -22 -10 20 11 -19 -4 1
-12 8 -9 21 -13 -13 3 -43 8 16 -8 50 -15 -1 -26 -3
10 -7 -6 26 -2 -5 12 26 -33 -21 -6 23 -2 -6 3 0
-1 -10 10 -10 0 -3 -2 -18 7 -1 6 -3 2 -2 6 -6
7 14 8 5 4 28 -3 15 -9 -5 8 12 20 -37 0 10
-5 -5 -10 -14 -2 -13 6 1 13 -12 -3 -9 17 7 -19 18
-15 15 -5 -14 -10 0 4 -7 5 -6 -18 5 -6 14 5 0
21 -7 23 0 1 0 15 11 16 1 20 -23 17 21 -12 -16
15 -1 -5 2 -12 -5 7 -18 17 24 7 -6 -2 13 -2 7
-6 7 12 -8 8 9 20 -4 15 9 -22 67 17 -15 -6 -3
-3 1 -7 -23 -3 -7 18 -14 16 14 -15 -10 -23 4 -2 -1
19 -11 14 -14 18 1 6 -3 17 10 5 -4 13 8 7 14
-6 8 -26 8 7 -22 -3 -4 11 -18 -14 -10 -12 28 -9 4
12 -2 1 2 15 -6 -10 2 3 13 10 26 5 19 -8 11
11 -19 -14 -8 -15 26 20 4 -8 -7 15 -36 -7 37 2 -32
-13 -22 9 -5 -7 12 13 11 27 -27 -17 0 -5 47 -17 21
15 -5 6 -14 -3 -16 -10 3 -8 -17 1 21 12 12 0 4
-14 13 -13 41 -11 -36 18 -47 47 14 -8 96 -15 6 -5 38
-15 -7 -7 11 -2 0 12 5 -21 -11 -13 29 -9 -33 12 7
9 19 -2 -19 -9 7 -14 -6 40 3 6 -15 4 6 16 0
19 10 -14 -19 -8 5 20 16 -14 -17 -3 -27 22 -33 23 -26
7 -9 16 7 9 -15 12 -4 30 9 -7 -17 14 -30 -9 2
12 -2 -9 -23 10 21 3 8 2 -26 5 -21 3 37 23 3
7 -9 6 3 -3 1 3 -11 33 16 -3 12 3 72 -24 -11
38 -1 -2 -16 -22 -4 19 -22 40 22 4 -35 -6 45 6 -19
8 15 9 -21 -2 3 -16 -3 -4 5 -20 13 -3 -6 -11 -2
-7 0 -17 3 3 -27 12 -25 9 14 -20 3 -33 -18 4 6
-1 -6 5 -15 9 -6 -2 -15 0 -2 6 6 10 -25 7 -8
23 18 -14 9 6 -55 -20 -62 -7 -26 14 -25 4 68 -46 -9
-4 13 23 6 -16 8 6 -1 -37 8 -11 57 -4 -42 10 9
-3 -18 8 -5 -11 12 6 12 -16 -12 8 -21 0 14 0 -9
17 -6 1 -3 -6 -19 9 -22 36 -15 -6 8 14 9 -20 -6
11 2 -15 0 -9 -9 1 -32 -8 7 -10 -5 8 33 -4 -3
-23 18 24 -10 5 5 8 -5 37 -31 -18 16 16 59 2 -6
8 -20 -1 -1 -2 16 -9 -4 -2 -10 -9 16 23 8 -19 4
3 27 -13 2 -9 1 -16 -11 10 4 -6 -19 -1 6 19 0
5 11 -7 -8 8 9 9 -14 1 5 15 -117 -4 89 -20 -38
1 -8 -13 3 9 3 14 -3 2 24 7 -35 3 -2 -12 -3
20 6 -5 -30 -11 3 -4 12 -18 -10 -1 -37 5 -9 -14 -1
-23 12 -1 14 -2 1 -7 3 17 -10 -2 27 -16 17 -16 8
10 3 -7 10 12 -20 5 -16 33 30 17 -16 7 18 21 3
-16 10 -23 -22 -6 -5 -16 6 6 -9 3 11 -10 -2 -1 28
-12 13 -7 -12 -8 -14 -4 0 12 -13 -14 -4 -21 8 -2 -1
-10 -1 3 3 5 -17 11 -26 -15 -5 -6 -6 -8 -25 18 -16
11 28 -9 8 -2 -23 -9 -29 -2 -14 11 36 -3 -31 -29 -8
-3 -4 19 3 -16 1 2 18 -43 -5 -14 34 10 -36 14 9
3 -4 14 -15 9 20 -3 2 8 -15 -11 -5 15 9 6 -3
5 5 11 -2 -1 27 1 12 1 -32 1 11 20 14 10 9
-3 16 3 -21 -7 -36 18 -30 6 8 -20 24 -6 -13 -25 0
-12 -4 22 30 2 3 -21 -8 15 6 21 23 2 4 -21 -11
-12 4 1 12 -31 35 16 32 -27 -11 8 -20 -5 -12 10 16
-8 2 -6 -15 -15 -5 15 -7 4 15 -5 1 -1 -26 -4 7
-12 31 -11 19 1 -35 3 -51 8 40 -7 -5 1 -32 -17 -6
3 4 -17 -7 4 -14 4 -28 1 17 -6 -24 12 17 -23 -8
-2 3 -8 -15 6 -4 -8 -31 -1 7 -15 9 -16 24 8 4
26 4 17 -3 1 -11 9 -8 16 1 10 -15 13 -4 -9 -10
-2 0 -6 17 -6 -10 -15 -9 36 17 1 -6 -5 23 0 16
6 -7 15 -21 8 -5 2 -1 20 13 -8 39 16 11 -14 4
-21 -16 -14 -17 -12 5 11 -8 -1 8 8 -7 -17 -9 -4 6
20 -7 6 -24 6 -3 27 -4 6 -10 5 -18 2 3 -1 2
-14 7 1 -1 3 -3 0 -9 -4 -6 -3 -6 -12 -2 1 -6
3 28 2 7 6 -13 -17 -24 21 11 -4 14 15 21 -16 7
1 -19 17 -2 -19 34 6 4 -11 -16 12 -26 7 8 -9 -12
15 -23 7 -6 5 22 17 21 8 -41 9 -14 21 29 -9 17
10 6 -2 -2 -2 -53 22 -35 1 -4 -9 23 -2 -17 -9 5
-8 4 14 22 3 -16 4 -38 44 17 0 58 18 6 14 4
-16 -5 -2 1 -23 6 -2 -8 -21 -14 10 24 -12 -35 6 5
-15 1 2 3 3 -4 7 -3 -18 4 -11 -7 3 -22 10 11
5 4 -15 -22 15 -52 14 -44 -9 23 -9 -6 -1 -39 9 -23
22 10 5 -19 -13 -23 2 -60 16 26 -13 -38 -15 8 -4 -20
24 1 -6 -31 -1 -16 -9 -10 13 -1 7 -29 -9 26 29 -17
25 4 -1 13 -7 -9 -1 -21 47 12 16 -10 3 54 -15 -4
10 -4 2 -4 3 -5 -1 -10 34 1 -8 -23 -15 39 10 0
-3 3 7 -15 11 8 2 7 12 1 -1 3 4 18 -32 8
1 -22 -20 -15 -7 -20 8 -17 9 12 5 -6 -15 -19 7 6
-1 -28 -12 -10 -3 8 24 3 9 -17 10 -29 -2 4 1 -1
-4 5 7 4 -9 -24 -1 -11 -37 -26 9 -4 5 18 -16 5
-1 7 -3 24 13 -32 -5 -36 30 15 -12 48 11 -4 -3 -11
-6 -20 9 -17 -3 16 12 1 -25 -8 8 -32 1 20 -18 -11
44 4 9 -2 2 9 -5 6 28 -3 8 -20 23 35 -16 -5
9 7 -21 9 2 -34 22 -24 10 1 -9 23 -9 34 -2 -7
-2 -1 26 -17 19 12 -2 -10 34 -2 11 -11 24 40 28 -6
20 -12 -4 -2 0 0 15 -5 10 -8 -13 28 -1 -7 -9 5
-12 7 -20 7 -11 -6 22 -19 4 3 -4 -8 9 -35 22 0
-23 8 -13 4 2 -32 -5 -33 13 13 7 -59 -6 35 -5 -14
7 0 3 -4 7 -20 8 -43 22 19 -8 -26 -21 -2 -12 -4
25 -12 -2 -15 11 -20 -26 -6 -1 21 19 -39 18 3 -11 -5
0 3 1 6 -11 -1 5 -12 26 -3 2 6 -14 4 -9 9
-16 14 15 14 21 -12 -11 6 27 -4 -3 -24 -10 6 14 -7
-6 5 -8 -27 4 9 -2 26 -38 -18 -15 -5 -13 1 -5 22
-22 -24 -6 -30 -3 -5 -3 10 3 -17 -18 -33 -24 -8 -3 0
-16 -16 3 5 -1 0 23 16 -13 -8 8 -11 -10 -5 6 13
-13 28 -15 18 -18 -15 -4 -18 -27 4 18 35 -8 -35 3 0
16 7 -10 18 -2 -21 -10 -5 24 -2 -12 43 -3 -34 10 2
