-2 1 -15 -2 19 -16 5 40 5 -7 5 -5 -25 13 -17 13 -4 23 -14 14 16 -30 41 -4 33 25 1 -25 0 0 0 0
-4 23 -3 24 28 41 29 0 -26 -15 20 -26 -22 3 -11 -7 34 4 0 -13 10 3 -2 -48 8 41 -71 -21 0 0 0 0
10 -9 11 3 0 4 2 8 -23 14 -11 11 -11 -2 12 -13 6 10 2 -4 -9 -18 0 16 5 30 63 -37 0 0 0 0
-13 12 -11 -34 8 -14 22 14 26 22 -7 15 11 -4 -26 1 17 -33 15 -13 -8 -20 -3 -26 9 13 117 -13 0 0 0 0
-28 -6 -15 -17 -12 -5 -51 9 -12 7 -10 15 11 7 -14 5 -11 -12 6 -3 18 7 37 -31 12 20 -27 -37 0 0 0 0
0 0 0 0 0 0 0 0 0 0 0 0 0 0 0 0 0 0 0 0 0 0 0 0 0 0 0 0 0 0 0 0
0 0 0 0 0 0 0 0 0 0 0 0 0 0 0 0 0 0 0 0 0 0 0 0 0 0 0 0 0 0 0 0
0 0 0 0 0 0 0 0 0 0 0 0 0 0 0 0 0 0 0 0 0 0 0 0 0 0 0 0 0 0 0 0
-15 29 -13 16 9 -30 -19 12 27 -21 -11 -7 -29 10 -11 15 21 -16 -26 39 -33 -48 -8 4 0 -32 -41 -13 0 0 0 0
-9 35 9 31 33 27 9 -9 -39 -43 9 -3 -23 18 -5 -23 54 -16 -11 6 16 -15 12 -18 -11 15 35 -54 0 0 0 0
-19 -14 -12 -10 5 -11 12 33 2 -21 8 -10 -30 22 -14 -12 7 32 -29 36 14 -22 28 39 2 17 71 1 0 0 0 0
-18 15 -1 52 40 12 17 4 -28 -22 -5 -6 5 16 -8 -27 40 -22 3 -11 9 -7 9 -16 -15 6 45 3 0 0 0 0
-67 4 -22 3 2 -26 -63 -16 2 -3 -62 8 14 -2 1 11 -21 7 14 4 -9 -5 31 -15 17 40 103 -37 0 0 0 0
0 0 0 0 0 0 0 0 0 0 0 0 0 0 0 0 0 0 0 0 0 0 0 0 0 0 0 0 0 0 0 0
0 0 0 0 0 0 0 0 0 0 0 0 0 0 0 0 0 0 0 0 0 0 0 0 0 0 0 0 0 0 0 0
0 0 0 0 0 0 0 0 0 0 0 0 0 0 0 0 0 0 0 0 0 0 0 0 0 0 0 0 0 0 0 0
-20 26 -23 -3 12 -28 2 7 22 9 -9 -28 -14 17 13 -1 -9 -3 2 51 6 -14 32 6 14 21 26 19 0 0 0 0
-27 -9 -4 63 25 16 -7 0 -41 -1 -12 5 -15 -41 5 -30 26 0 23 16 -21 19 18 -21 7 -6 -35 -2 0 0 0 0
-13 14 -13 -13 8 -23 5 5 28 -30 14 -14 8 18 -39 13 8 23 -12 1 8 -12 17 -8 -9 10 57 10 0 0 0 0
1 -21 1 82 37 22 -2 18 -22 -32 4 -12 21 -36 26 -36 39 -39 -20 10 1 18 11 -12 15 7 27 -13 0 0 0 0
-61 9 -12 -6 7 6 -68 -17 -3 22 -53 -4 23 18 3 3 10 17 -3 -2 -6 5 -1 8 2 -20 15 -75 0 0 0 0
0 0 0 0 0 0 0 0 0 0 0 0 0 0 0 0 0 0 0 0 0 0 0 0 0 0 0 0 0 0 0 0
0 0 0 0 0 0 0 0 0 0 0 0 0 0 0 0 0 0 0 0 0 0 0 0 0 0 0 0 0 0 0 0
0 0 0 0 0 0 0 0 0 0 0 0 0 0 0 0 0 0 0 0 0 0 0 0 0 0 0 0 0 0 0 0
-4 -11 -50 23 -8 -23 24 42 33 -16 28 12 -14 9 9 -28 15 40 21 25 -19 -23 -3 -1 -38 -19 -63 12 0 0 0 0
-23 1 24 43 3 23 -23 -33 -24 -31 11 -27 -25 -32 -19 -9 16 19 30 13 18 16 15 -5 -5 3 89 -20 0 0 0 0
-5 27 17 5 6 -2 5 -12 11 8 -10 -11 26 -7 -8 1 -6 3 27 -46 -20 1 20 -27 -3 15 39 -2 0 0 0 0
-6 -24 -7 5 9 -6 0 29 30 -1 13 17 24 -63 13 -9 20 -42 -11 7 -6 7 25 -17 25 -14 17 -19 0 0 0 0
-21 -1 13 -1 -8 -3 -21 8 -3 13 3 3 17 10 -6 1 10 -12 -19 -5 -12 -9 -8 -14 -18 -2 -28 -56 0 0 0 0
0 0 0 0 0 0 0 0 0 0 0 0 0 0 0 0 0 0 0 0 0 0 0 0 0 0 0 0 0 0 0 0
0 0 0 0 0 0 0 0 0 0 0 0 0 0 0 0 0 0 0 0 0 0 0 0 0 0 0 0 0 0 0 0
0 0 0 0 0 0 0 0 0 0 0 0 0 0 0 0 0 0 0 0 0 0 0 0 0 0 0 0 0 0 0 0
-26 31 -19 -7 -12 -9 -19 27 -2 8 20 -11 -19 -5 -7 17 0 20 -32 19 -29 -17 12 11 -8 -13 1 8 0 0 0 0
-15 26 6 49 5 14 12 -13 -45 -20 7 -25 -23 21 -17 1 9 26 -3 2 16 -22 -1 -5 -10 -11 60 -22 0 0 0 0
-8 -9 -27 -17 -1 -10 0 19 -6 -15 5 3 -9 21 -7 18 40 16 -17 34 -13 -24 -9 13 22 14 20 -31 0 0 0 0
2 22 -6 37 37 12 26 10 -30 4 -18 -4 7 0 5 -46 35 -31 19 2 -8 -4 -1 -28 -10 8 114 -11 0 0 0 0
-44 15 -6 -21 -16 -13 -91 3 23 -6 -61 -24 6 22 -2 -7 -13 -5 19 -21 17 -10 15 18 -8 52 57 -45 0 0 0 0
0 0 0 0 0 0 0 0 0 0 0 0 0 0 0 0 0 0 0 0 0 0 0 0 0 0 0 0 0 0 0 0
0 0 0 0 0 0 0 0 0 0 0 0 0 0 0 0 0 0 0 0 0 0 0 0 0 0 0 0 0 0 0 0
0 0 0 0 0 0 0 0 0 0 0 0 0 0 0 0 0 0 0 0 0 0 0 0 0 0 0 0 0 0 0 0
-20 -5 -27 6 19 -1 3 38 -4 -29 19 -19 -14 -10 -9 -10 9 42 -22 28 3 8 20 -10 27 -20 -37 -30 0 0 0 0
-7 -6 -9 41 14 0 -4 -24 -46 -31 -11 3 -12 20 11 -24 29 -15 31 -15 2 -19 24 -13 -26 26 -94 -25 0 0 0 0
-22 25 -63 -10 3 -35 -1 52 12 -14 9 -33 -40 30 -25 -1 42 61 -57 75 7 -43 21 17 13 -29 6 -20 0 0 0 0
-9 31 -14 92 92 43 21 -10 -81 -36 -9 -47 19 3 33 -57 55 -24 6 -4 -8 -22 -18 -52 5 9 80 -15 0 0 0 0
-84 1 -2 -6 6 -6 -93 8 8 -1 -94 -18 21 17 -11 1 -8 45 27 1 21 -7 23 14 32 24 55 -62 0 0 0 0
0 0 0 0 0 0 0 0 0 0 0 0 0 0 0 0 0 0 0 0 0 0 0 0 0 0 0 0 0 0 0 0
0 0 0 0 0 0 0 0 0 0 0 0 0 0 0 0 0 0 0 0 0 0 0 0 0 0 0 0 0 0 0 0
0 0 0 0 0 0 0 0 0 0 0 0 0 0 0 0 0 0 0 0 0 0 0 0 0 0 0 0 0 0 0 0
14 -16 -33 21 8 -23 -31 20 -5 -13 21 -1 -40 -2 14 -10 38 12 -3 44 -6 -7 13 -33 16 -28 -13 15 0 0 0 0
0 17 -17 21 56 43 31 -29 -37 -7 -25 -27 -12 -26 4 -10 52 -24 24 -2 3 4 48 -27 32 41 77 -11 0 0 0 0
-4 44 -53 14 13 -52 4 38 27 -23 -1 -52 -29 6 -29 0 -7 67 -55 52 -2 -12 53 2 -26 -24 20 -13 0 0 0 0
3 23 -2 110 99 38 -1 -11 -70 -73 3 -37 18 -37 31 -49 46 -14 -25 -17 -16 -6 -12 -17 29 -10 13 -26 0 0 0 0
-93 -1 -13 6 7 0 -92 -19 -10 17 -97 2 34 9 3 13 4 41 19 8 -2 15 44 -10 20 27 60 -51 0 0 0 0
0 0 0 0 0 0 0 0 0 0 0 0 0 0 0 0 0 0 0 0 0 0 0 0 0 0 0 0 0 0 0 0
0 0 0 0 0 0 0 0 0 0 0 0 0 0 0 0 0 0 0 0 0 0 0 0 0 0 0 0 0 0 0 0
0 0 0 0 0 0 0 0 0 0 0 0 0 0 0 0 0 0 0 0 0 0 0 0 0 0 0 0 0 0 0 0
-5 -1 2 9 -3 -1 -13 18 26 4 12 8 -42 18 8 26 15 1 9 20 6 -27 -4 -20 25 9 -39 -8 0 0 0 0
5 17 13 55 13 22 -13 -9 0 -27 -4 -21 -29 -44 -33 21 26 -7 -10 -12 -14 -5 1 -39 -25 -10 -21 1 0 0 0 0
-12 25 -12 9 5 -25 17 14 14 -25 -10 -25 -1 2 -4 13 -11 20 -19 -2 -31 3 44 -6 -13 -17 35 -20 0 0 0 0
-2 7 2 45 41 15 11 1 -17 -31 0 5 17 -36 7 -38 27 -29 -14 -6 -19 13 2 2 18 -20 42 -33 0 0 0 0
-61 -5 -14 -22 3 -17 -89 -23 -4 -3 -47 2 22 6 14 19 18 13 -3 -16 46 6 14 15 -4 32 20 -58 0 0 0 0
0 0 0 0 0 0 0 0 0 0 0 0 0 0 0 0 0 0 0 0 0 0 0 0 0 0 0 0 0 0 0 0
0 0 0 0 0 0 0 0 0 0 0 0 0 0 0 0 0 0 0 0 0 0 0 0 0 0 0 0 0 0 0 0
0 0 0 0 0 0 0 0 0 0 0 0 0 0 0 0 0 0 0 0 0 0 0 0 0 0 0 0 0 0 0 0
9 28 -46 5 -18 -9 9 6 -10 -20 -26 -8 0 7 4 25 39 4 -25 21 19 1 49 -3 46 -13 -72 -12 0 0 0 0
-6 -7 5 25 14 28 26 -33 -30 -38 3 20 -49 15 36 -15 28 -9 17 7 -34 -2 19 -1 -18 18 77 -9 0 0 0 0
3 -8 -29 -17 -1 -5 -3 8 6 -4 14 0 9 9 7 13 26 23 -32 41 -18 -33 -10 -7 33 -26 -36 18 0 0 0 0
-7 21 3 20 23 16 -3 -33 -59 -13 14 -32 -3 60 2 -5 -30 35 5 8 -4 -8 -22 -10 -25 -2 62 -6 0 0 0 0
-37 -4 7 18 -3 3 -83 -14 18 -27 -66 -18 5 -5 11 10 30 27 22 0 4 23 17 6 -17 10 18 -30 0 0 0 0
0 0 0 0 0 0 0 0 0 0 0 0 0 0 0 0 0 0 0 0 0 0 0 0 0 0 0 0 0 0 0 0
0 0 0 0 0 0 0 0 0 0 0 0 0 0 0 0 0 0 0 0 0 0 0 0 0 0 0 0 0 0 0 0
0 0 0 0 0 0 0 0 0 0 0 0 0 0 0 0 0 0 0 0 0 0 0 0 0 0 0 0 0 0 0 0
22 10 -13 -10 12 -4 -4 9 -23 15 4 -8 -34 15 0 -7 13 0 -6 26 -24 -14 11 12 -31 -29 -22 7 0 0 0 0
18 -10 -36 29 20 11 11 -18 -16 -4 -29 -20 -21 11 25 -4 11 15 19 -13 25 16 7 -15 -11 -16 53 -1 0 0 0 0
10 36 -60 0 -1 -36 -15 27 8 -6 -2 -20 -13 3 10 29 48 35 -61 73 -12 -36 6 -7 14 -45 -54 -15 0 0 0 0
9 50 -8 75 67 38 -1 -47 -107 -37 7 -51 -7 54 19 -49 -5 25 20 2 -18 -1 -20 -20 -21 0 -24 -12 0 0 0 0
-94 10 6 -6 1 15 -128 -12 6 -30 -109 -24 37 9 10 5 13 44 42 -8 12 32 29 9 4 56 51 -31 0 0 0 0
0 0 0 0 0 0 0 0 0 0 0 0 0 0 0 0 0 0 0 0 0 0 0 0 0 0 0 0 0 0 0 0
0 0 0 0 0 0 0 0 0 0 0 0 0 0 0 0 0 0 0 0 0 0 0 0 0 0 0 0 0 0 0 0
0 0 0 0 0 0 0 0 0 0 0 0 0 0 0 0 0 0 0 0 0 0 0 0 0 0 0 0 0 0 0 0
-20 -6 -26 13 -11 -22 13 -4 -1 -13 13 -14 -43 9 20 -9 -1 -16 5 30 14 0 34 20 -11 -42 -70 0 0 0 0 0
7 7 7 45 45 2 -14 -10 -36 -38 -3 -25 -18 0 7 -15 37 2 -5 -7 -6 -7 26 16 19 16 29 -14 0 0 0 0
-6 47 -68 34 -5 -38 -3 40 4 -12 -18 -59 -49 -11 13 9 -7 35 -54 70 0 -10 35 6 -31 -40 0 -2 0 0 0 0
-2 41 13 106 50 44 -5 -36 -75 -86 -3 -24 -20 2 47 -56 24 35 -12 -10 -3 8 16 -7 0 -5 -64 -10 0 0 0 0
-47 1 -7 -9 2 -18 -85 -25 3 -15 -134 -30 49 18 18 -8 -2 43 14 0 20 15 32 45 -5 -3 44 -33 0 0 0 0
0 0 0 0 0 0 0 0 0 0 0 0 0 0 0 0 0 0 0 0 0 0 0 0 0 0 0 0 0 0 0 0
0 0 0 0 0 0 0 0 0 0 0 0 0 0 0 0 0 0 0 0 0 0 0 0 0 0 0 0 0 0 0 0
0 0 0 0 0 0 0 0 0 0 0 0 0 0 0 0 0 0 0 0 0 0 0 0 0 0 0 0 0 0 0 0
-7 2 -36 -7 -15 -20 -19 9 -12 -17 -18 -40 -18 -8 30 21 3 14 -19 14 -44 2 -10 -5 6 -1 -46 -9 0 0 0 0
11 1 10 56 56 22 21 6 -45 -14 -18 1 -20 0 13 -26 18 -12 0 1 15 -11 28 9 11 0 55 -27 0 0 0 0
-3 -6 -44 13 -8 -15 -1 8 -4 -16 4 -20 -25 -2 5 8 -12 17 -35 46 -22 -15 -3 5 -7 -12 -8 7 0 0 0 0
16 10 22 46 0 22 -11 -20 -22 -49 -16 -15 -12 13 27 -15 -4 38 -22 -4 4 1 1 -5 2 12 -38 -8 0 0 0 0
-36 -7 -27 -5 1 2 -67 -27 1 5 -90 -19 20 15 13 -7 20 35 -2 3 14 35 32 40 3 -28 -8 -30 0 0 0 0
0 0 0 0 0 0 0 0 0 0 0 0 0 0 0 0 0 0 0 0 0 0 0 0 0 0 0 0 0 0 0 0
0 0 0 0 0 0 0 0 0 0 0 0 0 0 0 0 0 0 0 0 0 0 0 0 0 0 0 0 0 0 0 0
0 0 0 0 0 0 0 0 0 0 0 0 0 0 0 0 0 0 0 0 0 0 0 0 0 0 0 0 0 0 0 0
-17 16 -44 6 3 -2 15 1 27 6 10 16 -16 7 23 -22 -5 5 -9 17 10 -32 -1 19 12 27 -4 -1 0 0 0 0
-11 8 12 54 8 8 -7 -28 -41 -28 -16 9 -14 17 14 -7 15 17 17 -14 -28 19 -5 -34 12 -23 -4 -28 0 0 0 0
14 -11 10 3 7 2 5 -4 -9 21 -2 8 16 -14 24 -20 -9 13 -6 1 -13 -24 6 1 16 -8 -14 23 0 0 0 0
-18 -14 -9 -15 -24 -9 -1 -11 -7 16 20 -4 -23 58 -8 19 -30 35 15 -9 -15 -8 -8 -18 -14 8 42 6 0 0 0 0
-24 -10 -2 20 -6 20 -30 -10 -17 -18 -18 15 26 -16 25 20 16 25 -2 16 -2 18 -2 -13 0 -19 3 -21 0 0 0 0
0 0 0 0 0 0 0 0 0 0 0 0 0 0 0 0 0 0 0 0 0 0 0 0 0 0 0 0 0 0 0 0
0 0 0 0 0 0 0 0 0 0 0 0 0 0 0 0 0 0 0 0 0 0 0 0 0 0 0 0 0 0 0 0
0 0 0 0 0 0 0 0 0 0 0 0 0 0 0 0 0 0 0 0 0 0 0 0 0 0 0 0 0 0 0 0
-3 29 -38 -1 -12 -29 -6 -4 -13 7 -2 -11 -44 7 30 20 11 -19 14 28 -4 -20 24 14 -31 -8 -59 15 0 0 0 0
0 17 -8 58 27 21 2 -8 -54 -24 4 5 -26 5 23 -45 18 15 -3 21 -50 19 -22 -41 -42 20 -72 29 0 0 0 0
25 -3 -16 1 -2 -7 -10 8 -4 -13 -5 6 -13 -5 19 24 17 13 -37 37 -5 -17 8 6 10 -4 -11 8 0 0 0 0
-7 16 5 47 28 -5 7 -34 -53 -30 4 0 -24 70 6 -26 -26 35 19 1 4 3 19 4 -38 -1 8 23 0 0 0 0
-28 -7 -20 11 -7 6 -65 -22 1 -18 -71 -8 22 -4 3 -2 13 4 31 -1 -6 29 6 -7 16 23 56 -27 0 0 0 0
0 0 0 0 0 0 0 0 0 0 0 0 0 0 0 0 0 0 0 0 0 0 0 0 0 0 0 0 0 0 0 0
0 0 0 0 0 0 0 0 0 0 0 0 0 0 0 0 0 0 0 0 0 0 0 0 0 0 0 0 0 0 0 0
0 0 0 0 0 0 0 0 0 0 0 0 0 0 0 0 0 0 0 0 0 0 0 0 0 0 0 0 0 0 0 0
8 10 -12 -7 -2 -23 7 28 2 -30 -21 -43 -42 33 -14 17 11 10 0 22 -36 -6 2 -6 -26 -16 -37 -9 0 0 0 0
-26 -19 -1 23 52 14 34 5 -11 -49 13 1 -38 5 7 -35 2 2 5 19 -31 3 27 -7 7 -15 33 16 0 0 0 0
-20 19 -31 8 -16 -2 -5 7 4 -16 1 -22 -20 -1 4 24 9 -5 -18 21 9 -12 -3 -8 -12 -2 -28 9 0 0 0 0
9 27 24 42 6 21 -17 -26 -21 -55 -9 -9 -3 11 28 -22 -12 18 -16 20 19 19 39 -1 -15 13 -94 0 0 0 0 0
-33 2 -6 -15 8 -20 -77 -23 11 -8 -85 -26 19 18 -7 -14 16 18 -1 -10 3 30 30 27 -6 -24 12 -43 0 0 0 0
0 0 0 0 0 0 0 0 0 0 0 0 0 0 0 0 0 0 0 0 0 0 0 0 0 0 0 0 0 0 0 0
0 0 0 0 0 0 0 0 0 0 0 0 0 0 0 0 0 0 0 0 0 0 0 0 0 0 0 0 0 0 0 0
0 0 0 0 0 0 0 0 0 0 0 0 0 0 0 0 0 0 0 0 0 0 0 0 0 0 0 0 0 0 0 0
24 33 -44 14 -14 -34 -16 19 12 -18 1 -34 -12 1 -22 -17 2 6 -22 19 -38 -29 6 22 -27 7 -40 2 0 0 0 0
21 12 10 8 58 30 13 6 -7 -29 -16 -23 -26 7 25 -36 6 31 25 -4 1 -14 -29 -6 -6 -42 -26 -7 0 0 0 0
4 -3 -9 8 -3 4 -10 -16 -5 19 2 -10 13 -12 3 -10 -13 -8 18 -2 -12 -14 -25 -9 -5 11 9 26 0 0 0 0
-3 0 15 -11 -42 9 -31 2 20 -12 8 -10 -10 -9 14 26 -12 27 -24 4 -2 5 11 -15 8 18 -56 -9 0 0 0 0
-18 15 11 7 -7 1 -32 -13 1 6 -51 -11 19 19 11 -5 0 12 -21 12 8 17 15 9 -33 -72 10 -29 0 0 0 0
0 0 0 0 0 0 0 0 0 0 0 0 0 0 0 0 0 0 0 0 0 0 0 0 0 0 0 0 0 0 0 0
0 0 0 0 0 0 0 0 0 0 0 0 0 0 0 0 0 0 0 0 0 0 0 0 0 0 0 0 0 0 0 0
0 0 0 0 0 0 0 0 0 0 0 0 0 0 0 0 0 0 0 0 0 0 0 0 0 0 0 0 0 0 0 0
