2 -15 6 -1 21 -6 -4 52 3 -12 22 12 -42 5 -30 -2 -12 1 3 -10 -8 6 2 1 12 3 5 15 0 0 0 0
6 34 -2 9 -11 24 23 -6 -32 -1 28 -46 -1 9 -8 19 32 15 -8 -16 8 3 6 -8 4 6 10 -6 0 0 0 0
7 1 -5 5 1 -6 15 24 -20 16 2 9 -10 -8 22 1 6 19 7 -8 -8 -48 -1 21 -8 -1 -16 -7 0 0 0 0
5 17 -30 -11 14 -6 25 12 18 23 3 2 5 -31 3 18 4 -12 4 -18 2 1 -10 -4 -13 -4 -4 -11 0 0 0 0
-35 6 -27 -17 4 -9 -18 19 -14 7 -6 20 -2 -8 -7 -11 -17 4 2 -3 40 118 63 -40 12 23 61 -75 0 0 0 0
0 0 0 0 0 0 0 0 0 0 0 0 0 0 0 0 0 0 0 0 0 0 0 0 0 0 0 0 0 0 0 0
0 0 0 0 0 0 0 0 0 0 0 0 0 0 0 0 0 0 0 0 0 0 0 0 0 0 0 0 0 0 0 0
0 0 0 0 0 0 0 0 0 0 0 0 0 0 0 0 0 0 0 0 0 0 0 0 0 0 0 0 0 0 0 0
-8 19 0 2 1 -9 -21 29 20 -26 2 0 -39 9 -34 22 0 -38 -12 18 -8 -25 6 4 -10 -15 -5 11 0 0 0 0
-4 40 20 8 -20 16 12 1 -37 -12 32 -12 2 0 5 3 59 -18 -18 5 -15 -5 17 1 1 -2 24 -33 0 0 0 0
-6 -24 -8 -15 13 1 24 47 -4 -13 20 12 -37 19 -17 -10 6 20 -34 25 10 -55 2 88 -10 -10 -6 -17 0 0 0 0
7 33 -14 69 25 23 28 8 -26 -3 14 -16 3 -24 6 -27 24 -7 -14 -14 15 -7 -34 -21 35 1 -66 -15 0 0 0 0
-66 12 -38 -9 14 -23 -50 -9 2 -2 -14 -9 -8 -9 3 -4 3 37 0 2 26 100 63 -29 -22 -22 68 -108 0 0 0 0
0 0 0 0 0 0 0 0 0 0 0 0 0 0 0 0 0 0 0 0 0 0 0 0 0 0 0 0 0 0 0 0
0 0 0 0 0 0 0 0 0 0 0 0 0 0 0 0 0 0 0 0 0 0 0 0 0 0 0 0 0 0 0 0
0 0 0 0 0 0 0 0 0 0 0 0 0 0 0 0 0 0 0 0 0 0 0 0 0 0 0 0 0 0 0 0
-5 10 0 3 2 -19 -4 26 17 1 15 -15 -35 10 -9 -7 -4 -32 12 29 3 -10 -2 0 1 -2 7 26 0 0 0 0
-15 -1 9 44 -22 11 -6 -2 -29 13 -4 4 -6 -26 -2 2 26 0 7 15 -13 5 4 2 -8 1 11 5 0 0 0 0
-12 3 -4 -14 0 -19 8 15 33 -20 24 -26 -6 28 -40 3 -3 8 -29 -9 17 31 4 3 16 -23 -7 -6 0 0 0 0
4 -3 -1 92 5 21 4 21 -21 -38 12 -9 9 -48 18 -53 40 -22 -18 11 22 -12 -22 -8 59 -10 -87 15 0 0 0 0
-75 6 -33 6 32 -6 -38 -6 -5 12 -7 -6 -9 6 1 -9 36 31 0 -14 -2 126 78 -42 -8 71 62 -93 0 0 0 0
0 0 0 0 0 0 0 0 0 0 0 0 0 0 0 0 0 0 0 0 0 0 0 0 0 0 0 0 0 0 0 0
0 0 0 0 0 0 0 0 0 0 0 0 0 0 0 0 0 0 0 0 0 0 0 0 0 0 0 0 0 0 0 0
0 0 0 0 0 0 0 0 0 0 0 0 0 0 0 0 0 0 0 0 0 0 0 0 0 0 0 0 0 0 0 0
9 -15 -33 11 -12 0 26 49 19 -25 46 22 -28 9 -5 -23 0 5 24 1 -7 -1 8 -3 -18 -11 1 30 0 0 0 0
-14 5 34 21 -42 6 -23 -16 -5 -13 27 -27 -2 -38 -18 18 22 21 24 11 -23 1 14 12 3 2 27 13 0 0 0 0
-9 31 8 6 1 -10 10 -7 20 14 -22 -34 21 2 -2 -4 -6 -6 19 -47 -4 18 7 -26 -2 12 1 4 0 0 0 0
-2 -22 -17 8 -8 -7 3 24 25 -12 4 13 10 -55 15 -6 20 -30 1 6 12 -18 -1 4 6 -8 -24 20 0 0 0 0
-9 2 -1 2 8 1 -16 5 -4 6 26 4 -4 4 4 -15 12 7 -2 -13 -41 77 31 -6 -18 38 64 -41 0 0 0 0
0 0 0 0 0 0 0 0 0 0 0 0 0 0 0 0 0 0 0 0 0 0 0 0 0 0 0 0 0 0 0 0
0 0 0 0 0 0 0 0 0 0 0 0 0 0 0 0 0 0 0 0 0 0 0 0 0 0 0 0 0 0 0 0
0 0 0 0 0 0 0 0 0 0 0 0 0 0 0 0 0 0 0 0 0 0 0 0 0 0 0 0 0 0 0 0
-19 19 4 -15 -1 -7 -19 42 -4 0 23 1 -30 3 -19 13 -9 -14 -13 -8 -18 9 2 10 -3 3 6 -5 0 0 0 0
3 25 6 33 -56 19 3 -8 -46 3 23 -31 3 15 -12 31 12 25 -10 1 -6 -15 -1 2 -7 -4 -9 -16 0 0 0 0
-4 -13 -11 -19 -2 0 11 36 -7 -6 27 27 -16 13 -16 17 31 11 -12 12 -12 -70 2 31 -16 -18 -5 10 0 0 0 0
9 31 -15 44 19 7 36 14 -18 10 5 -14 14 -25 11 -22 22 -26 3 -4 22 20 -5 -12 -4 -27 6 -6 0 0 0 0
-53 11 -21 -27 12 -18 -66 10 28 -13 -9 -38 -14 5 -2 -26 9 20 3 -22 59 121 95 -30 -28 13 69 -149 0 0 0 0
0 0 0 0 0 0 0 0 0 0 0 0 0 0 0 0 0 0 0 0 0 0 0 0 0 0 0 0 0 0 0 0
0 0 0 0 0 0 0 0 0 0 0 0 0 0 0 0 0 0 0 0 0 0 0 0 0 0 0 0 0 0 0 0
0 0 0 0 0 0 0 0 0 0 0 0 0 0 0 0 0 0 0 0 0 0 0 0 0 0 0 0 0 0 0 0
-13 -21 -11 6 25 7 4 54 2 -31 25 -4 -27 -7 -28 -10 4 6 -10 5 -9 9 -8 11 0 3 1 -20 0 0 0 0
-6 -1 -2 27 -38 4 9 -18 -48 -4 15 -13 11 20 17 14 43 -17 13 -10 6 -9 4 9 5 -11 0 -29 0 0 0 0
-8 -3 -23 -20 14 -11 15 71 6 -3 32 13 -52 24 -51 -15 23 23 -63 51 9 -77 21 103 -1 -57 -14 -13 0 0 0 0
1 57 -17 108 46 47 33 9 -73 -14 23 -44 15 -30 21 -53 46 -21 -15 -12 19 19 -55 -16 84 -1 8 -3 0 0 0 0
-119 -1 -29 -7 24 -2 -96 22 11 -6 -27 -40 -6 -1 -9 -25 29 65 6 0 58 205 140 -53 5 11 116 -166 0 0 0 0
0 0 0 0 0 0 0 0 0 0 0 0 0 0 0 0 0 0 0 0 0 0 0 0 0 0 0 0 0 0 0 0
0 0 0 0 0 0 0 0 0 0 0 0 0 0 0 0 0 0 0 0 0 0 0 0 0 0 0 0 0 0 0 0
0 0 0 0 0 0 0 0 0 0 0 0 0 0 0 0 0 0 0 0 0 0 0 0 0 0 0 0 0 0 0 0
22 -33 0 19 13 -26 -26 31 -2 -15 34 15 -40 2 11 -9 12 -24 18 13 9 5 4 -16 10 11 5 27 0 0 0 0
11 23 -15 5 -11 51 15 -11 -24 8 -7 -26 8 -23 2 26 60 -24 2 2 0 -1 -4 -19 -2 -1 -13 -29 0 0 0 0
4 20 -10 8 8 -33 10 49 28 -12 22 -45 -53 15 -49 -17 -26 32 -64 22 27 73 -5 -8 24 22 -4 -16 0 0 0 0
-4 43 1 99 39 57 6 5 -65 -55 21 -17 12 -40 -3 -67 42 -14 -30 -11 -71 -6 -29 -2 77 26 42 17 0 0 0 0
-107 2 -45 6 22 -11 -85 -11 -16 5 -11 -24 6 -4 12 -7 50 65 4 7 -82 97 71 -6 0 63 77 -87 0 0 0 0
0 0 0 0 0 0 0 0 0 0 0 0 0 0 0 0 0 0 0 0 0 0 0 0 0 0 0 0 0 0 0 0
0 0 0 0 0 0 0 0 0 0 0 0 0 0 0 0 0 0 0 0 0 0 0 0 0 0 0 0 0 0 0 0
0 0 0 0 0 0 0 0 0 0 0 0 0 0 0 0 0 0 0 0 0 0 0 0 0 0 0 0 0 0 0 0
0 -18 19 3 -3 8 -7 27 20 -2 25 14 -48 14 2 9 3 -35 14 -3 9 -6 0 5 12 1 -3 6 0 0 0 0
3 23 21 41 -34 31 -7 3 -9 -17 21 -26 -2 -31 -30 36 45 -2 -17 -6 -5 5 1 -12 0 6 5 -4 0 0 0 0
-15 16 8 10 2 -22 20 26 21 -17 -9 -33 -17 8 -23 3 -15 -5 -32 -18 -20 27 11 -31 -6 33 15 6 0 0 0 0
0 15 0 34 14 25 12 11 -13 -33 3 14 10 -34 -11 -38 19 -21 -13 -4 -71 -12 16 2 -10 20 38 18 0 0 0 0
-61 -11 -40 -5 26 -26 -50 -14 -2 -8 12 -5 -1 -3 15 -8 37 23 -3 -24 -43 139 82 4 -21 74 52 -95 0 0 0 0
0 0 0 0 0 0 0 0 0 0 0 0 0 0 0 0 0 0 0 0 0 0 0 0 0 0 0 0 0 0 0 0
0 0 0 0 0 0 0 0 0 0 0 0 0 0 0 0 0 0 0 0 0 0 0 0 0 0 0 0 0 0 0 0
0 0 0 0 0 0 0 0 0 0 0 0 0 0 0 0 0 0 0 0 0 0 0 0 0 0 0 0 0 0 0 0
11 17 -25 -8 -7 -3 -7 24 -3 -18 -7 9 -15 10 -7 19 28 -12 -6 -3 5 5 4 -1 10 -5 -8 -6 0 0 0 0
-8 -2 11 12 -53 23 22 -19 -35 -26 13 11 -9 10 27 12 43 -11 19 9 -9 4 -5 8 1 12 4 22 0 0 0 0
6 -20 0 -21 8 10 -6 17 2 -8 27 46 -14 -2 -24 11 21 17 -32 34 -6 -31 -4 3 -6 -25 4 56 0 0 0 0
4 16 12 0 22 13 -6 -25 -49 16 24 -28 4 54 -9 0 -33 20 -2 7 0 7 52 -3 7 -12 0 6 0 0 0 0
-67 -5 0 2 -14 -2 -54 -5 21 -28 -5 -43 -3 -6 3 4 43 32 5 6 20 158 149 -17 11 21 79 -101 0 0 0 0
0 0 0 0 0 0 0 0 0 0 0 0 0 0 0 0 0 0 0 0 0 0 0 0 0 0 0 0 0 0 0 0
0 0 0 0 0 0 0 0 0 0 0 0 0 0 0 0 0 0 0 0 0 0 0 0 0 0 0 0 0 0 0 0
0 0 0 0 0 0 0 0 0 0 0 0 0 0 0 0 0 0 0 0 0 0 0 0 0 0 0 0 0 0 0 0
27 -4 -2 -11 12 10 -9 33 -11 20 20 10 -36 23 -28 -3 -2 -30 10 9 -8 -17 -9 15 -11 9 -7 -31 0 0 0 0
9 -7 -18 15 -50 15 9 -13 -32 9 -8 -25 -1 13 18 21 34 10 6 -14 15 -1 -7 9 10 1 6 31 0 0 0 0
24 9 -10 -8 6 -17 -19 37 0 -8 27 36 -45 -4 -30 16 32 15 -71 64 9 -14 3 -2 -5 -84 -2 6 0 0 0 0
3 63 12 58 57 37 -1 -31 -96 -7 39 -36 2 35 -4 -65 -6 15 3 3 0 19 87 -5 12 -29 26 10 0 0 0 0
-113 3 -10 -19 -1 -4 -85 10 10 -28 -22 -58 13 4 -4 4 52 49 10 -1 59 137 122 -9 20 -42 97 -136 0 0 0 0
0 0 0 0 0 0 0 0 0 0 0 0 0 0 0 0 0 0 0 0 0 0 0 0 0 0 0 0 0 0 0 0
0 0 0 0 0 0 0 0 0 0 0 0 0 0 0 0 0 0 0 0 0 0 0 0 0 0 0 0 0 0 0 0
0 0 0 0 0 0 0 0 0 0 0 0 0 0 0 0 0 0 0 0 0 0 0 0 0 0 0 0 0 0 0 0
-6 -17 -6 4 -10 -18 1 21 4 -15 39 2 -61 13 0 -6 -1 -41 18 9 15 -10 5 5 0 -19 2 -4 0 0 0 0
8 9 26 25 -30 11 -11 8 -22 -27 6 -13 13 3 -10 19 53 -10 -10 -4 8 5 -4 5 11 5 -17 14 0 0 0 0
1 15 -11 29 -8 -7 -15 43 -2 -11 -5 -30 -92 -6 -32 -13 -17 2 -75 60 -6 42 -9 -13 4 65 -7 -27 0 0 0 0
-13 51 42 74 17 34 -10 -21 -58 -64 4 0 -17 15 -2 -90 38 18 -3 -6 -59 10 34 -7 -6 17 44 7 0 0 0 0
-85 -15 -25 -14 2 -31 -59 -12 7 -24 -32 -63 22 17 2 -6 45 48 3 -4 -27 159 160 43 -10 71 74 -110 0 0 0 0
0 0 0 0 0 0 0 0 0 0 0 0 0 0 0 0 0 0 0 0 0 0 0 0 0 0 0 0 0 0 0 0
0 0 0 0 0 0 0 0 0 0 0 0 0 0 0 0 0 0 0 0 0 0 0 0 0 0 0 0 0 0 0 0
0 0 0 0 0 0 0 0 0 0 0 0 0 0 0 0 0 0 0 0 0 0 0 0 0 0 0 0 0 0 0 0
3 -5 -20 -5 -9 -3 -21 21 -9 -16 3 -19 -24 0 13 23 -7 -28 -15 -7 3 9 2 -4 1 2 4 -35 0 0 0 0
5 1 27 45 -5 20 14 18 -43 -13 -3 5 -1 14 -3 2 43 -12 -9 -2 -11 -18 5 12 6 -10 -1 6 0 0 0 0
-7 -15 -7 19 -13 -15 -13 8 0 -19 14 -23 -56 3 -25 -5 -17 5 -46 39 -8 17 10 -14 -2 35 9 16 0 0 0 0
-8 5 43 18 -15 10 -17 -15 -12 -44 -14 4 -14 33 -7 -28 11 26 -10 -1 -64 9 2 -4 -11 23 19 4 0 0 0 0
-44 -18 -38 -2 2 -14 -33 -17 2 0 -34 -36 -2 13 7 -11 36 28 -3 4 -33 115 92 17 -4 43 52 -19 0 0 0 0
0 0 0 0 0 0 0 0 0 0 0 0 0 0 0 0 0 0 0 0 0 0 0 0 0 0 0 0 0 0 0 0
0 0 0 0 0 0 0 0 0 0 0 0 0 0 0 0 0 0 0 0 0 0 0 0 0 0 0 0 0 0 0 0
0 0 0 0 0 0 0 0 0 0 0 0 0 0 0 0 0 0 0 0 0 0 0 0 0 0 0 0 0 0 0 0
-15 10 -27 0 1 1 11 18 24 1 15 20 -31 4 -3 -26 8 -26 9 6 -2 -1 18 19 14 9 -6 -2 0 0 0 0
11 5 12 47 -58 19 -13 -24 -43 -14 -3 8 15 11 10 15 31 1 11 -17 -16 7 0 -15 9 -3 -12 -8 0 0 0 0
16 -10 6 5 9 4 -2 4 -11 15 -1 28 -2 -23 10 -7 -2 24 -12 15 -1 -9 -17 -4 3 -13 -2 40 0 0 0 0
-14 -22 -5 -8 -2 -22 4 -19 -4 18 24 -8 -17 48 3 27 -34 32 9 -17 -5 1 14 5 -3 -1 -3 -5 0 0 0 0
-34 -17 0 12 -7 17 12 1 -9 -11 5 5 10 -13 9 21 11 21 -2 16 25 79 65 -27 3 6 47 -61 0 0 0 0
0 0 0 0 0 0 0 0 0 0 0 0 0 0 0 0 0 0 0 0 0 0 0 0 0 0 0 0 0 0 0 0
0 0 0 0 0 0 0 0 0 0 0 0 0 0 0 0 0 0 0 0 0 0 0 0 0 0 0 0 0 0 0 0
0 0 0 0 0 0 0 0 0 0 0 0 0 0 0 0 0 0 0 0 0 0 0 0 0 0 0 0 0 0 0 0
-1 14 -20 -7 -9 -22 -6 15 -7 9 1 11 -55 24 9 31 8 -39 31 14 -6 -15 5 9 -4 8 -2 1 0 0 0 0
-9 9 -4 37 -44 16 7 -12 -50 -4 11 3 -3 0 6 11 31 -4 -18 21 -11 4 4 -9 11 13 3 33 0 0 0 0
29 -15 3 0 5 1 -13 9 -10 -18 15 35 -36 -11 6 21 12 15 -41 39 9 10 -14 -18 -13 -35 -1 3 0 0 0 0
-9 15 15 49 16 -11 12 -31 -44 -6 18 3 -17 59 -2 -35 -23 25 13 -2 0 6 29 9 -21 -5 5 -7 0 0 0 0
-57 -5 -22 -10 -15 1 -47 -9 -1 -21 -21 -31 7 -8 -5 7 37 16 17 3 46 140 145 -15 -10 36 66 -90 0 0 0 0
0 0 0 0 0 0 0 0 0 0 0 0 0 0 0 0 0 0 0 0 0 0 0 0 0 0 0 0 0 0 0 0
0 0 0 0 0 0 0 0 0 0 0 0 0 0 0 0 0 0 0 0 0 0 0 0 0 0 0 0 0 0 0 0
0 0 0 0 0 0 0 0 0 0 0 0 0 0 0 0 0 0 0 0 0 0 0 0 0 0 0 0 0 0 0 0
11 0 14 -8 -6 -26 8 43 4 -27 -5 -36 -47 25 -31 17 7 -20 20 6 -14 6 -7 8 3 8 5 15 0 0 0 0
-11 -15 1 15 -20 28 22 20 -1 -43 29 9 -14 6 -2 -6 22 -12 -15 20 -9 3 -3 8 -4 -5 3 15 0 0 0 0
-13 2 -7 6 -14 8 -17 8 3 -20 -1 -11 -50 6 -20 10 2 -21 -39 28 -10 1 1 -3 -7 19 8 -17 0 0 0 0
-7 27 39 29 -11 31 -20 -20 -26 -38 -12 12 -9 27 0 -57 -2 13 -5 25 5 9 17 0 -26 19 6 -5 0 0 0 0
-41 0 -20 -18 -4 -27 -47 -10 8 -4 -30 -45 -2 24 -11 -15 34 16 4 -9 34 86 95 10 4 25 59 -24 0 0 0 0
0 0 0 0 0 0 0 0 0 0 0 0 0 0 0 0 0 0 0 0 0 0 0 0 0 0 0 0 0 0 0 0
0 0 0 0 0 0 0 0 0 0 0 0 0 0 0 0 0 0 0 0 0 0 0 0 0 0 0 0 0 0 0 0
0 0 0 0 0 0 0 0 0 0 0 0 0 0 0 0 0 0 0 0 0 0 0 0 0 0 0 0 0 0 0 0
22 16 -25 0 -15 -27 -12 32 5 -21 11 -20 -16 12 -31 -22 -9 -14 -12 5 -10 -7 6 19 -15 -2 -1 2 0 0 0 0
8 5 17 -10 -6 31 10 7 -10 -25 -9 -12 1 15 5 -3 24 18 20 -3 -7 0 -5 9 13 -7 2 7 0 0 0 0
-4 3 -7 13 -15 -7 -22 -21 -1 11 0 -24 -12 -3 -7 -12 -5 2 4 11 6 6 9 -7 -3 16 3 13 0 0 0 0
-8 -10 24 -28 -31 10 -33 -6 19 -14 -6 0 -9 14 1 5 -10 23 -10 9 3 9 1 -3 -10 13 -2 -4 0 0 0 0
-14 10 8 1 -11 -20 20 -6 1 4 -13 -20 7 23 1 4 3 10 -10 8 -20 65 56 27 1 40 28 -12 0 0 0 0
0 0 0 0 0 0 0 0 0 0 0 0 0 0 0 0 0 0 0 0 0 0 0 0 0 0 0 0 0 0 0 0
0 0 0 0 0 0 0 0 0 0 0 0 0 0 0 0 0 0 0 0 0 0 0 0 0 0 0 0 0 0 0 0
0 0 0 0 0 0 0 0 0 0 0 0 0 0 0 0 0 0 0 0 0 0 0 0 0 0 0 0 0 0 0 0
