-18 8 30 0 -8 -2 10 -24 -10 28 -7 -11 -35 17 15 -10 34 21 33 -29 12 9 -5 26 -10 22 13 9 28 -9 14 10 26 -2 -6 -10 4 35 12 -23 28 12 -26 6 -25 -4 -23 -39
5 -12 -19 -28 0 29 -33 9 3 27 -2 22 -17 12 8 11 27 18 -10 2 15 -18 -21 -14 -10 1 29 20 -20 7 9 16 -12 -3 -1 -22 9 9 -20 -26 15 -49 -71 -15 36 -73 -19 -7
14 20 -1 -11 -2 -32 -18 -4 -13 -6 -25 -25 10 21 4 13 24 28 11 -38 -33 -14 15 -9 24 -3 5 7 4 7 -6 -10 0 26 -19 17 11 -9 -7 -15 34 -3 -21 -15 23 -12 -1 -22
-9 -5 -19 -7 12 -9 18 -19 -26 -13 0 3 -14 -18 3 3 12 1 1 4 -11 -10 -17 -16 36 25 4 9 -21 32 5 14 -9 -3 -22 -5 20 1 5 0 27 -22 -25 -25 47 -31 -21 -3
13 -11 -7 9 12 -3 -23 -9 -6 -21 -8 -5 -9 -16 -10 -2 -10 29 15 -23 -32 -18 -21 15 -8 -14 28 9 25 -21 -13 31 12 13 -21 -10 3 -12 9 -8 -45 43 91 20 -34 39 13 37
0 0 0 0 0 0 0 0 0 0 0 0 0 0 0 0 0 0 0 0 0 0 0 0 0 0 0 0 0 0 0 0 0 0 0 0 0 0 0 0 0 0 0 0 0 0 0 0
0 0 0 0 0 0 0 0 0 0 0 0 0 0 0 0 0 0 0 0 0 0 0 0 0 0 0 0 0 0 0 0 0 0 0 0 0 0 0 0 0 0 0 0 0 0 0 0
0 0 0 0 0 0 0 0 0 0 0 0 0 0 0 0 0 0 0 0 0 0 0 0 0 0 0 0 0 0 0 0 0 0 0 0 0 0 0 0 0 0 0 0 0 0 0 0
34 21 9 3 -10 -15 -12 3 -45 -5 2 -26 -13 -10 13 -42 -21 37 18 10 27 4 -28 3 -6 13 -17 -13 14 8 11 24 57 1 -17 -22 15 23 -8 15 25 -23 -46 -20 9 -11 27 0
-21 1 -3 24 -13 -23 -7 -16 -21 -8 -35 3 16 7 10 -14 -18 24 -19 -5 26 12 -37 2 -1 -22 8 24 -14 40 13 -11 -1 20 39 21 4 2 -3 3 10 -19 -14 -8 48 -71 -5 9
15 5 26 -15 21 8 9 -17 -25 4 4 -37 -2 -4 12 -27 13 13 30 -29 5 -5 13 -13 22 7 6 15 10 7 17 11 20 15 2 -15 -7 23 5 18 46 -9 -30 -34 19 -24 -12 -38
-3 20 -24 -3 -19 -13 -10 -24 -5 -8 -18 13 9 3 26 -12 1 -13 -13 -10 -3 9 -39 1 25 9 4 10 1 30 -10 6 -4 33 -27 -7 -19 -14 -1 13 45 -23 -54 -40 74 -51 -21 -14
-6 10 -9 18 -23 -11 -10 11 6 -31 1 -15 -31 -13 4 -2 -30 35 6 -4 -14 29 -2 14 -2 -8 6 -23 -11 11 10 21 20 0 -11 18 -5 16 8 -24 -22 28 83 41 -35 51 -6 -9
0 0 0 0 0 0 0 0 0 0 0 0 0 0 0 0 0 0 0 0 0 0 0 0 0 0 0 0 0 0 0 0 0 0 0 0 0 0 0 0 0 0 0 0 0 0 0 0
0 0 0 0 0 0 0 0 0 0 0 0 0 0 0 0 0 0 0 0 0 0 0 0 0 0 0 0 0 0 0 0 0 0 0 0 0 0 0 0 0 0 0 0 0 0 0 0
0 0 0 0 0 0 0 0 0 0 0 0 0 0 0 0 0 0 0 0 0 0 0 0 0 0 0 0 0 0 0 0 0 0 0 0 0 0 0 0 0 0 0 0 0 0 0 0
8 -7 23 -16 24 -5 7 -19 2 -17 15 -37 -3 35 -31 -28 -24 22 10 15 -7 -4 19 19 -8 -2 -16 18 -29 -1 -18 -35 7 22 -8 -40 -9 4 -6 7 -6 25 -2 -8 -3 25 -49 -28
24 23 -12 4 -16 -7 9 16 5 -13 -3 -12 -15 -9 13 -22 -16 17 -18 14 3 -24 -15 26 -23 36 -1 -4 -5 13 -29 0 6 19 34 16 6 -7 12 -16 50 -6 34 -15 21 22 -25 -21
21 -12 -24 -7 9 14 -22 -17 -35 2 21 -15 9 -9 9 -23 -9 12 37 -5 15 -7 -2 2 9 11 -21 20 -28 -3 22 -4 34 6 -28 -26 8 41 12 -7 40 -10 -39 -23 6 -19 -14 -38
12 5 -4 -12 -4 -24 2 24 4 5 -18 -7 7 -2 6 -5 28 -11 13 6 -20 31 -32 0 -30 -4 38 4 30 0 -9 -13 2 1 -14 23 2 -13 -24 4 56 -16 -74 -25 49 -43 -3 -35
-16 15 2 5 -14 -46 3 4 -10 -6 23 23 -9 -17 9 -5 -45 4 -29 -6 11 37 -4 30 24 21 3 -9 -32 4 32 10 -14 -13 32 7 -42 21 41 -21 -1 2 19 31 7 -57 -7 -21
0 0 0 0 0 0 0 0 0 0 0 0 0 0 0 0 0 0 0 0 0 0 0 0 0 0 0 0 0 0 0 0 0 0 0 0 0 0 0 0 0 0 0 0 0 0 0 0
0 0 0 0 0 0 0 0 0 0 0 0 0 0 0 0 0 0 0 0 0 0 0 0 0 0 0 0 0 0 0 0 0 0 0 0 0 0 0 0 0 0 0 0 0 0 0 0
0 0 0 0 0 0 0 0 0 0 0 0 0 0 0 0 0 0 0 0 0 0 0 0 0 0 0 0 0 0 0 0 0 0 0 0 0 0 0 0 0 0 0 0 0 0 0 0
23 44 -8 -5 34 11 -32 4 -17 11 2 -20 2 36 -12 -4 -17 4 -12 -35 -20 14 -26 -20 32 -17 5 15 -6 -13 25 -15 8 9 -16 -9 -27 31 -33 13 3 -18 -28 -24 18 -27 -17 -35
-18 -1 24 11 -4 9 -22 25 14 -15 -34 17 6 12 5 17 25 -23 -20 14 12 -20 -19 5 0 -12 32 -2 -2 -4 -3 -7 -4 20 -1 -19 22 -12 24 -13 32 -12 -45 2 30 -67 -7 -35
-10 14 -5 -29 13 -21 -34 -14 4 4 -17 -21 -24 2 16 -12 4 -1 18 -12 -31 11 1 -18 6 15 -18 -9 -22 7 -17 -44 -9 19 -24 -1 -12 38 5 0 31 -13 -23 -11 9 -22 -12 -25
20 -1 4 -2 -15 1 -9 35 -23 7 9 -14 -19 -8 -5 18 11 6 16 16 9 10 -26 -29 -27 -18 10 -3 8 9 22 -5 4 -13 -4 15 13 -23 -8 -17 39 -17 -47 -11 23 -20 -4 -22
-2 2 -7 -11 -13 -23 3 -2 -3 -8 10 5 -2 -18 -1 20 -11 4 -24 2 -20 -9 -18 14 30 23 4 -4 26 16 20 -7 2 -14 5 -20 -11 -32 17 1 -26 31 16 -10 8 -10 36 13
0 0 0 0 0 0 0 0 0 0 0 0 0 0 0 0 0 0 0 0 0 0 0 0 0 0 0 0 0 0 0 0 0 0 0 0 0 0 0 0 0 0 0 0 0 0 0 0
0 0 0 0 0 0 0 0 0 0 0 0 0 0 0 0 0 0 0 0 0 0 0 0 0 0 0 0 0 0 0 0 0 0 0 0 0 0 0 0 0 0 0 0 0 0 0 0
0 0 0 0 0 0 0 0 0 0 0 0 0 0 0 0 0 0 0 0 0 0 0 0 0 0 0 0 0 0 0 0 0 0 0 0 0 0 0 0 0 0 0 0 0 0 0 0
-11 21 18 4 32 12 -37 11 -37 -28 10 -1 -1 -3 -24 8 12 -3 -11 -19 20 16 -16 8 8 29 7 4 29 25 27 9 43 -7 -1 -16 -7 29 -2 13 51 -63 -67 -52 -3 -35 18 -13
-11 8 -3 11 -2 15 23 -18 -10 -7 -29 10 3 -30 -9 -19 -7 20 -4 19 -2 -16 -13 -17 15 8 18 11 -4 15 6 -13 2 -7 14 13 -16 -3 14 -4 28 -15 -27 -50 20 -20 -23 -14
27 28 27 -12 23 14 1 -1 -34 -22 -7 -21 18 23 -16 -38 -15 20 35 -37 14 11 -12 -8 -1 8 9 25 14 14 46 -8 32 -25 -14 11 -17 13 -9 -20 44 -7 -33 -31 37 -26 -8 -26
17 -14 -14 -12 -22 -5 0 -32 1 -23 -23 -5 1 -4 9 -33 -31 12 9 -3 16 -12 -27 14 9 12 21 5 -18 30 13 13 12 14 1 2 21 -17 -3 2 49 -33 -42 -30 73 -62 -24 -11
-12 11 -5 8 9 -21 28 6 -9 -20 -22 -17 -35 -13 -3 12 -27 10 -13 -4 -8 17 22 17 22 8 19 2 -14 2 -7 8 -2 -14 9 8 -57 -10 5 -50 -29 32 91 54 -35 -4 -23 -6
0 0 0 0 0 0 0 0 0 0 0 0 0 0 0 0 0 0 0 0 0 0 0 0 0 0 0 0 0 0 0 0 0 0 0 0 0 0 0 0 0 0 0 0 0 0 0 0
0 0 0 0 0 0 0 0 0 0 0 0 0 0 0 0 0 0 0 0 0 0 0 0 0 0 0 0 0 0 0 0 0 0 0 0 0 0 0 0 0 0 0 0 0 0 0 0
0 0 0 0 0 0 0 0 0 0 0 0 0 0 0 0 0 0 0 0 0 0 0 0 0 0 0 0 0 0 0 0 0 0 0 0 0 0 0 0 0 0 0 0 0 0 0 0
6 33 35 28 23 18 13 -11 -23 -2 22 -35 -11 -8 -29 -32 26 0 36 -16 -10 2 0 27 8 32 -21 6 -9 22 31 7 18 -22 10 -34 -37 22 36 8 27 26 34 5 -17 27 -32 -19
17 -16 0 12 -22 -20 -7 -8 -29 8 -30 24 15 -26 20 -30 30 2 4 14 -26 -17 -10 21 3 3 -1 -9 -5 2 17 -22 17 22 16 26 -14 3 -14 19 56 -26 -10 -23 24 11 -21 -23
31 6 31 17 48 -26 13 0 -50 -2 4 -29 26 26 -17 -24 20 30 25 -49 4 17 -2 -40 14 51 -21 38 36 42 27 5 21 -25 -11 -9 -15 28 -14 -27 53 -10 -44 -50 30 -29 -11 -39
-1 21 -23 10 -31 -13 25 -38 -6 18 -51 -7 -2 -11 23 -39 12 36 -21 23 5 7 -22 -8 24 26 49 -6 -11 55 -21 -29 15 38 -14 15 20 -23 -12 -18 60 -44 -62 -41 87 -83 -33 -21
18 -8 8 -4 -11 -38 36 7 0 -41 12 -10 -17 -34 2 -25 -72 39 -5 -4 38 45 1 33 22 -3 20 -24 -33 12 33 -9 -2 -25 8 33 -71 -1 5 -67 13 14 68 68 -36 8 2 -17
0 0 0 0 0 0 0 0 0 0 0 0 0 0 0 0 0 0 0 0 0 0 0 0 0 0 0 0 0 0 0 0 0 0 0 0 0 0 0 0 0 0 0 0 0 0 0 0
0 0 0 0 0 0 0 0 0 0 0 0 0 0 0 0 0 0 0 0 0 0 0 0 0 0 0 0 0 0 0 0 0 0 0 0 0 0 0 0 0 0 0 0 0 0 0 0
0 0 0 0 0 0 0 0 0 0 0 0 0 0 0 0 0 0 0 0 0 0 0 0 0 0 0 0 0 0 0 0 0 0 0 0 0 0 0 0 0 0 0 0 0 0 0 0
5 32 3 -1 3 -20 -25 -7 -36 8 14 -25 1 -10 -2 -36 12 -6 -6 15 -29 27 23 -30 -27 -1 -20 25 -3 15 34 1 48 12 9 -37 0 25 -15 3 26 -31 -47 -12 59 -57 -40 -43
14 15 3 -15 14 5 -16 -20 -18 34 -37 2 24 -14 13 -21 23 12 -13 -31 -24 20 -42 25 -7 -1 20 12 19 19 -23 -26 -9 -5 -16 0 -9 9 -2 18 41 3 -65 -7 -12 -24 12 -20
5 9 33 31 17 5 -10 20 -28 14 18 -54 3 0 -36 -19 25 24 33 -12 -9 -29 5 -23 9 35 -32 19 14 14 11 -34 39 1 -44 -56 -13 44 -6 -23 56 -34 -46 -36 22 -32 -16 -37
9 -11 -31 -14 -9 19 -19 -1 -12 40 -44 -5 37 0 17 -6 23 -24 -12 -8 18 38 -35 -15 -42 10 32 8 33 49 -23 -20 -2 14 -19 17 -14 10 1 -38 69 -44 -74 -23 64 -72 -8 -41
-3 -12 -7 -18 -31 -64 14 15 -5 -55 14 20 -2 -55 7 -22 -57 25 -22 -12 11 43 6 56 17 -18 3 1 -34 -2 23 20 23 1 31 -15 -37 9 29 -20 -42 37 67 24 -79 11 27 -15
0 0 0 0 0 0 0 0 0 0 0 0 0 0 0 0 0 0 0 0 0 0 0 0 0 0 0 0 0 0 0 0 0 0 0 0 0 0 0 0 0 0 0 0 0 0 0 0
0 0 0 0 0 0 0 0 0 0 0 0 0 0 0 0 0 0 0 0 0 0 0 0 0 0 0 0 0 0 0 0 0 0 0 0 0 0 0 0 0 0 0 0 0 0 0 0
0 0 0 0 0 0 0 0 0 0 0 0 0 0 0 0 0 0 0 0 0 0 0 0 0 0 0 0 0 0 0 0 0 0 0 0 0 0 0 0 0 0 0 0 0 0 0 0
-8 10 2 -16 37 -10 -8 -14 5 -17 -6 -33 22 41 -18 -35 -22 3 4 11 -7 10 -15 30 -3 16 -20 8 0 11 6 12 21 -18 3 -25 -12 -3 -15 9 43 20 11 -7 -20 -3 -12 15
-21 -2 9 9 -11 -12 -6 -2 9 -16 -20 16 13 5 -5 -19 2 -5 -14 -5 -2 -13 -35 -20 3 -24 22 17 -7 41 -19 -13 7 -4 -9 -10 20 20 5 -20 24 -25 -80 -50 41 -52 3 -40
12 33 -11 -19 20 -11 -22 3 -26 -19 3 -54 9 11 -20 -22 10 10 24 5 12 -13 -6 -2 -2 -3 -14 29 -34 7 16 -18 38 -1 -39 -32 -9 35 14 9 43 -27 -29 -8 17 -36 -20 -29
-10 5 6 -25 22 -14 -7 16 -15 21 -12 -4 16 -14 -3 6 11 -30 -10 -12 -15 17 -34 0 -16 -2 36 15 26 20 -10 -14 -9 -31 -16 6 11 2 13 -12 55 -32 -53 -15 46 -48 -2 -30
-9 11 18 -28 2 -45 -21 24 9 -14 -10 12 -28 -27 2 8 -44 -19 -22 4 5 18 2 11 32 3 1 -17 5 -6 -24 19 -14 6 1 -11 -23 -3 16 -38 4 26 43 -8 -14 23 -12 -25
0 0 0 0 0 0 0 0 0 0 0 0 0 0 0 0 0 0 0 0 0 0 0 0 0 0 0 0 0 0 0 0 0 0 0 0 0 0 0 0 0 0 0 0 0 0 0 0
0 0 0 0 0 0 0 0 0 0 0 0 0 0 0 0 0 0 0 0 0 0 0 0 0 0 0 0 0 0 0 0 0 0 0 0 0 0 0 0 0 0 0 0 0 0 0 0
0 0 0 0 0 0 0 0 0 0 0 0 0 0 0 0 0 0 0 0 0 0 0 0 0 0 0 0 0 0 0 0 0 0 0 0 0 0 0 0 0 0 0 0 0 0 0 0
9 36 21 23 5 -2 10 -5 -43 -12 -25 -29 -24 -5 -48 -19 11 -19 -12 24 28 26 17 -1 17 14 1 34 13 24 18 51 55 -20 -7 25 -16 31 -5 26 -26 -1 -23 26 10 -3 4 33
24 -8 15 27 -7 21 20 -22 -13 -12 -35 -6 29 -24 7 -10 23 0 11 -5 -22 19 -29 9 -5 -8 -5 -2 -2 24 7 -12 -22 37 7 -7 -12 -12 10 -13 18 -52 -32 -24 36 -54 -76 -25
2 28 26 -19 1 9 19 -11 -3 -26 18 -4 -12 11 -26 -31 3 0 4 2 2 34 -22 2 -14 30 16 16 47 6 16 48 47 -35 14 -2 5 11 -25 8 38 -29 -27 -23 52 -41 -20 -17
-3 6 20 2 11 6 -19 -6 16 -11 -16 3 -2 20 8 -29 -30 -3 -34 3 17 5 -23 -1 18 -5 15 -10 -3 15 17 3 -1 21 -10 10 23 -17 20 1 48 -40 -26 -28 63 -52 -19 -14
-13 0 22 -42 -9 -41 19 38 15 -31 -25 -14 -35 -43 4 17 -19 40 9 -26 17 5 34 -13 -4 -7 5 -29 -10 0 2 -6 -8 5 6 7 -12 0 -16 -18 7 -11 54 13 11 -1 30 -26
0 0 0 0 0 0 0 0 0 0 0 0 0 0 0 0 0 0 0 0 0 0 0 0 0 0 0 0 0 0 0 0 0 0 0 0 0 0 0 0 0 0 0 0 0 0 0 0
0 0 0 0 0 0 0 0 0 0 0 0 0 0 0 0 0 0 0 0 0 0 0 0 0 0 0 0 0 0 0 0 0 0 0 0 0 0 0 0 0 0 0 0 0 0 0 0
0 0 0 0 0 0 0 0 0 0 0 0 0 0 0 0 0 0 0 0 0 0 0 0 0 0 0 0 0 0 0 0 0 0 0 0 0 0 0 0 0 0 0 0 0 0 0 0
-2 33 4 -13 5 29 -1 15 -54 -6 2 -13 2 -19 -16 -7 13 -7 25 19 -27 22 -1 -29 -4 30 5 13 27 14 -1 15 30 1 -2 -15 -1 5 -28 -4 22 -18 -43 -37 38 -14 -22 -39
17 1 -33 -8 23 -7 7 -21 -19 19 -34 6 24 -6 -9 -28 5 6 15 -23 -1 -27 -40 -23 4 12 31 3 -15 40 8 -3 7 4 -19 -3 20 -24 8 -14 33 -21 -39 -33 35 -23 -11 -42
40 49 32 30 6 0 23 31 -34 -15 -6 1 2 21 -78 -18 7 15 7 -36 -21 18 -27 -8 4 23 -18 30 16 20 18 29 55 -17 4 -16 -20 2 -52 -26 43 -30 -29 -27 50 -39 -9 -28
14 -19 -12 12 14 11 -15 -36 7 17 -60 26 28 -21 -16 -53 -4 35 -44 15 21 21 -9 19 2 18 35 7 -8 49 -10 1 -2 33 -7 13 15 6 7 1 71 -72 -38 -35 73 -87 -37 -31
7 -13 6 -24 8 -49 26 16 -15 -57 -17 16 -40 -66 21 -28 -14 30 -19 -13 7 10 33 59 2 -21 15 -13 -37 -12 12 -8 -40 9 15 12 -53 29 -5 -54 7 -14 28 31 -18 -15 -13 -43
0 0 0 0 0 0 0 0 0 0 0 0 0 0 0 0 0 0 0 0 0 0 0 0 0 0 0 0 0 0 0 0 0 0 0 0 0 0 0 0 0 0 0 0 0 0 0 0
0 0 0 0 0 0 0 0 0 0 0 0 0 0 0 0 0 0 0 0 0 0 0 0 0 0 0 0 0 0 0 0 0 0 0 0 0 0 0 0 0 0 0 0 0 0 0 0
0 0 0 0 0 0 0 0 0 0 0 0 0 0 0 0 0 0 0 0 0 0 0 0 0 0 0 0 0 0 0 0 0 0 0 0 0 0 0 0 0 0 0 0 0 0 0 0
12 6 -8 31 9 12 -11 29 -25 -11 -3 -14 13 8 -31 -18 24 7 29 5 27 -21 8 1 -32 10 0 1 -15 34 -4 -7 45 -20 13 -49 -10 -3 -32 -21 -39 24 19 18 0 31 -3 43
-9 -11 -29 4 -7 16 -5 -18 -14 28 -46 -7 39 -14 -9 -6 -6 -8 -26 -12 3 18 -19 8 -25 -9 30 -2 -16 31 1 0 23 29 -9 13 -14 28 -5 -9 -10 20 -8 13 4 18 -40 39
2 43 34 15 24 4 21 40 -54 19 -16 -40 -16 -14 -68 -48 -2 -20 -8 -12 17 -5 7 -26 -6 4 -21 22 4 34 21 -18 53 -4 -5 -47 -40 49 -46 13 41 -38 -29 -22 31 -35 -12 -15
13 0 -41 17 -8 22 -21 -32 -19 31 -73 21 44 -24 -7 -15 5 31 -12 -21 14 18 -1 5 -52 -4 29 -7 9 35 -25 -27 5 27 30 -18 -34 20 14 -28 82 -70 -62 -14 64 -99 -32 -60
13 9 -11 -11 -24 -20 8 8 -23 -33 -14 22 -10 -41 -5 -22 -42 13 -27 18 32 43 26 61 6 -12 -19 -2 -33 23 -5 -4 -22 -1 20 15 -66 20 -4 -58 26 -28 -12 4 -6 -47 -24 -61
0 0 0 0 0 0 0 0 0 0 0 0 0 0 0 0 0 0 0 0 0 0 0 0 0 0 0 0 0 0 0 0 0 0 0 0 0 0 0 0 0 0 0 0 0 0 0 0
0 0 0 0 0 0 0 0 0 0 0 0 0 0 0 0 0 0 0 0 0 0 0 0 0 0 0 0 0 0 0 0 0 0 0 0 0 0 0 0 0 0 0 0 0 0 0 0
0 0 0 0 0 0 0 0 0 0 0 0 0 0 0 0 0 0 0 0 0 0 0 0 0 0 0 0 0 0 0 0 0 0 0 0 0 0 0 0 0 0 0 0 0 0 0 0
-2 30 -8 -11 14 -22 -10 4 -16 -24 13 -31 0 -8 -20 -19 22 12 8 -7 -28 -5 21 -21 -9 13 3 27 14 20 13 -7 49 -35 15 -41 7 31 -45 -13 20 -2 -30 0 17 -24 -2 -34
27 0 -28 -25 15 21 -25 -19 -11 -13 -4 7 -17 3 -14 -6 -6 22 0 20 5 -12 4 20 4 13 42 -11 32 -1 -11 -12 -2 -21 -14 28 -18 16 -13 -21 22 -38 -69 -29 43 -68 17 -15
-24 9 -14 -7 7 7 4 9 -49 -5 18 -27 14 -7 -29 -35 -7 -9 -14 24 33 -14 10 11 -14 17 9 20 20 10 29 19 66 -24 -23 -23 19 29 -27 10 23 -22 -28 -4 29 -25 -17 -3
-9 5 -12 -9 21 1 8 -12 -3 -3 -38 -6 19 4 4 3 3 -10 11 -27 -18 2 4 0 -33 -5 35 -12 14 -6 -11 -23 1 -5 22 -12 0 22 15 -21 58 -36 -47 -2 50 -63 -16 -42
-1 4 16 -8 -19 -30 1 20 -10 -14 -19 17 1 -49 -24 -2 -37 8 11 -17 38 30 21 51 -12 -1 2 19 -30 -11 -6 18 -19 10 11 5 -35 26 8 -5 26 -11 20 14 4 -67 1 -40
0 0 0 0 0 0 0 0 0 0 0 0 0 0 0 0 0 0 0 0 0 0 0 0 0 0 0 0 0 0 0 0 0 0 0 0 0 0 0 0 0 0 0 0 0 0 0 0
0 0 0 0 0 0 0 0 0 0 0 0 0 0 0 0 0 0 0 0 0 0 0 0 0 0 0 0 0 0 0 0 0 0 0 0 0 0 0 0 0 0 0 0 0 0 0 0
0 0 0 0 0 0 0 0 0 0 0 0 0 0 0 0 0 0 0 0 0 0 0 0 0 0 0 0 0 0 0 0 0 0 0 0 0 0 0 0 0 0 0 0 0 0 0 0
26 15 -13 -29 -17 -4 -33 17 -8 2 -21 -21 -14 3 3 -25 10 35 29 25 28 -20 -4 -13 22 21 -1 -27 6 15 27 12 43 5 5 19 18 30 -47 -1 17 -17 -19 -31 32 8 -2 9
-10 2 -30 1 -1 -2 -12 2 29 1 8 -4 -3 23 -11 21 -2 -2 -8 -12 3 12 -4 32 12 19 42 -5 7 21 13 -11 -11 0 3 -6 4 1 27 -8 -11 -15 -49 -3 41 -32 -9 2
-13 24 -4 -28 10 -8 2 -30 -3 -11 14 -4 -12 -7 1 3 28 -6 -17 -16 -31 12 -12 2 13 9 11 7 24 0 -7 59 23 10 9 16 21 1 -21 18 27 -23 -16 -11 38 -28 -14 -16
-13 24 12 13 13 -2 3 -25 -26 13 -13 7 1 1 15 5 1 14 -15 2 -7 16 25 1 33 -20 -8 -21 8 5 -3 -11 11 12 -14 8 6 -5 22 26 37 -32 -9 -28 34 -28 -19 -16
8 6 15 5 -29 1 -32 15 12 -2 -3 11 -19 -24 6 -13 -7 25 6 -31 -13 -24 21 8 -23 -20 4 -2 9 4 -12 16 -40 20 -12 7 1 7 -18 2 1 -10 12 10 0 -45 9 -6
0 0 0 0 0 0 0 0 0 0 0 0 0 0 0 0 0 0 0 0 0 0 0 0 0 0 0 0 0 0 0 0 0 0 0 0 0 0 0 0 0 0 0 0 0 0 0 0
0 0 0 0 0 0 0 0 0 0 0 0 0 0 0 0 0 0 0 0 0 0 0 0 0 0 0 0 0 0 0 0 0 0 0 0 0 0 0 0 0 0 0 0 0 0 0 0
0 0 0 0 0 0 0 0 0 0 0 0 0 0 0 0 0 0 0 0 0 0 0 0 0 0 0 0 0 0 0 0 0 0 0 0 0 0 0 0 0 0 0 0 0 0 0 0
-4 16 23 4 8 16 -4 16 -6 27 -11 9 -2 14 -18 -52 3 -11 14 12 9 -15 24 13 -11 18 -7 9 33 -1 -11 -7 44 16 21 11 -12 23 -2 8 -4 -18 -17 -11 5 -27 -9 -23
25 15 -26 -18 23 21 -5 7 2 22 -33 -21 3 -16 28 -9 20 23 -19 -6 -19 -26 3 -18 -14 25 40 -11 6 41 18 1 -30 36 4 -11 -10 2 -10 0 34 -43 -23 -15 60 -12 -47 -18
36 28 20 -2 -14 -3 9 31 -25 3 -6 -18 -32 3 -22 -24 1 2 -2 -21 -1 4 -5 -3 11 -3 9 -7 -1 -3 4 24 49 18 13 -19 -13 -4 -46 21 39 -30 -20 -10 43 -34 -11 -25
17 -2 4 16 14 27 -24 -32 -17 -27 -32 32 18 15 11 4 -24 20 -7 -9 8 16 -38 -6 -12 -27 9 -3 4 -3 9 12 4 35 -9 -6 -10 -20 4 9 53 -42 -30 -27 52 -45 -28 -31
-6 -8 -19 -22 -30 -16 21 28 -18 -41 -10 18 0 -34 8 14 -30 41 -4 -26 20 10 -2 19 -5 -26 1 -22 -30 -8 -2 27 -24 2 -3 -7 -38 18 12 0 -21 -17 12 26 11 -26 8 -13
0 0 0 0 0 0 0 0 0 0 0 0 0 0 0 0 0 0 0 0 0 0 0 0 0 0 0 0 0 0 0 0 0 0 0 0 0 0 0 0 0 0 0 0 0 0 0 0
0 0 0 0 0 0 0 0 0 0 0 0 0 0 0 0 0 0 0 0 0 0 0 0 0 0 0 0 0 0 0 0 0 0 0 0 0 0 0 0 0 0 0 0 0 0 0 0
0 0 0 0 0 0 0 0 0 0 0 0 0 0 0 0 0 0 0 0 0 0 0 0 0 0 0 0 0 0 0 0 0 0 0 0 0 0 0 0 0 0 0 0 0 0 0 0
21 25 12 14 -11 -30 -22 -8 -56 14 -21 -28 11 15 -34 -45 -9 -11 30 -9 -30 23 20 -22 13 24 -16 10 -8 -2 16 -15 6 -22 -28 -6 -20 1 -25 -15 31 4 -28 -7 35 -43 -13 -37
12 -25 -6 17 -7 10 10 1 -7 19 -30 11 -17 -3 11 -30 -23 3 -5 27 13 -16 -40 -14 -26 15 22 -22 9 29 -24 -3 8 19 -4 -10 -26 -23 -3 0 14 -10 -6 -4 40 -35 23 -19
-5 17 -19 -14 -15 -17 5 21 -39 2 -27 -4 -14 -8 -29 -36 -17 -16 -9 7 24 15 16 -2 -3 17 -10 13 -27 15 -4 -4 41 6 10 -28 -9 34 -31 24 24 -15 -19 -3 12 -19 -10 -12
8 7 -11 13 20 -15 -3 23 12 -14 -29 22 -5 -22 -31 -11 23 13 -11 5 -18 -2 -34 -13 -33 2 39 7 -7 -1 6 -6 -22 8 16 -17 -7 0 -6 -12 56 -34 -59 -8 45 -54 -27 -49
0 9 -1 -26 8 -32 3 10 -12 -14 -14 9 -8 -33 -12 12 -16 27 -1 11 40 29 -16 37 0 22 -4 -24 -26 0 11 -6 -19 -4 -2 11 -28 30 13 -26 1 -30 40 9 14 -51 -12 -23
0 0 0 0 0 0 0 0 0 0 0 0 0 0 0 0 0 0 0 0 0 0 0 0 0 0 0 0 0 0 0 0 0 0 0 0 0 0 0 0 0 0 0 0 0 0 0 0
0 0 0 0 0 0 0 0 0 0 0 0 0 0 0 0 0 0 0 0 0 0 0 0 0 0 0 0 0 0 0 0 0 0 0 0 0 0 0 0 0 0 0 0 0 0 0 0
0 0 0 0 0 0 0 0 0 0 0 0 0 0 0 0 0 0 0 0 0 0 0 0 0 0 0 0 0 0 0 0 0 0 0 0 0 0 0 0 0 0 0 0 0 0 0 0
-4 -6 10 -20 3 -17 -13 -13 -31 -27 -15 -22 -9 -4 -27 -15 26 11 31 21 -2 -14 1 -20 -5 -8 20 -8 -28 33 -2 33 39 -14 -32 0 -14 18 -30 -18 0 -14 -2 16 30 -27 15 -16
28 3 -28 -1 15 -2 -6 -9 14 -1 -5 -5 13 -12 -30 6 -7 3 -19 -11 20 2 -38 24 -35 1 3 -15 18 -8 -14 7 10 25 7 -4 7 -16 1 -2 25 -7 -47 8 40 -26 11 -27
-33 18 -2 -19 -14 33 -8 -27 -4 2 -3 20 -9 -32 -19 -20 -10 -25 -5 11 -2 3 9 16 -5 -20 5 -3 23 -3 1 4 27 -2 -4 2 17 31 -19 -2 8 -8 -22 -5 21 -8 -9 3
5 -19 -30 -2 5 -4 -14 19 14 3 -12 -2 1 -14 -21 -15 16 -9 9 -7 6 1 20 -3 -26 20 -10 -11 -4 10 11 8 -13 5 25 -6 -13 30 10 -1 42 -21 -37 -6 30 -47 -17 -37
2 10 0 -6 6 -9 -38 -11 -13 9 -12 7 -12 11 -15 -10 5 23 -4 -10 -19 -1 27 1 -26 9 -4 33 -2 11 -3 1 11 11 36 8 -3 16 -6 -11 42 -30 5 5 27 -19 7 -23
0 0 0 0 0 0 0 0 0 0 0 0 0 0 0 0 0 0 0 0 0 0 0 0 0 0 0 0 0 0 0 0 0 0 0 0 0 0 0 0 0 0 0 0 0 0 0 0
0 0 0 0 0 0 0 0 0 0 0 0 0 0 0 0 0 0 0 0 0 0 0 0 0 0 0 0 0 0 0 0 0 0 0 0 0 0 0 0 0 0 0 0 0 0 0 0
0 0 0 0 0 0 0 0 0 0 0 0 0 0 0 0 0 0 0 0 0 0 0 0 0 0 0 0 0 0 0 0 0 0 0 0 0 0 0 0 0 0 0 0 0 0 0 0
