16 -13 -28 -2 -22 3 8 52 -2 -36 -4 13 -10 -8 -3 5 -38 -7 -8 37 -4 7 14 25 -16 -13 -27 19
13 23 -24 -15 18 19 -14 -21 -36 17 -17 -10 -3 -15 4 28 -1 45 -30 -33 13 12 -2 -30 -24 -7 -5 5
-10 -19 5 3 -3 -16 -17 26 -15 -10 14 -21 21 -6 14 33 3 -3 -55 15 -21 18 25 -14 17 -9 17 -13
7 12 -12 -22 -4 -2 23 -13 -25 24 22 -27 -19 13 -37 -9 18 26 -10 -17 -35 1 21 -14 -11 -4 2 -5
2 -12 -2 -2 69 -37 -10 -7 -9 -13 -7 -8 -4 5 5 -9 2 2 -7 17 10 -36 -26 56 46 -50 -93 9
0 0 0 0 0 0 0 0 0 0 0 0 0 0 0 0 0 0 0 0 0 0 0 0 0 0 0 0
0 0 0 0 0 0 0 0 0 0 0 0 0 0 0 0 0 0 0 0 0 0 0 0 0 0 0 0
0 0 0 0 0 0 0 0 0 0 0 0 0 0 0 0 0 0 0 0 0 0 0 0 0 0 0 0
-2 -26 -20 -11 1 5 3 7 -49 -5 -12 27 8 21 5 36 -16 -15 -3 9 -11 4 3 -1 -4 23 -7 -17
13 14 -30 7 -1 4 -19 2 7 35 -29 19 -24 -32 -5 -9 -6 4 -21 -35 13 10 -13 5 22 -10 5 37
0 -32 -17 -38 -7 -11 -11 30 -24 -17 14 -14 12 -10 12 48 -3 -11 -24 7 -8 11 18 2 11 18 -2 -9
7 11 -51 16 11 15 21 -1 -30 48 -8 -21 -30 23 -25 4 3 35 -24 -17 -22 -20 32 -13 -5 -9 -13 -10
-17 -13 -3 -4 87 -83 -13 -15 -6 -11 -7 16 6 -14 -21 21 -17 10 -9 -15 13 -32 -7 47 54 -85 -159 -38
0 0 0 0 0 0 0 0 0 0 0 0 0 0 0 0 0 0 0 0 0 0 0 0 0 0 0 0
0 0 0 0 0 0 0 0 0 0 0 0 0 0 0 0 0 0 0 0 0 0 0 0 0 0 0 0
0 0 0 0 0 0 0 0 0 0 0 0 0 0 0 0 0 0 0 0 0 0 0 0 0 0 0 0
11 -11 4 -9 12 16 -8 -18 -5 9 7 -15 -11 -4 -13 21 -51 11 17 0 -21 -10 -26 -24 -22 -28 -20 -10
12 -10 -19 40 -15 -13 -6 -7 -33 36 -34 2 -35 8 -19 32 13 9 11 -6 34 -37 -17 3 -15 -13 -9 -23
4 -32 10 -32 15 25 16 -60 13 5 -15 10 -39 42 -7 14 -60 6 32 -34 -6 26 -11 16 -15 8 -18 -13
33 0 -45 36 -2 1 20 1 -22 23 -6 57 -20 2 -55 9 -13 45 -22 -2 1 -19 15 -9 7 2 -23 -5
-3 18 4 7 67 -85 14 -1 -2 -2 3 18 10 -21 -5 46 -14 -12 -7 -31 -3 -15 7 73 55 -59 -122 -13
0 0 0 0 0 0 0 0 0 0 0 0 0 0 0 0 0 0 0 0 0 0 0 0 0 0 0 0
0 0 0 0 0 0 0 0 0 0 0 0 0 0 0 0 0 0 0 0 0 0 0 0 0 0 0 0
0 0 0 0 0 0 0 0 0 0 0 0 0 0 0 0 0 0 0 0 0 0 0 0 0 0 0 0
6 -9 10 2 -9 -6 -21 0 -29 1 22 7 -26 13 9 41 -70 7 29 -5 3 -3 16 23 -7 34 -2 -8
11 -13 -34 12 5 -33 -6 17 0 3 -4 15 -33 3 -35 35 4 -13 -20 3 -3 -2 -22 13 0 -15 -48 0
6 -15 34 -7 22 33 14 -70 35 14 -5 -5 -33 26 -14 6 -56 11 23 -22 -6 18 -1 4 -19 -8 -4 -27
36 1 -4 -3 -13 -12 19 -3 -15 -9 19 56 -15 -16 -63 1 1 40 -14 -8 -25 -15 3 -10 12 15 -12 -8
8 7 -17 6 57 -55 6 -7 -15 0 -8 8 -9 -7 30 0 8 -5 18 5 5 -43 -6 59 51 -38 -134 1
0 0 0 0 0 0 0 0 0 0 0 0 0 0 0 0 0 0 0 0 0 0 0 0 0 0 0 0
0 0 0 0 0 0 0 0 0 0 0 0 0 0 0 0 0 0 0 0 0 0 0 0 0 0 0 0
0 0 0 0 0 0 0 0 0 0 0 0 0 0 0 0 0 0 0 0 0 0 0 0 0 0 0 0
-16 16 -21 -19 -16 -25 -17 23 -18 18 -1 0 3 -20 0 42 -39 -15 4 20 3 3 3 6 21 21 -21 -28
31 -21 -25 -3 10 -2 -7 -23 -7 3 -11 -9 -6 3 -23 -7 2 12 -41 -34 18 36 13 -6 16 19 -29 12
-10 -47 -3 -29 -7 -16 -9 34 -17 2 -5 -8 27 19 4 59 -11 -16 -47 -3 7 -31 42 15 12 10 -2 23
30 -6 -24 17 6 1 -1 2 -26 62 10 -42 -20 18 -30 11 0 44 -20 -24 -34 14 16 0 -7 -9 6 20
12 -15 7 -8 89 -99 -15 -8 5 -29 -10 22 -7 -14 -17 13 0 6 -3 -6 3 -48 -13 61 68 -65 -145 -16
0 0 0 0 0 0 0 0 0 0 0 0 0 0 0 0 0 0 0 0 0 0 0 0 0 0 0 0
0 0 0 0 0 0 0 0 0 0 0 0 0 0 0 0 0 0 0 0 0 0 0 0 0 0 0 0
0 0 0 0 0 0 0 0 0 0 0 0 0 0 0 0 0 0 0 0 0 0 0 0 0 0 0 0
-13 -7 3 -18 -13 -4 -26 22 -21 -19 -30 8 5 12 2 9 -44 -4 1 -3 0 14 -6 -6 -3 24 -33 -26
33 25 -20 -10 2 9 -17 -31 -13 -16 -13 -5 -28 1 -3 18 -5 42 -19 -45 -4 -52 32 1 4 3 -34 -30
-18 -41 -16 -59 -21 -28 -20 31 -42 4 9 8 29 29 19 66 -32 13 -21 -12 -30 -13 41 9 13 13 -7 11
47 7 -46 11 4 -3 -9 -7 -14 68 -21 -52 -32 -2 -51 34 -24 72 -27 -30 -21 -21 32 9 -25 -16 -13 12
12 -2 14 -4 94 -128 -12 -13 -10 -28 9 20 -18 -30 -10 10 -11 4 11 -13 0 -39 -26 45 77 -105 -155 -13
0 0 0 0 0 0 0 0 0 0 0 0 0 0 0 0 0 0 0 0 0 0 0 0 0 0 0 0
0 0 0 0 0 0 0 0 0 0 0 0 0 0 0 0 0 0 0 0 0 0 0 0 0 0 0 0
0 0 0 0 0 0 0 0 0 0 0 0 0 0 0 0 0 0 0 0 0 0 0 0 0 0 0 0
-21 -7 -9 -27 -18 26 29 36 -49 -4 5 2 15 4 6 54 -66 -2 40 -7 23 -3 25 37 4 -6 22 -30
21 17 -18 1 7 -9 -14 6 -20 1 -13 -26 -9 15 -13 -3 -6 23 12 -34 25 -9 0 27 10 22 -18 28
-7 -19 2 -56 -8 -3 29 -40 -6 0 9 -6 -48 47 7 13 -92 35 64 -41 -20 26 -2 18 -32 -11 -13 -22
35 21 -72 31 -14 -4 -6 0 -2 39 -23 48 -16 -17 -71 8 -22 76 -19 -28 -36 -37 8 -11 3 10 -19 -15
11 18 -14 16 99 -91 -1 -14 -20 -19 8 14 -11 2 9 28 -17 -3 7 -19 -9 -28 7 38 68 -93 -159 -23
0 0 0 0 0 0 0 0 0 0 0 0 0 0 0 0 0 0 0 0 0 0 0 0 0 0 0 0
0 0 0 0 0 0 0 0 0 0 0 0 0 0 0 0 0 0 0 0 0 0 0 0 0 0 0 0
0 0 0 0 0 0 0 0 0 0 0 0 0 0 0 0 0 0 0 0 0 0 0 0 0 0 0 0
-5 13 11 -34 6 3 -9 5 -14 -6 18 -6 -53 9 -18 14 -32 38 15 -31 -11 0 2 10 5 -12 -5 7
18 11 -39 22 6 -7 -22 -3 -19 10 -9 -38 2 4 0 19 7 6 17 8 29 -23 25 -15 9 -31 -26 -13
-5 -5 16 -21 9 21 29 -38 25 -12 -8 -7 -55 28 -6 14 -85 26 48 -28 1 26 -11 2 -21 1 -10 -13
42 13 -45 32 -14 9 -1 5 -12 12 13 61 0 -11 -64 6 0 25 -6 -19 -35 -29 5 -6 0 -2 -17 1
6 17 -19 7 92 -77 -2 -16 -3 -5 -15 11 3 -5 -4 35 -8 0 12 -5 -27 -25 8 41 45 -69 -143 -22
0 0 0 0 0 0 0 0 0 0 0 0 0 0 0 0 0 0 0 0 0 0 0 0 0 0 0 0
0 0 0 0 0 0 0 0 0 0 0 0 0 0 0 0 0 0 0 0 0 0 0 0 0 0 0 0
0 0 0 0 0 0 0 0 0 0 0 0 0 0 0 0 0 0 0 0 0 0 0 0 0 0 0 0
-1 -2 -35 -14 0 -23 -22 40 -23 10 0 12 9 38 39 22 -28 8 -5 -4 28 14 0 14 -13 -31 1 32
46 28 -36 28 21 21 -17 17 22 3 -19 -26 7 -3 19 3 -37 29 -1 -30 42 -40 27 1 -39 -22 12 -14
15 1 -31 -33 -11 -7 -24 67 -36 -4 -15 35 46 2 -1 18 6 -14 -10 19 29 -27 13 10 -9 -3 15 40
-16 -17 1 13 11 3 -20 6 16 44 -38 -59 23 0 48 22 -22 -3 -8 -24 -1 8 14 13 -19 -3 -15 13
3 -8 14 11 79 -88 -4 7 -8 -32 5 28 21 -22 -23 11 -8 15 7 -24 -24 -24 2 40 52 -44 -151 -29
0 0 0 0 0 0 0 0 0 0 0 0 0 0 0 0 0 0 0 0 0 0 0 0 0 0 0 0
0 0 0 0 0 0 0 0 0 0 0 0 0 0 0 0 0 0 0 0 0 0 0 0 0 0 0 0
0 0 0 0 0 0 0 0 0 0 0 0 0 0 0 0 0 0 0 0 0 0 0 0 0 0 0 0
-18 -11 -13 -41 8 -22 -10 40 -10 12 2 -4 15 -18 -21 13 -43 10 -3 -14 0 -8 -35 15 -6 -5 26 10
47 -20 -50 35 -31 18 -3 4 25 27 -10 -38 21 14 -15 30 -8 33 -1 -40 -23 -1 -21 -5 -10 5 7 40
6 -9 -20 -37 -22 -25 -12 78 -57 10 -2 24 54 37 -9 54 -22 -1 -8 -1 19 -37 20 8 3 -3 1 43
34 -2 -20 6 -7 -15 -52 0 19 51 -55 -88 32 -9 29 24 -13 38 -3 -60 18 17 -1 19 -24 14 -3 15
17 2 31 10 84 -106 -13 2 -5 -31 -12 13 1 -7 -19 18 16 5 16 -3 -7 -24 -35 59 57 -69 -142 1
0 0 0 0 0 0 0 0 0 0 0 0 0 0 0 0 0 0 0 0 0 0 0 0 0 0 0 0
0 0 0 0 0 0 0 0 0 0 0 0 0 0 0 0 0 0 0 0 0 0 0 0 0 0 0 0
0 0 0 0 0 0 0 0 0 0 0 0 0 0 0 0 0 0 0 0 0 0 0 0 0 0 0 0
-23 -2 7 -28 -4 9 -3 25 5 13 26 -6 -13 35 2 12 -6 25 19 5 11 6 -17 4 4 10 6 -4
47 25 -23 -14 -16 -17 -12 5 5 -17 -7 -24 31 2 15 -2 12 28 -10 -21 18 -12 16 0 -14 -24 -18 -24
-17 -1 -11 -25 -15 -7 38 28 -29 9 20 -12 -9 61 -7 6 -65 34 75 -27 4 -30 -31 2 -4 4 -24 8
50 11 -73 7 -10 -3 -73 6 54 4 -48 -11 28 -24 11 5 -8 25 30 -41 29 -19 -38 14 10 6 12 10
13 -7 -31 0 90 -117 -22 -17 -3 -15 -8 11 -22 -15 -12 27 9 11 10 10 -20 -58 -4 49 72 -59 -183 -3
0 0 0 0 0 0 0 0 0 0 0 0 0 0 0 0 0 0 0 0 0 0 0 0 0 0 0 0
0 0 0 0 0 0 0 0 0 0 0 0 0 0 0 0 0 0 0 0 0 0 0 0 0 0 0 0
0 0 0 0 0 0 0 0 0 0 0 0 0 0 0 0 0 0 0 0 0 0 0 0 0 0 0 0
4 9 -12 -29 -23 23 8 -8 -10 15 -2 -5 1 42 4 21 -23 18 73 4 22 -37 -21 -24 16 -17 -13 11
19 2 -48 2 11 1 -5 -1 -7 17 5 -24 38 -12 10 -2 -32 16 -4 -34 2 34 -26 16 -1 1 -2 41
-20 4 -24 -4 -4 -1 26 17 -14 -6 0 2 -24 41 13 -38 -33 28 67 -11 3 -3 -47 -8 5 -4 -8 10
-3 0 -52 18 4 10 -38 6 50 5 -30 16 26 -8 23 0 -18 -19 27 -1 23 -11 -25 7 4 -18 7 16
10 0 -24 6 76 -82 -4 1 5 -17 20 11 5 -20 -21 37 -21 -2 -23 -11 -40 -30 16 32 31 -70 -123 9
0 0 0 0 0 0 0 0 0 0 0 0 0 0 0 0 0 0 0 0 0 0 0 0 0 0 0 0
0 0 0 0 0 0 0 0 0 0 0 0 0 0 0 0 0 0 0 0 0 0 0 0 0 0 0 0
0 0 0 0 0 0 0 0 0 0 0 0 0 0 0 0 0 0 0 0 0 0 0 0 0 0 0 0
-1 -13 -40 -20 15 -30 16 17 3 -27 14 7 5 -8 -22 1 -17 16 -19 12 6 -28 13 -11 19 12 -19 8
41 12 -43 8 -20 -8 -22 17 -4 24 -22 -26 0 -6 45 35 -6 19 8 -10 -4 -3 0 7 -6 20 -1 14
23 24 -16 -13 -4 3 -28 65 -29 -16 3 16 40 -16 5 -2 12 -9 -26 39 23 18 -12 -17 -2 -7 23 32
-30 13 23 -27 1 2 -10 -5 10 3 -31 -49 21 -13 46 2 -3 -11 8 -9 23 -12 15 7 -17 22 -24 6
-5 3 10 2 52 -70 0 4 7 1 -3 8 1 -10 -14 -1 -3 1 9 -3 2 -40 -23 43 16 -64 -85 -2
0 0 0 0 0 0 0 0 0 0 0 0 0 0 0 0 0 0 0 0 0 0 0 0 0 0 0 0
0 0 0 0 0 0 0 0 0 0 0 0 0 0 0 0 0 0 0 0 0 0 0 0 0 0 0 0
0 0 0 0 0 0 0 0 0 0 0 0 0 0 0 0 0 0 0 0 0 0 0 0 0 0 0 0
12 -1 -14 -40 15 -3 -16 12 -23 31 -3 1 5 -17 7 29 -18 6 14 12 -2 14 -18 -20 -11 34 2 31
47 0 0 -2 -22 2 -4 4 4 1 -41 -8 11 -13 21 19 1 33 14 -47 46 -30 35 -19 -24 -30 -7 -57
30 -10 -18 -28 -10 -14 -3 82 -39 -12 -4 3 31 11 -12 20 15 -20 -5 10 34 -19 -7 -5 8 -15 10 22
-5 2 -8 2 -5 -4 -34 0 12 31 -38 -67 38 11 58 -7 6 5 8 -30 18 10 1 3 -2 29 -6 6
-22 -15 -15 12 69 -57 4 8 4 -10 -18 15 11 -10 -22 19 13 19 -5 -23 -6 -22 -15 61 43 -43 -132 -26
0 0 0 0 0 0 0 0 0 0 0 0 0 0 0 0 0 0 0 0 0 0 0 0 0 0 0 0
0 0 0 0 0 0 0 0 0 0 0 0 0 0 0 0 0 0 0 0 0 0 0 0 0 0 0 0
0 0 0 0 0 0 0 0 0 0 0 0 0 0 0 0 0 0 0 0 0 0 0 0 0 0 0 0
6 -21 15 -13 -14 -4 -24 18 -3 19 24 -17 14 11 11 33 -26 20 48 -27 -1 -14 -27 22 5 -8 15 4
26 20 -6 -7 7 20 8 4 28 18 -27 -37 28 -1 17 -5 4 12 -10 -27 0 17 -9 -7 15 16 23 -3
-14 -7 -13 9 5 12 22 4 -15 13 -3 10 -1 50 -16 -3 -24 15 50 -20 -3 -28 -33 -5 21 22 -19 -10
42 -20 -49 19 2 0 -50 3 43 -19 -26 -5 33 4 32 3 -9 -17 26 -16 43 8 -28 13 13 -1 16 12
1 -10 -22 4 73 -69 -10 -2 -11 -14 0 8 17 -25 -11 39 9 8 -12 4 -32 -10 8 54 45 -74 -146 -25
0 0 0 0 0 0 0 0 0 0 0 0 0 0 0 0 0 0 0 0 0 0 0 0 0 0 0 0
0 0 0 0 0 0 0 0 0 0 0 0 0 0 0 0 0 0 0 0 0 0 0 0 0 0 0 0
0 0 0 0 0 0 0 0 0 0 0 0 0 0 0 0 0 0 0 0 0 0 0 0 0 0 0 0
-3 42 -3 -25 -8 18 26 41 35 19 -12 32 -2 20 13 -4 -22 1 49 5 1 0 -14 11 -9 7 -8 -26
13 6 6 -7 11 -10 -19 -3 3 18 -9 -5 29 -2 -11 25 -6 5 -9 -28 14 -14 29 -4 -15 14 24 -31
-18 4 -9 23 11 18 13 -18 -5 22 11 4 4 26 1 -32 -15 11 34 3 4 -8 -35 -7 1 -2 -5 -7
-4 -14 -24 -6 10 -2 -21 2 39 -25 -22 11 11 -9 32 -7 -15 -13 20 3 34 11 -26 -2 17 -5 12 0
16 -5 1 2 55 -68 -12 5 -13 -8 20 3 5 -6 4 11 -6 -10 -15 17 -3 -40 11 52 32 -63 -119 8
0 0 0 0 0 0 0 0 0 0 0 0 0 0 0 0 0 0 0 0 0 0 0 0 0 0 0 0
0 0 0 0 0 0 0 0 0 0 0 0 0 0 0 0 0 0 0 0 0 0 0 0 0 0 0 0
0 0 0 0 0 0 0 0 0 0 0 0 0 0 0 0 0 0 0 0 0 0 0 0 0 0 0 0
