-4 -8 -3 2 -8 -8 15 2 -3 3 5 -3 -1 -18 -7 18
-1 -6 17 19 8 -12 18 20 4 7 9 8 5 -3 0 4
-12 9 10 7 -3 20 5 -25 -8 20 -11 10 6 -1 16 18
28 34 -8 15 4 4 -7 4 11 -1 2 -2 15 13 -16 5
-8 -9 -7 -6 8 14 -1 5 -9 -4 4 9 -10 5 19 2
-14 2 -11 0 -10 4 11 16 8 -3 -6 6 4 6 -5 3
3 3 0 2 0 5 -2 -2 -16 6 9 1 -8 5 7 3
4 -15 8 25 1 5 -2 12 4 -10 15 -1 4 -3 4 11
-14 -14 -3 -11 -8 31 -4 1 -16 -13 -8 16 -2 -26 10 6
-8 9 -4 7 22 17 4 -3 -9 4 -11 11 -4 4 6 8
-4 -4 13 -4 2 7 -7 0 2 -6 1 1 -6 -11 -2 -2
4 -13 0 6 -18 0 -13 13 12 4 15 -9 -3 17 -16 -7
-6 2 2 -4 9 7 -11 -5 11 13 7 8 0 -17 -4 5
16 24 -12 0 1 -9 -4 1 -1 0 2 -11 24 9 -25 3
-23 -15 20 -11 -23 2 4 6 1 -8 -22 0 -23 2 13 9
-4 -5 0 12 -13 -21 -2 -14 11 -10 -13 -12 -13 -4 -7 -11
-4 -2 14 12 -12 -3 17 13 7 11 -8 -16 -15 -11 -8 -9
0 14 -7 -5 18 -9 -2 7 8 12 7 -8 10 6 6 1
-4 3 26 10 8 -7 31 -10 -5 28 5 8 3 12 17 7
5 11 -9 2 -7 -2 -5 9 -4 -9 3 0 1 -2 -7 4
-12 -23 0 -25 13 21 -7 -17 -19 -5 -1 10 -23 3 22 9
-22 -8 -3 -19 8 16 25 -4 -11 -3 3 9 1 4 11 20
10 9 -1 -3 -4 -1 18 -15 -15 7 -13 12 -4 4 8 -3
0 -13 -1 19 1 11 -17 1 0 -4 12 -7 12 3 -18 5
-3 -12 -9 -9 5 3 -1 4 -4 -23 -11 1 -9 7 1 -3
-7 0 -2 1 3 10 -8 -7 -9 -2 2 11 10 -1 -8 5
-6 7 4 4 -26 -29 -13 -6 15 -6 -12 -17 -12 -8 4 -18
9 -5 -24 -2 1 -1 -17 1 0 -3 5 -7 -1 10 -6 -3
0 -2 11 12 -1 -1 14 5 -11 0 22 0 9 -17 15 -7
38 11 2 11 15 -19 1 -7 -11 6 15 0 22 4 -32 -14
0 -2 6 15 -1 -3 -10 7 1 1 2 3 0 9 -16 -5
-4 10 -12 13 -18 -19 0 7 1 -3 2 -1 -11 -10 -6 -14
5 -12 2 8 -1 9 34 10 7 6 -1 -12 -15 -21 8 -3
-10 6 -5 5 4 1 -12 -2 -4 17 -5 6 -1 -3 13 4
4 -12 11 4 3 0 -9 -10 -18 9 -12 -4 -20 26 -3 -3
-16 -12 0 -9 -3 -9 4 9 2 -3 -13 -1 -2 -5 17 1
-19 -14 1 -7 6 2 -29 6 -7 -6 1 12 -18 -6 10 -19
-21 -10 20 -10 11 17 11 -6 -5 2 -15 16 2 7 -7 19
1 15 3 -3 9 -10 11 14 -14 8 3 -2 3 6 16 -12
16 1 -8 3 11 3 -10 -17 -11 -1 2 -4 10 3 -10 7
9 4 -8 7 -1 -1 3 2 -3 -14 8 11 15 17 -20 -7
-2 3 2 5 -14 -11 -2 2 0 -7 4 -20 3 -3 -18 -21
-1 5 -6 11 -20 -34 7 0 6 9 12 -16 -14 8 0 -5
-1 -7 -20 -2 1 -1 -14 -2 -20 -18 16 9 0 16 13 34
0 1 6 2 -5 7 16 2 -5 10 10 1 4 1 0 5
20 20 -11 -6 6 0 0 -9 0 12 -3 -10 24 4 1 -2
10 15 -11 3 10 -5 -4 -1 7 1 15 -1 11 3 -10 0
0 3 -12 16 1 -8 8 0 6 -5 0 -2 6 18 -4 0
13 9 2 6 -7 7 26 8 3 4 17 -20 -4 -12 -3 -2
4 13 20 -4 -12 -11 15 17 16 1 4 -3 12 -1 17 7
-8 11 -8 1 -5 5 7 1 -4 24 -11 -12 6 -10 -8 12
35 -2 5 21 16 12 11 -3 -8 -8 4 11 11 4 -12 -1
13 -5 -1 11 0 -16 1 9 10 1 8 -10 5 12 1 -33
-10 4 -5 -2 -9 -9 -2 10 18 1 6 -14 13 2 -12 -6
-3 -5 -1 1 -4 0 23 -16 -15 3 3 5 -7 -6 1 10
-9 -3 -6 8 0 -7 3 -5 9 -12 -3 3 -13 2 19 -9
-28 -25 -12 -40 -8 8 -5 -23 -10 -35 -23 22 -16 -26 23 6
-7 6 0 -7 26 25 15 4 -2 -20 4 10 2 4 7 15
4 0 13 -6 10 25 5 -7 -8 -18 -13 28 -3 -14 2 9
3 6 3 6 -27 -16 -19 2 9 9 -17 -25 7 26 -12 -10
-3 14 19 14 15 -2 17 14 2 10 -1 6 5 3 -1 15
15 -3 7 -8 -19 -18 -1 0 14 2 -11 -12 9 2 5 -5
-22 -7 3 -10 -24 8 -7 11 3 2 -23 -4 -10 -8 24 17
-21 -11 12 0 4 -3 -1 -1 -6 -10 -12 1 -9 7 7 5
8 2 4 2 -14 4 5 9 10 8 -8 -23 -15 -31 -13 -4
0 14 -3 -20 4 -9 2 23 0 19 14 1 5 -6 11 10
-1 -1 3 3 -14 -5 29 -11 -10 36 1 -3 19 -1 -13 8
2 -27 -10 -5 11 9 1 -20 -10 -3 -24 7 -16 -11 2 -8
0 -10 -15 -7 -3 3 10 -11 -14 -20 1 8 2 10 8 -31
5 -1 -19 -3 4 -14 16 3 -7 -13 9 -1 1 -3 10 -15
6 -11 7 -21 -15 3 2 -7 -13 6 -8 6 8 -2 -2 -22
-11 12 -12 -5 -16 4 9 -7 11 1 -1 -17 -3 4 10 -5
-11 21 4 5 -36 -23 -28 14 18 -42 -34 -17 -7 27 -20 -18
4 2 -1 -4 13 11 5 -5 -4 -19 -6 -1 -9 3 4 3
-15 29 31 0 -20 -2 -36 -10 -5 1 -30 -13 -14 24 -5 2
6 9 -8 16 36 -20 2 19 -8 11 16 -5 14 -1 6 14
3 17 42 10 1 4 10 17 -9 7 3 3 2 18 8 -11
4 -19 21 -14 -13 -4 6 3 7 19 -1 7 2 -7 -3 8
11 17 5 6 -2 2 11 22 2 7 17 -2 6 1 -1 -10
-15 3 -4 2 -11 8 -13 -12 13 12 -28 0 -23 -11 16 19
-11 -7 -14 -12 4 -6 24 14 5 1 -2 -8 -7 -29 14 -2
1 0 5 -18 11 13 -7 0 -3 2 -11 5 -7 -7 3 7
9 -14 7 8 -8 -4 16 -8 -10 18 -15 -11 -6 18 -31 4
-32 -6 -1 -18 -25 -10 -5 -25 13 -8 -32 2 -15 -11 23 -5
-6 4 -9 3 -6 5 -3 -14 -8 -21 5 11 -2 18 -4 -19
-5 1 -2 -9 8 13 11 -15 -8 -20 1 15 -13 12 0 -1
3 5 -8 2 0 0 13 7 -7 0 9 -6 14 -9 -12 -22
-1 15 -10 -3 6 8 -5 -3 -7 -2 16 -12 11 4 16 20
19 14 14 28 6 -22 4 20 9 -4 16 -11 22 9 -25 -16
6 4 6 10 -19 -11 -5 -13 22 13 -3 -14 5 -4 -21 -29
1 12 26 11 -25 -20 -6 0 2 37 -3 -8 2 -2 -10 -8
-3 -21 -17 -20 0 5 27 -2 -25 -27 5 2 5 7 17 12
-4 15 34 19 -6 -12 -2 27 -7 7 8 1 -1 29 9 2
8 -18 19 0 -9 8 3 2 4 -12 9 1 -7 9 7 -13
34 12 5 31 10 -2 4 -1 -5 -5 19 3 15 10 -22 3
-11 2 2 22 -16 7 -2 19 5 17 0 -1 -5 10 2 4
2 7 -7 0 -10 5 24 -18 3 10 12 -17 -16 -14 0 -11
-7 13 -4 2 6 -19 26 9 16 -5 -2 -12 5 -1 13 0
-2 14 5 7 5 16 -1 -2 -14 23 0 3 19 10 -3 13
24 2 -3 -2 -3 -5 2 2 3 1 -7 7 28 -11 -17 -9
11 13 28 6 -23 -22 -6 25 18 12 12 -16 12 17 -6 -1
4 12 3 18 -10 -18 -2 0 18 0 -2 -20 6 13 -14 -5
-6 -13 6 8 -1 1 21 -1 -4 10 -8 -2 -2 -2 8 -5
-13 -6 6 3 2 -9 0 2 4 4 -10 1 -7 2 11 -15
-19 -6 -2 8 0 4 -25 4 5 -13 -24 8 -4 -7 -4 -8
-5 4 8 -6 -5 11 1 6 -2 -16 -8 1 -10 16 -1 -7
7 -31 -2 -1 8 31 9 -9 0 -4 14 20 8 -20 -10 5
8 -2 2 -5 5 2 -11 13 -2 8 -2 -13 7 0 7 19
-8 8 -13 2 18 -3 7 -12 -1 5 1 11 -6 -18 -8 3
-33 -9 0 -10 -11 -6 -8 12 4 4 -21 -3 -21 -10 30 14
-27 -12 -13 -6 -4 -1 0 3 -12 9 -18 -5 -14 -10 14 0
-12 -8 -6 -5 11 11 9 -11 7 0 0 5 -6 -12 6 10
-3 -8 -10 3 17 14 16 -5 4 9 8 -12 -5 -19 -5 9
-3 2 -18 -12 -3 -10 7 11 6 -1 -1 -5 2 -6 18 -1
-2 6 11 7 0 -5 23 3 -1 44 2 -6 16 10 -1 8
5 -16 -13 3 -10 11 1 2 -5 -10 -6 -3 8 -3 -22 -6
6 15 22 12 -7 -9 -17 37 12 11 19 -11 17 1 -20 -12
16 4 -10 20 -14 -27 -4 10 20 14 7 -15 27 7 -5 -24
5 -15 -8 -5 -24 5 -7 1 -2 8 -16 -8 5 -7 6 -20
-4 18 8 -5 -8 -13 -5 16 19 -6 20 -1 -2 -1 -2 -5
0 15 -3 18 -9 -7 -24 12 -6 -15 -12 -11 7 23 -1 -10
5 4 -10 1 -10 -10 -8 -5 11 -14 -5 -12 -7 8 -7 -23
3 8 6 7 25 14 8 -14 -9 -8 -4 21 -7 15 -3 19
13 2 -8 -1 39 -8 -6 7 -4 8 11 -3 1 -16 5 14
-3 -18 10 -7 2 0 19 8 -12 -1 -3 4 -5 -19 12 5
-30 -1 -4 -30 -12 3 -14 -1 10 7 -30 4 -11 -17 35 6
-3 -15 -9 -1 0 8 8 -5 2 -4 7 3 2 1 -7 -10
0 10 -5 -16 12 3 18 -18 6 -6 -13 3 -5 -3 20 35
5 -8 -9 14 22 13 32 -2 -4 5 -7 -2 1 -6 8 5
-9 -11 -14 -3 5 8 -9 -1 -6 2 -6 0 -6 -4 18 -11
1 -4 17 -3 1 4 1 -9 -28 14 -3 1 -6 15 -23 -5
-19 0 -12 3 3 -1 5 2 -11 5 -13 -4 -13 -10 12 2
9 -7 8 3 -6 -3 0 23 5 18 12 4 19 -2 -6 -9
5 0 -10 0 -9 -6 8 -5 3 -10 11 5 18 7 -7 -7
11 -10 -12 -16 -3 -10 7 -8 -19 1 -14 -3 8 -19 8 9
7 14 5 -18 1 -7 -7 14 -5 -11 9 -5 17 5 5 13
13 11 1 -20 17 5 5 4 1 20 24 -12 14 3 -10 15
-3 7 -2 -6 -23 -19 -10 -12 23 13 -12 -22 6 -5 -15 -31
-10 1 18 4 10 -10 3 -23 -6 33 1 -3 4 -3 -10 20
2 -11 -17 -10 6 0 -2 -21 -12 -21 8 10 -3 25 11 -3
-11 -2 -13 3 1 -10 0 17 -8 1 -2 -2 -18 13 20 10
-22 -16 22 12 -17 14 -6 21 11 0 -8 -7 -13 3 7 -1
29 15 15 9 2 -6 -9 -11 -5 6 12 -6 6 14 -5 8
7 17 -4 -8 2 13 -13 -6 -3 12 -1 5 -5 0 -8 17
