-10 -1 7 3 14 9 -15 -21
7 -7 -4 11 28 23 -9 6
8 -15 12 3 -16 -14 -4 18
9 -22 -3 -25 -7 -14 41 28
-16 -18 11 2 30 -2 -14 -25
0 -6 -4 -10 -14 -10 8 23
-1 6 12 -11 1 -18 -2 20
-11 9 -10 -33 -39 -25 11 28
1 0 -16 5 -25 13 19 33
0 1 0 4 -4 25 0 -17
5 -12 0 -19 -6 -11 30 15
-6 2 -4 24 -11 3 -21 -13
-7 -11 -3 11 21 26 -16 -38
13 18 14 -20 -9 11 0 -6
6 0 -5 -15 -30 -10 25 32
-24 -13 -9 -37 -52 -45 85 105
10 -12 -5 17 23 20 -1 -12
-8 9 4 4 10 13 13 29
4 9 6 -10 -11 -8 5 14
-4 2 4 -11 20 -15 -7 1
-1 -5 -3 13 19 -3 -18 0
7 -9 17 0 7 -19 32 -7
12 4 -21 -14 -2 10 -13 9
-19 13 -4 -20 -21 -26 33 28
-5 6 7 -1 3 -21 -3 -9
-3 11 4 35 20 29 -24 -43
-19 8 -20 -21 -33 -30 24 21
10 18 12 -32 -4 6 -5 -27
0 20 -13 2 17 25 -8 -12
-9 -4 1 1 1 -5 22 17
10 3 7 9 -13 13 -5 -1
1 16 -9 -36 -51 -15 36 57
7 -24 8 -5 -36 -16 -3 15
4 2 -8 21 26 22 -15 -31
-13 -3 -14 -20 7 -31 2 8
15 19 20 11 2 16 -5 1
12 -15 -9 6 28 38 -26 -2
9 4 -18 -9 -6 4 25 7
-6 10 -7 11 -7 19 -9 26
0 12 10 -40 -58 -34 12 34
-14 -18 8 -4 -4 0 19 24
13 4 31 21 10 4 15 -6
19 11 -6 3 1 -29 8 18
-1 1 21 7 8 -9 -9 -11
5 28 -2 -2 1 14 -18 -18
-5 -14 4 -16 -8 -16 23 37
0 -6 6 -9 -21 11 9 -3
-3 -8 8 -17 -44 -20 32 24
-7 16 -15 -8 -10 14 30 -3
-16 2 1 36 36 26 -37 -23
4 8 2 -5 -9 -9 13 22
2 -13 -12 -8 7 -6 38 24
-7 9 4 43 40 31 -17 -23
-26 2 3 -15 -13 -41 0 16
19 -8 -11 1 11 -4 -9 10
18 -1 -1 -10 4 -10 4 7
8 -17 -2 -1 7 -3 8 28
-11 -17 -7 41 62 42 -76 -85
-5 7 6 22 1 3 2 -25
2 -3 -18 35 41 26 -17 -25
7 -19 15 19 34 14 -34 -60
-8 -3 -24 -29 -25 -28 35 24
-8 16 20 23 26 28 -31 -25
5 -5 -8 -11 -18 -15 7 -10
1 -10 0 15 6 5 -11 2
-2 -12 -15 20 42 11 -35 -43
-18 -12 -5 -9 2 -6 -26 -12
6 -20 -8 18 4 22 0 -2
3 8 1 29 24 -1 1 3
3 -16 4 -19 -31 -22 9 11
-17 2 -14 5 -11 -8 -13 -4
-8 -3 -15 -11 -10 -5 12 9
