16 -2 -13 -1 3 10 10 14
-10 -11 3 -17 2 17 5 -20
2 -18 9 10 18 28 -9 2
18 24 22 -6 -6 16 -9 17
-13 13 -11 8 -1 7 -4 1
-3 13 -11 16 14 12 15 17
4 15 -5 15 23 27 -17 -25
16 -9 -22 21 22 23 -13 3
-14 15 6 -7 6 -13 -16 -32
7 17 -14 -13 11 0 -20 -19
3 -3 10 -9 -17 0 -1 -7
16 -6 -13 15 -17 -11 -9 -3
7 28 3 -27 -11 -27 -23 8
-15 16 1 -20 7 -7 19 7
-16 -2 -18 -3 2 -7 2 -14
19 6 -14 -14 10 11 -18 12
13 2 -11 -7 -12 -4 -17 -12
1 -11 -14 -14 -13 -23 -1 -12
20 -11 19 7 6 9 30 33
3 -9 -1 -5 -16 11 1 -4
7 12 -4 5 -19 11 -26 -36
5 10 -1 -11 6 2 -19 -9
-9 10 11 0 34 19 -31 -41
-18 9 4 -2 26 -6 -17 -1
-4 -1 5 10 38 42 -23 -19
8 -4 -5 -2 -9 0 -7 -22
-14 -18 4 -19 -5 -20 -2 -2
-4 -1 15 16 2 17 -24 9
13 -1 3 -45 -14 -38 -35 -38
-14 12 -14 -14 -3 -6 11 13
-22 -4 5 41 24 9 -2 1
-15 -4 5 -12 -3 -15 27 -8
-20 13 -8 -8 -2 6 9 -25
13 3 23 7 8 -7 14 -11
5 -12 19 -4 -6 -2 12 -1
13 -6 -7 -8 7 -20 15 -5
7 -4 -5 3 -21 -7 4 0
-7 -14 16 19 25 23 3 -16
15 -8 16 20 30 25 -30 -11
14 -21 -11 -6 11 17 -10 1
5 -5 0 40 32 25 9 -19
2 5 20 -3 8 -2 26 5
9 -2 -6 5 -4 -10 13 6
0 10 -2 13 3 -3 -6 12
-6 -11 -1 -3 26 -9 -31 -28
7 12 2 4 -11 5 -11 -15
1 -3 0 -11 20 -18 -43 -50
-11 -3 -4 -13 -11 -8 9 24
8 10 -17 27 2 -3 2 22
-12 -7 15 -22 4 -8 11 13
16 -21 5 24 18 -1 24 -5
6 -4 28 18 -10 6 -11 13
-5 2 5 -34 -32 -5 -6 -17
-9 -11 -5 23 10 -4 -4 -17
-8 -9 -4 -8 -2 -17 -37 -24
8 10 -9 -6 -3 4 -20 -15
-16 -4 8 12 4 2 -12 -35
6 13 13 -3 6 -17 -3 -20
2 -12 12 -14 5 1 -5 10
-6 -10 3 -4 9 4 16 6
-8 13 8 -16 -54 -52 -35 -13
9 -11 0 -20 -2 -15 19 21
-18 0 7 23 34 0 -25 -17
12 -1 4 -13 -11 -19 -15 -16
4 17 -9 4 17 15 10 -3
-12 -5 -4 4 -5 -3 6 4
-5 -15 16 -11 -10 -2 -13 12
9 21 1 1 -16 -19 -22 -7
-9 1 17 -14 -18 -28 -23 -16
-1 -17 14 21 0 20 15 -16
-6 -2 -5 -4 17 -18 -32 -22
6 2 9 28 11 6 -8 -13
2 -6 12 33 49 42 -51 -58
5 -1 4 -1 -14 -13 -4 -12
-3 9 2 3 -24 -16 4 -6
-12 -7 -4 19 -8 0 -11 -17
-3 22 -10 -43 -32 -22 -54 -44
11 -5 -7 -19 -1 -11 -5 -18
-22 20 -20 42 37 38 2 -22
8 -2 2 -9 4 -7 -3 -2
-14 -4 14 8 -15 2 -5 -30
14 -5 -7 0 -13 -15 -15 8
-4 13 -7 -21 -16 -2 -18 -7
13 -1 -6 -7 -13 -1 13 -3
-9 0 9 -6 -24 -22 3 -11
6 17 8 25 -3 1 -17 8
-10 10 -8 20 4 3 -4 -28
-14 15 10 -1 -12 7 -15 -18
-5 -3 17 16 49 44 -10 -10
3 -11 9 6 12 15 18 8
4 -9 8 12 -3 13 -5 -11
6 -11 13 -11 2 6 -4 14
-18 14 -8 10 -2 20 -24 -43
-9 -2 13 16 2 -23 7 -4
7 -20 -13 17 4 24 -52 -33
8 -24 15 1 -14 -12 8 16
-14 12 19 13 11 6 19 15
16 -18 9 9 -14 -5 -13 18
-19 4 -10 18 -14 3 -1 0
20 9 11 16 12 -7 8 19
12 1 -16 10 -20 -3 14 16
4 3 -17 -9 20 4 6 -3
15 10 -2 -22 -10 7 -44 -15
-12 -11 17 5 7 25 -21 -9
11 23 -17 -11 -16 10 -18 -8
-14 -8 -4 -17 -25 -6 -3 -12
0 8 -18 1 -31 -15 1 15
9 -12 17 1 7 -2 -14 -2
3 3 8 -21 -5 -38 -3 -8
9 -4 -2 4 -21 10 -4 -1
-9 9 -23 18 8 -5 -6 -28
-2 0 -2 12 -5 -15 -15 6
-12 19 12 17 -2 7 -6 9
-16 2 -19 -23 3 -8 -4 -12
-19 -3 11 -11 -14 2 -3 -13
20 3 7 -6 -10 -13 11 -14
19 3 16 -2 -9 -1 3 29
12 -23 0 -4 21 0 0 -19
8 -12 8 1 0 -11 -33 -31
24 20 -10 18 1 21 -3 -14
6 -7 6 15 10 21 -38 -39
-11 -16 -9 -26 -26 -28 -10 11
-5 7 7 -10 -14 -28 10 20
4 -8 -7 -15 -4 10 13 -11
0 -6 -1 -15 -21 -5 -27 -52
10 6 3 6 -19 9 4 13
1 -4 -6 28 23 30 -10 -3
1 15 6 1 -23 -25 -11 18
0 -13 -10 8 -7 7 -24 -8
-20 16 -4 -4 8 -15 1 19
-8 -4 -17 -4 -16 -16 -4 -7
-11 11 27 -4 7 -8 -8 10
6 16 18 11 12 -16 32 38
-11 -15 0 7 16 -11 -18 -22
-1 2 -12 2 12 18 -38 -2
2 -12 -19 0 6 -3 -7 -17
13 -3 -15 22 25 6 -4 -3
1 23 13 15 12 23 7 16
-4 -4 -5 6 6 -12 23 22
18 -1 15 -16 15 -2 8 -8
-21 -13 -17 32 16 19 1 -8
14 -1 9 4 -3 -18 -17 19
0 6 9 -14 -9 -13 -38 -24
-11 -11 16 -5 -11 0 4 12
