0 50 -20 -1 15 22 -2 -23 5 -12 6 -20 -5 -27 -23 -42
-11 -6 35 11 -44 -2 -11 10 -33 -3 19 3 5 -3 -30 -14
-21 39 -6 2 -18 35 22 -41 11 -14 -18 -19 5 -22 -8 -6
-24 -5 2 27 4 -15 -5 0 -16 -7 -3 -3 -5 11 -27 16
-6 26 -15 -4 9 12 -17 14 -27 -24 2 -27 -17 -27 6 -26
-13 0 10 10 -49 13 -34 11 -45 -13 29 9 -6 15 -18 -8
-29 33 -18 14 -11 51 21 -22 -5 -21 17 -3 0 -28 4 -15
-38 6 34 3 -36 18 -25 9 -13 -13 33 3 4 15 -25 -6
8 -32 18 12 -12 1 -8 10 -4 2 2 9 -2 -38 -44 -14
8 23 7 -17 -26 2 -34 24 -6 -18 20 1 5 -5 -2 13
-11 -17 3 -17 15 36 -14 27 -6 19 12 -19 32 -43 14 -35
29 16 6 -2 -42 52 -37 -31 -23 2 43 11 6 5 4 -21
10 -7 -17 -8 6 4 15 22 9 -8 7 -15 3 -37 34 -44
26 4 0 -12 -48 13 6 -26 -21 -8 24 19 22 14 -15 -10
4 -16 -3 -17 2 14 -14 -1 5 26 -9 -16 40 -37 5 -12
46 6 -30 17 1 18 -14 -39 -16 12 6 2 -3 3 7 -1
-32 4 -12 9 -10 9 26 -2 -31 -9 -9 19 -37 -15 -1 -23
-26 0 29 -1 -40 -16 -40 -17 -2 -5 24 -9 1 15 -11 -27
-22 56 -23 -4 -8 66 6 -4 -2 -32 -9 -18 1 -24 3 -16
-15 11 7 7 -40 8 -28 12 -3 8 38 2 -17 16 -13 -5
-9 51 -17 -19 -9 19 3 9 23 -34 -7 3 -19 -16 -33 -43
-48 -8 9 -32 -20 -1 19 33 -27 4 59 20 -8 3 -13 -21
-30 38 11 10 -19 80 22 -10 -3 -37 -7 -10 -42 -41 9 -48
-16 9 27 -5 -64 14 -50 17 -33 22 48 0 -26 11 -26 2
13 -9 1 32 -8 24 12 35 -32 -3 14 10 2 -28 -6 -58
15 10 35 -10 -34 9 -15 13 -26 -7 35 28 15 -3 -8 -16
1 -34 -7 -2 8 31 -6 24 0 14 21 -34 -7 -68 -7 -84
25 18 20 -31 -51 28 -48 -29 -74 14 55 -13 -6 13 -17 -1
-26 -34 4 -2 23 23 11 41 -1 3 12 30 -23 -12 -17 7
6 4 5 0 -6 11 8 -11 -38 24 6 3 17 28 15 16
7 -28 -31 0 21 17 -24 33 -9 22 25 -18 40 -61 11 -32
23 22 -3 -17 -23 19 -28 -31 -47 3 47 -7 3 21 -2 -12
15 -1 -1 3 -1 20 -11 11 -15 -33 -3 -26 -52 22 -35 -33
28 9 41 -21 -41 -14 10 -21 -27 40 32 -27 -20 2 17 26
-11 17 -11 25 1 9 -19 32 -24 -33 4 -9 -45 26 5 -19
-33 -4 -6 -26 -28 -14 -19 36 -1 14 18 -3 2 -13 10 -9
11 25 10 29 -16 11 20 3 10 3 -8 -21 -17 -6 17 -34
-12 -21 14 17 -45 -26 1 -11 -53 5 40 -11 6 -22 17 14
-5 8 11 11 12 37 -11 42 -17 -40 -15 -21 -91 7 -4 -47
-21 -7 8 -47 -63 -41 -31 30 -34 35 53 -9 -16 -12 9 -1
36 -18 -6 -13 0 2 -8 54 9 -12 18 15 -26 -4 -5 -23
-8 4 29 -31 -32 16 -11 16 6 10 43 -32 -27 12 32 -12
42 -42 4 6 13 -17 -3 42 -6 6 12 1 -64 -26 6 -75
21 0 9 -70 -53 -17 -16 -5 -57 26 69 -1 -24 7 14 18
10 -38 12 8 -8 14 -14 32 -1 13 13 13 -11 -2 48 -48
-1 6 30 -15 -46 -2 10 -7 -4 -19 40 15 -9 7 13 -12
33 -39 4 12 10 -41 -13 43 -14 19 18 2 -14 -9 17 -61
9 2 3 -47 -22 12 -9 1 -32 -2 34 9 -7 3 10 14
-20 29 -13 -11 11 18 17 25 -7 8 11 -5 -35 -10 -4 -5
-3 3 25 -35 -40 8 13 1 -20 27 15 -21 -33 -6 5 20
-12 -4 18 27 -3 -16 -2 -9 -9 -28 -6 3 -40 30 0 -22
-42 -23 -6 0 -13 -35 5 22 4 -4 -11 1 13 -13 4 7
20 -15 9 -14 18 21 -13 -10 -23 -18 13 37 -56 18 15 -15
2 12 23 -25 -24 15 16 -6 -27 -27 34 11 22 -8 -15 -18
-2 -2 -17 17 14 7 -16 31 -14 -27 8 -11 -49 17 -14 -21
-48 -16 16 -37 -29 -34 -1 17 -16 -4 35 6 2 1 14 4
-1 -13 -7 -9 11 21 -10 30 5 -3 -16 21 7 -6 13 -52
7 -8 30 -11 -39 3 12 -2 -12 -1 15 0 -21 7 -22 27
34 -23 4 -5 15 -21 -12 48 -17 23 4 6 -26 -2 21 -12
27 -1 -11 -53 -18 4 -1 -2 -21 13 45 11 -12 -6 28 4
1 -10 -1 4 -12 -16 22 40 27 9 13 43 -32 -22 2 -23
-1 -3 13 -5 -8 -3 0 5 -45 12 15 -41 -24 12 44 -30
29 -24 30 -6 -3 -43 2 6 -8 27 -14 0 -11 18 16 -35
35 -10 -29 -16 -3 6 5 0 1 11 -4 3 -2 -21 17 13
