23 13 -6 14 -9 -5 16 0 16 2 -12 -26 -4 5 -20 -2
0 -3 -30 4 3 -2 -17 -7 -5 7 -2 26 -24 0 -8 8
5 -1 -2 -20 4 -4 9 -1 13 19 -12 5 16 -2 -5 -10
-7 -15 -10 1 -7 -8 2 -10 0 -5 -18 -2 15 -3 -22 3
-18 -8 -7 10 16 3 -12 16 -7 -7 2 2 4 1 -19 -9
-3 0 2 5 -5 0 9 3 -14 -7 -5 17 12 -6 7 5
10 11 -9 -1 -22 -4 4 -3 -5 -7 3 -6 8 -7 2 -1
-2 0 -2 0 -16 -8 -4 -1 4 -26 16 1 -8 -4 1 1
9 -18 1 6 -8 -17 -6 -30 14 6 10 -9 -14 8 19 6
-9 -9 -3 7 23 10 -20 4 -9 -21 -14 0 -1 -16 9 6
1 20 -6 -16 -13 9 -2 13 13 0 -14 -13 12 15 -16 -2
-9 -15 2 -10 2 0 10 -13 -9 -4 -1 2 -2 -7 3 0
7 -5 -18 -5 -16 -2 -13 3 7 3 3 7 -9 -23 9 -1
-40 12 8 6 18 -21 -11 -7 -13 -4 -9 7 -3 -2 5 -23
-4 2 10 -8 9 -13 -1 6 -1 -8 1 17 2 0 10 -4
3 -4 4 -8 2 -1 13 3 0 22 -22 -11 -12 -5 -9 -9
25 2 -5 -3 11 1 15 -2 4 -7 0 -15 -7 4 -1 -14
-2 5 -58 1 -4 13 -10 8 -15 14 -15 34 -10 -11 3 14
-3 10 7 -2 11 10 9 -19 10 5 -5 3 11 3 -18 -1
20 9 -8 6 -25 15 13 -3 7 -14 5 0 27 -10 5 -10
3 10 11 10 -19 23 27 -2 -6 17 -2 -10 -12 -8 8 -33
4 -3 -2 2 -18 -2 23 6 -13 -5 8 11 8 -13 13 11
16 -7 5 2 -17 -5 19 -14 1 -11 -8 -15 8 -10 -25 -9
24 -9 16 7 -5 -8 10 14 19 -9 17 -29 12 -22 6 11
22 6 8 4 -6 -6 -1 1 27 17 16 0 7 -16 19 9
-20 -18 3 22 34 23 -15 0 -17 26 -9 -6 2 -4 1 -6
24 34 -20 -6 -11 5 -1 12 28 4 3 -12 6 0 13 -4
6 -6 -14 -11 -8 -17 4 -11 -4 -10 -9 2 10 -7 12 12
7 -11 -26 -21 -24 -33 1 3 -17 -9 11 -3 -10 -2 3 -16
-30 -1 12 0 0 -25 -4 -7 -18 11 -14 5 -1 -1 -10 -18
3 6 4 -2 -20 -35 4 6 3 -3 17 4 0 10 16 -7
7 16 12 1 -16 10 23 5 15 -3 -14 12 -19 -17 -4 17
-3 -12 -11 6 6 -1 6 12 9 3 8 -18 -7 -13 -2 -2
24 20 -40 12 -18 0 21 -10 8 28 -18 6 1 6 10 -6
2 -3 0 -8 2 17 -8 7 1 -17 -18 9 -2 -13 -13 1
-8 -7 -20 10 -13 3 22 -10 7 -2 -3 -12 16 -8 9 -7
1 -9 8 -12 17 10 12 -5 13 -25 9 11 -18 -3 2 10
4 3 -16 11 -5 5 5 1 -5 8 -8 2 21 -9 -2 24
14 11 -4 3 0 -8 13 -21 20 -11 15 -3 9 -20 -15 -10
6 -9 15 0 5 -6 -9 -4 -1 1 -2 -34 2 -17 12 2
13 -2 -2 3 10 -6 -14 -18 24 -9 12 -14 -21 -1 -16 4
10 -21 -2 5 6 1 -22 -22 -24 3 -3 7 3 4 4 4
6 11 -14 -9 16 0 3 -6 16 -15 -1 6 -2 -4 -2 3
3 -16 -11 -11 -7 -16 -4 -10 0 0 6 2 5 4 0 0
-3 -11 -15 -11 -20 -12 -3 -7 -17 1 -5 10 -7 -7 3 -17
-15 -27 10 -2 5 -10 -21 4 -26 22 5 -3 1 -14 11 -11
-8 -15 10 14 -16 -29 4 4 12 -13 -7 15 -6 -4 16 3
5 2 2 9 3 -2 -5 6 9 8 -11 10 2 10 -12 10
5 3 3 3 3 -1 17 2 5 6 -17 -20 -16 12 -28 -12
8 3 -3 6 13 9 -13 -19 -20 -8 -7 -1 11 -6 -1 -8
0 -4 29 -25 -3 4 17 4 -12 25 -14 6 -16 12 7 3
3 -1 -6 11 3 0 -9 6 -17 6 -6 -37 2 14 -27 -19
13 -2 -2 10 10 -11 0 24 16 9 9 -9 5 11 -23 -9
-12 8 -9 -2 -5 -21 -9 -5 -14 -31 5 -6 4 -12 -1 -16
7 19 12 -15 -7 -7 15 6 7 2 -3 -1 7 1 4 -7
-7 -1 14 -3 -4 -2 6 0 0 -22 18 -17 -4 -10 3 6
-18 -31 6 0 15 4 7 -4 -5 15 6 -6 2 13 27 0
-1 7 -6 16 26 -13 -27 3 9 -45 -8 -3 1 -12 -3 -3
2 19 15 -12 7 2 16 14 -1 7 -10 12 -17 -11 2 -4
0 15 -5 -11 2 5 -2 -22 -7 0 -1 1 -5 3 12 3
8 -8 -15 12 -1 5 -22 -3 7 6 4 33 -24 -8 -5 -8
-23 20 1 -2 -3 -17 -16 -10 3 17 -1 16 -6 4 6 -5
-3 14 9 -13 12 -12 5 -15 4 -35 -1 -2 -5 -2 0 -3
4 15 -7 5 -26 3 8 -2 5 27 0 -8 4 5 12 -3
18 1 -19 8 7 2 20 3 16 5 -1 -9 -14 -10 -7 -8
8 -15 -19 -7 -2 1 3 21 -16 1 -28 16 7 -13 -5 -9
5 -3 14 -9 11 0 5 -3 13 11 13 -10 -2 2 -20 19
24 22 -9 11 -12 -6 9 17 14 5 4 1 10 -1 -6 -23
19 16 -15 10 3 7 36 7 -14 29 6 -2 -4 2 2 -13
-1 -2 12 7 -25 -40 -10 8 -14 -33 10 -6 1 -24 15 -10
21 -9 37 -6 -25 10 20 -7 -3 -2 -14 -36 11 1 4 -13
-8 -16 15 7 -13 -24 15 2 12 3 13 -9 -3 -9 6 7
-6 13 5 6 10 -5 5 8 -10 17 29 0 5 0 17 9
-7 -18 -1 20 18 7 5 -4 -17 27 -13 -14 8 -11 11 8
9 3 -13 5 1 6 15 8 2 28 -4 -17 -6 -24 16 16
-3 3 -16 -8 -15 -3 -9 -20 -6 -23 -2 -7 12 3 1 11
7 -3 -16 -6 -28 -12 -4 8 4 1 7 25 -5 -2 -8 -25
-22 9 -11 -2 6 -31 -4 1 7 21 2 11 15 8 4 -7
-21 -13 -7 1 -12 -39 -12 3 -7 -35 8 3 10 10 11 -13
4 20 -32 1 -17 3 13 -7 12 18 -9 30 6 2 6 23
15 -16 -19 -7 3 -6 -11 2 17 12 -5 -23 -11 -23 17 -3
22 1 -13 1 -19 11 32 -9 0 15 -33 17 6 2 -10 -12
-8 1 1 6 16 6 -21 -6 -11 11 -14 10 8 2 -20 4
-5 0 -25 7 -17 -2 -6 8 -6 19 -3 -16 11 -7 2 -2
-9 -9 -1 1 11 15 -1 -3 6 12 12 15 1 19 20 9
-3 16 -1 14 -18 -24 -1 1 19 -10 2 23 -8 -29 -3 9
25 8 28 3 -3 1 20 -9 22 1 12 -19 8 -17 7 -3
-8 -20 18 -10 -4 -6 -2 3 1 16 13 -17 -6 -21 9 -2
-9 10 -3 -1 -5 -6 4 -1 -18 11 -14 -10 -15 -6 -8 -10
2 -32 -6 -6 -4 6 -8 -19 -17 4 -12 3 14 -2 11 12
6 11 -10 5 7 0 -12 -2 -5 19 -22 -24 -21 2 0 12
1 -9 -3 -2 -1 -1 -2 -6 -2 -26 -12 -14 9 11 -2 -7
17 19 -1 -10 -16 10 -1 -1 3 -34 -3 -5 -15 -14 -3 -8
-23 -2 1 -18 19 -24 -23 12 8 3 5 -8 15 12 7 5
-20 -14 1 -11 0 -24 14 -7 -6 -26 -5 12 -1 9 4 -2
-18 6 -2 -12 -7 10 -11 -6 -3 -2 -11 21 10 8 -6 -3
-26 1 12 12 6 -7 16 3 -8 6 -1 -27 -12 0 -1 -24
7 -11 7 12 -3 19 14 -9 -36 -6 0 -6 26 7 -7 -7
-12 7 -12 -21 -9 5 20 -6 -1 26 -6 -8 -11 -8 5 6
-16 -21 -12 14 -12 2 -8 1 -4 6 -8 -5 -18 -2 3 -6
-8 -13 6 -2 -6 -2 -14 -2 5 14 11 -1 -5 7 1 -3
-8 17 -11 -5 8 -34 -2 1 -10 -40 -6 -4 12 4 15 -14
-15 22 11 -1 6 -8 -5 -3 23 5 -3 -12 -4 -5 -9 -8
-26 6 8 -11 2 -18 10 -11 -19 -10 3 -12 11 0 -11 4
13 -31 17 15 -3 16 -8 -15 10 11 -11 12 5 -18 31 -1
5 2 -6 6 13 -33 -12 13 -3 -32 -14 8 3 -9 2 -2
15 -23 11 0 -5 5 10 7 -5 -5 7 30 2 -9 -6 -9
-4 9 -3 -7 2 4 4 -15 5 0 3 1 3 -4 4 7
2 -6 -26 5 -15 12 7 0 7 33 -1 14 0 -12 4 -21
-17 14 -8 0 2 -1 -9 -16 -10 21 -9 -11 -12 20 19 -7
1 32 6 0 39 -17 -10 6 11 -33 14 11 24 2 -11 -2
-2 6 2 13 -17 11 23 -3 0 26 -4 -3 10 18 3 -7
-8 -12 0 -6 -5 4 3 10 1 7 -5 -16 1 -7 0 -8
-9 -12 -12 9 -21 -7 22 2 -20 -2 -5 15 8 -11 -2 -6
-12 15 -2 -20 3 8 0 -13 -1 -3 -6 -10 -13 -13 -6 18
5 11 10 14 -12 4 4 -5 13 13 -19 -4 -9 7 6 -26
-5 17 12 12 12 -2 10 -6 -19 -1 12 -7 -21 3 -1 -6
-14 13 1 3 -12 -46 11 15 -30 -19 8 -11 0 2 8 -20
7 20 27 -13 -7 5 8 -5 6 10 -10 -20 5 -13 4 8
-43 -21 6 -2 5 -16 4 -5 -9 -10 17 -21 1 -10 -8 13
4 17 13 2 0 -8 -30 16 7 2 -9 21 4 -11 11 -16
3 -4 -5 15 27 -17 3 -9 -13 16 -11 7 2 1 2 14
18 -13 6 10 10 -3 20 -5 0 -12 16 14 14 -30 -9 8
1 5 -2 0 -5 10 8 -7 -1 -9 2 -5 10 7 6 3
0 -13 -3 -10 -20 5 21 -13 -11 26 -36 5 -15 9 2 -19
-33 19 8 -3 7 -21 -6 2 -4 9 0 -17 -2 0 22 5
-18 -4 -10 -6 20 -43 13 15 -10 -26 12 -13 38 5 22 5
-14 1 -33 -2 -10 9 22 -9 2 5 -23 31 -5 5 10 2
27 -34 2 4 0 -1 -3 5 5 2 9 -10 18 -13 6 0
0 -1 2 -5 -16 5 43 -6 -13 6 -10 7 3 16 9 -4
-2 11 0 -2 -7 4 5 -3 2 -9 -30 -21 -4 -9 -12 23
11 17 14 -4 -2 7 9 -3 18 -4 -4 4 0 -9 -14 -23
-14 6 26 -5 21 6 -21 0 -13 2 9 -14 -4 7 13 -14
-17 9 -5 2 2 -40 16 14 -10 10 3 -4 4 -6 -9 -6
3 18 1 10 -6 -5 8 1 26 -4 -10 -22 5 -1 -10 12
-35 -38 -3 -9 -4 -6 -14 -4 0 16 15 -27 -3 -1 -6 1
19 6 7 -13 -24 -20 -21 -15 11 -3 -32 -3 -3 -7 -11 -24
2 -24 -13 -10 15 1 -20 -1 -2 -2 -9 -1 10 -8 -7 13
-2 -4 -2 5 5 -4 -1 -5 3 0 9 6 10 -26 -1 9
-3 -7 -2 -8 -1 9 6 -11 -1 -28 -12 -9 -7 5 1 -2
11 6 0 0 8 11 26 -1 -9 9 -15 1 -24 12 2 22
-24 9 -5 -1 20 -17 -24 4 -17 2 -5 -20 0 -2 11 -4
-10 15 -12 -5 19 -21 4 17 3 -3 -5 -3 10 9 1 -5
-4 9 3 0 4 -1 1 -15 -12 -28 -1 19 10 17 -12 -8
