4 -9 -6 18 -7 -21 3 -1 12 -8 -18 7 -13 10 8 -10
-1 -10 -5 4 3 -9 0 19 27 18 12 7 2 -24 -15 -28
7 2 -23 -12 8 -7 -2 -11 28 -5 11 18 10 -15 -1 -25
-7 11 8 0 -5 2 8 -5 -4 -1 7 10 8 -2 0 11
-5 -5 3 -2 -19 -7 17 -5 9 17 17 -15 -11 -2 16 -5
8 -4 10 -1 0 8 0 -16 6 9 -20 -2 1 9 -18 -5
-2 -2 -7 -12 -2 -7 8 -16 7 -3 -4 -1 0 0 7 8
3 -16 22 -3 16 8 13 3 13 4 -20 5 -6 -9 -4 9
-9 -10 0 10 13 13 -6 0 -9 10 3 14 -3 -3 -1 -13
2 1 0 -4 1 -6 3 5 -13 7 1 6 -5 -10 3 -18
1 15 4 2 -6 -7 -2 11 16 -3 -17 -11 -3 14 6 21
8 6 6 -5 2 0 -8 4 8 -6 -12 -2 9 -13 2 14
6 -1 -5 -18 7 -9 4 -10 13 -7 6 6 0 -6 7 9
-12 20 -8 -2 2 -14 -10 19 10 4 -5 9 2 1 6 -4
-17 -3 -16 11 -19 18 10 -22 -7 -2 -16 -13 2 -1 -2 -16
14 17 16 -3 12 10 1 6 6 10 18 -4 1 -24 6 0
-13 -3 -16 7 -1 -10 -10 11 -9 2 4 2 -2 0 -9 -9
-8 -4 -11 6 0 -7 11 11 38 -3 -2 8 -6 -27 -22 -19
0 8 -1 6 15 12 -3 -11 27 -4 8 7 11 3 -10 -10
5 -10 5 -4 -7 12 -10 23 -10 6 2 7 6 5 8 7
4 5 -4 9 -5 -13 -11 -6 -2 -8 -2 -4 8 -2 3 -5
1 -3 0 -5 2 13 8 0 -5 3 -19 -8 3 3 -4 -6
8 13 -4 -6 9 -8 3 -7 -23 14 12 11 -14 -40 19 -5
5 3 16 -3 9 7 -16 19 -3 15 -11 7 -4 -1 -2 -5
0 -2 10 0 -1 -8 1 -2 -13 3 7 -12 3 5 -14 -1
15 12 2 2 -7 4 -9 -2 39 -15 23 9 13 12 13 4
0 3 4 10 -15 7 -2 -7 8 -7 2 0 -11 -7 -1 24
-8 15 2 0 2 -4 -6 -11 7 -3 -15 6 -9 0 1 1
-10 -4 -8 6 0 -2 9 0 -6 6 -7 2 9 -7 9 -4
-2 11 -14 8 25 7 8 9 21 -8 11 16 -2 -6 -10 -7
-1 -13 -9 -2 -9 -10 9 1 -11 10 7 -1 5 -18 -2 -26
-9 22 10 6 4 -5 12 -12 22 -5 8 -4 -3 -9 -3 0
2 -10 -19 16 -27 -16 15 15 -3 -2 0 -7 -14 14 -5 -11
-6 4 -2 18 29 -17 -6 7 5 -9 -6 -8 -9 -31 -13 -21
3 18 -5 -13 9 -1 0 -21 35 -10 -13 -5 6 -1 -6 -20
-12 -9 5 11 7 8 -9 10 -6 1 11 0 -5 0 1 11
8 8 1 6 -4 1 2 9 -32 -20 -9 4 6 -17 6 4
-2 -9 -11 17 -15 5 0 4 0 9 -10 -10 -6 19 -1 -33
-6 0 19 -9 28 0 4 5 -45 14 13 1 -1 -54 9 -37
11 -1 -9 -16 -12 -2 14 -6 6 9 4 13 5 -7 5 9
8 -17 1 -4 -5 7 -2 -12 -7 19 9 -10 -13 -4 -18 -7
-1 -7 -18 15 -2 7 -9 4 29 -17 1 -10 6 -3 18 9
7 -4 10 1 -6 22 -6 9 -19 -8 5 13 13 3 7 15
10 3 -5 11 -8 0 6 -10 -8 -5 9 6 -8 3 -7 2
-14 -1 4 -5 15 8 0 -8 -26 6 -13 -2 10 -30 16 -10
-8 0 -3 17 18 -12 22 -10 27 -18 1 0 16 12 -23 -18
-3 -15 -27 -2 4 -8 -7 9 9 3 -39 10 -4 -19 -12 -13
-5 0 -8 5 10 -1 1 2 25 6 -4 -12 -10 9 -13 12
8 13 1 14 -6 2 -7 -16 10 -5 -11 5 -2 4 0 -10
-10 10 -14 8 29 -19 19 -3 3 19 12 4 -9 -26 -20 -35
-2 -1 -13 11 -13 -11 1 4 20 2 -10 11 -3 14 -22 -9
8 -9 8 6 -10 -3 -6 -6 26 10 6 10 -1 10 -6 -3
0 -1 9 -2 5 4 -14 -14 15 -1 -6 -12 8 -18 6 10
22 -15 1 3 -4 13 -3 -6 -8 14 -3 14 -6 -14 11 4
-3 8 3 -1 1 -8 -8 -7 -9 6 -2 -7 -9 -2 -7 4
16 -1 5 -13 5 -14 14 6 11 2 -12 -11 0 -6 -3 -11
-6 1 5 -10 5 -4 -3 14 -5 8 17 4 -3 -6 3 -8
4 12 -2 16 5 12 -17 4 -3 7 11 4 -3 6 1 -5
4 13 -13 0 2 -4 -4 -9 22 -2 -11 -11 0 -10 2 -5
-5 9 -4 -10 -1 1 -12 4 -2 -12 -13 -14 -4 -12 -3 1
-8 6 1 -2 5 0 -14 -15 -7 -6 -11 12 11 9 -5 6
-6 12 10 -8 -4 -6 8 3 20 -4 7 20 0 -8 5 -19
13 -9 9 -2 -7 15 6 -12 -19 -4 -15 -17 0 8 1 21
-1 12 9 3 0 0 -8 -15 2 22 5 -16 13 -20 -6 3
4 5 -8 -1 3 4 -11 12 -9 -6 -3 -8 10 8 3 -3
-11 -2 5 5 -4 -13 13 -12 32 13 6 11 16 -32 -20 -20
-3 17 7 -8 -13 3 -3 11 26 5 -11 -11 -14 -13 -5 -4
-3 -16 16 -5 -22 -1 -16 16 11 -10 13 3 0 36 2 8
-9 -4 -4 -12 10 3 -8 6 8 -7 -3 15 -3 -15 -6 -21
18 -11 3 -16 -1 8 -3 13 -22 -1 5 9 2 16 19 -8
2 3 9 0 0 -10 -21 -7 -39 16 22 -14 -3 -49 4 -8
5 -8 6 -10 -7 -6 -10 -5 1 -5 -5 -8 6 -8 -12 8
9 0 14 8 8 10 9 1 -7 10 13 -29 2 -2 1 10
20 5 -12 10 -22 10 -13 15 41 -21 19 -14 1 8 29 -1
6 0 6 11 -1 19 -8 -10 11 1 12 -6 -3 -21 26 14
8 -10 2 4 10 -4 -1 8 -8 -4 0 -2 6 13 18 11
0 14 -5 5 -3 10 -14 -15 -3 0 9 -1 7 -17 10 7
7 17 -3 -5 0 -19 0 4 25 17 -4 -2 -13 -12 -15 -18
5 -1 -6 0 5 -12 8 4 -38 10 22 10 -12 -35 -8 -12
6 -13 -15 2 -17 1 7 13 15 6 15 10 15 -25 -23 -12
-10 -5 -3 15 -18 4 16 15 -21 -7 7 6 -4 -4 8 -4
10 8 1 -9 16 2 10 3 34 2 7 7 -10 -22 -12 -28
1 -1 8 -8 -2 9 3 -17 32 8 -12 -19 -16 -3 3 1
-4 9 9 -8 -6 3 -14 6 28 -3 22 -22 12 39 7 20
-15 4 12 -2 2 2 12 14 -2 -9 -4 -5 8 -4 -2 -21
-5 -7 -6 -15 -10 10 -8 11 3 3 9 2 20 27 -3 -16
-8 -2 2 2 16 10 11 3 -59 17 2 -6 -21 -56 1 -24
0 -6 12 -14 -8 6 -7 0 5 -1 25 10 -12 -17 -5 11
9 -10 12 -9 6 4 -4 -16 0 11 -7 -24 2 -16 -10 8
24 5 -13 18 -10 10 1 -6 51 -18 6 4 15 6 5 2
-7 -4 8 8 -15 32 -1 24 -13 7 27 2 5 4 24 3
-1 6 -13 0 -6 -5 5 6 -16 1 -4 12 15 -10 8 3
-1 11 -15 -5 14 -3 12 5 -6 4 7 -2 0 -14 13 -2
-5 16 9 12 -11 -9 4 8 25 9 14 -1 3 21 -20 -8
-9 -23 -2 -17 32 -8 8 23 -1 -4 1 28 -13 -37 3 -36
-4 -7 -11 -16 14 -2 5 11 10 -6 -1 -2 -9 -6 -11 -6
-4 7 -7 -6 -6 -8 2 -18 6 -2 -11 4 1 -5 5 -9
-12 -13 1 9 21 2 -3 9 0 -2 26 13 9 -8 -20 -24
11 -18 1 3 5 1 14 9 18 -4 -9 5 21 -13 22 -13
13 6 7 12 -24 -3 9 5 39 4 -6 -3 9 18 -2 -11
-16 -9 -1 -18 5 14 6 0 8 2 -15 -19 7 -16 -6 2
7 -8 5 -4 3 -9 -10 -14 -15 -3 14 10 6 -25 8 15
3 17 -11 2 -4 11 2 1 -11 -6 10 -9 18 5 21 15
14 -16 14 -13 17 7 5 0 -1 19 -7 -5 5 -16 11 -10
5 -14 10 -11 2 7 8 11 -7 8 -3 11 -1 -13 -8 -15
16 -7 -10 5 -2 1 0 -5 -14 -6 -1 -11 16 -9 13 -4
-6 6 -2 5 16 -4 -2 13 9 -7 3 -11 3 3 3 -15
4 4 0 11 -4 -3 -12 -20 -12 12 4 -7 0 1 -10 12
-6 6 -7 -4 -8 -5 0 -15 1 -2 -21 1 5 6 -4 11
9 15 16 2 16 -16 -10 2 4 10 1 -3 1 -24 -3 -7
2 4 5 -8 -19 1 0 -4 -16 -12 -5 -6 10 -11 17 24
4 -5 -11 -5 2 6 -6 2 -5 3 1 -8 -3 -11 -14 4
-11 -1 -15 -5 1 9 -11 -11 13 -3 -6 -8 5 13 8 -1
-3 -12 0 -3 3 14 14 -13 18 -5 4 9 15 -1 1 -4
6 8 13 5 18 6 -1 19 14 -7 14 -5 1 -9 22 -12
-8 -9 16 -6 -25 23 -24 14 34 -9 -10 -6 -15 39 9 22
-11 -5 -11 -10 11 18 -6 11 15 4 0 14 -5 -19 6 -10
9 -15 -2 1 -2 3 -13 10 -17 -18 -2 5 -3 -13 15 -13
-13 0 13 8 -1 7 8 -6 -54 28 31 -2 -5 -35 20 -5
18 -10 8 -2 7 3 -10 5 -1 15 0 -2 2 -16 -2 -6
13 -25 19 -6 9 6 7 13 -10 14 -9 -23 3 6 -7 -12
6 6 -19 0 -17 1 3 5 29 -23 0 3 7 2 25 -2
-7 13 5 5 2 20 8 -18 -17 -1 -4 -10 2 -19 -7 9
-4 -5 9 11 -2 -3 4 -6 -15 4 7 2 -12 1 11 7
6 14 -5 -2 -15 -20 1 -17 -3 -1 3 -5 3 -15 12 -1
9 20 18 17 3 -2 -7 -2 7 3 -17 -6 -6 -4 -12 -4
8 -9 7 -1 -4 1 5 6 -33 0 34 -13 11 -15 11 15
-7 -30 -16 -11 -4 -12 12 8 -3 -5 5 24 13 -26 -20 -21
-7 16 -2 5 -7 4 6 -7 -9 4 -4 -1 -2 7 8 19
-2 -6 11 -1 -2 -6 2 2 32 14 18 -4 -3 -15 -8 -7
2 10 -10 2 1 -10 6 7 15 9 7 -18 -6 -24 9 -3
-13 4 21 26 -15 11 -15 5 42 7 5 -13 14 47 -3 38
-14 -5 19 -17 -4 14 -3 14 5 9 18 15 11 -27 -3 -12
18 1 4 -12 -1 5 6 5 -17 -22 9 11 2 4 -4 -15
4 -14 -1 6 11 11 6 -11 -65 20 15 13 -5 -56 9 -27
-11 -16 11 -11 4 21 1 1 1 19 19 -10 -6 -13 0 -2
12 -29 -7 -12 2 -9 -9 -15 1 -2 3 -27 -11 -8 -2 3
6 2 -16 27 12 13 9 8 32 -1 -15 -17 6 7 19 -4
-6 -5 -9 -5 -1 3 8 6 -19 10 6 -7 -6 -12 -5 -3
6 4 8 -5 -3 -3 8 11 -12 -2 -1 6 3 0 -15 9
-2 -5 1 18 3 -23 -11 -9 10 -7 -2 5 3 -5 0 -2
12 30 10 12 -17 0 2 -6 19 -1 -3 -1 8 21 -27 1
-2 -2 -3 4 23 -14 -14 3 -9 -3 19 2 11 -19 -14 -8
-16 -28 1 -10 27 -23 5 20 -6 3 15 22 -7 0 9 -25
