11 -2 9 1 -7 -7 2 10 3 -5 -7 -21 7 -1 -7 -2
1 1 11 5 16 -11 -1 2 -6 -6 -19 -2 4 0 6 2
6 -3 -5 5 -3 -3 10 3 -6 1 1 -10 -8 15 0 -2
-2 -3 -4 -6 -5 5 -1 -16 2 4 0 2 -5 -7 3 -9
8 -1 9 4 8 2 0 -3 2 0 1 4 6 -17 -1 -9
0 -3 8 4 0 -7 -6 -2 18 16 -11 7 -7 -10 2 7
5 3 7 5 -2 -6 -3 5 11 -8 7 -7 6 -23 13 -8
-5 -5 -22 11 -1 -2 -7 -5 -13 -1 -1 -4 -3 4 -6 -7
-1 3 4 2 -1 -1 -12 5 14 -5 -5 -4 -7 1 -8 -26
2 -9 7 -1 -11 -7 7 15 -6 -2 5 7 11 0 -3 19
-3 -13 -6 -14 17 -3 18 -3 3 -1 -12 2 -11 10 -9 -14
-2 -5 -2 4 5 -1 -1 4 -6 -3 5 -14 -10 -4 6 14
-6 8 10 1 -4 -8 4 -7 -3 -3 -10 13 1 -13 5 0
-4 0 -7 5 9 9 1 -1 -1 -4 8 -2 -3 2 0 -17
0 -3 -6 9 10 5 -1 -7 -12 9 -14 12 0 -27 -13 -1
-4 -7 7 7 8 -8 -5 -6 -1 4 -4 2 8 -14 12 0
2 -11 -12 13 -2 -12 -8 9 -30 15 -2 -7 20 2 11 -14
-1 -16 -15 4 22 0 17 -9 -12 4 -13 14 1 1 -8 9
5 -3 14 15 -15 11 20 1 2 -6 -1 -14 -8 -5 2 -12
2 -14 -10 -4 9 -3 8 -12 5 -6 -8 -10 7 -11 -12 3
2 -13 7 13 7 2 6 -1 15 6 -4 -3 -5 -20 -12 8
-4 -16 -7 -4 9 8 12 9 -1 11 -11 1 -23 -6 -12 0
-5 -5 -1 7 -12 -7 -6 0 3 -2 9 4 -15 -25 3 17
-3 -4 -6 13 -2 0 -4 -5 8 5 9 -3 3 -14 -11 -3
-1 -2 2 21 6 5 7 -4 11 2 -3 10 3 -8 -6 4
-1 -4 -2 -14 -11 -9 0 12 -3 5 8 12 -6 15 31 -1
4 -16 -8 -7 1 0 24 4 -6 -5 -4 -6 -6 20 -6 -19
4 1 -8 7 5 -14 -23 -4 4 4 -8 -9 -1 4 16 3
-7 -10 6 -2 -5 5 8 2 1 1 -10 18 -1 -13 13 14
-9 -9 0 7 -11 -2 1 -3 -25 10 2 2 6 -8 15 -9
-1 -3 -7 7 15 7 10 -6 -5 7 2 21 -5 -22 0 -2
2 -14 -5 11 -5 5 -1 -4 -11 14 -3 17 -15 -23 15 -1
-5 17 3 -2 17 5 -29 -4 4 8 -14 -13 -7 11 -8 -4
0 -11 8 -4 7 -12 5 -4 -7 1 -17 1 -8 0 30 14
6 7 3 14 -4 0 12 4 13 8 -1 8 12 -3 -1 -3
3 -4 -10 11 6 -9 -3 -17 2 11 6 -9 6 -4 -5 -5
-9 -16 6 9 7 13 0 -2 14 6 -2 -1 2 -16 -17 -15
-2 12 -1 -18 -2 -6 12 7 -13 4 2 10 -12 -11 -14 -1
-9 -16 6 5 8 8 -1 -8 19 10 -3 -2 -6 7 4 -7
1 -9 -8 -4 -3 -1 -6 8 -10 11 -5 -11 5 2 -22 -14
-7 -10 1 15 7 12 12 -3 14 -1 -1 2 -2 3 -20 2
6 4 -2 -7 -1 5 -1 -2 9 3 12 7 -1 -8 1 -2
4 -3 5 -16 -12 -3 21 12 15 -1 -11 -6 2 8 -5 -4
0 -9 1 2 23 -3 -19 -21 -5 8 -12 -6 -3 -11 6 -4
-6 -6 9 0 8 -7 6 2 8 -14 1 11 -2 -4 -11 6
-7 1 -2 -4 -3 0 -3 0 -2 -7 2 11 -9 10 11 -9
5 1 -22 -3 17 5 -5 4 -4 -13 -6 14 1 -17 -6 -15
5 -18 0 -6 -6 -1 -2 -10 -6 -3 -3 2 -26 -4 12 -9
2 -18 4 34 1 -13 -7 -1 -18 -1 8 -12 6 -27 -9 8
5 -13 17 13 -4 4 -8 1 11 -8 3 -1 -4 -17 4 22
7 -9 -1 5 -5 0 -2 0 12 4 3 -2 -6 -8 4 3
-3 -2 -5 2 -4 -4 -10 -12 -3 -1 -3 -4 -10 -11 1 -8
13 -11 11 18 5 -1 7 -9 -11 0 8 -5 -2 -17 -8 7
-9 -5 3 -4 6 -4 -4 -4 5 3 11 -2 -10 -9 3 -8
11 6 1 1 16 -1 -8 -6 3 2 12 2 -6 -16 9 6
-3 -10 10 -1 9 -15 -1 -4 8 -3 -14 -3 7 14 -5 -8
5 6 0 14 -7 -3 -1 -12 6 -6 10 4 -4 -11 -2 -6
0 -4 1 9 0 -10 25 7 -6 0 13 6 13 -8 -17 -2
8 -11 2 -6 14 -5 32 6 -1 5 11 7 0 7 -21 -12
0 4 3 12 0 2 -7 0 -11 0 -7 -5 -3 -3 -12 22
0 9 10 -1 -6 -8 7 3 5 5 17 11 -11 -7 -3 -2
8 -2 19 14 3 -8 15 12 2 5 -7 1 6 -11 -1 5
7 -15 -4 -3 20 -5 8 -8 -7 3 -21 5 -4 -6 -12 5
10 1 4 2 -7 -6 18 -2 -9 6 8 -5 6 -8 -13 5
-7 -36 -8 12 18 -29 -8 13 -13 11 -13 -13 -12 -9 14 -23
8 -15 -11 -4 40 -9 -3 -5 -2 22 26 5 8 -27 -22 -22
1 -18 14 33 -6 -3 18 11 14 3 8 -13 -4 -17 -4 6
3 -6 -14 16 16 -8 7 14 -1 8 8 -3 -2 -19 5 21
0 -17 -6 -10 -5 1 0 -8 -10 12 3 -7 -12 -13 5 12
13 -6 -3 1 32 -7 7 10 -18 13 13 -13 0 -2 13 -6
-4 0 -15 7 -16 -5 2 -4 -12 14 -2 -3 -5 11 -10 7
-16 -1 10 21 -7 -13 -9 -7 -1 5 -30 4 -5 7 -12 42
-3 0 -11 -15 -10 -12 8 2 -15 5 12 -2 -12 -6 9 6
10 -12 26 6 -22 1 26 5 0 -16 9 9 -12 -21 8 -23
23 -19 20 19 10 -10 28 1 13 -6 12 0 -30 -10 -11 -30
4 11 5 3 2 -2 -8 -10 0 9 -14 0 -1 -4 4 -4
-11 -10 16 -20 -12 0 17 10 -12 -13 26 11 -24 -2 12 -12
7 -30 22 9 18 -17 37 12 -8 -1 -7 4 -21 -17 -21 -23
11 9 -7 -12 12 -15 13 -6 -16 -5 -17 4 -9 0 2 19
-2 -22 28 -12 3 -11 19 6 -2 5 9 1 -22 -10 -2 -24
-8 -12 23 27 22 1 -34 -22 16 10 5 -4 -22 -13 -12 3
11 -16 12 1 -1 -4 -11 5 2 -40 15 2 -15 -22 22 6
-6 -13 25 17 3 3 9 8 10 -2 0 8 -1 2 2 -4
-15 -12 -9 3 1 -8 -5 -13 9 6 -15 -7 4 -12 -3 -26
-12 -17 1 -4 13 -2 8 -15 8 10 0 4 -12 -6 -8 -20
-3 -11 -2 0 -7 3 -3 -3 -11 19 23 2 -11 -2 6 -6
-2 -4 -2 4 -1 0 1 -6 9 0 -18 -6 -4 9 -11 -11
-8 -15 -5 14 8 -6 -1 -4 -11 25 -23 -8 12 3 -26 -3
-21 -14 -5 -9 14 -9 2 -5 -4 0 -13 -1 -13 -4 -5 -1
15 5 9 16 16 -2 1 -2 -8 6 16 8 -3 -2 -1 -6
24 -11 5 21 8 -7 1 10 -5 4 12 -3 -6 -11 -3 6
10 2 -5 12 12 -15 -9 -11 -16 -3 -1 -2 4 -21 0 -5
-13 0 15 -11 -6 0 14 -1 4 -25 14 6 2 -11 -2 -14
10 -22 25 8 2 -16 13 3 -3 -56 -16 13 -20 -17 17 12
6 5 -6 -11 15 -4 -14 -11 -2 3 -11 11 -2 -5 -19 2
-7 -10 6 -18 -16 -8 10 -2 -6 -24 -16 13 -23 -9 15 5
6 -4 -9 15 -1 5 1 -9 -2 9 0 1 3 -5 5 5
14 -16 -1 9 -3 -5 -3 -15 0 0 -11 -11 -11 -7 -15 -7
10 0 -9 11 3 4 7 7 8 -3 3 3 -1 6 -12 0
5 -11 -19 1 -7 -11 -6 -12 -5 4 -1 11 -2 -6 3 4
11 -12 -3 9 10 -2 -20 -5 4 4 2 1 0 -15 -5 5
-4 -9 -15 11 6 6 -4 -5 6 15 -6 -22 -14 -11 5 -3
1 -1 2 3 8 9 4 4 -10 5 14 -7 2 -1 8 -1
12 -12 -11 -13 12 -5 3 -2 13 4 10 12 7 -1 7 -18
4 1 5 4 -11 -7 -10 -3 5 -8 -5 6 -10 10 7 -3
1 9 -8 1 -7 -6 -5 1 -4 0 -4 8 6 5 0 2
9 13 -3 3 -5 3 21 11 -3 -6 1 -5 -5 -6 -7 -3
-5 -6 10 -2 -3 -2 7 -3 -10 10 6 2 2 9 -7 6
-6 4 9 5 -8 -5 -17 3 -14 6 0 5 1 -1 -9 -4
-2 13 -7 8 -9 -9 6 -1 -6 -1 -12 12 15 -12 -3 2
4 -6 -7 0 11 6 6 -5 -6 4 -4 7 -7 -7 -6 7
-1 -10 0 14 1 -11 -6 -4 0 7 6 -5 2 -3 -11 -7
-5 -2 -6 -15 -14 -11 -6 1 -22 5 -8 -7 23 4 11 -18
1 -19 -17 -4 60 -31 7 -27 -6 14 -19 -10 -5 -8 -20 9
12 -7 -6 20 -5 -3 2 14 -3 -5 3 4 3 6 -5 -4
-3 0 1 -19 -21 -8 6 -34 -8 9 -25 5 9 4 4 7
0 -1 -4 -28 -11 -4 -4 -34 4 8 -31 8 12 3 4 -1
6 -14 -10 3 4 5 -2 21 -11 27 -23 -20 -15 3 28 -18
2 -4 19 9 1 -4 -2 2 0 6 5 -8 10 -4 -10 -12
-4 -1 -6 16 -23 12 -4 11 4 11 14 4 10 -6 15 12
-7 2 1 -16 -19 -5 -9 -18 9 2 -21 15 -2 8 -17 7
11 -4 0 7 -5 -6 -3 20 18 2 18 8 -6 -6 0 14
21 -7 -3 15 11 3 3 31 13 -2 22 -12 -15 -13 1 -14
4 9 -10 4 10 1 -10 -7 4 0 -6 -14 -6 -7 -11 -1
-14 -1 10 -13 -6 -21 -3 -21 -2 -4 -1 9 -20 4 -8 3
6 -11 -2 1 4 -11 12 9 -1 -12 5 21 12 -2 -21 8
2 -8 -7 13 9 -9 16 -3 -15 -18 15 17 -3 -21 8 1
-7 -3 13 7 14 -13 -6 -12 9 12 9 6 -5 7 -18 0
-5 4 4 -5 12 0 -18 -4 0 3 20 -4 -5 11 -6 -5
-1 -20 -17 -2 -9 -18 18 -16 -33 -15 -16 -8 15 1 -4 14
-4 -9 -9 -2 -3 -3 9 14 -5 -10 3 -10 8 -12 -6 4
-23 -14 13 -7 -2 -11 11 -19 -9 16 -14 3 -2 -1 -5 -13
-11 -7 8 -5 -1 5 -4 -1 5 23 12 2 3 -5 3 6
2 -8 -6 10 -8 -3 -9 5 -1 27 -8 -17 -13 -3 15 -12
2 -15 1 21 15 2 -10 12 1 5 20 5 8 -3 -7 -2
-3 -18 15 -7 9 0 -12 -14 -2 7 -6 5 4 -14 11 -6
-14 7 -15 -18 -6 -8 -9 -10 -7 -6 6 -1 -2 4 0 10
13 0 -14 -20 18 -8 -11 -1 9 -1 8 1 -2 15 2 1
9 -13 -6 -1 4 1 6 8 -7 -2 7 8 -8 3 7 8
0 3 -9 0 -2 4 -3 -12 -14 -2 -12 -13 7 -10 -9 -5
-5 1 -10 5 2 -9 1 -1 -3 -14 -8 1 -1 1 -8 19
2 -9 0 -3 -22 -11 1 -5 -7 -41 -1 11 4 3 -15 9
0 4 -6 9 5 8 -10 3 11 7 11 11 -4 -3 -2 -1
0 -11 7 -5 -16 -12 -2 -19 2 -25 6 -5 15 5 3 10
