-20 -24 0 -16 6 -16 -15 -27
2 -27 1 12 -11 -24 1 25
-16 15 22 -2 3 0 12 7
18 -3 -17 -4 12 -22 -13 -6
12 19 37 8 -3 0 7 -5
9 13 22 -8 5 -25 -17 15
-1 -3 -24 -45 -6 -11 -15 -4
-13 2 -14 6 -28 -6 -17 0
-22 -36 33 35 15 -7 1 31
19 -45 -9 15 -31 -13 -5 37
27 35 -11 -3 -11 -9 -26 0
10 -33 38 24 -10 5 -29 -13
12 36 11 -14 -2 -17 56 1
-11 -4 -13 5 16 10 5 -18
20 -13 -19 -37 10 20 29 12
22 -12 23 35 -34 28 22 -17
30 -1 -7 -6 -6 -10 18 4
-18 -22 -38 24 -8 -3 -30 23
5 12 -6 3 -14 6 -74 -2
17 -35 -30 -16 -5 -14 -45 -15
-11 15 -12 0 14 21 18 7
8 -17 19 12 11 -13 -1 3
17 0 -47 -8 -36 -13 21 14
-37 -2 -31 7 28 22 12 -5
28 -28 14 -14 -33 7 35 -16
14 -12 25 -20 -3 9 22 13
18 24 20 28 -12 -8 -2 15
-6 39 -14 11 -4 -12 -23 27
-9 -16 5 -5 -11 -31 1 2
30 -20 -10 7 -11 18 24 -26
14 5 -40 -7 4 -5 -19 27
-1 1 -8 1 -10 -1 -15 4
-10 -16 -6 65 -26 -4 -11 72
24 14 30 -15 -3 30 0 15
27 -63 -51 -14 36 -25 19 -6
-9 -25 2 32 -10 5 -11 -11
-1 -7 -11 -14 -40 30 67 10
17 -20 -11 -27 18 18 -10 3
12 -39 -36 -17 3 26 -14 30
19 -94 -47 -30 -50 7 -12 6
1 9 15 11 4 21 18 27
-8 -23 -8 -6 -1 25 -4 4
-1 6 -29 -50 -1 6 -44 -47
6 11 -14 6 17 18 19 5
4 -8 -22 4 -25 11 7 -4
3 -9 -29 20 -12 0 -20 25
37 -6 -12 -13 -8 14 -9 -22
-7 -8 11 -35 -5 29 -29 -43
24 -19 -25 -57 -9 10 2 -34
-13 -1 -22 -20 7 -29 31 -22
-7 8 -18 -21 16 2 17 17
54 -13 16 -34 32 -11 -21 28
-24 -13 -18 -23 -20 0 -15 28
-9 -1 19 -3 15 15 2 -8
20 44 -5 14 10 -28 -63 -25
-2 2 -2 5 -5 -13 21 34
-36 -33 25 -10 -7 -5 -45 17
-18 -10 -5 6 -36 20 14 -24
6 7 -7 6 19 0 7 5
24 -27 34 25 4 17 -20 0
1 35 17 -18 -2 -2 16 -12
8 -23 -5 9 29 -21 -5 20
24 -11 -34 -24 -22 5 -82 19
56 28 29 -31 -34 -41 11 64
-16 -9 -3 -4 -21 32 -44 -15
-26 27 22 -21 5 6 -22 -28
-10 0 -23 0 19 -8 -27 -9
8 -22 17 2 5 -24 4 26
-18 -2 9 26 2 -1 8 -7
19 0 -21 12 -16 -9 -44 -2
34 -16 -17 -6 -10 2 -20 -10
-14 -17 35 20 5 -16 1 26
