2 21 27 15 16 13 -5 -4 -8 -5 -7 -15 26 2 -13 -9
-9 -3 -11 1 -2 -2 -3 17 -4 -8 -3 -9 1 12 -4 -6
-1 19 6 0 4 30 -3 24 -1 2 -7 -23 -5 -1 -11 -12
-13 12 2 1 20 3 7 13 9 2 -18 -6 -3 0 -22 -5
-4 -7 -8 -5 3 -12 9 -16 4 -7 -11 5 1 2 -4 6
-12 3 -6 -1 7 14 -3 6 2 -10 -1 15 -3 6 -3 14
-6 7 -17 5 -1 0 7 -5 3 -1 -18 -6 -13 19 5 -2
-13 3 7 19 -6 11 6 -18 -14 -4 -12 0 -15 -35 -5 -19
-8 6 19 -1 16 12 3 -12 -8 -5 -4 -7 18 -18 -11 -13
-8 11 20 4 9 19 14 11 -23 -16 -6 -3 9 -13 -16 -3
-23 9 6 -13 -2 -14 2 -3 -12 -19 25 12 -8 -33 10 12
-26 1 -19 15 -10 8 1 19 -12 -13 -13 -3 -23 -13 -6 1
4 -6 19 7 10 3 9 9 -13 -15 -10 -2 6 -8 -11 4
22 11 -14 -4 11 -2 -11 16 -11 -18 -8 0 12 19 -6 0
-8 -2 -7 -1 5 7 -3 -5 -3 -7 -1 -9 -18 -10 -3 -2
5 -3 -5 -6 -7 -10 14 -5 10 -7 2 1 3 4 -2 2
-8 25 19 29 31 17 -2 18 -2 4 -11 6 23 -5 -16 -8
-9 2 -10 -10 -2 -14 6 14 11 2 -4 -8 0 14 -10 -5
-5 21 10 11 -3 16 -8 18 -15 -3 7 -2 -12 -12 -11 1
-13 3 2 -1 8 9 8 20 9 -4 -12 -18 3 0 -29 -12
5 7 -3 -10 6 -5 8 -12 -13 -19 -16 -2 -5 11 -7 -2
-5 -7 5 -10 -8 3 2 14 -4 -3 -19 5 2 10 -3 8
-3 -4 0 -5 1 -5 -1 -5 13 -1 15 4 -18 8 -11 -9
7 -1 4 6 11 15 4 -20 -11 -16 -14 3 -2 -38 -24 -2
-3 12 22 17 23 27 3 35 -9 0 -12 2 31 4 -11 -16
-7 8 10 17 13 17 7 9 -5 -12 1 2 5 -16 -23 0
-15 -1 14 -18 -4 -4 0 -1 2 -1 24 4 -7 -18 -2 10
-30 2 -6 1 -9 16 -5 9 -16 -11 -1 4 -3 -19 0 -1
13 9 17 3 27 8 0 5 -24 -22 -11 6 26 3 -14 4
11 10 -19 6 0 4 -3 16 -11 -12 -1 6 5 8 -3 8
2 6 5 2 1 11 6 -15 -5 -6 -8 -3 -17 -16 -6 2
-10 -1 -1 -2 3 -5 18 -11 12 9 12 -5 -1 0 0 3
-11 18 17 25 13 23 -1 18 -6 2 -3 10 6 -6 -26 -12
-13 -4 -14 -3 7 -4 2 -2 3 -11 -16 -17 -1 2 -7 -14
-28 3 10 -3 -2 13 -18 -12 -11 -8 -3 -4 -11 -19 -6 -1
-9 8 0 6 8 8 11 18 14 0 7 -15 -8 -7 -17 -17
-2 8 2 3 0 -3 6 -3 -13 -15 7 1 -1 8 1 -8
4 4 12 1 -6 -6 1 -16 11 -8 -5 -2 7 2 -8 -8
-6 8 0 13 -5 4 11 -5 -9 -7 -2 4 -16 4 -10 -8
8 8 -7 17 3 4 -6 -17 6 7 -10 9 -5 -22 -13 -2
-6 11 -3 8 -6 8 3 22 13 4 4 6 5 -15 -9 -13
-1 13 10 16 7 16 0 14 -7 -6 -13 6 12 -15 -19 1
14 6 -13 -24 9 -12 3 4 39 11 -25 -19 5 34 15 -7
-33 9 -5 -12 4 7 -1 11 -21 -10 -12 -6 -11 -10 -1 -9
1 9 -8 5 21 6 3 23 -4 -8 -12 -3 16 3 -22 0
11 10 -11 -2 6 -8 -4 9 -11 -4 -5 4 9 12 6 17
-18 7 13 -4 12 14 8 -1 -3 -4 -14 -5 -9 -9 -5 -17
-15 3 -1 -1 -3 -6 11 -1 4 -5 7 1 1 0 -6 -1
7 18 18 6 19 9 -6 -4 -16 -6 -8 -10 10 8 -22 -18
-7 -7 0 2 -6 -2 1 0 -3 -11 -1 5 0 11 -4 10
6 26 5 16 9 23 3 34 -5 -8 -5 -11 -4 1 1 -6
-10 11 7 -8 12 8 4 4 4 -9 -30 -4 6 -6 -20 -3
-2 -2 -10 -16 2 0 22 -3 -8 -6 -8 7 0 8 4 6
-16 -3 1 6 11 7 -1 8 1 -13 -12 21 0 -4 -9 21
1 -2 -19 -2 7 3 7 0 23 7 -14 -10 -10 20 -4 -6
-2 -5 -7 0 -1 13 -3 -3 -14 -10 -4 -6 -10 -14 -11 -4
-12 6 8 1 9 10 9 -16 -20 -17 -12 -7 15 -21 -19 -16
-8 2 18 1 9 11 12 5 -10 -9 -6 -5 0 -7 -21 -22
-38 8 5 3 -12 4 11 -2 -19 -25 45 13 -10 -39 2 31
-35 11 -9 22 -10 11 -4 6 -23 -14 5 2 -14 -13 1 -6
-6 -9 10 10 4 7 17 -3 7 -9 15 2 -14 -4 0 3
5 5 -13 4 11 -1 -2 1 -3 -14 -4 -3 1 15 -7 8
-5 5 1 19 3 6 -1 7 -6 -9 4 -6 -13 -7 -7 3
-6 5 4 2 -7 -1 18 -5 18 0 -1 -7 0 9 -6 -5
3 14 14 13 24 18 -5 4 0 2 -11 8 15 -2 -22 -17
-6 -2 0 4 -7 -10 6 9 -9 -15 6 3 -1 -7 -7 23
-14 12 17 17 -7 20 -13 12 -11 0 1 -7 -5 -16 -5 0
-7 10 -3 -6 15 -1 6 15 12 -3 -17 -10 13 1 -13 -5
8 0 -17 -9 -2 -3 20 6 -14 -14 -7 9 4 12 -6 12
-6 -3 17 -8 5 -3 10 7 1 0 -27 4 7 8 -6 9
-6 -5 3 0 1 1 11 0 22 19 13 -5 -3 11 -16 -7
2 -3 -18 6 -1 7 -9 -10 -22 -4 0 7 -10 -11 -16 14
6 15 16 15 17 13 -3 32 -10 -6 -16 1 21 4 -9 -10
-3 -3 6 4 7 15 2 -5 -2 -1 7 1 -2 -8 -17 -7
-33 13 18 -3 -4 20 -4 11 -24 -27 15 7 -14 -16 -6 15
-23 0 4 25 -6 24 -6 -1 -22 -14 8 -3 -1 -23 -9 -2
7 15 12 5 11 6 7 -4 5 -5 15 3 16 13 -1 8
8 1 1 13 -10 7 -5 -8 -6 -7 3 -3 -5 4 0 7
-2 -2 12 16 5 15 -8 0 -16 -5 8 -7 -6 -16 -3 -3
-3 3 -6 -13 1 -10 18 -4 13 10 16 -18 -1 -9 1 -13
-14 14 13 12 11 22 2 4 -11 -5 -3 18 0 -18 -33 -4
0 4 4 2 -2 4 9 6 -26 -33 1 -2 1 1 -15 12
-23 6 12 6 1 5 -8 -12 -21 -13 0 3 -16 -29 -6 -9
-9 7 -8 10 8 -7 4 17 9 -3 1 -21 5 -5 -18 -7
-1 7 -9 -3 -3 -2 15 4 -13 -9 6 7 -1 10 3 6
5 -3 14 -6 6 3 -6 -16 4 -11 -11 -5 11 0 -8 4
0 4 -2 15 -1 -1 13 11 3 9 -6 -11 -6 11 -9 -18
3 6 -19 4 -3 8 -5 -2 -9 13 -3 1 -8 -6 -23 3
-4 12 -15 11 -3 10 -5 13 3 -1 0 -5 3 -6 -5 -14
2 -1 6 8 7 6 -3 14 6 -5 -5 -2 0 0 -26 11
16 13 -11 -22 5 -1 7 19 17 -3 -62 -43 3 34 4 -23
-31 -4 10 -1 -6 11 -1 -6 -23 -5 -16 -2 -9 -13 -5 -9
-1 -2 -5 12 5 -4 7 11 19 -8 2 -6 6 12 -7 12
14 -3 12 2 -11 0 -1 -9 2 -4 -9 -3 -2 5 6 8
-13 0 22 16 11 15 6 3 -20 -9 -3 -8 -3 -14 -8 -4
-11 -2 -2 -5 3 -4 17 1 4 1 12 -10 -7 8 3 -3
-7 17 9 8 12 20 0 5 -19 -11 -3 -5 11 -1 -16 -17
-1 -5 7 -4 3 -2 8 4 19 2 4 -10 9 -11 -5 -18
-11 21 7 36 12 44 3 21 -6 -5 -12 -10 -2 -7 5 -6
-4 0 -2 -4 14 -3 9 6 -11 -20 -33 5 7 -2 -18 13
0 -3 -17 -3 3 -14 10 -4 -4 -12 -17 5 2 15 1 5
-8 3 0 3 2 8 -2 6 -19 -20 -4 12 9 5 -5 11
-1 -1 -6 0 -3 7 24 14 9 -5 -23 5 0 18 -9 1
-6 1 -23 -12 0 0 6 3 12 20 -12 -4 -7 3 -29 -12
-3 1 4 -11 17 11 4 -6 -13 -15 6 -7 -3 -19 -28 -3
-4 -2 0 -12 3 9 12 -3 -14 -3 3 -14 6 -9 -18 -18
-15 1 25 -7 -18 -2 4 -25 13 -7 34 14 -9 -35 17 7
-40 -5 -13 37 -10 20 0 2 -13 -13 8 -8 -18 -20 6 -6
-18 -2 12 5 -8 12 20 10 15 13 21 -4 -19 -5 5 -6
-7 9 -3 7 9 8 -9 -2 -7 -5 11 2 -2 -2 3 8
-17 10 3 24 3 3 3 11 -9 -12 -10 -2 -11 -16 0 0
-10 8 2 -1 -5 -10 18 -5 2 -4 2 8 7 5 2 -7
-7 24 15 3 20 27 -5 17 -2 -5 1 -1 11 -6 -20 -5
-13 -2 16 0 -1 -4 1 -13 3 -10 5 -7 8 -20 -4 -10
-20 15 21 36 -5 26 -5 7 -1 -10 5 -8 -10 -27 -4 -5
-1 0 -1 -10 10 -4 5 13 -10 -14 -20 2 10 -2 -16 11
8 -3 -33 -3 6 -4 12 8 -9 -8 -18 8 10 13 -2 10
-5 5 14 -11 6 -9 -1 9 -8 0 -26 2 12 5 -5 0
-7 -1 3 4 1 2 10 22 7 -1 -5 -9 0 14 -7 -3
6 -4 -37 -4 11 3 0 -3 -2 10 -1 4 11 13 -23 -4
-8 24 0 -3 20 19 -4 35 -13 -9 5 -17 11 -6 -14 -7
5 7 -12 -16 14 -1 -6 -5 3 3 1 -10 1 -3 -11 -6
-2 -9 19 -14 -12 7 1 -3 12 -12 6 9 -5 -9 2 -8
-32 -2 13 41 -10 29 3 -2 -13 -2 0 -10 -18 -24 -6 -19
-5 14 -2 9 -3 4 0 -3 21 1 26 -6 -9 2 8 -2
-3 2 10 17 -2 22 -6 -12 -1 -6 26 4 0 -10 12 2
-15 9 24 26 1 17 2 14 -8 -8 -1 8 -8 -13 -11 6
-10 2 -3 -6 6 -12 19 1 15 3 5 -3 -7 -7 4 -9
-17 15 16 13 8 25 5 15 -5 -7 -4 4 -2 -15 -24 2
-12 3 16 12 -8 -2 -1 -7 -17 -30 7 -6 11 -15 -15 -4
-37 2 30 20 -5 12 1 -23 -10 -12 -4 -4 -22 -35 -7 -5
-2 -3 -17 -2 -2 -18 4 2 0 -14 10 7 -1 2 -21 7
5 5 -19 -10 4 -5 19 8 1 -4 -6 -5 0 17 -7 -3
3 5 5 8 -3 0 -5 -11 -11 -6 -5 3 12 7 -6 2
5 4 -4 11 -1 7 15 20 -16 -2 0 -19 5 7 -5 -3
6 0 -34 -6 2 -7 -8 0 5 13 -7 -5 6 8 -34 -15
-16 9 -12 6 5 8 4 13 -2 4 4 -16 2 -19 -5 -13
6 2 -5 -4 14 6 4 4 -10 4 -5 -8 1 -12 -13 -2
16 17 -20 -17 -5 5 11 15 50 12 -44 -34 5 38 8 -26
-30 -2 13 20 -3 24 7 -2 -8 -9 -8 -8 -21 -13 1 -21
-14 8 -16 8 -10 -6 11 14 21 0 15 -9 -16 5 -1 -3
7 -5 25 6 2 9 -5 -18 3 2 3 2 4 5 19 2
-18 3 40 20 -3 17 5 12 -17 -18 -1 -4 -8 -20 -1 -1
-10 5 -1 -8 3 -6 12 0 6 0 7 -8 3 9 -12 -3
