20 -19 -5 -10 -21 -2 8 39 -22 -16 33 9 -23 5 23 -7
6 -9 1 5 -8 9 10 10 -12 -12 -7 -19 -19 8 -30 8
3 1 15 -4 -20 2 -19 -14 -20 -18 28 7 -17 14 -4 1
-8 -17 -3 -7 17 7 4 -1 21 -1 -12 19 -35 17 13 -23
-11 -6 -9 -36 -23 12 27 33 -12 -34 -2 11 2 10 8 5
-29 23 35 20 13 37 -22 -30 16 1 16 30 -1 -4 -14 -5
-2 23 -6 -3 -30 22 -25 26 -3 -14 -10 -4 -7 -10 0 -13
13 -22 41 15 33 10 -21 -20 25 -2 2 23 1 18 -22 19
-16 -13 -13 -11 -25 -10 9 -8 -2 8 19 -18 -3 11 11 -40
5 1 3 31 5 11 0 -14 -3 6 11 -14 15 10 -9 12
1 7 -15 -10 -22 -5 -5 24 -21 -26 -8 0 -15 10 -5 -20
3 7 43 19 36 9 6 -8 -12 3 11 15 17 23 -31 8
3 -27 7 17 9 15 -23 1 -23 -31 3 -5 13 11 16 -18
-15 -17 37 17 32 -16 14 -14 -10 -2 -17 -8 3 -9 -39 -3
-17 -27 -5 -8 12 4 13 -7 26 -7 14 0 18 15 -9 -14
-4 19 -14 -14 21 6 -10 -21 -10 -22 12 -12 -27 24 -11 13
-15 1 -19 0 -17 -6 8 -5 4 -37 -8 22 -1 10 23 -39
-2 -27 24 -3 0 23 6 -11 -27 -8 -7 18 -23 35 -1 0
30 -2 11 -21 0 27 8 41 -2 -22 28 -6 -26 12 -11 -24
2 -34 0 28 28 35 -25 -28 13 -1 -34 -12 -15 25 -5 1
23 4 -7 -10 -18 10 19 26 -29 -22 0 12 -27 21 -6 -44
21 -2 30 11 -1 27 -2 -8 31 4 -4 -9 -14 14 -10 15
0 2 -4 -17 -22 13 -11 8 -24 -46 52 3 -14 -4 -8 -24
-22 10 49 32 44 31 7 -23 -18 1 3 24 -13 48 -44 -5
8 1 16 -15 -4 35 16 32 -15 -45 30 14 12 -4 -9 -29
-23 9 -1 28 24 19 1 -9 2 13 -9 21 11 25 -11 -13
9 -10 20 -14 -24 24 -27 12 -27 -45 12 33 -5 5 2 -45
-10 17 18 0 52 19 3 7 -12 -22 3 35 0 55 -30 25
-17 14 7 2 -31 7 16 9 -21 -19 26 7 -27 1 23 8
-32 -20 0 19 5 32 10 -9 27 0 -8 -15 -1 15 -43 -4
21 5 -17 -22 -8 35 -10 0 -2 -19 22 0 -2 26 11 -30
-4 -27 13 14 29 18 -2 11 5 -12 -14 0 -9 33 -23 26
18 30 -6 7 -28 42 5 4 3 -22 19 6 6 21 -16 -17
-16 -28 15 17 -2 10 -22 -3 14 -20 -38 -5 8 19 -38 -9
6 8 8 -7 8 17 26 17 1 -31 35 -11 21 -8 14 -14
-13 -17 -4 21 13 19 -26 -14 5 -7 -25 -21 5 9 -43 7
16 -13 -25 -21 -23 22 17 14 21 -22 31 18 13 15 -2 -44
-13 -23 39 16 -2 11 9 -31 13 -1 -31 30 3 42 -37 -3
24 -6 3 -4 -4 14 -20 45 -37 -26 31 22 -5 12 -1 -47
-23 -22 38 35 26 40 29 -8 8 15 -23 21 18 32 -37 -18
1 34 25 -22 -29 40 -11 12 -11 -19 2 23 -7 -11 12 -21
-25 11 21 -11 29 39 24 -12 8 -1 12 -15 -8 30 -19 -1
-5 -16 -9 -18 -12 50 -17 32 29 -25 21 28 8 20 15 -47
-16 -10 50 9 16 19 15 -13 15 -2 0 17 2 41 -49 18
22 21 -28 1 1 13 -2 5 -11 -15 36 -2 -11 -7 -16 -7
14 -5 21 24 19 22 -1 4 15 -2 18 5 0 40 -17 13
3 4 -1 -20 -25 24 20 2 8 -49 33 6 -18 19 25 -13
-21 -9 25 5 3 -3 -6 14 -14 1 -19 -2 11 17 -25 5
-11 -23 28 -28 -20 18 4 6 22 11 29 -17 -11 27 10 -3
-24 -22 33 18 -7 -1 22 -28 -9 18 -12 -11 14 -9 -30 -5
-28 7 -4 17 -4 -13 2 -2 31 7 27 -17 8 -11 -1 -7
-19 -10 24 12 -9 -14 0 -19 9 14 18 2 -5 -1 -24 -9
-19 34 -6 -3 -17 36 11 23 -11 -35 43 -3 -27 -1 15 -20
18 -23 16 14 37 9 17 2 -15 -23 -15 15 -25 17 -30 -9
0 -24 3 16 -9 22 12 17 2 -33 29 9 -22 9 -12 -5
2 -15 27 -1 10 -2 -1 -13 -20 3 -21 -2 3 16 -39 -8
7 5 1 5 19 0 -6 25 -25 -26 20 27 24 14 -3 -9
-1 -5 19 -1 22 18 -26 18 -30 4 -3 -11 15 37 -13 23
-10 10 -26 -22 -18 26 0 14 -20 -40 3 12 18 29 28 7
-4 -2 36 3 7 12 16 4 -10 -2 -13 5 20 12 -30 -6
-20 -11 -10 5 -1 27 -25 13 -4 0 0 -3 19 13 -25 -16
-9 3 37 -11 37 -16 21 25 -10 -8 -22 22 24 44 -32 12
-20 16 3 -18 -10 -6 -4 21 14 1 -18 12 29 4 25 -11
-9 2 -11 11 -1 5 -6 -5 27 0 2 6 -12 -7 -9 -13
