5 7 8 -2 3 11 -6 -6 -6 7 -7 1 -5 4 5 7
-1 1 -8 0 14 -4 3 -10 0 1 3 0 6 -10 10 2
-6 -12 0 5 8 1 4 -7 -9 1 5 -1 0 -9 3 3
-9 -5 7 1 -5 2 8 4 7 5 -6 6 -4 0 -1 13
-11 -4 0 -11 -12 -1 -1 1 -11 11 -4 -1 2 5 -10 -4
13 -1 5 -4 -7 1 -4 -7 1 6 -8 2 4 -6 7 0
2 -6 3 -1 -2 1 -6 7 2 -2 -1 -9 -7 -5 -22 -10
-2 1 -3 -15 -4 3 3 -11 4 -7 -26 2 -2 12 1 10
-9 -3 -19 -4 -1 -3 -21 1 10 -1 -15 -8 -8 -1 -7 8
5 2 3 7 -1 2 -2 6 1 0 -3 -4 5 11 -2 2
-11 6 1 -6 7 6 1 -4 -2 -8 -11 4 0 4 2 5
-2 -11 11 -1 -7 12 8 14 -4 3 -4 2 -4 2 7 -2
-4 3 16 4 8 -9 7 -10 1 3 6 1 6 3 3 0
-1 8 -4 3 7 -12 4 5 -7 -11 -8 0 -1 11 -2 5
-1 7 5 -5 -8 -3 2 1 -1 10 -9 6 -7 -2 12 6
0 10 1 -10 2 1 -17 -4 6 -12 -27 -4 3 -1 -1 1
8 20 13 -20 15 -2 -28 -1 -6 -2 -16 0 -6 3 2 12
7 -4 -7 3 2 -8 -2 4 -10 1 4 5 -10 -5 6 -6
-3 -10 7 1 11 -1 2 0 -6 -1 0 1 8 -23 -10 6
-7 -1 5 4 0 1 -3 -9 6 1 -2 9 -12 2 -3 9
1 -6 -1 3 1 6 6 12 5 12 1 3 3 10 -2 -19
5 1 -3 11 3 -4 -25 0 -2 -2 -2 3 -3 4 6 3
-1 11 -4 -5 0 11 -16 10 -13 -7 -6 -5 -6 2 -22 -1
1 -4 -5 -38 -6 -2 0 -6 5 -1 -36 4 2 4 5 0
-4 -3 -9 -1 3 -6 -3 -5 -4 6 -2 -3 -6 2 3 0
9 4 4 8 -3 -6 -6 -1 -3 -2 2 8 2 1 -3 -3
-14 5 -1 -14 -8 6 -2 12 -4 -7 3 8 4 -4 -3 -11
0 -3 3 2 -9 -4 12 7 2 -10 0 1 2 11 14 -2
1 6 8 3 5 -6 0 3 -10 2 3 10 6 1 -2 8
3 -2 4 -8 2 -20 -5 -7 2 -9 -1 9 0 11 0 6
8 12 -4 -10 -10 3 -1 1 -2 1 -17 -1 -16 10 0 6
-1 6 -6 -17 15 0 -30 2 1 -14 -39 -7 -6 7 12 4
-5 23 7 -11 15 8 -43 -14 -2 -8 -16 -5 -12 -3 2 2
9 6 1 2 -5 -5 -5 15 -3 1 7 2 -8 4 -12 2
-23 10 1 3 -1 5 7 -5 -7 2 8 -1 4 -13 -9 2
2 6 5 -3 1 -1 -7 -2 8 -3 -1 2 -7 6 -6 11
-3 -11 -8 9 -1 2 0 6 3 8 -5 1 8 -8 -4 -11
4 -2 8 -4 6 -3 -11 7 3 2 2 -6 7 -3 1 -14
2 -4 4 -4 4 2 -3 8 3 4 -6 -12 -16 -4 -14 -6
2 4 -3 -35 12 -13 -4 -17 3 6 -33 5 9 1 7 -2
-9 -4 0 5 -4 6 4 1 5 4 6 4 2 -8 10 -2
0 -9 4 1 -3 6 -5 -1 -2 11 8 3 6 0 0 -9
-9 -3 -1 -2 -20 11 11 7 1 -3 -3 -10 8 -27 4 -19
-8 -5 11 3 -7 9 3 4 13 3 2 9 4 -11 17 2
-1 1 8 3 11 0 4 -8 -1 1 1 2 4 5 1 -7
4 -1 0 -2 -6 -27 4 2 5 -1 3 9 1 9 9 -3
-2 14 -3 -15 -15 7 4 -4 -5 2 -7 2 -7 4 -3 -1
-1 8 10 -37 14 -2 -14 -4 6 -16 -30 1 -16 5 8 10
1 17 8 -9 4 -1 -22 -4 -16 4 -2 6 -12 0 13 5
-3 -9 -15 -5 3 -3 -3 10 -7 4 10 -8 -13 0 5 -13
-9 -9 4 2 14 1 8 -10 -3 1 11 2 -1 -11 -1 7
-4 -6 -6 1 -2 2 -3 -11 4 1 -3 0 -7 2 2 13
7 -9 9 -8 -1 6 9 7 -13 2 -11 -2 5 9 10 -12
12 -4 -8 -2 1 8 -17 5 6 -3 5 6 -6 5 3 0
5 -4 18 -6 2 11 -23 11 -14 4 -1 -3 6 -5 -18 -5
9 6 7 -13 -2 5 -1 -4 -4 -4 -30 5 8 6 11 5
-4 1 -18 1 0 -10 -18 12 4 -3 -14 -19 -15 5 10 0
8 -4 -11 1 -2 -3 -20 8 -14 1 -1 -4 0 1 2 -2
-2 14 9 -10 0 1 2 9 -3 -6 -2 -7 5 0 9 -1
6 -11 9 0 -6 7 -4 16 -12 6 -4 3 -4 10 11 -2
-6 -3 -1 4 14 4 -7 -2 -5 -1 4 -3 5 8 -4 -4
7 3 2 -2 3 -23 -1 7 -8 2 -3 -5 4 2 2 2
9 3 -3 -5 -9 -1 6 3 19 -12 -13 4 0 6 2 7
-2 1 8 -3 -6 2 -29 -2 -15 -3 -22 3 -14 8 7 9
6 16 8 -20 6 8 -54 -4 -35 -7 -17 13 -20 13 14 13
14 8 -8 -4 -7 -9 -15 13 -13 2 -2 1 -23 10 -15 -5
-11 -2 7 -2 -2 10 10 -10 1 -2 8 11 -1 -31 -15 2
-5 -3 1 -1 9 1 -11 -4 3 -6 4 5 -10 14 1 2
10 -17 4 -8 -5 8 5 20 -14 -1 -6 -14 13 5 11 -13
15 -1 -9 3 -4 -8 -42 6 -8 -7 2 2 -23 15 7 0
-8 7 19 -13 -2 7 -34 12 -24 -8 -26 -3 -14 2 -20 0
4 0 14 -40 -3 -4 3 -6 -6 -2 -52 1 3 8 11 1
19 -7 -16 0 11 -15 -17 -12 -9 -6 6 -6 -8 12 -2 -2
-1 6 -25 2 3 -8 -42 -18 -18 -12 7 12 -7 -1 -33 17
-12 15 0 -15 -18 3 10 21 3 -1 9 -8 9 -16 14 -3
18 -3 0 -4 15 -5 -13 -13 -25 1 12 -4 -8 17 -4 11
8 -1 6 2 0 -8 -24 -5 -23 -7 11 15 -5 1 -38 8
4 -1 -5 -9 8 -55 -1 3 6 -2 -5 -2 1 20 4 -1
17 12 -4 -10 -5 -2 0 1 7 -6 -12 2 -8 11 5 0
2 4 14 -5 -11 10 -37 4 -28 -6 -25 1 -13 5 4 7
-2 14 -1 -15 6 10 -46 -9 -20 4 -18 -2 -17 7 9 -2
6 1 2 -4 -2 -1 0 7 -12 0 9 -1 -20 4 0 -12
-10 -3 12 8 7 -1 0 0 -3 -4 8 2 -4 -26 -8 -7
1 3 9 2 -4 -1 -1 -4 4 -6 1 1 -9 3 2 9
3 -32 0 -6 -1 -3 4 9 -6 2 -11 -9 3 -8 -5 -14
0 -8 -6 3 8 -3 -42 2 -4 -10 3 -1 -16 -3 6 -8
6 10 4 -14 3 22 -26 7 -24 -6 -19 4 -5 -2 -19 -11
2 5 2 -45 -2 -5 7 -11 -2 3 -59 3 3 5 4 -6
3 -1 -13 13 2 -4 -1 -7 11 5 13 0 6 4 4 3
6 6 -10 7 5 -4 -27 -11 -21 5 14 7 -5 -6 -35 9
-15 4 -1 1 -17 9 14 21 -5 -4 0 -10 10 -22 12 -18
3 0 7 5 12 -14 -8 -20 -18 8 8 11 -2 7 0 0
-5 -5 2 -2 8 -5 -6 -6 -24 6 2 5 2 7 -14 10
12 5 0 4 1 -49 -4 -4 4 -1 3 -14 -7 10 9 2
12 3 -11 -17 -5 -1 -3 0 7 -10 -14 4 -8 3 -6 -2
-2 13 4 -15 1 4 -25 1 -16 -9 -27 1 -5 -2 9 4
12 12 8 -6 -3 4 -22 1 -2 -4 -9 6 -14 1 3 -1
-4 1 -10 -3 -5 0 2 14 7 -7 8 3 -6 2 -4 -16
-18 -9 1 -1 1 -5 7 -3 -7 -3 7 2 -4 -20 -14 -2
1 3 4 1 0 -9 7 -8 -14 -1 -9 1 -9 15 2 6
-9 -9 1 -8 5 1 -6 -2 -2 -3 -6 -5 8 -3 -6 -17
2 5 -8 -2 -1 -3 -16 -4 4 -6 -6 7 -5 -3 6 7
5 4 15 3 10 14 -10 3 1 -2 -7 -9 -1 -8 -11 -6
6 3 4 -22 5 -8 9 -7 -8 -3 -31 0 5 12 4 14
-5 -4 -13 10 -11 5 -5 9 9 0 0 -2 -4 -5 13 2
-9 -11 -13 2 5 6 -1 -8 6 3 3 3 6 -2 1 4
-10 3 0 -6 -14 -3 -3 -1 2 4 -3 -12 -9 -13 1 0
3 -9 11 9 -2 12 1 5 -1 2 3 -1 -1 -1 14 1
0 -9 7 0 -2 3 2 -3 2 -1 9 -3 11 1 1 1
-5 0 5 -3 -1 -18 1 4 4 -5 -6 -12 3 1 9 9
14 3 2 -12 -15 2 -9 2 7 1 -16 0 -7 -3 0 0
4 5 2 -13 -13 3 -29 1 4 -17 -33 1 -6 8 -2 6
16 19 15 -22 -9 10 -27 -5 -19 -20 -36 17 -5 10 17 -1
7 1 -4 8 -6 -3 -9 12 6 -10 -4 -4 -7 5 0 -8
-19 -7 3 9 5 -1 3 -7 0 1 10 9 8 -29 -24 4
4 -2 10 3 4 -6 -2 -10 -4 7 5 -1 1 12 14 4
-13 -15 -7 -14 -1 15 1 6 -2 -1 -11 -5 4 -14 -24 -19
20 -2 -2 6 -5 0 -43 1 0 -16 1 -12 -27 17 8 -10
-2 15 17 -9 3 10 -33 8 -18 -24 -26 -12 -2 -8 -24 -5
-3 9 10 -45 -5 -4 3 -7 -11 -6 -35 13 7 -2 17 5
6 1 -28 1 0 -11 -14 -5 -1 -8 -1 -8 -16 8 7 2
2 -1 -30 0 7 -10 -20 -13 -1 -5 19 12 -20 2 -37 6
-27 6 1 -13 -18 6 5 13 1 6 5 -22 -1 -11 12 -12
-2 3 -5 6 -3 -16 -1 -13 1 7 5 4 -14 13 -5 13
9 12 -5 -3 3 -11 -8 -4 -4 -11 6 8 -6 3 -45 2
4 1 -4 -9 6 -49 -7 7 9 4 -9 -11 1 14 6 -5
17 12 6 -17 -12 2 -4 9 3 -5 -11 6 -16 10 -7 -7
13 8 16 -14 -9 6 -20 3 -5 -24 -35 6 -13 11 7 1
13 0 8 -18 -14 7 -20 -5 -1 -11 -26 11 -7 3 7 -2
-1 2 10 -8 14 7 5 -2 3 -12 0 7 -3 5 2 -4
-16 0 4 2 -1 4 2 0 0 0 13 1 -6 -18 -20 1
3 4 5 9 7 -3 -6 -2 -2 4 4 6 -5 14 6 14
-9 -28 -7 -20 -7 9 -3 6 -6 -4 -20 0 8 -11 -23 -18
3 2 -6 -3 -7 2 -43 6 -5 -9 5 -2 -19 -3 9 -4
1 10 2 -36 1 13 -22 -3 -13 -34 -28 -4 -15 -5 -25 -4
-5 13 11 -36 -6 -10 2 -12 1 -2 -37 16 3 4 13 -3
5 -6 -10 -5 1 -3 -14 -9 -2 -15 2 0 -4 -3 1 -2
4 -9 -5 2 3 8 -15 -16 7 -5 10 15 -6 2 -22 1
-18 3 1 -12 -29 14 8 9 4 3 -3 -5 3 -14 14 -9
2 -5 -2 5 5 -9 -6 -21 0 1 7 10 -13 3 3 9
9 -1 1 -8 0 -8 -2 -15 -7 -17 2 9 1 0 -25 6
8 -1 8 -2 4 -43 0 4 6 4 -7 -13 -3 7 2 -1
16 12 6 -20 -16 1 -2 -5 11 -11 -19 12 -12 1 6 -4
-2 16 5 -15 -15 13 -13 -1 14 -19 -29 1 -1 4 6 0
